G000006985	0.24823943	-0.45898634	-0.5755668	-0.35780677	1.0094116	-0.95693195	-0.20330057	-0.92192304	0.4038654	0.6494832	-0.5684275	-0.17320134	0.17003952	-0.84280926	0.84582037	0.83226484	-1.6150806	-1.1203483	-0.54600245	0.6180459	-0.7159881	0.056306705	-1.0775927	0.9403655	0.3075636	0.076149136	2.0706177	-0.6384628	-0.34720337	-0.35619137	0.23200937	0.5627735	0.547956	0.48053467	0.54807746	-0.285788	0.17523968	0.30001467	-1.285298	-0.30875805	0.76578045	0.49179852	-0.12837908	-0.7114722	0.6448821	0.32699034	-0.23578015	-0.5678291	0.11124328	-0.00010110438	-0.49450007	-0.5655786	0.25148934	0.11799793	-0.005537644	-0.5681626	0.36742496	-0.3785107	-0.45461202	-0.28027162	1.4506294	-0.7965432	-0.7085471	0.38803518	0.8030762	-0.868733	0.6239268	0.21992348	0.29516608	1.2482339	-0.3357418	-0.7482452	-0.10151206	-1.0689244	0.34260097	-0.22387946	0.7217681	1.2210721	0.40388817	0.7280296	0.004121229	-0.30228665	1.3439436	-0.43978727	-1.4319513	0.028804913	-0.90059763	-0.8044988	0.26250622	-0.92596936	0.024166979	0.1850813	0.058965527	0.6910666	-0.6373335	-0.43025023	-0.19072035	0.6734331	-0.636275	0.9826721	-0.1636624	0.745451	-0.08774223	0.17919865	0.7902205	-0.5193019	-1.2581038	-0.19355673	1.1619638	0.016676567	-0.5142832	0.80885345	-0.2952338	0.91030294	-1.1233189	0.53690934	0.19245449	-0.71330106	-0.056883637	-1.6415888	-1.3708041	-0.13246807	0.71063495	0.7056204	-0.4224997	0.9521264	0.48051035	-1.1772614	0.33715612	-0.43680808	0.07356098	-0.5762427	0.13323282	0.4617195	-0.10430442	-1.0856491	0.18290396	-0.70150185	-0.16644056	0.67763436	0.66585946	1.0087726	-0.72921264	-0.46395615	0.9002209	0.08607474	0.31280243	-0.45642772	0.6183518	-0.17922214	0.16997787	0.6822352	0.10134952	-0.20833063	-0.0601525	-0.663003	-0.26817507	-0.23364678	-1.1615312	-0.31031528	-0.14142804	0.62039214	0.8865392	0.17312753	0.28063467	0.3784389	0.093518846	-0.63682187	0.37274605	-0.08193374	-1.2783016	-0.40831107	-0.2606639	0.9619676	0.03752224	-0.07658097	0.16406782	0.21595748	0.13109896	1.1411799	0.18359731	0.7879149	0.23364556	-0.12738332	0.1624699	1.3655516	0.89962053	0.03130938	0.4107443	-0.4164874	0.06484094	0.42557886	-0.2827566	-1.1689683	-1.160851	-0.9129761	0.18317188	0.33004412	-1.013472	-0.7480925	1.0962013	0.77531195	0.45311368	0.122880876	0.22790302	1.1565992	-0.61855406	-1.0434028	0.5020406	0.17503472	1.0607781	-0.42772478	0.37922567	1.2036903	-1.5745971	-0.5250048	0.23627797	-0.056115463	-0.53181696	-0.57994723	-0.52664435	-1.4144922	1.5363016	0.9367539	-1.1134782	-1.5097101	0.3212691	-0.69010776	-0.37802655	0.18580127	1.0849617	1.0030574	0.6486493	0.20063493	0.3251072	0.7380485	-0.06938265	0.46656716	-0.008622237	0.25253838	-0.32517853	0.4809312	-0.8401216	-0.12622626	1.1957823	0.084704824	-0.5785762	0.21767363	0.89164186	0.51291895	0.6747308	-0.29589772	0.55964416	-0.024549585	0.044017524	-1.6083182	-0.9903216	0.5491267	0.18008359	-0.30498108	-0.37857562	0.38847268	0.11269459	-0.1404471	-0.046782408	-0.2365049	-0.7245859	-0.030296892	-0.9516429	-0.6080728	0.6922937	-0.040037513	-0.61091435	-0.27902782	0.18329175	1.2112672	0.67028093	0.17051613	-1.2021662	-1.8029919	0.17195198	0.36666852	0.20957522	-1.0795988	0.71523875	-1.1189355	-0.24976858	0.07486044	0.9000893	0.32078445	-0.47403452	-0.72556186	1.6760954	0.47898862	0.28033257	0.88204503	-0.8107698	0.27161017	0.12939855	-0.21664715	-1.2758952	-0.14392918	0.14721626	0.7709825	0.048878267	1.5549273	-0.51619256	2.0665815	1.1758306	0.30218214	-1.5577812	0.49314338	-0.0625366	0.59299743	0.16104063	-0.29358548	-0.23044403	-0.5611627	0.41924834	-0.17934772	-0.7782888	-0.27861792	-0.04995362	-0.8114791	0.5748722	-0.10063146	-0.06730321	-0.75973845	-0.15007704	0.5642775	-0.009254366	0.20298046	-0.3657223	0.5589845	-0.34936365	0.7110926	0.47738338	-1.5675892	-0.7975962	0.84465337	0.5676744	0.8823207	-0.37946677	0.3879355	-0.50634664	-1.0187932	0.0665992	-0.5446386	-1.093651	0.75776225	-0.522014	-1.1265092	0.30333376	0.08436423	0.24223563	0.63771987	1.6807376	0.5829824	-0.4945888	0.44724375	-0.030514605	-0.7082763	-0.09434542	-1.0016992	0.26034927	-0.26707283	0.10277092	1.0518975	0.58171517	-0.33926088	-0.53712046	0.5541732	-0.2461814	-0.13215077	-0.25855747	-0.5917729	0.77752906	-0.22166504	-0.703637	0.036455885	0.5034226	0.5297867	0.2818851	-0.49360672	-0.4094747	0.6371093	-1.0886304	0.31257907	-0.9547863	-0.4727487	-0.20656928	-0.39422974	-0.088446565	-0.48641646	-0.54666424	-0.1486692	0.06718753	0.060764916	0.54665744	-0.29395887	1.576416	-0.99022615	0.3508246	1.0393947	0.40777978	2.1046252	1.0796777	-1.1401734	-0.31803942	-0.49183202	-1.0471972	0.16304131	0.7729608	-0.74409384	0.4459864	0.5131997	0.60374415	-0.8167481	-0.28817168	-0.18121648	-0.17355546	0.9241054	0.6017793	-0.13367677	-0.2267613	-0.739009	-0.4726339	0.29289976	0.9161518	0.091737494	1.1796705	1.1680361	0.16749406	-0.5060793	-0.37360558	-0.30980018	-0.760736	0.5781572	0.13009328	-0.528982	0.61398834	0.6404697	0.4060555	0.81592166	-0.38848808	0.6704618	0.13775665	0.53654635	-0.32884294	-1.1505915	-0.15048414	-0.60611385	0.54264545	-0.4628354	-0.2755276	0.20536782	0.111202866	-1.107698	0.57988	-1.135946	-0.5579168	-0.65367264	-0.6557874	-0.5436476	-1.1615115	0.6025681	-0.72563547	-0.5480578	0.39883268	1.002106	0.5154989	-0.4168793	-0.46457762	-0.30958718	0.56555355	0.56532365	0.6053434	-1.2713186	-0.5893726	0.4866044	-0.6312424	0.40514556	-0.20011236	-0.44131112	0.18328957	-0.4238654	-0.2777968	-0.86873525	0.95253795	-0.282749	-0.8821794	-0.22835673	-0.93423617	0.8374332	1.223764	-0.7923749	0.433681	0.40017682	0.31425196	-0.11435951	0.100108415	-0.8894037	-1.6963058	-0.9440053	-0.9401047	-0.1709095	0.24351828	0.8891613	-0.11316167	-0.1590012	-0.3473286	0.82552505	1.1998675	-0.60303575	-0.3190989	0.27109107	-0.3902889	-0.40780962	-0.9569518	0.9016852	-0.6355688	1.3866996	-1.124547	0.20416966	-0.5764925	-0.53417957	0.14864129	-0.16871613	0.052769907	0.34993935	0.20444907	-1.1046344	-0.57697713	-0.45712298	0.049756855	-0.06996317	1.0720946	0.41640627	-0.50199825	-0.060774572	0.0691575	-0.60085195	-0.33883762	-0.49000254	0.15884991	1.0571485	-0.5424863	0.15006408	0.6069411	-0.5033432	-1.2676052	0.2579042	-0.3685317	-0.49452308	-1.2082299	0.6293683	-0.25691432	0.054567017	0.038862843	-0.25237375	1.0878903	-1.1908969	-0.54013973	-0.71790254	-0.13218537	1.753621	0.4287304	-0.918398	-0.71545947	0.7992505	-0.77792454	-0.25599238	-0.43925756	-0.8870422	0.600646	-0.031156287	-1.5357627	-0.78061306	-0.63352466	-0.38830832	0.5700908	-0.5027582	-0.79349583	-0.6829081	0.33693877	0.6447051	-0.41021705	-0.5820664	0.011962831	-0.20812866	-0.6984173	0.22093204	0.01885048	0.7673304	-1.3632635	0.16384152	0.1914003	0.7143288	0.5782813	-0.23806843	1.0673255	0.52276766	1.1964397	0.2583807	-2.0240088	-0.5872973	-0.08362093	0.19476072	-0.05576119	0.09453124	-0.16106106	-0.8143776	-0.043191418	0.2230243	0.6593164	-0.2340536	-0.05238357	-0.58428764	0.4898106	1.0660721	-1.1519183	0.5362847	0.7963141	0.013527274	-0.16915318	-0.8524438	-0.029384054	-0.00068662316	-0.28271022	0.07709338	-0.44910988	-0.1020103	0.27306598	-0.06978522	1.1542169	0.6816308	-0.22650929	0.5589332	-1.4248939	0.36179945	0.048313346	-0.15952456	1.1233137	-0.43798873	-0.35256687	-0.770926	0.78355443	0.0767789	0.51574504	-0.55276954	-1.025094	0.12769602	1.0977325	-0.92020184	-0.66582334	0.97199756	1.1378963	-1.1346973	0.30726093	1.4296454	0.43859208	-1.1328108	-0.3871289	0.32275778	-0.35064927	0.4467142	0.28788984	0.52335495	-0.42588723	0.9372314	1.128129	0.8561487	-1.2227978	-0.5155774	0.0319674	0.09350091	0.81005263	0.30538887	0.1456397	0.740344	0.8612777	0.36440438	0.42667067	0.06755602	1.0902609	0.09216493	0.62416863	0.09614585	-0.59834814	-0.7540797	-0.02253148	-0.4137388	-0.85846937	0.9498	0.027160615	1.1659762	0.024604596	-1.2236886	0.3355086	0.38822034	0.116515025	-1.0625228	0.3465337	-1.0398585	0.25604355	-0.22346856	1.1928924	1.1298141	-0.26952654	-1.9626722	-0.3933152	0.35201705	-0.009589732	0.74060774	0.58413506	0.07393536	-0.842727	0.279494	0.46212864	-0.78533214	0.47628182	0.3659988	-0.24789321	0.04870356	1.388459	-0.8663183	0.7300392	0.18739228	0.34039336	0.16643736	-0.65294176	-0.23508441	-0.6151142	-0.08864713	1.0053911	0.8287558	0.45358583	-0.39338467	0.13476291	0.6233791	-0.15414545	-1.1161464	0.014032148	0.803349	0.06436527	-0.10486746	0.7770791	-0.048423603	-0.2500857	-0.43682158	-0.4464319	0.07953802	1.1927031	1.08713	0.23481701	-0.2208381	-1.7377542	0.13447283	-0.7805155	0.39379373	-0.8438593	-0.1687788	-0.93575305	0.3454215	0.010077313	-0.87875533	-0.12028916	-0.13047454	1.3136442	1.1918306	-0.2614333	0.27512005	-0.17527568	-0.15554684	-0.38326377	-1.2864684	1.0750648	-0.5305609	0.044339478	0.30745083	-0.058340415	-0.44010964	-1.694676	0.69642884	-0.10604751	-0.47945035	0.6577586	-0.8286037	0.15975069	0.5189804	-0.9439239	0.016384302	-1.1783984	-0.79379225	0.4220179	0.066958085	-0.30037513	0.40947083	0.20316488	-1.3716595	-0.53249276	0.354419	-0.9673787	0.40378878	-0.010876454	0.9732618	-0.45178488	-0.13897717	-0.32455498	1.4787045	-0.7511128	1.1341355	0.93419605	-1.3020023	1.0675732	-1.6940428	-0.6404885	-0.9960512	-0.036137678	0.34023836	-1.0780585	0.3455237	0.44970882	1.8107064	-0.03612847	-0.19993362	0.4870759	-0.36017448	1.0557096	-0.080149695	1.1010491	-0.7703404	-0.9412262	0.5564851	0.005650535	1.003952	-0.16309774	-0.01801838	-0.37242728	-0.15226518	0.05284907	-0.29761422	0.57023484	0.031487577	0.5524076	0.6092679	1.2094611	-0.9420934	-0.20231324	0.7176707	0.61033964	1.8918334	0.21744491	-0.56460667	-0.019902766	0.54486	0.19226655	-0.350166	0.5439709	0.3533372	0.1187699	-0.48137367	-0.11042937	0.027030647	0.04810296	1.1826714	-0.25681514	-0.19724205	0.17492868	0.753178	0.2549269	0.22885105	0.09790221	-0.17465821	-0.66606367	0.040535882	0.27571118	0.76155066	0.47341013	0.09129596	0.12184791	1.3438971	1.08886	0.40518048	0.68903583	-1.9107714	0.047756344	-1.1861867	0.70976496	0.41663098	-0.10629116	-0.32173753	1.2719729	0.05251795	-0.076092735	0.021431595	0.5457176	1.3197511	-0.27966604	0.12542862	-0.007811293	-0.9992345	0.999291	0.65366256	-0.6123755	-0.5932822	-0.80238795	0.6352633	-0.4956528	-0.4210931	0.18923686	0.10537118	0.36877713	-0.46347582	-0.47712564	-0.22494467	-0.44592062	0.31401807	0.9865205	0.66897523	0.8625859	-0.0048736483	-1.4929824	-0.7405663	-0.42374626	0.56708103	-0.21653272	-0.4189483	-1.5138433	-0.4045648	-0.009996793	-1.3118255	0.27082828	0.24683224	-0.9609499	0.39882833	-0.50504535	0.03303942	0.043088302	0.978948	0.45514184	-0.037273772	-1.0663269	-0.6323428	0.6401937	-0.3286631	-1.2247307	0.608872	-0.31443805	0.16942628	0.09860071	1.1480428	0.5305743	0.53711665	0.7116142	-0.20217969	-0.36926693	-0.14236219	-1.7991807	-0.48710084	-0.10294443	-0.1335989	-0.50592196	0.072924286	1.3424045	-0.38835087	0.8282629	1.01796	-0.027624771	-0.48560458	0.35100013	-0.021939352	-1.0992131	0.11049479	0.9074232	-0.8858925	-0.3610536	-0.4707199	-1.3408295	1.0222768	1.1674685	-0.45796716	-0.09982339	0.14441186	-0.5631018	-0.5849162	-0.6634105	-0.23565938	0.36013716	-0.22983956	1.720738	1.0534345	0.5831006	-0.07623273	0.628447	1.134632	-0.46922845	-0.069150604	0.7389156	0.4169947	0.43873915	-0.06707294	-0.018507197	-0.27289146	0.15271798	0.13981785	-0.29992232	-0.7111587	-0.4747524	0.5637813	-0.24786948	-0.029947583	-0.54364085	-0.24351984	-0.2603458	-0.27795553	-0.06826782	-0.22462742	-1.5911208	0.24474591	0.029980823	-0.00948428	0.15072274	-0.38920665
G000013045	-0.74054646	-0.6772637	-0.19657564	-0.45407763	0.46534133	-1.1762547	-0.2335824	-0.9312662	-0.21061754	0.8046732	-0.4390288	0.11310458	-0.3391013	-0.5241093	1.5455649	1.6135964	-0.5942369	-0.58774054	-0.4443736	0.5884146	-0.77250826	0.24735971	-1.2182176	0.5238827	0.23451312	0.020541787	1.1837285	-0.91002095	-0.27589238	-0.6066916	-0.35642684	0.46276137	0.35734808	0.49385586	0.13612632	0.2004312	-0.14891991	0.69306725	-1.3869672	0.04775481	0.348998	0.23547591	-0.5989251	-0.9145472	0.58817714	-0.27233088	-0.69933474	0.28324822	0.31318086	-0.45901263	-0.38793114	-0.6213062	0.52585137	-0.0641443	-0.42533708	-0.40023378	-0.058491495	-0.7587992	-0.58745193	-0.25619695	1.757345	-0.8345057	0.10930121	0.15503167	0.702231	-1.3311831	-0.432235	-0.038067296	0.6785874	1.6663617	0.030405983	-0.54654115	-0.0017342791	-1.102102	0.5145702	-0.134888	0.2218527	1.7315301	0.34691107	0.6411055	0.28211796	-1.3162303	0.99479055	-0.34011638	-0.6676065	0.052895255	-0.20751	-0.5858525	0.46771255	-0.6016559	-0.33239615	1.3611928	-0.19323209	0.13175946	-0.5433683	-0.78232867	-0.30004358	0.7360485	-0.8264573	0.8111831	-1.2262796	0.292562	0.11076234	0.21885082	0.768579	-0.7842813	-0.86537445	0.13981588	0.7614349	-0.18322074	-0.5293594	0.58609754	0.6692145	0.295841	-1.268166	0.9712529	0.048437797	-0.53023607	-0.6352033	-1.2273995	-1.0078136	-0.024534225	0.27117783	0.6624207	0.045715116	1.2307487	0.17511328	-1.2936876	0.24649405	-0.12541154	0.20694175	-0.26150173	-0.012542237	0.17175043	0.21877058	-0.805323	0.5250105	-1.1001976	-0.26253518	0.5852776	0.930259	1.2927207	-1.014794	-0.7330537	0.9241212	0.5300117	-0.61952704	-1.2217178	0.3726751	-0.18901193	0.5211098	0.37491506	0.22939798	0.6392922	0.031052839	-0.4503062	0.15404499	-0.44608247	-1.4666842	0.26773995	-0.26722866	0.26432028	1.0550735	0.58777064	-0.20979716	1.090528	-0.20156398	-0.23402658	-0.5272295	-0.4150664	-0.30514306	0.04915551	-0.3005426	1.1924678	-0.46383503	0.18675178	-0.23564628	0.65289044	0.033631086	0.37490547	0.68707025	0.26836294	0.35991126	0.060198158	0.11547536	1.143002	0.5884144	-0.19140548	0.32939273	-1.332835	-0.08584216	0.19394606	-0.21176264	-1.118137	-0.80823076	-0.66373897	0.30674413	-0.0022284985	-0.80768836	-0.384068	0.97745085	0.53099847	0.3660627	0.1661193	-0.069431394	1.6049362	-0.51055086	-0.22709031	0.24298751	0.40686703	1.5550371	-0.066204496	0.85129416	0.69849026	-1.2577792	-0.64125705	0.48500794	-0.37675083	0.0010451376	-0.998908	-0.14217427	-1.3715944	0.77051723	1.0693516	-1.6825383	-1.5635859	0.019790407	-0.77862144	-0.3177855	-0.37939566	0.980394	0.8545985	0.6325693	0.61689055	0.14542428	0.23145697	0.12752312	-0.27435923	-0.122160405	0.3637737	-0.66139734	0.59359616	-0.86779976	0.09892307	1.045421	0.28783295	-0.5914572	-0.33518577	-0.00607419	0.2990753	0.33235282	-0.617368	1.0090741	-0.13770029	0.3805266	-1.2658452	-1.2806813	0.63031304	0.3998708	-0.19944197	-0.7925045	0.30529395	0.10841476	-0.33425564	-0.29569122	0.151496	-1.0018861	-0.1390107	-0.533244	-1.2241141	1.1162746	-0.44466937	0.040835854	0.21057782	-0.0949402	0.2586525	0.06444162	0.2658264	-0.03541948	-1.1550242	0.47897243	-0.16482656	0.65613186	-0.7345861	0.6039417	-0.9182898	-0.6217531	0.06922139	0.93106914	0.5217533	-1.0287911	-0.90101194	1.5432458	0.8092421	0.35824758	0.6891331	-0.850734	-0.57963896	0.59032214	0.25810975	-1.2262127	-0.50695866	0.41799194	0.3073426	0.23649365	0.9471584	-0.053887203	1.9287807	0.47857153	-0.16638839	-1.3735129	0.40050542	-0.41605157	0.42165202	0.19750218	0.40545058	-0.80136263	-0.64120185	-0.21504857	0.3964383	-0.7827164	-0.44345406	-0.12553048	-0.590359	-0.19212463	-0.5749558	-0.48851585	-0.71780664	0.26544374	0.24179474	-0.18678522	0.7767919	-0.04588048	0.34694758	-0.6239664	1.2137302	-0.100150526	-2.0233347	-1.2222393	0.77796566	-0.3535684	0.44219184	-0.6517701	0.72238296	-0.55419374	-2.1914313	-0.13046677	-0.34445813	-0.88988006	0.22802961	-0.51108253	-1.1510566	0.03799835	-0.10774477	0.68239003	1.0493754	1.0217476	0.20936948	-0.94621146	0.56918144	-0.34383094	-1.1049317	0.4196137	-0.3171587	-0.42161933	0.08807347	0.15904829	1.0152504	-0.13817748	-0.46408612	-0.86394775	0.5842209	-0.15696557	-0.25601834	0.1303031	-0.3406579	1.588833	-0.46143174	-0.21496812	0.58267736	0.26973483	0.34417886	-0.21684851	-0.59287596	0.09422447	0.6534619	-0.6299303	0.2540489	-1.1263543	-0.8940795	-0.49330074	-0.5303178	-0.28483132	-0.042233013	-0.6426029	0.19131078	-0.33617827	-0.002863869	1.129953	-0.63796043	1.3439841	-0.46731198	-0.1310872	0.9481326	0.18078792	2.649735	0.89477336	-1.2059109	-1.0480752	0.15308544	-1.1960653	-0.4046728	0.90344393	-0.05084709	0.12341184	0.51245975	0.9557302	-0.76826906	-0.23593977	0.0395758	-0.83358693	1.6615052	0.11160141	-0.046716146	0.22107366	-1.0194128	-0.72174627	-0.120604984	0.26402462	-0.1314795	0.19064674	1.0374076	0.041500643	0.073806874	0.31186372	-0.040509805	-0.41401488	-0.1662764	0.09258017	-0.85860574	1.4308182	0.05653739	0.046032384	1.1837304	-0.07773293	0.41653615	-0.20806271	0.84404117	-0.17700478	-0.8493551	-0.695989	-0.7866191	0.20888917	0.6554082	-0.2708619	-0.42815012	0.84877086	-1.101741	-0.31986725	-1.2650944	-0.5950875	-0.39834288	-0.8717587	0.17802247	-1.0706229	0.75975233	-0.36035362	-0.4981984	0.2820109	0.5428226	0.56262803	-0.71263814	-0.55434304	0.25470144	-0.017593943	0.9103929	0.40703088	-1.4765812	0.017882667	0.5876168	-0.875254	0.7677294	0.023088723	-0.3422407	0.15593614	0.16537829	0.6513563	-0.33797076	1.0596828	-0.45383677	-1.5006092	0.2198622	-1.2035104	0.7576141	1.0147855	-0.99939334	1.0047114	0.06396788	0.1953375	0.9654228	0.5834645	-0.61506635	-2.1649835	-1.0521357	-0.24136539	-0.15214175	0.5964495	0.32406265	0.66756946	-0.15620571	-0.027541097	1.0333164	0.97827214	0.06558572	-0.24602395	0.8381991	-0.16449675	-0.3427102	-1.1954311	0.72805846	-0.15555504	0.76401365	-0.82926226	-0.15943253	-0.22876202	-1.1705694	0.3845651	0.4883823	-0.5281536	-0.039459556	0.38021588	-0.90551597	-0.3517549	-0.41192654	0.61919844	-0.41945922	0.34136012	0.5440742	-1.1982305	-0.8061921	-0.15719436	-0.5575484	-0.21832192	-0.72117555	0.43545133	0.40367264	-0.32129833	0.4436086	0.73270774	-0.029106967	-0.6885082	0.16277897	0.48340017	0.07954687	-1.0885302	1.1611603	0.2233496	-0.22941169	0.056769475	-0.31398094	0.5654967	-0.76702315	-0.8820655	-1.4289622	-0.2254147	1.7728097	-0.5503478	-0.6928915	-0.7428538	0.5634101	-1.1279317	-0.14939603	-1.0047412	-0.8544678	0.5350221	-0.5551615	-0.95147675	-0.8098303	-0.61547905	-0.58855695	0.32774645	-0.033437833	-0.26998165	-0.34162927	-0.054931447	0.12207806	-0.7124769	-1.1593568	-0.36342457	0.8573458	-0.4167304	0.40640876	-0.15181479	0.35544646	-0.56019306	0.5925402	0.023377568	0.30191875	0.415883	0.06273566	1.165317	0.11887429	2.0013154	0.40665162	-1.5150402	-0.41014722	0.106123686	0.25778335	1.0587152	0.4036392	0.2967536	-1.1849501	-0.54693484	-0.18059644	0.35494822	-0.24072883	-0.16785245	-0.22147715	0.41016477	1.1695609	-1.1140281	-0.0050431862	0.17712523	-0.578192	0.14543636	-0.14844647	0.021581754	-0.19003017	-0.02688758	0.07327998	0.07041262	-0.6004005	0.06544036	0.20150657	0.5875564	0.2291803	-0.1473167	0.6333744	-1.1790634	-0.42050302	0.47287974	-0.08542493	1.4190278	-0.22926456	-1.0938057	-0.72463727	0.8134722	0.23879151	0.23878974	0.084454715	-1.1428416	0.016248345	0.4751054	0.2636671	-0.638799	0.7160817	0.9263318	-1.0777173	-0.3199206	0.9670154	0.466811	-1.1108661	0.15978369	0.5373888	0.41306293	-0.40396965	0.2574403	0.84600544	-0.079417184	1.0051181	0.602876	0.50561947	-0.7935747	-0.27219316	0.7147851	0.12982978	0.08474436	0.18125707	0.27078658	0.33979756	0.78590614	0.6135299	0.003874816	0.066443525	0.58793104	0.30821785	0.24283037	-0.020464074	-0.2876704	-0.6770066	-0.0007403195	-0.6273669	-0.7316669	0.57464814	0.11769213	0.29559723	-0.11711638	-1.3927406	-0.27440903	0.6719695	0.23348245	-1.022197	0.17245525	-0.84587616	0.439553	-0.12725839	1.3448157	1.0183102	-0.19458158	-0.95261365	-0.1891152	0.0929379	0.0036397073	0.19690329	-0.4530357	0.941175	-0.41788584	0.16343626	0.45277536	-0.7475177	0.09275927	0.712729	-0.31869954	0.057637498	1.2991706	-0.54548484	0.43840414	0.47415835	0.4639465	0.1111913	-0.046651155	-0.12881581	-0.7471656	0.2554407	0.31555158	1.0739175	0.5336892	-0.41474137	0.32897335	-0.75143033	-0.22191906	-0.9544732	0.1458838	-0.061994493	-0.4767408	-0.06737436	0.6114219	-0.5993964	0.18894006	-0.7155767	-0.21962641	-0.12821743	0.8634184	0.8150899	0.010710061	-0.24854091	-0.7150576	-0.36764494	-0.938367	0.34623492	-1.0000072	-0.12511295	-0.39388534	-0.13124101	0.29717934	-1.2343602	0.6264824	-0.04123134	1.443851	1.6959742	-0.47603807	0.3483152	-0.14707765	0.21917814	0.45565417	-1.0476015	0.7439603	-0.2032547	-0.6698359	0.98555434	-1.3549997	-0.7738572	-1.19684	0.5849259	-0.17594461	-0.52999765	0.18957977	-0.8878957	-0.7366892	0.18185835	-1.1466155	0.20756176	-1.031222	-0.9124531	0.022098199	0.31992283	-0.14448875	0.6812187	-0.90961266	-1.6783861	0.15271567	0.63537323	-0.9580613	0.0067263693	-0.12887329	0.5180145	-0.26714146	0.060528845	-0.3339297	1.1142204	-0.24745873	1.745706	0.20174882	-1.4595237	0.6205667	-1.4680258	-1.2154378	-1.5077507	0.30336565	0.23996875	-0.4235874	0.14075449	0.059177004	1.7776203	-0.19517908	-0.2131652	0.5969762	-0.58453625	0.9513539	-0.2217497	1.1578541	-0.83834803	-0.22983658	0.7788424	0.039676666	0.46973646	-0.18939182	-0.16168588	-0.59781814	0.14736924	0.54758614	-0.062656015	0.8494313	0.30168095	-0.45608175	0.33274356	1.7267177	-0.6806543	-0.47479355	0.81711906	0.8092371	1.0281023	0.36218023	-0.5417959	0.30006072	0.40805393	0.53210056	0.20844509	0.7709002	0.60911125	0.35886064	-0.4939697	-0.053429976	-0.33468765	-0.43567744	1.3329091	-0.25217396	-0.23595068	-0.77176374	0.7922171	0.33437058	0.19018316	0.115455344	-0.36992753	-0.50351804	0.4567247	-0.106156215	0.72907937	0.21725404	0.90256	-0.022955969	0.60575306	1.1114725	1.2670817	0.4833451	-1.8508714	0.14747977	-1.4897419	0.17709504	-0.30015942	0.12949376	-0.32061833	1.0737273	0.086230606	-0.6447289	-0.12194598	0.43665802	0.9493474	-0.59285724	-0.13981116	0.13395329	-1.085947	0.80425334	0.74064213	0.20612618	-0.8846272	-0.5269103	0.63931644	-0.9834657	-0.2570609	0.86416453	0.15049252	-0.4102184	-0.16547635	0.04356107	-0.4130598	-0.33549273	0.063295424	1.4583635	0.6224877	0.63024324	-0.20103365	-1.0877185	-1.331927	-0.73745716	-0.44115353	0.16460478	0.4568587	-1.6849263	-0.46432382	0.41256458	-0.8770118	0.20208538	-0.22913116	-0.97809505	0.66935533	-0.68800986	-0.22342479	0.09923221	0.64805037	0.11310581	-0.36547947	-0.342771	-0.77349174	0.93092763	-0.24779181	-0.73653996	0.92006934	-0.35126758	-0.7375305	0.4653924	0.87866265	0.02825435	0.02399964	-0.095938034	0.3841354	-0.27043957	-0.37133887	-1.4304854	-0.1504025	0.055093452	0.13953905	0.28006554	0.00025722384	1.4544287	-0.42791396	0.92485213	0.4917675	0.26885003	-0.38249522	1.0537319	-0.010154858	-1.0161631	-0.11855383	0.63355577	-1.0044647	0.24277498	-1.0312642	-1.0786	0.81697303	1.1745983	0.05182618	0.16217244	0.8119869	-0.32801622	-0.2582812	-0.40560395	-0.8884811	0.41398907	-0.7049783	1.8584317	0.8880744	0.9551024	0.26340097	-0.019905508	1.013807	-0.1857537	0.7127924	0.070360556	0.2340801	0.68570465	0.3976356	-0.2818351	0.17799969	0.3690366	-0.37161833	-0.1547581	-0.25424212	-0.07569469	0.0051457733	0.20641784	0.47162578	-0.57318693	0.30638364	0.017871648	-0.51122636	-0.360121	-0.23236935	-0.88366544	0.23755154	-0.13053986	0.32198936	0.10114534	-0.8224446
G000243115	0.25627896	-0.5875873	-0.087922215	-0.70266044	1.0273602	-0.7174961	0.074525304	-1.1318661	0.027688593	0.74897367	-0.15396373	-0.2918437	-0.10814347	0.5003745	0.5106453	0.75550133	-0.75780106	-0.89951575	-0.4621799	0.13562319	-0.6622192	-0.8991139	-0.71733975	1.2281197	-0.1699492	-0.307347	1.1464834	-0.4816898	0.1315211	0.12212695	0.5695637	0.41486812	0.9506888	0.63267374	0.00640738	-0.3465833	-0.2049077	0.17910752	-1.0712599	0.066317156	1.3716692	0.867278	-0.352925	-1.1909958	0.87146837	-0.28484797	-0.29240817	0.4012282	0.71037424	-0.20015357	0.031937346	0.023867145	0.48488715	0.44442642	-0.59517235	-0.22740713	0.6522306	-0.4122088	-0.44647813	-0.72361934	0.80601764	-0.71058273	-0.33945185	0.05800312	0.96983373	-1.375821	-0.30022997	-0.060399204	0.47822687	1.0446117	0.3586746	-0.3587315	-0.09553544	-1.2305955	0.28895918	-0.50497067	0.49535155	0.6789196	0.32664573	0.7830649	0.25175175	-0.66042113	0.64757824	-0.18675096	-1.4944792	0.023462065	-0.50304854	-0.9014698	-0.02222895	-1.0633184	0.1304977	0.46486464	0.42955825	-0.1990259	-0.5253582	-0.82721984	-0.15075865	0.04873471	-0.047703132	1.1169243	-0.74816763	0.7058356	0.120176375	0.039440975	-0.16505921	-1.2437166	-0.5136734	-0.15318702	0.73347825	-0.64191955	-0.68814766	1.7073315	0.47068152	-0.104894556	-1.2364683	0.67033255	-0.023998607	-1.60031	-1.0752605	-1.1133683	-0.36182854	-0.66589093	0.6213584	1.1633973	-0.35736108	1.1989814	-0.34769785	-1.0614758	0.47893086	0.14009845	0.36872992	-0.13681738	-0.70314837	0.29155016	0.054385673	-1.1573132	0.5586339	-0.9673782	-0.8800334	0.7419022	1.1179249	1.1711239	-1.1348882	-0.18913515	1.0023912	0.7338711	-0.090851165	-1.0957806	-0.9653837	-0.16802615	0.88240737	0.38821402	-0.037644908	0.29514235	-0.16739605	-0.6074613	0.36643577	-0.038626038	-1.2027525	-0.2201047	0.061490387	0.5110096	0.9541294	0.39428124	0.42609388	1.039963	-0.09646532	-0.72530013	0.043583184	0.47528228	-0.5688466	0.14957973	0.17189828	0.08173317	0.09818113	-0.25251782	0.16999128	0.71884334	-0.39093775	1.3860732	0.32583725	0.34536695	-0.055478774	0.06397851	0.9806215	1.2660232	0.8370705	0.8224222	0.17101493	-0.9047403	0.27428326	0.3489062	-0.24375787	-1.1807522	-0.2788145	-0.6931642	0.17850146	-0.7746006	-1.2807401	0.05271247	0.7269023	0.94115543	0.57483137	-0.2746516	-0.7306489	1.1634576	-0.24441351	-0.4087143	-0.019879714	0.5436343	0.7755002	-0.32696787	1.1671506	0.9454271	-1.4022763	-1.4146223	0.5022902	0.05540389	-0.9569748	-0.21363954	-0.20383717	-0.8917123	0.4873065	0.92569405	-0.8414814	-1.3529522	0.45780754	0.17932425	-0.6744865	-0.27210817	0.7042427	0.38444346	0.7591005	0.2453053	-0.047281176	0.71245414	0.3777495	-0.41906792	-0.09397824	0.6524206	-0.4224575	0.4525125	-1.3337365	0.80189276	0.90230894	0.41433707	-1.2619512	0.69488406	0.4728629	0.69784665	0.22866762	-0.113213204	0.48118842	0.051811792	0.47630975	-0.6159806	-0.32366967	0.010023329	0.5545121	-0.49546704	-0.75207746	-0.3003633	-0.022266328	0.080919586	-0.5200099	0.6487102	-0.30834475	-0.13059387	-1.0266755	-0.5061388	0.72091204	0.29267043	0.010778567	-0.52129734	-0.10080543	0.68245184	0.76318836	0.67164916	-0.73134136	-1.3563936	0.50361013	-0.22558431	0.43737996	-0.49406743	0.056738183	-0.25146365	0.1896982	-0.27329743	1.142865	-0.013129801	-1.1695144	-0.5975337	0.73796445	1.1140978	0.2163293	1.0556304	-0.4442355	-0.8147822	0.92475796	-0.41954195	-0.3157554	-0.21798486	0.08064066	-0.10901052	0.8861684	1.6990709	-0.038983256	1.8839957	1.6538588	-0.49723366	-1.0891197	0.59341997	-0.02069363	-0.06064549	-0.31545997	-0.13833928	-0.24437483	-0.43875533	0.051580682	0.2524405	-0.458482	-0.21149266	0.06844136	-0.7826003	0.24363138	-0.2254045	0.20645261	-0.8705208	-0.22948542	-0.08398763	0.3062113	1.0431244	-1.0754079	0.6141732	0.006345503	0.4042739	0.168111	-1.8861973	-1.0159785	0.5898669	0.50461185	0.35431698	0.3444577	0.510703	0.029088877	-1.1108463	0.01085259	0.011536866	-1.3209078	0.74327385	-0.52818507	-0.70861435	0.11650865	-0.5005389	0.16976646	1.3673327	1.5136344	0.6551736	-0.8069628	0.36582103	-0.3771223	-0.5184876	0.27560753	-0.94125235	-0.08925478	-0.646746	-0.17373368	1.1148205	0.57080555	-1.1763263	-0.030201927	0.3393451	-0.6143413	-0.06304389	0.10997388	-0.76237273	0.8335377	0.055900827	0.14414658	0.2971128	0.7894413	0.52196294	0.36288652	-0.68673235	-0.36565953	0.5396191	-0.8669811	-0.178233	-0.2623325	-0.98315513	-0.513424	-0.5299877	-0.5779091	-0.68105733	-1.1249856	0.6835978	0.06228526	0.3409167	1.3228056	-0.49915075	1.3874229	-0.17194705	-0.12486434	0.78009945	-0.1927232	1.9545939	0.71296227	-0.96158355	-0.10726021	0.25319588	-1.0946535	0.12755114	0.3254908	-0.48783636	0.6244403	0.7710744	0.32299095	-0.57532173	-0.065483585	-0.26135	-1.1314406	0.98368716	0.06675157	0.06664416	-0.32809746	-0.52991295	0.046078745	-0.23243222	0.28665242	0.13887115	0.4517815	0.90203017	-0.22767666	-0.33978456	-0.16697004	0.10206789	-0.47682664	-0.13186419	0.17626825	-0.86755604	0.9484793	0.15189977	-0.39754632	1.3277923	-0.4487224	1.1911639	-0.50455	0.46105272	-0.6212403	-0.60855424	0.50277156	-0.574301	0.020850152	0.18453354	0.053040795	-0.12526831	0.15967664	-0.9633971	0.15674843	-0.75385606	-0.6493122	-1.3161063	-0.5811409	0.31548727	-0.23848619	-0.091926046	-0.43778297	-0.42649433	0.009689491	1.0539532	0.12526011	-0.40869996	0.5236735	0.27426267	0.37261307	0.4944659	0.50224966	-0.74914116	-0.26263994	-0.123080134	0.08623612	0.24021643	-0.16919129	-0.37970006	0.28941652	0.3578813	0.21802855	-0.7126151	1.6351084	-0.40440884	-0.92748207	-0.46667093	-0.8047741	0.35567203	1.1547168	0.070583925	0.9953221	0.41872734	1.0975474	0.581968	-0.33540964	-0.9383033	-2.0847933	-1.132985	-0.81061304	0.15569994	0.037432622	-0.24327698	0.7191572	-0.73727775	-0.28549963	0.23944455	1.0370343	0.2604413	-0.88368714	-0.0444113	-0.43784124	0.03663148	-0.30597702	-0.24395438	-0.6163541	1.0753405	-0.49499273	0.017843008	-0.059065305	-0.77490616	0.9786398	0.7718478	-0.36449242	-0.89448345	0.18344295	-1.1136932	-0.66478336	-0.28955978	0.5864976	-0.24479635	0.8462295	1.2757684	-1.0657527	-0.22841844	-0.061733183	-0.37575588	0.3075599	0.24805267	0.7028141	1.1947131	-0.38618279	0.4912546	0.4211005	-0.5954939	-0.8299448	0.43361378	1.0036039	-0.46019408	-0.43679264	0.5312388	-0.20001364	0.2512189	0.057681244	-0.055698607	0.2680006	-2.0865486	-0.65262187	-1.0698845	0.1113821	1.1751488	-0.08983244	-0.83484614	-0.95320714	0.48774415	-0.39704826	-0.3975461	-1.0750982	-0.78173274	-0.32880664	-0.3177606	-1.0820752	-0.80046815	0.060264472	-0.7516904	0.60711056	-0.0052980185	-0.75037307	-0.33577853	0.28773433	0.5507306	-0.5872651	-0.5476208	-0.28924012	0.44712183	0.25164273	0.064439386	-0.0751634	-0.09205261	-1.1997275	0.48914045	0.02839055	-0.0804532	0.072295725	-0.19975483	1.122145	0.15063585	0.9602751	-0.36139232	-2.1811218	-0.7082975	0.107512705	-0.79582185	-0.12629731	-0.0012240559	0.08454588	-0.83398193	-0.5550086	0.28405166	0.42483854	0.0036783814	-0.086737216	-0.26622468	0.5018412	0.47567248	-1.1299311	0.06812178	-0.04892245	-0.1770343	-0.4644038	-0.5557164	-0.2657367	0.11550852	-0.05939062	-0.16129509	-0.52301157	-0.61837983	0.3224524	-0.024818517	1.0552845	0.7852405	-0.37301925	-0.02968818	-1.086895	0.6108465	0.19363333	-0.3876961	1.293886	-0.3784969	-0.85888225	-1.0628619	1.5686585	-0.2933849	0.19386248	-0.20102268	-0.97765726	-0.5978683	1.0383407	-0.32325074	-0.71274227	1.3453765	1.3484992	-0.24951391	-0.7786018	1.1399431	0.66668546	-1.4190515	-0.09493649	0.48475713	0.07050672	-0.491808	0.4106149	0.88741755	-0.26697704	0.5948103	0.8513527	0.97529817	-1.1350757	-0.81378347	0.40239996	0.42763227	-0.0488659	0.110921025	0.2785015	1.0172348	0.48876587	-0.369798	-0.5094766	0.85491633	0.9495511	0.37212545	0.6812317	0.12771447	0.2227749	-0.67692304	-0.5463296	-0.7730411	-0.72911906	0.33934048	0.18080121	0.361961	-0.3889519	-2.0163763	-0.26832336	0.93912655	0.33379143	-1.8009477	-0.16430776	-0.9082171	0.403554	0.34983602	1.568131	1.0716971	0.26303545	-1.8217938	0.91208065	-0.63343567	-0.7259337	0.9402939	-0.14440756	-0.5092674	-0.63051575	-0.42630965	0.0012162849	-0.6771577	0.7580669	1.0770401	-0.5454436	-0.09073142	1.496719	-0.96928614	1.2585388	0.7524565	0.117253244	-0.27266926	-0.2945808	-0.82185656	-0.44199222	-0.060168818	1.0849652	0.49462268	0.45849943	-0.37409484	-0.5719668	-0.12597352	-0.22435862	-0.66265607	-0.14809443	0.5707293	-0.8354758	0.15130723	0.35233372	-0.026150197	0.105151445	-0.29014218	-0.507318	0.26444837	1.3301353	0.38255182	0.47886556	-0.5324123	-0.9539994	-0.056014776	-0.21313068	1.679517	-1.3205725	-0.29656056	-0.60586923	-0.13656755	0.3214274	-0.39777842	0.20055667	0.31880656	1.0373397	0.9319864	-0.49897078	0.3900044	-0.27831978	-0.6224403	0.32456076	-0.37123966	0.6287494	-0.45337713	-0.81850904	-0.35759056	-1.3960799	-1.1919532	-1.0109171	0.34002984	0.40722674	0.117194325	0.58794767	-0.57850784	-0.33549845	0.40926152	-1.0007632	0.6892004	-1.5630695	-0.92150164	-0.40060484	-0.116716005	0.16173612	0.68444353	-0.27297518	-1.885331	0.66730994	-0.06269355	-1.2959913	0.41585213	-0.25021648	0.9545856	-0.8639953	-0.7402624	-0.47627807	0.92663866	-0.21623373	1.3291417	-0.028099343	-1.4496934	-0.12674928	-1.4362882	-0.6767577	-1.4304006	0.61607975	-0.26601312	-0.5049621	0.5298075	0.94146585	1.4829867	-0.63838613	-0.12702876	1.0454652	-0.75993097	1.2136737	-1.0699197	1.170638	-1.1005046	-0.9188782	1.29142	0.48514688	0.3474039	-0.80276	-0.39693597	-0.4919036	0.0013156906	0.93389636	-0.30789942	0.63618463	0.2103906	-0.14431475	0.63247144	1.6900866	-0.53212154	0.22384387	0.76983637	-0.093524545	0.9462097	-0.144156	-0.94011736	0.86182857	1.1035862	-0.05232717	-0.21709761	0.2641182	0.7887575	0.3707858	-0.7576983	-0.36895537	-0.59513503	0.4177593	0.80586475	-0.104356825	-0.14920776	0.19739123	1.3559312	0.8109015	0.058227636	0.1398855	-0.09559348	-0.13149554	-0.36484358	-0.2504924	0.82640976	0.5292703	0.9297018	0.46021238	0.4287834	0.8894143	0.9308634	0.4158138	-1.4567062	-0.5103718	-1.2811325	0.20826237	-0.22850695	0.41280475	-0.46779165	0.037560046	0.6875211	-0.67396307	-0.26583397	0.70913744	0.6408457	-0.6598508	0.15267481	0.6523532	-1.050928	0.29745305	0.63993	-0.19739906	-0.44884536	-0.28301322	0.61500645	-0.7639488	-0.49226925	1.0911252	0.08755211	-0.35909924	0.024737082	0.3947966	-0.37710854	-0.5588892	0.07262845	1.7935387	0.25904343	0.87664855	-0.9568968	-0.9236098	-0.9796499	-0.3864619	-0.3871771	-0.28663298	-0.6512557	-1.995295	-0.25755507	0.6334344	-0.7241685	-0.52327764	0.13370553	-1.0878339	0.85985225	-0.6761392	-0.3976399	0.43491286	1.7348617	-0.026216645	-0.38403043	-0.47793514	-0.3508644	1.142413	0.10686478	-1.21141	1.1820434	-0.113792375	-0.16477208	0.5260865	0.35106957	-0.42441207	-0.23110235	0.5630431	0.411177	-0.2851267	-0.2962353	-0.9744487	0.16727746	-0.04754308	-0.6828712	0.46675	0.46737167	1.894027	-0.3533463	-0.029102758	1.4022603	-0.12606281	-0.4315294	0.32658282	-0.20348355	-1.2232764	0.42116958	-0.09629056	-1.221573	0.41198134	-1.2680787	-1.4040751	0.9257824	1.1850941	-0.26029795	-0.19982934	-0.11724952	-0.47976947	0.019663192	-0.76838315	-0.4822495	-0.284393	-0.48103246	1.3628842	0.29897168	0.78777397	-0.579579	0.3965001	1.2269282	-0.046343297	-0.07099985	0.4684213	0.4969269	0.61974216	-0.101136416	0.1416547	0.018428735	0.98207194	0.3374569	-0.1864149	-1.2461126	0.16895604	0.060171336	0.7037002	0.31682172	-0.29568702	-0.069375046	-0.24650796	-0.5500909	0.28575706	-0.019323058	-1.1695338	0.4827193	-0.5487916	0.03796593	-1.0570524	-0.7441399
G000168715	0.13785958	-0.59902847	-0.64630646	-0.34102216	1.0333912	-0.6759103	-0.42168856	-0.62428737	0.46132633	0.37832886	-0.3692812	-0.36236492	0.31237924	-0.85983044	0.8282239	0.7507707	-1.6237262	-1.0425966	-0.8034595	0.75192857	-1.0005589	-0.009452015	-1.030246	0.73119193	0.15161628	0.25880846	2.155547	-0.35079488	-0.40184233	-0.15713197	-0.29501167	0.62092936	0.6569346	0.7702598	0.7285892	-0.41716677	-0.20593669	0.23102555	-1.5859745	-0.22479314	0.76054597	0.5382284	-0.46443444	-0.40360388	0.4503845	0.18984632	-0.22580813	-0.23752253	0.34965128	-0.051942714	0.03595981	-0.42552423	0.7208668	-0.11104645	-0.27861685	-0.68568367	0.50365555	-0.65120447	-0.49936536	-0.22236148	1.7696947	-0.77540773	-0.8756775	-0.14186758	0.65555435	-0.8538851	0.54103637	0.79985887	0.44927183	1.4171864	-0.27757263	-0.6191301	-0.17437077	-1.166301	-0.12436913	-0.16240469	0.8916602	0.9865334	0.54667544	1.1540357	-0.25285596	-0.3609004	0.77469784	-0.58561873	-0.98219967	-0.07791704	-0.78835154	-0.91736245	0.35065842	-1.078066	-0.49217448	0.6085879	-0.10294375	0.59637344	-0.790587	-0.55647963	0.0226686	0.6144643	-0.9440542	1.0199476	-0.4034963	0.8564122	0.13481157	-0.13864318	0.6938589	-0.2547895	-1.1977677	-0.13630117	1.486788	0.034985468	-0.35679528	0.5848304	-0.18306363	0.9171805	-1.1100237	0.53954875	-0.30535257	-0.8774222	0.056950472	-1.4908048	-1.0879674	-0.020012453	0.8041281	0.49804327	-0.5299503	1.0961446	0.65588963	-1.1194085	0.3536393	0.11504936	0.17510846	-0.26716554	-0.092717	0.1964843	-0.0096731	-1.2289482	-0.124956794	-0.67698455	0.021917418	0.5510476	1.2675277	0.9120344	-0.8583435	-0.662401	1.4159809	0.71846074	0.24461369	-0.31233	0.29328698	-0.15033495	0.35327575	0.697462	0.35945234	-0.43490928	-0.09187156	-0.84621596	-0.48966038	0.031040005	-1.5260878	0.2238813	-0.26060003	0.6795831	1.147088	0.37004125	0.3109972	0.29151076	0.01297706	-1.2451644	0.5846864	-0.114630654	-1.1919193	-0.30071655	0.052562863	0.5114536	-0.13148278	0.093308434	0.29915142	-0.0940025	0.35064334	1.1015562	0.43745467	0.8892582	0.30537474	-0.30533636	0.81011	1.7180562	0.72776544	-0.038217455	0.2815671	-0.73597425	0.48472708	0.48406598	-0.39742717	-0.9587824	-0.59503174	-0.78487176	-0.12499854	0.19459593	-1.3250138	-0.75781775	0.93743926	1.1316922	0.5955374	-0.13053298	0.27346236	1.3182849	-0.6347484	-1.4160342	0.3491956	0.12126167	0.97955745	-0.25321093	0.57493687	1.0126348	-1.6843711	-0.81976616	0.29897442	0.13243574	-0.23850119	-0.46668482	-0.7649415	-1.4998951	1.3179867	1.2604954	-1.0221844	-1.4129794	0.53501445	-0.4516544	-0.36966878	-0.045183294	1.0170029	1.1559051	0.8120732	0.15549296	0.5001274	0.86257094	0.2737102	0.18757045	-0.1623638	0.17963211	-0.4176886	0.7068792	-0.7977529	0.28169578	1.0380207	0.067590915	-0.40257597	-0.030585706	0.8373849	0.11594378	0.6563827	-0.682742	0.6608006	-0.23431295	0.2198672	-1.3625433	-1.1067691	0.7289959	0.4137418	-0.275507	-0.33161208	0.5823174	0.2550701	-0.22604507	0.17300417	-0.20299496	-0.88392377	0.13321452	-0.7978313	-0.69348687	0.6726997	-0.2358094	-0.58895403	-0.360699	0.7427855	0.9758601	0.7023155	-0.06272802	-1.1657358	-1.766145	-0.21790959	0.09021282	1.0233232	-0.993106	0.5529257	-0.9773291	-0.33525074	0.022261024	1.0867071	0.3063331	-0.48979545	-1.0983721	1.6368548	0.77357686	0.2279816	1.013563	-0.5556474	0.18751569	0.41553375	-0.017401978	-1.1875601	-0.55078924	-0.0655957	0.37063807	0.24630979	1.3388573	-0.4161771	2.3694456	1.4052448	0.40487802	-1.5990419	0.8160819	-0.05726701	0.48366103	0.14659435	-0.5472479	-0.02219521	-0.5047154	0.11848463	-0.20527792	-0.80878586	-0.55113757	-0.1268537	-0.6686864	0.50076103	-0.17002788	-0.13040589	-0.721036	-0.32278106	0.16735148	0.109841526	0.14806005	-0.37183627	0.5804733	-0.49216676	0.91701317	0.08311111	-1.5347154	-0.6294056	0.7711232	0.4938922	0.87879187	-0.22784871	0.4974676	-0.4644369	-0.88815916	0.016912773	-0.11909638	-1.1024325	0.7692838	-0.9304192	-1.1472714	0.22552784	0.010625452	0.46694505	1.0551767	1.3636051	0.62952286	-0.33130682	0.1529345	0.17564404	-0.9626764	0.2515428	-0.8917233	0.11943303	-0.37572396	-0.19669479	1.3105465	0.5315375	-0.023775741	-0.30189455	0.5816676	-0.5786793	-0.065247245	-0.45860124	-1.060073	0.7342352	-0.30084592	-0.46013522	-0.08742933	0.741981	0.6523266	-0.15616168	-0.20602623	-0.48660904	0.6534046	-0.9632735	0.52906513	-0.9304458	-0.70436406	-0.18905774	-0.924125	-0.12545966	-0.35816962	-0.45881113	0.010107234	-0.12517948	0.2617182	0.6616216	0.0048490763	1.6373594	-0.8892375	0.5190801	1.4223336	0.37367553	2.044677	0.773437	-1.309684	-0.2703544	-0.4654918	-1.0400248	-0.5520282	0.8913844	-0.69781595	0.20930366	0.33114797	0.39130443	-0.46946707	-0.40190274	-0.117773265	0.23156044	1.022528	0.36417127	-0.0700392	0.08582921	-0.87455577	-0.39615318	0.07624584	1.141985	0.27023163	1.1551731	1.4338183	0.29297388	-0.113618165	-0.12141055	-0.2910028	-0.91843474	0.70519024	-0.005117338	-0.8769206	0.5591409	0.7414101	0.27567035	0.6636094	-0.44558814	0.30825102	0.24891233	0.7035161	-0.49302888	-1.2826861	-0.6886706	-0.15663211	0.55071086	-0.52216786	-0.49448645	0.37425148	-0.016421974	-1.2885973	0.13652281	-1.125185	-0.6429268	-0.9353158	-0.46542272	-0.47061753	-1.2636217	0.723419	-0.5339267	-0.7630334	0.48148546	1.0121299	0.6951784	-0.5031044	-0.3974987	-0.461577	0.4103561	0.39669067	1.0615385	-1.2255498	-0.16273162	0.46428967	-0.5575836	0.80081975	-0.2594297	-0.40647238	0.29350376	-0.47345966	-0.11598778	-0.94402885	0.92372864	-0.26424074	-0.7122054	-0.33778593	-0.8029281	1.0271369	1.5591493	-0.0993548	0.6318054	0.0547103	0.51897264	0.33200336	0.28456843	-0.7308621	-1.758657	-1.0078498	-0.43323448	-0.14797123	0.2915231	0.92730635	0.046735793	-0.29769933	-0.076364115	0.7634774	1.0911347	-0.09032214	-0.42340082	0.10571785	-0.6215417	-0.54682106	-0.9320803	0.9103212	-0.736776	1.4350863	-1.1023147	0.27269712	-0.32890254	-0.7224898	0.40515172	0.04798118	0.02813372	0.31291008	0.57596695	-0.8821685	-0.8731278	-0.15662187	0.24558088	-0.380585	0.91059047	0.6353564	-0.8700774	-0.4985783	0.039796785	-1.1717395	-0.81175464	-0.48448592	-0.13091293	0.97994316	-0.12636909	0.1485302	0.43621266	-0.6977731	-1.2800088	0.22661747	-0.35083437	-0.6107425	-1.088409	0.8477759	0.23311555	-0.08770847	0.14232975	-0.4909578	0.8095423	-1.1584532	-0.65997577	-1.2409291	-0.09156476	1.6543489	0.488972	-1.2735507	-0.5999705	0.6469023	-1.2280982	-0.43478048	-0.41460672	-0.8488805	0.8517092	0.25482267	-1.2150007	-0.6285202	-0.38205782	-0.17172983	0.50058305	-0.4828784	-0.98687994	-0.5812533	0.3467063	0.27352887	-0.7475547	-0.5144992	-0.3357985	0.0351926	-0.87255013	0.4093877	0.33740944	0.8263219	-1.6970432	0.01861079	0.7967883	0.33633435	0.28221145	-0.35244504	1.1928278	0.70644945	1.3797544	0.08673118	-1.8386159	-1.2036211	-0.0091710705	0.17934906	-0.021409556	0.30199996	-0.12554544	-1.0932984	0.07270366	0.11034779	0.4620249	-0.050360575	-0.16326024	-0.65926	0.76381457	1.602992	-1.0237193	0.17635061	0.104416214	0.13514903	-0.65729564	-0.73705655	-0.11307892	-0.21254595	-0.37368277	0.32863522	-0.4951907	-0.4846281	0.048079066	0.09731226	1.4663695	0.83059907	0.06265604	0.018532217	-0.95720893	0.1852197	-0.14443767	-0.062594086	0.7727486	-0.33380538	-0.28622222	-0.82252073	1.1944659	-0.10289014	0.23378578	-0.43685052	-1.1904367	0.342889	0.8927563	-0.7999486	-0.55986667	1.1756274	1.0622706	-0.62715983	0.24195677	1.7565942	0.39683348	-0.67622447	0.0675095	0.3983813	-0.012943044	0.2506526	0.31688678	0.71383095	-0.41869694	0.56944144	1.4615668	0.37613454	-1.0245146	-0.550573	-0.19413362	0.32314017	0.6026974	0.28937933	-0.29248977	0.5545286	0.8958926	0.6735044	0.56856525	-0.11040625	1.2658081	-0.098727494	0.095146544	0.20370708	0.00518924	-0.05406955	0.00426811	-0.32054862	-0.73235905	0.90898216	-0.10134496	0.8456753	0.23038998	-1.4653836	0.7810066	0.34866652	0.124393456	-1.1633811	0.035986558	-0.9897902	0.5856194	-0.31166235	0.7965262	1.4777083	-0.3303197	-1.7626911	-0.33606777	-0.026399584	-0.56705296	0.63774383	0.34219378	-0.14339541	-0.7507142	0.5617482	0.6929827	-0.8249351	0.27131924	0.3156509	-0.30866385	0.13600521	1.1568907	-1.0949538	0.69397247	0.21292222	0.06706983	0.043691084	-0.7820289	-0.33502275	-0.48918837	-0.33139056	1.1018367	0.88890016	0.7406419	-0.40413994	-0.07176533	0.3897437	-0.030074902	-1.2364861	0.25526837	0.8701962	-0.107642844	-0.08592656	1.0161421	0.215503	-0.3932535	-0.7781629	0.06349029	-0.29857364	0.99779016	1.2430847	0.0012844503	0.20213887	-1.760665	0.19191043	-1.0486246	0.70804596	-0.7709744	0.0013314858	-0.8323368	0.29965416	0.08165659	-0.71691394	0.028148644	0.25530064	0.93032354	1.123017	-0.3170119	-0.012462489	-0.21010503	-0.00749211	-0.3770488	-1.1176131	0.9068126	-0.49543968	-0.2303119	0.49915388	-0.46025872	-0.685062	-1.7104017	0.6496572	-0.21023256	-0.3333742	0.6497486	-0.6410593	0.1505644	0.07412729	-0.90968513	0.2373678	-1.2853885	-0.7121995	0.41401225	-0.0051421523	-0.19228813	0.5156281	-0.18818304	-1.3187052	-0.57519567	0.85490155	-1.1098218	0.50151205	0.14826278	0.7816104	-0.5225004	0.24914192	-0.27269128	1.1258059	-0.68641907	1.0791065	0.48256966	-1.0736463	1.2194626	-1.9704342	-1.059546	-0.82883644	0.228221	0.22921494	-1.3932257	0.33387053	0.21712804	2.2460098	0.017026432	-0.40883726	0.7204248	-0.33623573	0.7401061	0.056170702	0.8703939	-0.66647214	-0.8727816	0.740509	0.07193862	0.91840124	-0.17397594	-0.21605039	-0.27548146	-0.18743846	0.18574974	-0.6857766	0.64929557	0.027474634	0.36340308	0.48000592	0.89948624	-1.1720623	0.07003732	0.97530967	0.8094023	2.0409174	0.1802386	-0.4044572	-0.050342202	0.35194984	0.33266374	-0.61341405	0.6786108	0.31126684	0.036631458	-0.3715509	-0.4040677	-0.15151918	0.14595145	1.5296118	-0.62305695	0.12045573	0.10927752	1.2691498	0.6098771	0.32111472	-0.15567055	-0.17491063	-0.7658262	-0.049721055	0.48607582	0.7606343	0.7643708	0.023738302	0.14598733	0.9810617	1.0273293	0.5240965	0.78387964	-2.1030004	0.09592995	-1.3281304	0.37716055	0.36528414	-0.19023529	-0.47216308	0.96474123	-0.021422803	-0.5370789	-0.19798836	0.68530315	1.3975978	-0.36903635	-0.123358585	0.038339645	-1.2540426	0.6524526	0.4831903	-0.38513893	-0.66328144	-1.1274307	0.74280226	-0.7417922	-0.5213203	0.36711395	0.078016564	-0.03246841	-0.26404247	-0.48534012	0.040031344	-0.29947513	0.21107492	0.8509636	0.47135487	0.8512399	-0.24607801	-1.1134585	-0.7367477	-0.3193365	0.33209777	-0.2882499	-0.5812862	-1.492888	-0.30028233	0.17624302	-1.2909845	0.64140797	-0.042959303	-1.4110315	0.3722914	-0.47547823	-0.14574702	-0.044223715	1.4595288	0.5607646	-0.180378	-0.61192447	-1.0834543	0.6759891	-0.37448877	-1.5134361	0.84957004	-0.3397547	-0.029938325	0.36322254	1.1557902	0.56349546	0.55872923	0.12655303	-0.044816274	-0.3200717	-0.36951414	-1.2846539	-0.7174745	-0.021380506	-0.44638753	-0.83171237	-0.20347314	1.734827	-0.1244775	1.1077063	0.89290243	-0.009149581	-0.51745605	0.2103068	-0.010803096	-1.0189964	0.25880113	0.65056705	-1.2182744	-0.25477594	-0.79911435	-1.2161103	0.84860444	1.0776061	-0.41303	-0.35857704	0.2685177	-0.5569769	-0.31410542	-0.90800965	-0.41864198	0.18141223	-0.3757223	2.0189266	0.91813046	0.53102756	0.005732715	0.7036062	1.076725	-0.32660696	-0.047184333	0.67729735	0.2595172	0.4823128	0.23829272	-0.2503937	-0.41887388	0.17731889	-0.4213559	0.06752716	-0.59756285	-0.3373157	0.6333049	-0.097093314	-0.08641946	-0.22609107	-0.1362918	-0.5078522	-0.45777535	0.29127988	-0.49542722	-1.5627775	0.39726537	0.11920412	0.04501786	0.09091267	-0.37445107
G001644645	-0.093802035	-0.46721527	-0.5306494	-0.4303489	0.78996253	-0.3445018	0.14472504	-1.3407884	-0.13893443	0.7164669	0.09882079	0.0013305657	0.11571141	0.20587163	0.6375602	0.8996566	-0.785925	-0.956066	-0.54822415	0.16102128	-0.40868515	-0.917907	-0.8255087	0.83513135	-0.41570166	-0.4856463	1.446003	-0.39179224	-0.0271772	0.082956366	0.121622115	0.262176	0.9953013	0.7594409	-0.10902473	-0.0058960766	-0.30143315	0.08777731	-1.0785124	-0.28643715	1.1760261	0.42478466	-0.045099646	-1.1650416	1.066756	-0.2269958	-0.48248804	0.33485815	0.4799608	-0.2871633	-0.37473646	-0.36152363	0.4358954	0.10081181	-0.5656514	0.019431219	0.44260228	-0.6475294	-0.45881513	-0.5941603	0.8202856	-0.6997616	-0.23757198	-0.08268975	1.0206015	-0.98089665	-0.2329964	0.54480547	0.64465773	1.1539477	0.2784755	-0.17903957	0.23141545	-1.0805564	0.038233176	-0.43594486	0.4860877	0.86332	0.7745585	0.50854737	0.7000164	-0.94596636	0.11358825	-0.29013598	-1.1003393	-0.18334013	-0.3154077	-0.9565937	-0.09683067	-1.147006	-0.09491567	0.30367664	0.26750916	-0.44684997	-0.47589004	-0.3774725	-0.19042419	0.21184196	-0.12181914	1.2925155	-0.5452794	1.0915058	0.40167883	0.09955725	0.034185067	-1.344939	-0.4689505	-0.019902948	0.8319001	-0.52556235	-0.6705106	1.5778087	0.4275095	-0.22778125	-1.4393805	0.8170376	0.03378009	-1.39988	-1.3162048	-1.0300225	-0.30394432	-0.68174106	0.57502186	0.43484998	0.1633267	1.2481656	0.2599035	-1.2538217	0.050541505	-0.28481394	0.0767902	-0.29255378	-0.38120547	0.12414327	0.12957102	-1.4246244	0.4488527	-0.9830798	-0.543185	0.62483627	0.77889836	0.96826273	-0.87266666	-0.43835926	1.0933481	0.83961564	-0.10414919	-0.9239117	-0.6367719	-0.13262081	1.08365	0.34230965	0.08375743	0.079625696	0.026950821	-0.6069358	-0.1457108	-0.099553816	-1.0010344	-0.08877781	0.05440408	0.45143068	0.88147515	0.10926042	0.5944758	0.9485197	0.013517812	-0.620899	0.43613958	0.61691874	-0.5816115	0.17669514	0.1176053	0.46708247	-0.19667172	0.1196733	-0.064935915	0.34642285	-0.41861525	1.2113063	0.11856171	0.6531583	0.1900727	-0.43119293	0.5212069	1.1644957	0.76355374	0.64637995	0.01680243	-1.0252986	0.10605329	0.61963457	-0.37179488	-0.7581861	-0.15252413	-0.33731663	0.24227743	-0.7863881	-1.2757115	0.33153337	0.8580929	0.8579035	0.39947394	-0.18896145	-0.5589107	1.2704529	-0.24796084	-0.6169008	0.16504514	0.35315663	0.63801783	-0.21247506	0.8955179	0.72700894	-1.8502288	-1.0476631	0.52588916	-0.15651445	-0.8561292	-0.44995347	-0.16622451	-1.1202445	0.3987276	0.8975382	-1.0479994	-1.3383216	0.485264	-0.14725032	-0.6931605	-0.25514364	1.09968	0.1553922	0.21535864	0.0040688217	-0.32898784	0.50267476	0.32615066	-0.26217344	-0.41120034	0.39276588	-0.48658034	0.3606917	-1.5193908	0.6730525	0.81436557	-0.10347281	-1.384173	0.8448973	0.24335793	0.7445651	0.44892377	0.09556794	0.5256167	0.15009663	0.31463808	-0.5957632	-0.2141236	0.29211706	0.687691	-0.9375119	-0.70795584	-0.13352053	0.068058774	0.16018167	-0.6950064	0.3646165	-0.71336955	0.21638133	-0.9033189	-0.49487814	0.9911721	0.16840723	-0.11756603	0.19037385	0.112775385	0.33276832	0.3780461	1.1451741	-0.8364361	-1.3964977	0.032988325	-0.12573154	0.40412277	-0.732316	0.41985857	-0.45035452	0.109663785	-0.6960686	1.3218338	0.46176967	-0.934189	-0.7241415	0.95476973	0.92509776	0.11710835	1.0433112	-0.46205655	-0.5064173	0.7824761	-0.6502947	-1.0096105	-0.018466115	-0.07479722	-0.24630831	0.5395017	1.4337664	-0.20240943	2.2811387	1.3111438	-0.5515286	-1.4981568	0.47426367	-0.23753877	0.44984233	0.0052982643	-0.29113632	-0.15290207	-0.21281682	0.15782744	0.30197722	-0.6249962	-0.11878088	-0.037201665	-0.910546	0.39966422	-0.5220552	-0.22824213	-0.6925099	0.0031197518	0.33760452	0.16968006	0.9649231	-1.0006073	0.43718892	0.10641268	0.77647114	0.047013074	-1.9479122	-1.034293	0.6632328	0.51294553	0.6199741	0.18235412	0.27413222	0.09491404	-0.9131276	0.03728643	0.1254908	-0.6295303	0.47064775	-0.53234076	-0.9020327	0.50480664	-0.09784383	-0.14829832	1.144315	2.2392538	0.6001992	-0.7746152	0.28529486	0.45754495	-0.4835751	0.12054241	-0.63879484	-0.031961255	-0.29735678	-0.057551667	1.5036912	0.46263227	-0.17376307	-0.03230743	0.55630827	-0.27888176	-0.011783674	0.07423834	-0.61580586	0.816115	-0.30210915	0.21084943	0.28342086	0.96536446	0.7560819	0.6304704	-0.7745874	-0.41610748	0.63369924	-1.1994723	0.1147638	-0.71803904	-1.0947882	-0.7878652	-0.4532447	-0.74113196	0.00657171	-0.81318945	0.32587463	0.0031541064	0.62442064	1.16155	-0.44555718	1.4818074	-0.3578038	-0.14722224	0.37659186	-0.06753315	1.8778951	1.0905199	-1.1363821	-0.49331078	-0.27831846	-0.95453084	-0.17895626	0.43287128	-0.36181414	0.38684362	0.4084382	0.42893118	-0.7655806	-0.3081304	0.16535833	-1.0234928	1.2256104	-0.08745137	0.33594087	-0.21015894	-0.5155822	-0.12705302	-0.17741495	-0.0056788623	0.206225	0.29613048	1.1951865	-0.087106384	-0.18879223	0.010148436	-0.1383799	-0.44458115	0.16130313	0.5529442	-0.8503978	0.34974533	0.031202272	-0.18931952	1.354672	0.051779903	0.76404893	-0.14281131	0.5680073	-0.5108954	-0.5898866	-0.120655835	-0.6138912	-0.03351757	0.15906978	-0.10003823	-0.031162798	0.18822086	-1.1546237	0.3484481	-0.8439356	-1.1227009	-1.04015	-0.8073522	0.01781401	-0.690994	0.18047252	-0.17449233	-0.30746913	-0.28441757	0.7984915	0.20998211	-0.403754	0.15856038	0.51617944	0.51113856	0.57960504	0.5292225	-0.95695513	0.14715518	0.37788135	0.11214006	0.7101035	0.16141522	-0.3442763	-0.12133413	-0.003246732	0.31743586	-1.072203	1.7612164	-0.6929683	-1.0102425	-0.4911962	-0.9832282	0.17168526	1.0241948	0.03441546	1.3474395	0.73134303	0.6879518	0.982498	-0.31279224	-0.98936754	-2.1871014	-1.1298382	-0.2613045	0.037099823	-0.04695873	0.059349857	0.6910522	-0.7927341	-0.15360698	-0.08706166	1.2255198	0.7598876	-0.75496274	-0.14510138	-0.59831536	-0.36370975	-0.0928621	0.12341136	-0.68992335	0.97588265	-0.27741444	-0.12473063	-0.21269006	-1.150168	0.58456314	0.5054271	-0.6303182	-0.77905023	0.29991245	-1.1195897	-0.27553013	-0.050298154	0.3012322	-0.75321484	0.37730736	0.9939201	-0.9349867	-0.26534292	0.016016386	-0.26376635	0.2814802	0.6653795	0.8500369	0.545714	-0.27580416	0.70845556	0.49957567	-0.5370452	-0.40870625	0.35973096	0.578774	-0.769705	-0.9009977	0.5179459	-0.45990923	0.07657098	-0.42802668	-0.3603464	0.5155767	-1.9990073	-0.9487434	-0.8625673	0.5494944	1.0738378	0.017208979	-0.6990911	-1.0397552	0.46421486	-0.66533244	-0.2814164	-0.97678936	-0.76389134	0.044606052	-0.45431206	-1.0883815	-0.7214558	0.1464572	-0.33620414	0.42027766	-0.13064921	-0.87566113	-0.31851524	0.45117587	0.45210823	-0.71416944	-0.6908621	-0.5818019	0.2655927	0.34292167	0.48264667	0.10247493	0.52185667	-1.7017843	0.34077245	0.4270459	0.053766407	0.048605174	0.045670986	0.93395245	0.061203033	0.6454177	-0.32250956	-1.9209942	-0.47965628	-0.20053229	-0.66175485	-0.05605968	-0.16465372	-0.43122098	-1.0574403	-0.40860373	0.14797162	0.44915533	-0.39957297	0.022852428	-0.5394325	0.44591847	0.5991824	-1.2496176	-0.06073705	0.060956165	-0.29937065	-0.49537355	-0.40120107	0.09979811	-0.024939269	-0.25490722	-0.49455422	-0.21894756	-0.55200386	-0.2462512	-0.17477858	0.88679373	0.5417398	-0.47435275	0.30344647	-1.2546769	0.1249982	-0.052683346	-0.053480573	0.9421243	-0.3929955	-0.6787417	-0.84002143	1.421255	-0.34291697	-0.3691736	0.012205554	-1.1409785	-0.41035077	0.9004925	-0.2733329	-0.947364	1.0757595	1.3108515	-0.37301877	-0.64495856	1.0873439	0.74329513	-1.1348442	-0.19574453	0.981764	-0.10373111	-0.36663818	0.57325673	0.8121278	0.1582652	0.7041496	0.8332105	1.3064421	-0.97599936	-0.5372854	0.46179557	0.11095305	0.05852215	-0.12962161	0.25589857	0.9354137	0.50765336	0.165384	-0.41065198	0.45212108	0.5418446	0.58501685	0.26622277	0.22361179	-0.26893437	-0.3581689	-0.044507906	-0.5078369	-0.66211313	0.7458458	0.015524857	0.6881206	-0.22914997	-1.9877459	-0.24834733	0.68815106	0.0039365403	-1.56336	-0.099501416	-0.638379	0.36036408	0.30084446	1.656221	1.2879732	0.21859254	-1.3817127	0.7528111	-0.21137762	-0.13751191	0.64952934	-0.30773064	-0.47729784	-0.8879049	-0.19578639	0.55871207	-1.0652484	0.53711486	0.7583323	-0.40853107	-0.027421601	1.4236271	-0.7333368	1.2391297	0.51026255	0.853264	0.23313887	-0.4639835	-0.976374	-0.25181755	-0.33697528	0.79786617	0.7305727	0.1450021	-0.6131059	-0.0715869	-0.014658801	-0.6202297	-0.8010441	-0.09757221	0.28199768	-0.67305857	0.24112754	0.5626574	0.4122827	0.43213135	-0.5171599	-0.709863	0.30951953	1.0433773	0.73836267	0.18424682	-0.0061885715	-0.89235467	-0.07769078	-0.033893548	1.3797547	-1.0629659	-0.10152453	-0.58055705	-0.28487998	0.14358738	-0.1941838	0.109733395	0.42345032	0.951973	0.7856603	-0.36139113	0.31972012	-0.021720596	-0.26248747	0.46887234	-0.104155764	0.6831161	-0.7146098	-1.088678	0.10872376	-1.1715744	-1.086118	-1.1721455	0.27304992	0.5158087	-0.0349043	0.382672	-0.56943524	-0.36645874	0.41322255	-1.1038009	0.51902026	-1.6026957	-1.003266	0.071256705	-0.09629725	0.448923	0.5685572	-0.26582736	-1.5319278	0.29764897	-0.2425534	-1.3081117	0.22069632	-0.44438395	0.6943185	-0.76039135	-0.3696871	-0.43064103	0.7041931	-0.12238018	0.76477766	0.20140517	-1.2473192	-0.10914533	-1.3759162	-1.2683945	-0.903944	0.40506798	-0.17908686	-0.88776284	0.17380686	1.033633	1.7435448	-0.39836982	0.15909511	1.2313845	-0.7922509	1.1033373	-0.85283554	1.7425511	-0.9987443	-0.74514425	1.0899185	0.45691732	0.4847573	-0.7122627	-0.3572315	-0.29944536	0.022625197	0.8651135	-0.811991	0.5859125	0.034742013	-0.2980344	0.47237775	1.094495	-0.28213295	-0.039590806	0.81165034	0.013535678	1.0610538	-0.26762414	-0.8401455	0.5745311	1.1182398	-0.20377201	-0.4592418	0.05772482	0.9241161	0.19816859	-0.5675177	-0.37264436	-0.49430612	0.22053154	0.7363723	-0.28882498	-0.13817817	0.19320422	1.3794127	0.46553853	0.2970233	-0.09038898	-0.28781414	-0.24910894	-0.7186159	-0.43883067	0.7295694	0.28300735	0.6268625	0.578054	0.23846635	0.9626109	0.6425316	0.62257653	-1.8487513	0.22451058	-0.96018076	0.1568582	0.009174541	0.48181596	0.04888819	-0.069097325	0.5168283	-0.8297381	-0.31912646	0.6178101	0.5320619	-0.6269104	0.2982246	0.5430996	-0.9571737	-0.044543654	0.7540745	-0.21452087	-0.38416427	-0.64105165	0.59649545	-0.7581758	-0.8940354	0.9334086	0.12410642	-0.5868084	-0.69027436	0.30161992	0.08593276	-0.20124492	-0.22424999	2.0335581	0.4068327	1.0956653	-0.6076087	-1.1852446	-0.6801938	-0.71996075	-0.24481635	-0.28387758	-0.38996625	-1.9910686	-0.1476092	0.46719944	-0.75188565	-0.036789328	-0.17032234	-1.1591519	0.47676024	-0.58636194	-0.6909291	0.48290643	1.3496277	-0.2183475	-0.34231392	-0.66208595	-0.3303017	1.1356192	-0.25467455	-1.2814926	1.1615849	0.030067936	-0.13847832	0.027970098	0.24875194	-0.30168968	0.022595365	0.36195946	0.21444501	-0.31842354	-0.3061524	-1.2896838	-0.07594757	0.30532664	-0.5592679	0.5061705	0.8195034	1.7807832	-0.44551086	0.17258605	1.0916027	-0.46576536	-0.11882946	0.5779165	0.0332118	-1.3465345	0.72341216	0.3665711	-1.0844624	0.1667009	-1.0466813	-1.1427106	0.8501758	1.0951124	-0.40353322	0.034492217	0.038224578	-0.68279815	0.49122387	-0.57993364	-0.54516083	0.08265073	-0.5602454	1.6252478	0.70460933	1.0053504	-0.0059654415	0.5633465	1.0711251	-0.39938593	0.30599952	0.3443374	0.24421664	0.97174805	0.19440454	-0.00078584254	0.21353438	0.75362384	0.22531386	0.12806398	-1.3420651	0.23126425	0.07831909	0.4065437	0.607087	-0.3693517	-0.40065736	-0.03291242	-0.30682403	0.20001927	-0.40698746	-1.2128999	0.61408657	-0.3539002	0.34393823	-0.81640536	-0.66597664
G900114995	0.40319917	-0.37676537	-0.8901957	-0.36734343	0.9685974	-0.68546045	0.05951287	-1.3231046	0.40044335	0.018840015	0.09278856	-0.18262357	-0.08276047	0.006689526	0.71749395	1.4002812	-1.0263444	-0.91977465	-0.4936145	-0.05789247	-0.5688542	-0.4987692	-0.6305371	0.9797028	-0.32515386	-0.18293628	1.4777466	-0.90013415	0.38489795	0.3047069	-0.043418556	0.69799733	1.0877345	0.40959644	-0.25302392	-0.58095235	-0.12171061	-0.077910244	-1.3098167	-0.108283125	0.7038026	0.4590901	0.04494594	-1.1294757	1.1710445	-0.39186776	-0.68276167	0.19770178	0.23375548	-0.60731494	-0.48377615	-0.15172109	0.40748787	0.012187377	-0.54206353	-0.41164887	0.6324454	-0.5602237	-0.3345071	-0.5163557	0.7999234	-0.7050578	0.10717576	0.24733518	0.5768898	-0.8582308	-0.058375716	-0.10013012	0.5677211	1.0068759	0.10343423	-0.22145365	-0.017738082	-1.5204921	0.06646623	-0.41561002	0.4812293	0.6111901	0.68234336	1.1568589	0.87761724	-0.4660999	0.78615695	0.040159225	-1.6704578	0.034067255	0.0038889647	-0.94401956	-0.25318983	-0.907201	0.035662323	0.5888647	0.50570303	-0.13401413	-0.74784446	-0.23695362	-0.45882446	0.3552532	-0.30537367	0.65382946	-0.43287137	1.129294	-0.076649755	0.27280605	0.10909818	-1.1377513	-0.8797567	0.34335336	1.5194157	-0.4191832	-0.6158475	1.1478351	-0.07210521	-0.09765237	-1.1886872	0.8067974	0.57871383	-1.3099718	-0.8072812	-1.0693372	-0.606319	-0.22703573	0.8480078	0.34088218	-0.19124562	0.90929985	0.38954917	-1.1089743	-0.082364365	-0.2151857	0.42515552	-0.51735395	-0.83439434	0.27411342	-0.4577914	-1.32979	0.077691525	-0.6553763	-0.20152873	0.85397315	1.17882	0.7622896	-1.0938053	-0.36568823	1.0853367	0.8149291	0.07915323	-0.79829955	-0.46998504	-0.050552696	0.78140247	0.2678173	-0.3686821	0.013005249	0.14262058	-0.5801047	-0.1142346	-0.14606923	-1.5766112	-0.2518999	-0.35372096	0.18478958	0.38483867	0.117294654	0.39641756	0.61769795	0.2674644	-0.9503486	0.31747553	0.3046494	-0.827573	0.29460815	0.05209562	0.3164254	-0.51658833	-0.35013628	-0.1432586	0.73331356	-0.54820216	0.8535752	0.17674807	0.48664764	0.21473482	-0.511888	0.45970786	1.0771246	0.75728333	0.35127276	0.48957485	-1.0196158	0.1809209	0.52395326	-0.12321551	-0.86913794	-0.5729073	-0.25097403	-0.03717097	-1.0276423	-1.297721	-0.06790307	0.63266397	0.63543427	0.60524035	-0.084762	-0.895935	1.0977056	-0.09257468	-0.48886752	0.1057638	0.54237264	0.75819397	-0.5028545	0.46124047	1.0161129	-1.0473258	-0.9119269	0.44987273	-0.15673849	-0.7256315	-0.46820948	-0.32531932	-0.99166876	0.15895158	0.667066	-0.90183824	-1.1435951	0.564474	-0.26313704	-0.59987676	-0.3732012	1.015003	0.4896615	0.67911816	-0.2930472	0.08455938	0.36590508	0.53141767	-0.1536758	-0.44489104	0.1529142	-0.529544	0.41924578	-1.2561419	0.9160384	1.1299354	0.13861415	-0.98201567	0.6854318	0.2163469	0.6560855	0.20266429	-0.20525146	0.5886764	0.52530974	0.06768181	-0.7892122	-0.15356666	0.7612873	0.06147194	-0.6350648	-0.51478016	-0.23799938	-0.0015916862	-0.33109418	-0.6728922	0.49029964	-0.48302418	0.038308796	-0.515725	-0.43563637	1.1225643	0.23124501	-0.19677766	0.13870564	-0.014036361	0.2687527	0.8817427	0.69952464	-0.37928432	-1.1298693	0.041515052	-0.13818495	0.038174152	-0.6816212	0.6889849	-0.42498186	0.23383267	0.03700552	0.9210786	0.655785	-1.032467	-0.33068964	0.9572935	0.6904631	-0.19966954	0.97459316	-0.8055219	-0.16831589	0.9180211	-0.3824762	-0.8143753	-0.14827722	0.38505024	-0.4879046	0.105923615	0.9129357	0.080298305	1.7187265	1.389559	-0.23019361	-1.4729552	0.5469655	0.09163095	0.5804788	-0.22687925	0.0008560568	-0.08091532	-0.41683763	0.39664173	0.34573382	-0.37973768	-0.28324455	0.022401385	-0.78588295	0.51950145	-0.26011547	0.09083628	-1.0840533	0.24316604	-0.08946155	0.5890199	1.1058776	-0.49426866	0.23936915	0.3924749	0.6428181	-0.04315619	-1.7644978	-0.9436147	0.22265758	0.28298447	0.945182	0.46242076	0.39635995	-0.07202383	-0.8617439	-0.21529777	0.07016808	-0.9691954	0.11196831	-0.7470454	-0.50233436	0.77602464	-0.28259644	0.13836156	1.1134845	1.550107	0.51200354	-1.0220264	0.5213451	0.355856	-0.47387	0.46978578	-0.65226483	0.20850082	-0.037113458	-0.24213454	1.3980707	0.65795934	-0.6092328	0.00857383	0.32553947	-0.5636649	0.10029803	0.39612174	-0.8483186	0.96870154	-0.1713438	0.06818542	0.27769706	0.5053283	0.6118623	0.5961708	-0.98328674	-0.049066395	0.73956716	-0.97633517	0.26464123	-0.6745542	-1.0854496	-0.5090717	-0.88425756	-0.5631327	0.006519735	-0.8471414	-0.078190774	0.10068996	0.45893887	0.9197052	-0.5004355	1.0527861	-0.4779489	-0.052053053	0.89707214	-0.34508753	1.8023633	0.48957244	-0.49590015	-0.11642798	0.37251574	-0.98450935	-0.10982275	0.32351238	-0.8418993	0.27556306	0.4094051	0.37145168	-1.6516597	-0.83532673	0.07857683	-1.0178167	1.2801962	0.1675614	-0.15914778	-0.7710387	-0.43814057	-0.31419507	-0.07336506	0.38253325	0.011181995	0.3704188	0.69168323	0.0035804175	-0.3594842	-0.13164994	-0.27247924	-0.27929032	0.054307982	0.36831504	-1.0919719	0.16183092	-0.16421117	0.2706278	1.753766	-0.2985869	0.91764927	-0.09499291	1.1561904	-0.8185443	-0.058867197	0.060468137	-0.52741617	0.10349712	0.8065129	-0.08255795	0.42557022	0.38128757	-1.0938812	0.26149225	-0.82834816	-0.8781955	-0.7599348	-0.5461363	0.28685248	-0.7335324	0.74056816	-0.39253095	-1.0189965	0.11516486	0.78505784	0.21612659	-0.5603396	0.31873456	0.28704083	0.67479897	0.23787972	0.39301044	-1.2301236	0.06390966	0.4193086	-0.42689192	0.9742204	-0.04242134	-0.68853086	0.019522043	-0.33501548	0.17627227	-0.8267307	1.2972256	-0.45923704	-1.0208712	-0.3545039	-1.3298854	0.28947484	0.76802397	-0.30502728	1.3515047	0.3918385	0.64996916	0.99732393	-0.010279998	-0.7475341	-2.2621264	-1.2334273	-0.105217725	-0.10376977	-0.043250665	-0.06819521	0.38711008	-0.5278306	-0.3909468	0.42098328	0.7075162	0.51910585	-0.861789	0.1623256	-0.51845545	-0.102331504	-0.8085683	0.097441375	-0.6334516	1.6851841	-0.5440733	-0.4856747	-0.42825967	-0.7448724	0.75928855	0.3933435	-0.13050404	-0.628432	0.4646546	-1.157705	-0.6156017	-0.3652948	0.4557998	-0.19224463	0.35379475	0.9405953	-1.271503	-0.612354	0.119127385	-0.7882502	0.13629052	0.0038793012	0.38607398	1.1401299	-0.40256917	0.74445975	0.39952934	-0.79851687	-0.49145535	0.5171462	0.43871218	-0.928136	-0.5956564	0.93612504	-0.06704773	-0.21190596	0.2835861	-0.013872258	0.31976002	-2.4119387	-1.4347153	-0.5243501	0.54150224	1.1943601	0.19914483	-0.95992637	-0.7294078	0.7193791	-0.75010127	0.35525537	-1.5860882	-0.9015051	0.2904728	-0.28206205	-1.3090945	-1.0868266	0.4211651	-0.36051026	0.6828501	-0.32369277	-0.51327384	-0.23970777	0.20938557	0.42534202	-0.94104356	-0.75599897	-0.39445326	0.6962377	0.3445222	0.36804333	0.34601843	0.37394142	-1.5385367	0.28579134	0.065559596	-0.03548421	0.13281226	0.08019979	0.6051699	-0.44294032	1.5060898	0.3400938	-1.6735281	-0.40416503	0.1810775	-0.85830134	-0.011980966	0.11140862	0.30188966	-0.7307839	-0.31218982	0.03073126	0.28012583	-0.5436055	-0.3960684	-0.34216172	0.5280144	0.5803659	-1.1249323	-0.1226158	-0.2793805	-0.1099649	-0.16563949	-0.64796406	0.1740682	0.44528288	-0.4019236	-0.052060142	-0.29056096	-0.7601947	-0.321997	-0.056939397	0.842916	0.7285615	-0.23999342	0.35511434	-0.9080752	0.37123418	0.53960425	-0.32362384	0.7798426	-0.28917226	-0.71588045	-1.0100268	1.542448	-0.14879012	0.020181	-0.26342124	-0.89752185	-0.48316026	0.5092986	-0.106755584	-0.84499	1.004298	0.8964797	-0.7850501	-0.7072251	1.109642	0.72082114	-0.7806473	0.38128757	0.15482363	0.121593215	-0.4224866	0.59357	0.8552958	0.02407591	0.67388827	0.80672526	0.93706286	-0.75789994	-0.9169626	0.060244665	0.12564562	0.45828608	-0.02122645	0.5050545	0.68594813	0.72925717	-0.41372502	-0.22634506	0.60433155	0.8734565	0.24991551	0.8975991	0.6068464	-0.6519077	-0.31790918	-0.03463497	-0.18579227	-0.33588824	0.15975884	0.12643085	0.73406386	-0.09911196	-2.1907647	-0.16211918	1.026857	0.23180169	-1.6438619	0.49353486	-0.84970045	0.5311895	0.5680243	1.445404	1.1363909	-0.31807473	-1.118174	0.9072413	-0.094668016	-0.42759803	0.13910007	-0.79446834	0.0390366	-0.8172469	0.0055592544	0.4440197	-0.37107173	0.4940497	0.9827395	-0.5919739	0.4664634	1.7334517	-0.8241937	0.9418171	0.4565985	0.10264205	-0.18622664	-0.026377723	-0.81880486	-0.34805053	0.20463656	1.2425777	0.07107106	-0.11617397	-0.5512288	-0.4716936	0.0746612	-0.35980293	-0.6186638	0.1807105	0.089255124	-0.46244514	0.217303	0.85588443	0.28348872	0.37631392	-0.5085721	-0.6350045	0.34773123	1.3305229	0.96501976	0.5703785	0.012717098	-1.2316079	0.15508758	-0.3675968	1.0441171	-1.2382373	-0.5227875	-0.3183856	-0.441449	-0.080124155	-0.6504519	0.008983992	0.67752373	1.2989674	0.39629287	-0.2740853	0.8342625	-0.25640035	0.01742132	0.27595827	-0.4854403	0.7221313	-0.71596044	-0.672133	0.07510258	-1.2380422	-0.952739	-1.263458	0.31061068	0.2949001	0.038476363	0.45577538	-0.71283	-0.07053801	0.7152039	-0.90823084	0.32157058	-1.3033772	-0.9599058	-0.07843655	-0.44197357	-0.06327373	1.217496	-0.15207192	-1.528438	0.20652953	0.081162944	-1.0123627	0.5174189	-0.215816	0.61716044	-0.8422872	-0.6319222	-0.34757894	0.8561505	0.31954804	0.7562462	-0.03332317	-0.88898325	0.10447273	-1.3989798	-1.1323931	-1.0016892	0.9454575	-0.054959826	-0.81833184	0.018630832	1.3542645	1.7144445	-0.1843476	-0.1699358	1.1886238	-0.6622308	0.88382864	-0.589144	1.5587233	-0.95702964	-0.47678035	0.8166375	0.7553048	0.76753235	-0.9921232	-0.10053344	-0.40425235	0.6735927	1.0027567	-0.30157638	0.64364475	0.11288596	-0.2736985	0.46507108	1.7504247	-0.6304804	0.5255434	0.94965506	0.21720646	1.2299042	-0.026204593	-0.33264124	0.697486	1.0404234	-0.21569005	-0.079912916	-0.0074582696	1.3830333	-0.15530632	-0.4631092	-0.08219892	-0.19629084	0.11654621	0.93483067	-0.15633795	-0.25054938	0.041106816	1.3593426	0.665937	0.70899296	-0.23188981	0.07188889	-0.36785614	-0.3845416	-0.75783926	0.68104106	0.11801912	0.631478	0.43273345	0.6196469	0.9540779	0.3700661	0.7069348	-1.400755	-0.007986948	-1.3661219	0.13699219	-0.26546454	0.1753268	-0.43437034	0.3308816	0.48182136	-0.8738878	-0.13274887	0.75164455	0.6772017	-0.34258133	0.1493639	0.5791849	-1.0136373	0.41114956	0.8256168	-0.09786811	-0.5939429	-0.14410952	0.90768886	-0.5453416	-0.84337026	0.80241543	0.09508023	-0.1772342	-0.58982736	0.43025938	-0.39294505	-0.27138942	-0.040755317	1.8213588	0.31889656	0.514948	-0.18421999	-1.1244116	-1.2604332	-0.42769793	0.19080964	0.2447448	-0.5213309	-2.3573017	-0.082978204	0.57617855	-0.821269	-0.09570935	0.029947907	-1.0406138	0.52871895	-0.5941226	-0.4564703	0.7317454	1.2758579	-0.0858017	-0.52936894	-0.056915194	-0.7820318	1.0797772	0.33103368	-0.94026536	0.9656402	0.13212237	-0.25533068	0.033887535	0.64507246	-0.33849332	0.04534413	0.41299817	0.09210813	-0.067837946	0.026616283	-1.5270195	0.11635378	-0.39104655	-0.45604664	0.47573948	0.4948931	1.522331	-0.5414841	0.336138	0.9909805	-0.580322	-0.27139467	0.34300137	-0.10759056	-1.0765777	0.76334584	0.4913652	-0.8191095	0.31135085	-1.2262999	-1.5518763	0.49590647	1.0477767	-0.125494	0.002993146	-0.15253156	-0.23205885	-0.22741373	-0.48868543	-0.47479665	0.3025258	-0.30068097	1.5373343	0.7135465	0.74067	-0.77365696	0.96646965	0.7552927	-0.39953068	0.18407695	0.34127492	0.5347038	0.70730615	0.17898181	0.5118914	-0.12848455	0.85614955	0.1488466	0.06508034	-1.1362649	-0.019553363	-0.026779965	0.18303047	0.08425054	-0.7040806	-0.10776076	-0.28649384	-0.7850746	0.25592253	-0.31396672	-1.2610132	0.5596465	-0.4169309	0.29876584	-0.5584557	-0.5609125
G001829005	0.3777715	-0.62742674	-0.19833325	-0.9907319	0.92887104	-0.6332296	0.0024218708	-1.0324512	0.36592948	0.17159319	0.1107434	-0.30504346	-0.010541096	0.3071885	0.7721538	1.0510057	-0.9076063	-0.9848087	-0.59766436	0.500648	-0.37776387	-0.70847017	-0.6672429	1.0257018	-0.47371057	-0.5720669	1.7538139	-0.5492714	0.45140004	-0.15170246	-0.16993389	0.037966885	0.8590981	0.81304646	-0.19014204	-0.4223572	0.03345938	0.034076303	-1.2165672	-0.63109154	1.4178421	-0.15349072	-0.24442059	-1.3771396	0.9186909	-0.287071	-0.39401048	0.3151688	0.70520747	-0.5744692	-0.27257246	-0.03666544	0.18863879	0.52903175	-0.75292706	-0.52254844	0.37082574	-0.6783549	-0.2857924	-0.58383656	0.8028085	-0.79104424	-0.0054357555	0.2591396	0.8374784	-1.2666402	-0.11507432	0.21450834	0.4460555	1.1096069	-0.07214858	-0.158214	0.2379317	-1.5432961	0.14521652	-0.08851884	0.7332633	0.7081493	0.54181737	0.97229254	0.4582703	-0.5884004	0.35103226	-0.032367766	-1.2062612	0.24274547	-0.21632911	-0.59662074	-0.25216547	-1.0416164	-0.12242323	0.6065381	0.3900144	-0.25407553	-0.514269	-0.7633093	-0.21629979	0.031423785	0.06383835	0.7539319	-0.74738777	0.6578161	-0.10833211	0.34378588	0.038455576	-1.1581558	-0.41892007	-0.26370496	0.58805233	-0.18860283	-1.0671728	1.9999572	0.57359546	0.14485198	-1.4575241	0.7349995	0.057314985	-0.9058151	-0.94053656	-0.96765804	-0.18396197	-0.8310907	0.24036877	0.7044056	-0.1085552	0.97012573	0.16008963	-1.1007226	0.0955631	0.19270396	0.35905063	-0.1981649	-0.32998863	0.1707249	0.028571308	-1.057017	0.3579141	-1.4078965	-0.45001704	0.58084106	1.2229812	0.90357405	-0.62059474	-0.35658818	1.425424	0.73968095	-0.074929245	-0.85613704	-0.84616065	0.18573007	0.78862476	0.514054	-0.117919385	0.054250542	-0.12411934	-0.5853976	0.21171829	0.09210693	-1.6551192	0.46692026	-0.19393389	0.37378556	0.72426164	0.39658895	0.47452164	0.66711855	0.21914044	-0.075006865	0.028240614	0.5499803	-0.29084742	0.023132984	-0.16718283	0.43590915	-0.0719295	0.20090547	0.064757615	0.21330643	-0.4638294	0.64195067	0.5296645	0.49835765	-0.05234819	0.0021240544	0.24404417	0.5450338	0.6592618	0.29665098	-0.12606683	-0.8635626	0.13219139	0.20328663	-0.08296478	-1.1060024	-0.63103604	-0.88638633	-0.119228154	-1.0619141	-1.3201799	0.26603132	1.3965093	0.43420422	0.4470128	0.20455682	-0.6193919	1.3472899	-0.10474412	-0.80284	0.3108276	0.15589598	0.8090032	-0.181668	1.0843377	0.9133981	-1.2558184	-1.3219289	0.71541834	-0.13420375	-0.6512259	-0.47700927	0.15069823	-1.4885558	0.6560146	0.894245	-0.906132	-1.5797852	0.32847643	-0.21536009	-0.46499118	-0.0060040057	1.0825471	0.6261095	0.20340662	0.012468278	-0.123651415	0.5596081	0.3722423	0.24540487	-0.67239547	0.8306937	-0.043002263	0.44959164	-1.5940807	0.81458724	0.76011276	0.0277029	-1.4634215	0.7860297	0.25463784	0.6075399	0.7226097	0.026990224	1.2001802	0.051214084	-0.152847	-0.99883246	-0.54921556	0.5211186	0.25881016	-0.62669724	-0.64734876	0.018977806	-0.4196076	0.16983172	-0.8178539	0.57629716	-0.89030427	0.18318713	-0.9025006	-0.6322889	0.7719099	0.19548078	-0.13248591	0.05525388	-0.19691968	0.30968723	0.32292464	1.1054935	-0.84669495	-1.363503	0.22241953	0.11323841	0.08280468	-0.6249507	0.62397236	-0.9055102	0.39387923	-0.16731198	0.915565	0.6498722	-1.3303399	-0.41689116	1.0759639	0.45711067	0.26127237	1.1273451	-0.23704764	-0.22956178	0.6344055	-0.52432907	-0.6592156	0.11784798	-0.10076598	-0.7890658	0.3463812	1.1527317	-0.071430296	1.8767538	1.2437742	-0.3408801	-1.0726631	0.58126026	0.010285005	0.012896076	-0.27657786	-0.26734063	-0.16663352	-0.45520326	-0.07207948	0.28251627	-0.41723514	-0.26210332	0.3356853	-0.59537375	0.52485883	-0.39551893	0.27520892	-0.8589943	0.3862615	0.15847181	0.24435392	0.67275864	-0.6626383	0.28981045	-0.13500385	0.5454749	0.12040627	-1.8545461	-1.1686552	0.60369825	0.7108639	0.7999959	0.23733425	0.4245417	0.060994394	-0.95809174	-0.07009517	-0.23306614	-0.77086633	0.1794106	-0.2676942	-0.915147	0.49277696	-0.12634203	-0.010472953	1.1242824	2.0978942	-0.14319211	-0.44700143	-0.12582211	0.0964538	-0.12814015	-0.014047727	-0.47358656	0.05342865	-0.47513187	0.0058042146	1.5002103	0.3295105	-0.3650396	-0.09117134	0.5012601	-0.33396447	0.4446565	-0.09325376	-0.74203545	1.0089083	-0.4853877	0.15759829	-0.1467001	0.63016534	0.94157195	0.57156265	-0.5069091	-0.1139456	0.5923805	-1.1819861	0.3044206	-0.8663019	-1.0073993	-0.8773374	-0.43450448	-0.725283	-0.23699611	-0.80397403	0.5358176	0.1282782	0.6602094	1.355379	-0.22221082	1.5622113	-0.21889174	0.18028952	0.78308266	-0.23604897	1.4844466	0.72775704	-1.3791426	-0.19154806	0.25221282	-0.7299496	0.34545672	0.20723557	-0.7007905	0.5398522	0.39205122	0.28541845	-0.85831535	0.05404204	-0.13674301	-1.0290343	1.3727981	0.39627653	0.040349893	-0.20032229	-0.50897145	-0.3559534	-0.11596465	0.019901738	0.25524604	0.7395352	0.95199996	0.29623374	0.030280516	0.26500562	-0.025913268	-0.2486099	-0.25111452	0.39691705	-0.7234253	0.8298493	0.21066132	-0.06953356	1.1350174	-0.47583106	1.0111928	-0.11914477	0.41019493	-0.60219175	-0.36741105	0.30448365	-0.34403127	-0.069628045	0.5322091	-0.3241337	-0.07437402	0.3277025	-1.0124552	-0.15423049	-1.1383603	-0.91148037	-1.313654	-0.4991923	0.07569668	-0.36450082	0.26345855	-0.03498503	-0.49407905	0.08178741	0.63715523	0.38114655	-0.7672763	0.40802976	0.33217436	0.52692217	0.091419965	0.44680268	-0.85556805	0.15531811	0.3129956	-0.074246936	0.36782295	-0.0014817566	-0.39742893	-0.37808567	-0.02686727	0.32133496	-0.70449287	1.2042897	-0.6671494	-1.0006928	-0.08921127	-1.3785474	0.12540063	1.2073969	-0.1534615	1.0594782	0.8360044	1.0334678	0.9289556	-0.23706722	-0.64242667	-2.2874765	-0.8678303	-0.10565795	0.16007818	-0.045868106	-0.13305624	0.7429818	-0.41637513	-0.12783194	-0.15055516	0.7068678	0.5084469	-0.5495493	-0.099561065	-0.32052165	-0.24378008	-0.5711711	0.027891032	-0.31137574	1.0213746	-0.23217368	-0.49563414	-0.44274846	-0.8777701	0.7405938	0.3740808	0.12909935	-0.8323401	0.46090373	-1.0591128	-0.7111157	-0.28220546	0.19505066	-0.3556503	0.74767035	0.468921	-1.2376456	-0.5586179	0.044545837	-0.36271408	0.4237544	0.543357	0.38526145	0.72382396	-0.43041927	0.6850772	0.47642684	-0.7665914	-0.8841569	-0.09310457	0.9942869	-0.68403417	-0.8704797	0.49251533	-0.5470518	-0.0029457882	0.13032226	0.13014643	0.6659734	-2.020382	-1.3437458	-1.248689	0.4266742	1.1654323	0.1697455	-1.1557603	-0.5769476	0.59484106	-0.5242212	-0.36673006	-1.004065	-1.1772177	-0.14567491	-0.24669248	-0.92530406	-1.0349784	-0.053601086	-0.15776755	0.7543011	-0.18144359	-0.7138237	-0.055086493	0.43088478	-0.1780653	-0.9716523	-0.65178776	-0.4538337	0.46538377	0.3742677	-0.0231677	0.16733535	0.55963266	-1.0430847	0.100701705	0.25811413	0.073967084	0.047483474	0.26316094	0.66890085	-0.043614555	1.2237034	-0.28182453	-1.7162153	-0.48810384	-0.047888413	-0.5973162	-0.483836	-0.11416521	0.12530439	-0.7416042	-0.217793	0.28386945	0.27026832	-0.19674794	-0.32881832	-0.17521708	0.50257343	0.8351043	-1.1303258	-0.31078318	0.08419596	-0.022538558	-0.2918328	-0.5225809	0.30379716	-0.49831125	-0.2346318	-0.39339423	-0.51374185	-0.44678548	-0.18774512	-0.40433747	0.7910289	0.7911316	-0.457074	0.58424926	-1.088755	0.09941158	-0.15212986	-0.04692647	1.1889938	-0.0721651	-0.6295982	-0.8753934	1.6443641	-0.55186194	-0.107282996	-0.44134063	-0.8927074	-0.23372579	0.80847776	-0.07138413	-0.89824235	0.97146106	1.1593635	-0.13406472	-0.3248158	1.1714417	0.2427153	-1.0036384	0.03482247	0.24938965	0.19129491	-0.4025525	0.53797716	0.72232586	-0.05165934	0.60108554	0.7399793	1.1172798	-0.8664116	-0.6416976	0.2423339	0.104009345	-0.156962	0.29469824	0.2651922	0.5759175	0.4694546	0.13135341	-0.4552863	0.8026997	0.90593493	-0.12932481	0.03433822	0.25833255	0.11668591	-0.59383744	-0.36802903	-0.65809566	-0.40377215	0.75355625	0.030974247	0.27747768	-0.07362561	-2.0229526	-0.062191866	0.83247715	0.07945125	-1.2330514	0.18584913	-0.4565505	0.50236726	0.7092494	1.9683986	0.7559089	-0.25524375	-1.4925256	0.60072094	-0.2088575	-0.2875379	0.5491732	-0.5906083	-0.38684645	-0.65136886	-0.37737346	0.45203936	-0.7631768	0.2674696	0.91629374	-0.50162846	-0.013268988	1.2427542	-0.6261318	1.0567834	0.68503296	0.37726602	0.09320742	-0.32884255	-1.0701035	-0.09430453	0.15484023	0.9272443	0.4558795	0.5524741	-0.440699	-0.3143928	0.36259785	-0.41081217	-0.8464214	0.05270691	-0.00062777847	-0.64804673	0.34561005	0.7928839	0.14711446	0.030725919	-0.28401917	-0.41134793	0.28567356	1.0675361	0.8556173	0.18822941	-0.44170958	-1.2777826	-0.32225212	-0.32825285	1.5794449	-1.1682181	-0.08272553	-0.4661614	-0.2868775	-0.51125515	-0.25151584	0.200247	0.50240064	1.013433	0.7639419	-0.65279835	0.49040642	-0.16526143	0.07111944	0.18685701	-0.27461472	0.41933188	-0.51014763	-0.8560942	0.0483703	-1.213067	-0.91394293	-1.2356914	0.04998426	0.57000893	-0.09835307	0.5652011	-0.48001245	-0.14065844	0.34181046	-0.6271698	0.34079483	-1.288431	-0.81236416	-0.39239174	-0.3297065	0.19739725	1.0898027	-0.27804714	-1.6039596	0.55712396	-0.01886502	-1.231852	0.6807271	-0.018013623	0.8963526	-0.7440357	-0.63098776	-0.2877686	0.39935976	0.03995225	0.48632175	0.57640713	-1.3155903	0.33343375	-1.2174929	-0.88538265	-0.9078528	0.8127535	-0.42331523	-0.97433877	0.12737927	0.8157565	1.7413774	-0.21864037	0.07083756	1.0454191	-0.8200394	1.1381899	-0.56184137	1.528827	-0.84424967	-0.6029989	1.0137999	0.2356431	-0.21756724	-0.70989335	-0.18281692	-0.17541775	0.027829021	0.5406096	-0.42706797	1.2442356	-0.11436107	0.22028357	0.52241635	1.6390948	-0.6797073	0.051274538	0.8710363	0.23846167	0.78224826	0.01693538	-0.6216335	0.9126681	0.8900155	0.06364772	-0.10858309	0.18822569	0.58514035	-0.06244625	-0.5442153	-0.4539755	-0.3301184	-0.07948301	0.63898873	-0.16080335	-0.3198236	0.29592517	1.1901766	0.6090658	0.22509801	-0.03603244	0.17577225	-0.24382588	-0.3840577	-0.13885248	0.7201665	-0.05116246	0.79511917	0.48540407	0.5119946	1.1262281	0.6388811	0.44759434	-1.5469153	-0.54822844	-1.3988671	0.51299644	-0.09101145	0.8626331	-0.20479481	-0.21413778	0.75700176	-0.50417507	-0.2692856	0.33170587	0.71018773	-0.5300486	-0.2551946	0.9621364	-1.2791903	0.41674793	0.65435314	-0.226498	-0.41938305	-0.757062	0.40408438	-0.58152497	-1.0257945	0.7204454	0.22114354	-0.17122811	-0.5432937	0.4183427	-0.16724697	-0.3407814	-0.041492596	1.806573	-0.078780144	0.6416427	-0.2532931	-1.3133397	-0.60424674	-0.4071084	0.09567432	-0.10863839	-0.6415025	-2.1437058	0.10797231	0.8858739	-0.55572516	-0.5311429	-0.034615964	-0.90112513	0.27751714	-0.3357793	-0.28942597	0.47721982	1.3084971	-0.15444493	-0.3990343	-0.27862188	-0.6329889	1.0162449	0.43166354	-1.2373762	1.1211367	0.13985384	-0.313341	0.24237892	0.13421217	-0.19432046	-0.011315338	0.48957968	0.06863972	-0.45996678	-0.18250802	-1.3289168	-0.111382395	-0.046274066	-0.7178459	0.46345592	0.699541	1.8911823	-0.5985653	0.6214857	1.1601586	-0.23248196	-0.1136837	0.7122246	0.028754702	-0.87629825	0.21264717	0.30894715	-0.72130704	0.6685755	-1.327273	-1.2462411	0.62735844	1.2043364	0.08645777	-0.17271146	0.15873481	-0.104170576	-0.006559588	-0.425759	-0.2714658	-0.16331585	-0.72526294	1.4470203	0.5119573	0.8829747	-0.5014128	0.9975003	1.0727642	-0.11819029	-0.041595496	0.70720017	0.37538248	0.18608722	-0.03186232	0.0113654435	0.44279996	0.3453552	0.30640662	-0.14288852	-1.1229826	-0.34258798	0.013575897	0.6402555	0.39756516	-0.37814948	-0.35412237	-0.16626045	-0.2629792	0.68756807	-0.35933104	-1.3204123	0.7236232	-0.35027087	0.2871012	-0.71364886	-0.3773293
G900102545	0.5350552	-0.1304918	-1.0746566	-0.2908567	0.9462781	-0.6644756	0.33242396	-1.3292123	0.41430354	0.014234275	0.113673285	-0.15482518	0.09980336	0.056250602	0.7090186	1.2991765	-0.9707175	-0.8586668	-0.48485416	-0.090141	-0.5774099	-0.5048613	-0.5274894	1.0982946	-0.21085922	-0.10115123	1.4806504	-0.90334284	0.4296823	0.2650839	-0.1175754	0.46986827	1.0478817	0.4261328	-0.30532765	-0.5173123	-0.19172238	0.08495937	-1.1969498	-0.10386385	0.76225007	0.51217854	0.07991714	-0.9623693	1.3012066	-0.26096183	-0.6734137	0.14093748	0.20022728	-0.58332306	-0.31522685	-0.07590967	0.45425886	0.06292947	-0.64994943	-0.3233229	0.6067302	-0.5328238	-0.2692588	-0.42685926	0.5691326	-0.7432356	0.13588896	0.3000694	0.5819205	-0.89053345	-0.26561204	0.029945381	0.7396914	1.0357153	-0.0021647438	-0.28745046	-0.03281568	-1.4403436	0.21746035	-0.32194442	0.48540568	0.6630724	0.6758554	1.1185611	1.0067949	-0.42902595	0.75223804	-0.109467015	-1.6715565	-0.10105859	-0.16878556	-0.98490477	-0.38622636	-0.9466616	-0.02718778	0.56231135	0.2920119	-0.17396522	-0.68608034	-0.22838351	-0.37090078	0.43496734	-0.36463058	0.7540308	-0.5700462	1.0656865	-0.17981052	0.31658703	0.14079803	-1.1754179	-0.97294647	0.3378936	1.3503324	-0.36833727	-0.74307644	1.0196278	-0.14143766	-0.02137705	-1.0782652	0.79143316	0.6096977	-1.2863454	-0.8479111	-1.2250732	-0.609046	-0.22363552	0.870031	0.43167648	-0.041022845	0.8383309	0.50221205	-1.0852162	-0.10526371	-0.27578247	0.26705864	-0.43132594	-0.8599827	0.19827446	-0.2698476	-1.4941655	0.07459502	-0.72307026	-0.28704512	0.9272507	1.2636077	0.791441	-1.168185	-0.35166922	0.9773859	0.600351	0.14695272	-0.82245994	-0.4040929	-0.042510793	0.6053189	0.30634403	-0.27019036	0.03719359	0.23515864	-0.67100364	-0.13575998	-0.15242039	-1.4728914	-0.462286	-0.39039367	0.37598246	0.4141698	0.16769841	0.37309265	0.78928494	0.39255422	-0.9021888	0.3113721	0.23798648	-0.79388136	0.16016865	-0.07464355	0.23091319	-0.4321642	-0.5302274	-0.19013137	0.590176	-0.40803707	0.8237311	0.08116342	0.6352414	0.42710364	-0.5179153	0.44640684	0.9862537	0.6328391	0.3018998	0.53030115	-0.98518264	0.13342226	0.544955	-0.18814689	-0.73076975	-0.39399606	-0.33750173	0.05825883	-0.9097003	-1.2254825	-0.09926531	0.73907703	0.7680974	0.68449956	-0.13163018	-0.7830289	1.0485828	-0.19378784	-0.45114654	0.12591185	0.3265633	0.7000655	-0.6144707	0.6625421	1.0690641	-1.1213449	-1.0322413	0.35551426	-0.04354927	-0.730142	-0.5105085	-0.429655	-0.94126666	0.18725286	0.81464696	-0.8741684	-1.0355847	0.43925935	-0.18271683	-0.48837775	-0.08822331	0.82977784	0.43328965	0.70458406	-0.13984889	0.08162306	0.46240202	0.5417671	-0.036428053	-0.3121161	0.19699897	-0.71707606	0.34497163	-1.2552955	0.7455501	1.0212668	0.15776782	-1.0132104	0.5951444	0.2090948	0.8679247	0.37383425	-0.062483944	0.39320087	0.49638513	0.15868703	-0.7691028	0.019230336	0.65642416	0.20372126	-0.49322063	-0.43910605	-0.266519	-0.08931323	-0.38575405	-0.6906478	0.44332114	-0.4182918	0.17550163	-0.617275	-0.6517846	0.93301296	0.22464627	-0.18607594	-0.04591298	-0.03592792	0.21864806	0.9133487	0.7264122	-0.46105742	-1.1918528	-0.045138612	-0.16198374	-0.032859206	-0.68029	0.57665676	-0.456459	0.20741653	0.06389966	0.82583284	0.5083007	-0.97611785	-0.26148027	1.1073604	0.66767555	-0.25578344	1.1548643	-0.73930573	-0.38644856	0.75766766	-0.3073453	-0.8180866	-0.15297854	0.19295251	-0.5048772	0.110031486	1.0185113	0.017956302	1.9384935	1.5163882	-0.22919899	-1.3076593	0.5229111	-0.010379702	0.6191947	-0.054561086	-0.08666256	-0.16695902	-0.3675909	0.4290898	0.48199242	-0.2722236	-0.2366789	-0.07015736	-0.7780043	0.5464478	-0.20089507	-0.03983471	-0.98250556	0.23273487	-0.06396403	0.5746498	1.1297576	-0.38219988	0.21537217	0.36430216	0.6250116	-0.042427912	-1.781694	-1.0167019	0.5284941	0.22806132	0.8458255	0.30564696	0.46115735	0.040875807	-0.9125775	-0.21810149	0.15379924	-0.803303	-3.4853816e-05	-0.7087012	-0.5458334	0.70551044	-0.2310622	0.16548511	0.98356926	1.5604863	0.7174676	-1.05276	0.43447453	0.3977778	-0.3081602	0.5515945	-0.7864137	0.28425837	0.029311398	-0.099006176	1.3744402	0.5815845	-0.44276792	-0.026040092	0.52232486	-0.46418542	0.04796122	0.5303559	-0.74847037	0.9398617	-0.19626841	0.1921657	0.13337745	0.5732204	0.7166748	0.6707433	-0.9911552	-0.13828787	0.5785901	-0.94439846	0.14739156	-0.78830445	-0.9160234	-0.4429372	-0.8531872	-0.6253249	-0.03394766	-0.78768253	0.059259918	-0.0146935955	0.29372227	1.1916231	-0.4264777	0.9951178	-0.42832524	-0.032135807	0.8202808	-0.54587317	1.7121822	0.36335242	-0.54289836	-0.17169528	0.22366092	-0.8447753	-0.07117152	0.41301882	-0.8685266	-0.038134634	0.3823284	0.48058748	-1.4858239	-0.7714566	0.27528682	-0.94605017	1.1987652	-0.007681787	-0.09746356	-0.65631545	-0.5430633	-0.342292	-0.08366799	0.3233667	-0.031167187	0.30226466	0.7206573	0.043259405	-0.17560604	-0.18779328	-0.13407272	-0.29700792	-0.09810873	0.3681522	-1.2558197	0.20931315	0.036447078	0.3439496	1.7584312	-0.212426	0.78973305	-0.011938453	1.0211302	-0.5221273	-0.2835734	-0.03187926	-0.5561488	0.07683016	0.75259125	-0.11307214	0.6090881	0.5077075	-1.1357224	0.29215735	-0.81675786	-1.0032688	-0.89012873	-0.5687736	0.098283276	-0.8221389	0.58000124	-0.28045788	-1.1285177	0.1280004	0.7500394	0.1696953	-0.5256108	0.31824744	0.34869277	0.7473343	0.087473854	0.23236364	-1.2108612	-0.025937185	0.4621592	-0.5469186	0.9088431	-0.10359469	-0.73041856	-0.16152474	-0.278732	0.10942904	-0.7821313	1.3326857	-0.5115572	-0.9807774	-0.31653723	-1.252652	0.25194514	0.6920252	-0.20421831	1.2996917	0.4407417	0.5409761	0.82624763	0.0018832237	-0.89456576	-2.1945071	-1.1118126	-0.22418681	-0.08352296	-0.26371706	0.032841563	0.28949454	-0.4531298	-0.19721195	0.37264803	0.6412574	0.49510646	-0.8323454	0.08705027	-0.5672151	-0.080608815	-0.7483915	0.0696059	-0.57095784	1.5476987	-0.5150749	-0.3897885	-0.50198233	-0.7037142	0.52058387	0.42291766	-0.18885592	-0.5577651	0.51143557	-1.3719747	-0.77259606	-0.38227332	0.4961611	-0.21778819	0.47175384	0.87160146	-1.334943	-0.48014528	0.13738087	-1.007103	0.108043596	0.003934562	0.562717	1.204432	-0.3170188	0.69924664	0.51748705	-0.7709193	-0.4978438	0.5454469	0.24220909	-0.83299315	-0.58076	1.0228529	-0.1542761	-0.29790434	0.0089606205	0.025064796	0.34865093	-2.4910958	-1.3547446	-0.5207786	0.6024506	1.2528753	0.3982369	-1.0209379	-0.82366836	0.80833995	-0.6216387	0.20837185	-1.3522947	-0.8324061	0.11601262	-0.15549377	-1.1767335	-1.0807577	0.3540296	-0.46235114	0.6797707	-0.37225223	-0.68690383	-0.24370934	0.2577963	0.49679685	-0.824083	-0.74073255	-0.2967823	0.450979	0.24160285	0.431435	0.40164995	0.31162113	-1.6382732	0.2588	0.21356118	-0.24435456	0.016272858	0.27607554	0.55450064	-0.4188584	1.5694628	0.33515477	-1.4956815	-0.50809157	0.4238136	-0.7281873	0.10433849	0.13642886	0.25697878	-0.66371655	-0.5624356	-0.022322193	0.24484321	-0.7124872	-0.26907626	-0.47725385	0.39481217	0.67612964	-1.3008144	-0.10879272	-0.1600734	0.15747125	-0.14964542	-0.6579938	0.0020705583	0.3046053	-0.54182684	0.07132785	-0.3709873	-0.6246632	-0.56358105	-0.08379623	0.8262145	0.609125	-0.3067267	0.3789024	-0.69152975	0.35237142	0.41825554	-0.3335408	0.6891394	-0.3948284	-0.60858554	-0.8875817	1.6958525	0.067734286	-0.06193371	-0.23714955	-0.9932668	-0.4759577	0.63537115	-0.07346332	-0.8685256	1.0624202	0.90946865	-0.70709854	-0.6421271	0.9480463	0.5685751	-0.78884506	0.2772147	0.22927244	0.033283353	-0.6101127	0.67293215	0.77052665	0.19669001	0.62055635	0.8299652	0.9368835	-0.6484345	-0.6800752	0.039945573	0.01937624	0.35941297	-0.23645303	0.5784137	0.8656827	0.6503124	-0.3007761	-0.30504403	0.65070224	0.6266368	0.32953593	0.7846081	0.576932	-0.6289589	-0.2742536	-0.07612292	-0.15834668	-0.35463184	0.29759166	0.3918636	0.6622118	-0.27479038	-2.284716	-0.31523782	0.9187968	0.25182128	-1.676231	0.33839655	-0.8070289	0.42914367	0.48706424	1.4166925	1.0748787	-0.2607089	-1.0302073	0.7301522	-0.052666336	-0.24098006	0.13854909	-0.61915785	-0.0077532977	-0.94620466	0.0687905	0.5625952	-0.3412316	0.4801325	1.067837	-0.6713129	0.50003225	1.6529438	-0.84010464	0.9718465	0.50179267	0.08380008	0.080077395	0.033893377	-0.8433427	-0.4767518	0.07307668	1.1840606	0.1899262	0.12611836	-0.5245131	-0.29968855	0.19773854	-0.26542944	-0.67753947	0.16968834	0.004680097	-0.47060844	0.3094953	0.73880446	0.24203584	0.353692	-0.33506304	-0.57135534	0.28089434	1.1884866	0.97857964	0.5669486	0.009808704	-1.1814898	0.03276068	-0.21076357	0.95382243	-1.1171416	-0.4400279	-0.4047557	-0.497927	0.12867296	-0.4555695	-0.20408008	0.7035728	1.2375277	0.36572286	-0.0088211745	0.8064742	-0.3000366	-0.036909863	0.21105278	-0.5037596	0.8306131	-0.8670146	-0.6932539	0.017504808	-1.1744238	-0.9666329	-1.3096977	0.2312201	0.24970268	-0.09404597	0.4386338	-0.6512754	-0.21122894	0.6352647	-0.9967583	0.3452815	-1.2444514	-0.84419763	0.084754966	-0.5552043	0.0018983483	1.1520865	-0.111376055	-1.4115874	0.29352498	0.05631426	-1.0271482	0.37461746	-0.22423804	0.592196	-0.83100593	-0.6234334	-0.26475838	0.7081197	0.24662405	0.71400905	0.072345406	-1.042661	-0.07730082	-1.266504	-1.1277442	-1.065702	0.906882	-0.059665985	-0.82588303	0.042128593	1.209919	1.6420796	-0.10450536	-0.14144003	1.0911833	-0.7207707	0.9243734	-0.4143641	1.5159122	-0.83586025	-0.3473098	0.869442	0.76216507	0.7087724	-0.8783418	-0.16350429	-0.38463643	0.86425066	0.9787107	-0.50094485	0.6123904	0.16486743	-0.12616856	0.41162637	1.885016	-0.7227154	0.3729337	0.92218626	0.44413066	1.3293941	-0.11758751	-0.42935735	0.506536	1.068898	-0.10284733	-0.20785923	-0.09934119	1.3864585	-0.17786431	-0.48537242	-0.16083896	-0.13430092	0.038436584	0.86594003	-0.27654558	-0.15858564	0.19951326	1.3346603	0.43989113	0.63520527	-0.21617067	0.19589037	-0.34533337	-0.5637201	-0.64150137	0.774889	0.20239267	0.59206754	0.34080538	0.55290836	1.0096391	0.45586315	0.64557636	-1.5556209	-0.20101199	-1.3340449	0.10461199	0.047327846	0.23188116	-0.5123662	0.40605778	0.48468614	-0.88336825	-0.3274928	0.6022196	0.691233	-0.35125744	0.09804432	0.78652024	-0.92499334	0.26394922	0.8474773	-0.08572813	-0.55353504	-0.15983385	0.9076067	-0.4931357	-0.69576216	0.7612426	0.106601186	-0.056596905	-0.6773153	0.18542942	-0.36532933	-0.18142313	0.13793391	1.635039	0.32445905	0.536131	-0.12369321	-1.1802238	-1.321878	-0.3943482	0.16606359	0.21224934	-0.60874695	-2.4035223	-0.08656031	0.54703265	-0.99820805	-0.10754621	-0.13458742	-1.0072496	0.51263463	-0.43387845	-0.5002855	0.9317773	1.1735495	0.13401486	-0.5796848	0.020655602	-0.7891685	0.9603808	0.34266347	-0.9678738	0.8497077	0.19507247	-0.41111404	0.07861678	0.7159594	-0.5293807	0.06681791	0.4632523	0.057086173	-0.3324152	-0.06915418	-1.4760633	0.07981306	-0.3140725	-0.45863456	0.6506461	0.4695068	1.4670552	-0.38397744	0.142896	1.1414443	-0.7116419	-0.15720323	0.24173506	0.062366843	-0.9765125	0.6697795	0.616681	-0.9601118	0.30562037	-0.9360876	-1.2909065	0.4933465	0.96144897	-0.24135783	-0.11692015	0.08639994	-0.26469913	-0.098031	-0.48918238	-0.54197145	0.12497652	-0.22926275	1.3828596	0.8803075	0.73010343	-0.5115465	1.1268798	0.88150626	-0.2651209	0.11986957	0.3624567	0.56950736	0.65070665	0.24443588	0.5585607	-0.2744837	0.90399915	0.11289326	0.13081755	-1.1983016	-0.10137747	0.07798821	0.3495937	-0.0006262548	-0.62528974	-0.18387787	-0.26762947	-0.6195287	0.26796582	-0.34012675	-1.2885643	0.5740775	-0.38412505	0.4570992	-0.780428	-0.5561679
