G001805855	0.58241254	-0.17219578	-1.4006125	-0.876623	0.08967863	-0.5058824	-0.6500682	-0.96310353	-0.52015406	0.34389186	-0.41558728	-0.5589249	-0.15053992	-0.075855345	0.79532576	0.48408666	-0.87883663	-0.54189014	0.115497276	0.30610693	-0.76815546	-0.16556802	-0.68297946	1.1743047	0.6486833	-0.47738823	0.81340635	-0.807755	-0.466868	0.4587106	0.81635255	-0.019155003	0.65809363	1.4946094	-0.027492166	-0.46818122	-1.0424296	0.56138706	-0.478698	0.107477434	1.0748882	0.78412366	-0.80615455	-0.76962054	1.0055745	-0.40300977	-0.35975313	-0.26078868	0.47120765	-0.2526389	-0.010008395	-0.3924122	1.5928171	0.17411397	-0.7813994	0.5700342	0.88552237	-0.46114329	-0.60966444	-0.09676809	0.6301209	-0.043500468	-0.022507139	0.5046765	0.39243197	-1.1910305	-0.7313269	-0.41760913	0.9819993	0.5604236	-0.63202316	-0.8491842	-0.06925126	0.2067084	0.048543826	-0.7109227	0.40727523	0.95455045	0.75567895	0.20149933	1.1188462	-0.68005896	0.75830525	-0.3615644	-0.55573136	-0.23846076	-0.9779384	-0.01652798	-0.61678857	-0.80853975	-0.6054939	-0.19788793	0.78542423	-0.35632992	-0.5891047	-0.78044486	-0.44400606	0.6112252	-1.2199559	0.410315	-0.35059234	0.7707345	-0.25855148	-0.01823974	0.5748837	-0.21427402	-0.4295893	-0.2713062	0.39451095	-0.31323344	-0.38685054	1.7732282	-0.20909631	-0.09039479	-0.46951166	0.020184837	0.43620485	-1.8222414	-0.055157438	-1.1014893	-0.22259085	-0.8504818	0.5283672	2.0158393	-0.3307351	0.28659025	0.51642656	-1.5857695	0.3565157	-0.06085994	-0.10069408	-0.6364719	-0.3845037	1.1038435	-0.12297035	0.3101668	1.0442033	-0.7301123	0.180444	0.3304012	0.66395336	1.1272115	-0.74348915	-0.63684255	0.69145405	0.8083717	-0.33430907	-0.73777604	-0.1733861	0.06144473	0.20981039	1.1386982	0.15704206	0.85970896	0.060288206	-1.2340025	0.5962733	-0.46136904	-1.1590511	-1.2823108	-0.11440535	0.43314016	-0.15382022	0.3100393	-0.40572572	0.31839654	0.6638469	-0.950682	-0.0646682	1.0445552	-0.61580724	0.15947452	-0.67991334	0.393662	0.12499887	-0.725656	0.4639688	1.0701978	-0.039740592	0.9657857	0.052979846	-0.6828265	1.2937453	-0.47159934	0.3617198	1.2276256	1.0121163	0.07677063	-0.47519338	-1.1353685	0.66569424	0.19120789	0.4123161	-0.80792665	-0.28961283	-0.46930823	0.40422675	-0.4070063	-1.1574996	-0.21850678	1.9016391	0.25562623	0.34783247	0.31198424	0.22487569	0.6926824	-0.33151314	-0.679734	0.18391196	0.32176948	0.78603476	-1.2331314	0.33759066	0.3113571	-0.60951906	-0.5198841	-0.742189	-0.470881	-0.5254354	-0.3494085	-1.0692649	-0.688669	0.89220834	0.54499	-0.24087793	-1.6816581	0.5226693	0.04177319	-0.46195668	-0.51010716	0.9253546	0.513592	0.5443785	0.35306746	-0.27585208	0.7852111	0.8590439	-0.48206115	0.4369415	0.20845306	-0.49772996	-0.19277646	-1.33061	0.66863257	0.24799433	-0.26879975	-0.18757446	0.22954096	0.40861756	0.14714076	0.43933162	-0.022128627	-0.35651204	-0.3005145	0.30093914	-0.83985484	-0.3185642	0.025225393	0.20492458	-0.6411569	-0.9853971	-0.7586434	0.27996737	-0.09577916	0.43240857	-0.5669669	-0.95284164	0.5451783	-0.49335176	-1.4417163	0.9915708	-0.30022326	-0.14069271	-1.2979776	-0.53119713	1.1229256	1.1381401	-0.24775878	-1.0728494	-1.7480841	-0.11313629	-0.4464417	0.8397184	-0.32086402	-0.29524386	0.081446916	-1.4548922	-0.1297115	0.972482	-0.14752239	-1.4009751	-0.42788732	-0.700562	0.32180762	0.33814776	0.82223	-0.41824323	-0.17881897	0.46586442	-0.65050554	-0.4705507	0.15027314	-0.99660504	0.58223885	0.9339202	0.38783053	-1.2566013	1.242275	1.3916852	-0.19694477	-0.97997355	1.0925142	0.43940878	1.5846303	-0.36113846	0.25422314	-0.29717723	-0.87404794	-0.46085146	0.2356117	-0.24572037	-0.2609209	0.54797864	-0.6994751	0.64896154	-0.8226919	0.61559534	-0.5241949	-0.18511486	0.5334304	0.48904365	0.13362885	-0.62982804	0.3172859	-0.19273743	0.40489256	0.018359318	-1.485862	-0.89502674	1.0310516	-0.14372315	0.74720067	0.47959447	0.15530334	-0.08391446	-1.6374112	-0.10225415	0.72532046	-0.75084627	0.33009458	-0.076736584	-1.3422408	0.27358544	-0.3659028	0.0114325285	-0.020143911	1.0481883	0.09116506	-0.5575532	-0.042432167	0.7051805	-0.6236204	0.56539977	-0.30948466	0.79415923	0.14627847	-0.4053301	1.1626915	0.6276573	-0.5384388	-0.29835176	0.5059759	-0.6774323	0.40770665	-0.1011791	-0.9697052	0.7183887	-0.010756597	0.02613832	0.65013385	1.1911256	-0.08625257	0.11200231	-0.5332289	-0.74154097	0.15334329	-0.85516584	0.11035335	-0.38566458	-1.1742699	-0.33333883	-0.6740195	0.16663371	-0.30054528	-0.89619786	1.0973194	0.22690018	-0.17673874	0.82693017	-0.912679	0.3988644	-0.41694215	-0.22953326	1.6446071	-0.120236546	0.9580569	1.1965779	-1.0098244	-0.8542856	0.5890589	-0.9567285	0.55254436	0.4421484	-0.49296844	0.3974132	0.2971925	0.8715501	-0.5216749	-0.01165621	0.17149436	-1.4795289	0.7487293	0.6007978	-0.081189916	0.08679106	-0.3468392	0.5332003	-0.7105439	-0.89634	0.6661895	1.1137443	0.20260157	0.029276073	-0.007997423	-0.29170656	-0.2450889	-0.5989941	0.2323624	0.6049526	-1.3665377	0.37573388	-0.52060235	-0.7351079	1.8320986	-0.10312945	0.84878993	0.20669904	-0.23135704	-0.24714512	-0.77419347	0.10109845	-0.33668256	0.47769782	0.06913844	0.15211132	1.1066233	1.5286678	-0.9513817	-1.0583049	-0.70447636	-0.39039293	-0.2505749	-0.4948218	-0.43850225	-0.46418518	0.048552766	-0.89204687	-0.35016406	-0.45688418	0.39116436	0.24482705	-0.080774024	0.6813087	-0.32585752	0.3264656	-0.08873016	-0.10694583	-0.67421675	-0.34722444	-0.2860502	-0.15249762	0.30492815	0.45190018	-0.5404766	0.5409865	-0.6674584	-0.7255175	-1.2986131	1.2712841	-0.73245966	-1.1204194	0.62188965	-0.99864656	1.005285	0.63743544	-0.315809	-0.4922662	0.0623243	0.1752882	1.2200311	0.56613624	-1.2089392	-1.8307139	-0.46857113	-0.24045937	-0.06368682	0.058740206	-0.2947697	0.3828051	0.0681462	-0.8770112	0.16562435	1.5351504	0.05416377	-0.08426164	0.8447451	-0.8139633	0.10860826	-0.26813766	0.36899322	0.3919074	0.37001827	0.17488784	0.13415746	0.06154564	-0.6301547	0.22190893	0.7869024	-0.43222362	-1.0906613	-0.39817896	-0.6616805	0.009229705	-0.62540656	0.66881853	0.047654852	0.6503289	1.2729583	-0.12255285	-0.51013726	-0.56911623	-1.3362181	-0.41681993	0.29663694	0.71423423	1.2125177	-0.142947	0.84952694	0.92718244	-0.62586653	-0.5714129	0.4197752	0.26698858	-0.4175809	-0.08915681	0.29281923	0.75813293	-0.3505888	-0.32177946	-0.07477258	1.402612	-1.256361	-0.070350155	-0.25237203	0.43079376	1.2881525	0.14277652	-0.49825987	-1.6085427	0.40507254	0.059053726	-0.48783314	-1.3979638	-0.926804	0.13158907	1.0966537	-0.4746883	-1.0901337	0.9719953	-0.2657742	0.52085763	-0.16654846	0.042646497	-0.3916088	1.0579386	0.11867444	-0.1729106	-0.3443113	-0.9891168	0.33225137	-0.4931368	-0.39893365	-0.76815593	0.45701185	-1.3482132	-0.4365366	0.3996848	-1.4528286	1.2658333	0.57519096	1.0267011	1.3217425	1.1710514	-0.35180137	-0.6438333	0.24771938	0.25088006	-0.9396119	-0.18289499	0.033852603	0.12319724	-1.3168588	0.19463375	0.09461492	0.059046283	-0.89549166	-0.06309252	0.19570026	0.4322294	0.2824798	-1.9663138	-0.33289278	-0.23409855	-0.7367147	-0.8513241	-0.35916048	-0.656625	-0.22192636	0.19189143	-0.35205066	0.10610393	-0.5196431	0.031063646	0.31421363	-0.08246647	0.8834401	-0.14898917	-0.32742542	-1.2422657	-0.09925233	0.89915466	-0.24172005	-0.040604472	-0.6973592	-0.19350746	-0.13073418	1.9675635	-0.5291935	0.00552693	-0.4322018	-1.0568125	-0.847231	1.0214202	-0.16566917	-0.4295255	0.6962019	1.1493605	-0.6229744	0.23730725	0.87834513	-0.6165622	-0.31289926	0.18314792	0.52704567	1.0577286	-0.258784	0.42002022	0.8119568	-0.35106254	0.92360395	0.0029882938	0.5210892	-1.180881	0.18690649	0.7585161	0.097836986	1.2577633	0.39495975	0.9171696	0.63876545	0.0579509	0.19565257	0.7294386	-0.26483145	0.5256778	0.206052	0.6335702	-0.20171638	0.73471695	-0.19272524	0.316463	0.15708633	0.66637814	0.18203688	-0.05091214	0.77431315	1.0883787	-1.2469338	-0.5099797	0.9450541	-0.02543278	-0.5890658	0.42283896	-0.5447265	-0.013543025	-0.13585815	0.5110886	0.9162304	-0.014832541	-1.5091256	0.8941666	-0.022602513	-0.45512527	0.6287705	-0.8037655	0.0070121214	-1.1513627	-0.8654015	0.62849087	-0.23658091	0.48487604	1.1713613	-0.27169207	-0.5105069	0.28591916	0.101375096	1.5404994	-0.19859713	0.8689256	0.026736736	-0.3813776	-0.8755735	-0.9747352	-0.48748785	0.64707506	0.18941247	0.11260572	-0.13775598	-0.27274203	-0.15981124	-0.37488532	-0.88622314	-0.07664439	0.5739666	-0.88643897	-0.3316962	0.063779876	-0.2994429	0.559506	-0.6049979	-0.32259265	-0.64365435	0.5950499	1.1092144	0.39582354	0.059823573	-0.72623265	-0.6917272	-0.25062722	0.9870007	-0.33301026	-0.5714808	-0.9724622	-0.32838863	-0.8159076	0.0876122	0.48751777	0.43228948	0.6331921	1.367798	-0.93337315	-0.16911797	-0.23576528	-0.036324322	-0.51225007	-0.14534503	0.5106125	-0.50712544	-0.42733055	-0.2566434	-1.5058818	0.2419408	-1.1528049	-0.053542014	0.39574447	0.46961004	1.0881534	0.26638964	0.6678008	0.67690825	-0.8150955	0.36528075	-1.3491477	-1.9414071	0.036655355	-0.51149225	0.28218034	0.6798195	0.70835215	-0.8918127	0.41756642	0.46612954	-0.18384509	0.48648757	-0.650443	0.8446064	-1.1555293	0.2655906	0.28313127	0.33235627	-0.054662466	0.66382736	0.35132512	-1.4144175	0.29646719	-1.0280006	-1.6128871	-1.0992178	0.7334818	0.05756189	-1.1583868	-0.059808716	0.59942156	0.09486976	-0.2713581	-0.20332837	0.6924336	-0.02395583	0.6504899	-0.5666172	0.057013795	-0.7352837	0.4353732	0.9362959	0.3691378	-0.078815155	-0.7211833	0.113434754	-0.5482942	-0.3506963	-0.15456536	-0.68613505	0.71502435	-0.89953566	-0.25555086	0.5246117	1.5358591	-0.9416572	0.5976751	0.523213	0.12330574	0.19170907	0.23429808	-0.6097056	0.49810547	0.47998047	0.83591574	-0.6039967	-0.25242868	0.78373307	0.76097953	-0.7197366	-0.45230392	-0.25464326	-0.08738132	0.27264667	-0.5513942	0.28579226	-0.27402508	0.99202466	0.2931638	-0.2662968	-0.54122555	0.122225635	-0.21399584	0.057213306	0.24068627	0.82844096	0.109404154	-0.70745814	0.2924193	0.95058405	1.2101569	0.13623771	0.13649812	-1.9201493	-1.0020946	-0.7961145	0.03521797	0.010065734	-0.21109203	0.06350332	0.08743651	-0.09925255	-0.40849167	-0.7088598	0.27429858	0.0008388236	-0.23130007	-0.24977742	-0.1932722	-0.27370986	0.34355822	0.43317232	0.4711389	-1.6097074	-0.5145672	0.60930794	-0.28942022	-0.67002153	0.27378404	0.12480409	0.2595582	-1.0836465	0.19772106	-0.99476933	-0.44967297	0.24728048	1.5204071	-0.1351959	0.5152913	-0.7252984	-0.6483457	-1.0085913	-0.7508508	0.27249116	-0.23158084	0.039065592	-1.9846183	-0.71839744	0.7750006	-0.75998586	-0.5269063	0.2252787	-0.5224439	0.17203099	-0.075879216	-0.511388	1.1038557	0.6866781	-0.5088743	0.08701394	-0.14961249	-0.8987355	0.76541567	-0.30498758	-0.71497065	0.65155107	-0.4376167	-0.82859385	-0.1644182	0.8618683	-0.40915385	0.20737785	-0.17472076	0.63041097	-0.4171163	0.08353896	-1.862731	-0.75288403	0.08334768	0.18760505	0.92237675	1.452895	0.55506927	-0.2786138	0.1081228	0.67417	-0.50200665	0.38972613	0.31358576	0.85299563	-0.86230576	0.69159746	0.48943603	-0.6413021	0.25328302	-1.0093887	-0.3670412	0.8795485	0.067087725	0.104490444	0.004435118	0.032974824	-0.89368916	0.78533065	-0.84209687	0.22412044	0.31097403	-0.1088468	1.0181129	1.0330261	0.768957	-0.9157134	0.47066665	0.2847501	0.42213243	-0.06483671	0.5313966	0.046704248	0.12534493	-0.40665692	0.04908534	-0.16231562	1.0999498	-0.46528506	-0.4420799	-1.324619	0.56482023	-0.45108986	0.5790398	-0.24517554	-1.072988	0.31786633	0.18513796	0.057026446	1.2583472	-0.8967423	-0.37311715	0.3095153	0.5347758	0.053757124	0.4637708	-0.26719278
G000315095	0.12486446	-0.099876076	-1.3196933	-0.7644063	0.28417325	-0.36446676	0.067982264	-0.43969572	0.06840229	0.6255002	-0.21790612	-0.37653363	-0.05004617	0.01161585	0.5464022	0.5491301	-0.48460266	-0.3710891	0.0052467734	0.2704363	-1.1117103	-0.6647175	-0.14227708	1.1346447	0.54230607	-0.5488969	1.488586	-0.16944155	-0.23309952	0.18225463	0.025384948	-0.062192366	0.46527562	0.8317528	-0.46094817	-1.2949874	-1.1948171	1.2082345	-0.54927146	-0.26774886	1.4046648	0.7672885	-0.4980334	-0.7482105	1.2027378	0.12770595	-0.4082571	0.00966005	0.39039415	-0.8073132	-0.21483862	-0.78891134	0.69320846	0.28320748	-0.5399004	-0.1665897	1.1180547	-0.5601747	-0.4524248	-0.1971012	0.8261239	-0.41701612	-0.41341418	0.7581837	0.51999605	-1.2210332	-0.8877581	0.049413633	0.33305725	1.5283563	-0.006050393	-0.91286516	0.5053687	-0.8373467	0.110514976	-0.9034793	0.64803725	0.41394055	0.26347086	1.0479966	0.8685976	-0.62404835	0.6011362	0.24328482	-1.417833	-0.25920367	-0.8342877	-1.0785086	-0.57889366	-0.49406755	-0.7648998	0.24533428	0.018246323	0.2616371	-0.44368875	0.11902808	-0.11883695	0.45707458	-0.77422756	-0.020383865	-1.0313082	1.2882133	0.29118842	0.28592196	0.3595707	-0.6654499	-0.86132133	-0.4780822	0.8251321	-0.40563324	-0.625842	1.3459172	0.2758688	0.21092883	-1.1232005	0.14665192	0.25407577	-1.750298	-0.6307346	-1.1859069	-0.565686	0.003980533	0.5419023	0.72318375	-0.565907	1.1163732	0.6912654	-0.999715	0.7994399	-0.83925927	0.07487911	-0.47257882	-0.84628177	0.14700517	0.8879615	-0.4867354	0.38088766	-0.06522105	0.092787534	0.033626676	0.4954994	0.6031622	-1.0587616	-0.2640389	0.4623374	0.6625148	-0.41886348	-0.83539385	-0.5542202	-0.17177391	0.3025288	1.1566889	0.043721512	0.7171361	-0.43242672	-1.0776939	0.6488364	-0.26727667	-1.4252839	-0.27504742	-0.5318037	-0.00012618303	0.15603635	0.4560538	0.42529935	0.85689145	0.392922	-0.5809759	0.2121125	0.5921441	-0.39712968	0.042347223	-1.0574461	-0.7135451	0.382071	-0.92381144	0.09936775	1.101939	0.07636511	0.54371655	0.24682197	0.04602611	0.99237835	0.009937566	0.33680573	1.4252522	0.44504	0.24166405	-0.046147488	-1.495581	0.61367	-0.3047621	0.28809413	-0.30978367	0.022937119	-0.18685198	-0.16044581	-0.06809291	-1.1474483	-0.3411981	2.1201847	-0.337138	0.7171483	0.7010029	-0.055901498	1.0484254	-0.68921393	-0.23974198	-0.03895451	0.16030651	0.8870648	-0.97287256	0.6754936	0.13255802	-0.90567017	0.026480705	-0.28769568	-0.18422997	-0.6846534	-0.021689087	-1.1709337	-0.19872957	-0.0905285	0.7262468	-0.86178416	-1.3060279	1.184852	-0.28031114	-0.5611426	-0.65250754	0.61705416	0.57558024	0.46817046	0.4144131	0.14534529	0.691383	1.1586792	-0.13459873	-0.08157572	0.9226143	-0.33728296	0.35860133	-1.0760496	0.5779294	0.75636137	0.59825724	-0.9853987	0.45423144	-0.33970428	0.46109128	0.26513493	0.2196098	0.18279758	-0.3842541	0.077675395	-0.8626904	-0.22141421	0.24047336	0.2708696	-0.6447688	-1.2168986	-0.3321358	-0.008638466	0.08883891	0.004960795	0.29684034	-0.93687725	-0.10326111	-0.18411797	-1.0724764	0.49492836	-0.20936914	0.23945329	-1.0551974	0.3177505	0.20816582	0.9522354	-0.49349922	-0.8009896	-1.5222664	-0.92720014	-0.5583143	-0.3226506	-0.504376	0.7572379	-0.56732327	-0.89990395	0.06907715	0.71355665	0.060508043	-0.5596511	-0.28721046	0.082502216	0.64315283	0.5381187	1.1469109	-0.3115893	0.005829513	0.77877146	-0.3289361	-0.8347701	-0.42406607	-0.15714373	0.6992166	0.6309471	0.9537741	-0.4433087	1.7475976	0.44635445	0.016131878	-0.77059686	1.1737299	-0.13525982	1.0041105	-0.021873936	-0.32827216	0.22005999	-0.9538222	0.37338522	0.254809	-0.51029444	-0.27571994	0.5468868	-0.5006149	-0.09452341	-0.34300837	0.009872127	-0.9392932	0.041407883	0.0242735	0.6551762	0.7391416	-0.94410944	-0.2645183	0.146163	0.17144603	-0.46668488	-1.4418374	-0.44185945	0.38140622	-0.20496136	0.9696039	0.3031342	0.7050551	-0.06227234	-2.1161726	-0.03352508	0.44219178	-1.0458306	0.21771896	-0.43196058	-1.7408925	-0.07774313	-0.27425492	-0.42590442	0.121016875	1.5634718	0.31783137	-0.62209225	-0.042344503	-0.2670837	-0.36240906	-0.011644296	0.023102947	0.8302465	-0.009688772	-0.5819459	1.113909	0.34044313	-0.49794877	-0.6443614	0.9451308	-0.5971493	0.13344741	-0.2471354	-0.6199387	1.0222577	0.08766988	-0.78527594	0.64383507	-0.38963795	0.06116406	0.1860871	-0.74170136	-0.6123257	1.0031734	-0.44643125	-0.2913197	-1.1681427	-0.9717683	-0.8327862	-0.80465525	-0.06733393	-0.34632397	-0.64331377	1.1067859	0.7304789	-0.013754651	0.95333695	-0.95928	0.8282054	-0.25558215	-0.5390313	0.8145796	-0.8505459	1.2767111	0.11826667	-1.7306471	-0.46873242	-0.26829794	-0.9498294	0.60697037	0.2518145	-0.29328555	0.019192874	0.28996986	0.90977526	-0.46196914	-0.14920223	-0.40029627	-1.7132758	1.0678599	0.24491414	-0.08286265	-0.96322477	-0.9885557	0.26299223	-0.2986335	-0.2733943	0.03664715	0.9310094	1.0156091	0.016021576	0.11500372	0.55099624	-0.676096	-0.2523219	0.23049721	0.46013278	-0.9070461	0.43305773	-0.510849	0.016209558	1.48915	0.34211704	0.8848888	0.16388318	0.23777965	-0.5756211	-0.5590186	0.64075303	-0.6507905	-0.0066202125	0.8966306	0.07848208	0.83200026	0.8688713	-1.0645381	-0.5776704	-1.1028917	-0.59487027	-0.63279456	-1.0285935	-0.658032	-0.4527666	0.44047296	-1.6538154	-0.47237298	-0.0062652007	0.068291575	0.908616	-0.12528999	0.37878117	0.272947	-0.10208008	0.14627354	-0.23418714	-0.68878835	-0.41450697	0.10956782	0.38298976	0.5849044	-0.121992245	-0.8104516	-0.27714038	-0.1455058	-0.585678	-1.4222903	1.7701361	-0.66246575	-0.5234902	-0.22189304	-1.114592	0.55362546	0.97022593	-0.22866505	0.3386618	0.6616633	0.3245772	0.76680404	0.8667011	-0.37394518	-1.6453198	-0.8412477	-0.1067972	0.071967065	0.37644005	-0.057521243	0.26000547	0.03711188	0.17988777	0.20011774	1.3952436	0.36841473	-0.5901354	0.52179927	-0.7420663	-0.807492	-0.56711614	-0.21048364	0.20146902	0.6059656	-0.34998035	-0.05060915	-0.22323292	-0.96663815	0.7459328	0.40439957	-0.67539257	-0.627712	0.4483658	-0.75565743	-0.16765226	-0.21187176	1.0820515	0.058923885	0.1975582	0.68592334	-0.8919339	-0.08196296	0.49853778	-1.4356017	-0.28537124	-0.33220384	0.48751515	1.2085186	-0.024956672	0.64194787	0.8516216	-0.5106752	-0.4122909	0.8107083	0.29071617	-0.28936777	-0.23272933	0.22051762	0.19638759	-0.37705055	-0.053904384	-0.20238097	0.27416453	-1.9107777	-0.7784339	-0.62644744	-0.074264936	0.30932635	-0.1268371	-0.6966979	-0.8368848	0.60115	-0.09004721	-0.50595623	-0.80343544	-0.6484264	0.11671678	0.8138342	-1.1760092	-1.1196772	0.41950196	-0.032919966	0.42629492	-0.80602276	0.11099291	-0.23056701	0.372065	0.25540033	-0.6875839	-0.091725126	-0.55558777	0.42282942	0.33033723	-0.2969431	0.40658242	0.91551334	-1.2022583	0.017707042	0.47676143	-1.1834733	0.6348456	0.13104585	1.4437099	0.36398974	1.8369503	0.15435658	-1.0265164	-0.223749	0.16880791	-0.4111424	0.6266158	-0.01723779	0.3675043	-0.78710765	0.13896756	-0.13131998	0.4345814	-0.30540442	-0.29286492	0.46890473	0.22087961	0.26661924	-2.6467645	-0.8979469	-0.2391007	-0.21323842	0.5213204	-0.30985433	-0.8608084	-0.21155334	-0.168306	0.36899084	0.2000055	-0.031442665	-0.84996307	-0.4947297	0.17015943	0.7565406	0.15104178	0.10157482	-0.7339197	-0.3931019	0.869286	-0.44180092	0.16899678	-0.61905116	-0.790402	-1.122906	1.595582	-0.80698895	-0.14191528	-1.0181855	-1.2751024	-0.2581132	0.70895153	-0.42124158	-1.0173044	1.1844673	1.2015542	-0.38816863	-0.2884172	1.4197326	0.4213893	-0.4881861	0.15570569	0.69054323	0.89902484	0.12997803	0.31067225	1.1699501	-0.048630223	1.406457	-0.04593624	0.5166856	-0.49797738	-0.5210378	-0.36795264	-0.38085312	0.40079892	0.915334	0.9522587	1.2336326	-0.16892584	0.14485103	0.16835517	0.12411304	-0.033153176	0.5434802	0.24212246	-0.009498537	0.5255009	-0.8543775	-0.035621762	0.05248213	0.51504207	0.22867244	-0.32407865	0.91667026	0.98198205	-1.389668	-0.20402998	0.7810136	0.3159168	-1.0523404	0.063950054	-0.39825112	0.116064906	0.05731754	0.8390193	0.40953702	-0.05030045	-1.2322057	1.2116528	-0.680985	-0.937011	0.5136469	-0.8849656	0.86221784	-1.2636013	-1.1678523	0.50822914	-0.7405254	1.1258236	1.445263	-0.910694	0.23731977	0.98879987	-1.1595291	1.0306522	0.4538942	0.19778018	-0.3977093	-0.88091713	-0.1588546	-0.9326294	-0.43680423	1.0962762	0.08287606	0.03774544	-0.65092695	0.10498352	0.15935759	-0.25470608	-0.61102635	-0.19572048	0.2637015	-0.14384042	-0.5080357	0.7526456	0.37774333	0.25027144	0.03280056	0.31126708	-0.13558513	1.0930978	0.60212094	0.6355922	-0.3684031	-0.90237886	-0.11481212	-0.4768992	1.0951725	-0.6584573	-1.0163646	-0.52473664	-0.69116986	-0.36063027	0.25224662	0.5256555	0.75728726	0.75428224	0.73813826	-0.308098	0.538339	-0.531823	-0.19645339	-0.18943152	-0.27513263	0.4803676	-0.08218478	-0.33659077	-0.49873698	-2.1718814	-0.7150055	-1.3596047	0.6746388	-0.11676544	0.161573	-0.059037194	-0.22041543	0.016874002	0.1188222	-0.96664596	0.71103495	-1.1465698	-2.0583663	-0.17221406	-0.04653026	-0.20484054	1.0616559	0.082794085	-0.751944	-0.27395985	0.46568298	-0.32134748	0.74947435	-0.41304436	0.63359773	-0.36710405	-0.27842993	0.14284715	0.56660515	-0.4828111	0.5724427	0.5362197	-1.2851826	0.5218775	-0.9941248	-1.1320907	-1.4154907	0.5764099	0.3771333	-0.7117485	0.15470281	1.0263956	1.4977416	-0.7410398	-0.27448833	0.8895333	-0.14963435	1.0425042	-0.508613	0.53366977	-0.85575944	0.46371344	0.76332664	-0.18333085	0.22537972	-1.0815598	-0.5603671	-0.9762078	0.33485782	-0.13861099	-0.18142733	0.7601168	-0.14317393	0.09243139	0.8682821	1.0631925	-0.5819512	-0.24507019	0.9756254	-0.31312752	0.44447994	-0.27147466	-1.5176283	0.37137035	0.48858863	0.068004236	-0.7975741	0.17824642	0.445108	-0.048512466	-1.0159985	-0.04960403	-1.1502992	-0.26316956	-0.09633782	-0.62990665	0.3427654	-0.5159178	0.4809242	0.6944921	-1.0547295	-0.41485298	-0.16801417	0.029692076	0.15324578	0.38947013	0.28307876	-0.38596568	0.32552797	0.7832349	0.5001519	1.4169562	1.19392	0.22417364	-1.5692229	-0.5428655	-1.6432652	0.37125698	0.34117734	0.19803083	0.13524306	0.5562681	0.24382886	-1.3894222	-0.24478531	0.7739117	-0.17330049	0.42145783	-0.23186904	0.3582158	-0.48135018	0.42286128	0.20876385	0.62090504	-0.7574527	-0.22516775	0.3694077	-0.4150223	-0.22690412	0.31514567	0.1776978	0.22158591	-0.886323	-0.17477277	-0.9620073	-0.011063784	-0.028408997	1.959914	0.24646828	0.36606827	0.021686599	-0.44542632	-1.0387974	-1.0982347	-0.282973	-0.5256773	0.17623882	-1.616754	-0.06976017	0.42478418	-0.77073383	-0.9526911	-0.12946603	-0.74325633	0.52744967	-0.00084739923	-0.8033487	1.5900664	0.6270445	-0.1375578	-0.15724644	0.7284758	-0.72830963	1.3426954	0.110191695	-0.96903473	0.030772656	0.0032153875	-0.6318963	0.53405327	0.9919436	-0.76763296	-0.29348984	-0.44444948	1.0141959	-0.36034298	-0.8884877	-0.92909694	-0.3761763	-0.21255377	0.51077056	0.89036995	1.0487354	1.2851111	-0.8658264	0.49928066	0.44220155	-0.08611445	0.16867296	0.9822228	0.6274504	-0.6252899	-0.15044141	0.3308824	0.042676985	1.3196217	-0.13694145	-0.36634073	0.9481403	0.5234004	0.4633805	-0.5350029	1.0242462	-0.5255113	0.30897993	-0.5510397	0.28699276	0.42942682	-0.17887022	1.7240366	1.0257092	0.6761521	-1.2028244	0.4797233	0.6526011	-0.11494873	0.13070396	0.2486726	0.054108765	0.1647362	-0.5583588	0.21932824	0.16510046	0.8888601	-0.023792163	-0.05463538	-1.2964407	0.19967677	-0.6326991	1.2272094	0.25603122	-0.65212786	0.5066737	0.16987348	-0.12531105	0.43081826	-0.5746723	-1.2926482	0.07957252	0.08357179	-0.28855395	-0.3800514	-0.029956467
G000242455	-0.23077534	-0.47445342	-0.7411434	-0.69330716	0.6619616	-0.04555311	-0.30193523	-0.54080606	0.02848062	1.0250039	0.12480419	-0.39545944	0.46157452	0.05614133	0.96291375	-0.20854624	-0.1950069	-0.45994976	-0.12842874	0.44071445	-0.9675201	-0.40967366	-0.7560165	0.81733346	0.040180095	-0.89930207	1.2099212	-0.71728647	-0.84400433	0.21005625	-0.059607133	0.013447223	0.8441888	0.98266214	0.3272883	-1.1100322	-0.9481849	0.52310014	-0.47195292	-0.3449074	1.1996634	0.49776974	-0.30933076	-1.2480778	0.83172697	-0.16356713	-0.08492464	-0.30300078	0.025955789	-0.35105267	0.007301837	-0.5141078	0.35275203	0.1770345	-0.4392801	0.11712321	0.9278463	-0.675424	-0.4270885	-0.17473233	0.6468396	-0.78512883	-0.113277555	0.6459257	0.3261035	-1.179418	0.0018219445	0.43836525	0.24010421	1.1874216	-0.4687272	-0.8672897	0.53157157	-0.6402792	-0.015367717	-0.38917187	0.9925258	0.7299122	0.25699106	0.65097034	0.4739849	-0.023557361	1.0923209	0.45722824	-0.5379336	-0.14073512	-1.0342598	-0.3665912	-0.8489294	-0.34540698	-0.96022457	0.6162394	0.464703	-0.21862532	-0.10939115	0.11585232	0.0042256415	0.13370413	-0.6604795	0.34387976	-0.41341943	0.63502914	0.16150813	0.112751566	0.63092864	-0.54729795	-0.10453957	-0.9935981	0.6292698	0.04262851	-0.29614535	1.2717441	-0.092153475	0.52817595	-1.1167877	0.36271495	0.69423985	-1.0934094	-0.3615255	-1.3936098	-0.94067854	0.006743431	0.2199378	0.8958318	-0.05471392	0.70607084	1.0704176	-0.9128039	-0.10067562	0.00427863	-0.0063292086	-0.686187	0.41274002	-0.47622627	0.6485312	0.078298405	0.5250218	-0.8079273	0.12258986	0.089423314	0.7277796	0.33158618	-0.8594441	-0.59954065	0.74784845	0.43621483	-0.15914068	-0.662389	0.006478101	0.033118904	0.29513803	1.0718489	-0.14336231	0.787332	-0.1854667	-0.8079903	0.38998282	0.22752479	-1.7220205	-0.95538545	-1.0586007	0.20753051	0.6583122	0.14793429	0.2538635	0.6185822	0.6815818	-0.76853967	0.059735455	0.21084113	-0.5597845	0.060246713	-0.46973276	0.43444836	0.18940511	-0.65830857	0.023052704	0.5036846	-0.3997391	0.6236797	-0.016258426	-0.20858821	1.541494	-0.06452463	-0.16766003	1.1572477	0.57697207	0.13781768	-0.31752503	-1.0188763	0.5871413	-0.44009185	0.13827145	-0.43820536	-0.401153	-0.3220761	0.44376472	0.10769901	-0.83315605	-0.4370179	2.2908955	0.1541922	0.68134195	0.5177557	-0.03548643	1.5763086	-0.34149843	-0.40528482	-0.46745595	0.06550435	0.6881711	-0.38721693	0.7596415	0.6094173	-0.84838724	-0.22333783	-0.036929596	0.2534468	-0.12975782	0.19750498	-1.1458232	-0.83353144	0.23927268	0.23670062	-0.29056564	-1.2289549	0.38670012	-0.11555268	-0.8162244	-1.1043843	0.876255	0.6700512	0.3579931	-0.12818809	0.14215545	0.15220581	0.35885864	0.81758857	0.58764344	0.23910104	0.16345322	0.2089404	-1.1630522	0.89846396	1.2951728	-0.30041015	-0.2678116	0.2573964	-0.21598166	0.56254375	0.15906063	0.38486916	-0.015430063	-0.008692995	0.074783355	-1.0548629	-0.34970304	0.5657947	0.3784683	-1.1366669	-0.29612702	-0.32428128	-0.075855464	0.13358726	-0.03309749	-0.058225375	-0.9217567	-0.36082983	-0.4215555	-0.7631359	0.4648053	-0.15956667	-0.033499952	-0.63793004	-0.43157715	0.9849191	0.49078494	0.07792851	-0.43656227	-1.0373061	-0.32611674	-0.2595433	0.6129535	-1.1681445	0.6479855	-0.36972332	-0.9460931	-0.53523034	0.6904143	-0.31443495	-0.5915008	-0.2575114	0.38296533	0.7978803	0.37605363	0.72851294	0.14554647	0.24922529	0.41647083	0.12856358	-0.7183732	-0.34016252	0.13484593	0.38227752	0.8890605	0.5530032	-1.1781087	1.6794529	0.9250648	-0.40516958	-0.8549804	0.8198647	0.30887866	0.5866873	0.15291777	-0.12372427	-0.0883767	-0.9402696	-0.39141095	0.06783019	-0.88411754	-0.2691192	-0.03845974	-0.49939406	-0.061655436	-0.27803755	0.8401685	-0.3235092	0.022015572	0.26989222	0.35638055	0.6644454	-1.0736939	0.3527653	-0.074451715	0.5545933	-0.16744724	-1.3752257	-0.39578286	0.70929646	-0.631067	0.7262137	0.27470085	0.6694726	-0.5622428	-1.4176388	0.11086612	-0.012594236	-0.5264075	-0.11585882	-0.3293439	-1.5263592	0.4914193	-0.015889253	-0.05679425	0.1446345	1.3268056	0.16828069	-0.31475085	0.41863468	-0.18880811	-0.27328002	-0.038034327	0.009980328	0.06508048	0.07151322	-0.07599555	0.7487789	0.6003606	-0.1453444	-0.26996955	0.6601225	-0.5544393	0.07544738	-0.095587984	-0.73976743	1.0986519	0.09290312	-1.4039155	0.07822049	-0.25794238	0.32663855	0.21744347	-0.5949321	-0.28147426	1.0270805	-0.8359656	-0.034906477	-1.3653394	-0.8130949	-0.72016644	-0.3559817	0.26072544	-0.10650541	-0.13514194	1.0264437	0.06477688	0.3609311	0.8744545	-0.4635948	0.33109978	-1.0575763	-0.53617513	0.12082484	-0.25098774	1.1943585	0.81703436	-1.1083864	-0.66817963	0.5947858	-0.5842707	0.3961208	0.5739463	-0.039609227	0.33033893	0.08398217	0.88300526	0.38648504	-0.40216663	0.21470506	-1.1513493	0.80362713	0.3985729	-0.30419648	0.67042	-0.9016284	0.5490633	-0.25545537	-0.03973022	0.24250868	1.0438697	1.6107397	0.67999053	-0.41453984	0.8113327	-0.59702426	-0.2111086	0.13749224	0.14473477	-1.162695	0.8454639	-0.6479108	-0.16358608	1.9820663	0.56333375	0.8856009	0.6371124	0.2724463	-0.5526963	-0.18846142	-0.5716982	-0.43212852	0.4223206	0.105142355	0.21147797	0.8450555	0.9687842	-0.35361028	-0.7096461	-0.7339452	-0.14403403	0.081133075	-0.47779453	0.1733205	-0.7112797	0.62408096	-0.7800812	0.31290996	0.3718475	0.571023	0.22430094	-0.018222816	-0.37926078	-0.089526296	0.46246627	0.34511	0.11239755	-0.55235815	-0.14908293	0.4992689	0.25311324	0.63746285	-0.37570167	-1.1336066	0.4250822	-0.022340741	-0.55111694	-0.68025416	0.9240935	-0.36628866	-0.87634873	0.180431	-1.2855757	1.3195336	0.45886123	-0.26797375	0.7011748	0.43061668	0.28267837	1.4207641	1.0661433	-0.7277754	-1.9869684	-0.95334196	0.1577846	-0.015783846	0.28535303	0.5881537	0.32242846	0.10123533	0.35644644	0.2478993	1.2055025	-0.2977291	0.2104443	0.3818355	-0.4017249	-0.8195336	-0.6656763	0.36591443	-0.20610848	0.6395733	-1.0411253	0.31711	-0.86280566	-1.1470869	0.4659487	-0.10015026	-0.9541221	0.054488257	0.14863396	-0.30662456	-0.7190696	0.33323646	1.0367528	-0.083300844	0.32661518	0.70285267	-0.10170263	-0.16228764	-0.4073307	-1.1836458	-0.04895846	-0.47525084	0.78054696	0.7221471	-0.10659392	1.0790225	0.81769204	-0.6053935	-0.7817993	0.21409623	-0.23329315	-0.65563565	-0.4597093	0.25698563	0.15256663	0.5807796	0.13725354	0.094135776	0.36615646	-0.5300039	-0.28798515	-0.31546918	0.22060607	0.48111382	-0.23418495	-0.82394385	-1.1494706	0.13415383	-0.7520236	-0.7136632	-1.0632532	-0.38438892	0.17515591	0.4358721	-0.71959907	-0.2878047	0.32303625	-0.26774383	0.2680266	-0.5846935	-0.059387892	-0.26801857	0.553147	-0.32530278	-0.51195484	-0.06171108	-0.3380913	0.24183854	-0.33913523	0.38998008	-0.24523914	1.1549757	-0.37159368	-0.5793475	0.52430224	-0.52448803	0.86955166	0.14997919	1.3986883	0.5059152	1.2361574	0.16851705	-0.8078287	-0.13072859	0.34400606	-0.5584164	-0.3644054	0.14031348	0.51211655	-0.4437351	0.05570595	0.17235115	0.122569904	-0.6542761	-0.3324847	0.021029413	0.006794408	-0.039390534	-1.7350347	-0.346702	0.4962626	-0.25952882	0.116982624	-0.31751785	-0.82337	-0.012746781	-0.1982803	-0.27790675	-0.21980928	0.27566183	-0.48688626	-0.080543	-0.2865686	0.46299818	0.72302735	0.07960083	-1.2603722	-0.23472165	-0.19666296	-0.183764	0.39080217	0.17433944	-0.1401461	-0.1619771	0.79689634	-0.5266379	-0.028018817	-1.2599226	-0.5758096	-0.49978545	0.5491513	-0.053578854	-1.360775	0.93392307	1.0047221	-0.45659107	0.3526564	1.3606576	0.06378253	-0.011180699	0.34246814	0.37263325	0.6010257	0.2257946	-0.15940557	1.217078	0.10115561	1.3560266	0.28782243	1.1263832	-0.7194376	-0.5399375	-0.22560337	-0.0315891	0.6425402	0.379848	0.5957142	0.42411757	0.15440746	0.20936142	0.5159971	0.013088256	-0.069158465	0.084078036	0.7916849	-0.08182261	0.86864007	-0.5439611	0.12576503	-0.10060671	0.021369323	0.45920166	-0.0730592	1.1800303	0.45653796	-1.561772	-0.38582614	0.6947032	-0.058238745	-1.7826661	0.29346353	-0.5905783	0.8196629	0.045486942	0.28919488	0.51464087	-0.42316243	-1.2787826	-0.04324992	-0.39650902	-0.0847995	-0.09726018	-0.42919534	0.122096	-0.63424575	-1.2207303	0.74471587	-0.22744276	1.1167494	0.9285456	0.11865072	-0.55156994	0.42404047	-1.0904789	0.67380714	0.16780551	0.92424923	0.056786284	0.09387925	-0.35068327	-0.46534973	-0.8719896	0.4362412	-0.014624268	0.2396346	-0.85990214	0.6450773	-0.63735855	-0.71220714	-0.50591516	0.0472548	0.7299402	-0.1854609	-0.08329234	0.92559487	-0.07845956	0.6934476	-0.24983296	-0.2785433	0.09321034	0.67735946	0.46182054	-0.21764602	-0.41877997	-0.82839954	-1.1337125	-0.52898455	0.91935956	-0.5707042	-0.04651665	-0.43518144	0.13850564	-0.20417342	-0.7318765	0.62450814	0.38761082	0.44923788	1.0755613	-0.5435526	0.22614703	-0.20671488	-0.7250109	0.36477596	-0.80388516	0.65101093	0.0040241256	0.35454416	-0.45236498	-1.1905991	-0.09806904	-1.3207546	0.27129835	-0.020118177	-0.07082744	0.3313812	0.25075185	0.4454348	0.17967036	-0.83092153	0.3326556	-0.76854616	-1.9033824	-0.26368234	0.28672314	-0.13080221	1.07731	0.20010984	0.08188805	-0.4636532	0.18219046	-0.41080114	0.011607319	-0.029164754	0.4923221	-0.95552963	0.36455256	0.45967484	0.8121141	-1.0864872	0.8775964	0.6261963	-1.2179999	0.5175586	-1.4518406	-0.68268555	-0.6534985	0.37658048	0.6776453	-1.3668939	0.036871523	0.37893942	1.4670526	-0.69463193	-0.78515536	0.24503642	0.3547261	0.7165196	-0.19517943	-0.13852859	-1.100827	0.39810944	0.3339606	0.37532127	0.18905374	-0.08977181	0.12302527	-0.58349335	-0.046036936	-0.20451358	0.048211753	-0.21691415	-0.7520308	0.16204649	0.7867282	0.87866586	-0.59774935	-0.22829857	0.7932166	-0.2639853	0.54534656	0.5968624	-1.4597535	0.5493622	0.44047308	-0.08577286	-0.4723354	0.5528546	0.43047184	-0.22153392	-0.9498011	-0.26605475	-0.8840898	0.25056115	0.46364307	0.06737718	0.0073136715	-0.5754377	0.3886516	0.70277673	-0.4030814	-0.33232906	0.17773318	-0.20632632	0.20122764	0.08124861	0.5778204	-0.41380584	0.33950734	0.586593	0.90588903	1.1706849	0.44746315	0.88989305	-1.7738764	0.084807426	-0.7123066	-0.072476625	0.4390526	-0.009023637	0.3380708	1.027339	-0.022132128	-0.5175204	-0.114512056	0.41035947	0.824285	0.19960621	-0.18774055	0.47493586	-0.4413879	0.5990797	0.5300668	1.008054	0.07040772	-0.7509087	0.72267514	-0.27451074	-0.49363738	0.005501233	0.436335	-0.14884725	-1.0105307	0.1633587	-0.61338866	-0.35543236	-0.26151058	0.89015985	0.6912887	0.8232963	-0.11634308	-0.31826138	-1.0070287	-0.22833855	0.1161935	0.23952593	0.0628584	-0.94050574	-0.20329285	0.13006747	-0.8413245	-0.7279329	-0.20927173	-0.6388475	0.43728778	-0.21049774	-0.6977813	0.5023581	-0.028447226	-0.4324875	-0.48203006	-0.501634	-0.12120025	1.0050483	-0.13090287	-0.6242916	0.38524657	0.04635933	-0.6003533	0.54555416	0.5331438	-0.69566935	0.35108918	0.112665005	0.2687164	0.2666005	-0.3130839	-1.5302908	-0.7619977	-0.17903355	-0.12493739	0.7787354	0.567582	1.3106928	-0.814031	0.805704	0.46934086	-0.11257543	0.51184326	0.3627573	0.58383393	-0.940141	0.07215825	0.44348678	-0.24001117	0.76108766	0.09608367	-0.31849086	0.7999473	0.13669896	1.1832556	-0.43688458	0.58609223	-0.24327695	0.2084645	-0.6388545	0.5600895	0.5691029	-0.19214806	1.6341971	0.84931004	0.9218346	-0.46916214	0.123673484	0.42407012	-0.30041924	0.826648	0.20152408	-0.32002777	1.1868027	-0.22694635	0.023158856	0.7481009	0.5810755	-0.14196786	-0.14946988	-0.8529375	0.6378185	-0.51806426	-0.045440853	0.19580774	-0.5612606	0.60326207	0.86104625	-0.8446079	0.93998814	-0.996879	-0.48921496	-0.13862742	0.18622945	-0.61186993	0.20723256	-0.42944074
G000346315	-0.073563	-0.80197096	-0.54112256	-0.806129	1.2545111	-0.116633534	-1.0614047	-0.6397704	0.06422579	0.5015354	-0.42496735	-0.7786899	-0.015190899	-0.18424535	0.6280142	0.30898237	-0.462842	-0.7114898	-0.59561294	0.65823954	-1.1814176	-0.3514838	-0.2983895	1.3090782	-0.12895644	-0.5156267	1.2973958	-0.5927386	-0.78221893	0.1894675	0.13023111	0.39684847	0.7005701	1.4610331	0.14805868	-1.1833822	-1.5215954	0.29938048	-0.42185378	-0.2551744	1.1597466	0.015506864	-1.1091778	-0.8476044	0.71019554	-0.35381526	-0.37844267	0.24952495	0.11883086	-0.50362	-0.28514087	-0.975609	0.6267312	0.19186662	-0.3485682	0.033163726	1.3218244	-1.1241598	-0.7686489	-0.35517305	0.9072863	-0.7319493	-0.1838819	1.5793004	0.51755744	-0.8181918	0.31472224	0.13265501	0.50735116	1.7984928	-0.21160442	-0.3939649	0.3899314	-0.29135603	0.3282963	-0.7559822	0.6310258	0.47932026	0.20782045	0.67978853	0.50712174	-0.43407288	0.9869273	0.25590795	0.019859657	-0.10909586	-1.0336374	-0.8221884	0.033315834	-0.70716804	-0.2239488	0.6588354	0.25596556	-0.58946645	-1.0408164	0.014335956	-1.0034589	0.12456237	-0.89242923	-0.09842324	-0.9435549	0.92090327	0.34741506	0.15379414	0.614299	-0.529841	-0.76330835	-0.55932134	1.1188393	-0.0050805546	-0.857689	1.5315082	-0.14629677	0.17620163	-1.3318281	-0.021723956	0.05886674	-1.5092489	-0.79257226	-1.4070456	-0.41375917	-0.7121977	0.15233618	1.0045574	-0.26267013	0.51429504	0.72830504	-1.1267414	0.22987346	-0.44654804	0.13894679	-0.9654216	0.47897175	0.1321978	0.53793526	-0.5122209	0.23054075	-0.9747405	-0.36344117	0.07282564	0.46562093	1.1863056	-0.8206066	-0.65698665	0.36124778	0.6690232	0.44883877	-0.6587617	-0.6171993	0.17557214	0.13275705	1.1650357	0.24261554	-0.26038197	0.22271429	-1.7256423	0.82236004	-0.05949801	-1.8305347	-1.1511139	-0.79066575	0.546524	0.10372645	0.29476413	0.6101779	0.99017197	0.7266314	-0.9211904	-0.44540402	0.19857043	-0.80443	-0.12182887	-1.5306596	0.7794368	0.007971361	-0.8433353	0.18055889	0.76485455	-0.8560085	0.73771036	-0.056485675	-0.14651716	1.2237641	-0.009718418	0.18472795	1.7561169	0.5331707	0.12916091	-0.8218502	-1.6304557	0.40427113	-0.32776392	0.29928505	-0.55306894	-0.85094124	0.0127275195	0.5607686	-0.14524704	-0.37403825	0.33113772	2.0548265	-0.030649528	0.91971004	0.7455586	-0.19864601	0.8794793	-0.749261	-0.22916164	-0.57152385	0.44572106	0.46567324	-0.32339677	0.42715546	0.65046346	-0.8401886	-0.7465596	-0.28669852	0.10224038	-0.8729048	-0.29111928	-1.0355763	-0.69424665	0.18411489	0.34785533	-0.55079234	-1.5202895	0.626432	-0.2443305	0.2062099	-1.1018509	0.90032846	0.67946386	-0.4939118	-0.5636697	0.3729661	-0.04809662	1.0956821	-0.3900935	0.5317695	0.26270315	-0.4081939	0.3931182	-1.3399174	0.7231291	0.39252213	-0.053734973	-0.54747087	0.3875705	-0.7637186	0.5443417	-0.3316432	-0.29590836	0.060131013	-0.14355944	0.025921404	-1.5034539	-0.60428166	0.72358155	0.05747076	-1.1916447	-1.0253894	-0.55215734	-0.097121805	0.28424767	0.39956012	-0.54173666	-0.66185635	0.3613869	-0.8128724	-0.7562439	0.5982665	-0.21293905	0.07803838	-1.0293243	-0.7288579	0.3851229	-0.3825794	-0.040708162	-0.49854252	-0.85500777	-0.16642708	-0.07810603	0.7867029	-1.04198	0.34478235	-0.7551836	-0.90461814	-0.43148357	0.45638424	-0.2635504	-1.0901622	-0.18308908	0.8017943	-0.40828785	-0.09976411	1.1324805	-0.33052212	0.16705626	0.92336166	-0.41706365	-1.0572647	-0.15351465	-0.3605921	-0.2376323	0.49102998	0.5583191	-0.6947647	1.3177186	1.1972265	0.29495567	-0.7773514	0.7549327	0.14817153	0.78691816	0.72339404	-0.022045672	-0.5245316	-1.1014528	-0.51449955	-0.5677579	0.16915521	-0.31332618	0.50513065	-0.48276615	0.15489562	-0.7110971	0.8204184	-0.35081935	0.4364986	0.6770493	0.7342783	0.57065356	-0.65057516	-0.2719991	0.03208843	0.73829883	0.036248773	-1.3631978	-0.38019866	1.0083487	-0.27004457	1.0202857	0.30091935	0.1078978	-0.30547827	-1.2413613	-0.21549758	0.11399128	-1.0310681	-0.023482159	-1.0228825	-1.0263839	0.8282219	-0.6643558	-0.32096714	0.10240412	0.96925044	0.351443	-0.2547768	-0.31365773	-0.37150496	-0.13763753	-0.029816002	-0.15428421	0.57287556	-0.10962904	-0.49595308	0.75073206	0.5005426	0.005127117	-0.6093253	0.5147207	-0.89918107	0.18513153	0.25222576	-0.04688231	0.76924974	0.24848288	-0.96774495	0.22845042	-0.43306398	-0.078175455	-0.24090235	-0.30383617	-0.3898568	0.632241	-1.1128706	-0.14271079	-1.552336	-1.0322421	-0.6208281	-0.06900943	-0.087218046	-0.3384112	0.15872481	0.42013076	-1.0146389	0.6222984	0.9849391	-0.4006222	0.63410246	-0.60272133	-0.37364733	-0.015467793	-0.10462049	1.2616016	1.2380089	-1.048769	0.049496353	0.5746092	-1.1521014	0.64455676	0.55744356	-0.20617042	0.2434008	-0.21881457	1.1457539	0.4923463	-0.4223234	0.21258602	-0.91755086	1.1936333	0.4691857	0.0657629	-0.086529434	-0.78272146	0.43627286	-0.056248046	-0.48930526	0.19909982	1.6511676	0.8847338	0.90606725	-0.38153973	0.41204408	-0.41225854	0.084374554	0.052198194	0.5591388	-0.94540954	0.62886584	-0.15016244	-0.10831326	1.6215744	1.0335282	0.18758716	0.53940445	-0.111657396	-0.90423995	0.0019542815	-0.26789787	-0.0879492	0.5723822	0.364088	0.07501798	0.24919356	0.8146858	-0.42222485	-0.7748785	-0.20635319	-0.4641968	0.08282368	-0.48473537	-0.8601748	-0.6784849	-0.025043018	-0.64160633	-0.4487095	0.17070313	0.5295002	0.7173647	-0.32948557	-0.53891903	0.076244116	0.32918268	0.13707028	-0.66138184	-0.9101267	0.15934877	0.4232206	0.21496537	0.34928596	0.07394914	-1.477342	0.4194108	-0.12918368	0.112558156	-1.5447292	0.89366204	-0.5412565	-0.93275505	0.27901465	-1.1538177	0.84834504	0.872761	-0.4602035	0.3442136	0.2091018	-0.10790995	1.2721431	0.54780334	-1.0615687	-2.4396296	-0.81501526	0.111517966	-0.1650986	-0.081	0.8533448	-0.5948561	-0.48351574	0.44656727	0.4732603	0.95405453	-0.33029285	-0.35394236	0.47682244	-0.29277146	-0.9181258	-0.004303448	-0.08985125	-0.3750248	0.53544426	-0.45178276	0.18543802	-0.4723721	-0.6095519	0.90589017	0.5862044	-0.25609434	-0.66858125	1.0225155	-1.4037675	-0.6160066	0.2506202	0.6095263	-0.22199991	0.5476558	0.38281935	-0.3690279	-0.31622228	-0.26293057	-1.3779063	0.019318998	-0.5355642	0.67182004	0.52350277	-0.4255995	0.74731374	0.54764813	-0.73305523	-0.9472873	0.20641196	0.21384041	-1.1142801	-0.4626666	0.4329032	0.255974	0.2365441	-0.22868253	0.00017356128	0.19140735	-1.2928011	-0.5052986	0.4115975	0.3844428	1.1753587	0.09025809	-0.31816378	-1.241434	0.7850888	-0.2588833	-0.57664424	-0.43445644	-0.16869143	0.6646205	-0.46207893	-1.0297471	-0.18718418	0.45946267	0.021037059	0.6730069	-0.865559	-0.044680327	-0.14582713	0.35582343	0.13935715	-0.8156458	-0.40849113	-1.1658545	0.53527117	0.089882396	0.25579602	-0.28982076	1.1567688	-0.94920135	0.31166247	0.9611924	-1.0280857	1.2524984	0.9185667	0.5336801	-0.29543287	1.190379	0.7434847	-1.2928073	0.24865094	0.76447576	-0.9381549	0.015031904	0.115370475	0.45672023	-0.534686	-0.045932084	0.21716157	0.05917214	-0.16801068	-0.7659551	-0.6337408	0.67989177	0.41544724	-1.7231454	-0.79921925	0.5151554	-0.76982605	-0.08031526	-0.51007825	-0.2785864	-0.66473323	0.33871305	-0.38926792	-0.3252979	0.16510986	-0.4045449	0.13936949	-0.07086576	0.7473463	1.5381842	-0.1603359	-1.4464012	-0.14352778	0.3150103	-0.47913086	0.5302514	0.05207266	-0.9838364	0.07492136	1.0404532	-0.5267843	0.31923512	-0.31626618	-0.4989283	-0.7451006	0.20399691	0.12581131	-1.4421326	1.0848664	0.6325866	-0.9642811	0.16358244	1.3366046	0.3488059	-0.21642524	-0.25688618	0.8562694	0.8377638	0.4406864	0.36133313	1.1894958	-0.2926755	1.5630653	0.16624981	1.2752692	-0.6369337	0.5415003	0.23185769	0.74435645	0.310445	0.94559973	0.68979967	0.39435184	0.12582386	0.017194465	0.5673274	0.48493004	0.26586163	0.837871	-0.2218688	0.38525122	0.34899	-0.700597	-0.7493265	-0.45289525	0.46716848	0.82928866	-0.24099354	1.3055905	0.5270407	-1.722357	-0.14032273	1.0966425	-1.039537	-1.3948698	0.7975731	-0.30723825	0.5796804	0.27353787	0.5702512	0.19436063	-0.15345591	-1.791776	0.15113445	-0.54757315	-0.80271465	-0.15518041	-0.32367733	0.7843442	-0.9833697	0.059101388	0.7388874	-0.36303934	1.0411603	0.4486436	-0.10374302	-0.15687507	1.2219005	-1.0659102	0.89876497	0.20789829	0.7742713	-0.37269792	0.087721154	-0.2476615	-1.0229865	-0.80310947	1.4182831	-0.02588132	0.45382625	-0.6072287	0.5257623	0.034253772	0.097628504	-0.33254	-0.3932785	0.6457753	-0.027228817	-0.051347263	0.6857705	0.25863615	0.7323773	-0.54796964	-0.05919747	-0.27353677	1.0634952	0.48203486	0.08787261	0.08511196	-0.72530854	-1.1218843	-0.1580201	0.79287755	-1.0415379	-1.1103234	-0.22631003	0.11883055	0.028869584	-0.7341164	0.18987912	0.33778065	0.7413727	1.6781206	-0.55315495	0.024014197	-0.2025756	-0.42676687	-0.09874372	-0.5265283	0.18135019	-0.16811924	-0.39375693	-0.18668574	-1.4801122	-0.11320083	-1.0978533	-0.14237067	0.045799762	0.40720636	0.76579154	-0.4920344	-0.2406576	0.43606174	-0.7304229	0.4770917	-0.68256974	-1.6379845	0.30833554	-0.082916394	-0.19535972	1.0313404	0.3174838	-0.03747486	-0.4279322	-0.13654311	-1.0149283	0.21130297	-0.018240076	0.74884933	-0.3444231	0.092491865	-0.22336677	0.77891445	-0.6431016	0.45450735	0.74671817	-0.2518319	0.63141596	-1.3967236	-1.5029328	-0.14849731	0.33103776	0.23338583	-1.5627071	0.4252292	0.11092592	1.5533559	-0.40960896	-0.29410407	0.99237955	-0.14917459	1.4157995	-0.29121578	0.3653951	-0.9252274	0.06606218	0.8043565	0.2232582	0.9284549	-0.8308144	-0.20554073	-0.6488739	-0.4238818	-0.11386114	0.02287177	0.4584528	-0.40209875	-0.33452335	1.1781738	1.4642396	-0.51865494	-0.6619876	0.8176223	0.30767345	1.1639049	0.7994493	-0.9466779	0.48372176	0.1312927	0.8237134	0.25324434	0.2683057	0.20643717	0.20666762	-0.78477687	-0.6477491	-0.69931006	-0.36388496	0.38278306	-0.51082563	0.45498124	-0.26256666	0.52445656	0.247015	0.19592236	0.3743319	-0.62083864	-0.40059173	0.13632636	0.12989071	0.38445994	-1.0912975	0.46656048	0.35279688	0.79360884	1.3070072	1.0191033	0.40399197	-1.2323871	-0.21170028	-1.2171206	0.78418416	0.03347023	0.34282562	0.18952866	-0.032397687	0.17323199	-0.14419511	-0.32130566	-0.5357272	0.28968573	0.14738646	0.0031943321	0.23129955	-0.9843419	0.8932978	0.55745775	0.5493075	-0.23029809	-0.43186817	0.2891538	-0.67039657	-0.69254285	-0.3944241	0.16509342	-0.23444702	-1.1357338	-0.38067663	-0.4346313	-0.71724325	-0.19479553	1.0293338	0.015543365	0.36700228	-0.31160656	-0.6231053	-1.2413173	-0.052880183	-0.74858594	0.35309088	0.49884772	-1.3776199	-0.055897765	-0.049311027	-0.9132393	-0.6189883	-0.3669245	-0.76888746	0.017179057	-0.693347	-1.1616142	1.2415094	0.77160263	-0.01670865	-0.3173982	0.31503546	-0.7689623	0.6253704	0.110469915	-1.1286565	0.047312096	0.47336993	-1.0984944	0.33497068	0.8764385	-0.49440622	-0.18455267	0.41188142	0.0052158833	-0.106105864	0.21425304	-1.5849798	-0.16068296	-0.20232221	-0.1713963	0.465107	0.6447447	1.177643	-0.6511954	0.9896693	0.5131448	-0.18195148	0.55776006	0.18356435	0.6218094	-0.75643003	-0.28283006	0.03085234	-0.649009	0.2124258	-0.16882554	-0.46430844	1.4162183	1.126435	0.6691881	0.5358079	0.64505446	-0.7958988	0.67857254	0.012772694	-0.059931748	-0.029821843	-0.7006448	1.9192712	1.2080346	0.63449293	-0.34723538	0.9544108	0.79948807	0.092057645	0.5879643	-0.22120784	-0.032810993	1.5330313	-0.20330696	0.31180304	0.11223132	0.44470754	0.15679833	-0.21181014	-1.2517495	0.42185265	-0.13595465	-0.34479624	0.5363276	-0.28018463	-0.17197552	0.638651	0.084503144	0.39272797	-0.49473566	-0.54083186	0.433999	0.34438616	-0.09282017	-0.23487286	0.12248501
G001828415	-0.06683931	-0.25387913	-1.3650261	-1.3076694	-0.04299757	0.09496137	0.082015336	-0.40654016	0.057109296	0.7294517	-0.12758793	-0.52612823	-0.18256278	-0.37650925	0.88079846	-0.060055856	-0.47223344	-0.25593573	-0.54329574	0.6421086	-1.1446675	-0.26905954	-0.5312011	0.927866	0.624621	-0.6942313	1.3384888	-0.72265637	-0.29884356	0.16244629	0.3358958	-0.123917565	0.9180358	1.0333903	-0.75358117	-0.7660993	-0.8533725	0.85507447	-0.7021738	-0.1256077	1.3996074	0.5505999	-0.39716205	-0.455964	1.0059917	0.28280008	0.09789318	-0.3388951	0.13157788	-0.4931817	-0.56348395	-0.7206388	0.47135344	0.6207398	-0.13370103	0.043012016	1.1371757	-0.7972374	-0.19391136	-0.22117102	1.2058706	-0.9104543	-0.63428533	0.617984	0.194859	-1.2249976	-1.1959747	0.34023774	0.9052669	1.675799	-0.8029444	-0.8806095	0.36319137	-0.43869478	0.27766836	-0.5616415	0.7253917	0.34527993	0.3744294	0.6929019	1.0826643	-0.8319512	0.9305078	0.3041137	-0.7687281	-0.22921185	-0.5731695	-1.0933884	-0.50193864	-0.408866	-1.049046	0.09181102	0.12162024	-0.15693809	-0.34964842	-0.40455472	-0.561329	0.14017966	-0.8715235	0.5753966	-0.6816261	1.1824156	-0.065864906	0.61745244	0.9803908	-0.36350203	-0.89433765	-0.6064054	0.98094815	-0.19690268	-0.67369133	1.4058068	0.2816382	0.110141076	-1.4520907	0.22159728	0.6762005	-1.6604314	-0.24204588	-0.78899145	-0.2171503	0.0038264394	-0.11159706	0.96377736	0.14991489	1.2621267	1.0179224	-0.82180756	0.31668907	-0.15257329	-0.040902283	-1.1048335	-0.8543074	0.4867074	0.64245194	-0.3680657	0.083706185	0.028649807	0.14756791	0.27655017	0.5003239	0.9568582	-0.7072943	-0.73572946	0.3827442	0.623197	-0.71426415	-0.9561776	-0.4030926	0.33379328	0.68653584	0.5210598	0.04954517	0.43532747	-0.5235431	-0.7108291	0.13330738	-0.447145	-1.4470749	-0.4936808	-0.6673392	0.2076024	-0.10202107	0.2871412	0.22796354	0.48706	0.94486105	-0.38376927	0.14490393	0.5781729	-0.39367455	0.71877545	-1.0694909	-0.24255598	0.39189088	-0.9693005	-0.30901414	0.83617085	-0.5306215	0.52934086	0.31815088	-0.03327152	1.2663727	-0.20631763	0.5961341	1.2535167	0.49096137	0.2885966	-0.2848783	-1.558131	0.6234143	-0.40459406	0.4364915	-0.046184227	-0.32133076	0.046274252	-0.32230726	0.07009363	-0.8324188	-0.64278936	1.5836762	-0.5608642	0.94594187	0.37153497	-0.047348797	1.4834387	-0.9212556	-0.3315091	-0.36442477	0.4589487	0.89002013	-0.8601851	0.7353238	0.060941137	-0.58549863	-0.685233	-0.89868414	0.06249866	-0.96543455	0.56063944	-1.0246669	-0.49771756	-0.05765289	0.8476043	-0.57276964	-1.5471866	0.7821614	0.27769578	-0.3686682	-0.6558652	0.3458644	0.9733784	0.6181689	0.8719699	0.14417362	0.7633757	0.91570306	0.071919866	0.14667153	0.024779411	-0.5825379	0.39763734	-1.3813494	0.7198305	0.63280237	0.26275462	-0.5602224	0.088060744	-0.5061933	0.19360857	-0.15317315	-0.06319499	-0.08116042	-0.79795504	-0.20272954	-1.199825	-0.37389916	0.6735735	0.27111527	-0.7249702	-0.7669674	-0.2694044	-0.023593903	0.16233711	-0.24718183	-0.20282297	-0.4488322	-0.002569858	-0.54779404	-0.79480296	0.33075893	0.053234905	-0.34568715	-0.64085966	-0.4174486	0.599036	0.5753099	-0.4895783	-1.0009952	-1.155565	-0.9618016	-0.045850426	-0.095129445	-1.107344	0.73623973	-0.3652152	-0.83033675	-0.8626841	0.6459747	0.009890139	-0.8027792	-0.76127064	0.22867179	0.58471745	0.30489832	1.2157719	-0.7117938	0.40074053	0.48512962	-0.19461945	-0.9068985	-0.004590571	0.08108561	0.40045106	0.10981189	0.48313916	-0.18626812	1.4323531	0.38584965	-0.4611826	-1.0972621	0.91994286	0.13041998	1.062116	-0.056812853	-0.7444453	-0.016810715	-0.6434338	0.70748365	0.23263387	-0.56733966	-0.48063138	0.39755374	-0.40717444	-0.12678263	-0.4265274	0.048896313	-0.9574302	0.22673045	0.12595513	0.43527395	0.5303477	-0.6885211	-0.15437563	-0.16932529	0.1882003	-0.14103957	-0.9850168	-0.6037072	0.29736575	0.29050806	0.7949762	-0.048394263	0.6517992	0.07686439	-1.9798591	-0.03762585	-0.07783869	-1.4393477	0.17027582	-0.7953646	-1.2785201	0.14406952	0.021124251	-0.4046325	0.051978998	1.704621	0.18121208	-1.0955248	0.11790704	-0.039324492	-0.14373189	0.0674664	0.12127869	1.0657744	0.14436227	-0.55533236	1.4657601	0.21126492	-0.13817057	-0.5094185	0.5305904	-1.0564938	0.3525112	-0.23408711	-0.15969165	0.8753093	-0.014550731	-0.6903596	0.07228249	-0.11500466	0.16349405	-0.35077104	-0.34983957	-0.729174	0.80440205	-0.46957237	-0.077566616	-1.3017797	-1.2463374	-0.585836	-1.162499	0.049765483	-0.08980892	-0.71354777	0.95986986	0.4820873	0.56383306	0.81947565	-0.7376423	0.8280456	0.0538494	-0.6127648	1.1234527	-0.6329038	0.53780717	0.09642233	-1.5444188	-0.8020228	-0.3421024	-0.9538994	0.7324641	0.1956076	0.23913576	-0.013147391	-0.10905482	0.91259754	-0.21117094	0.01629864	0.3544708	-1.3126943	0.8203991	0.7452737	-0.21684694	-0.3102872	-0.76600945	0.3640396	-0.61398655	-0.78257334	0.22109234	1.0849296	0.9068188	0.2688151	-0.03002321	2.734363e-05	-0.11847327	-0.6738697	0.24207787	0.20809372	-1.1549519	-0.10425901	-0.51544845	0.056062534	1.8689021	0.32681358	0.495646	0.3575569	0.07333849	-0.6250298	-0.117081136	0.36676118	-0.7748179	0.28932112	1.3069634	0.3184265	0.56390953	1.2430372	-1.2890686	-0.5979326	-0.8206339	-0.883831	-0.7099091	-0.6102183	-0.5638603	-0.33977413	0.42739087	-1.0275226	-0.88718706	-0.064336225	0.33567145	0.8336275	-0.08413157	-0.09661587	0.71387374	0.46748212	-0.039042063	-0.43700743	-0.9412105	0.04677672	0.5171702	0.26466894	0.7439122	0.14266907	-0.32210773	0.015178926	-0.1543899	-0.6376346	-1.4435654	1.59796	-0.31466165	-1.4821113	0.67857677	-1.7587376	0.2773444	0.97442883	-0.4295237	0.279287	0.20809817	-0.41169465	1.0906789	0.8562513	-0.6279109	-2.471745	-0.44050226	-0.02448776	-0.2885954	-0.13396375	-0.116493404	0.5717368	0.32510978	-0.1861542	-0.095054924	1.1578581	0.25015807	-0.9409103	0.7297788	-0.61215055	-0.42783648	-0.29007542	0.45761353	0.124005884	0.5938935	-0.8118006	-0.06556502	-0.23221014	-0.7886712	0.689393	0.5918496	-0.9181075	-0.7046544	0.040206376	-0.28754053	0.1627883	-0.09967631	1.258221	-0.14059821	0.10455544	1.0268742	-0.976061	-0.24319474	0.4764985	-1.5958809	-0.0805677	0.03124084	-0.0033611953	0.44449955	-0.41399318	1.5101087	0.7631763	-0.9881485	-0.66520584	0.44635588	0.19866067	-0.7134133	-0.34571186	0.27183968	0.29287177	-0.071166955	-0.15449297	-0.11812079	0.3824318	-2.2965453	-0.14875983	-0.26382643	0.42761564	0.6251194	-0.15385708	-1.2542541	-1.3194301	0.1333847	0.155788	-0.6418271	-0.6812466	-0.21244836	0.5258658	1.1064191	-0.5349026	-0.94857466	-0.031817082	-0.80116403	0.60293853	-0.70839703	0.29410398	-0.55837655	0.19632198	0.6164678	-0.39228967	-0.547778	-0.7734234	0.45762798	0.076830104	-0.21432425	0.040651653	1.020483	-0.9585365	-0.0051808655	0.32245132	-1.207013	0.89179516	0.14749463	1.0611501	-0.06263163	1.5370942	0.48580354	-0.6735093	-0.020230755	-0.08696205	-0.6315771	0.4537132	0.16109996	0.14103171	-1.4067905	0.33825886	-0.15359291	0.040923335	-1.1249534	-0.47361875	-0.0037471652	0.18775845	0.18804558	-2.8740382	-0.9172478	-0.14144686	-0.21378703	0.16846435	-0.21925932	-0.64432025	-0.66090024	0.37788683	-0.31311104	-0.079413354	0.037216455	-0.52477324	0.16827512	-0.08999883	0.38529316	0.4278012	0.2945314	-1.4753739	-0.25009096	0.861057	-0.40289962	0.43284652	-0.18135247	-0.6405267	-0.14298083	1.5172385	-0.45758075	0.41677886	-0.28945744	-1.2696723	-0.8139531	0.71849895	-0.061911374	-0.9607808	1.2061757	1.1829084	-0.026855854	0.22247572	1.0549824	0.18711853	-0.4909581	-0.29089734	0.6365104	0.9337898	0.056697026	0.1401205	1.0946581	0.24409173	1.2003179	-0.14091632	0.7453872	-0.5213776	-0.4125348	0.13055182	-0.902234	0.9706392	0.7783951	1.2763098	0.77876645	-0.4281116	0.16204643	-0.036016278	-0.025821388	-0.117605105	0.30631104	0.7426495	0.08785513	0.3071788	-0.42595428	0.063345194	-0.023770794	0.92721874	0.48010018	-0.011522651	1.1564276	1.1431038	-1.2745225	-0.40897888	1.0134041	0.21802127	-0.76037335	0.022413045	-0.6511277	0.40632004	0.25466436	0.68416095	0.5204748	-0.19280265	-1.143943	1.0088714	-0.1412971	-0.36630237	-0.021269426	-1.3726776	0.50561935	-1.053331	-0.6809104	0.6779276	-0.6245807	1.1648644	1.277099	-0.63394773	0.20289126	0.41716585	-0.78558433	1.4721537	0.20223987	0.80819863	-0.1400427	-0.53899944	-0.4376551	-0.4614565	-0.8411225	1.1870155	-0.24213238	0.0770913	-1.1861383	0.25852466	-0.20709246	-0.6303156	-1.176236	-0.39292914	0.25099444	-0.30023998	0.01756423	1.1433784	0.089312464	0.05557823	-0.37152147	0.13163374	-0.026923671	0.95377046	0.5586738	0.23863691	-0.23720323	-1.1823261	-0.07186599	0.12014617	0.90477324	-0.52977544	-1.1753939	-0.56615436	-0.7374671	-0.6994494	-0.24102017	1.1056764	0.82647437	0.40521318	1.3238356	-0.86257964	-0.037994906	-0.67799526	-0.28190768	-0.21944474	-0.25460133	0.06477456	-0.1904628	-0.5286875	-0.4993851	-1.7617745	-0.2922694	-0.94827795	0.5001998	0.22841077	0.08395022	-0.23354363	0.24011426	0.29343575	0.22421393	-1.5220481	0.38494533	-1.7911712	-1.590355	0.2624737	-0.15209855	-0.06535399	0.22616164	0.4731663	-0.3038338	-0.5165899	0.45614713	-0.85150856	0.49619815	-0.010392815	0.31983364	-1.3891482	0.29081264	-0.092777774	0.5788692	-0.5511249	0.35957354	0.50804114	-0.81540936	0.8210856	-1.1889015	-1.5241319	-0.6446243	0.49315867	0.45854145	-1.0782566	-0.059559926	0.756406	1.2497724	-0.515251	-0.22053812	1.2334028	0.38618994	0.7335217	0.15599535	0.50003123	-0.7460823	0.49062064	0.5289885	0.5322646	-0.2198504	-1.2820922	-0.2277893	-0.5824951	0.057605892	-0.16833147	-0.31808865	0.3989918	0.06776285	0.13462809	1.0395179	0.9604219	-1.1425258	0.18175375	0.9315619	-0.47103924	0.37893924	-0.45431203	-1.5119399	0.26093212	0.13605642	0.69470626	-0.5502929	-0.04803537	-0.14138143	0.23649198	-0.3934065	-0.15479285	-0.7389076	0.19670853	0.2152931	0.11329734	0.22313364	-0.57044977	0.5942052	0.8782149	-0.3483435	0.041161776	0.21299693	-0.019560333	0.6815925	0.23654696	0.67926854	-0.5695789	0.6477548	0.45884508	0.38386902	1.302424	0.3188787	0.42594028	-1.5658338	-0.23942882	-1.4979148	0.014724463	0.25539416	0.60469735	0.20645267	0.18603934	0.52597636	-0.600975	-0.29698485	0.18968272	0.20028485	0.028710544	-0.41564265	-0.10020982	-0.4087384	1.0356956	0.63405234	0.27553803	-0.6537934	-0.80284166	0.49309206	-0.33725443	-0.6965606	-0.11174425	0.6053446	-0.5252901	-1.1526096	0.078206	-1.0979472	-0.36951682	-0.31325892	1.4401529	0.43322837	0.6210035	0.11327249	-0.5344487	-0.9307187	-0.86346674	-0.31634513	0.09173052	0.6494917	-1.1289566	-0.14067331	0.6226176	-0.58635134	-0.57708687	-0.06358375	-0.96312445	-0.033827238	-0.46432585	-1.1534168	1.1071651	0.5234396	-0.5958873	0.4299854	0.15722913	-0.58524364	1.0965286	0.23256767	-0.8125858	0.58407295	-0.3200453	-0.78236085	0.60841435	1.3025105	-0.49589506	0.021899663	-0.3249571	0.51859856	-0.29761428	-0.74163085	-1.1024377	-0.53792703	0.01430694	0.1060686	1.0358332	1.3609716	1.170621	-1.4687834	0.16340077	0.5430781	-0.47085387	0.1790165	0.6367461	0.54606384	-0.5669834	-0.06916597	0.72554684	-0.19304495	0.99243385	0.16668674	0.072034195	1.0663831	0.18509051	0.74363804	-0.43121344	0.895648	-0.25792828	0.7082176	0.21936709	0.01404469	0.45607677	-0.1863588	1.7054404	0.8782359	0.7575174	-0.5946479	0.46948418	0.4788378	-0.58742505	0.30108407	0.18088207	-0.638655	1.0198723	0.66431916	-0.31523326	0.24947421	1.17788	-0.09160979	0.047440305	-0.8774535	0.7197037	-0.6390086	1.1568906	-0.10921115	-0.8728486	0.24805987	0.39143783	-0.31283396	0.8039297	-0.62021565	-0.95048594	0.057361905	0.027999818	-0.58308697	0.1886433	-0.029218137
G001956985	-0.0630074	-0.8863024	-0.6947771	-0.71567464	0.7015202	-0.14561278	-0.61755073	-0.97725123	0.43272558	0.7973089	-0.10622154	-0.21073787	-0.13201475	-0.28620946	1.0792931	-0.17276673	-0.29628158	-0.7815685	0.32225147	0.23039258	-0.76577866	-0.44511288	-0.64291465	0.86495745	-0.2143004	-0.7830163	1.2098178	-0.8027648	-0.50931406	0.4249266	0.10779028	0.206674	0.86802053	1.0156764	0.28646892	-0.9374872	-0.700436	0.69686544	-0.25717634	-0.29905993	1.3057296	0.51710814	-0.30433136	-1.169623	1.0046812	-0.2859637	0.44506004	-0.11903246	0.027234372	-0.29989314	-0.20490813	-0.4946671	0.20565577	0.43822196	-0.59433216	-0.1983139	0.8232198	-0.7320068	0.024615504	-0.26327655	0.6762268	-1.0626175	-0.5062247	0.5722767	0.15182754	-0.87998265	0.27001724	0.4955734	0.50930345	1.3753736	-0.30845445	-1.0987908	0.52604014	-0.50211126	0.3187554	-0.46298668	0.90961313	0.5324249	0.40112063	0.4890612	0.4275601	-0.06750286	1.5656728	0.30064103	-0.9488016	-0.32178077	-1.0237442	-0.10897138	-0.65307677	-0.49782914	-1.0067832	0.6039452	0.61922026	-0.16142741	0.13882336	0.068305224	-0.47230268	0.107470095	-0.71978927	0.3113287	-0.40773723	0.64441985	-0.010592919	0.36247736	0.77495444	-0.731543	-0.15999143	-0.8764931	0.594793	-0.28305143	-0.13750078	1.5345649	-0.41467112	0.21334285	-1.4928524	0.17720535	0.67896706	-1.1835077	-0.52441496	-1.2998672	-0.8265932	-0.035628483	0.2490259	1.0938699	0.36018416	0.72007227	1.0237073	-0.7182375	-0.2605983	-0.07375312	0.09009926	-0.84396905	0.15146777	-0.42140138	0.45533398	-0.17698002	0.6394851	-0.8240329	0.2253593	-0.01535207	0.21034177	0.74486935	-0.6609888	-0.8873242	0.5796375	0.25804266	0.024855426	-0.6537269	-0.027797446	0.034818597	0.118386775	1.102277	-0.3141206	0.6218603	-0.3825498	-1.1390823	0.3688024	-0.39200008	-1.4858032	-0.8264928	-0.71223336	0.17059658	0.67809737	0.298018	0.08972097	0.51041865	1.0386868	-0.2793764	-0.10630528	0.06371915	-0.32958645	0.017759562	-0.8069667	0.3253676	-0.10941896	-0.5214041	-0.16180494	0.61367595	-0.25732973	0.31906205	-0.1669099	0.030475743	1.0040014	-0.018741319	0.008332606	1.2764672	0.4236275	0.10430926	-0.55417544	-0.80653137	0.4393073	-0.544245	0.34125617	-0.50189173	-0.48218942	-0.36136782	0.35791504	-0.31845635	-0.6649733	-0.31202376	2.3049624	-0.04682216	0.43164262	0.39883375	-0.07128379	1.4101402	-0.42199418	-0.5030137	-0.39208287	0.25497815	0.7621465	-0.57162535	0.62570703	0.6000304	-1.0714792	-0.17811413	0.51539826	-0.013941854	-0.6230181	0.04857205	-0.93095684	-0.82869565	0.7807256	-0.0435789	-0.033053927	-1.4439458	0.42597678	0.013074353	-0.5601678	-0.8964926	1.0144253	0.6767457	0.3267418	-0.30637005	0.09007333	0.03967862	0.7300187	0.5413361	0.63818884	0.4595199	0.057273537	0.25312403	-0.8933343	0.7977764	1.117975	-0.60934997	-0.29372802	0.2186751	-0.12983912	0.61950034	-0.21941194	-0.12107238	-0.22167218	0.27607995	0.14571986	-1.1693726	-0.3888217	0.5466889	0.44389793	-1.1657207	-0.22591117	-0.61823523	-0.3392801	-0.16951567	-0.11330213	-0.058808528	-0.9351591	-0.34739184	-0.026465416	-0.99086684	0.64192057	-0.24883442	0.14653662	-0.5627086	-0.17419168	0.5519209	0.70531166	-0.14431974	-0.6658477	-1.0445906	-0.5232091	-0.12603554	0.44601518	-1.3925563	0.90194637	-0.93940043	-1.1523619	-0.7059802	0.21597664	-0.050570194	-0.82631445	-6.16163e-05	0.6568953	0.58018625	0.43910444	0.6743088	-0.15508267	0.24624527	0.10030453	-0.07248747	-0.5406822	-0.35667548	0.4967528	0.7235721	0.77689445	0.48435494	-1.1801596	1.5174246	0.8932118	-0.5801601	-0.8576546	0.53557414	0.13367227	0.77247983	0.59125376	0.32148695	-0.08884548	-0.89262545	-0.063529894	0.13317452	-0.33209884	0.03205684	-0.17631556	-0.46201885	0.008429743	-0.48632348	0.5987395	-0.5408052	0.13615207	0.3777903	0.40572798	0.8317126	-1.0565081	0.49928194	-0.060696602	0.41017032	-0.22253716	-1.6277761	-0.17288122	0.9111833	-0.30429146	0.8434659	0.25672638	0.61101717	-0.6417173	-1.4835753	0.21241051	0.026765902	-0.49184686	-0.2779253	-0.5238066	-1.6154188	0.56508285	-0.3470572	0.09133051	0.33663285	1.6494261	0.110037096	-0.5932114	0.0015952885	-0.31929213	-0.68770766	-0.14535981	0.42540306	0.13825528	0.16300362	-0.39744765	1.4152085	0.58285576	-0.23375335	-0.6000596	0.71866834	-0.9139595	0.21754095	-0.2269645	-0.50155413	1.0613006	-0.06482658	-0.89134043	0.29814038	-0.21646315	0.22008212	0.2790963	-0.90733284	-0.2515568	0.65976083	-1.0005481	0.07988387	-1.5228716	-0.9139787	-0.6838068	0.031960905	0.17673986	-0.053712953	-0.20055352	0.65792274	-0.10674903	0.29361403	0.85228556	-0.4001956	0.39958128	-1.2877536	-0.58829415	0.12123194	-0.082493976	0.9541989	1.0063739	-1.0250664	-0.67692935	0.5035261	-0.617574	0.6280966	0.4388643	0.28584084	0.2777335	0.030691504	0.8752582	-0.14028654	-0.2746237	0.16338517	-1.4461886	0.93746275	0.4898991	-0.29376477	0.67317975	-0.7331746	0.5333526	-0.32612526	-0.11997457	0.20558001	1.2520704	1.1859555	0.75886035	-0.53593177	0.33848658	-0.8689189	-0.4043957	0.17912127	0.10961681	-1.377552	0.9235074	-0.22638139	-0.041024055	2.055235	0.745466	0.7735815	0.33193752	0.22043955	-0.55186325	-0.17726795	-0.553177	-0.2743189	0.57882047	0.3200364	0.07019338	0.6115693	0.7841891	-0.41232783	-0.5698278	-0.82555723	-0.3552638	-0.15783595	-0.6966165	-0.11686273	-0.55983984	0.63713497	-0.4043265	0.10823883	0.024502233	0.35080206	0.46916825	-0.011971749	-0.13960318	-0.08356524	0.20914488	0.3092742	0.08934948	-0.45370424	-0.34200174	1.0841846	0.36581892	0.37134287	-0.22737367	-1.1426816	0.39111328	-0.17818247	-0.68053496	-0.8051689	1.0628611	-0.28593057	-1.1440896	0.031353984	-1.13616	1.0042192	0.5696632	-0.34500167	0.5148431	0.6607138	0.13840401	1.2703273	1.0163841	-0.93425405	-2.1831446	-0.8888996	-0.24812976	0.16279715	0.0673724	0.2559004	0.05292153	-0.18341118	0.30297458	0.041849643	1.1037705	-0.37227097	-0.0161249	0.52187943	-0.4582718	-0.76149946	-0.7420464	0.24314447	-0.11911571	0.80078727	-1.2756847	0.25758457	-0.5616571	-1.1910341	0.53159416	-0.12580986	-0.90443194	0.104141474	0.12725237	-0.23755577	-0.872046	0.13998228	1.412508	0.1409588	0.08399321	0.63195515	-0.06765054	0.00253521	-0.167923	-1.4029559	-0.16815847	-0.6381548	0.7967738	1.1161168	-0.53258663	1.1299635	0.89766073	-0.6968087	-0.8449347	0.5126227	-0.118263036	-0.61114395	-0.77076215	0.17122659	0.26994193	0.37927547	0.057020463	0.2804798	0.64792264	-1.0447598	-0.7495129	-0.14953518	0.17399703	0.56667346	-0.22432497	-1.088428	-1.2987282	0.44341603	-0.305959	-0.48732358	-1.0595769	-0.48461848	0.5022098	0.49605185	-1.256362	-0.6318129	0.42808798	-0.042546436	0.55232584	-0.29326254	0.15994212	-0.2530644	0.79877424	-0.07274625	-0.517445	-0.4044552	-0.5100636	0.5770753	-0.10316626	0.26166517	-0.3836383	1.0028867	-0.9439056	-0.8575384	0.1964415	-0.414325	0.8448349	0.36644775	1.1439701	0.4684946	1.3811837	-0.025480181	-1.1236461	0.031976163	0.014162779	-0.4538279	-0.39911017	0.04840111	0.31464055	-0.4069761	0.27076834	0.22943008	0.076658934	-0.57389235	-0.37971	-0.3139487	0.16452369	0.3549402	-1.9273618	-0.5841204	0.66467	-0.5132628	0.08446264	-0.06395732	-1.0499756	-0.10092114	-0.14439592	-0.4294571	-0.40064716	0.4267918	-0.23301184	-0.02159752	-0.116396904	0.52876	0.7306938	0.11149311	-1.331911	-0.47857788	-0.18710399	-0.15634127	0.65209395	0.070825465	-0.25645137	-0.34925097	0.9637975	-0.11454584	0.21583407	-1.1398435	-0.24798122	-0.52927667	0.5910967	0.22116753	-1.2355512	1.2237566	0.9205702	-0.11664715	0.80521846	1.0064132	0.08132726	-0.33611858	-0.09732349	0.64083374	0.6625997	0.40497434	-0.036923856	1.3903245	-0.2805196	1.4870398	-0.17360571	1.2643906	-0.5873314	-0.3450603	-0.10914183	0.14309564	0.6992071	0.51007134	0.57831615	0.43978405	-0.121306546	0.12377165	-0.03225962	-0.094189584	0.09879895	0.35165796	0.88889444	0.045413483	0.35176304	-0.5341943	0.5229128	0.2797491	0.23050319	0.35424033	0.082596526	1.4417356	0.24038741	-1.5033939	-0.3569789	0.9119468	-0.14137131	-1.6453016	0.0794296	-0.5165647	0.69396704	0.003893517	0.32145685	0.7478509	-0.62622565	-1.2230532	0.03660825	-0.24702433	0.2571872	0.20755024	-0.46302372	-0.06599924	-0.88300246	-1.0107331	0.23532549	0.1527333	1.3312886	0.8138047	0.068730064	-0.37755474	0.3541724	-0.8744629	0.7570586	0.12124166	0.4638566	-0.011665836	0.027565211	-0.08514112	-0.5323536	-0.8601407	0.63221174	-0.3077674	0.19134414	-0.52149206	0.57884884	-0.2946568	-0.8622222	-0.7094677	-0.028097339	0.9733246	-0.25978708	0.071848474	0.6572535	-0.36855757	0.4686271	-0.19107027	-0.6080358	0.31171522	0.9272913	0.49745196	0.21548484	-0.49039543	-1.094668	-1.126742	-0.36526892	0.7683628	-0.6905398	-0.39133188	-0.5520197	-0.017995868	-0.17538722	-0.7978524	0.6498916	0.42477104	0.9132867	1.1427237	-0.6390236	0.5664539	-0.40859646	-0.58415544	0.33613274	-0.5625279	0.6655856	0.020134065	0.040258944	-0.25109485	-1.1535084	-0.19577082	-1.3039584	0.13047078	0.21377468	-0.3777671	0.5412175	0.3638837	0.28002965	0.22930601	-0.62995714	0.14269494	-0.9007853	-1.9175787	-0.027876567	0.2974252	-0.4446775	1.564486	0.20335206	-0.1817055	-0.5405125	0.35364372	-0.5050945	0.11632097	-0.19418329	1.0147746	-0.89632934	0.07803984	0.4054799	0.95700645	-1.5402882	0.71882844	0.89170206	-1.2395339	0.97963285	-1.2637416	-0.8865855	-0.8169946	0.5592768	0.6924469	-1.2667342	-0.2410382	0.48189038	1.2782936	-0.82918227	-0.49329162	0.2666428	0.2611342	0.7110992	-0.42137688	0.24757409	-1.0667477	0.32566136	0.33876485	0.5571238	0.47796574	-0.14433676	0.10127231	-0.778664	-0.055272367	-0.34234902	0.04328671	0.28849173	-1.106801	0.14710021	0.9584646	0.83403546	-0.28031817	0.18223174	0.69721186	0.17941159	0.80748534	0.20704463	-1.2804949	0.41780934	0.36516595	0.06917903	-0.6807704	0.629354	0.496426	-0.10709071	-0.68465227	-0.2971114	-0.711015	0.2823606	0.5582307	-0.40172625	-0.21104445	-0.55478245	0.042867362	0.6610211	-0.43064672	-0.49149632	0.017317533	-0.31395707	0.3927515	0.1280821	0.8533094	-0.47615212	0.5655532	0.2564966	1.0032817	1.2222854	0.794321	0.69756544	-1.5830703	0.47099835	-0.97783846	0.13538429	0.02653727	0.31943244	0.7838628	0.9124284	0.25762102	-0.5140476	-0.6228011	0.40579098	0.7994699	-0.5545975	0.09895013	0.3036282	-0.52480334	0.59694064	0.31717846	0.79939675	0.18716842	-0.33260816	0.44081813	-0.66452616	-0.14047992	-0.0738135	0.6572433	0.117901534	-1.3357395	0.219311	-1.2593538	-0.6266042	0.04991059	0.96562093	0.9251177	0.77093315	-0.16511387	-0.7785223	-1.1497493	-0.26191247	0.5909724	0.33229882	-0.067450576	-0.82054985	-0.4150445	0.28616014	-0.9045594	-0.7837702	-0.06701243	-0.6654254	0.17163503	-0.17006034	-0.97429913	0.7831314	0.11496341	-0.5021205	-0.40346447	-0.5805944	-0.37838238	1.2833415	-0.20504028	-0.6731276	0.09541243	0.106058076	-0.5295554	0.4959232	0.7761234	-0.6309054	0.40924916	-0.073695146	0.14719327	0.016088277	-0.17700303	-1.9379048	-0.70544714	-0.24043667	0.18066297	0.79647076	0.55725086	0.9989391	-0.6067612	0.6246929	0.49204406	-0.2855789	0.29792288	0.639686	0.80002713	-0.8751707	-0.18963884	0.65098345	-0.43223268	1.1195728	-0.10925559	-0.26456946	1.0913185	0.0025093257	1.0651937	-0.32542336	0.83194673	-0.095068306	0.7558333	-0.5051276	0.34093875	0.3925069	-0.5015539	1.8750012	0.9855154	0.9152862	0.025995493	0.43480793	0.47919405	-0.7484461	0.9441713	0.76302075	-0.39256144	1.1058645	-0.023360714	-0.31120938	0.46400306	0.3621964	-0.23860204	-0.14676802	-1.202456	0.44481045	-0.482952	-0.26942176	-0.11287853	-0.88517874	0.34204835	0.75061965	-0.7622121	0.84506035	-0.68588585	-0.50349414	-0.03230603	0.2570936	-0.45576885	0.21054263	0.021808445
G001825655	0.1541245	-0.007181376	-1.1391116	-0.9084994	0.31432876	-0.4246369	-0.23846704	-0.5534883	0.25921297	0.48456615	-0.31163657	-0.31192374	-0.041759238	-0.22219622	0.78308237	0.67409873	-0.3840956	-0.5033678	-0.09587616	0.15328956	-0.9433073	-0.38426206	-0.36514816	0.7790029	0.15973435	-0.4128858	1.1974769	-0.390797	0.09984374	0.27703914	0.38323376	0.26910502	0.44423372	0.9391884	-0.517258	-1.0709157	-0.9558239	1.0463078	-0.7078427	-0.3943316	1.1682613	0.5867492	-0.17664239	-0.841179	1.0703067	0.33950853	-0.385602	0.047911167	0.5770255	-0.5747882	-0.17020461	-0.91049385	0.7257316	0.14179349	-0.32654655	-0.04873744	1.0918026	-0.691012	-0.42860362	-0.075491555	0.8270663	-1.1544358	-0.38709113	0.7138789	0.4600939	-1.2493191	-0.6169066	0.15634692	0.3821581	1.2240272	-0.3008624	-0.47566324	0.8360979	-1.1032255	-0.088224865	-0.7504754	0.115228884	0.77559954	0.7360309	0.7996853	1.1464194	-1.1148605	0.9305843	0.50737995	-0.7250499	-0.24578406	-0.8033351	-1.1016117	-0.49127966	-0.32269424	-0.6582599	0.20987329	0.28324622	0.28922966	-0.409984	-0.13338447	-0.66695064	0.7015619	-0.5914885	0.20759016	-0.840796	1.3774678	-0.12805352	0.22773567	0.01841253	-0.64584756	-0.62798166	-0.7474747	0.5684648	-0.6501934	-0.27360204	1.496537	0.1798208	0.57071495	-0.81604105	0.23048806	0.36917543	-1.4637927	-0.35869735	-1.0656831	-0.57988584	0.24189164	0.7885368	0.76889706	-0.45062292	1.1578795	0.56417465	-1.062806	1.0290515	-0.3287726	0.13493267	-0.6355417	-0.627866	0.072001785	0.7546207	0.17836134	0.46084645	0.1494475	-0.005175125	0.0314001	0.46528822	0.7368248	-1.0211465	-0.8464494	0.5296458	1.0679592	-0.2319393	-0.6288574	-0.70191574	0.16230264	0.014061511	1.2478207	0.05736302	0.45369282	-0.6264	-1.1611781	0.88135743	-0.20475048	-1.3728982	-0.35277528	-0.48751917	0.32411766	0.0427613	0.57963264	0.19448268	0.53159666	0.4074018	-0.81776226	0.59346926	0.4363709	-0.5640561	0.0946331	-0.88553274	-0.4120866	0.21241373	-0.68505174	-0.062165916	1.3487356	-0.19557133	0.23647794	0.051839203	-0.104340345	1.1756293	-0.43748322	0.022020593	0.984746	0.32842225	0.28085423	-0.05521082	-1.5757823	0.71357024	-0.33167154	0.48567754	-0.8970766	-0.2869174	0.04550011	-0.25700736	-0.1812141	-1.3550211	-0.07415837	2.3875575	-0.2021792	0.79183096	0.748149	-0.0045574903	1.3117958	-0.7566327	-0.75370324	-0.21162647	0.44083393	0.93837535	-1.0442842	0.6235846	0.5531066	-1.0049567	-0.15770604	-0.67804396	-0.20782429	-0.62167007	0.21059209	-1.0180762	-0.5458438	0.0402205	0.76722616	-0.76674354	-1.3110862	0.96236795	-0.19785558	-0.49910095	-0.689184	0.64540213	0.73945576	0.3329165	0.20130944	0.08254246	0.5584191	1.1615167	-0.042696297	-0.3382843	0.910527	-0.33766916	0.54123694	-0.85245305	0.685761	0.9185068	0.30823296	-1.169929	0.5343038	-0.5864664	0.30674356	0.16061778	0.19876058	0.30449647	-0.26900163	0.13289246	-0.9643146	-0.100248665	0.6590847	0.11264454	-0.5020314	-1.4795312	-0.09742658	0.19133885	0.022427082	-0.46681622	-0.007623717	-0.7517854	-0.011681639	0.040041827	-0.7732132	0.3291999	-0.21434504	0.12975389	-0.5504246	0.24114385	0.42155	0.9624742	-0.34238774	-0.30342382	-1.5461481	-1.0111712	-0.4685898	-0.2573043	-0.37583265	0.6113111	-0.70112175	-0.98962057	0.09469861	0.097838044	0.1499578	-0.68093395	-0.6363353	0.035830848	0.5622445	0.72392213	1.1790698	-0.7462779	0.4979517	1.0286784	-0.4417101	-1.1070381	-0.4223272	-0.066467375	0.7708146	0.37983617	0.54394305	-0.40420377	1.5653806	0.13120112	-0.15979221	-1.4243201	0.8929995	-0.046288595	0.75999403	0.3467856	-0.5433583	0.39060453	-0.99894625	0.1571309	0.40820152	-0.5510307	-0.33964148	0.54872495	-0.31412685	0.24643303	-0.34925798	-0.20089206	-1.0889013	-0.11733957	-0.06834808	0.7950896	0.976448	-0.6585003	0.14757083	-0.11764115	-0.08919686	-0.5964473	-1.1404679	-0.2849369	0.3781516	0.092653126	0.8710275	-0.055494785	0.36088616	-0.20465648	-2.0650678	0.034986883	0.47276878	-1.0451125	-0.04574418	-0.4867157	-1.6101891	-0.008604914	0.0818168	-0.50899386	0.22087415	1.471942	0.22731417	-0.53877443	-0.10756248	0.06428787	-0.37953064	0.31366047	0.008633338	1.2429246	0.22306186	-0.42273465	1.3656051	-0.17875844	-0.6919113	-0.6412348	1.1220739	-0.4004181	0.08836852	0.055239543	-0.40713775	1.0951673	-0.18904993	-0.5582582	0.40802616	-0.26167426	-0.072759405	0.15425879	-0.51791775	-0.5402694	0.60769886	-0.87273616	-0.39059696	-1.2437593	-1.3689024	-1.0193365	-0.5145179	-0.14164855	0.22453666	-0.73735034	0.7942739	0.48290744	0.49497354	0.7605538	-0.72621155	0.90286255	-0.1358769	-0.5325141	0.8701111	-0.72698724	1.138703	0.22142246	-1.6425626	-0.5323453	-0.4553243	-1.1811864	0.74741757	0.102992445	-0.2608777	0.15391544	0.22045386	0.9553847	-0.5460505	-0.57455695	0.16574559	-1.7152089	0.9377979	0.2618196	0.26947522	-0.7618398	-0.8012745	-0.008481346	-0.56509554	-0.12776949	-0.0492154	0.7714865	1.2394431	0.41724938	0.012851508	0.5959208	-0.50586057	-0.43428144	-0.001031369	0.57124454	-1.0950285	0.64966226	-0.6432912	-0.1685668	1.2968223	0.2684525	0.8845993	0.70275855	0.33073092	-0.6215327	-0.25825286	0.32905424	-0.4711997	0.0303861	1.0690886	0.23700961	0.5250993	1.0086889	-0.8217791	-0.5271797	-1.0329068	-0.651304	-0.59843004	-0.7378645	-0.97408694	-0.15668182	0.48793966	-1.5433744	-0.8308628	-0.091123916	-0.07683037	0.74346626	-0.17187643	0.5604535	0.13559888	-0.17376512	-0.12928808	-0.114713304	-0.7270904	-0.38528544	0.3053946	0.54463136	0.6649744	0.029759627	-0.8473742	-0.121208996	0.017394263	-0.30687672	-1.8178915	1.6412781	-0.294725	-0.75246525	-0.3868583	-1.7174886	0.46793985	0.49442303	-0.14096974	0.3471829	0.90057003	0.03988585	1.1214746	0.8529511	-0.14981262	-1.79032	-1.0491104	-0.2705511	0.44685245	0.32825986	0.2577253	0.44675332	0.020958722	-0.28166622	-0.34645066	1.0344251	0.62370473	-0.4441517	0.12576799	-0.5935669	-0.71202767	-0.4651886	0.27234212	0.12113337	0.47372347	-0.4521597	-0.26263598	-0.24696916	-0.7795317	0.29513663	0.3053662	-0.6833989	-0.7463645	0.24071181	-0.556395	-0.12545536	-0.3782267	0.8523247	0.16573715	-0.29866526	0.34725767	-0.7170371	-0.50158066	0.3570563	-0.9398344	0.023870617	-0.23459165	0.10600066	0.95519835	-0.443476	0.6609863	0.6868375	-0.49406016	-0.6716592	0.5611913	0.6714701	-0.45747808	-0.3121181	0.25745675	0.1914348	-0.1773698	-0.17067708	-0.42898303	0.25337037	-1.871555	-0.8890183	-0.3600459	-0.22676536	0.4071757	-0.09916755	-0.7224559	-0.80024564	0.5619586	-0.16182725	-0.75942016	-1.2206738	-0.5381237	0.14469999	0.88872814	-1.177352	-1.0197922	0.26343775	0.032374043	0.2735772	-0.73372185	0.15465188	-0.5208922	0.13016285	0.14105192	-0.81118447	-0.49305648	-0.5811914	0.42285138	0.4190781	-0.07631984	0.057235733	0.75423884	-0.91665554	0.1840657	0.29596603	-0.9593566	0.67397475	0.20211954	1.09908	0.04976059	1.6023816	0.47286254	-1.2228148	-0.09823978	-0.11248719	-0.46008843	0.6535211	0.21384352	0.22098877	-1.2786924	0.104193866	-0.27843398	0.21767884	-0.20606878	-0.3457567	0.733212	-0.078314275	0.22999732	-2.3718514	-1.2788383	-0.23946062	-0.33546576	0.18149212	-0.19522741	-0.6320702	-0.25653738	-0.14818457	0.39514038	0.29571003	-0.22796832	-0.6813117	-0.36517122	0.15326473	0.7062204	0.34460592	0.5298679	-1.2621294	-0.92187166	0.6554372	-0.66075605	0.47039407	-0.48246938	-0.8696579	-0.7856364	1.6728234	-0.73962015	-0.2186311	-0.63753265	-1.3526497	-0.29846603	0.4490895	-0.09475328	-1.0574611	1.038867	0.7013525	-0.34275898	0.14786792	0.88797987	0.21838193	-0.5224173	0.08489088	0.47936887	0.7184276	0.13882735	0.14812489	0.694493	-0.225284	1.2067378	-0.21052532	0.93550503	-0.5561423	-0.55356205	-0.21555679	-0.49354488	0.7077881	0.39579403	1.1617689	0.6044686	-0.32538888	0.0036219358	0.035401724	0.29389662	0.015712574	0.65689486	-0.27077514	-0.21119729	0.6504003	-0.7040177	0.40031266	0.10709791	0.7300859	0.8148836	-0.43000084	0.8275394	1.0112071	-0.9290471	-0.39033574	0.75473255	0.24590637	-0.9569938	0.39524436	-0.38806093	0.31330985	-0.012883827	0.82042336	0.3647272	-0.3244798	-0.9057867	0.8777569	-0.6150891	-0.4151502	0.09145124	-1.2010951	0.5916613	-1.0835855	-1.1021788	0.5654321	-0.7820336	0.94403535	1.309963	-0.6371055	0.13258916	0.7137461	-0.60819	0.98636216	0.30888286	0.6348211	-0.022753239	-0.6948695	-0.2009398	-0.33143216	-0.22987962	0.79658407	-0.068991296	-0.15386038	-0.6538649	0.2923234	-0.0015706122	-0.45964423	-0.53401816	-0.10827778	0.55265105	-0.46223974	-0.40252936	0.9210325	0.33726287	0.20659196	-0.26980135	0.022056714	-0.14111492	0.97967035	0.9756709	0.49752337	-0.19545338	-1.0453731	0.03032124	-0.38377035	0.9041499	-0.93150014	-0.7843112	-0.084709674	-1.219006	-0.53873044	-0.100687385	0.70050657	0.38184753	1.4686095	0.74531466	-0.6591356	0.56092155	-0.5196884	0.04322374	0.032059677	0.1254195	0.13073303	-0.20691952	-0.11396903	-0.08691928	-2.1218045	-0.17652643	-1.6170232	0.5206003	0.008554161	0.20781945	-0.10509147	-0.30212387	0.38718358	-0.105421826	-1.3017938	0.94476813	-1.2125741	-1.9419043	-0.16625139	0.23564091	-0.18994385	0.9968602	0.0069629103	-0.55920756	-0.48240548	0.5201534	-0.1961603	0.5947683	-0.66696084	0.7235445	-0.6573807	-0.27175385	0.039407425	0.07725317	-0.45187205	0.60274625	0.62206554	-1.5340075	0.64337605	-0.6384388	-1.0559627	-1.5167313	0.4417947	0.7196967	-0.59123635	-0.19622788	1.0733631	1.4178708	-0.4932704	-0.16759968	0.8512386	-0.21343613	0.89605147	-0.20853454	0.65371954	-0.9608614	0.48753232	0.58813024	-0.0071980655	0.20960684	-1.1786939	-0.24785787	-0.79569155	0.52596915	-0.30245426	-0.6732461	0.53285563	-0.16607437	-0.14455055	1.3633322	0.71305734	-0.43114036	-0.24879101	0.9644019	-0.22181776	0.17283326	-0.48038796	-1.2336974	0.49340644	0.3141539	0.0045452043	-0.5378997	0.47729957	0.061604336	0.28734767	-0.7344812	0.112411365	-0.84191084	-0.5090925	0.101024985	-0.44367874	0.36610237	-0.68672186	0.6899207	0.8265372	-0.61242396	-0.6729286	0.06754491	-0.030966498	0.22514598	0.52823687	0.1265362	-0.6953219	-0.016153734	0.7109169	-0.01873737	1.3511661	1.1061023	0.55587876	-1.2758899	-0.70617086	-1.4154255	0.29823774	0.39415866	0.29523584	0.29784864	0.5242386	0.3510579	-0.9473907	-0.21872135	0.6818572	-0.05643037	0.23285028	-0.1861777	0.056372933	-0.25293952	0.50951195	0.41792342	0.7452319	-0.9797704	-0.17143878	0.35356712	-0.3986053	-0.42590964	0.25414908	0.44581455	0.026980266	-1.0608981	0.12065105	-0.88905585	-0.18713373	0.049163066	1.7557764	0.10844861	0.8526022	0.051357508	-0.580209	-1.0244201	-1.2884595	-0.05347964	-0.45112622	0.30466104	-1.7671161	-0.28020015	0.30620146	-0.56022483	-0.45460367	-0.076133594	-0.46688673	-0.14420068	-0.20029648	-0.93686587	1.5389956	0.33654553	-0.024179168	-0.101341315	0.578412	-0.99742997	1.1410166	-0.13362113	-0.9910725	0.21227853	0.28890693	-0.9974127	0.43805715	0.9548465	-0.4601964	-0.11534214	-0.07382549	0.5377919	-0.49576908	-0.38361937	-1.2520097	-0.45777127	-0.04199028	0.5464426	0.831246	0.94545513	1.1846373	-0.8487385	0.5733963	0.42331022	0.12501858	-0.29410455	0.8164703	0.51811975	-0.5837538	-0.053591933	0.6345543	-0.2936575	1.509521	-0.057338044	-0.5623729	0.6289521	0.46748024	0.8740692	-0.7176237	1.0364298	-0.49582243	0.33776277	-0.09928526	0.16804019	0.4797941	-0.32186702	1.6778033	0.7555231	0.6494959	-0.8987652	0.6232317	0.37707573	-0.17228346	0.1479604	0.24442442	-0.058901127	0.05555877	-0.33876005	0.2495584	0.25070292	1.0443977	-0.05868669	-0.03442295	-1.0955594	0.2914462	-1.0973831	0.8905858	0.15638626	-0.77632445	0.2888841	0.29926252	-0.42537007	0.14006981	-0.65775377	-0.89555275	-0.30194315	0.16893955	-0.3384678	-0.42921776	-0.19885717
G001873045	0.8866111	-0.4757342	-1.1977572	-0.74849975	0.61008954	-0.53131044	-0.4562422	-0.7885762	0.3601113	0.87802863	0.46239418	-0.31711254	-0.5397711	-0.71758634	1.0853597	0.52332246	-1.2287052	-0.8835223	-0.16358826	0.6654568	-0.8144691	0.21016246	-0.72463024	0.8921872	-0.37506947	-0.6811737	1.3122412	-1.1073275	-0.46552122	0.06833473	-0.017808706	0.0035250355	0.48780775	1.1813202	-0.8862375	-0.34059882	-0.88178337	0.5053462	-0.8171931	0.15826038	1.285842	0.693833	-0.8070479	-0.5244459	1.2096118	0.24853036	-0.15392393	-0.51731515	-0.055017445	-0.5717731	-0.32490936	-0.16644657	0.882074	0.02785185	-0.5600815	0.6002699	1.3019423	-0.78524137	-0.6954838	-0.40064174	0.37280124	-0.7801096	0.035396487	0.025757164	0.045422923	-0.7685225	-0.45228985	-0.0020225532	0.12841627	1.2912849	-0.49666023	-1.0976974	-0.09473832	0.1789543	0.0464383	-1.061621	0.12634674	0.39939746	0.8769109	0.53089166	0.5190477	-1.1813365	0.58363706	-0.08544846	-1.1384394	0.07132161	-0.52183294	-0.88854074	-0.12723643	-1.0625482	-0.86269784	0.19853812	0.7786305	-0.023002699	-0.059485406	-0.25910032	-0.69197726	0.38859484	-1.4798529	0.9040386	-0.5182922	0.78999394	-0.15609856	0.43332586	0.7507178	-0.54732674	-0.60467666	-0.3331973	0.0319151	-0.10929373	-0.9062412	1.4427319	-0.09954439	-0.06435196	-0.76305413	0.05159807	-0.022972576	-1.575194	-0.46603617	-0.75280315	-0.84998804	-0.97068727	0.6807454	1.7573973	0.11103116	0.49951455	0.93669575	-0.9375178	-0.26109475	0.22821555	-0.006094062	-0.4529841	-0.19204909	0.41931206	0.911283	-0.2886483	0.5031095	-0.8019974	-0.12524563	0.4809717	0.29782653	1.0593737	-0.67628336	-0.81844753	0.22910133	0.32394123	-0.98436904	-1.0187916	0.07020604	0.29060745	-0.05976204	1.4034069	-0.2105784	0.585274	0.38149154	-1.1466553	0.19380906	-0.40345246	-1.3362002	-1.0116975	-0.14836456	0.21765105	0.3113649	0.1111212	-0.50603956	0.92873263	0.18753454	-0.47177914	0.8726902	0.83685225	-0.6648658	-0.47151166	-0.73094094	-0.0024529956	0.25741714	-0.990826	-0.17646456	1.1620194	0.6037818	0.89338875	0.26940852	0.48046783	1.699493	-0.6267212	0.37182313	0.86547595	1.0006123	-0.003749162	-0.03242521	-1.1533792	0.8661529	0.3677824	0.23719051	-1.0180364	-0.5352273	-0.5473765	-0.17683503	-0.73103684	-0.7980902	-0.17854834	1.5671269	-0.3908081	0.844041	0.07204886	0.09912112	1.0399925	-0.33254	0.00857367	-0.4606058	0.038395196	1.2185196	-0.85185516	-0.0038627982	0.13105115	-0.45077276	-0.45690885	-0.17651683	0.009698719	-0.3586355	-0.42842114	-1.1823506	-1.1790979	0.5491571	0.64162713	-0.7938696	-1.0817981	0.8012749	-0.76244146	-0.46967733	-0.58753693	1.0554717	0.18927741	0.3466601	-0.15981883	0.15736906	0.50559384	0.6844402	-0.3418939	0.029214561	0.29028863	-0.29684216	0.19848049	-1.2532163	0.4432439	0.756624	0.4906894	-0.55861986	0.5737851	-0.06320396	0.5805563	0.018042803	0.15233216	-0.4439798	-0.14425263	0.3379466	-1.2343322	-0.43423644	0.61144066	0.3226985	-0.775947	-0.9379412	-0.10360204	0.6997768	0.19677699	0.36374038	-0.379616	-0.8363539	0.18766293	-0.9109322	-0.6089463	1.0719659	-0.039919592	0.65579623	-1.1032617	-0.131946	0.77888525	0.94023234	-0.3326054	-0.5148083	-2.0555074	-0.52075917	-0.25549	0.6438612	-0.9106636	0.01694426	-0.79474807	-1.6492555	0.5643847	1.1088916	-0.1659051	-0.9789898	-0.4937567	0.05133064	0.5410147	0.3974297	0.5179793	-0.13096242	0.4056759	0.42109445	-0.38005662	-0.65461445	-0.3144466	-0.14375323	-0.15980567	0.5870776	0.24248312	-0.88123286	1.5943052	0.75622153	-0.25063992	-0.8990405	0.7672213	0.27491322	1.4078772	-0.34709293	0.050818697	-0.050454527	-0.43110004	-0.27032512	-0.5028105	0.074544944	-0.4146852	0.26629227	-0.8420417	0.13257718	-0.3322269	0.35032743	-0.018959317	-0.10293544	0.52972794	0.34690356	0.23771778	-1.2715046	0.14913657	-0.257756	0.53034985	0.20219843	-1.7267151	-0.39545214	1.0875984	-0.3369614	0.63167095	0.56417346	0.21827659	-0.5701571	-1.6125116	0.20549686	-0.03725989	-0.78614813	0.2519155	-0.7759644	-1.2780012	0.7659129	-0.24165955	0.4596918	0.054012924	1.5401518	-0.21266612	-0.6928588	-0.22821066	0.09206225	-0.47571805	0.5345791	0.09079744	1.2621961	-0.14033459	-0.22051615	1.1773641	0.07927412	-0.6379421	-0.36333615	0.81675565	-0.48352832	0.45355257	-0.28113472	-0.38900825	0.7444573	-0.76332426	-0.4567882	0.3162647	0.43305916	0.52080023	0.44480833	-0.8519536	-0.36180246	0.40474662	-0.43267044	0.1715076	-0.5959895	-1.2642102	-0.4828775	-0.9351554	0.13324735	-0.34403312	-0.6758357	0.35026166	-0.24426088	0.82812077	0.82368356	-0.9217385	0.9836736	-0.5260737	-0.18224572	1.2779808	0.072253436	1.3387115	1.3698533	-1.144585	-0.9533417	0.08656359	-1.0036951	0.2053283	0.75201815	0.23565656	1.0166092	0.12349184	1.1527786	-1.083083	0.27947578	0.022139728	-1.1341584	0.72306913	0.37161922	0.29415143	-0.28566194	0.043546617	0.28776902	-0.50070053	-0.55502516	0.22732311	0.93399346	0.50069	0.7203946	0.09485716	0.3440906	-0.06859942	-1.074874	0.06565506	0.8332083	-1.1168923	0.8610601	-0.6044438	-0.21793881	2.1165302	-0.11322518	0.60731506	0.22666885	-0.01754272	-0.6011229	-0.09575413	0.11733985	-0.32074097	0.6298426	0.053686336	0.19894698	0.6864801	1.5742002	-0.50461555	-0.46979618	-0.788679	-0.67707	-0.14652587	-0.76937306	-0.8414979	-0.29900116	0.04030811	-0.86784726	-0.5672401	-0.47567135	0.25115812	0.20820339	0.3476923	0.3398122	-0.037843984	-0.015202105	0.012301609	-0.17461587	-0.2940385	-0.022811785	0.064638875	-0.07026559	0.25393933	-0.12103077	-0.49259508	0.46984765	-1.0657988	-0.18995686	-1.3757101	1.3277261	-0.4006604	-0.88355935	0.43895605	-1.550663	0.5473759	0.8340408	-0.33949026	-0.7249508	0.8627319	-0.3462563	1.2276484	0.8240367	-1.3442012	-1.9906746	-0.37721655	0.3760777	0.10997206	-0.29754394	-0.6628665	-0.17066862	0.514851	-0.22865354	0.5120199	1.8930581	0.1241999	-0.12315144	0.5916746	-0.6060104	-0.8460514	-0.30758432	0.91015184	0.35003778	0.5966988	-0.2105423	0.46006	-0.4128159	-0.14610726	0.4002489	0.58297795	-0.46089596	-0.47962067	-0.065107875	-0.08457902	-0.335167	-0.16138247	0.75410366	-0.6154467	0.21841116	0.58765215	-0.5315548	-0.6709288	-0.3767243	-1.124486	-0.576465	0.12040424	0.3221165	0.8884388	-0.12642285	0.6974271	0.70035803	-0.6519375	-0.59833497	0.56346345	-0.0071621835	-0.7050134	-0.95828784	0.1786722	0.5647759	-0.39386195	-0.16338356	-0.17480482	0.5440813	-1.0541501	-0.45868927	-0.19410603	0.5982572	1.254211	-0.21456328	-1.0296656	-1.223994	0.8233933	-0.12418664	-0.48646235	-1.4905963	-0.82553625	0.42941648	0.88298416	-0.891843	-0.89207613	0.40485555	-0.589426	0.53255177	-0.2340299	-0.029563352	-0.34242764	0.4867035	-0.40437222	-0.4474225	-0.5577101	-0.7857534	0.3491177	0.13660121	-0.5327922	-0.45533633	0.559733	-1.4545879	-0.037562773	0.93512785	-0.9002489	0.8108966	0.23866664	0.7711127	0.65020305	1.2718954	0.11404872	-0.7378536	-0.46554857	0.51614964	-0.34872818	1.0212787	0.30111757	0.36319196	-1.4052101	0.8791721	-0.17265438	0.5153818	-0.77967256	-0.78309995	0.32363993	0.087432936	0.8346068	-2.0256236	-1.2051492	0.63846475	-0.7151195	-0.42655653	-0.4034908	-0.24996457	0.1822555	-0.24002394	-0.19627011	0.2257185	-0.22114812	-0.30809975	0.22533694	-0.011205621	0.7310414	0.094914995	-0.3046171	-0.9384488	-0.25869805	0.41705424	0.027972624	0.6033157	-0.47818783	-0.5196677	-0.6876721	1.7794013	-0.9454656	0.30479008	-0.33951062	-1.2881083	-0.58042413	0.5197785	0.06285524	-0.66672504	0.9400762	1.1110417	-0.027700864	-0.468276	0.95370936	-0.25771552	-0.17830706	0.824251	0.60426456	0.463799	0.11837974	0.5529134	1.3125088	-0.5585715	0.91066545	0.25659332	0.7426859	-1.2103066	0.2053918	-0.29171944	0.0036090757	0.7550442	0.75436574	0.49659213	0.206987	-0.074514076	0.100446045	0.60083246	-0.34249184	0.09408115	0.1544661	0.6681889	0.3050929	0.81313324	-0.63374484	0.32216385	-0.13846396	0.6586565	0.24487564	0.315098	0.62545186	0.93923765	-1.4822105	-0.47867057	0.85624504	0.23643309	-1.0084956	0.2269659	-0.61857474	-0.07777563	-0.1427448	0.35250854	1.0596911	-0.17100671	-0.81102026	0.5076547	-0.55372024	-0.31001782	0.34867597	-0.99529314	0.08079678	-0.614537	-0.725178	0.87196165	-0.5187039	0.9702671	0.56916374	-0.43073595	-0.3058276	0.46599406	-0.5525657	0.9908925	-0.12002752	1.3077134	-0.21790554	-0.79209167	-0.23983325	-0.7311666	-0.8878691	0.48971364	-0.09040788	0.23367073	-0.8674114	-0.61402225	0.0017136484	-0.25754446	-0.96105677	-0.5462154	0.273009	-0.06563045	-0.010893311	0.9527444	-0.047207966	0.7072913	-0.41055363	0.55961263	0.41214252	0.73383147	0.3322738	0.38645706	-0.004890904	-0.84590924	-0.8520678	-0.72221947	1.0484831	-0.77724814	-0.8897797	-0.54722327	-0.94394475	-0.7644879	-0.29329127	0.672816	0.697955	0.7710922	1.1039076	-0.96665037	-0.43899977	-0.3243699	-0.3407011	-0.36878812	-0.71711653	0.48513377	-0.21727666	0.01219064	-0.05831273	-1.6983323	0.28605434	-1.8538244	0.15068734	0.32002276	-0.5440314	0.7925642	0.045124434	0.48170093	0.7442717	-1.1869687	0.37308532	-1.2878627	-1.6038404	0.21301866	-0.28032142	-0.019875363	1.0758909	0.43406838	-0.08701441	0.15811555	0.64011407	-0.40736067	0.5101707	-0.05296719	0.36999813	-1.185117	0.22161674	0.41611803	0.63609934	0.06484048	0.78436327	0.14170156	-1.4555082	0.29941654	-1.9941261	-1.4094983	-1.0042697	0.6510737	0.5296578	-1.2437304	-0.15553501	0.3687567	0.84356624	-0.36025047	-0.2566837	0.4858101	0.22711277	0.75230134	-0.71057594	0.33823973	-0.849104	0.21274681	0.40302274	0.18599308	0.44130045	-0.3833538	0.15125796	-0.4907636	-0.22968745	-0.44444072	-1.0665978	0.36417514	-0.477575	-0.3148421	0.6096129	1.2017801	-0.59558845	-0.0071985424	0.6252713	0.16695294	0.981722	0.57003206	-0.6435016	0.5291032	0.7149586	0.24849737	-0.694167	-0.28886876	0.5357099	0.55517673	-0.7713987	-0.17577465	-0.7619648	0.48832166	0.23900515	-0.42540845	0.6119858	-0.68830925	0.7256532	0.660555	-0.6278458	-0.33865845	-0.10862446	0.20964551	0.6637868	0.091678195	0.048879698	-0.33730048	-0.29186335	0.3068408	0.9866842	1.2034382	0.84352255	0.19865458	-1.4233708	-0.8089608	-1.087352	-0.1488683	-0.14244996	0.17373997	0.4519858	-0.16071492	-0.012939066	-0.70878136	-0.85128605	0.45946425	-0.10245085	-0.31707507	-0.30057222	-0.06644346	-0.93455744	0.19407727	0.22558627	0.8014027	-1.0305732	-0.5150796	0.08932338	-1.1037637	-1.0454581	-0.06457638	0.0014303923	0.31896818	-0.84455174	-0.06332257	-1.0475758	-0.067805275	-0.14532603	1.7643528	0.64949715	0.46580717	-0.6878425	-0.19248202	-1.6017753	-0.97830755	0.25249338	-0.095073	-0.08795512	-1.829103	-0.81374586	0.61203355	-0.98875225	-0.7513488	0.7044728	-1.2183013	0.43578848	-0.07493496	-0.5661394	0.5851459	0.5557296	-0.118022405	-0.100233346	0.07294461	-0.7491544	1.0906546	-0.33023423	-1.1013905	1.1305412	-0.43654972	-0.14121534	-0.21493042	1.056325	-0.3614584	-0.083836436	-0.6185808	0.95155525	-0.43061566	0.30821237	-1.2970043	0.041088	-0.0296746	0.28651804	0.42706808	1.3346733	1.3778477	-0.58575255	0.5841811	0.83728236	-0.52245843	0.63867927	0.3584249	0.7577251	-0.15482256	0.83538294	0.8758122	-0.21899104	0.42932653	-0.95468724	-0.9420405	0.8830932	0.2679259	1.0145172	-0.1757331	0.86136746	-0.55864793	0.47131628	-0.21041007	-0.39431146	0.42085826	-0.282378	1.5488405	1.0421463	0.6233422	-0.5482029	0.522369	0.97336966	0.03662415	0.10206458	0.9232661	-0.20466894	-0.18490201	-0.03863588	0.027341763	-0.23769435	1.7390873	0.10255359	-0.40775886	-1.1909368	0.45174474	-0.6381846	0.9643227	0.27756152	-0.46699053	0.15120487	0.46307823	-0.60659003	0.7549638	-0.5333872	-0.88168514	0.30341184	0.49188572	-0.5620242	-0.1304109	-0.09710805
