G000988325	0.4017603	-0.5347599	-0.16708246	-1.2011232	0.26790458	-0.43308216	-0.0890586	-0.8526288	0.0064875484	0.72845507	-0.6971612	-0.060013093	0.37953043	0.38029015	1.2984273	0.4715985	-0.83202267	-0.820403	-0.08897215	0.9104955	-0.49190885	-0.62499934	0.017546155	0.6574886	-0.2595786	-0.72251993	0.7071029	-0.58000153	-0.84459084	0.1563333	1.4622995	-0.017651472	0.13249223	0.6864697	0.13526586	-0.06664932	-0.86119217	0.7236101	-0.68066067	-0.6528503	1.4413227	0.2972154	0.6969448	-0.9431368	0.87654316	-0.42387548	0.79401225	0.02469223	0.92365086	-0.773371	0.5746437	-0.36523163	0.64858955	0.21767256	-0.38785136	-0.023020618	0.45553756	-0.7757024	-0.50833	-0.5551728	0.8504229	-0.40088758	0.02322743	-0.05661258	0.30516282	-1.5545316	0.47676545	-0.64393663	0.45435482	0.41411594	-0.18001813	-0.56547153	-0.19454366	-1.335467	-0.08360501	-0.54914665	0.68151224	0.89653224	0.21863854	0.41374406	0.55180466	-0.31380427	1.1168956	0.25607324	-1.2324971	0.21745028	-0.1557986	-0.58687025	-0.56106454	-0.5839022	0.35133916	0.2575274	0.4854476	-0.54087055	0.45403767	-0.4366359	0.41746902	-0.038703747	-0.93673587	0.33936262	-1.348356	-0.017771855	0.60897386	-0.24999228	0.94368184	-1.1127201	0.07449298	-0.00970481	0.63411844	-0.30049586	-0.30955982	0.76651055	0.26400185	0.2384417	0.11737371	-0.6656597	0.17328522	-1.0570772	-0.24664128	-1.503134	-1.091833	-0.8662396	-0.5005572	-0.16969207	-0.3243274	1.2036194	-0.4831512	-0.8813162	-0.16569895	0.15298885	0.49689084	-0.032163896	-1.2061783	0.2984191	0.17037225	-0.4801127	0.52104926	-0.59991294	-0.6154079	0.55994725	1.2571733	1.2200607	-1.631484	-1.0264221	0.029638052	0.26264322	0.29400373	-0.54591155	-0.6036687	0.0041150525	0.5912141	0.5077864	-0.33585095	-0.2177966	-0.27804083	-0.54845023	0.13400191	0.17495106	-1.2899237	-0.17830472	0.34599078	0.79063994	0.59035516	0.81600386	-0.112677634	0.55376196	-0.26277694	-0.50379705	0.31643826	-0.38910556	-0.5444666	-0.090900235	0.27927718	0.44732097	-0.1531987	-0.36855984	0.0032052794	0.49951535	-0.42244524	1.3545545	1.0863503	-0.55995625	0.06715344	-0.13882779	0.26943818	1.325147	0.6451038	-0.36873525	0.39035597	-0.012124255	-0.092650354	0.42387494	-0.120722376	-0.71845186	-0.9808457	-0.2230816	0.085876286	-0.22099106	-0.9783422	0.19929534	1.179986	0.28228685	0.68514085	0.53957444	0.7354648	0.9038047	-0.012341708	-0.94964427	-0.49014437	0.28951564	-0.6096686	-0.18378001	0.02806203	0.61102676	-0.07323833	-0.71648765	0.38442272	0.18727985	-0.63535905	0.23952436	-0.8259094	-0.37935868	0.26212484	0.7567473	-0.24734662	-1.0915989	-0.15099323	-0.4344025	-0.19240138	-0.5773456	0.3275252	0.6523776	1.4454734	0.7202897	-0.7196988	-0.21153751	0.5399979	-0.74775666	-0.28896895	0.59617096	0.34433833	-0.24621397	-0.70533305	0.39363292	0.36023873	-0.15795363	-1.4731028	0.42119837	0.17279126	0.078052446	0.4210876	0.10682748	-0.46098083	-1.086065	0.8014125	-0.19544631	-0.24298391	-0.08809203	0.76262057	-0.19707382	-1.0713614	-0.39375088	0.29376465	0.045919903	-0.47333637	-0.118791595	-0.4016864	-0.7047038	-0.8561569	-1.1666209	0.15721598	0.2509287	-0.5243281	-0.09762369	-0.45414397	0.9799194	1.0952749	0.86405915	-0.8253718	-1.2012572	0.22721736	-0.11292377	0.32316163	-0.9416318	0.3096138	-1.2605425	0.21042618	-0.0411245	0.6993727	0.79955786	0.011064187	-0.28792703	0.5382666	0.58754385	0.53327733	-0.06896951	-0.37423098	-0.46384797	0.5162628	-0.59161985	-0.047486715	0.03984663	-0.49060023	0.6537883	1.376735	0.1807296	0.24730119	0.88140666	1.2027133	-0.33901733	-1.5041083	-0.23322509	-0.16494137	0.18286772	-0.05326052	0.32401583	-0.43922368	-0.5443428	0.5147703	0.5690163	0.09229824	-0.5613612	-0.30030724	-0.5025025	0.20503366	-1.2461119	-0.16219164	0.14128138	0.09601285	0.25024137	-0.017642707	0.050608017	-0.9368957	0.2948721	-0.52554953	-0.10716906	-0.23283479	-0.9701828	-0.23432428	0.38324207	0.4643013	0.68474245	0.023119807	0.30708894	-0.32640523	-1.0106227	-0.21678486	0.51377755	-0.58876115	-0.14631423	-0.36658895	-0.44408602	0.89023936	-0.14354834	0.3380076	0.9279522	1.0123696	0.3254708	-1.3173487	0.18928723	-0.3485508	0.02837462	0.278057	-0.59743166	0.28064844	-0.3268066	0.13865182	0.065540455	-0.25006363	-0.8275562	-0.5453281	0.5434092	-0.466291	0.36904445	-0.029495616	-0.1874979	1.0723263	0.23350833	0.5011407	-0.07820833	0.20509496	-0.014685936	-0.24629399	-0.68498456	-0.8409611	-0.061308846	-0.6965383	0.7001109	-0.840654	-1.7210444	-0.5775805	-0.24736841	-0.16688077	-0.30899313	-0.2313739	0.31733653	0.16977397	-0.10442555	0.5720136	-0.34980524	0.44949698	-0.6506692	-0.5853126	0.66321653	-0.7879853	0.71038014	1.2724812	-1.6278093	-1.0379734	0.23917855	-0.3168429	-0.20365286	-0.7020487	-0.36219	0.0588715	-0.22562739	-0.074869186	-0.5735422	-0.27281773	0.2477301	-1.1672632	0.9871628	0.010380685	-0.4544389	-0.23511879	-0.9123939	0.53767985	-0.07325131	-0.5212633	0.29337668	1.3841699	0.45292097	0.40136904	0.09281151	-0.19909847	-0.4789926	0.02934439	0.106248125	0.30751705	-0.28562146	0.65710586	-0.20472845	-0.53185105	1.2493039	0.4556532	0.3450601	0.18482317	-0.17680475	-0.8451438	-0.0019312091	0.29729745	0.007255167	-0.01776743	0.72444737	-0.4478606	0.3120637	1.0258713	-0.8124186	-0.63455415	-0.7528566	-0.15773265	-0.6355951	-0.27015704	-0.72956693	-0.36941105	0.40385243	-0.70724905	-0.73242813	0.10422468	1.3126407	-0.0029505733	-0.55577946	0.74229056	1.01249	0.24144118	-0.02651912	-0.35392022	-0.92508316	-0.44403854	0.16181949	0.06586788	-0.15004295	0.23437712	-0.095623374	0.33346736	0.5205719	-0.6008634	0.11251171	0.5115637	-0.84226614	-1.060311	0.2787692	-1.2375858	0.7637943	0.83874583	-0.41601264	0.8620625	0.35087496	0.49195582	1.3146312	0.1111009	-0.5735416	-1.0503095	-0.8733846	0.08410344	-0.31198895	0.06607076	-0.20584776	0.5613744	0.24975275	-0.36307955	0.53711784	0.38301662	0.7385482	-0.66981757	0.50636965	-0.46173716	0.13090529	-0.5855461	0.6454214	0.4607701	0.07654558	-0.7695513	0.32541382	-0.19361475	-0.2314628	0.6277036	1.0163058	-0.61708045	-0.83815664	0.447675	-0.8291962	-0.10793568	-0.54280096	0.010730461	0.13591324	0.8319423	0.927995	-0.77369857	0.06046681	0.90645444	-0.5809568	0.64655423	-0.5106683	1.0362515	0.97939366	0.15835792	-0.12436439	1.0308336	-0.28517795	-0.8728051	0.13657433	0.3255773	0.08114984	-0.4998269	0.6787066	0.22873305	-0.42058155	-0.79287887	0.12466272	0.6711176	-1.1587119	-0.35546985	-0.81604475	0.22995156	1.1343371	0.5516028	-0.88088405	-0.3718176	0.7631969	-1.0522852	-0.38988763	-0.7225414	-0.92181724	-0.46281588	0.42619509	-1.1881201	-0.9270233	-0.39570773	-0.4023804	0.5027602	0.09573046	0.21611227	0.38358986	0.80979514	0.09552042	-0.4379222	-0.69106555	-0.2280581	0.96527815	0.41601184	0.5422249	0.24258865	0.4229236	-0.6293182	0.3141335	-0.013830375	0.26967153	-0.11630356	0.037918404	-0.11765288	0.24319889	0.62432575	-0.39777732	-1.1764928	-0.32152972	0.366329	-0.035771117	-0.15495226	0.1647073	0.58038336	-0.59084237	-0.4698221	-0.034932956	0.7427016	0.094997376	-0.22229129	-0.27867812	-0.54969954	-0.3138279	-0.9078413	-0.23210333	-0.14716312	-0.27093485	-0.17011708	-0.7269951	-0.40383077	-0.12705064	0.4447809	0.4978623	-0.4157507	-0.22468159	-0.21124268	0.44043306	0.58863264	-0.14151996	0.02081	-0.11724217	-0.8127284	-0.56954825	0.30484432	-0.08612777	1.0482986	-0.4392672	-0.5634142	-1.2070534	1.0005858	-0.6743071	0.35007992	-0.16835645	-1.1349993	0.02132222	0.055975437	-0.24859175	-0.7813723	0.57958215	1.2846558	-0.4824353	-0.052565463	0.7145963	0.18489294	-1.1946464	0.022368953	-0.043571733	0.49153858	0.18571818	-0.59465635	0.5101159	-0.8533482	0.64194745	0.4112386	0.7797467	-0.48633352	-1.3109702	-0.45569393	-0.037733406	0.5371921	-0.07985273	0.46264806	0.14830251	0.73953784	-0.06419839	-0.28405574	0.3620502	-0.11913174	0.57046634	0.5807594	-0.84494	0.008408599	-0.71296084	0.18900782	0.15140341	-0.36077896	-0.043180734	0.6178251	0.38652188	0.4223848	-0.98402464	0.047571443	0.86439556	-0.023909055	-0.32752723	-0.25435516	-0.22220276	-0.030455768	0.7070342	0.84316355	0.49663854	0.42324644	-0.6126475	0.20487036	-0.471604	0.03961715	1.3100631	-0.80163383	-0.5629762	-0.22383171	0.56446195	0.24108337	-0.6320448	0.5425904	0.6818535	-0.9371239	-1.1684891	0.90481776	-0.9248478	0.86235034	0.8153109	1.257387	-0.05247259	-0.17953904	-0.043418042	0.065974474	-0.55253565	0.29464814	-0.34963334	0.4405883	-0.78368574	0.66257954	0.77524376	-0.317609	-0.52329373	0.07874273	0.12463783	-0.48309726	0.079465926	0.39882532	0.12644982	0.65268445	-0.57895076	-0.6811279	-0.23922245	0.51409495	0.80809575	-0.06342971	0.07521072	-1.4694357	-0.087969385	0.013163151	0.6807925	-0.68127763	-0.9740294	0.058759004	0.3079635	-0.26301214	-0.64143944	0.43359432	-0.68752456	0.5617855	0.90946996	-0.34560567	0.24947006	-0.357603	-0.3517057	-0.01744257	0.23272623	0.19760638	0.45416474	-0.39701203	-0.07504168	-0.58903694	0.32779512	-1.1239328	0.51205546	-0.32734713	0.45054245	0.0945646	-0.65640503	-0.37460068	0.070085734	-1.1344242	0.2304481	-0.8861044	-0.57041794	-0.1951394	0.16028446	0.89673686	0.5826088	-0.06718476	-1.6243017	0.31698248	0.012463108	-0.48616922	0.5104529	0.32683158	0.044617925	-0.22930065	-0.20541468	0.24887012	0.55584735	-0.2510431	0.8206237	0.14853615	-0.8399906	-0.14544873	-0.798378	-0.48971176	-0.5224736	0.74386865	-0.49477452	0.035461336	-0.23753908	0.4877069	1.1470804	-0.5299996	-0.6849208	0.37866217	-0.7643366	1.0311773	0.32274747	0.6226176	-0.08447917	-0.099096656	0.66030693	-0.13326766	0.041703984	-0.3292068	0.09325577	-1.0328617	0.041470494	0.18590917	-0.27220833	0.37750688	0.26919156	-0.6821144	0.5008087	0.993568	-0.93735886	0.16164242	0.40578172	0.38523042	0.67106104	0.06963316	-0.71495503	0.24446264	0.7655725	0.38479215	-0.54469115	-0.116704136	0.018374965	0.97051907	-0.9531573	0.28779083	-0.4492904	0.024878584	0.07874292	0.13450342	0.49246597	0.019390866	0.760732	0.38714588	-0.23028913	0.52845764	-0.67778224	0.21561344	-0.8463416	-0.167837	0.34195185	0.24038063	0.24083334	0.69276196	0.9638401	0.38072088	0.7449899	0.111826986	-1.2165048	-0.10243891	-0.8602498	0.786302	-0.10338026	-0.029517222	0.39176574	0.50964904	0.5737532	-0.5160061	-0.48122987	0.79886687	0.52004635	-0.52554107	0.24803382	-0.08617242	-0.66136575	0.2412744	0.55729353	0.3457271	-0.536642	-0.07431191	-0.67582357	-1.2550545	-0.6967571	0.30474758	0.33294368	-0.9790639	0.04310798	-0.038024276	-0.86898506	-0.3838203	0.65830064	0.5107511	0.56304765	0.7297522	-0.20236853	-0.6890054	-0.8130974	-0.9584461	-0.42259383	0.5429459	-0.45973817	-1.3077998	-0.9174154	0.03342362	-0.60056263	0.2752074	0.31623507	-1.1857857	0.4265136	-0.14346287	-0.4383877	0.17046599	1.0274972	-0.5548969	-0.15322123	-0.16475537	-0.8317349	0.35299265	0.028333753	-0.7291987	0.7118422	-0.09772166	0.382738	0.013536297	0.41651428	-0.1684694	0.37275764	0.123258576	-0.13383141	0.111085996	-0.7371718	-1.3893855	-0.60081404	0.09775886	-0.88221264	0.67326576	1.0613928	0.21346113	-1.1922494	0.20132379	1.0300282	-0.514498	0.3497673	0.75464857	0.7913631	-1.3705797	0.37573594	0.574745	0.032437146	0.70045084	0.13241947	-0.52727085	0.6384689	0.996245	0.032095976	0.20582749	0.44418472	-0.18639614	0.31098515	-0.52023023	-0.9226398	-0.26053557	-1.0585241	1.5488515	0.2540236	0.15498088	0.19301458	-0.09661566	1.1502713	0.71955854	0.3909118	0.21879694	-0.4780705	0.71559536	0.29837167	-0.27296075	-0.03208382	0.6716734	-0.519287	-0.5581493	-0.9633208	0.6510625	0.04839988	0.05044333	0.2651588	-0.3755754	0.21766344	0.5265268	-0.6128453	-0.31906632	0.22565961	-1.3358939	0.4391754	-0.5939813	0.12380879	-0.22173215	0.1930324
G001442625	0.12126282	-0.88869196	-0.626083	-1.2375635	0.6218461	-0.9183558	-0.0065857833	-0.5912116	-0.07883562	0.19391996	-0.44695586	-0.11973104	0.42589197	0.6904769	1.0486779	0.2717905	-0.9589613	-0.5301985	-0.10577254	0.648208	-0.044135235	-0.6664438	-0.059046343	0.631574	-0.31679577	-0.71578526	0.8300911	-0.36994416	-0.49790707	-0.057163935	0.7645736	0.09010271	-0.1326238	0.27362767	0.1847322	-0.04402826	-0.8188588	0.7841049	-0.68524	-0.61878043	1.1822641	0.5142374	0.60989904	-0.92756855	0.8544644	-0.054536857	0.9059835	0.16482326	0.66154593	-0.6199896	0.16300032	-0.7234829	0.81129193	0.072698414	-0.784221	-0.32397494	0.20893818	-0.6249839	-0.38357714	-0.058536164	0.8669218	0.15082484	0.30838874	0.47126853	-0.17798655	-1.0069485	0.42786735	-0.5721923	0.59892917	0.64570516	0.31306517	-0.44693393	-0.19584031	-1.0579467	-0.41130146	-0.8871069	1.3321869	1.1589627	0.1439515	0.6261178	0.68334305	0.19386405	1.7369957	0.27528152	-1.5240629	0.39761946	-0.6380493	-0.9184506	-0.67109185	-0.6319425	0.120171376	0.20008309	0.86265635	0.01938343	0.16191599	-0.27455497	0.49966717	0.21466395	-0.727634	0.62238014	-1.1150947	-0.26845923	0.34974983	-0.6961334	0.7367148	-0.74831116	0.24286921	-0.21865551	0.42723578	0.079611056	-0.40672678	1.0826979	0.31175148	0.27046975	-0.50205034	-0.5687021	0.31931496	-1.249758	-0.81680036	-1.2645658	-0.4976658	-0.92868876	-0.46608797	0.32954735	-0.6815127	1.1033434	-0.08507474	-0.7570797	-0.12284575	-0.16175365	0.011610717	-0.25852358	-0.9785203	0.545237	-0.1404557	-0.7336173	0.6873957	-0.52373314	-0.2605551	0.62882346	0.82361877	0.74852896	-1.1397595	-0.7129618	0.489089	0.42465004	0.13008402	-0.4196327	-0.83073086	-0.03324306	0.76699406	0.20301613	-0.32830277	-0.0308946	0.09705897	-1.0702287	-0.12062627	0.13362145	-1.1536584	-0.12116735	0.33081633	0.34485382	0.96746624	0.39831388	0.43667585	0.6740303	-0.79702955	-0.7817681	0.6757511	0.050364356	-0.44656268	-0.28537428	-0.08152321	0.10636629	-0.063181184	0.07985256	-0.07750344	-0.00709334	-0.17036882	1.4911109	0.52754277	-0.5283498	0.31397676	0.081650294	0.61499447	1.2437968	0.17122418	0.022994235	0.32351005	-0.2945901	0.018784255	-0.02197913	-0.13990434	-0.674583	-0.5405349	-0.094714925	0.20880263	-0.61142856	-1.1944355	-0.17929745	1.5560703	0.7966283	1.19063	0.6514822	0.52418154	0.75651425	0.4967012	-1.0729053	0.24916327	0.17451173	-0.4844787	-0.27101105	0.5093533	0.45023373	-0.3603149	-0.2211619	-0.21374299	0.33290246	-0.8716294	0.34250826	-0.8424728	-0.81374836	0.36325255	0.7200655	-0.6796564	-1.2566663	0.20946142	-0.1790452	-0.052884445	-0.7144422	0.51850975	0.3107798	0.775308	0.08277053	-0.29545254	0.22974013	0.5314489	-0.0018296968	-0.1913549	0.22719833	0.47895533	-0.44321454	-0.39589664	0.4835887	0.59295887	0.060681492	-1.4283378	0.5659273	0.30512074	-0.34592474	0.42738086	0.49115464	0.14507648	-0.35809976	0.77860564	-0.34743023	-0.6151191	0.31108117	0.46503025	-0.44420412	-0.409437	-0.5157888	0.47378552	-0.43260553	-0.07615779	-0.07828763	-0.3230271	-0.681098	-0.7903554	-1.0111977	0.6199314	0.24255012	-0.34004492	-0.23664653	-0.52469534	1.4195849	0.59506446	0.4196057	-1.3813329	-1.5179906	-0.17693093	-0.079510525	-0.06691911	-1.3658267	0.4714761	-1.4314919	0.056394488	0.35075372	0.4243913	0.8206954	-0.11246795	-0.8377515	0.66866004	0.59907824	0.63791096	0.34930056	-0.30133507	-0.5340684	0.6805718	-0.10565281	-0.13971975	0.10223141	-0.26850277	0.53501767	1.2986498	0.45472544	0.04648322	1.1517864	1.5196084	-0.07449505	-1.2294555	0.19617446	0.112500146	0.17981714	0.09680937	0.8114898	-0.5084784	-0.41865727	0.6007782	0.27386647	0.07073645	-0.14318132	-0.17468043	-0.41349158	0.19449782	-0.54797256	-0.29914024	-0.24208114	0.19213003	0.18508217	-0.19534267	-0.09758374	-0.6440783	0.021627992	0.016684014	-0.11467166	-0.8555907	-0.8755911	-0.32809734	0.1765747	0.64857024	0.51902765	0.015735192	0.34284684	-0.7494559	-1.1130188	-0.59916985	0.6443864	-0.7575781	0.15323007	-0.682434	-0.90394974	1.1085985	0.43506345	0.5346489	0.8590531	1.7656924	-0.17684895	-0.8323084	0.2871867	0.4111846	0.14889267	0.04690136	0.13216282	0.21599206	0.36451414	0.07737625	0.2790832	-0.39132005	-0.5856356	-0.7984289	0.03434912	0.01615642	-0.06704339	-0.031466193	-0.29628944	0.938283	0.009702718	0.1580261	-0.47160178	0.4229399	0.56086135	-0.12873739	-0.3596454	-0.1773724	0.5226697	-0.2550262	0.18493824	-1.0950642	-1.2909715	-0.8377053	-0.5325836	0.14899577	-0.3261264	-0.6008806	0.6289234	0.29581216	-0.096651435	0.73806566	0.07898373	0.49171013	-0.9016473	-0.62070906	0.69147366	-0.545106	0.46694237	1.1613165	-1.7442755	-0.8746775	0.28755036	-0.33239755	-0.4623735	-0.3461241	-0.059358448	0.07650122	-0.1685131	0.40028477	-1.0467118	-0.0359852	-0.07284582	-0.67171943	0.45323545	0.24126716	-0.59104866	-0.46677184	-0.6708298	0.18218255	0.17477179	-0.65929955	-0.2055981	1.2912546	0.6401782	0.8054607	-0.24642336	-0.007895291	0.07098771	0.036565594	0.27950624	-0.15229943	0.44202295	0.5332671	-0.15665095	-0.5422961	1.3007609	0.5607306	0.6440402	0.056888483	0.40834728	-0.6893209	-0.097341955	0.34651184	-0.064150065	-0.3850055	1.090252	-0.6079574	0.08613692	0.44396886	-0.43626994	-0.5757281	-0.78648084	-0.3518347	-0.50496686	-0.5940276	-0.27598906	-0.24646065	-0.075839445	-0.50655264	-0.7246429	0.24403402	1.2508315	0.021275498	-0.89262605	0.43004775	0.42958122	0.5537561	0.044295557	-0.048292764	-1.1237034	-0.91750205	0.47503048	0.38313246	0.075039394	0.22802797	-0.53936994	-0.021515243	0.6760118	-0.7399539	0.4129222	0.51393557	-0.90449506	-0.7227251	0.53629065	-0.84578395	0.8370365	1.0153974	-0.43542603	1.0278625	0.6834081	1.4938565	1.3722136	0.16039433	-0.9522939	-1.6513495	-0.7497773	0.11547174	-0.30052584	0.52736884	0.27736515	0.48431623	-0.40132487	-0.40492222	0.5098361	0.8867534	0.334303	-0.5010504	-0.0024369657	-0.3335876	0.06394993	-0.4774592	0.5901336	0.61929655	0.34627685	-0.5737047	0.35219994	-0.24048379	-0.64626676	0.9555894	0.5260693	-1.0149219	-0.45300102	0.1834265	-0.59864676	0.04692149	-0.0008814931	0.34533134	-0.50263107	1.2445438	1.05905	-0.67227185	0.3282761	0.7356008	-0.4422944	0.58395094	-0.6082667	0.72361696	0.93648267	-0.27088737	0.10244655	1.0228674	-0.666651	-0.8259681	0.15877122	0.862795	0.08223516	-0.120890796	0.17462285	0.2528532	-0.23279116	-0.22579817	0.24851635	1.0382347	-1.8624171	-0.2517779	-0.7560464	-0.10258212	1.0522232	0.8832226	-0.8115466	-0.70360273	0.3198062	-0.7416205	-0.022857986	-0.8714039	-0.9640074	-0.48792902	0.53980607	-1.6784408	-1.0057094	-0.365081	-0.17610207	0.3308475	-0.10725966	0.09364003	0.8951099	0.5150674	-0.28069603	-0.7749818	-0.06979132	-0.4357993	0.52398837	-0.03817657	0.67676866	0.014725946	1.1860025	-0.8589173	-0.41697186	0.1798966	0.4570678	-0.055958763	-0.005433224	0.22576937	0.33212247	0.8238882	-0.5352191	-1.0059117	-0.33749598	0.26294783	0.22885996	-0.58727646	0.05480928	0.50173837	-0.41657442	-0.10858523	0.11815801	1.1222787	0.04337679	-0.40547103	-0.15933724	-0.50512785	-0.21219836	-0.9124366	-0.102464706	-0.2763241	-0.43627918	-0.2908977	-0.5238669	-0.21047312	-0.7343808	0.120337225	0.5771572	0.17699015	-0.42216566	-0.8064252	0.48707098	0.35367778	-0.027517118	-0.31532103	-0.24849102	-0.6715032	-0.016127795	0.17455307	-0.41565007	1.6789857	-0.14119823	0.19782194	-1.5288949	1.4476583	-0.8383072	-0.11466434	-0.82911026	-0.7207142	-0.15237416	-0.26483262	0.017469943	-0.7410672	0.5457065	0.8402572	-0.51470315	-0.20698698	0.9841938	0.08357304	-0.97878623	0.39308518	0.30941284	0.6387687	0.1372251	-0.3846944	0.81678474	-0.56621736	0.7203209	0.039024245	0.4993174	-0.6458966	-0.8231478	-0.8229024	0.18923694	0.48375553	0.44658065	0.66975707	0.18825832	0.5794102	0.011989355	-0.33134222	0.4911647	-0.005774431	0.59448206	0.9477005	-0.5383534	-0.0349468	-0.62754446	0.4991407	0.31724635	-0.29728037	0.118474215	0.22609717	0.23588374	0.39419836	-1.2642398	0.2505574	0.63650155	0.14561619	-0.6365207	-0.109796405	-0.42111564	-0.25701734	0.9124663	1.029157	0.9743835	-0.18129578	-0.51884955	0.35391077	-0.51454794	-0.11054667	1.3569323	-1.0597323	-0.4831127	-0.012651365	0.80866283	0.23673646	-0.6990611	0.41899475	0.45581597	-0.9614036	-1.3691442	0.864573	-0.8711819	0.6060402	0.7125311	0.79062563	-0.08721833	-0.16097009	-0.04580076	-0.121381454	-0.64170575	0.831817	-0.302877	0.49208748	-0.5495416	0.583358	0.78038687	-0.5513908	-0.86732537	-0.41148195	0.43022454	-0.1934833	-0.092718445	0.57963985	0.05729249	0.75427586	-0.57699	-0.6847273	-0.3209067	0.7821428	0.9691258	-0.3407299	-0.23498774	-1.2011875	0.280709	-0.07852952	0.85645115	-0.6002268	-0.92415905	0.02367869	0.19498181	-0.5595809	-0.49443266	0.8071086	-0.27376997	0.39368966	0.69087404	-0.43060076	0.20435373	-0.16076317	-0.4187277	-0.04581166	0.19763497	-0.30843326	0.30404615	-0.20900771	-0.17963535	-0.55601674	0.22342725	-1.2473512	0.6367896	-0.18536499	0.054642096	0.3720094	-0.5339602	-0.37236452	0.03174886	-0.86768353	0.028821796	-0.5317645	-0.72979313	-0.7342291	-0.20859508	1.0300868	0.23903053	-0.048807073	-1.3173145	-0.013070807	0.31152278	-0.41694176	0.63528633	0.27668053	-0.20886473	-0.2193782	-0.29153773	0.32941303	0.6191994	-0.0877764	0.69704175	0.5390088	-0.7042515	0.25616902	-0.9426434	-0.6681468	-0.62097275	0.7026136	-0.2581035	-0.06082374	0.14010751	0.52274585	1.3545947	-0.64127064	-0.69211817	0.12674889	-0.7291429	0.8528159	0.3235323	0.6765771	-0.2517559	0.10977469	0.9724234	-0.043192953	0.36106136	-0.09513541	0.42453474	-0.74225885	-0.45712778	0.3889436	-0.40725058	0.59730047	0.038352393	-0.040371135	0.39416766	0.5333814	-1.2476983	0.39276007	-0.014240086	-4.4289976e-05	0.85163724	0.38484505	-0.73718274	0.472744	1.2052732	0.75296575	-0.6841856	0.47669476	0.18776993	0.37142396	-0.7684781	0.13270698	-0.13660142	0.17626128	-0.26360282	0.5063498	0.13752577	0.09706935	0.67372835	0.5802487	-0.47167367	0.46192443	-0.8406885	-0.19736803	-0.7269598	0.105150625	0.15258925	0.34883136	0.8917285	0.44838434	1.1467894	0.5774603	0.16741905	0.35805562	-1.1193621	-0.63480633	-0.8810853	0.6509975	-0.30416983	0.051081553	0.33543098	0.28771892	0.5393858	-0.8039375	-0.26119834	0.6736032	0.33939368	-0.3487189	0.62191725	0.36214095	-0.56400084	-0.14369914	0.56746227	0.1187721	-0.5912654	-0.2872379	-0.9574718	-0.76290655	-0.2616	0.32646856	-0.19264859	-0.7737256	-0.60339576	-0.0540484	-0.77832854	-0.021921128	0.39314556	0.027484894	0.7878938	0.9231163	-0.06691484	-1.0725918	-1.1664844	-1.2806903	-0.22454202	0.35208595	-0.43881732	-1.1397016	-0.7810472	0.28018954	-0.8726276	0.2795326	0.48526376	-1.3940727	0.79465485	0.35150397	-0.7812	0.7375636	0.7178988	-0.92282295	0.21898863	-0.47217858	-0.36549026	0.36050707	0.3915645	-0.66036767	0.5614936	0.431314	0.49548453	-0.47789285	1.0603878	-0.20432824	0.58962107	0.20254666	-0.29948488	0.24127273	-0.72516924	-1.4563973	-0.73100895	0.025734335	-0.5721145	0.48570412	0.5946234	0.3509062	-1.2363243	0.85379016	0.59612554	-0.67447376	0.3382252	0.91231465	0.5850695	-1.3244779	-0.028985053	0.21086046	-0.1829987	0.49885488	-0.040476255	-0.5820451	0.1321801	1.1501929	0.094390616	0.22181216	0.5499325	-0.75115716	-0.032078482	-0.7491911	-0.44379506	-0.4310701	-1.0257586	1.6172713	0.5874855	0.07389251	0.06430271	-0.018807545	0.71142656	0.43998766	0.5077169	-0.24732888	-0.50249696	0.76466376	0.63498235	-0.7273753	0.31128997	0.54277545	-0.14101624	-0.82367057	-1.2634705	0.880497	0.52268267	-0.11911304	0.432954	0.10957279	0.6461672	0.33979946	-1.0408298	0.18816243	-0.37427902	-1.2092142	0.5144494	-0.8318774	-0.15724202	0.0034262836	0.17926398
G000708265	0.44234607	-0.9769624	-0.6177429	-1.1452209	0.43726665	-0.87060404	-0.008038304	-0.74158525	-0.19078654	0.05752811	-0.4344951	0.001482822	0.31687254	0.7312024	0.96630985	0.43200743	-1.1977916	-0.5799836	-0.03881322	0.6794334	0.041516095	-0.77550656	0.18613969	0.7546283	-0.40734804	-0.68318117	1.107836	-0.54325664	-0.45299184	-0.029890541	0.8415852	0.22410995	0.006255772	0.12906879	0.1579005	-0.042976677	-0.7216568	0.7068155	-0.5749538	-0.64811754	1.3233802	0.3747463	0.6693456	-0.84035265	0.9412258	-0.11770691	0.8250241	0.042303175	0.85039306	-0.65935653	-0.01955431	-0.70062137	0.757879	-0.00040025264	-0.66712034	-0.27598113	0.14006472	-0.59466887	-0.18139601	-0.27474892	1.0596106	-0.15232857	0.43825638	0.45087293	-0.112854555	-1.1411602	0.4079459	-0.36219963	0.4122107	0.7563848	0.13899195	-0.356821	0.09009014	-1.035882	-0.55481565	-0.69854766	1.2896408	1.1434647	0.1756456	0.4609077	0.7342005	0.009264596	1.6894671	0.16876025	-1.6362622	0.5062537	-0.5764798	-0.8461908	-0.6712639	-0.48743072	0.21373904	0.24422273	1.0009792	0.072021395	0.15336397	0.024095774	0.44396207	0.34038296	-0.6937709	0.53668916	-1.0757586	-0.23054041	0.46803805	-0.5995775	0.57271194	-0.7375876	0.21514393	-0.27451816	0.45892584	0.0960388	-0.50321805	0.86270386	0.5008755	0.24155806	-0.33413145	-0.4779732	0.31790534	-1.1865333	-0.77702886	-1.2197098	-0.2931548	-0.9897115	-0.43853298	0.39245465	-0.41072038	1.1169758	0.06166942	-0.68188167	-0.07262344	-0.048899762	0.012049135	-0.21820863	-1.0921668	0.41186166	-0.3588216	-0.637428	0.6052078	-0.5128032	-0.17656055	0.8451521	0.8307166	0.66859317	-1.2197428	-0.8234023	0.3603684	0.41350952	0.22040233	-0.46613717	-0.7960125	0.06393285	0.68230087	0.3679197	-0.43838942	0.09741408	-0.0035081655	-0.94678235	0.05870513	-0.021975003	-1.1692528	-0.06381703	0.26967317	0.36778566	0.80485946	0.20271383	0.40004718	0.7267783	-0.59643793	-0.64103454	0.73842067	-0.13873152	-0.3126942	-0.39253524	-0.10721327	0.21015316	-0.07367022	-0.10166628	-0.10145759	0.07098518	-0.12311689	1.3256571	0.68428946	-0.55615366	0.30006126	0.04884889	0.62297946	1.1472201	0.19202732	-0.19672829	0.2659555	0.054813292	-0.022231951	0.2795799	0.023315322	-0.62877643	-0.5721599	-0.14234334	-0.039101046	-0.7263443	-1.3272784	-0.10655108	1.5293055	0.9277925	1.1924777	0.7784628	0.4863223	0.7526694	0.6888727	-1.1966907	-0.014744528	0.08744322	-0.46828133	-0.1837045	0.4489724	0.534054	-0.2983811	-0.18351525	-0.3029546	0.37740502	-0.83996516	0.19046989	-0.84449345	-0.6606794	0.42412978	0.7880031	-0.5590508	-1.2562273	0.15185472	-0.20900384	0.12035728	-0.49957287	0.38731137	0.24060798	0.7136241	0.18636775	-0.39113152	0.29619226	0.5839046	-0.10345182	-0.41531476	0.31134912	0.275101	-0.5518615	-0.26671916	0.55006135	0.4901719	0.11515485	-1.5303771	0.49540594	0.35348767	-0.43185556	0.34685946	0.6828735	0.27019325	-0.53601956	0.63249695	-0.5052893	-0.55097234	0.5013905	0.3406539	-0.41692573	-0.4790891	-0.5431056	0.5177129	-0.28451875	-0.4324995	0.022943601	-0.24729411	-0.48338756	-0.8398949	-1.0420153	0.62135905	0.18407664	-0.47153965	0.07013321	-0.4020407	1.2248906	0.68679434	0.55048054	-1.2811152	-1.5307087	-0.19630075	0.09106301	-0.138734	-1.3252963	0.5339248	-1.410697	-0.08481866	0.22214295	0.25734887	0.8592316	-0.050385118	-0.67111915	0.81058335	0.5682935	0.504283	0.5951834	-0.48221332	-0.65095663	0.70313805	-0.22603351	-0.05121991	0.24678257	-0.12758997	0.24237366	1.0928862	0.5023715	-0.10311404	1.2061453	1.3031669	-0.0360896	-1.1211275	0.105384454	0.10295613	0.33890465	0.3149698	0.7671576	-0.5725437	-0.3256237	0.6939211	0.28174585	0.099648334	0.00623551	-0.08367579	-0.36882824	0.15651053	-0.5938144	-0.34426838	-0.37185985	0.16291276	0.10679919	-0.20873769	0.08501379	-0.36267152	-0.07297161	-0.14820947	-0.3621561	-0.7407281	-0.9632643	-0.30645823	0.10029055	0.5230075	0.6938873	-0.07120963	0.16028526	-0.5547025	-1.1474278	-0.6637173	0.4674834	-0.80124676	0.19610858	-0.77667975	-1.0510371	1.3618371	0.18070841	0.32954687	0.7547604	1.8391745	-0.1764996	-0.95564216	0.22699209	0.2621967	-0.042887036	-0.03980057	-0.10685236	0.4154337	0.37813073	0.14966267	0.33854076	-0.5022117	-0.547832	-0.9567213	0.14343894	-0.025616258	-0.06938815	0.0011512786	0.008765645	0.8471769	0.055604637	0.08513316	-0.33272716	0.26299548	0.5296074	-0.061524548	-0.24587555	-0.23850703	0.4524755	-0.31990623	0.13232832	-1.3009883	-1.3096019	-0.9653182	-0.6084908	0.0658043	-0.19555523	-0.55881166	0.42774895	0.30088377	0.008687347	0.5639219	-0.053401418	0.60718656	-1.0762615	-0.6071217	0.59669125	-0.5798471	0.57059187	1.1626351	-1.6660068	-0.74549776	0.12448416	-0.53165936	-0.30695957	-0.30759263	0.2587442	0.036355257	-0.02596812	0.3635933	-1.1532333	-0.1838245	0.02023217	-0.7584296	0.57899517	0.2712868	-0.4783925	-0.48635083	-0.68798244	0.10855587	0.00990355	-0.732743	-0.051439874	1.3014941	0.61723024	0.9072536	-0.17026582	0.054761946	0.087798454	-0.13663301	0.009230907	-0.14736402	0.29589495	0.48097676	-0.25825715	-0.35836667	1.2616187	0.57146996	0.703907	0.1092342	0.445136	-0.6577177	0.011781834	0.3138316	-0.026319116	-0.23727523	1.1538862	-0.46651632	0.23208213	0.702669	-0.5116001	-0.37074232	-0.8030989	-0.28023297	-0.441666	-0.48654917	-0.3833521	-0.25027394	0.05079381	-0.49906614	-0.8388948	0.5833897	1.1228799	-0.039620303	-0.57691056	0.55940485	0.3673554	0.44645232	-0.1815381	-0.07143757	-0.9879755	-0.6628315	0.49773917	0.28917643	0.1201433	0.16359672	-0.6036887	-0.027873555	0.63074297	-0.57095635	0.31111333	0.6212342	-0.76181346	-0.8320756	0.59806323	-1.0806736	0.60145134	0.948628	-0.5767627	0.9917589	0.5429233	1.3950174	1.5405995	0.24915333	-0.9347725	-1.5891004	-0.75202686	0.01808203	-0.095255636	0.42621872	0.26392716	0.45102486	-0.22509302	-0.5054017	0.50490445	0.6557409	0.38665277	-0.41849202	0.038157463	-0.43826818	0.11476725	-0.3624416	0.7217423	0.41631314	0.5650714	-0.6120826	0.23204982	-0.4081458	-0.7551523	1.1629188	0.6604055	-1.022648	-0.5395541	0.5732309	-0.47313237	-0.011044145	-0.24580204	0.13010065	-0.519117	1.2544391	0.8309311	-0.8842537	0.28076416	0.7897621	-0.442267	0.4485848	-0.632208	0.5364861	0.87815475	-0.2955615	0.23394862	1.1044289	-0.57665265	-0.71794945	0.14901799	0.9303696	0.0144607425	-0.2802626	0.21622375	0.15823792	-0.22603206	-0.2046944	0.14251849	1.2770318	-1.982516	-0.35294354	-0.50061953	-0.38610363	1.0475924	0.7853384	-0.94362843	-0.4143552	0.41820267	-0.84987736	-0.14022505	-0.68317825	-1.0630524	-0.47904557	0.51296675	-1.5593618	-1.152475	-0.390437	-0.14481963	0.6725382	-0.3318423	-0.053416997	0.9949314	0.4846779	-0.2630437	-0.8897041	-0.05289282	-0.42138243	0.49547592	0.0471145	0.7539775	0.11866425	1.1411116	-0.93262815	-0.37791303	0.11161362	0.2748763	-0.03607274	0.09100099	0.14046988	0.15456448	0.93128467	-0.51613355	-0.68639326	-0.26377407	0.314496	0.058879163	-0.66750455	-0.041515604	0.61166567	-0.4036172	-0.24649036	-0.03365141	0.9336786	0.22216171	-0.39852172	-0.07858086	-0.54144466	-0.15142247	-1.0990692	-0.12770642	-0.1946744	-0.5003331	-0.24715334	-0.56832236	-0.27977604	-0.5817036	-0.05632578	0.58933157	0.032649077	-0.26539212	-0.88741434	0.41530085	0.55890816	0.017945452	-0.40939415	-0.23168632	-0.7274341	-0.0059779882	0.20664436	-0.31678438	1.663971	-0.18257391	0.027242877	-1.4693536	1.5097373	-0.76387703	-0.03132175	-0.7015179	-0.53719735	-0.061831266	-0.38056073	0.05008936	-0.713371	0.64213485	1.09599	-0.38339862	-0.15958972	0.6934882	0.033355318	-0.8789896	0.3128602	0.28073412	0.41261917	0.12052138	-0.4639541	0.45633033	-0.37979084	0.68290627	-0.11714329	0.7534831	-0.50253737	-0.83422464	-0.66470027	0.05167693	0.47678477	0.5280448	0.6511392	0.1672754	0.693032	0.18631938	-0.4860349	0.32421184	-0.063236296	0.85616744	1.1039708	-0.60544187	-0.14118227	-0.4289936	0.25849977	0.4071501	-0.0097381845	0.2138167	0.18735161	0.2542174	0.41660243	-1.4727641	0.210236	0.81551015	0.2871002	-0.8090187	-0.042965204	-0.37774915	-0.08333264	0.99070084	0.93524384	1.0301044	-0.10518731	-0.54113734	0.53402466	-0.44360203	-0.09400314	1.2359279	-1.0993861	-0.45530522	-0.021267673	0.90416723	0.36703473	-0.9433172	0.34193277	0.51258326	-1.0234702	-1.1286654	1.0425084	-0.8912144	0.76857024	0.54551506	0.7352296	0.019667521	-0.08098132	-0.016162604	-0.15738082	-0.5571883	0.8764311	-0.21458447	0.29354933	-0.5202334	0.6322424	0.98146176	-0.45524293	-0.9861542	-0.18505935	0.33327082	-0.21293628	-0.15077356	0.54410326	-0.08118111	0.51914364	-0.63371277	-0.73854405	-0.123788014	0.67958224	1.214165	-0.33400118	-0.23494041	-1.2506661	0.22181314	0.3032389	0.7631105	-0.6090369	-0.93106484	-0.21629122	0.016215757	-0.73465073	-0.6480348	0.79785854	-0.27985525	0.53136766	0.7127976	-0.2466109	0.34953123	-0.11995013	-0.5972827	0.15444459	0.19963017	-0.34475082	0.115178585	-0.06057941	-0.1500422	-0.63428396	0.1345355	-1.4152384	0.62365603	-0.27493688	0.10301326	0.47732607	-0.5274561	-0.5427772	0.30842578	-0.97084326	0.034154832	-0.31635204	-0.5642154	-0.7486869	-0.29415923	1.0027272	0.13977286	-0.15824166	-1.1801382	0.019300275	0.27129722	-0.27555355	0.74744713	0.28866482	-0.11282171	-0.3234229	-0.13686262	0.29397008	0.68504375	-0.17256859	0.7368337	0.5212443	-0.72093827	0.30747092	-0.9948068	-0.70219785	-0.7046732	0.74404496	-0.20472023	-0.060256034	0.07585223	0.7138587	1.22369	-0.5843591	-0.83080995	-0.00073091686	-0.890468	0.66894704	0.4152228	0.6552393	-0.19061139	0.040117405	0.852708	-0.17852604	0.27267265	-0.11925524	0.34762773	-0.85460246	-0.20769405	0.37712544	-0.52878565	0.593801	-0.002405133	-0.13225752	0.43026125	0.65199006	-0.95712745	0.551686	-0.04980716	-0.07544461	0.7834045	0.49997765	-0.65289444	0.44210446	1.1736209	0.74020815	-0.8311692	0.29775715	0.27679512	0.5775982	-0.71740836	0.209926	-0.15748042	0.08481401	-0.110761985	0.5306046	0.12655637	0.007292092	0.7614029	0.50856155	-0.3922544	0.48705235	-0.43127164	-0.15829752	-0.728482	-0.0928075	0.1853017	0.31017435	0.6154509	0.45154598	1.1322737	0.4146775	0.014093775	0.35925603	-1.0319021	-0.6665583	-0.8428577	0.92995346	-0.19983476	0.17049043	0.29450643	0.45128453	0.60070467	-0.59777385	-0.2669341	0.48516434	0.26328176	-0.27299973	0.4864145	0.6113088	-0.7561173	-0.23611093	0.6365092	0.042443536	-0.58307666	-0.30965948	-1.0978804	-0.57032907	-0.38335943	0.24570873	0.041879535	-0.90158236	-0.36484924	0.003101822	-0.6499517	0.07061696	0.5509664	-0.073134795	0.693987	0.7015773	0.05316861	-0.7438364	-1.0961553	-1.1672106	-0.06574102	0.2272163	-0.41562676	-1.102786	-1.0051223	0.28698325	-0.7332763	0.24098894	0.34718	-1.3137013	0.734799	0.25967988	-0.8484937	0.8009507	0.523771	-0.75263417	0.19160876	-0.40625983	-0.5047951	0.20702486	0.6011463	-0.8935028	0.77102715	0.33431107	0.61470234	-0.15289617	0.83672523	-0.21652865	0.42398223	0.0740745	-0.23809843	0.06730421	-0.59407395	-1.5299429	-0.85516983	-0.08533315	-0.527193	0.79861057	0.6454097	0.37448066	-1.1343882	0.6980874	0.7542028	-0.6642771	0.2829732	0.8541647	0.73735064	-1.276457	0.22688906	0.4138455	-0.04441616	0.5872579	-0.26631743	-0.35212278	0.24767405	0.95842195	0.050010968	0.19312151	0.24226531	-0.68110573	0.2377873	-0.88610804	-0.33986324	-0.4346642	-1.0586511	1.5978445	0.55450547	0.04697381	-0.013671786	0.1602777	0.65704715	0.2632317	0.5123663	-0.278235	-0.63555276	0.58202493	0.8480445	-0.50303346	0.4714174	0.49284205	-0.17142977	-0.78837305	-1.1210878	0.6003341	0.2598494	-0.23977152	0.4934578	0.16803588	0.58670056	0.2991296	-1.048632	0.054174036	-0.16834313	-1.2154396	0.4550646	-0.8115007	-0.19705102	-0.012314901	0.15589298
G000302595	0.02617979	-0.4576165	-0.087063804	-1.1126415	0.5216579	-0.5192712	-0.32202703	-0.25652996	-0.08510554	0.2751064	-0.23537673	-0.23613726	0.34168085	0.5017922	0.9500934	0.65296555	-0.71254647	-0.35420778	0.12120645	0.7427821	-0.25337476	-0.6011822	0.2429092	0.31375396	-0.69588065	-0.50703496	0.7520193	-0.35880518	-0.70736194	-0.3441689	0.73814654	0.08663936	0.06315836	0.11779906	0.31963825	0.22379784	-0.96658456	0.81115633	-0.7001246	-0.6396471	1.4205672	0.66280675	0.54858434	-1.0271142	0.7817789	-0.17416492	0.7950014	0.12479415	0.6348065	-0.84198856	0.05599469	-0.43099254	0.96672773	0.24955313	-0.86920404	-0.21255884	0.12681425	-0.90972286	-0.5491816	0.07087739	0.56505525	-0.4383297	0.18871021	0.12523012	0.035190776	-1.2918262	0.25517377	-0.4489777	0.23155698	0.6762942	0.17161615	-0.27322072	-0.07604246	-1.0306756	-0.40490228	-0.6718375	1.0628377	1.0407509	0.14361072	0.57670224	0.66798925	-0.03577833	1.3684162	0.24983329	-1.2491336	0.28190768	-0.4917101	-0.9870855	-0.05404041	-0.3104462	0.173285	0.49058127	0.8243495	-0.3004497	-0.01510489	-0.060393307	0.3615545	0.14650911	-0.63441116	0.38515627	-1.3124442	0.23336154	0.5896903	-0.42800662	0.51598626	-0.790114	0.15358536	-0.33267453	0.58076596	-0.39394805	0.113808095	1.0328555	0.25173002	0.18270156	-0.12638932	0.02190791	-0.11710691	-1.3291143	-0.62574214	-0.9800257	-0.7778145	-0.59656894	-0.40630546	0.2828208	-0.7037847	1.0790782	-0.1690739	-1.0223767	0.25291532	0.1257642	0.1889281	-0.35426012	-1.1043286	0.18332863	0.18283452	-0.75613403	0.19810367	-0.27371174	-0.50802016	0.46408352	1.0454005	1.1421244	-1.2169814	-0.653961	0.24952753	0.37393236	0.2488219	-0.5135733	-0.5864153	-0.26825902	0.9099051	0.5859383	-0.47522205	-0.08841459	0.17102814	-0.8217316	0.031287428	0.08889335	-1.049786	0.17507702	0.53816223	0.38038963	0.86527693	0.19293623	0.41578496	0.6525523	-0.9295155	-0.6272042	0.3663859	-0.079967365	-0.4014508	-0.20998721	-0.08372481	0.38486797	-0.5802463	-0.01666595	0.05511001	0.3943034	-0.10202165	1.4940996	0.357529	-0.37297484	0.83321315	-0.08846772	0.59571975	1.5779028	0.08912522	-0.16597965	0.5196753	-0.014639119	0.41830164	0.3557584	0.062277935	-0.24326909	-1.0405415	-0.21307091	0.35635924	-0.3414832	-1.1572227	0.24642222	1.3046206	0.5260247	1.0105301	0.5016333	0.5420654	0.55393493	0.5444098	-0.8763616	-0.083420575	0.40337598	-0.44809598	-0.22418445	0.6369058	0.4283812	-0.4789253	-0.45140386	0.008500107	0.3102052	-1.2046386	-0.089836605	-0.86168885	-0.35974094	0.3970996	0.6822751	-0.8576127	-0.8525432	0.29640287	-0.4792358	0.33533788	-0.54837966	0.40753856	0.6555022	1.1196325	0.042530626	-0.3691652	0.44075966	0.7074257	-0.14314881	-0.23242027	0.09183571	0.3373273	-0.31648386	-0.94149214	0.5190805	0.6026156	0.20659554	-1.3683873	0.5871777	-0.029408045	0.22955896	0.19874597	0.26361004	-0.018974394	-0.6925163	0.60530484	-0.36316407	-0.55576825	0.18189956	0.3671416	-0.18851404	-0.52050334	-0.18012956	0.6691425	0.0853489	-0.43699226	-0.81146115	-0.39467368	-0.602524	-0.8530076	-0.874715	0.43981987	-0.011424296	-0.5349223	0.05713728	-0.6490416	1.2344807	0.5240298	0.6392634	-1.1391943	-1.3978035	-0.057928644	-0.029812485	0.0024246871	-1.0820737	0.16597895	-1.3883408	0.17762594	0.23578382	0.69810784	0.20640647	-0.16909814	-0.6350189	0.8366015	0.7507298	0.7615336	0.20524636	-0.2708658	-0.14623484	0.85210127	-0.25796005	-0.23599273	0.004093349	-0.42907342	0.99263376	0.88737744	1.0254618	-0.19643891	1.2130263	1.2487466	-0.0628877	-1.3681325	-0.21596049	0.08094818	0.016538523	0.15171736	0.36438093	-0.06431654	-0.7329846	0.20910257	0.102887556	-0.08217161	-0.5177529	-0.29587632	-0.5847644	0.27773207	-0.8710599	-0.29250836	-0.38227075	-0.14986777	0.2262955	-0.14368801	0.25151244	-0.32809907	0.55254424	-0.4117756	-0.037892133	-0.1777657	-1.1219841	-0.47825807	0.46338266	0.50377655	0.47952333	0.14522347	0.09356288	-0.28915474	-1.0215586	-0.66469055	0.6266558	-0.5801976	0.18573676	-0.89486396	-0.79915655	0.9503288	0.0028490778	0.8532563	0.5458208	1.4706855	-0.41277862	-1.0194461	0.008048281	0.07996532	-0.22841746	0.07468031	0.17702271	-0.2622183	0.15287189	0.18101542	0.24136612	-0.3297229	-0.74146473	-0.6507337	0.18835029	-0.053858146	0.15130544	0.019814685	-0.4008666	1.1505344	0.11800578	0.25216478	-0.013082266	-0.26030406	0.38861406	-0.034676656	-0.86172616	-0.6158387	0.25718984	-0.4273539	0.56169826	-1.1733774	-1.2278101	-0.5357515	-0.6714851	-0.12736772	-0.51657695	-0.08730894	0.24500363	-0.1674946	0.028445736	0.6389302	-0.4234549	0.86416614	-0.5041493	-0.655014	0.5570322	-0.25859332	0.32449907	1.4580158	-1.7011905	-0.8171684	0.11662476	-0.41973177	-0.72141755	-0.15936607	-0.3612408	-0.3027455	-0.28261825	0.22423145	-0.72878635	-0.46411216	-0.3669326	-0.5229347	0.53407794	0.10406919	-0.4596302	-0.57857287	-0.29302496	0.40875998	-0.10827023	-0.74035776	-0.060703825	1.3304517	1.037767	0.73465925	0.047150016	0.41729963	-0.2088337	0.049713973	0.055781357	0.07465592	0.23638465	0.8030273	-0.7046427	-0.52320564	1.3599164	0.5843381	0.6780492	0.07004591	-0.23921642	-0.68126404	-0.41997358	0.18545374	-0.30288154	-0.11042534	0.9350144	-0.13406421	-0.05600202	0.94926274	-0.17212394	-0.8998529	-0.6577755	-0.15410389	-0.62450856	-0.6420792	-0.84234464	-0.2840179	0.16991591	-0.48985177	-0.7707084	-0.15756392	1.0461518	0.22793761	-0.508933	0.32510662	0.5763996	0.83177996	0.2671069	-0.12502694	-0.92393893	-0.37577194	0.1947307	0.5149677	0.19771153	0.27945003	-0.6376324	0.22172211	0.69776577	-0.6842806	0.04078862	0.8400556	-0.7142924	-0.9654581	0.2632509	-0.89497155	0.47903723	0.9812669	-0.28626245	0.9787978	0.62542236	1.1754501	1.382945	0.25375283	-0.58582306	-1.5428369	-0.54454255	0.17377673	-0.23358944	0.7907157	-0.1770294	0.19299822	-0.007897109	-0.46697837	0.43533376	1.0457393	0.43443316	-0.82351303	-0.42647898	-0.15740082	0.074575804	-0.44507042	0.49395764	0.099203125	0.46622786	-0.7355041	0.28980395	-0.22400746	-0.5475262	0.8617146	0.48725235	-0.6528008	-0.5187284	0.43346158	-0.53062266	-0.07981174	-0.1863319	0.22358443	-0.41710374	0.89532757	0.8040252	-0.75145435	0.22404048	0.33017382	-0.7451189	0.64079034	-0.8823291	0.5562643	0.9114831	-0.107514195	-0.25188276	0.6062798	-0.5569478	-0.5078585	-0.006204903	0.67130417	-0.18113084	-0.06121543	0.35141242	0.15393178	-0.39617625	-0.22871676	-0.11174787	0.89767396	-1.5567188	-0.10911903	-0.71415603	0.06948349	0.9389591	0.8005731	-0.61833346	-0.733662	0.030882552	-0.5748571	-0.41891193	-0.40045065	-0.65406	-0.48476654	0.51966166	-1.657618	-1.0797487	-0.33287784	-0.27399212	0.62165254	-0.19411714	0.009939119	0.3591812	0.31012475	-0.10838492	-0.67505336	-0.09492813	0.0959073	0.7442407	0.0045439266	0.7036571	0.12018546	0.7110524	-0.6502902	0.2812695	0.5068043	0.9199342	-0.47666803	-0.022158511	0.265755	0.31399253	1.2710178	-0.25602943	-1.3437454	-0.52237815	0.43358937	0.25298798	-0.48090896	0.72844076	0.38763526	-0.76173806	-0.009406835	0.23385268	1.050594	0.26796257	-0.56022406	-0.2736737	-0.71486336	-0.46488422	-0.86319387	-0.052634828	-0.3386333	-0.3244666	-0.3653084	-0.88068855	-0.3451134	-0.289096	-0.15870836	0.5696845	0.19424565	-0.5478058	-0.43787852	0.29223016	0.18121165	-0.17131707	-0.3894848	-0.20930822	-0.9053114	-0.03591658	0.24000773	-0.79353184	1.5734398	-0.1745464	-0.05552514	-1.1933993	1.1501322	-1.1867814	-0.10337953	-0.7187867	-0.9866726	-0.030059263	0.08516617	0.2726297	-0.6405027	0.75246006	0.83718795	-0.5977481	-0.42814735	0.9884504	0.06697703	-1.2990167	0.5642166	0.46565604	0.9367108	0.27093166	-0.6862513	0.76008874	-0.87455815	0.55757993	0.14647794	0.730715	-0.51721305	-0.83525014	-1.1156898	0.20115176	0.34098795	0.5849613	0.35691965	0.34450483	0.8298888	0.11025069	-0.7618598	0.85156	-0.3500842	0.7056734	0.5446427	-0.39370218	0.12002608	-0.43604308	0.6170206	0.093087785	-0.11109703	0.2758885	0.1611428	0.028577019	0.71591794	-0.9648263	0.025808573	0.60883796	0.31296855	-0.73011696	-0.13894218	-0.7802235	-0.1600963	0.5884947	0.9252791	1.0137807	0.023440786	-0.41284406	0.39947954	-0.66461635	-0.1243767	1.5034175	-0.8538064	-0.21641335	-0.22194752	0.6032452	0.4215407	-0.4978555	0.3771055	0.11337285	-0.94252324	-1.3738681	0.50070184	-0.7541516	0.59258944	1.0528538	1.2499171	-0.1410868	-0.46272275	-0.1278358	-0.0395121	-0.59570247	0.5129456	-0.18117958	0.22124583	-0.44685388	0.59235424	0.9097495	-0.27451056	-0.8366219	-0.08326338	0.5391875	-0.44741756	-0.38504812	0.65192336	0.53231025	0.714163	-0.49755943	-0.25420842	-0.06590232	0.73571336	0.81017524	-0.422381	0.09499262	-1.3527453	-0.00022663921	0.0821477	0.89155006	-0.5870737	-1.0311439	-0.18210995	0.04520533	-0.1298089	-0.9148561	0.58761287	-0.34003168	0.7299854	0.57462955	-0.51982886	0.35910657	-0.67708355	-0.4244609	0.10273587	0.14557345	0.027287196	0.2210606	-0.04786998	0.025698423	-0.34687066	0.26311263	-1.2550268	0.94684595	-0.34744594	0.39021236	0.5015237	-0.8693195	-0.182882	0.4603094	-0.85593253	0.39795536	-0.68561023	-0.460962	-0.33168313	-0.19162875	0.90692985	0.42800927	0.01577468	-1.2630433	-0.1526298	-0.054115295	-0.4576553	0.5058026	0.46902895	-0.010937229	-0.18513042	-0.33046228	0.3134166	0.8034729	-0.58094513	0.4353305	0.66713816	-0.7732451	0.2125318	-1.0203553	-0.61112285	-0.28756294	0.8043331	-0.35040683	-0.2675814	-0.0027601123	0.5443275	0.9420192	-0.8385437	-0.7189828	0.8113055	-0.72258747	0.46161702	0.3979361	0.82593226	-0.80723226	0.11943017	1.0105361	0.014953256	0.47905153	-0.0481942	0.25040492	-0.87393135	-0.6719355	0.51101923	-0.30896318	0.36568642	-0.0995081	-0.41926306	0.36846069	0.7999471	-1.0538081	0.05275412	-0.055706546	-0.013041273	0.92421585	0.3685489	-1.1127253	0.5348173	1.1045922	1.0288421	-0.37582767	0.3406956	0.2195676	0.561879	-1.2112885	-0.25656885	-0.6286348	-0.03673032	0.55880594	0.14452574	0.011102825	0.1855722	0.4241655	0.86295986	-0.6330262	0.48497713	-0.743276	-0.20259517	-0.845402	-0.07490689	-0.1116281	0.38246962	0.32558	0.50428045	0.8286113	0.27533913	0.39119506	0.682742	-0.8897698	-0.48472935	-0.8250102	0.14451973	0.123358786	-0.07236737	0.48758548	0.053184375	0.5311307	-0.59238535	-0.26328015	0.84078425	-0.037895143	-0.2863684	0.39348575	0.40045798	-0.8029479	0.102420285	0.44810817	0.19088267	-0.52797216	-0.2553127	-0.771805	-0.8247602	-0.4483129	0.084852755	0.3173742	-1.2995695	-0.03391849	-0.12899652	-0.64238626	0.09278502	0.27862343	0.5139556	0.40056935	1.017786	-0.42676508	-0.9535467	-0.9689754	-1.0256686	-0.37384516	0.48131126	-0.4686027	-1.2380826	-0.87767625	0.4928631	-1.080243	0.30368197	0.18597463	-1.5163523	0.6679222	0.3550894	-0.7050214	0.5767036	0.9052076	-0.47244576	0.0967182	-0.6680482	-0.8334405	0.6518452	0.1395611	-0.53586483	0.9683479	0.52587473	0.44732285	-0.27081287	1.2090408	-0.09348774	0.6385943	0.12865263	-0.17281935	-0.34554875	-0.21849276	-1.624317	-0.9629259	-0.05254504	-0.74460053	0.2892022	0.6999173	0.823738	-1.2059172	0.6400483	0.754348	-0.51350147	0.053856805	0.7758605	0.66853243	-1.0250391	0.4764393	0.21827683	-0.027417153	0.46942043	-0.024899043	-0.50818557	0.042540163	1.6059948	0.089422174	0.33354107	0.18333168	-0.41026956	-0.090050966	-0.44425288	-0.82859623	-0.47435454	-0.6350379	1.8441603	0.5332516	0.06308835	0.3939519	-0.16157532	0.95193666	0.44622943	0.5768103	-0.4995762	-0.5406802	1.017588	0.53170276	-0.5706342	0.0030763596	0.97113687	-0.41119793	-0.7535692	-0.84205437	0.45411676	0.26661658	0.083652824	0.31295687	-0.33613035	0.09864752	0.35923976	-0.6245249	0.058048062	-0.29147685	-1.1990702	0.28401452	-0.33962774	-0.3088999	-0.3016523	-0.29740596
G000410815	0.26682556	-0.7293955	-0.62452227	-0.8810501	0.07867337	-0.630721	0.106441066	-0.5423	0.029616266	-0.044682533	-0.458846	-0.03347349	0.8483319	0.40746525	0.9323795	0.47888368	-0.9436802	-0.38491037	-0.071958944	0.64872557	-0.23415762	-0.80249035	0.29795903	0.707527	-0.2349056	-0.4054463	0.56434524	-0.62280446	-0.0797745	0.24074839	0.77206105	0.41367006	0.025747683	-0.059777483	-0.25314617	-0.10375619	-0.9318691	0.8083904	-0.7623791	-0.7927964	1.3039228	0.2017473	0.58527577	-0.85384274	1.0415554	-0.19028094	0.6578152	-0.114484176	0.91230166	-0.2509038	0.34640902	-0.37277633	0.93837285	0.056131944	-0.812747	-0.27114907	0.23407768	-0.5060997	-0.24931473	-0.09735185	0.89420706	-0.02421394	0.26215547	0.29218364	0.24185482	-1.2493792	0.29256725	-0.17159024	0.44937766	0.65574306	0.48197293	-0.32793352	-0.102796994	-0.9273041	-0.017695084	-0.51797724	1.3462139	0.9229309	0.15353377	0.44629368	0.8469684	-0.031385593	1.4156075	0.32122958	-1.468236	0.53586197	-1.0538932	-0.9751589	-0.64849436	-0.6107017	0.28234804	0.24065888	1.0097558	-0.27561647	-0.13217942	-0.050320484	0.51281697	0.1302727	-0.69461817	0.08145945	-1.1828899	0.2313596	0.38232616	-0.74597514	0.503111	-0.8607603	0.1967017	-0.37265003	0.4055343	-0.18731277	-0.554164	0.98485273	0.44277534	-0.13910967	-0.4406401	-0.331425	0.54471815	-1.0335295	-0.9794127	-1.3134032	-0.33077198	-0.6647112	-0.5507844	0.2355208	-0.43110842	0.89452577	-0.5617486	-0.7753231	-0.0752341	0.18233219	0.0010243095	-0.3104359	-0.96644175	0.5696842	-0.29376262	-1.1322054	0.2135271	-0.44940823	-0.08990465	0.4058174	0.7053568	0.82426226	-1.0699915	-0.8334073	0.39698273	0.5251021	0.51334804	-0.28167832	-0.9904084	0.043573126	0.587582	0.33743787	-0.08979145	-0.1862084	-0.03874311	-0.9445857	0.2555633	0.22823068	-0.8138693	0.035894178	0.56448835	0.30256683	0.9638895	0.14200404	0.3231043	0.7305885	-0.5611799	-0.35239616	0.47406885	0.09819782	-0.64515525	0.07812953	0.2219002	0.3503033	0.06917549	-0.13825603	-0.038718626	0.35589144	0.2596985	1.0998851	0.482497	-0.50102735	0.70077163	-0.18364725	0.61269253	1.2723988	-0.16788548	0.013071597	0.027537495	-0.17445368	0.08194032	0.19293925	0.05206549	-0.47936815	-0.66507	-0.2069683	0.23013335	-0.4541977	-1.3431485	0.2466987	1.1962812	0.91835546	1.2042748	0.2637442	0.41751173	0.63427246	0.48693618	-0.9038825	0.011821672	0.041287966	-0.21160525	-0.13269177	0.44698972	0.476167	-0.5414674	-0.47486347	0.037624605	0.21186115	-0.96836025	0.24334466	-1.0122676	-0.7651003	0.32078767	0.6669591	-0.63571376	-1.006841	0.4511632	-0.11871536	-0.10334218	-0.32264316	0.47577325	0.22639988	0.80450463	0.22844893	-0.5192754	0.03895183	0.7448472	-0.22479832	-0.45011285	0.43704468	0.19611621	-0.15440571	-0.34589717	0.47921687	0.41823265	0.20051216	-1.3288467	0.34445935	0.3182282	0.22306558	0.3799758	0.5896253	-0.0028562993	-0.5966844	0.36505705	-0.48876625	-0.69699633	0.2496534	0.40899494	-0.24802576	-0.3034699	-0.77059174	0.33894935	-0.3865053	-0.3194453	-0.086250536	-0.20517613	-0.40172294	-0.7187449	-1.49306	0.3704796	0.21047124	-0.36491054	0.066712886	-0.44127703	1.2424549	0.69277185	0.34464464	-1.2955562	-1.2687639	-0.10762238	0.1351804	-0.24956205	-1.0869774	0.5381311	-0.8665462	-0.084714025	0.22735195	0.47640592	0.39223924	-0.047320202	-0.32186452	0.80338824	0.6095	0.35458696	0.3174329	-0.16808443	-0.63774693	0.58264446	-0.37742764	-0.0447364	-0.060370356	-0.30157918	0.4987396	1.1347969	0.7342113	-0.030956239	1.0760589	0.9714186	-0.009436756	-1.1349484	-0.071048364	0.06462801	0.10010771	0.038780704	0.45336106	-0.16135854	-0.481157	0.69810975	0.28230488	0.30371532	-0.33242834	0.015748762	-0.2657265	0.3950351	-0.5991201	-0.5946424	-0.09735808	0.39279455	0.020532437	-0.09704107	0.41917098	-0.7038579	0.358723	-0.13173707	-0.4224115	-0.5048929	-0.8096069	-0.57660496	0.21747056	0.30250326	0.77505535	0.05555995	0.3169556	-0.3499277	-1.1135747	-0.598995	0.29058123	-0.76195306	0.11816229	-0.6625535	-0.7490465	1.172878	0.26877752	0.40427208	0.6974174	1.4220129	-0.1267903	-0.5889846	0.3448304	0.32792056	0.021080408	-0.24561748	-0.101727016	0.12535267	0.44396788	0.20982169	0.5096775	-0.2694589	-0.6457405	-0.81542903	0.017844997	-0.11864111	-0.025979802	-0.15637928	-0.5926334	1.0744077	-0.0027983226	0.19859003	-0.11883265	0.14063881	0.39507264	-0.2982468	-0.24115734	-0.24843833	0.6809111	-0.44131637	0.34667447	-1.5122749	-1.0632375	-0.39690676	-0.6717856	-0.1660185	-0.2355969	-0.4607145	0.39999264	0.046806067	0.19417596	0.5759241	0.053074684	0.69709396	-0.80685115	-0.72758967	0.60149235	-0.8308929	0.12341664	1.1230431	-1.443414	-0.80917966	0.18421502	-0.71111596	-0.4508562	-0.5769285	-0.31744927	-0.031077014	-0.1257728	0.16713266	-0.9257865	-0.18448265	-0.06766969	-0.5760674	0.64993536	0.38204116	-0.3781941	-0.7192	-0.4586013	0.6543149	0.13285601	-0.6532427	-0.12301507	0.93848056	0.90115494	1.0325587	-0.10055219	0.07741594	0.15697937	0.021740638	0.00457263	0.30648842	0.11834418	0.6667327	0.0068702996	-0.2748974	1.2355044	0.60256577	0.28965235	-0.040238425	0.48000753	-0.5950981	-0.070218734	0.21339992	-0.21177393	0.08895126	1.2759007	-0.05843632	0.011426389	0.724473	-0.6720973	-0.38175216	-0.46869543	-0.6087501	-0.5270742	-0.45692393	-0.6178877	-0.26780492	0.246906	-0.26575822	-0.32652867	0.18586624	1.3363293	-0.072621986	-0.68714046	0.390972	1.0106417	0.44801974	-0.004893314	-0.4021173	-1.0527813	-0.5561564	0.68801224	0.05970852	0.24937513	0.2448116	-0.72458714	-0.008580767	0.5162484	-0.32013524	0.13502416	0.9563341	-0.5561063	-0.8205414	0.44143087	-0.9156378	0.4580516	0.56977284	-0.42711335	1.2237059	0.6736798	1.1925361	1.1642517	0.2417794	-0.88441014	-1.4858111	-0.542306	-0.049782712	-0.17335637	0.33966967	-0.011289604	0.3875398	-0.1631449	-0.16656634	0.19814202	0.650793	0.1619521	-0.85555077	-0.16713917	-0.41640785	-0.13992831	-0.34172988	0.5516509	0.43072608	0.225578	-0.5616434	0.23755363	-0.17593014	-0.7608025	0.6263106	0.484361	-0.9273051	-0.32888618	0.4412851	-0.7226579	-0.0102086365	-0.2535754	0.36935163	-0.28457922	0.76591724	0.9757059	-0.9360511	0.33927888	0.74215734	-0.42276323	0.6981437	-0.4719713	0.91844463	1.2549624	-0.17648125	0.24606393	0.9358245	-0.39098302	-0.48233032	0.20972425	0.49298826	-0.29886487	-0.23354383	0.20915757	0.066461675	-0.41673556	-0.25614196	0.3032597	0.9657551	-2.1947184	-0.21960759	-0.84341633	-0.11717365	1.0101941	0.90913796	-0.9840024	-0.57790416	0.2440246	-0.49176988	-0.3409055	-0.6744213	-0.68328077	-0.4471342	0.6073181	-1.2041467	-1.0817641	-0.32821298	-0.29488498	0.746077	-0.52985346	0.24138474	0.6222423	0.5153985	0.01417318	-0.7647537	-0.25749868	-0.51399064	0.61519825	-0.20807554	0.714326	0.07156545	0.63983965	-1.2814897	-0.42344072	0.20427933	0.21919827	-0.28155166	0.09366056	0.12849878	0.37850332	0.9396955	-0.35591605	-1.2736586	-0.4101777	0.09659658	0.27057132	-0.44028926	0.1799406	0.47642794	-0.20667957	-0.22446078	0.070354074	1.0292883	0.193915	-0.6756031	-0.08117298	-0.2070218	-0.036566526	-1.1634109	-0.19577467	-0.2526387	-0.4239529	-0.30869895	-0.7898767	-0.3469275	-0.68756515	0.14378607	0.7331505	0.21508254	-0.21112335	-0.9161459	0.41257334	0.3690501	-0.07902368	-0.3522731	-0.046218023	-0.8531764	0.024706766	-0.10607688	-0.37768164	1.4597211	-0.06976713	-0.16782233	-1.113557	1.4775798	-0.4582205	-0.2013012	-0.559861	-0.9517832	-0.32504934	-0.38191667	0.13819085	-0.6267922	0.6196456	0.9275058	-0.4860373	-0.36171293	0.8673871	0.006672006	-1.2808672	0.0681421	0.48033947	0.63080066	0.22109161	-0.4824078	0.27360398	-0.46781847	0.6127418	0.16407318	0.6995605	-0.53809774	-1.0064669	-0.9174166	0.10717829	0.40867978	0.20089322	0.60516924	0.51830876	0.5226908	0.12739436	-0.67117906	0.5863503	-0.28432658	0.6016125	0.6249769	-0.40850723	0.090662204	-0.3173252	0.4462166	0.29713905	-0.29023743	0.24249947	0.35165477	0.32471633	0.33083737	-1.3178235	0.069076315	0.5042449	0.34933114	-0.93388695	-0.04055494	-0.50931203	-0.4176653	0.91292065	1.087657	0.8460018	-0.07291785	-0.95311934	0.37501767	-0.55855006	-0.20314407	1.1286561	-0.8212656	-0.46336597	-0.044644076	0.35222566	0.48518	-0.48204115	0.26711157	0.41535014	-1.1544703	-1.0150758	1.0117812	-0.90115464	0.6722272	0.42042574	0.6325974	0.13751899	0.056613617	-0.32318592	0.27195102	-0.32507002	0.656791	0.04241489	0.23578522	-0.5493865	0.38786384	0.85149693	-0.48200437	-0.9448371	-0.027300939	0.28969103	-0.5466886	-0.058937587	0.5461576	-0.032868207	0.30046764	-0.5627693	-0.40827608	-0.529926	0.37244213	1.1384214	-0.18057239	-0.021021977	-1.2578013	0.24676459	0.09906685	0.70930886	-0.448143	-1.0553102	-0.031475693	0.16728392	-0.36156365	-0.52313524	0.6748618	-0.2675776	0.48125294	0.62617505	-0.021649078	0.27404705	-0.12228632	-0.33212304	0.22118342	0.1621701	-0.0012766663	-0.0864484	-0.16941836	-0.018246256	-0.47189164	0.17023312	-1.1477426	0.5765139	-0.23589477	0.4245759	0.45551938	-0.5442928	-0.3466012	0.101285964	-1.0036265	0.16535005	-0.48992166	-0.8055729	-0.5202067	-0.12028029	0.8605104	0.13330716	-0.051264815	-0.9368197	0.10234152	0.28008598	-0.30370167	0.55534804	0.3315393	-0.095042735	-0.33479714	-0.0032141674	0.19367585	0.6513022	0.04151477	0.49418843	0.45030183	-0.6620897	0.4450702	-0.8621546	-0.884995	-0.6059758	0.77831304	-0.21072076	0.10248504	-0.27167076	0.5826019	1.1281244	-0.34940076	-0.58797336	0.26363885	-0.9660412	0.67227626	0.58355105	0.81175184	-0.10881117	0.026867278	0.9476529	-0.16113916	0.29392388	-0.10316678	0.34001347	-0.6007285	-0.3527928	0.48319635	0.033960357	0.41854906	0.058170088	-0.10067907	0.61515963	0.4737893	-0.7487955	0.43087986	-0.1874852	0.23470604	0.85402834	0.5526389	-0.5942359	0.45319167	1.319781	0.61907744	-0.5815237	0.19633403	0.42237744	0.5371671	-0.8766377	-0.055747755	-0.22293645	0.015962362	0.121208094	0.16711932	0.5146934	0.37328374	0.6662407	0.51476693	-0.54132175	0.5154005	-0.6938075	-0.16752812	-0.752843	-0.2920839	0.07347738	0.60491586	0.3678906	0.5575105	0.94583136	0.4879643	0.17700423	0.114610925	-1.1119083	-0.56294054	-0.6500485	0.38392684	-0.12905177	0.016641593	0.29488298	0.41514844	0.665495	-0.69167656	-0.5137289	0.5553237	0.00036927313	-0.030036807	0.41153586	0.5893453	-0.7376022	-0.32852364	0.60894156	0.16454053	-0.7431977	0.016958546	-0.69644713	-0.23945928	-0.51930094	0.4678607	0.19224586	-0.8286277	-0.42171085	-0.3488827	-0.73194456	-0.07267191	0.26977384	0.15037666	0.48747554	1.1114595	-0.22190851	-0.7500345	-1.0357094	-0.7537856	-0.09375294	0.0031879172	-0.2925561	-1.1264745	-0.75339717	0.27346984	-0.89340335	0.16415007	0.17048714	-1.3785346	0.506544	0.14910647	-0.7992843	0.6140755	0.67707664	-0.71209663	-0.0414982	-0.3845451	-0.50842124	0.38490683	0.31914526	-0.46267793	0.53910905	0.39101946	0.5098797	-0.3574775	1.1221358	-0.41219366	0.16448197	0.22989878	-0.3112546	-0.1060771	-0.71974903	-1.5771899	-0.83484364	0.31945628	-0.4525287	0.7836278	0.73909533	0.32563493	-1.3246703	0.77311254	0.62019575	-0.50045824	0.09022291	1.1498526	0.60616183	-1.370594	-0.0756413	0.20968273	-0.16242185	0.4476483	0.049941696	-0.14099029	0.32577753	1.195953	-0.32496718	0.05541241	0.37522823	-0.89226997	0.13860694	-0.50499165	-0.5233443	-0.36465943	-1.0626073	1.4853122	0.7295653	0.26920918	0.3955831	0.050734863	0.57827884	0.6459868	0.5965924	-0.20622556	-0.45156923	0.8323507	0.48775327	-0.4561478	0.19618988	0.6265107	-0.03430362	-0.59197223	-0.83227396	0.48927367	0.3817718	0.07850281	0.23357725	-0.13060233	0.4526757	0.1697529	-0.85533124	-0.19841336	-0.10466543	-1.1985757	0.59583014	-0.7250453	-0.11295508	-0.22567895	-0.005997114
G000783305	0.7066742	-0.8832763	-0.06578004	-1.1594299	0.111572675	-0.24438898	-0.055847444	-0.61143976	-0.086557135	0.65427315	-0.5824395	-0.10478092	0.3902543	-0.06278734	1.3708606	0.57672477	-0.98991597	-0.50463533	-0.12644601	1.0384737	-0.6706361	-0.38305807	-0.1681557	0.5062071	-0.46537906	-0.65001076	0.94682497	-0.4017288	-0.80291194	-0.04353375	1.0651146	-0.04802371	0.20411028	0.29460013	0.13298267	-0.17530793	-0.7939539	0.8733313	-0.8738414	-0.82960874	1.430157	0.11192019	0.41899985	-0.83705795	0.77712667	-0.6000643	0.7014365	-0.2864321	0.6262186	-0.8619519	0.6598743	-0.40093437	0.6198949	-0.17009142	-0.5252938	-0.13453591	0.15607579	-0.8228519	-0.5744915	-0.22696453	0.87579626	-0.3936903	0.16503963	0.25289735	-0.07268869	-1.5572829	0.5044479	-0.35664994	0.37675434	0.4531986	-0.1744797	-0.7339685	-0.50746953	-0.9816402	-0.18119608	-0.42293543	0.81835425	0.85448354	0.093182914	0.51685774	0.60736287	-0.5592269	0.8687005	0.23668727	-1.2257997	0.40930983	-0.0971816	-0.49671176	-0.51309985	-0.4818455	0.27418438	0.30420086	0.7447969	-0.32623637	0.25826463	-0.14915574	0.5233005	0.07342292	-1.1217002	0.5812527	-1.2099077	0.022197764	0.703322	-0.45438245	0.781106	-0.69098175	-0.19916101	-0.012628743	0.69541645	-0.21192357	-0.07465671	0.79061097	0.3832029	0.12561342	0.2545967	-0.6514526	0.22128166	-0.9768436	-0.3565693	-1.119303	-1.1942613	-0.5043165	-0.33484048	0.074666955	-0.3017138	1.0749394	-0.37721038	-0.8246533	-0.28864458	0.3818617	0.27933085	-0.0075345486	-1.0281589	0.056782633	0.047531277	-0.49026895	0.42103645	-0.39646536	-0.43451118	0.5194676	1.1188508	1.1784388	-1.4987088	-0.7725203	0.12993759	0.40910342	0.20350526	-0.5609549	-0.6793668	0.007862382	0.57581323	0.8511392	-0.36522248	0.20441908	-0.12356515	-0.35591134	-0.02274336	0.020888604	-1.4101635	0.09523495	0.36662808	0.70514464	0.68754625	0.5009118	-0.13797137	0.4451634	-0.44023204	-0.5227928	0.3810535	-0.20610979	-0.4651777	-0.1817345	-0.01796858	0.43741006	-0.030463994	-0.23125494	0.12699775	0.2890166	-0.0028116554	1.2322851	1.1905148	-0.5463484	0.33697176	-0.19516365	0.5475023	1.1914032	0.5119498	-0.3402512	0.6858221	0.13830544	-0.06899047	0.44819742	0.014153577	-0.59827423	-1.1365469	-0.100986734	-0.14821088	-0.38581225	-0.7741707	0.05202397	1.0966984	0.20527484	0.8569851	0.4906514	0.82996905	0.8092344	0.086005606	-0.83032304	-0.18883508	0.14372237	-0.31369895	-0.0701287	0.3036835	0.64654976	-0.5554082	-0.6552535	0.47311378	0.027016371	-0.4788238	-0.016709708	-0.62233937	-0.5643824	0.21659723	0.8205579	-0.51415026	-1.3381954	-0.37163973	-0.5698779	0.0042656064	-0.45229748	0.50924027	0.7508445	1.2622995	0.652887	-0.76481104	-0.20163509	0.3822732	-0.8322672	-0.42102212	0.4959848	0.21949355	-0.13939701	-0.50254387	0.46854782	0.7974436	-0.12799065	-1.456789	0.21783154	0.0961864	-0.084667146	0.20643915	0.10272424	-0.50094664	-1.1124842	0.5985178	-0.6156882	-0.4950027	0.023221092	0.4811074	-0.29054922	-0.8796175	-0.1256279	0.20018047	0.11051811	-0.17196083	-0.17271666	-0.5947576	-0.5035774	-1.0073671	-1.3635638	0.22425954	-0.00085516647	-0.6198555	0.07944982	-0.53713447	1.0508446	0.96617925	0.5593568	-0.8696815	-1.1159626	0.073646784	-0.12947625	0.4111659	-0.861399	0.07765171	-1.4825007	0.090105146	0.43073362	0.6368512	0.52875984	-0.11123045	-0.23487702	0.424353	0.7815008	0.33395213	-0.119798	-0.3116929	-0.27449214	0.51013905	-0.3181502	0.07818818	-0.19820255	-0.052123025	0.50370353	0.9068325	0.2261783	0.07628819	1.0254159	1.0981834	-0.20892923	-1.2046479	0.04503587	-0.074541904	0.15556341	0.040359095	0.5591924	-0.35907122	-0.58232474	0.30584204	0.44525844	-0.12936126	-0.43379474	-0.11468853	-0.6577074	0.39768165	-1.0006418	-0.1510471	0.31829864	0.18222497	0.057976	-0.27242732	0.38574645	-0.50584894	0.2678568	-0.6323301	0.12303287	-0.27158433	-1.1552634	-0.15088284	0.48116654	0.26702422	0.62422943	-0.18452376	0.12325293	-0.2692291	-0.8279834	-0.47103876	0.5120753	-0.49370128	0.09088607	-0.628619	-0.31244886	1.0879939	-0.057139184	0.34668776	0.8286744	1.0688365	0.009185962	-1.0154577	0.15344557	-0.15093566	-0.17753044	0.25484392	-0.44917288	0.15133451	0.012484459	0.28992146	0.20280026	-0.23995125	-0.55358475	-0.5591091	0.40870526	-0.3519599	0.43836802	-0.18718617	-0.11388727	1.0095667	0.11957104	0.41720703	-0.013765812	0.23387468	0.0063135773	-0.2718375	-0.61027557	-0.8591306	0.23171793	-0.22671144	0.4427006	-0.6483373	-1.3146166	-0.6248443	-0.75538826	0.20991997	-0.21497123	0.16070262	0.05831331	0.092126355	-0.097539805	0.5372998	-0.114618815	0.60167974	-0.77176106	-0.49345168	0.8163822	-0.6445049	0.7863204	0.93651426	-1.4703902	-0.76840955	0.23926623	-0.3152312	-0.37294555	-0.7118878	-0.002343312	0.24194612	-0.17134888	0.21912721	-0.70861614	-0.19591708	0.195272	-0.8600748	0.780797	0.21807194	-0.23771182	-0.3764692	-0.7606557	0.4009979	-0.048736542	-0.52799845	0.39655843	1.1557975	0.6657083	0.5107061	0.17873512	0.20764498	-0.4087686	-0.08357662	0.04365001	0.16559203	-0.3091106	0.618748	-0.19434223	-0.3699573	0.86934346	0.43135595	0.06632185	0.19829346	-0.020239815	-0.80842495	-0.059967514	-0.20360377	-0.19524023	-0.07155519	0.84374493	-0.5828805	0.38401082	0.8402039	-0.505251	-0.711058	-0.72334695	-0.24094193	-0.5708649	-0.45673645	-0.6166509	-0.4193495	0.66130537	-0.40001893	-0.84161973	0.1623384	1.5452002	0.1339679	-0.27677578	0.6994102	0.9922672	0.48872465	-0.14467213	0.055289954	-1.2973111	-0.21477509	0.3094489	0.14393508	-0.17166895	0.100078635	-0.41622406	0.32307398	0.3088504	-0.5896124	0.22235842	0.2968756	-0.5083332	-1.1111686	0.4904173	-1.2317451	0.6259479	0.8785941	-0.5028919	0.90964067	0.23864484	0.35998785	1.5982385	0.30739498	-0.49530944	-1.1008046	-0.79671776	0.23325521	-0.21704885	0.14395344	-0.059710212	0.26604348	0.30216432	-0.2005055	0.43507928	0.3129009	0.56921554	-0.32411063	0.21910024	-0.08021829	0.1384138	-0.7185716	0.54577804	0.3416362	0.28007674	-0.9820967	0.27638593	-0.1276631	-0.56997144	0.4802912	0.7467694	-0.5027339	-0.62118214	0.36379704	-0.8660793	-0.14149144	-0.4052037	-0.0026561022	-0.20808916	0.9364299	0.665118	-0.8918167	-0.24535099	0.7570196	-0.7517648	0.34856346	-0.5682901	0.7474998	1.0201677	-0.13536349	-0.20889956	0.5847752	-0.22566912	-0.6050992	-0.035609886	0.5098477	-0.07893482	-0.44746774	0.5383147	0.21688528	-0.58809453	-0.2712161	0.34296292	0.8131942	-1.4105629	-0.25735548	-0.910015	0.12503558	1.3094987	0.64993435	-1.1423566	-0.49057025	0.7610465	-0.83105356	-0.3924707	-0.7044848	-0.8276042	-0.15410236	0.7013966	-1.2367862	-0.6816889	-0.61029994	-0.37710735	0.6759319	-0.07405692	0.005194843	0.7734458	0.6617772	-0.16471976	-0.59306514	-0.66056633	-0.39083344	0.6416438	0.31285205	0.49036968	0.08835813	0.6427178	-0.86171234	0.261594	-0.0906232	0.35073364	0.26134494	0.2278509	-0.28795463	0.27175578	0.9818099	-0.10666837	-1.0632317	-0.27483857	0.63742507	-0.11237074	-0.11725302	0.076879054	0.8558491	-0.6376822	-0.3249689	0.07888058	0.64436483	0.11514291	-0.14259715	-0.39390355	-0.49414915	-0.08434984	-0.70239204	-0.5491844	0.020479687	-0.08029477	-0.29745397	-0.89309216	-0.518757	-0.034262076	0.34950417	0.45966116	-0.30200708	-0.22313467	-0.2476032	0.2662874	0.58143413	-0.05091068	-0.075133935	-0.026235022	-0.6119987	-0.69264084	0.17895976	0.033581197	1.0192218	-0.15358296	-0.5471065	-1.36585	1.136081	-0.7504226	0.34758908	-0.35088032	-1.4031657	-0.010692984	-0.09381335	-0.045538574	-0.8062219	0.535448	1.2778041	-0.53173256	-0.41354582	0.8082199	0.1709942	-0.79380214	0.33480877	-0.09053026	0.5019181	0.28659904	-0.28392708	0.44343594	-0.5976899	0.22768103	0.36566132	0.90983474	-0.26772577	-0.9833071	-0.64213383	-0.13944556	0.64238703	0.2531075	0.16227032	0.24043334	0.7257918	0.13588358	-0.42843223	0.3827567	-0.15600951	0.71383005	0.3597412	-0.6687894	0.27095893	-0.5525537	0.40294626	0.38007665	-0.27938122	-0.16261488	0.31199408	0.0015417039	0.4068035	-1.0013595	-0.063941255	0.6071627	0.21555856	-0.36443597	-0.11358884	-0.28057128	-0.13561991	0.6794038	0.8643641	0.8006714	0.15769799	-0.5457607	0.21467564	-0.49501312	0.31724036	1.0277196	-0.9681132	-0.52864045	-0.22505276	0.6827049	0.33322713	-0.6135562	0.16587454	0.33227196	-1.1277525	-1.054332	0.6487238	-1.0165985	0.5905408	0.7495033	1.1777521	-0.18644345	-0.27029288	-0.0366278	-0.0124586485	-0.71238136	0.4260721	-0.34743202	0.4135585	-0.87105197	0.3693436	0.8512739	-0.29768518	-0.8450639	0.05092247	0.055008084	-0.4314648	0.034572884	0.60774934	0.061488625	0.5432243	-0.6030288	-0.3942865	-0.2968148	0.4565187	0.82792634	-0.33248174	0.27167225	-1.1824006	-0.08489463	0.10487121	0.6657392	-0.67794085	-1.2083949	-0.18975754	0.30973905	-0.62544894	-0.6539428	0.28894544	-0.5387739	0.55570984	0.92435294	-0.25745913	0.26549363	-0.34491405	-0.2504008	0.198589	0.20160615	0.13658467	0.6820457	-0.43926293	0.12449806	-0.3714836	0.24039063	-1.4400479	0.5727366	-0.45845568	0.2033683	0.18640622	-0.38298446	-0.4122075	0.11490741	-0.9585656	0.28120315	-0.6125481	-0.5395382	-0.49252197	0.12566596	0.8569169	0.3552035	-0.022562986	-1.3745555	0.19360371	0.20969954	-0.34926856	0.55751944	0.4357685	0.030554619	-0.14174478	-0.13376161	0.5192579	0.49293727	-0.17740646	0.6966214	0.105106905	-0.7710247	0.15798062	-1.0612289	-0.630774	-0.11709827	0.9218511	-0.64315766	-0.14383519	-0.22378877	0.53629845	0.92123353	-0.5988693	-0.6881446	0.28383267	-0.68791	0.7743167	0.5897622	0.5787359	-0.006582886	-0.24005842	0.9044948	-0.12050004	0.14823098	-0.14152732	0.66315037	-0.8340912	-0.08432161	0.12393209	-0.352673	0.5163912	0.28139588	-0.7864577	0.58967006	0.7188479	-0.80228144	0.32556477	0.1806774	0.3740661	0.97152144	0.34121022	-0.61680895	0.28268364	0.5966523	0.41468853	-0.83219385	-0.05094639	-0.01785215	1.1268544	-1.025705	0.4507899	-0.57772505	-0.18956275	0.049809583	0.37760818	0.26037145	-0.08132996	0.6119264	0.250203	-0.4146927	0.43473583	-0.37426275	-0.07745755	-0.6553506	-0.27179712	0.09204961	0.3854044	0.32714468	0.56234884	0.8308564	0.29262275	0.5522131	0.3132221	-1.0971469	-0.39568064	-1.0653666	0.7639387	-0.35526863	-0.2876902	0.24728702	0.3874821	0.56904817	-0.45940745	-0.56313896	0.649865	0.7367573	-0.29964375	0.22267675	0.14561196	-0.93566096	0.15133196	0.6210964	0.32909182	-0.5911935	-0.17414787	-0.90807676	-1.1347328	-0.6716811	0.15542494	0.40103027	-0.91401565	-0.098004244	-0.059534978	-0.7337438	-0.07913296	0.5719305	0.58140314	0.114305116	0.6157992	-0.21489386	-0.79114467	-0.7274823	-0.8616991	-0.43178198	0.6469679	-0.37986594	-1.08402	-0.7258194	0.17344014	-0.52102226	0.47207522	0.40213683	-1.5561334	0.4340795	-0.08209547	-0.34383136	0.1726261	0.704082	-0.24462286	-0.06990524	-0.051425416	-0.6884652	0.07530728	0.031143904	-0.8873175	0.8569206	0.25287342	0.2546933	-0.12283503	0.5967588	-0.21514581	0.43716997	-0.11849052	-0.012069389	-0.00704553	-0.94042903	-0.99199224	-0.5962027	0.09892662	-0.5209371	0.87485874	1.0028958	0.4904998	-1.192118	0.4256113	1.1185681	-0.4374059	0.6924393	0.7142037	0.636956	-1.1449325	0.09924391	0.30761993	0.015659213	0.6177886	-0.47403565	-0.6313126	0.6630947	0.9013177	0.2203787	-0.041386098	0.6584062	-0.2329383	0.23933955	-0.51582927	-0.78626907	-0.6586647	-0.8564101	1.6697991	0.21961072	0.06650315	0.2256546	-0.20507349	0.93258786	0.78566283	0.6966028	0.12747583	-0.63644	0.9290954	0.5296557	-0.6683782	-0.15244985	0.6019519	-0.38228777	-0.6202338	-0.6957665	0.29864416	0.2665189	-0.186988	0.21289244	0.16407634	0.2759727	0.5354155	-0.7938856	-0.3209194	-0.07906474	-1.3546524	0.5434282	-0.5093918	0.11941418	-0.091510326	0.010295816
G001721645	0.44247323	-0.8050327	-0.5363074	-0.8941236	0.32406223	-0.75510293	0.15597449	-0.48688313	0.0042033046	0.09135841	-0.26097587	0.04930301	0.51267374	0.057718784	0.7546318	0.62495625	-1.0553763	-0.45999783	-0.35729244	0.7921711	-0.3290682	-0.68714535	-0.08780047	0.4373747	-0.56568503	-0.48853838	0.6839842	-0.32573146	-0.22378726	0.08241181	0.72744656	0.41193724	0.11322558	-0.28297213	-0.11832315	-0.33744317	-0.9235693	0.84267426	-0.78656894	-0.72862613	1.2422279	0.3636186	0.576104	-0.8405672	0.8683136	-0.5458807	0.51136166	-0.1894436	0.8483951	-0.4697464	0.09298694	-0.3086846	0.9582876	-0.082993776	-0.76122653	-0.3114973	0.44007918	-0.5877964	-0.36228457	-0.09804861	0.9461484	-0.09720196	0.1886653	0.29143178	0.001955241	-1.3068103	0.45359546	-0.22353366	0.5790816	0.5973926	0.38027406	-0.47421265	-0.0268564	-0.85647607	-0.09450296	-0.48604956	1.3900155	0.93450123	-0.17682248	0.43072593	0.61577296	0.13664714	1.6061332	0.23479013	-1.3545787	0.44119087	-0.85483557	-0.73199177	-0.69633913	-0.4457755	0.09964524	0.109140284	0.79594064	-0.28415406	-0.027900964	-0.24589786	0.64535785	-0.06164383	-0.48511204	0.28092018	-0.7124542	0.102086574	0.26565987	-0.7003288	0.445827	-0.85690594	0.24811372	-0.116754666	0.353714	-0.03988738	-0.36277935	0.9267169	0.3640117	-0.08249915	-0.35611522	-0.1632696	0.39475882	-0.99293995	-0.9025393	-1.3093202	-0.39732435	-1.0436742	-0.6645876	0.49382785	-0.7516504	0.8458012	-0.32821453	-0.5930426	-0.036990307	0.45562914	-0.060919486	-0.41056082	-0.9764664	0.52710766	-0.24866924	-0.6269732	0.32324177	-0.50948536	-0.11273654	0.46974355	0.6004955	0.9924062	-1.1001225	-0.88178545	0.23019981	0.54870003	0.50790095	-0.5952809	-0.8873173	0.051101282	0.69687665	0.46755347	-0.08807886	-0.007941928	0.072361425	-1.034416	0.23475832	0.30405864	-0.91934466	-0.03131806	0.507622	0.3299209	1.0186511	0.26126587	0.28681242	0.7706528	-0.6486431	-0.2363689	0.4870361	0.04510977	-0.5359473	-0.30308706	0.118816376	0.22694455	-0.0669217	0.09727651	-0.029937819	0.35363877	0.10087669	1.2026731	0.5327407	-0.5362408	0.627605	-0.28964463	0.6917182	1.2179613	0.14591902	0.022082746	0.18888558	-0.2893253	-0.15506536	0.34568754	0.04144932	-0.70810336	-0.7782867	-0.019779518	0.067700595	-0.5988599	-0.976105	0.090804264	1.1426843	0.7526629	1.1351103	0.36040553	0.43876553	0.5674291	0.7996068	-1.068429	0.031996906	0.23785156	-0.040414963	-0.13070877	0.59799874	0.5360392	-0.56402063	-0.40034938	0.10916071	0.15913025	-0.96472836	0.10975993	-0.87012696	-0.8107436	0.26259232	0.7412003	-0.7236687	-1.080623	0.42805117	-0.12007884	-0.028893113	-0.58577955	0.38933834	0.4011878	0.9209392	0.13562945	-0.6303652	0.10342651	0.7299626	-0.17758736	-0.50486934	0.44526747	0.1531966	-0.14188714	-0.2788375	0.11687925	0.5932384	0.24498154	-1.3495333	0.67217785	0.5528445	-0.017997801	0.27142313	0.24787289	-0.1148314	-0.52626854	0.447917	-0.27545863	-0.7890396	0.12526755	0.20899445	-0.23227878	-0.34916657	-0.5366434	0.0006058272	-0.24906322	-0.18438792	-0.21053652	-0.15720831	-0.5203926	-0.7017235	-1.3436662	0.397239	0.30715704	-0.3937834	0.050685182	-0.39453748	1.2483932	0.5665709	0.2954644	-1.5487047	-1.1609665	0.057445485	0.01757475	-0.1342612	-1.0896263	0.37517416	-0.98845893	-0.0073874444	0.25238067	0.3084846	0.47600615	-0.17562428	-0.5569378	0.82294065	0.79042876	0.56330204	0.32810453	-0.20233291	-0.4161312	0.73365706	-0.32515234	-0.024133943	0.04070875	-0.04215485	0.42766237	1.0746602	0.7923041	-0.25330994	1.0664746	1.3178344	-0.04419461	-1.2328123	0.030161798	0.3355791	0.17733678	0.12659289	0.76378256	-0.17928725	-0.57864374	0.6150583	0.17328532	0.16569099	-0.4166198	0.03519561	-0.3243359	0.34152836	-0.62179613	-0.4301648	-0.1433121	0.22642304	0.154702	-0.07978064	0.2946311	-0.9134506	0.2147325	0.030649424	-0.34504718	-0.11643339	-0.9621186	-0.4799322	0.48370987	0.40946516	1.0351073	-0.07700066	0.11895703	-0.21030478	-1.1976912	-0.44658527	0.51654774	-0.7945095	0.13905999	-0.699768	-0.78341186	1.0239278	0.2277224	0.38521826	0.85016537	1.3727367	-0.27066758	-0.680881	0.3982552	0.21289447	-0.22389519	-0.03190525	-0.24050424	0.19816571	0.24727942	-0.1319507	0.364638	-0.24940944	-0.80548143	-0.78090966	0.07110859	-0.09468776	0.20310137	-0.4842852	-0.25635028	1.0100119	-0.039756298	0.22306322	-0.071991965	0.24263528	0.2795251	-0.40608054	-0.19352178	-0.37745363	0.726444	-0.39711744	0.13445199	-1.3504325	-1.2176507	-0.65452266	-0.9606319	-0.08825301	-0.4474421	-0.43610868	0.33536953	0.29598972	0.2763813	0.5126409	-0.11230471	0.60184455	-1.0119041	-0.4677189	0.69323134	-0.45520747	0.2406598	1.0915729	-1.420554	-0.8138375	0.1095574	-0.7666662	-0.35692725	-0.31656367	-0.12672625	0.0120950155	-0.21117017	0.17329738	-0.9940187	-0.32867685	-0.22617662	-0.46019086	0.56173104	0.31631646	-0.4007178	-0.7269575	-0.37460586	0.4404466	0.0959512	-0.84033847	0.1455809	1.262989	0.6432419	1.0466698	-0.3934096	-0.11941321	0.015404704	0.01417445	0.10227895	0.16297577	0.21696207	0.8804991	0.12650324	-0.45126146	1.301014	0.6149353	0.31982547	-0.12250954	0.24111924	-0.54342616	-0.09294017	0.3329686	-0.064633474	0.06592275	1.1852727	0.026657987	0.035870373	0.6064888	-0.4827286	-0.44164544	-0.33843386	-0.6499236	-0.5480244	-0.38292757	-0.60253525	-0.25633883	0.38261503	-0.40795672	-0.34386718	0.3918326	1.2157917	0.03169813	-0.7113658	0.5848286	0.74889624	0.5356278	0.10517666	-0.34752086	-0.9972682	-0.5479434	0.6770797	0.10988866	0.2999052	0.15243049	-0.7290204	0.20524707	0.50552523	-0.4205173	0.21133538	0.62363243	-0.65529585	-0.8157989	0.34201768	-0.885157	0.5435189	0.73768914	-0.54641074	1.1512218	0.51267457	1.0558418	1.4581456	0.27188462	-0.6470005	-1.4337602	-0.58159363	0.01979984	-0.083550766	0.26618886	0.20241411	0.57196224	-0.15529025	-0.32737732	0.18386516	0.626751	-0.12345919	-0.5663146	-0.27218792	-0.39813194	-0.06198453	-0.44558963	0.58579314	0.378132	0.4039955	-0.78626525	0.29783326	-0.056301862	-0.72454226	0.9486808	0.6185811	-0.95874476	-0.38166678	0.5098456	-0.8009665	0.021470085	-0.29905245	0.19016448	-0.37558502	1.0748248	1.033134	-0.7754322	0.23798484	0.69199663	-0.6045717	0.4999605	-0.49338725	0.63608915	1.1905451	-0.2516939	0.23103341	0.8240943	-0.30263323	-0.51425254	0.26487735	0.7332843	-0.10654387	-0.012770474	0.33343223	0.31476778	-0.30158627	0.058917172	0.5358676	0.79823023	-2.230028	-0.21659726	-0.82615215	-0.16982052	1.0170532	0.7398175	-0.8261718	-0.57678807	0.29862443	-0.6720334	-0.05148843	-0.5626886	-0.5666767	-0.5473576	0.59002066	-1.207402	-0.9478362	-0.4112385	-0.15403461	0.70940506	-0.16895726	0.05609712	0.42324653	0.656977	-0.1545199	-0.9271976	-0.16617323	-0.33248544	0.7411499	-0.21852611	0.7511908	-0.14134714	0.7512265	-1.2522182	-0.49891916	0.16773252	0.37496853	-0.14580137	-0.04708545	0.13929492	0.18103123	0.826214	-0.5143014	-1.259933	-0.16419175	0.03544402	0.36906517	-0.5911618	0.22336115	0.47278124	-0.40898648	-0.15428942	0.04314126	0.9070523	0.4346998	-0.5295782	0.07129207	-0.21195121	-0.040852845	-0.7811657	-0.27005583	0.03677237	-0.32201272	-0.26878047	-0.5887858	-0.4110366	-0.45465803	0.17244062	0.7176766	0.14016287	-0.3670699	-0.9373931	0.18876374	0.4890908	-0.006847934	-0.257531	-0.19245371	-0.6364296	0.04044091	0.09496326	-0.46699944	1.5868585	0.30241585	-0.16372895	-1.0757582	1.3408121	-0.55052006	-0.37329844	-0.6360772	-0.89426804	-0.43790513	-0.45285004	0.15627673	-0.810993	0.6798798	0.9499408	-0.3121207	-0.26606494	0.64011264	-0.00988806	-1.0569929	0.2582934	0.45473877	0.6006447	0.17603426	-0.4522129	0.34793034	-0.4277898	0.5052615	0.098356575	0.56146806	-0.667185	-0.9897966	-0.89344805	0.10640775	0.5331844	0.18482469	0.7001839	0.5554384	0.6899212	0.14673747	-0.53237194	0.49328268	-0.09045165	0.74065644	0.65449727	-0.49698672	0.13388082	-0.43388322	0.55904603	0.24585709	-0.10901499	0.16757393	0.15803899	0.31388637	0.25572708	-1.4550755	0.06966124	0.42569566	0.26860586	-0.87282753	-0.14463681	-0.38348028	-0.3795264	1.1032624	0.8506442	0.9362769	0.011276625	-0.9040055	0.34329447	-0.6017493	-0.21383849	1.1652119	-0.83074945	-0.5515921	-0.15098627	0.21865177	0.41962448	-0.6077578	0.14091606	0.31432492	-1.2353604	-1.0693609	0.9470907	-0.8655931	0.76197064	0.48303503	0.6255198	0.041381553	-0.1382816	-0.19586729	0.24836583	-0.4000402	0.74981564	-0.16795677	0.19832578	-0.7698619	0.32722998	0.8161318	-0.50339955	-1.0329642	-0.0112937465	0.3391279	-0.31924114	-0.34999284	0.42592275	-0.20710158	0.26460624	-0.5802947	-0.44646356	-0.10184085	0.3215534	1.3407366	-0.39982212	-0.036206067	-1.4000269	0.21504141	-0.060266137	0.75634176	-0.5109081	-1.1660933	-0.17979005	0.016295582	-0.6480092	-0.659046	0.84749603	-0.1850368	0.6639495	0.9962911	-0.29070866	0.19535859	-0.35759455	-0.38731378	0.21300517	0.08003615	-0.08083024	0.062237523	-0.11519259	-0.16313344	-0.6788114	-0.11145045	-1.250951	0.8083589	-0.20628639	0.37351528	0.40255195	-0.5804746	-0.28618422	0.2176058	-0.9313246	0.25407487	-0.40004432	-0.63347685	-0.58335096	-0.19075754	1.0456877	0.06515658	-0.06940718	-1.0407019	-0.31207347	0.45432878	-0.17941475	0.65007937	0.29461616	0.066655934	-0.21217304	-0.058464255	0.24029535	0.48138893	0.24931756	0.7038722	0.59516126	-0.48260778	0.5491605	-0.91568106	-0.97873056	-0.6497737	0.5378101	-0.25042927	0.11264475	0.024447635	0.69299394	0.98271894	-0.1975913	-0.6506289	0.31208697	-0.60922897	0.6342873	0.5089735	0.51307404	-0.28613788	0.30760875	0.730621	0.18492506	0.24865781	-0.16458225	0.35222554	-0.57861483	-0.4026147	0.4631979	0.14182046	0.5429971	-0.041919842	-0.1615826	0.63006383	0.4579	-0.7818472	0.6634547	-0.19638681	0.2001935	0.70591855	0.62426317	-0.8119041	0.3574086	0.9281645	0.580845	-0.717515	-0.025897248	0.29084972	0.37660852	-0.9282141	-0.032724217	-0.009228442	-0.04759122	0.15615563	0.094006866	0.13346432	0.29455927	0.6510191	0.6305297	-0.664228	0.1150053	-0.6856265	-0.32279497	-0.47678664	-0.319948	0.020934436	0.6028457	0.5255451	0.42192852	0.88272345	0.36458272	0.27168685	0.46265572	-1.0034777	-0.52155244	-0.8733011	0.5414089	-0.2599727	0.17963712	0.46147633	0.17743278	0.54713976	-0.7405916	-0.47061023	0.37436897	0.230801	0.09823102	0.6528379	0.24232455	-0.9279928	-0.21274085	0.7249788	0.1768721	-0.57522607	-0.19693878	-0.6998426	-0.3819039	-0.45726871	0.35550863	0.5265967	-0.6898353	-0.30613273	-0.32852638	-0.5555475	-0.21715033	0.3514086	0.19750993	0.5498824	0.9451231	-0.3290444	-0.7518798	-1.3911927	-0.9618919	0.08932614	0.13156947	-0.18015492	-0.8237653	-0.94816273	0.41316673	-0.7394968	0.07149017	0.31324244	-1.5363846	0.7373333	0.08288424	-0.6497185	0.6762549	0.82545406	-0.67139125	0.012254063	-0.24918762	-0.4885218	0.3177357	0.29942417	-0.75869346	0.6185268	0.21078955	0.69999677	-0.27034423	1.0469933	-0.5094464	0.1409901	0.24111195	-0.1873145	-0.31328875	-0.60035306	-1.474052	-0.87054044	0.2044157	-0.6704511	0.8041901	0.6907563	0.5248696	-1.3171587	0.44421774	0.29693413	-0.39703932	0.36413908	1.056036	0.5848757	-1.3147991	-0.08377226	0.22175194	-0.3184824	0.5158449	-0.16521543	-0.4863335	0.38977984	1.0531949	-0.18260446	0.37713552	0.25536728	-0.78162766	0.18247624	-0.44157025	-0.42053774	-0.27831203	-1.026489	1.4794364	0.7312781	0.18307757	0.48349023	-0.15657206	0.79960585	0.71152925	0.411178	-0.20629194	-0.4289275	0.6630402	0.8403948	-0.48688677	0.24704811	0.6219415	0.25273004	-0.63757354	-0.7042227	0.34438604	0.40779912	-0.15779948	0.36336464	-0.113386735	0.2801476	0.10886057	-0.8053848	0.031079054	0.021218501	-1.3724573	0.71251965	-0.6271893	-0.23584604	-0.19158198	-0.065240175
G000832545	0.41961238	-0.9327153	-0.3133338	-1.0200106	0.5705801	-0.6098213	0.06028481	-0.69294506	0.12165475	0.46367016	-0.4602314	0.19370231	0.73356366	0.32196972	0.9170645	0.48877835	-1.2998563	-0.4441992	-0.16069293	0.8645429	-0.17518383	-0.5962694	-0.06993886	0.58861166	-0.5587711	-0.5145987	0.8828885	-0.49233156	-0.38521883	0.3223517	0.96900755	0.5223838	-0.124012545	-0.068211585	-0.18342131	-0.2598428	-0.91708875	1.0125777	-0.6069437	-0.7113689	1.2992924	0.5410055	0.58266866	-0.75657046	0.9184596	-0.68689907	0.9084878	-0.0062657	0.73076975	-0.68185264	0.25405717	-0.35426992	0.86418617	0.1256572	-0.95014966	-0.41117465	0.5923998	-0.64802104	-0.33477646	-0.19855623	0.98446715	-0.13477145	0.103379235	0.32812324	-0.15543713	-1.4262333	0.3468008	-0.22656152	0.3864228	0.6328972	0.28519526	-0.54720896	-0.22374427	-1.0784922	-0.2687177	-0.57239115	1.3498628	0.9487096	-0.037432734	0.70333207	0.7551292	0.342218	1.6189814	0.32689294	-1.5565926	0.5588501	-1.0358088	-1.0140109	-0.49464852	-0.30487484	0.09746526	0.3509402	0.9522115	-0.25238356	0.26376024	-0.16162038	0.26637858	0.20904472	-0.78284997	0.19492033	-0.96381307	0.111761466	0.30122837	-0.5721923	0.7763529	-0.7452044	0.43883997	-0.045096885	0.48367488	-0.1817084	-0.6376964	0.8997568	0.50035655	-0.15843171	-0.1335443	-0.4560924	0.24252239	-0.850932	-0.93771803	-1.3573232	-0.6140841	-0.6464978	-0.41969875	0.30721557	-0.46800607	0.8106066	-0.2912448	-0.9181192	-0.23033653	0.21170458	0.040793955	-0.26587635	-1.0271525	0.57136095	-0.25843215	-0.8334575	0.5872922	-0.5799791	-0.028219715	0.60988784	0.73331547	0.9126956	-1.4322457	-1.0840552	0.34614646	0.35363832	0.8942209	-0.43042704	-1.0565927	0.008780532	0.54757315	0.36434618	-0.17973988	-0.045248076	0.032929674	-0.92593044	0.11333758	0.2883059	-0.95612025	-0.13708854	0.52920365	0.23417282	0.962147	0.2577278	0.40495402	0.7626463	-0.61356026	-0.5703011	0.69637626	-0.2710931	-0.7401837	-0.28877437	-0.09923777	0.3242756	0.16247699	-0.03668333	-0.04027956	0.5406556	-0.061195523	1.3234304	0.65264696	-0.46694255	0.3717703	-0.29710892	0.6568777	1.4990965	0.12939781	-0.17162156	0.18464223	-0.04809645	0.008493543	0.3134271	0.24798262	-0.52817893	-0.8229673	0.08624686	0.10342881	-0.51639247	-1.3399484	0.17555514	1.1266819	0.79797316	1.3709836	0.55054176	0.68349123	0.40043774	0.3957561	-0.8568445	-0.03739292	0.05358734	-0.4251996	-0.17491972	0.29032138	0.65474105	-0.45207548	-0.6527337	0.15579313	0.27116314	-1.0345216	0.32747343	-1.0274848	-0.753314	0.26958105	0.51575094	-0.6129838	-1.0747991	0.44595382	-0.4869004	0.08197063	-0.5135302	0.36321548	0.5650851	0.87415874	-0.012211084	-0.29417336	-0.030549962	0.7700656	-0.10977176	-0.39992973	0.42950726	0.18443242	-0.2978416	-0.4636902	0.39999467	0.9086157	0.13652351	-1.4035139	0.71997017	0.31628734	0.1899491	0.042898685	0.5435566	-0.12475616	-0.44156155	0.49315867	-0.2737232	-0.6880858	0.4020811	0.42680424	-0.042068414	-0.3272848	-0.46484822	0.5148905	-0.42930067	-0.42162058	-0.29402602	-0.30992937	-0.52480006	-0.57125866	-1.6031928	0.3617236	0.21603288	-0.637326	-0.045021206	-0.5962342	1.4506195	0.6832753	0.43854162	-1.3896879	-1.4032885	-0.009878717	0.16000918	-0.365126	-1.4006562	0.46480513	-1.0224829	-0.2888832	0.40963495	0.3213659	0.7241596	0.060988948	-0.74095106	0.8965807	0.6473124	0.4774052	0.104932554	-0.35849524	-0.62916493	0.8655568	-0.3476429	-0.08602233	-0.18876103	0.0023245662	0.5715917	1.2578596	0.70618117	-0.10593821	1.0338701	1.2657315	-0.111880064	-1.2562687	-0.060733244	0.2515062	0.10637201	0.22571947	0.5492548	-0.155612	-0.3964544	0.42452952	0.08203392	0.10792754	-0.09071711	-0.29951543	-0.5683466	0.2915983	-0.69050664	-0.40087545	-0.1375665	0.4885422	-0.16898459	-0.25181475	0.12891325	-0.8048905	0.5381397	0.10487486	-0.44825402	-0.46205992	-0.9251786	-0.499925	0.21898554	0.35306585	0.92606163	-0.06128951	0.3333169	-0.39017072	-1.064117	-0.6215585	0.50484383	-1.0324377	-0.095815256	-0.6966761	-1.0308481	0.9568058	0.057801396	0.5038353	0.76715666	1.2515421	-0.15801367	-0.5556106	0.2426308	0.12976348	-0.021028414	-0.17567614	-0.19101506	0.043561738	0.48763338	0.0038958117	0.38776952	-0.3111945	-0.65674806	-0.7551647	0.14814477	0.056284055	0.16839693	-0.10120202	-0.18471503	0.9696188	-0.061874323	0.42572176	-0.4297549	0.07228815	0.5216834	-0.44935256	-0.33559716	-0.3546697	0.59256494	-0.51721203	0.050536674	-1.2495688	-1.1413275	-0.5285188	-1.0775871	-0.025108319	-0.4946601	-0.44212332	0.49038795	0.28272918	0.102686346	0.46831414	0.037597805	0.6283043	-0.737053	-0.7243243	0.6040505	-0.49790776	0.1368832	1.2709963	-1.2193866	-0.6414135	0.14455888	-0.5292908	-0.56560993	-0.24091023	-0.167652	-0.28926697	0.08663407	0.1942414	-1.1523703	-0.49038908	-0.107999414	-0.69286907	0.3828882	0.51167434	-0.5104489	-0.7263383	-0.33984882	0.5548343	0.29028505	-0.8516995	-0.072825775	1.0832274	0.63359195	1.1190963	-0.52295846	-0.1060324	0.017061446	-0.034376927	0.22018623	0.10749027	0.13272786	0.8103913	-0.22583999	-0.6553743	1.3723146	0.6756197	0.5911521	-0.23923264	0.20494159	-0.75689155	-0.34020534	0.29255754	0.027912676	0.1921287	1.472733	0.03487736	0.30333388	0.5479047	-0.29373544	-0.6928885	-0.38985732	-0.20990591	-0.09309311	-0.41765526	-0.4078954	-0.3145362	0.43265736	-0.21270333	-0.5785783	0.1278139	1.270398	0.014713999	-0.85957754	0.34280345	0.6245622	0.57139504	0.18752286	-0.21256351	-1.1145462	-0.49992132	0.6698701	0.13602173	0.21022183	0.20151824	-0.77135015	0.25887677	0.37640822	-0.503435	-0.057282783	0.6457226	-0.7076699	-0.7992297	0.48138618	-0.7809757	0.7173153	0.8093546	-0.6256254	1.206692	0.5589608	1.021321	1.0568103	0.25832742	-0.8671012	-1.2287797	-0.52449155	0.006915698	-0.31477675	0.4365837	0.18958744	0.32414237	0.0015435219	-0.25372624	0.047640234	0.39820442	-0.278845	-0.7657969	-0.24454173	-0.49951735	-0.051978998	-0.5766381	0.9190638	0.4481571	0.5548314	-0.75612336	0.39024946	-0.29722205	-0.630751	0.928818	0.5069488	-0.8729442	-0.10009353	0.43440095	-0.69936585	-0.19164747	-0.2186094	0.36214107	-0.7653185	1.2871176	1.1183305	-1.0887209	0.30436975	0.96870476	-0.44334614	0.20049638	-0.83686465	0.653264	1.2707589	0.09874697	0.18909481	0.68352383	-0.57282794	-0.7524552	0.474157	0.36351278	-0.011863466	-0.030102432	0.2584415	0.31121555	-0.2061094	-0.2551501	0.359759	0.8325838	-2.0382712	-0.18722397	-0.8877263	-0.049593315	0.7841139	0.85944754	-0.993379	-0.35736257	0.42356095	-0.76751333	-0.25354376	-0.7623452	-0.79655296	-0.5882312	0.40937448	-1.4786266	-1.1413248	-0.307181	-0.26771113	0.4894374	-0.33469093	0.34131026	0.77101445	0.600121	-0.16654623	-0.7008434	-0.13534392	-0.2625231	0.8336275	-0.20449927	0.79152	0.050749607	0.733782	-0.83671355	-0.3463341	0.16508389	0.19468689	-0.37722924	-0.18024915	0.122083746	0.13294178	0.95911765	-0.39792216	-1.1593392	-0.30017656	0.28726664	0.27983958	-0.5176925	0.09174258	0.47983313	-0.38748062	-0.101892754	0.1804193	1.0960991	-0.011717737	-0.48946297	-0.14118731	-0.56238294	-0.10560247	-0.82933545	-0.33566788	-0.5124729	-0.51804703	-0.27648473	-0.41674316	-0.49532962	-0.38032296	0.17482185	0.71432716	0.021768019	-0.16552827	-1.0409197	0.31790307	0.36766595	0.091735356	0.03692878	-0.1625864	-0.67559165	0.088658914	0.025842637	-0.45832402	1.6008122	0.29436848	-0.20660831	-1.1648686	1.4559426	-0.7784927	0.13719761	-0.51183015	-1.2291553	-0.39449614	-0.48431504	0.17779617	-0.745971	0.67554957	0.8566195	-0.64546806	-0.14515336	0.77386105	0.008188151	-1.171475	0.26736128	0.3257033	0.66552156	-0.121816605	-0.6686318	0.2746681	-0.7959566	1.0785025	0.1182673	0.47975957	-0.43323097	-1.2130541	-0.92235076	0.3329992	0.23893663	0.20427549	0.6968221	0.2770232	0.59363985	-0.06558955	-0.5367716	0.82021976	-0.02157453	0.6395997	0.89595723	-0.45044315	0.09009592	-0.124858275	0.43889564	0.33863115	-0.19400702	0.15734357	0.18622583	0.48918945	0.44375518	-1.3549635	0.19924986	0.7897949	0.10150212	-0.8642671	-0.13022418	-0.47669542	-0.24366584	0.9909878	0.7420201	0.7667025	-0.14198908	-0.8776451	0.18091819	-0.6142277	0.030229632	1.2902647	-0.832184	-0.5855565	-0.18085644	0.6379413	0.6284933	-0.6533827	0.35231403	0.49130976	-1.3174659	-1.0811516	1.280453	-0.90825707	0.555956	0.6741624	0.94645226	-0.06367844	-0.03103239	-0.18192658	0.015311718	-0.42352557	0.7637312	-0.022854492	0.3018673	-0.8054573	0.5503906	0.74933463	-0.17664672	-1.133251	-0.010686532	0.41696322	-0.3611557	-0.27182293	0.4180041	0.019923128	0.12760003	-0.7362416	-0.464253	-0.034588374	0.7121297	1.5448265	-0.36327177	-0.033351466	-1.7054988	0.10713318	0.019380368	0.6673197	-0.59486425	-1.0553625	0.008640707	-0.12064097	-0.47847757	-0.63275796	1.1835682	-0.2603388	0.593853	0.81284314	-0.23583184	0.49376124	-0.26932126	-0.32915244	0.06230169	0.083395064	-0.16424343	0.02970317	0.15755303	-0.097376384	-0.56854093	-0.1552177	-1.408192	0.6847701	-0.13597721	0.1007508	0.3847662	-1.0441935	-0.286274	0.1824316	-0.8399903	-0.23986666	-0.4771717	-0.45825073	-0.4865899	-0.13290174	0.86570644	0.29480916	-0.12775052	-1.2519	-0.025104567	0.30953723	-0.019992597	0.33322096	0.38650587	0.0017281738	-0.32259575	-0.10780527	0.20387343	0.68678087	0.15527518	0.6149291	0.5259136	-0.5247135	0.52884007	-0.95605946	-0.7280313	-0.71513057	0.5343867	0.011396237	0.04469561	-0.012785926	0.69726014	1.2208217	-0.40439776	-0.7131355	0.30624944	-0.55548936	0.29107866	0.31836897	0.4174244	-0.4079398	0.25733215	0.90580004	-0.23752782	0.3454153	0.036132663	0.35991883	-0.68064797	-0.4153742	0.31624746	-0.16498473	0.488532	-0.15453115	-0.17390645	0.39878577	0.4797009	-0.75462717	0.507771	-0.18421386	0.09765631	0.68780655	0.3803324	-0.59209543	0.3483957	1.106235	0.55559355	-0.39281246	0.38947928	0.36049086	0.40103027	-0.73318326	0.06263584	-0.40902123	0.16010481	0.22947529	-0.112555355	0.062492877	0.0525873	0.76747096	0.72657466	-0.6425768	0.3652013	-0.7115716	-0.04101093	-0.6266262	-0.43619168	0.015147641	0.64654595	0.38533103	0.49347365	1.0970325	0.44234362	0.1390368	0.3077826	-0.85432214	-0.44857007	-1.0757582	0.41886008	-0.17928363	0.03800787	0.28061217	0.32629207	0.5576782	-0.5444209	-0.36868912	0.5506221	0.28143877	-0.107081965	0.47384968	0.36432257	-0.7061516	-0.100547604	0.64370155	0.057187393	-0.7287265	0.03633649	-0.6541571	-0.701724	-0.5023308	0.41997182	0.30676606	-0.55679566	-0.6089105	-0.37795433	-0.65916204	0.032849953	0.40407673	0.0943896	0.8464034	1.1216344	-0.1962381	-0.8271557	-1.2256521	-0.87992567	-0.22228599	0.524717	-0.3903305	-1.0110031	-0.7378296	0.3349565	-0.79235625	0.17801294	0.2754271	-1.4159712	0.610119	0.12267317	-0.69790614	0.5155027	0.99865776	-0.73294187	0.11572397	-0.3704577	-0.59242624	0.2714869	0.31823993	-0.50278306	0.40521348	0.38773268	0.6560536	-0.07377668	1.2470993	-0.35110962	0.5097951	0.18612544	-0.2613963	-0.13317554	-0.70253915	-1.3179142	-0.8971925	0.20312315	-0.6382616	0.6788071	0.49916035	0.5316473	-1.4465457	0.6429018	0.46982282	-0.45178884	0.18583703	1.028434	0.54476964	-1.2944278	-0.072703995	0.39858216	-0.30215937	0.61128885	0.1787159	-0.501002	0.21908818	0.89803636	0.047908604	0.16654156	0.3418992	-0.6611905	0.20263104	-0.72176677	-0.499495	-0.0653341	-1.1357323	1.4685698	0.6785543	-0.01954706	0.2884664	-0.15392554	0.6736136	0.55082446	0.4416657	-0.26559806	-0.42813635	0.86171186	0.58393633	-0.5985284	0.303412	0.7493514	-0.09007749	-0.5654907	-0.69931376	0.3270515	0.16428037	-0.06311597	0.4362921	0.04954723	0.21698312	0.21574178	-0.942558	-0.037307844	0.18426526	-1.4534719	0.5203786	-0.651049	-0.12393446	-0.27937925	0.085737094
