G001803285	0.14630526	-0.31942815	0.21167195	1.2117641	-0.66746795	0.07952243	-0.3376483	-0.1764372	0.31861824	0.28712553	-0.020684034	-0.4562238	0.94296324	0.34410024	-0.5167506	0.6605656	0.045331523	0.35959265	0.13483502	-0.32441732	0.75917643	-0.28991508	-0.5369866	0.1503646	-0.24402311	-0.19189343	0.32462868	0.59115577	-0.41141728	0.16507836	0.26732433	0.6988517	-0.23653841	-0.12902969	-0.16236857	-0.25098735	-0.969094	0.28947422	-0.18009046	-0.10299869	-0.17233428	-0.43981984	-0.087378874	0.35527936	0.2975477	-0.9150524	-0.010138601	0.73897576	0.03538841	-0.24482624	-0.2040112	-0.51089305	-0.3956908	-0.81195635	0.9103828	0.42310655	0.27286303	-1.0805621	-0.04840579	-0.114875674	1.5254135	-0.28596947	0.51268774	-0.59750986	-0.859933	-0.4331696	0.915503	1.0226414	0.73245597	-0.12087782	-0.2620545	0.026527315	0.66875714	-0.2944947	0.61662704	-0.25688404	0.36144677	-0.15358657	-0.5418502	-0.64765084	-0.34779388	-0.31607464	-0.5687927	0.2848875	0.654873	0.17856914	0.31872955	-0.8106531	-0.12452443	0.22023746	-0.3582854	0.34459615	-0.6183625	0.65867233	-0.10166353	0.825526	-0.38531667	0.7464349	-0.6837021	-0.07270996	-0.0825229	-0.64835984	1.0594738	-0.71759236	0.0933453	-0.13173158	-0.2818309	0.30381274	0.4103748	0.68946755	0.9311912	-0.07301266	-0.072353736	0.24349892	-0.9617095	-0.1641588	-0.7843517	0.29885593	0.17476754	0.029895633	0.5362189	-0.42042857	0.19569011	-0.42004222	-0.069682136	-0.4804272	0.827584	-0.1300233	-0.6866813	-0.041316286	-0.4367945	-0.16289046	0.26272738	-0.54139745	0.07114429	-0.9504213	1.0073899	-0.3136271	-0.16474631	0.12386769	1.0464057	0.94305795	0.50698113	0.21247135	0.22292535	-0.5181456	-0.36316574	-0.08098903	1.1059904	-0.19108069	0.37601978	0.25734267	0.98919535	-0.14837638	-0.031289533	0.40857023	-0.5378784	0.39925218	0.9525389	0.4234013	-0.43116674	0.1963467	0.23025665	-0.29123408	-0.99475527	0.6144851	-0.53934157	-0.5625631	0.5542767	0.91094464	-0.22347708	-0.21846032	-0.3179033	-0.19023982	-0.08661485	-0.27149284	0.24216534	0.70429575	-0.07429993	0.57475185	0.714552	-0.005240664	-0.46643072	0.28156573	0.05318284	0.55707103	-0.19377978	0.119569734	0.6505798	0.061087534	0.90350085	-0.27120638	0.18298873	0.033101916	0.8498963	-0.13506451	0.14773375	-0.25745156	-0.104972176	0.0033523962	-0.7946051	-0.48388624	0.50858426	0.78860706	0.0740655	1.0031286	0.506956	-0.01001215	-0.032405764	-0.3468594	-0.5463805	0.49380553	0.24121255	0.16627237	0.1542519	0.110182524	0.77865875	-0.7757267	0.9397037	1.1510513	-0.5191706	-0.18586248	0.5596137	0.04382644	0.29361343	0.38302958	-0.14442703	1.1890345	0.76006126	-0.29495233	-0.29675975	-0.11564219	0.26786107	0.94641525	-0.5289974	-0.28944394	-0.2965805	0.17055573	0.01027289	0.22225097	-0.9348595	0.48307586	-0.20067643	-0.33451274	-0.023599327	-0.12752435	0.04983963	0.055432767	0.7803097	0.26665384	-0.5089456	0.2034366	-0.4451684	0.07142618	0.14533526	-0.14715192	-0.2870886	-1.319546	-0.44657183	-0.018550083	0.6011364	0.44219753	0.002277553	-0.9374681	-0.1900622	-0.6280972	-0.16527458	-0.4273783	-0.01827246	-0.14741987	0.82719576	0.2582243	-0.26489434	-0.011620998	-0.36320445	-0.33440202	-0.6776054	-0.30858678	0.66744184	-0.4745313	-0.4527213	0.5471674	0.38318357	0.31661975	-0.15479311	-0.5670207	0.28216305	0.07571554	1.4898131	-0.22461617	-0.072296716	-0.00034865737	-0.5143401	-0.8113841	0.696671	-0.8658689	0.6006862	0.3690418	-1.0960014	-0.096533775	-0.47749573	0.48266578	-0.13376123	0.27572	-0.2816583	0.028113782	-0.34839204	0.7481322	1.1317493	0.80120575	-0.49095142	0.06785968	-0.51839125	0.32197663	-0.0038060248	0.5280775	-0.8477068	0.62022626	-0.3381262	-0.44080448	-0.3821875	-0.098695904	-0.39953882	-0.12433317	0.2675634	0.6911024	-0.82803017	-0.38424468	-0.1552018	0.091297254	0.27538085	0.54565936	0.52877027	-0.23516718	0.24273527	0.20732109	0.5797693	0.085924774	1.187681	-0.057424784	0.34946364	-0.44787812	-0.14846832	0.9934569	-0.9822142	-0.72591543	0.14273685	0.31686577	0.20006575	0.01651606	-0.16259983	-0.4277208	0.23399925	-0.046325892	0.13327727	-0.51892865	0.5407529	-0.3473791	-0.0777259	-0.028733619	-0.7473558	0.14806543	-0.27795687	0.964461	0.8445374	-0.58918333	-0.4250585	0.58399326	0.7451246	0.070942	0.40245253	0.318711	0.7066301	0.03878647	-0.109691285	0.9967847	-0.9635232	-0.0772027	0.74964285	-0.33755565	0.56758654	-0.20228305	-0.046122327	0.14800037	0.2944658	-0.15680793	0.50199616	0.051168814	0.31785908	-0.62488794	0.55954784	0.13045278	0.050936803	-0.14443868	0.050956756	-0.9889424	0.9470556	-0.5225515	-0.08885144	-0.23600392	0.108971626	-0.51109666	0.17057043	0.3507175	0.27865636	0.2189993	-0.98741776	-0.020564482	-0.7693263	-0.07044349	0.2471102	-0.32412532	-0.7913089	-0.0067906305	-0.184163	-0.18221185	0.7297961	-0.3898834	0.62201834	1.0443298	-0.12842123	-1.4902128	0.33621585	0.06671134	0.08615696	0.28357697	0.52210104	-0.043784335	0.17079753	-0.05908051	0.3817109	0.3432592	0.06376134	0.7349818	-0.9477341	0.2573497	-0.41398937	0.8751519	-0.89595056	1.1738578	-0.48809454	0.69767725	-0.23410124	-0.41255873	0.113848925	0.30304974	-0.57489896	-0.575454	0.28166747	0.55731505	-0.13250664	0.1340476	-0.017392874	0.04596202	-0.64996445	0.17727678	-0.12559175	0.5177958	0.63537854	-1.0331882	-0.4062256	-0.49080077	-0.011119276	0.17455417	0.41786015	-0.08660743	-0.7752937	-0.3250627	0.13481459	-0.20599642	-0.7520857	-0.46537632	-0.5753427	-0.29498082	0.32099313	0.6324285	0.17863142	0.22679359	0.03530255	0.048250377	-0.7379259	0.5951154	-0.26084194	-0.079349875	0.2927153	0.71184856	-0.2554691	-0.3110269	-0.5012568	0.09186524	-0.19913155	-0.11052331	0.3196635	-0.3745203	0.5056513	0.23572356	0.56465274	-0.8933273	-0.8492241	0.493307	-1.0401777	-0.90596	-0.26662412	-0.18272819	0.67538404	-0.5511081	0.70170206	1.2755847	-0.4543265	-0.43723905	0.3368693	-0.5520332	-0.67064416	0.15558586	-0.0013561845	-0.12224071	0.32310793	0.00031530857	-0.48949236	0.9318465	-0.34684035	0.85192025	0.6668	0.4789372	-0.09621517	-0.604623	-0.3888472	0.12572724	-0.101386175	-0.46962407	0.34788603	-0.1222302	-0.70659363	-0.43125993	-0.15546846	0.07611388	0.1781429	-0.69342315	0.07860613	0.7792337	-0.48835182	-0.011837065	-0.17605454	-0.04944934	0.1390118	-0.087952554	-0.084703945	-0.38608548	-0.08558124	0.40395012	-0.11477074	0.354141	-0.057429776	0.06849863	0.39277652	0.3143862	0.0576452	0.35950938	0.66965747	-0.22848222	-0.5291269	0.3299418	0.16305453	0.1528577	-1.257844	0.24878937	-0.5728438	0.07232365	0.21033047	-0.6150214	1.2340522	-0.46511823	0.20129651	-0.04564873	0.47428674	0.51042664	0.256605	0.28265882	0.11842971	1.0129724	-0.9122887	0.50083053	0.13846144	-0.23412324	0.09343858	0.22735433	0.7307629	-0.17984818	0.28794578	-0.3755452	0.23848534	0.7144307	0.5690981	0.5816206	-0.050061285	-0.43506658	0.48336732	-0.37460816	-0.17461953	-0.34182614	-0.1589348	-0.4391448	0.5898053	0.3496462	-1.4808774	0.07626763	-0.06153786	-0.03757292	-0.115839995	0.3071688	-0.12242177	0.23148727	0.23532987	-0.26020765	-0.22622922	-0.11228773	0.18088467	-0.41074613	-0.2650495	-0.34127933	0.5347107	0.1311607	0.34600845	-0.37118453	1.3817782	0.7734559	1.470135	0.72148335	0.027036488	-0.16660629	0.3920029	0.44177896	-0.027596533	0.46226776	0.69817036	-0.33067843	0.2862634	0.20810874	0.83296996	-0.56557876	-0.04163915	0.930761	0.10822642	-0.054439686	-1.2779197	-0.45724696	0.86614823	-0.026622817	-0.49437836	0.13529906	-0.19723693	-0.85767955	-1.1962163	-0.6376232	0.055614173	1.0315175	0.1713977	0.21436809	-0.012902513	-0.19144733	0.08900703	-0.4602756	0.021607812	0.5307436	-0.020135775	-0.39828765	-0.7207347	-0.09201214	0.73610115	-0.22677097	-0.8616692	-0.36434165	0.26527148	0.675835	0.96452	0.7357466	0.42209107	-0.0645715	0.32245547	-0.73527014	-0.9381726	0.44132972	0.8904202	0.055093482	-0.53850955	-0.2166534	-0.08058238	-0.27571312	-0.68877125	-0.09945744	-0.22587493	-0.6824625	-0.10914403	1.168977	-0.42568648	0.08800245	0.22299503	0.4688483	-0.43636653	0.52602905	-0.8630619	-0.6721151	0.3016372	0.012864061	-0.42005146	-1.1286854	0.0048385933	0.9547102	-0.53658336	0.7031133	0.7616527	0.60593593	-0.4446897	-0.39256424	0.59881264	0.027210623	-0.34304315	0.452385	0.095824674	0.9955301	-0.13173547	-0.5376276	0.95868844	0.106992945	0.80791897	0.03830175	0.39618713	-1.4261283	-0.16011384	0.033169664	-0.20763157	-0.8954396	0.532762	-0.91811275	-0.13127656	0.7652323	0.079292715	0.11599693	-0.56423205	-0.08696996	-0.87551135	-0.40994504	0.79919267	-0.25366294	-0.38179928	0.109186396	-0.2923998	0.62029594	-0.12959814	-0.83806443	0.42137587	-0.23434679	-0.9244808	-0.23315072	0.09967013	-0.21715368	0.06298667	-0.28249842	-0.52241826	-0.07234656	-0.1076372	-0.78538406	0.19689757	-0.58128613	-0.40356392	0.53179634	0.29990035	-0.89586806	0.2263594	0.33748803	0.22328332	0.36786997	0.20491847	1.0349071	-0.05558178	0.35548353	0.64460635	-0.058258206	-0.46465585	-0.57870126	-0.4500239	0.2805157	0.44630703	-0.24265778	-1.4050617	-0.6333803	0.7074032	0.11196144	0.21632157	0.572489	0.55160713	-0.00025974214	0.5294012	0.32108992	-0.90578103	-0.34934455	-0.21642186	0.5265918	-0.07036641	1.2524643	-1.4299784	-0.18621804	0.6989858	-0.54352707	0.32702494	-0.61713386	1.0522748	-0.3701106	0.46419853	-0.46543276	-0.14907172	-0.0055448264	0.24398977	0.3982219	-0.21290737	-0.11417406	1.0932604	-0.25924388	0.15981336	0.6284983	-0.32055795	-0.32234553	0.5494626	-0.11309988	-0.31614915	-1.5416348	-0.21199693	-0.18929645	-0.8098585	0.6372287	-0.7527103	0.6030252	-0.27443507	0.0053827465	-0.32690766	-0.27128467	0.23037735	-0.1312512	-1.6997664	0.35111648	-0.71834433	-0.7113066	0.53969216	0.49295834	0.0032929182	-0.7724818	0.7238862	-0.8723161	0.18403773	0.2643487	0.016898394	-0.8863878	-0.55402046	0.2029244	-0.19198523	-0.29257154	-0.27559188	-0.017270193	-1.1126207	0.7225543	-0.78767914	-0.8864314	-0.67296576	1.0238073	-0.33953306	-0.68882775	1.1599684	-1.0834988	-0.26176676	0.19893795	0.07610436	-0.20848072	0.3372535	-0.41097397	-0.44616562	0.13330826	-0.37344638	-0.18731903	0.20421164	0.5438192	-0.69829214	0.56130445	-0.49242562	-0.0148129165	0.21975201	-0.1742307	0.43414807	0.20612904	-0.45268208	1.023019	-0.41899952	-0.1849454	-0.5119885	-0.38459378	0.12239623	0.3614269	-0.68423796	0.09797917	-0.49958163	-0.0012503564	0.1729182	0.30910367	0.19790633	-0.26998156	-0.26730263	0.31106067	-0.4989741	0.3143116	-0.4008002	0.44418937	-0.00045471638	-0.47086406	-0.22300582	0.69321024	0.44351247	-0.14518213	-0.14638418	0.6827102	0.2109146	-0.8975563	0.49999547	0.49714887	-0.90054655	-0.40074763	-0.5396626	-0.27451903	0.02147691	-0.37401986	-0.7901366	1.5284488	-0.009019449	0.356247	0.638272	-0.77663577	-0.20816757	1.4394062	0.4087274	0.42993695	-0.8890104	-0.123235665	-0.035203367	-0.2073648	0.29361114	0.34455362	-0.72026634	-0.6296259	-0.07017252	0.25565052	0.09048581	0.07152337	-0.5011041	0.068461835	0.22498523	0.042095095	0.05550137	-0.40433645	-0.5730311	1.1250923	0.26444852	0.023686178	0.69557273	0.46367526	-0.9979043	-0.068155766	-0.55839354	0.23473771	-0.21482807	0.37313497	-0.40689605	-0.0063436627	-0.09508912	0.4991883	-0.30996865	-0.09366833	0.056101292	0.19454844	1.2026999	0.078737125	-0.07664055	-1.1142148	1.0313334	-0.2219908	0.50070417	0.13685921	0.586812	0.022729144	0.17919089	0.29983437	0.4419719	0.29009753	-0.5200373	-0.45875037	-0.43749395	-0.26576835	-0.8429848	0.8165488	-1.0271465	0.43736005	-0.10668814	0.20870203	0.6467737	0.48624504	0.47697654	0.23867805	-0.6301657	-0.5447355	-0.015536532	-0.08080818	-0.2884074	0.40264904	-0.26785824	0.1818539	0.041983247	0.08463572	0.051153988	-0.93292636	-0.9474314	0.28501353	0.20251505	0.7874204	-0.67699146	0.35723633	0.13177058	-0.8570621
G001580195	-0.2701588	-0.35238189	-0.106285304	0.91906285	-0.27795148	-0.09973973	-0.47898912	-0.41389024	0.1869281	0.29094595	-0.051152423	-0.66122794	0.91143125	0.71448624	-0.72416437	1.152089	-0.25463206	-0.10222624	0.14838833	-0.590684	0.6019219	-0.24873853	-0.5052551	0.05666673	-0.006210774	0.15962699	0.65594685	0.79007	-0.7393503	0.55708444	0.18991715	0.81886077	-0.5705559	0.23028177	-0.99983394	-0.45965222	-1.0130603	0.3887122	-0.3714189	-0.6910949	-0.28134418	0.070503876	-0.20304589	0.7289129	0.682773	-1.0037239	0.015152335	0.37416035	-0.61073595	-0.19211736	-0.11621552	-0.49849188	-0.37172854	-0.3896129	0.3595348	0.27805814	0.13771209	-0.9401931	-0.9569468	0.07398635	1.6632322	0.19930822	0.7419323	-0.27581108	-0.93912536	-0.49507138	1.3506931	1.3581581	0.37263554	0.4204856	-0.15281215	-0.44326943	1.0500398	-0.8229642	0.9279865	-0.6264175	-0.090032734	-0.03221093	-0.5068024	0.05573535	-0.12937485	-0.469312	-0.39619225	0.025831722	0.33526167	-0.42326152	0.26131266	-0.7951006	-0.37117946	0.3914827	-0.40737838	-0.015866697	-1.0100158	0.29606244	-0.04215631	0.8083646	-0.66345704	0.23259592	-0.44008893	-0.13539845	-0.22822785	-0.06949827	1.2549641	-0.13658872	-0.030478016	-0.18285303	-0.32750604	0.08366326	0.80738246	0.84542656	0.7695096	-0.27148792	0.113126576	-0.031701967	-1.3943198	-0.41763887	-0.15703467	0.4068499	0.20969523	-0.44578123	0.92638105	-0.5096047	0.3389166	-0.5976002	-0.19279128	-0.8054273	0.6591109	0.13408218	-0.7722635	-0.23763321	0.121739395	-0.0673939	0.054090172	-0.5496149	-0.14237577	-0.69584125	1.2434808	-0.3018015	0.16625558	-0.11347896	1.0484906	0.46047598	0.3141372	0.25519198	-0.020946309	-0.14593263	-0.27647972	-0.21517512	0.9089427	-0.7713982	0.8158697	0.2581915	0.84816146	-0.031123582	-0.24230716	0.29470146	-0.40107313	0.45327854	0.889637	0.4342801	-0.44009632	0.12653615	0.9053143	-0.289567	-0.8650377	0.95456153	-0.15647262	-0.27536082	0.2527958	0.7767203	0.44249126	0.17929748	-0.7480973	-0.8133222	-0.4165881	-0.76763177	0.72204936	0.32669348	0.08240299	0.88693506	0.5486224	0.5506628	-0.32286978	0.077692166	0.12566203	-0.003372699	-0.15822424	0.09499032	0.43997058	0.33485562	0.88993394	-0.14070916	0.19804697	-0.12771845	0.49356782	0.3080647	0.1253506	0.23523557	0.3428973	-0.28857416	-0.44623592	-0.59623414	0.19139427	0.4967443	-0.058591858	1.0715011	0.18341562	0.11773403	0.08554293	-0.20689029	-0.7766824	0.63655335	0.11986816	-0.0399694	0.5077239	-0.014326781	0.6619632	-1.1405797	0.9126979	1.0262983	-0.7525869	-0.53993297	0.9075684	0.19776483	0.9629929	0.18927982	-0.17863165	1.7476283	0.45558318	-0.57095075	-0.37496722	-0.5443487	-0.2894957	0.8392651	-0.60995734	-0.35401663	-0.10889304	0.50769144	0.071024716	0.06785622	-1.3395183	0.7982335	-0.18211241	-0.6662092	0.47385138	-0.023973115	0.32624263	-0.21162009	0.46924788	0.42653817	-0.27919513	0.3468975	-0.073777884	0.1563935	0.18985584	-0.19052905	-0.5539246	-0.7638043	-0.028715432	-0.14329036	0.72061753	1.3287977	-0.12991333	-0.8173169	-0.10170668	-1.1186122	-0.37665272	-0.69602686	-0.1870707	-0.3064587	1.0704763	0.3027777	-0.7143996	-0.4281841	-0.9671213	-0.60122377	-0.64413905	-0.23824269	0.82985926	-0.296462	-0.36348704	0.45491144	0.2332168	0.6497002	0.41421735	-0.7989354	0.4626161	-0.27328926	1.3959372	0.2568941	-0.023676358	-0.09776072	-0.8378794	-0.39827374	0.2071028	-0.576047	0.9884621	0.46093917	-0.6869043	0.109216064	-0.73607934	0.50578916	0.17358743	0.07438353	-0.5757922	0.05205536	-0.74103284	0.70901453	0.99335665	1.0724405	-0.4156986	0.020448782	-0.6991203	0.9514899	-0.32058987	0.69082516	-1.480866	0.18166128	-0.33863494	-0.030198708	-0.42865396	0.17440331	-0.6937683	-0.25186813	0.34617203	0.12026132	-0.46067524	-0.6235825	-0.49083224	0.47939488	0.3532578	0.3172567	0.584681	-0.0842665	-0.06145171	-0.13182755	0.20388718	-0.22586459	1.3946166	0.029191338	0.71722686	-0.6572577	-0.08925095	1.2233953	-0.52248937	-1.1767658	0.37233263	0.45271477	0.46008393	0.40756392	0.014603078	-0.3250283	0.64218366	-0.25594854	0.21140641	0.20925304	0.54321337	-0.24196197	-0.20214272	0.16834904	-1.0190685	0.446783	-0.55555487	0.7353234	0.8136024	-0.3866332	-0.2091986	0.62244666	1.0472312	0.30030066	0.4639779	0.10223687	0.5502814	0.31856796	-0.14348404	1.0265563	-0.9000615	0.14430496	0.6808965	-0.26555192	0.17168182	-0.43981278	-0.07403629	0.17234603	-0.050674707	-0.4485898	0.792518	0.09427801	0.035028227	-0.72625864	0.8458526	0.43524885	-0.21123853	-0.117830575	0.41091174	-1.025134	1.3468235	-0.4078326	0.31965658	-0.20020083	0.52405316	-0.272721	-0.07969618	0.4492999	-0.5530993	0.15178882	-0.8787909	0.090021424	-0.74911976	-0.43824664	-0.039261423	-0.0641917	-0.45355606	0.24082118	-0.13707018	0.017190576	0.62462234	-0.60518974	0.5519308	0.8650881	-0.4729436	-1.2381756	0.5668995	0.017509073	-0.16857356	0.36811787	0.18233763	-0.0051863045	0.56303155	0.003610611	0.580192	0.6439935	-0.025081292	0.51931524	-1.1080569	0.68825203	-0.86960673	0.6120628	-0.7275185	0.9147388	-0.1451172	0.26614776	-0.2027215	-0.012275577	-0.3151647	0.10884008	-0.28717238	-0.94654167	0.4206725	0.9036771	-0.053543374	-0.025468491	0.24570328	0.22553453	-0.44204205	0.19182895	-0.39532885	0.68021744	-0.008676857	-0.08566484	-0.63170195	-0.34139374	-0.35486457	0.02812025	0.038256697	0.07805509	-0.49456215	-0.39586064	-0.17903727	-0.044093102	-0.799168	-0.6726316	-0.4734491	0.084983855	0.73492754	0.606928	0.048840538	0.3280381	0.3664212	0.011410788	-0.6265215	0.22915468	-0.06397284	-0.6792029	0.041036963	0.43435088	-0.0147616565	-0.094008446	-0.12352455	0.18166402	-0.4656685	-0.1862686	0.24624068	-0.42809457	0.38157552	0.117466986	0.5630348	-0.72079927	-1.168649	0.71173465	-1.037077	-1.3984325	-0.66919994	0.24641898	1.2773087	-0.19590968	0.52672523	0.69097245	0.05164075	-0.4685912	0.56359076	-0.16254324	-0.34557065	-0.1825098	0.20162314	0.18846256	0.23233773	-0.23671873	-1.2246187	1.0984397	-0.23047219	0.41693255	0.58435416	0.5850003	0.52516276	-0.39543873	-0.8494298	-0.11682217	0.2263119	-0.31564838	0.16822869	-0.0080281645	-0.2543629	0.17138213	0.15122293	-0.10450116	0.56848204	-0.09237307	0.16266742	0.7400465	-0.38840288	-0.44247556	-0.12570792	0.04286664	0.11849895	-0.30567724	0.27625445	0.0007906854	0.011333033	0.82037467	-0.81358343	0.28974512	-0.519114	0.15896082	0.26839298	0.35573354	0.16564322	0.48554316	1.0439984	0.31877255	-0.06302832	0.39573336	0.22709289	0.06099102	-1.0644217	-0.24826373	0.108674206	-0.28625706	0.14091884	-0.68195724	0.46262205	0.12636119	0.45617914	0.19144621	0.73763007	0.72485924	0.0015384108	-0.43136412	-0.31770083	1.144027	-0.6229359	0.53853697	0.09120092	-0.08241777	0.017999947	-0.07084465	0.527985	0.24902625	0.14459637	-0.3502093	-0.3094965	0.47659034	0.6700705	0.31348133	0.33236238	-0.21165952	0.5971972	-0.25859907	0.08467278	-0.35901856	-0.2266861	-0.36852276	0.4247799	-0.18197	-1.2835852	0.5250681	-0.2384648	-0.121672094	-0.40990135	0.14342988	-0.47347572	0.16496024	0.15040293	0.09212821	-0.67359114	-0.10229625	-0.33820277	-0.34154993	-0.24023502	-0.03947559	0.68708825	-0.07682654	0.28174952	-0.23031281	1.4242582	1.227769	1.0919151	0.9812509	0.023334697	-0.23811331	0.36592734	0.6389713	0.22903582	0.17331801	0.49859524	-0.23637576	0.62890345	-0.2125192	0.6531954	-0.4831327	-0.07595928	0.95605105	0.07541321	-0.045004196	-1.3191261	-0.16749884	0.6411289	0.07851946	-0.14638203	0.18885633	0.22964698	-0.60586685	-0.9077562	-0.46800455	-0.22046193	1.1460508	0.4634351	0.2323417	-0.0091970265	-0.62116146	0.22642268	-0.25162154	-0.3794309	0.65396905	-0.257994	-0.5251746	-0.62892926	-0.1950475	0.57806146	0.045986682	-1.2061267	-0.73700666	0.35929298	0.4192319	0.8993072	0.74200964	0.16615649	0.23215047	0.7559159	-0.5992055	-1.3396876	0.1492855	0.7218921	0.13877398	-0.7580243	-0.535735	-0.4314487	-0.39048404	-0.68889034	-0.3640253	0.04088196	-0.4150573	-0.2977196	0.46378374	-0.6197406	0.17658357	0.017862529	0.6444313	-0.6336688	0.15385967	-0.6278441	-0.78417397	-0.1497936	0.30779335	-0.46063927	-1.0871484	0.29546687	0.75868475	-0.0028333217	1.0338447	0.109322384	1.1419835	-0.02949059	-0.5936368	0.5735117	-0.25667325	-0.46604085	0.72664726	-0.12904358	0.9930768	-0.36844003	-0.32735604	0.23313648	-0.119352534	0.9496281	-0.14272313	0.817713	-1.236391	0.28811312	0.18144834	-0.07476897	-1.0024613	0.37881136	-0.6878699	0.1442375	0.9432101	0.31069666	0.62392354	-0.3663761	-0.44390672	-1.0636642	0.006259203	0.45994255	-0.21695766	-0.49697584	0.23700231	-0.18431285	0.677038	-0.4565942	-0.31239015	0.66559595	-0.51438665	-1.0587239	-0.24851148	0.25580895	-0.40190834	0.29015565	-0.11774692	-0.44016472	0.7773416	-0.2546105	-0.45350236	0.11001992	-0.55401176	-0.723406	0.22576833	0.7602954	-1.1457803	0.083529845	0.20776275	0.047580242	0.4355095	0.3335688	0.8210183	-0.13970464	-0.23948568	0.22125493	-0.1914402	-0.24732718	-0.83847433	-0.35179403	0.36542886	0.8162789	-0.92870164	-1.5619925	0.016009852	0.6214603	0.6299894	0.6483619	0.3224365	0.66936946	0.3847552	1.1916358	0.5020881	-0.9028678	-0.33530435	-0.44821525	0.33106017	-0.1498065	1.6646085	-1.0940707	-0.19692376	0.65112865	-0.56413376	0.3514521	-0.9872497	1.070236	-0.2251918	0.068775475	-0.2237047	-0.049749374	0.6108433	-0.11699787	0.035499454	-0.32307148	-0.12115325	1.1593857	-0.08624077	-0.35106644	0.8549348	-0.03903002	-0.054538637	0.33325392	0.2069937	-0.30530208	-1.6820974	-0.4468946	0.048236817	-1.0918723	0.59639144	-0.22957718	0.81756586	-0.755612	-0.50232506	-0.08448301	-0.37789884	0.23515883	-0.2524931	-1.5369015	-0.11343241	-0.45041597	-0.43904376	-0.1200591	0.48213962	0.2306035	-0.7273616	0.28195268	-1.1532893	-0.41023034	0.73958683	-0.42901546	-0.68872267	-0.7890808	0.21482316	-0.26955867	-0.12860613	-0.22643858	-0.24769798	-1.3934894	1.0888243	-0.8846259	-0.8425907	0.12037133	1.1903925	0.083797544	-1.5148065	0.9315573	-0.9360158	-0.58320475	0.57992494	0.2698329	-0.3856412	0.5129485	-0.51522577	-0.714748	0.0960367	-0.18353283	0.5444745	-0.00057558715	0.11782649	-1.0019612	0.23124172	-0.5657135	-0.08155355	0.29059145	-0.49102336	0.20927763	0.61325026	-1.011202	0.74865264	-0.6189997	0.017484233	-0.33402947	-0.42823535	0.10061853	0.37244707	-0.49201882	0.18073069	-0.45239073	0.24430029	0.14566809	0.5889568	0.14456382	-0.54800403	-0.46420637	0.48022768	-0.62339056	0.11405009	-0.7755489	0.66093546	0.03944438	-0.31434655	-0.3333161	0.7188395	0.3224253	-0.3705585	0.35019007	0.8653306	-0.11821246	-0.9375488	0.34880298	-0.09843591	-0.28649282	-0.64872694	-0.4280875	-0.37865517	0.13857272	-0.48676047	-1.2260004	1.2968078	0.35327357	0.7181345	0.377676	-0.81408596	-0.19186231	1.0788441	0.40831846	0.13135928	-0.9467875	-0.58252144	0.3812129	-0.5094697	0.6265382	0.22477397	-0.5442506	-0.60798657	-0.48560116	0.5785309	-0.10938441	0.23224458	-0.6612032	0.9957353	0.5181233	0.11654337	0.24399686	-0.80875623	-0.25768948	0.7962273	0.033864595	0.54088736	0.47632512	-0.006203741	-1.0725698	-0.5197211	-0.6775298	0.21088989	0.24621402	-0.16615647	-0.27748144	0.13507068	0.5528248	0.7026733	-0.714347	0.49452826	-0.24127199	0.30267137	1.25949	0.36084569	0.2991975	-0.87983084	0.9304503	0.117846414	0.5500146	0.54823214	0.7870363	0.25840074	-0.047464073	0.18976013	0.53186065	-0.1733568	-0.15829253	-0.4496746	-0.5840325	0.014101744	-0.82403123	1.1031471	-1.001456	0.28880736	-0.25172383	0.1216065	0.7035198	0.45060766	0.5948602	0.28662392	-0.5784029	-0.74920857	0.09080231	-0.34957173	-0.3197426	0.4666484	-0.48589528	0.85598946	-0.22929962	0.14059271	-0.06332288	-0.9064529	-0.6661023	0.24430442	0.14609143	0.851456	-0.8367565	0.8297723	-0.21694511	-1.0750811
G000378105	-0.5785433	0.0069390386	-0.22793135	0.71637404	0.066058666	0.4434484	0.3009306	-0.61619896	-0.5494805	-0.27298295	0.062226325	-0.9097268	1.0667251	-0.19008513	-0.38778892	0.29165617	0.3342624	0.48035884	0.68835443	0.08005548	0.43002725	-0.18977909	-0.50163573	0.43716142	-0.09499304	-0.55789953	0.4198599	0.08128163	-0.30504623	0.34591186	0.8568202	-0.18547523	-0.5918371	0.1978184	0.053351298	0.35522568	-0.4033833	0.29366887	-0.837281	-0.2684325	0.37088424	0.1099881	0.29290575	0.52403224	0.6187017	-0.608981	0.1937871	0.5871944	-0.12744856	0.28520414	-0.14032584	-0.2121824	-1.2594861	-0.9887059	0.21406734	0.28102463	0.3500456	-0.3827154	0.030623488	-0.55169356	0.38692656	-0.32363963	0.48771346	0.08490975	-1.3618155	-0.64559704	0.3988204	0.44574934	0.35238922	0.48236442	-0.5103665	0.00089392066	0.68866575	0.051355682	0.2994115	0.83973247	-0.20353359	-0.017210081	0.13885003	-0.539475	-0.94308466	-0.03966844	-0.10929484	0.72536176	-0.06706482	-0.3230575	0.15172043	-0.4012798	0.3910042	0.969579	-0.18440881	0.5229173	-0.69339085	0.48434752	0.072244346	0.6079954	0.18192557	0.69600064	-0.5520672	-0.10227409	-0.19606468	-0.02195251	0.1781913	-0.8393837	-0.15991284	-0.82033443	0.30043525	0.34457317	-0.087915786	0.9858272	0.35830218	-0.20350292	-1.0188044	0.024007991	-0.67937046	0.09176503	-0.16118555	0.60922927	0.117336124	0.44677964	0.36400166	-0.33048302	-0.09670918	-0.27472305	-0.08403191	-0.16696951	0.6969624	0.14363316	-0.6200736	0.43902454	-0.11646354	-0.10971449	-0.24320602	-0.8124181	-0.032664254	-0.5485441	0.83712775	-0.084571704	-0.1391321	0.15331285	0.8241682	0.68270296	0.7999891	-0.094823286	-0.19546613	-0.8504969	0.29715937	0.0016322285	0.3192227	-0.3933124	0.021384835	0.4813785	0.18179813	-0.19343859	-0.0961858	0.69025445	0.2814114	0.101480424	0.44324502	0.25605592	-0.23790845	-0.101619236	0.14414687	0.022380829	-0.5304148	0.64718366	-0.781906	-0.12451956	-0.17213297	0.21623233	-0.7660881	-0.0802868	-0.316054	-0.23818137	-0.33520806	-0.16497889	0.039678924	0.4228074	0.029625013	0.019803375	0.74658585	0.12739947	-0.6840702	-0.112718895	0.21574302	-0.2356912	-0.78672475	-0.17548335	0.3310783	-0.4172296	0.35018775	0.4373283	-0.16626042	-0.30736417	0.4228364	-0.43315947	-0.06134154	0.29023206	-0.29983455	0.10758484	-0.20289382	0.0046698153	0.6072849	-0.07193059	0.14081904	0.20700291	0.2836804	0.1455474	-0.72086006	-0.5328142	-0.10166511	0.90477955	0.12369184	0.77251357	0.25498375	0.4758443	0.14903513	-0.8060163	1.118628	0.5432973	-0.16054943	0.025457762	0.0147462785	0.382945	0.13799918	0.2963003	-0.10188392	0.6037222	0.6504767	-0.39622712	-0.37138575	-0.56541777	-0.4439209	0.9773245	-0.120064914	0.3200426	-0.089637026	0.598957	-0.15327866	0.026772082	-0.6867893	0.29962796	0.07471132	-0.04898203	-0.0049458668	-0.030302174	-0.40710583	0.14077339	-0.026361063	0.46491894	-0.30686295	0.586615	-0.09140423	0.15033136	-0.4887056	0.24030036	-0.47992137	-1.1908934	0.18791099	0.45689392	0.7725309	0.47802413	-0.47309974	-0.71198654	0.27066305	-0.43292737	0.19007955	-0.36577347	-0.58360934	-0.13053158	0.4315568	0.09851896	-0.44891497	0.35993373	-0.75168	-0.17247364	-0.35164735	-0.076006025	0.26897505	-0.6936039	0.2671758	0.26138747	-0.27479523	0.1925885	0.1294094	-0.41895565	0.6119468	-0.49190068	1.1650424	-0.0755108	-0.8387252	-0.5120521	-0.66342914	-0.55650735	0.32086813	-0.52814996	0.5687958	0.1671675	-0.009126671	-0.5732981	0.30698127	0.24197179	0.31433228	0.41637236	-0.24638033	-0.053949416	-0.12158057	0.08194871	0.22841454	0.4656798	-0.72488153	-0.22713837	-0.35522485	0.15671027	-0.65205586	0.53684855	-0.30761775	0.7156557	-0.06510001	-0.24223377	0.4656381	0.47818494	-0.3375784	-0.26159838	0.7681817	-0.30509025	-0.6202636	-0.4751015	0.013668612	0.23534247	0.8485513	0.6982688	0.22318459	-0.120049864	0.21209659	0.22733216	-0.06484161	0.37971655	1.54855	-0.24040763	0.21927477	-0.46965396	-0.033538356	0.055480093	-0.5610982	-0.50697017	0.36857095	-0.08707143	0.06242472	0.14655437	-0.15610756	-0.39641988	0.15567619	0.22983442	0.54251754	-0.59892946	0.010925069	0.52206254	0.15042531	0.049337283	-0.6469293	0.31687227	-0.0629237	0.37105334	-0.06574398	-0.07277824	-0.1958774	0.104340374	0.397943	0.073022224	0.5141096	0.45837635	0.30065346	0.15839066	-0.047027126	0.3589606	-0.0012904853	0.2448793	0.11071137	-0.30018872	0.44344988	0.17193638	0.143365	-0.4161835	0.7412504	0.3715609	0.028460182	0.06455696	0.22265103	-0.59663844	0.41770667	0.33445102	-0.3953587	0.13089831	-0.23596421	-0.013596028	0.45493367	-0.42306882	-0.29052734	-0.28634602	-0.19616255	-0.37774396	-0.03743142	0.3842074	0.25707087	0.043422848	-0.40801346	-0.058391735	-0.71809	0.26156682	-0.28695962	0.51774806	-0.37945098	0.27727348	-0.37544125	-0.31515735	0.5013785	-0.026476607	0.66858304	1.1137637	-0.05696989	-0.96994376	-0.12589532	0.06787023	-0.13073274	0.94550014	0.55242014	0.4763338	0.38455114	-0.32668647	0.040734947	-0.48740357	0.9036317	0.24108022	-1.2405376	0.007714197	-0.1837377	0.21595353	-0.81150514	0.1983519	-0.30277586	0.32190156	0.12780242	0.30578345	0.40140378	0.5818728	-0.24050832	-0.6481321	0.50074303	0.5968182	0.24625784	-0.0034784377	0.7428187	0.26273298	-0.01739198	-0.105745554	-0.79295516	0.5901879	0.31203505	-0.007553393	-1.0198841	-0.8678727	-0.10960252	0.092918426	-0.3040106	0.24682829	-0.13846144	-0.72084427	0.5453004	-0.023973107	-0.36727655	-0.97919124	-0.42287654	-0.7641251	0.074803114	0.67012125	-0.03720559	0.3288465	0.40574753	-0.58554626	-0.7051233	0.42904586	-0.27271125	-1.105938	-0.23911265	0.6072965	-0.4185031	-0.07184869	-0.9176348	0.86817795	-0.78333163	-0.1844796	0.35305977	-0.06254455	0.3279835	-0.0045298636	0.31852674	-0.09537147	-0.89588815	0.9548596	-0.65114045	-0.6006935	-0.33635986	0.008041069	0.42403167	-0.1793592	0.55156773	0.71703166	0.13657062	-0.08553131	0.25800443	-0.3929772	-0.18321642	-0.04608068	-0.35559446	-0.3253488	0.26893067	0.38351828	-0.88096213	0.11268612	-0.51247877	0.5784204	0.1452685	-0.035691917	-0.0696068	0.27771008	-0.76671886	-0.15461394	0.08262509	0.079873	0.5757797	-0.3580476	-0.29711676	0.031940147	-0.20710927	0.5155705	0.13013853	-0.44727367	0.18331102	0.34263974	-0.15439689	0.47610593	0.052240565	0.594669	-0.5079489	0.2921108	0.09379599	0.26372832	0.27197176	0.1255663	-0.21861833	-0.29916042	0.0010757744	0.72651905	0.009577274	1.244392	0.118967324	-0.25427145	0.8832304	-0.7043688	-0.31433284	0.49654913	-0.19978365	-0.04641016	-0.6181483	0.0808592	0.18551461	0.4459984	-0.36714333	0.14436984	0.78002095	0.34101385	-0.13403201	0.67270416	0.37927192	0.39381924	0.36032313	0.106364846	0.37751997	0.6195375	-0.57769954	0.08048785	-0.13493335	0.32783687	0.6971688	0.14874253	0.0024937876	0.029665321	0.45784396	0.04869874	0.42367318	0.55121934	-0.08942872	0.710762	-0.11668801	0.046661608	0.14204007	-0.007148899	0.17435975	-0.4389447	0.14850509	-0.32158953	0.8650953	-0.045391396	-0.55736846	0.056252778	-0.052777782	0.4683383	0.59757566	0.34248266	0.39993155	0.22134297	0.15467918	-0.025170818	-0.12044109	-0.07701051	0.5039394	0.1871956	-0.043303825	0.16161907	0.58858335	0.16083153	0.64415014	0.28729492	1.5540227	0.12108199	1.1894362	0.1464709	-0.026187032	-0.21594556	-0.111281544	0.2267609	-0.23089841	0.94179845	-0.050388627	-0.8859513	-0.086188205	-0.13784018	0.5798956	-0.52575916	-0.47378075	0.67258203	0.12994394	-0.24918485	-0.68205285	0.37611565	0.9131516	0.09806414	0.03400755	-0.50867796	-0.257175	-1.233856	-1.2642722	-0.45142165	-0.8192433	-0.044164777	-0.4440589	-0.14302108	0.75247705	-0.50369996	-0.054202378	-0.8543832	-0.19463512	0.30635574	0.19532484	-0.6967849	-1.0265776	0.11335918	0.4875186	-0.16977492	-0.7765596	-0.32363486	0.074824706	0.04459524	0.4678709	1.2803855	-0.30114233	-0.21135545	0.2215859	-0.0829186	-0.6298979	0.73226756	0.079782985	-0.8692637	-1.352412	-0.3901585	0.13178658	-0.5762248	0.33907285	-0.103807926	-0.40446275	0.12554556	-0.12540457	0.55484074	-0.26583716	0.22677533	-0.118892044	-0.50005955	-0.40802714	0.33349144	-0.066409424	-0.3135478	0.36265737	0.8843453	-0.62610793	-1.0683997	-0.03895648	1.2350535	0.21460184	0.65213066	0.048046917	0.4748481	-0.55933756	-0.50320196	0.031888396	0.48357388	-0.34904528	0.2553801	0.09419134	0.43803352	-0.0880606	0.29700214	-0.07244659	0.2392814	0.35916796	-0.30416697	0.64105535	-0.39774233	-0.3402285	-0.32781783	0.046722986	-0.21834022	-0.16813025	-0.33182737	0.040418014	0.18776645	-0.07952194	0.099387646	0.06491723	-0.23708765	-1.0785778	0.1967906	0.871663	-0.23293957	-0.056019306	0.53755057	0.8362428	0.414981	-0.14247614	0.07461116	-0.0831369	-0.4238345	-0.70408916	-0.19024292	-0.3377052	-0.6542935	-0.22249259	-0.034482494	-1.0136056	0.040117398	-0.5600519	-0.7351101	0.20038557	-0.30855682	-0.14660831	0.5368287	0.08355421	-0.4161721	0.046571825	0.77124584	0.5833258	0.540205	-0.09654468	0.25352603	0.012095362	-0.1936946	0.46772337	0.15351634	0.328436	-0.6835687	0.007856324	-0.08386332	-0.3140088	-0.7503865	-1.1402557	-0.27080768	0.31884477	0.11811038	0.8016031	0.7199734	-0.1504231	-0.11947063	0.965671	0.17985073	-0.46267048	-0.45605895	-0.5401064	-0.16494659	-0.13308911	0.53497577	-0.43799207	0.2324566	-0.19685405	-0.4397455	0.414221	-0.6240175	0.7653433	0.22758004	0.1336161	0.004748944	-0.33839378	0.28671965	-0.061995633	0.72704697	-0.13597623	-0.35366434	0.9540713	0.1624888	0.3359828	-0.024922282	-0.467682	-0.25894016	0.32701218	0.5052272	-0.45843738	-0.6510158	0.104763314	0.529038	0.13730018	0.050368756	-0.6154136	0.039737314	0.047058567	-0.3369609	-0.15195602	-0.66449815	0.1543697	-0.39111245	-1.2958709	0.61584365	0.60482943	-0.4587418	0.82013494	0.90311664	-0.4328351	0.12225712	-0.2134701	-1.3685312	0.13935709	-0.35375684	-0.4612816	-1.0509195	-0.1981598	0.13410784	-0.41176856	0.21044391	0.17012054	0.13460998	-0.75529826	-0.12474707	-0.67590445	-1.0467676	0.35642117	0.52504045	-0.11688843	-0.44036126	0.79393756	-0.25128806	-0.2617764	-0.10235891	-0.36805683	-0.22600627	-0.07021969	-0.7401416	-0.37431705	0.63212097	-0.1897169	0.54136705	-0.37741274	-0.20771454	-0.2813512	0.3443764	-0.68112946	-0.0060248077	-0.34224683	-0.17492019	0.2769323	-0.08247905	-1.0443318	0.60006374	-0.24406984	0.24548393	0.20625302	-0.03712879	0.3969952	-0.01551988	-0.4913475	0.09802629	-0.7870732	0.24465998	-0.28351668	-0.02870877	-0.44525152	-0.2804342	-0.32099125	-0.05650921	-0.8597346	0.35711986	0.14115989	-0.20861337	-0.18624286	-0.28814718	-0.18042913	0.32167643	0.14952883	-0.43726987	-0.49241316	-0.3332191	-0.02368845	-0.34606338	-0.21276002	0.04262665	-0.13829726	-0.12065421	-0.1925269	0.17301455	-0.49764177	-0.026579434	-0.3349029	0.9583882	-0.12755635	-0.0005197525	0.835186	-0.42415535	-0.32716355	1.1128991	0.4002546	-0.28653446	-0.16411525	-0.008937571	0.06545928	0.25722122	0.25532696	0.78925824	-0.62104845	-0.4147057	-0.577196	0.33873188	-0.5193215	-0.061764397	-0.22373894	0.39953417	-0.41606495	-0.27277905	0.4649614	-0.5344944	-0.58919847	0.8083261	-0.32416663	-0.47907424	-0.38061726	0.3271351	-0.60605687	-0.50030667	-0.1740053	0.17254092	-0.27121028	0.76112926	0.080439776	-0.0031262338	0.53123283	-0.45627543	-1.0973799	0.42338952	-0.21196435	0.26731014	0.12589635	-0.22795776	0.41778356	-1.1274625	0.6793717	-0.6078529	0.083613336	-0.16310064	0.632242	-0.10726395	-0.29585296	-0.28814816	-0.8044236	0.13923034	0.2999951	-0.5252091	-0.122192696	-0.21182999	-1.127991	1.1622787	-0.12030551	0.1485751	0.006103784	0.19079357	0.14556031	-0.3970273	0.0005334765	-0.2602076	-0.8250824	-0.7526303	-0.05008948	-0.39535594	-0.37462035	-0.0057860613	-0.103975385	-0.24181564	-0.06599066	-0.5090545	0.28575075	-0.91242874	-0.334908	0.079741925	0.2562468	0.88295496	-0.34178546	0.1128885	0.25704658	0.016330808
G000172555	-0.29497623	-0.01015389	-0.13626507	0.9111103	0.030427754	0.30783874	0.054301754	-0.25286055	-0.18478543	-0.23680522	0.1015869	-0.7893364	1.3197954	0.1843228	-0.34774798	0.5332481	0.012485668	0.4721455	0.46042633	0.26302195	0.4026448	0.037236154	-0.52962077	0.2839945	-0.23001546	-0.42486325	0.5318697	0.46870732	-0.3722708	0.29833242	0.5451807	0.18090996	-0.5004641	0.051827878	0.041578412	0.19367293	-0.49339896	0.027923346	-0.4732542	-0.1312603	0.17816749	0.082270876	-0.0019460917	0.46094894	0.33021903	-0.84696835	0.40222204	0.6802803	-0.018438905	0.21857819	-0.45717257	-0.4901566	-0.9655272	-0.9588433	0.35099077	0.5163535	0.37679267	-0.7402869	-0.0007367283	-0.27751836	0.7623906	-0.14862263	0.46440732	-0.11529742	-1.201083	-0.68810606	0.78057086	0.93245804	0.5772432	0.20810935	-0.41450846	0.115605466	0.92051685	-0.3670002	0.38531256	0.26460993	-0.34607145	0.1532357	-0.17965674	-0.39669633	-0.5991521	-0.12658972	-0.25541076	0.48005676	0.1015883	-0.28590176	0.05123969	-0.5230031	0.23694918	0.6644119	-0.20914544	0.15822211	-0.6223407	0.8325789	-0.033881485	0.8280949	-0.07174687	0.5610118	-0.61900485	0.048745938	-0.12171599	-0.18743917	0.50591826	-0.50293213	0.15004599	-0.6741748	0.014143556	0.3057474	0.1578941	0.7283404	0.5600869	-0.015186042	-0.67376816	0.15756023	-0.989075	-0.2764313	-0.34150684	0.41316202	0.19413467	0.12034883	0.599686	-0.28790492	0.090184785	-0.21565178	0.024061825	-0.45055643	0.7267137	0.291071	-0.48662266	0.34248894	-0.109968826	-0.16151543	0.074399635	-0.77660644	0.17327309	-0.632359	1.0319655	0.24687828	-0.20573908	0.05936417	0.9308804	0.61313444	0.73311466	-0.07184637	-0.2649593	-0.41619238	0.10575303	0.08832164	0.671872	-0.41831517	0.39294988	0.3254023	0.15656826	-0.09324214	0.088071436	0.64815646	-0.0058018565	0.29359192	0.6916936	0.14820367	-0.42325032	-0.009637848	0.11340479	-0.031180218	-0.63329995	0.61096513	-0.76787204	-0.24980251	0.00047557056	0.4799386	-0.65633905	-0.1487686	-0.38421965	-0.3224262	-0.2640298	-0.51888275	0.38228258	0.7013658	-0.21788941	0.34343445	0.64624155	0.037789896	-0.53818655	-0.15867344	0.13306548	0.044325322	-0.42956957	0.18653047	0.17849508	-0.35815495	0.66422766	0.32170367	0.05777209	-0.23283179	0.5237597	-0.06837864	-0.051846005	0.200687	-0.38485914	0.08780317	-0.26837122	-0.21388656	0.51947486	0.14922127	0.16130787	0.49212867	0.36385602	0.34322757	-0.39919156	-0.46770206	-0.45262277	0.419534	-0.05881837	0.68422943	0.2501661	0.29954147	0.57343733	-0.6330355	1.0006154	0.88782144	-0.24839881	-0.07302504	0.2977022	0.38343224	0.42254633	0.27270508	-0.18329656	0.92128074	0.37225336	-0.4185089	-0.2500735	-0.598452	-0.18512206	0.92086256	-0.23237555	0.03132716	-0.2386317	0.59541905	-0.11948707	0.119011804	-0.9397235	0.40449792	-0.0017555729	-0.0067898184	0.0882099	0.09079797	-0.2089477	0.124174625	0.13546528	0.41427916	-0.29538685	0.40980798	-0.18772328	0.09083012	-0.32780412	0.08554584	-0.41408676	-1.3208435	-0.0016493164	0.3021167	0.7076905	0.41200015	-0.37507388	-0.90401506	-0.06467083	-0.5189256	-0.08366281	-0.36007142	-0.25002587	-0.25000906	0.6712397	0.034649566	-0.3743083	0.16332878	-0.579899	-0.17809004	-0.20725384	-0.20913368	0.3637266	-0.42289397	-0.112220496	0.22208345	-0.1089067	0.053966254	0.19824857	-0.4952252	0.48704824	-0.28867733	1.2741224	0.030276269	-0.4865441	-0.35495716	-0.66494715	-0.44593585	0.3710763	-0.5214927	0.3076567	0.25076002	-0.37309662	-0.24484721	-0.2190847	0.52165186	0.09550014	0.4036607	-0.15348056	-0.16262268	-0.016714409	0.36309195	0.48455307	0.59110796	-0.83868957	-0.06930336	-0.5665451	0.08610535	-0.36702538	0.6130161	-0.5669347	0.74143386	-0.12667572	-0.15493175	-0.049030542	0.16531108	-0.25177687	-0.24926475	0.45971853	-0.060615793	-0.66023934	-0.49056637	-0.10277682	0.055103794	0.6286143	0.6830274	0.2028133	0.063145965	0.3149855	0.43116838	0.13973677	0.44063196	1.3915418	-0.27133372	0.21024223	-0.39355725	0.19507377	0.46430153	-0.7408778	-0.7292563	0.23275469	0.15856779	0.25578237	0.039605945	-0.065002285	-0.061739147	0.22929302	0.097833574	0.28764778	-0.3912659	0.082516134	0.055001795	-0.27597025	-0.023360528	-0.53615797	0.1142894	-0.23862427	0.41411823	0.015421819	-0.20239452	-0.2781044	0.23969603	0.713446	0.14091645	0.65466374	0.06856234	0.16011529	-0.035075694	-0.15102924	0.57765174	-0.2303133	0.20406428	0.22000772	-0.2980395	0.52695364	-0.31864068	0.20234647	-0.16061707	0.7077694	-0.013825417	0.15693626	-0.058426395	0.12892288	-0.39649773	0.6532726	0.3296349	-0.2683301	-0.021584839	0.008960038	-0.49479446	0.71662104	-0.6001208	-0.06504239	-0.33045036	-0.000825949	-0.39249718	0.08824094	0.4650035	0.046761975	0.05057867	-0.7280123	0.059444755	-0.8307458	0.10749312	-0.13259077	0.3090968	-0.56675136	0.16834432	-0.323518	-0.28201908	0.40489006	-0.00731951	0.6015748	1.1353307	-0.01677578	-1.0507238	0.16217816	0.15787813	-0.34370178	0.57391757	0.44311798	0.23753178	0.21207827	-0.06392661	0.2776544	-0.15971811	0.42908627	0.2518937	-1.285111	0.17542395	-0.34911823	0.4344112	-0.6829741	0.44031736	-0.4514774	0.32362366	-0.0068019032	0.07056573	0.28071955	0.4210071	-0.36738363	-0.5547106	0.29561332	0.65432423	0.24765486	-0.018075302	0.389184	0.15831445	-0.15853024	-0.12354693	-0.7670726	0.57530487	0.15651326	-0.24890777	-0.75366324	-0.659866	-0.027624115	0.1897918	-0.2160227	0.22207093	-0.40486094	-0.78693753	0.17276682	-0.08182675	-0.633922	-0.8864628	-0.6032169	-0.50267464	0.17774779	0.69174165	0.13380647	0.24839216	0.21946892	-0.32111615	-0.65566313	0.514632	-0.054612532	-0.5393716	0.14318077	0.6388022	-0.36180055	-0.10738021	-0.69876766	0.8242448	-0.70861524	-0.10665649	0.501444	-0.28550452	0.35343218	0.115664616	0.37246102	-0.4075762	-0.8628967	0.5794817	-0.600023	-0.7926018	-0.27253604	0.07363071	0.67028606	-0.13488626	0.69524944	0.9704927	0.23277356	-0.2830109	0.3553859	-0.380566	-0.3431939	-0.0546415	-0.3467304	0.008546613	0.31913176	0.20839791	-0.69528794	0.37517047	-0.18086012	0.8027921	0.54836094	0.25577602	-0.027346736	0.29202747	-0.52842367	0.09416292	0.12491433	0.07838679	0.2862845	-0.45316267	-0.47020194	0.1837835	-0.20732468	0.4854282	0.30414152	-0.46236286	-0.029842474	0.6088158	-0.27323753	0.035633117	-0.100220725	0.5188092	-0.37171462	-0.15385142	0.1954429	-0.048461437	-0.22362517	0.5057442	-0.25785735	-0.20769617	0.043442097	0.4013821	0.11340213	0.3860361	-0.049829066	0.06171307	0.8949951	-0.12935154	-0.20971566	0.2755586	-0.08678147	0.24346995	-0.9009299	-0.017819583	-0.19915938	0.26039848	-0.16735642	-0.10120125	0.89597756	0.19209376	0.16220719	0.4996634	0.31680158	0.38722327	0.15073957	0.27847242	0.32215422	0.7513786	-0.7498713	0.37411827	-0.048439026	0.21526583	0.5195998	-0.17796682	0.2672615	0.20361358	0.58352613	-0.15085183	0.43425277	0.62921244	0.33736724	0.49589235	-0.0032927021	-0.10749512	0.32557794	-0.031374276	0.18052483	-0.71137244	-0.12339712	-0.33224773	0.62502676	-0.1037619	-0.9182936	0.28567868	-0.26158684	0.17668857	0.3663523	0.31027544	0.08528654	0.3612067	0.11782399	-0.18742236	-0.1559823	-0.12302844	0.3325765	-0.115409225	-0.043008473	-0.090586826	0.6514481	-0.023242325	0.38345468	-0.007949658	1.4782996	0.58072746	1.0771925	0.42983556	0.15458392	-0.22080077	-0.07579285	0.45795298	-0.09126732	0.72166586	0.25869823	-0.80835116	0.13907576	-0.09723034	0.46587327	-0.6645936	-0.30531436	0.8485665	0.2525838	0.1285407	-0.77617407	0.16308163	0.7510868	0.036661506	-0.26132128	-0.42334384	-0.072132275	-0.8680749	-1.2410235	-0.4894884	-0.431312	0.31829572	-0.114430204	-0.04196	0.3588198	0.021416172	-0.10388067	-0.7640759	0.02294521	0.33853856	0.39038557	-0.6953497	-0.72595453	-0.07776928	0.8904679	-0.25527465	-0.6935952	-0.19249573	0.060597584	0.2525405	0.56757647	1.0270863	-0.06501904	-0.187815	0.11874484	-0.20700356	-1.073895	0.52009463	0.48917308	-0.44798645	-0.9920884	-0.57497793	0.071577474	-0.32977805	0.038450807	-0.092437714	-0.22528434	-0.13529435	-0.14875081	0.43274778	-0.5171469	0.064259216	-0.032621488	0.05073794	-0.5794551	0.22867766	-0.3485381	-0.5413072	0.19610494	0.61903447	-0.5746383	-1.0182638	-0.009376243	1.0867609	-0.15155359	0.55761594	0.15857878	0.4604919	-0.35242602	-0.40105993	0.3570207	0.3199625	-0.53920823	0.41816384	0.1500009	0.6061304	-0.3334429	0.0015813708	0.33691674	0.2698174	0.3211936	-0.14246273	0.6676822	-0.88507384	-0.23020689	-0.38779092	-0.001316959	-0.52702045	-0.07044793	-0.5802695	0.12782604	0.38149816	0.16366169	0.37268493	-0.15224433	-0.29103285	-1.0824572	-0.0039621294	0.9395057	-0.043869033	0.06224017	0.48953876	0.4875925	0.5345907	-0.24877314	-0.33354956	0.060900077	-0.19026265	-0.7385668	-0.3231769	0.0153708905	-0.4140156	-0.22464235	-0.24813873	-0.65228266	0.03637809	-0.3764053	-0.71535283	-0.021604896	-0.38133585	-0.38487244	0.41162586	0.16028723	-0.49890894	-0.07081149	0.51608336	0.34715122	0.6282012	-0.049444214	0.42192495	-0.15146032	-0.29758647	0.7077588	0.20805131	-0.19139811	-0.6407054	-0.042983264	-0.16763875	-0.15374437	-0.3576758	-1.0936276	-0.12629676	0.40082246	0.12126343	0.56457406	0.63954914	0.42417327	0.22946905	0.61109823	0.15690842	-0.8662909	-0.63813865	-0.56604093	-0.019135267	-0.31028414	0.9218781	-0.8968588	0.009715736	0.28158796	-0.629212	0.3056435	-0.50480014	1.0125158	-0.15232575	0.22975221	-0.38886625	-0.26119864	0.35304922	-0.012705646	0.57250524	-0.1629538	-0.42937285	0.92736286	-0.048006535	-0.041275755	0.23415926	-0.26770127	-0.043942377	0.16180617	0.20313734	-0.420555	-0.9952666	-0.27300125	0.3249619	-0.41716897	0.07959601	-0.6038735	0.26579425	0.09477285	-0.41485137	-0.25945008	-0.43002796	-0.32111835	-0.31270036	-1.2918437	0.47752115	0.11613655	-0.30280924	0.50955266	0.7687999	-0.3498754	-0.18437591	-0.15426145	-1.3227899	0.12950319	-0.3450493	-0.37062445	-0.99102795	-0.17965887	0.15906444	-0.24303046	0.20421539	-0.120486856	0.14624715	-0.79859036	-0.032353982	-0.81410414	-1.0288433	-0.045276612	0.85923356	-0.17318478	-0.5128615	1.0117726	-0.50854087	-0.5336406	0.22858045	-0.16614452	-0.1103562	0.22859457	-0.62416226	-0.5523958	0.27307197	-0.11770705	0.3676077	-0.36589974	-0.09434259	-0.38638312	0.11177347	-0.65075576	0.026701093	-0.30505964	-0.3996239	0.31586605	0.13086511	-0.7385881	0.690342	-0.18168858	-0.07657145	0.18146929	-0.088974595	0.1696566	-0.007170707	-0.58977526	0.00013979152	-0.7842055	-0.056483775	-0.01813966	0.12001224	-0.24226299	-0.32435173	-0.6612858	-0.04525304	-0.37312517	0.2661662	-0.012805462	0.15833697	0.0053714216	-0.47054383	-0.47265148	0.13904874	0.24022311	-0.49433595	-0.30991125	-0.035828248	-0.035303324	-0.5355642	-0.009694606	0.026765704	-0.3283761	-0.095156275	-0.28296953	0.054348707	-0.2825539	-0.36701155	-0.75705993	0.9803606	-0.11893594	0.15361515	0.68749	-0.6423986	-0.15681684	1.0736743	0.28961015	-0.106816076	-0.41558775	0.04569509	-0.03764078	0.17659426	0.32105938	0.52366436	-0.55296814	-0.40410182	-0.4584648	0.43176264	-0.3786222	-0.08831297	-0.36763135	0.42896393	0.07184146	-0.20237675	0.10916382	-0.45381632	-0.04513693	1.0265876	-0.34647754	-0.33847007	-0.054182038	0.38818538	-0.78306186	-0.5832144	-0.0882906	0.010952711	-0.17384739	0.5624398	0.13158888	-0.14093208	0.42775846	-0.15654184	-0.87102854	0.3217336	0.05740547	0.28451115	0.5243763	-0.016264651	0.026536599	-0.78883725	0.58064574	-0.35857326	0.12548594	-0.0036954992	0.6543044	-0.33666253	-0.108792365	-0.17920795	-0.24734315	-0.07739914	-0.14236224	-0.59295416	-0.36482748	-0.21369302	-1.2816064	1.061369	-0.61923623	0.29632464	-0.05052048	0.24286143	0.30910867	-0.16212866	0.22537766	-0.026456565	-0.7306074	-0.49925488	0.1876497	-0.4352417	-0.0025927573	0.11204493	-0.356674	-0.030069917	-0.019022912	-0.24418609	0.09989469	-0.75503993	-0.5147954	0.1893312	0.35040984	0.71909446	-0.54559815	0.30559713	0.05451131	-0.18634781
G000171235	-0.15311584	-0.6342486	-0.050792307	1.1570907	0.31962734	0.09738009	-0.21352246	-0.42126504	-0.43791866	0.06216666	0.1916742	-1.242121	1.10237	-0.091472484	-0.70464945	0.85828286	0.3289173	0.24024388	0.23675461	-0.17790112	0.50781	-0.103898406	-0.835549	0.2633374	-0.44254923	0.2503113	0.25702232	0.98154706	-0.04395227	0.45515144	0.3447733	0.74831545	-0.25994897	-0.25240004	-0.44380623	-0.52464795	-0.7815812	0.29851776	-0.624901	-0.17085522	-0.10924703	-0.031510934	0.04191771	0.4531966	0.51530755	-0.9374489	0.0011356771	0.87458205	0.0013920665	-0.042037353	0.05217894	-0.3496682	-1.0204761	-1.1601297	0.59830636	0.13329852	0.41739628	-1.220077	0.28590348	-0.60715914	1.242674	0.2618431	0.8004528	-0.44350365	-1.4035082	-0.98303837	0.79694897	0.8141031	0.36456966	-0.2525092	-0.4474504	-0.14098004	0.5510771	-0.13879511	0.4252615	-0.28423083	-0.6791724	0.24008387	-0.71539605	-0.7496134	-0.39459383	-0.6109612	-0.12988465	0.29919955	0.25300732	0.11521053	0.15282917	-0.8719944	0.15067342	0.3040989	-0.421073	0.543746	-0.07533588	1.1375132	0.0963189	0.90149873	-0.2780945	0.41756856	-0.61960566	-0.1833269	-0.40744495	-0.31682283	1.3650355	-0.45533335	0.26462245	-0.50061625	0.14976415	0.097835444	0.089398205	0.6824228	0.9998406	-0.40179437	-0.39557242	0.23731545	-1.0062373	-0.05589614	-0.6971725	0.5222432	0.34407368	-0.14070621	0.47095126	-0.48046023	0.48224705	-1.1648804	-0.20414339	-0.67093927	0.4893998	-0.4051882	-0.87463725	0.16622083	-0.2238478	0.042468876	0.5028895	-0.71058327	-0.3267913	-0.66449714	0.91937494	-0.17867815	0.315118	-0.058768302	0.7369337	0.99661285	0.7030528	0.009865642	-0.38703516	-0.4251587	0.10917054	-0.18757498	0.6547457	0.11521098	0.18038222	0.46164888	-0.022943482	-0.1782614	-0.17575844	0.35695136	-0.053647965	0.36874557	0.80587083	-0.22763875	-0.28003454	-0.56446624	0.34381494	-0.7536508	-0.9317218	0.49549222	-0.814639	-0.7421774	0.062043816	0.41830873	-0.55064213	-0.15954702	-0.40054712	-0.19907187	-0.045461655	-0.6979669	0.14708179	0.2911443	0.36890653	0.30842298	0.88688856	0.0024056584	-1.0895886	-0.13353947	-0.029095754	0.5227243	0.03433822	0.50290775	0.43293172	-0.3738528	0.10620922	-0.08197336	-0.2997342	0.1788286	0.42317936	-0.17880607	0.42927384	0.12803978	-0.4211729	0.23432432	-0.1570473	-0.37879777	0.21967563	0.6396998	0.21443725	1.385039	0.58868074	0.13183138	0.13948628	-0.13330255	-0.31221384	0.6788784	0.2777946	0.79938763	0.43799874	0.40548086	0.9353889	-0.47463113	0.6841171	0.6369742	-0.5150858	0.22819072	0.08078754	0.2831673	0.6986838	0.51347405	0.030787624	0.543754	0.51574224	-0.5266423	-0.34067646	-0.15038353	0.068733215	0.6769826	-0.4186353	0.05467038	-0.008659184	0.10969128	-0.032463454	0.14351755	-0.77862525	0.5516518	-0.4642892	-0.039909706	-0.08775428	-0.22369042	0.30241394	0.05237925	1.1242945	0.07769078	-0.11470693	0.48009425	-0.6610418	0.03702282	0.34131706	0.18001339	-0.38759422	-1.3179752	-0.4387721	0.08408695	0.8576631	0.624075	-0.099239096	-1.3108077	-0.16936144	-0.16665371	-0.013225332	-0.09845734	-0.44532466	0.30658394	0.75902104	0.40068382	-1.0332243	0.1225419	-0.118438005	-0.191047	-0.30182093	-0.29231417	0.27530575	-0.8802962	-0.13851044	0.4410983	0.20502788	-0.19015583	-0.24999362	-0.45321244	0.7374492	-0.56232506	1.4769962	-0.04853964	-0.2318868	0.17008738	-0.48142612	-0.9767174	0.61683416	0.1114216	0.86026204	-0.0011349916	-1.134514	-0.20044643	-0.52035475	0.7488072	0.28962806	0.29197785	0.18554507	-0.33575127	-0.08171296	0.65593594	0.47392765	0.9850669	-0.81836724	-0.062910095	-0.7803533	0.10397516	-0.5078188	1.0229357	-0.8585371	0.96711755	0.049623735	-0.27209187	0.07440591	-0.24713086	-0.46323067	-0.15861113	0.738949	0.95508844	-0.85759145	-0.5783713	-0.080381334	-0.04117187	0.7476265	0.090562284	0.26004118	-0.50409174	0.49517736	0.06648995	0.31428295	0.36833137	1.4064026	-0.29806432	0.19371586	0.03586325	0.16596232	0.90644395	-0.5827447	-0.48743033	0.37137386	0.013513379	0.7595594	-0.17363288	0.1547092	-0.11283448	0.17194167	-0.063902974	0.5379406	-0.7554627	0.09242192	0.07669574	-0.2264156	-0.38809115	-0.4457764	0.20957166	-0.3248424	0.5711641	0.2220475	-0.5234791	-0.122053236	0.17589861	0.36088264	0.22039299	1.2978771	0.6176294	0.41063595	0.067862764	-0.18223532	0.64979863	-0.44607404	0.17675638	0.45546785	-0.30130786	0.59787047	0.63312423	0.29897058	0.29990557	0.69501853	-0.037113696	0.27037507	0.26761115	0.47377107	-0.4947236	0.0040341765	0.52963555	-0.35597503	-0.2987017	-0.5514964	-0.66528034	1.1316606	-0.69863546	-0.49929473	-0.14444903	-0.5841751	-0.42760837	1.0648946	0.2009999	-0.21050808	-0.14924395	-0.52020323	0.40136263	-0.92463404	-0.2446817	-0.26678923	-0.1524176	-0.6764539	0.23031645	-0.074904785	0.014473297	0.7759666	-0.30839807	0.59383	1.3876235	0.2036784	-0.63467467	0.27763098	0.03609945	0.075817645	0.594767	0.8692328	-0.07092561	-0.17269558	-0.2437579	0.24528085	-0.117301136	0.3739956	0.6436444	-1.1450053	-0.21024586	0.11942589	0.5734376	-1.0210434	0.9119851	-0.5628375	0.72885036	-0.091555	-0.05338542	0.55876946	0.58226705	-0.9702478	-0.35161874	0.26542538	0.32191956	0.058537543	-0.5353908	0.19661714	0.2608852	-0.82900286	0.3169305	-0.35953596	-0.083253175	0.61053705	-0.67183405	-0.562853	-0.35899702	-0.03571903	0.05779776	0.01542671	-0.07581667	-0.45805907	-0.21655618	-0.22033232	0.34387195	-0.46537766	-0.28300396	-0.24465522	-0.21035188	0.124379516	0.87547773	0.665063	0.26225877	0.28402305	-0.19497055	-0.8762734	0.9867687	-0.19230422	-0.8342567	0.08914235	0.729368	-0.0036545694	0.07736108	-0.6434171	0.6654805	-0.1524738	-0.5431207	0.7161464	0.18243751	0.384165	0.1487487	0.04909005	-1.1881295	-0.9971182	0.55725706	-0.84100956	-0.5634229	0.23129049	-0.13774157	0.34134117	-0.797861	0.88502645	1.0917796	-0.20248374	-0.4254649	1.1485951	-0.6081327	-0.5041187	0.3683687	-0.29164776	-0.26650664	0.75528157	-0.04859724	-0.731788	0.56238186	-0.17205295	0.8553053	1.1188309	0.09988346	-0.29581738	-0.22752026	-0.9193064	0.01682432	0.012932777	0.11634156	0.31073833	-0.5805161	-0.27730054	0.11492422	-0.26363993	0.54452705	-0.14998893	-0.55097663	0.055737257	0.49029475	-0.32367682	-0.40912408	-0.28801113	0.06015545	-0.28590146	-0.38411695	-0.59107393	-0.13842972	0.33245674	-0.11540508	-0.15385626	0.3157993	0.15270782	0.0862433	0.5525326	0.89411813	-0.10814944	0.3426098	0.62388384	0.14858727	-0.9892539	0.54941195	0.5256177	0.3358189	-1.3750439	0.26465088	-0.27278808	-0.13667384	0.2403779	-0.022844508	0.8888713	0.10136932	0.09303172	0.3950615	0.20665553	0.49527547	0.40681785	0.112318665	0.5091938	0.98630524	-1.0378897	0.39293495	0.45101413	0.103117466	0.19963151	-0.24804325	0.3374651	-0.2243378	0.27122945	-0.3011937	0.59392256	0.5092552	0.73272	0.8515527	0.0060370415	-0.3767569	0.66581416	0.16718562	-0.39902318	-0.5025334	0.05733107	-0.5625412	1.0679803	0.1371266	-1.156434	0.1933233	-0.44263846	0.3500477	-0.068050295	0.57440376	0.18589926	0.52785444	-0.051394135	-0.032127514	0.1020609	-0.024160087	0.1882525	-0.3532843	0.3657541	-0.33488137	0.9679777	0.2828929	0.473597	-0.052238505	1.7446916	0.2651499	1.5141599	0.4970033	-0.12441183	-0.27656513	0.44034374	0.68356514	-0.20138758	0.47943598	0.6797952	-0.5498136	0.49115172	-0.15179548	1.0097166	-0.8131689	0.016091034	1.0927175	-0.03022632	-0.76962507	-0.60360813	-0.50863606	0.99396235	-0.085300446	-0.8769333	-0.2954441	-0.0065090656	-0.7535554	-0.97657233	-0.4703018	-0.52959704	0.1745352	0.20296168	-0.40456367	0.37052268	-0.09492466	0.26501143	-0.98876387	0.16294074	0.09338273	0.03508167	-0.19175814	-1.1278815	-0.09284541	1.0205296	-0.23460677	-0.7717587	0.04949501	-0.04850869	0.5922607	0.81635153	1.1272916	0.34285966	-0.17485437	0.5677626	-0.07183015	-0.8037082	0.8644031	0.72482693	-0.0068701208	-0.8111006	-1.0960617	0.1287122	-0.011640757	-0.27972817	-0.071582705	-0.60753536	-0.854245	0.45321792	1.1962057	-0.36135137	0.22785917	0.12910596	0.48990098	-0.71058774	0.38495794	-0.05929549	-0.7428402	0.29111096	0.15203366	-0.78029376	-0.86857176	0.14245251	0.9210563	-0.035643503	0.70121956	0.45454216	0.5422975	-0.09155032	-0.5046225	-0.06035456	0.24649256	-0.16256529	0.5094524	-0.16122383	0.83194685	0.06641771	-0.15033332	0.742831	0.47383377	0.50708824	-0.23969585	0.771114	-1.2885752	0.23797488	-0.50816315	0.097695366	-0.67455953	-0.3372568	-1.0846715	0.17727916	0.011731692	0.043059886	-0.27489626	-0.14549766	-0.08151065	-0.2607447	-0.259018	1.3847821	-0.5509633	-0.43594113	1.1126933	0.56659603	0.6291978	-0.10012767	-0.3105082	0.14634301	-0.5627059	-0.610282	-0.64734155	0.28232837	-0.6576468	0.3131539	-0.07668242	-0.7581774	-0.22773176	-0.39952397	-1.0917275	-0.17046171	-0.65216935	-0.008074507	0.62999713	0.10757551	-1.034363	-0.15749373	0.36593065	0.47691667	0.208726	-0.20300406	0.7326787	-0.55535936	0.53720605	0.64676666	1.0855949	-0.52102697	-0.7588162	-0.37356192	0.25913578	-0.34679118	-0.33583727	-1.3082805	-0.7104351	0.911446	0.17241374	-0.031335577	0.7992637	0.27890953	0.47572336	0.6945393	-0.028991707	-0.8448892	-0.35695112	-0.22621581	-0.18460274	0.53297067	1.2030039	-1.08538	0.052960947	0.52409714	-0.2580056	0.3776169	-1.3636154	1.3394228	-0.36372817	0.56301546	-0.8939643	-0.19694269	0.12087098	0.19381261	-0.03199482	-0.25197566	-0.61507565	1.4657342	-0.58148277	0.23324953	0.51600933	-0.45346612	-0.07272361	0.6095779	0.04851891	-0.055048198	-1.2254719	-0.41392964	0.26140687	-0.42291695	0.20013481	-0.90466523	0.70897794	0.042670593	0.25608778	-0.45019972	-0.24145587	-0.03644833	-0.04224205	-1.7068629	0.79418886	0.4109353	-0.7259214	0.81405073	0.62508994	-0.31760365	-0.45136875	0.2575748	-1.1031595	-0.07345438	0.30359197	-0.13395938	-1.2120228	-0.6078029	-0.29119188	-0.5169457	-0.023193717	-0.2187404	0.7975707	-0.77676934	0.37127414	-0.9045846	-1.5680442	-0.5390124	1.0646459	-0.32646263	-0.94323057	1.1306512	-0.48336262	-0.016594417	0.021611318	-0.1729458	-0.20986763	0.34964508	-0.487082	-0.7512481	-0.11343077	-0.29345375	0.7369642	-0.06056097	0.57944506	-0.38208467	0.8906284	-0.8957113	-0.08886501	-0.047533125	-0.301854	0.45189953	0.21201429	-0.7022572	1.3627342	-0.49993986	-0.09541595	-0.15383998	-0.06587063	0.29931176	-0.19676928	-0.7488516	0.021975309	-0.42589486	0.021141559	0.255805	0.25399023	0.3737946	0.0091505125	-0.48482534	0.21752307	-0.5845272	0.6869275	-0.4433766	0.055922333	0.11471916	0.07990828	-0.5289834	0.9103922	-0.37560737	-0.3303855	-0.6053129	0.5190897	0.4158702	-0.573891	0.49137563	0.9200782	-0.89692116	0.1139684	-0.12180284	0.048780292	-0.17586988	0.04428114	-0.53469986	1.4936426	-0.5682709	0.048027366	0.32940578	-0.8576636	-0.031521603	1.1894109	0.7778803	-0.03535889	-1.0396279	-0.50421834	-0.25545588	0.042953268	0.34172475	0.63826764	-0.9308519	-0.6575719	-0.0074208677	-0.038187146	0.25574768	0.36254954	-0.88198036	0.4945845	0.07047282	0.09479363	-0.17926404	-0.47684503	-0.44012457	1.347177	-0.002747327	-0.17073415	0.104005605	0.4979438	-1.1342359	-0.023411423	-0.7452674	0.20783837	-0.30743623	-0.19575039	-0.44394907	-0.18862975	-0.0045660585	-0.21310534	-0.66786295	-0.20601131	0.11174823	0.52480745	1.0006399	-0.29107177	0.007445216	-0.87461877	1.1434144	-0.75774944	0.5160476	-0.23628148	0.66220003	-0.22299474	0.112129286	0.618725	-0.10453591	-0.10079305	-0.9350644	-1.1191132	-0.113880664	-0.13407323	-1.3831555	0.69879085	-0.53520155	0.71237767	-0.32320923	0.040492505	0.9739412	0.48360682	0.66369104	-0.12782665	-1.111235	-0.5676304	-0.43685013	-0.093305156	-0.15575874	-0.08681518	0.0068015903	-0.20059323	-0.14061674	0.042569295	-0.16126727	-0.71731853	-0.52728426	0.23915164	0.39577258	0.27832842	-0.22130686	0.026152283	0.1532453	-0.912835
G000019665	-0.57892895	-0.07280764	-0.6144625	1.2194794	-0.40995795	-0.02622658	-0.23001112	-0.38334322	-0.3978113	0.21290454	-0.16787773	-0.7047402	1.412615	0.72034824	-0.736207	0.5950133	-0.6085913	0.23208825	0.7851606	-0.038179174	0.079621226	0.28853643	-0.75263524	0.46170193	0.018597066	-0.60915935	1.1561052	0.6620616	-0.8712423	0.5249719	0.34864065	-0.06353784	-0.40347672	-0.12780142	-0.6486999	0.2512182	-0.490452	-0.63724923	-0.8356066	-0.25661942	-0.50607276	0.5425719	-0.31407487	0.16389096	0.6438959	-0.6308128	0.7537616	0.46347094	-0.064822406	0.5206262	-0.6388302	-1.2104619	-1.0631964	-0.31886467	0.083049245	0.09746	0.4577489	-0.8024188	-0.18076509	-0.17632347	0.67000383	-0.25747287	0.40097374	0.25062674	-1.1684302	-1.3893932	0.49558747	0.57549703	0.9042678	0.57444686	-0.48863345	-0.3996169	1.2219994	-1.1387879	0.39163637	0.34217083	-1.263731	0.12749219	-0.1108571	-0.10973517	-0.29723516	-0.6843339	-0.59810674	0.5135148	-0.111836925	-0.7497386	-0.14562008	-0.8115047	0.30214816	0.43342653	-0.71232504	-0.26300922	-0.7540599	0.39865673	0.503857	1.125047	0.043712705	0.7852074	-1.0310448	0.48125583	0.09108853	-0.43872714	0.35686994	-0.72098726	-0.3080679	-0.9103693	-0.04859978	0.612503	-0.23349537	0.28400218	0.44325113	-0.17091629	-0.7304388	-0.428413	-0.99169064	-0.42189026	0.23940232	0.3565817	-0.2852037	0.37159136	0.4172473	-0.27584356	0.2514466	-0.26247895	-0.44488546	-0.15701886	0.8653723	0.50543463	-0.8722391	0.1957399	0.24964258	0.93997765	-0.2573095	-0.4538828	-0.6748065	-0.3157274	1.1555171	-0.32975593	-0.14671203	0.2652124	0.5255914	0.37832078	0.71948314	-0.11984451	-0.9108556	0.056934282	0.29834923	0.5559023	0.39210075	-0.60386896	0.47897643	0.18299353	-0.044459954	-0.21398845	-0.24854451	0.36086845	0.22330125	0.0019559264	1.0864441	0.16773033	-0.47539276	0.08532053	0.035352647	-0.14469904	-0.23548968	0.76343435	-0.46632612	0.13325629	-0.27718267	0.07829988	-0.49902737	0.03907208	-0.89876	-0.74296767	-1.0375345	-0.8742518	0.80347615	0.15957174	0.46053234	0.4311	0.18390298	-0.1976301	0.24175538	-0.27933425	0.15126829	-0.11084002	-0.39878368	-0.051855683	0.23449245	-0.38522452	1.2044299	0.9589413	0.13269797	-0.30233908	0.82457167	0.5872755	-0.23164532	0.6997275	-0.49690324	0.09911515	0.71177244	0.16105393	0.39722437	0.24714217	0.029508114	0.21901315	0.28664005	0.49229914	-0.17634168	-0.5814203	-0.7847581	0.936507	0.08123903	0.48840684	0.44621134	0.18068784	0.83228886	-0.36061233	0.7747801	0.4583458	-0.1266105	-0.55396104	0.22087303	0.26164728	0.28972414	0.6989519	-0.4237153	0.77997386	-0.30823103	-0.4856147	-0.2843358	-0.9052699	-0.45297492	0.590945	-0.5013783	0.08766472	0.108979896	1.0384315	0.102108404	0.20411304	-0.58682996	0.21919015	0.33765733	-0.1085923	0.69411933	0.12057675	-0.6392237	0.12031782	0.19959152	0.9471415	-0.08828576	1.5549002	0.14417925	0.15043928	0.028287359	-0.12743038	-0.306903	-0.81631553	0.34639403	0.09749009	0.14024018	1.1884865	-0.76841563	-1.2117174	0.25300172	-0.42595652	-0.09331775	-0.5042245	0.074516	-0.4757032	0.5329959	0.39933568	-0.91506386	0.16873078	-1.7423613	-0.71960306	-0.88171357	-0.080724955	0.06922738	-0.7725481	0.06820175	0.06857565	0.24458726	0.87411773	0.24426775	-0.307662	0.656429	0.026220351	0.8432966	-0.38012877	-0.987487	-0.45836064	-0.4716581	0.09597103	0.7424765	-0.601405	0.51129234	0.55937564	-0.12448883	-0.06678039	0.08810264	0.46559465	0.56760406	-0.050033286	-0.29113576	-0.3199355	-0.6959169	0.78558433	0.24262802	0.5669648	-0.70856905	0.088559404	-0.0514595	0.6904475	-0.1188485	1.0617807	-1.1137643	0.04538372	-0.33926773	-0.089452356	0.15773565	0.90630877	-0.6368904	-0.331697	0.5193055	-0.65069354	-0.37711784	-0.5570409	0.20069046	0.06885478	0.6583158	0.38331062	0.562526	0.332157	-0.13803622	0.7779604	0.08467937	0.23983759	1.488555	0.11514971	0.5056265	-0.3937639	0.72838914	0.42629772	-0.5922344	-0.72271764	0.115674675	-0.07566415	-0.36239618	0.38983825	0.55397534	-0.23297107	-0.042707086	-0.24596348	0.20881307	-0.23761508	-0.00676921	-0.2240161	-0.2350604	0.091510415	-0.94773257	0.5519169	-0.59824705	-0.15954828	0.18714742	-0.1279161	-0.008745074	0.25804147	0.47492746	0.40280077	-0.08062041	-0.087408885	0.07519862	0.17792867	0.100013286	0.24425587	0.25863618	-0.069880046	0.37517962	-0.017471462	0.21631801	-0.48924157	0.378918	-0.38302654	0.40826777	0.46224993	0.49693415	-0.023344189	-0.55742055	0.24359713	0.34188804	0.3043582	-0.37756702	0.46514153	0.07231741	-0.21891873	1.4004233	-0.4445434	0.5212336	-0.27474862	0.75420946	0.040870756	-0.42112267	0.28086653	-0.25761268	0.38562146	-0.4721846	-0.23102604	-1.0335746	-0.43540666	-0.17027806	1.4885374	-0.39109504	0.45676565	0.4225721	0.4688	0.3353815	-0.4505747	0.33665335	1.1307621	-0.20260856	-0.5135523	0.7452742	0.44694406	-0.42660296	0.8899009	0.013537705	0.1561954	0.1684745	-0.22985977	-0.241561	-0.41974324	0.22787064	0.4396304	-1.357908	0.7088957	-0.6232358	-0.33318773	-0.3674239	0.6258408	-0.3636245	0.11561388	0.11566558	0.76611894	0.62170804	0.29647672	0.057830848	-0.7677758	0.06571844	0.8541986	0.17544274	-0.007881597	0.24270205	-0.8317641	0.11758302	0.07838337	-0.8852543	0.44889778	0.044364497	0.5814471	-1.0426321	-0.0046464056	0.0874995	-0.5289091	-0.2595709	0.35757273	-0.17075771	-0.89868104	-0.1634739	-0.4351262	0.030411333	-0.5784497	-0.66110754	-0.62270033	0.7631166	0.6382947	0.010721773	0.037741512	0.12806988	-0.25167158	-1.01772	0.24053074	0.092219986	-0.6325774	-0.36587137	0.7171322	-0.38550454	0.03740099	0.15570337	0.91809833	-0.7471815	-0.33584982	0.45281425	-0.1351632	-0.24108736	0.54795575	0.11735901	0.08041309	-0.56344926	0.6382184	-0.7978353	-0.644814	-0.832113	-0.11695704	0.5770067	0.18235704	0.51898533	0.8730185	1.0679548	-0.13243201	0.5425596	-0.5242531	-0.11561045	0.16237709	-0.4107127	0.63739127	0.5189507	0.022316188	-1.1653546	0.029519401	0.446253	0.45412013	1.0928028	-0.03597462	0.25426662	0.50943214	-1.1414267	-0.11871721	0.32732338	0.24248208	-0.42778915	-0.26439235	-0.6078589	0.17138374	0.10554232	0.36674348	0.36234865	0.12444464	0.51430047	0.5773149	-0.1196741	-0.158052	0.117097676	0.43986976	-0.49692798	-0.16020903	0.25373983	0.51532674	-0.2427035	0.25228542	-0.44264382	-0.54686093	-0.60749525	0.29073706	0.34083915	0.089482754	0.14562085	0.37207532	1.2852733	0.13248913	0.28450298	-0.14729138	-0.34715563	-0.17603168	-0.86410725	-0.078475475	0.5336182	-0.014155239	-0.27573404	0.18907066	0.4217367	0.74099874	0.55478686	0.58126974	1.1083208	0.5821198	0.17715374	0.33309257	0.56147003	0.69614995	-0.22058232	-0.16767327	0.14521444	0.7806854	0.58299935	-0.301017	-0.13212845	0.5646537	0.56278783	-0.059618324	0.052935988	0.5345357	-0.18418796	0.4386586	0.012867406	0.081640564	0.26361293	-0.022804715	0.10047607	-0.91153973	0.21626525	-0.41861576	0.36944833	-1.3112113	-0.44312543	0.45417756	-0.51172495	-0.13659152	0.43815228	-0.24975193	-0.0020286143	0.2830115	0.38069385	0.21286786	-0.18050876	-0.23025665	0.20232585	-0.20011337	0.2031661	0.421077	1.122613	-0.16890725	0.17351088	0.6481018	1.5453551	0.6940913	0.9654337	0.3235807	0.08886553	-0.68085754	-0.39773995	0.19627975	0.12982096	0.6962893	0.34359273	-1.111524	0.53717405	-0.6172091	-0.038195133	-0.7071735	-0.3920954	0.35901365	0.68663657	0.084155165	-0.025446549	0.25590557	0.23359618	-0.28699437	0.25614917	-0.4055327	-0.11937823	-0.7075148	-1.6958672	-0.38261688	-0.20114577	0.14832817	-0.39081064	0.32741165	1.223278	0.082000405	0.19068706	-0.6386995	-0.28020692	0.2806015	0.5284013	-1.0261791	-0.4102121	0.40488976	0.8798635	-0.07356978	-0.94232357	-0.47039646	0.08395001	-0.18806237	-0.24844988	1.3031533	0.061962374	0.47099188	0.43703058	-0.42496768	-1.2591214	0.40862027	-0.011764117	-0.5065828	-1.1176653	-0.6877717	0.22272131	-0.7364725	0.5067237	-0.3519424	0.12664095	0.29736263	-0.23107988	-0.764387	-0.646826	0.21460621	-0.2825586	0.078194484	-0.8246069	-0.5444809	-0.121534824	-0.17861494	0.4640394	0.7772895	-0.5386622	-0.62073416	-0.2265794	0.83414704	-0.17733684	-0.023993567	-0.60479856	0.58415204	-0.14328334	-0.8783457	0.40063745	0.15727994	-0.6755728	0.66903156	0.24042596	0.516309	0.07138033	0.075455844	0.18185763	-0.2836891	0.25157583	-0.029260874	0.90381986	-0.7447569	-0.5680495	-0.7064779	-0.06735962	-0.5971015	-0.64569205	-0.022379097	-0.0012071729	0.56423235	-0.17448226	0.33002788	0.23101771	-0.12986892	-1.0658443	0.35848972	0.8159704	-0.12071648	-0.03679371	0.40311852	0.8930779	0.11413607	-0.017564401	-0.07089479	0.23366636	-0.13966626	-0.72306246	-0.21506083	-0.0047664493	-1.0555573	0.027363375	-0.42891964	-0.31792355	-0.44888708	0.030112907	-0.41075158	0.09752905	0.041907042	-0.6482261	-0.08862811	0.44893652	-0.5915113	-0.45831314	-0.16960037	0.36535424	0.41400233	0.2468284	0.5696162	-0.8422128	-0.76036584	0.19022313	-0.48255008	0.07624638	-0.84476495	0.2151115	-0.39532888	0.35695672	-0.53920805	-1.0164548	0.87967587	0.63420707	0.30061933	0.93383175	0.53507555	0.4531349	0.46197194	0.68712026	0.7025367	-0.55134094	-0.20170411	-0.5193579	-0.6792731	-0.76640856	0.9910477	-0.9491352	-0.50408244	0.3883409	-0.73318905	0.120410495	-0.5271722	0.5111611	0.008091703	0.08442499	-0.04781793	-0.1526747	0.8174699	-0.39813936	0.4390976	-0.18755512	-0.81603634	1.3093532	0.4520119	-0.7249939	0.11372942	-0.036239818	-0.13492809	0.53445685	0.30234656	-0.17925346	-1.1095489	-0.43061638	0.8832878	-0.41055232	-0.22105289	-0.3876029	0.46051243	-0.38014093	-0.26992255	-0.2859294	-0.34264433	-0.19802305	-0.4994002	-1.4854655	0.4829912	0.2875544	-0.16426867	0.49916896	0.5870081	-0.00351727	0.46965057	-0.5479083	-1.4825227	-0.6711749	-0.4851984	-0.66920906	-0.51411176	0.013070006	0.26385325	0.08995944	0.27195328	-0.25420627	-0.2253215	-0.63069695	-0.07210675	-1.2795347	-1.008985	0.7365242	0.8721581	0.26666892	-1.1550068	0.9076617	-1.0101438	-1.0602598	0.29990017	0.024289846	-0.593549	0.63418347	-0.29469207	-0.3233168	0.43731233	-0.24909984	1.0659616	-0.9750136	-0.22386448	-0.59676695	-0.2460421	-0.6013805	-0.117607415	-0.5471245	-0.8097348	-0.004980266	0.29107624	-1.486356	0.8876182	0.029359948	-0.18696284	0.56303984	-0.06667563	0.33972305	-0.76170355	-0.8930477	0.35932028	-0.28135574	0.1585475	0.14061478	0.18723954	-0.35018936	-0.75982225	-0.96627426	-0.50498635	-0.040864408	-0.017230332	-0.9293289	-0.0051678866	-0.35065994	0.099890426	-0.544824	-0.16894403	0.7864723	-1.2655146	-0.12211846	-0.31468463	-0.083949104	-0.5645046	-0.21372055	-0.36614093	0.584106	-0.8528809	-0.29884163	0.31447852	-0.17906718	-0.65649974	-0.88089687	0.75244474	-0.30469754	0.6905943	0.85128456	-0.5761012	-0.20488264	0.53844696	0.7228405	-0.11748492	0.4227164	-0.465801	0.90995854	-0.16622944	0.05950787	0.39579523	-0.5945297	-0.18775958	-0.8020979	0.87732285	-0.9221332	0.12418647	0.21997693	0.74577224	-0.07849961	-0.47590476	0.1277643	-0.41376045	0.8402646	1.2361746	-0.86940396	-0.20025747	-0.19563471	0.6707995	-0.95853436	-1.0829793	-0.12559032	-0.20906726	-0.03303343	0.1922012	0.56897074	-0.11191961	0.7711177	-0.41440445	-0.9073432	0.15228471	0.316666	0.81768847	0.70431566	0.14364761	0.13342336	-0.5852652	0.6612911	-0.15604423	0.103960276	-0.003317602	0.7810593	-0.39126468	-0.1063582	-0.08748345	-0.58845806	-0.48467582	0.22134069	-0.75859797	-0.035198897	-0.36626506	-0.8619714	1.6574643	-0.8781235	-0.09628603	0.12191093	-0.3406677	0.21611178	-0.17773344	-0.012845039	-0.12575409	-0.37939268	0.07640801	0.3680663	-0.97827864	0.23181783	0.19263442	-0.59877646	0.69904727	-0.37839037	-0.39885962	-0.26428717	-1.2931706	-0.46163023	0.22748737	0.29071537	0.4062757	-0.68049926	0.33085585	-0.5017812	-0.2824468
G000436395	-0.3375848	-0.3415688	-0.23342767	0.9469247	-0.13799563	-0.025804073	-0.453521	-0.4989019	0.19779198	0.19987066	-0.057623923	-0.5732351	1.0071914	0.7186716	-0.7223255	1.1320281	-0.34005967	-0.114025645	0.20559853	-0.4276958	0.58040226	-0.15394571	-0.40885258	0.051616162	-0.072618306	0.011664331	0.6886238	0.8092245	-0.77544034	0.48044315	0.18537459	0.8068397	-0.5479228	0.1937538	-0.888806	-0.50104296	-0.9096867	0.2510244	-0.27175188	-0.60563815	-0.37885696	0.12081765	-0.16657375	0.6687355	0.68031234	-0.9623946	0.07138269	0.3064953	-0.5540993	-0.17236921	-0.18601468	-0.5689651	-0.49916068	-0.37804917	0.28252146	0.31098282	0.2757399	-0.91516066	-0.9625596	0.07019551	1.5363774	0.20785657	0.72243905	-0.1901434	-0.88871014	-0.59076	1.319401	1.3530372	0.3306421	0.56675637	-0.24095556	-0.4119869	1.1155651	-0.9157367	0.9046453	-0.52723026	-0.143329	-0.054822233	-0.53549606	0.077565916	-0.05961491	-0.41556054	-0.3883705	0.08750195	0.31931657	-0.4794699	0.21686673	-0.7021562	-0.3349862	0.3424703	-0.3944806	-0.11894059	-1.0146341	0.30156034	0.004568115	0.8398503	-0.5239007	0.19965166	-0.43377194	-0.06350816	-0.2101627	-0.12890871	1.1514108	-0.032315016	-0.04612346	-0.35761786	-0.42751232	0.16938093	0.72144043	0.759321	0.7484004	-0.14998947	-0.037337348	-0.08421328	-1.409987	-0.4614216	-0.064461045	0.3250754	0.13425948	-0.29720357	0.9892507	-0.5102297	0.341987	-0.5065643	-0.26783323	-0.76258653	0.6528791	0.29411653	-0.7405895	-0.16169444	0.21958625	-0.076937325	0.057032406	-0.44385415	-0.11226924	-0.5636665	1.2716303	-0.19942594	0.09653352	-0.10034701	1.0459268	0.39196497	0.34793144	0.26512912	-0.16070963	-0.03628166	-0.21387261	-0.10497832	0.9550575	-0.8159619	0.80546343	0.22604886	0.7270134	0.115317434	-0.20526764	0.2598557	-0.2886631	0.3799984	0.83721423	0.42397565	-0.5291414	0.20169386	0.7965394	-0.18373808	-0.82846856	0.89340746	-0.057599097	-0.29243833	0.1850875	0.843625	0.38370135	0.15163818	-0.7739086	-0.8695985	-0.48747224	-0.88160884	0.80524564	0.36833042	0.05768417	0.85182494	0.49161845	0.5171551	-0.22628629	-0.013036802	0.18381718	-0.027124658	-0.12008959	-0.038286842	0.33465236	0.3427854	0.9127983	0.0035177767	0.37690198	-0.14723629	0.5338095	0.32288748	0.14343041	0.2584718	0.22937334	-0.2822786	-0.28615478	-0.55282855	0.12838179	0.39525187	-0.044154465	0.9435128	0.123794794	0.15924564	0.029338464	-0.27156684	-0.7733048	0.5702033	0.00920625	0.11732153	0.4327147	0.088106245	0.65430987	-1.1876746	1.0032449	0.9496236	-0.614026	-0.5031635	0.8437619	0.16579312	0.9213992	0.18892844	-0.14506246	1.7206655	0.32763022	-0.65779006	-0.31363443	-0.6590426	-0.44804794	0.9500494	-0.57207406	-0.30548498	-0.064609185	0.5068074	0.13644853	0.033903524	-1.3921825	0.7900447	-0.1397253	-0.57663476	0.48243165	0.075111	0.2627322	-0.15081745	0.34443963	0.4907826	-0.30202013	0.38336584	0.027042404	0.24239688	0.14096045	-0.23636332	-0.5199671	-0.78373	0.06414844	-0.08001598	0.7549867	1.3414435	-0.20002306	-0.84146035	-0.10861632	-1.1220326	-0.3019324	-0.60657376	-0.15497863	-0.38378516	1.0120982	0.2450617	-0.6898304	-0.4219786	-0.9763496	-0.6058328	-0.67360157	-0.24423376	0.668512	-0.15695196	-0.4296861	0.4208831	0.24785972	0.7443551	0.52192974	-0.8016056	0.45617923	-0.19074854	1.3129134	0.2247574	1.7002225e-05	-0.2261393	-0.85561395	-0.38317728	0.19560385	-0.62407446	0.9252564	0.56754667	-0.5324669	0.17116185	-0.7684411	0.44679117	0.19961858	0.10369471	-0.65356416	-0.018041492	-0.7119552	0.72003853	0.98307073	1.035311	-0.53559476	0.029469527	-0.62575406	1.0035818	-0.31425238	0.59445846	-1.371552	0.17562404	-0.27346197	0.16321537	-0.5558251	0.19085999	-0.7182011	-0.25776714	0.22720471	0.058903296	-0.43036714	-0.59135723	-0.40891582	0.50083977	0.48772097	0.3437308	0.6440931	0.008742921	-0.07966378	-0.09926669	0.22550157	-0.10915258	1.3943512	0.045168713	0.66406333	-0.7177572	-0.008179739	1.1522195	-0.45623907	-1.2077451	0.34431463	0.52903175	0.5060823	0.4204502	-0.0035326928	-0.20375738	0.719121	-0.26113176	0.1601018	0.20040745	0.53604907	-0.21591963	-0.20076883	0.19771048	-0.98255426	0.4629869	-0.70573616	0.5328681	0.76589507	-0.37522778	-0.12565462	0.55970854	0.91736984	0.2787857	0.44271514	0.003949657	0.3453275	0.31028754	-0.15530406	0.9598507	-0.7769356	0.23530364	0.579139	-0.24966255	0.08178428	-0.61291045	0.053617254	0.11760788	-0.1606873	-0.4986091	0.8548045	0.10004932	0.018391408	-0.6739694	0.87284076	0.41482973	-0.13739514	-0.03910186	0.46411657	-1.0172846	1.3920516	-0.46597105	0.34212813	-0.21911971	0.60439557	-0.22716889	-0.1909118	0.48147732	-0.58492124	0.026312739	-0.8198493	0.17627332	-0.79815507	-0.46234784	-0.14846286	0.040063128	-0.5308611	0.32382858	-0.00017607957	0.017746978	0.5729873	-0.5990496	0.5613228	0.78080565	-0.5223701	-1.2548523	0.5525377	0.00821808	-0.32833928	0.36862776	0.13845506	-0.00031481683	0.6160947	-0.027501822	0.57125354	0.58482265	-0.03752254	0.42017955	-1.2053629	0.7356749	-0.93233323	0.5212083	-0.60349405	0.9865977	-0.102901205	0.22216684	-0.091273025	0.064555705	-0.2864799	-0.015730485	-0.1848891	-0.919502	0.47646555	0.84714425	0.0586752	-0.017705224	0.24891073	0.08950815	-0.34928295	0.200908	-0.3860007	0.7237599	-0.16481987	-0.07841501	-0.6245849	-0.22892751	-0.36300245	0.029837579	0.035307012	0.10933225	-0.52690333	-0.47654456	-0.12006117	-0.117167324	-0.76969117	-0.620573	-0.44306314	0.08909692	0.79213744	0.6857867	-0.036955535	0.33736983	0.31909204	-0.078262225	-0.6191996	0.2409463	-0.09824097	-0.7014395	0.12444313	0.3883215	-0.07207075	-0.17937896	-0.15831634	0.26072606	-0.52068794	-0.15770447	0.2952202	-0.47671077	0.2479108	0.19635302	0.5770489	-0.59560305	-1.041128	0.7713419	-1.0421661	-1.469273	-0.71485317	0.33321494	1.2917073	-0.13875291	0.5355913	0.69506073	0.09899521	-0.43421078	0.5645638	-0.08247229	-0.37009865	-0.22980754	0.16128106	0.20951512	0.27632648	-0.20321089	-1.1833184	1.1029339	-0.17484951	0.39689612	0.55677575	0.5623403	0.63121045	-0.119585305	-0.8028075	-0.13403982	0.3310895	-0.33395177	0.092928916	0.010251567	-0.29974037	0.17441162	0.074619904	-0.07680085	0.6211246	-0.09835425	0.08886228	0.6788504	-0.36319834	-0.45197073	-0.13058311	0.07067758	0.1273554	-0.3612501	0.24783066	0.08131622	-0.026198074	0.823567	-0.7756325	0.1042403	-0.53685224	0.16042359	0.29573908	0.20108232	0.20332679	0.4440943	0.9625199	0.4218731	0.08921799	0.28451127	0.20162058	0.043312237	-1.0098146	-0.22314766	0.09324171	-0.2712809	0.121843025	-0.58485293	0.42837816	0.09227872	0.46863866	0.18444431	0.6914836	0.6454978	-0.06520867	-0.39918494	-0.28498316	1.1732514	-0.52958226	0.49774784	-0.030804098	0.0007250011	0.0054919124	-0.09864783	0.46601814	0.31685206	0.14875147	-0.26944765	-0.27894902	0.41864365	0.608309	0.22981587	0.36411107	-0.16521339	0.6770026	-0.24873891	0.16708583	-0.52448905	-0.24125549	-0.2813492	0.4132388	-0.28827688	-1.3145199	0.62106496	-0.31273094	-0.10041615	-0.29661286	0.09565067	-0.48680913	0.1911583	0.18498339	0.100917794	-0.70650333	-0.11156966	-0.34505004	-0.3883264	-0.30348697	-0.061971426	0.6392868	-0.24577385	0.18009254	-0.1777831	1.3667405	1.2262329	0.9550785	0.9912173	0.111859754	-0.3184533	0.29055712	0.6701221	0.26914224	0.18762222	0.46351177	-0.34111816	0.6496378	-0.22853082	0.53548753	-0.49749073	-0.079429105	0.90784967	0.14931671	0.16520749	-1.3102744	-0.055402637	0.56590044	0.08092046	-0.11378792	0.11388397	0.19197007	-0.60600793	-0.88389254	-0.42169407	-0.28313416	1.0102727	0.567527	0.34593782	-0.029125556	-0.52481633	0.1660209	-0.27474272	-0.28213042	0.6841105	-0.21466753	-0.607028	-0.5335531	-0.23356535	0.5417031	0.055178314	-1.207155	-0.8300032	0.33112657	0.3467027	0.8711845	0.7110834	0.25645116	0.17796713	0.6298423	-0.57574207	-1.3516097	0.14985266	0.64607555	0.12167224	-0.82595193	-0.5868347	-0.48688972	-0.36225915	-0.647751	-0.3775211	0.08885603	-0.29861215	-0.32127616	0.36114842	-0.6962643	0.035166994	0.07364297	0.5998667	-0.6287904	0.08753894	-0.7923771	-0.74263465	-0.1766289	0.39900646	-0.38073862	-1.0836926	0.42324254	0.81786215	-0.09374517	1.0116017	0.017044455	1.1353319	-2.3454428e-05	-0.73235166	0.6464554	-0.33750883	-0.5652654	0.79494864	-0.11974248	0.93594885	-0.29993615	-0.384785	0.19399321	-0.121701874	0.8747374	-0.10236581	0.85018015	-1.2137537	0.25200164	0.116304494	-0.04339741	-0.91462797	0.3620404	-0.62042266	0.16457678	0.888507	0.27233025	0.69888586	-0.26543486	-0.54046774	-1.0852373	0.0079137385	0.44956267	-0.2733243	-0.33918956	0.22083154	-0.09972693	0.5876728	-0.49008414	-0.37898558	0.6393403	-0.5388445	-1.0222116	-0.19972175	0.21097292	-0.40969425	0.1326667	-0.20784017	-0.3970382	0.65911114	-0.2655158	-0.49354336	0.005920768	-0.4977063	-0.5548256	0.20936584	0.7604337	-1.1606604	0.09396462	0.20930362	0.12513965	0.4592936	0.35382888	0.8695287	-0.14007607	-0.37092048	0.24443385	-0.19788069	-0.10544641	-0.8952919	-0.31771514	0.3878883	0.8679491	-0.94289565	-1.5072899	0.19251665	0.6081414	0.53521633	0.7064868	0.2997462	0.69163316	0.3941686	1.179902	0.41805163	-0.89732707	-0.24225943	-0.4682876	0.3104837	-0.17544986	1.6162131	-1.1304489	-0.36536038	0.6101618	-0.6562792	0.29762024	-0.92006063	1.0024025	-0.20098706	0.07549097	-0.06229988	-0.09840095	0.6732447	-0.09702342	0.047234356	-0.30362102	-0.20934233	1.1263111	-0.080844164	-0.5118041	0.75966835	0.0631606	-0.0006464422	0.22180952	0.19868599	-0.38071388	-1.6237757	-0.4982319	0.07855524	-1.0442072	0.49605376	-0.25376785	0.8031509	-0.73670423	-0.63868856	-0.100338005	-0.3480996	0.007197708	-0.3315964	-1.4355547	-0.047004253	-0.48528522	-0.34979683	-0.15619773	0.51846427	0.21897084	-0.5852202	0.2820865	-1.242274	-0.32927197	0.7034599	-0.5575702	-0.6362739	-0.6632869	0.26118988	-0.21914098	0.03762249	-0.2857458	-0.33514118	-1.3593304	1.0471778	-0.8490913	-0.8697865	0.29323387	1.1452048	0.23250034	-1.4936826	0.90893567	-0.96550363	-0.6953417	0.6560305	0.27471265	-0.3339162	0.55028427	-0.49076018	-0.7748465	0.035366416	-0.07199076	0.565675	-0.1452281	0.033372536	-0.80489546	0.11894981	-0.46439928	-0.09662826	0.31061882	-0.61931264	0.11046043	0.5851394	-1.0765376	0.6696102	-0.58361703	0.021534264	-0.21152616	-0.41864365	0.03345547	0.26835316	-0.59027433	0.26876056	-0.35649285	0.33533543	0.14312413	0.68683344	0.098549165	-0.6620368	-0.5701351	0.38594124	-0.5535762	0.09202734	-0.7325684	0.5747052	0.04473243	-0.3601036	-0.40311518	0.567532	0.43415064	-0.42020187	0.36514556	0.634231	-0.038093626	-0.9940881	0.28545147	-0.2567114	-0.18682301	-0.7207323	-0.48052275	-0.31804806	0.13232982	-0.47788176	-1.2888094	1.2681488	0.44014534	0.629547	0.42079514	-0.79537964	-0.13451454	0.9402352	0.35395887	0.15755714	-0.758788	-0.60932183	0.3168978	-0.54445136	0.6168814	0.23249441	-0.45152122	-0.51817316	-0.49966055	0.6085768	-0.16780752	0.15734512	-0.6602761	0.99528867	0.66991687	0.051882133	0.32637733	-0.8785231	-0.15267956	0.8070744	-0.09514436	0.45369002	0.42850387	0.04662776	-1.0554852	-0.49473318	-0.6183551	0.14243816	0.34379166	-0.17815182	-0.10478102	0.089301646	0.61445326	0.70498395	-0.70213085	0.43521488	-0.24423933	0.33898854	1.1841674	0.3377481	0.316738	-0.7714648	0.79472995	0.098374546	0.58321387	0.5400546	0.8534219	0.16135687	0.09209776	0.1546348	0.46426693	-0.19191697	-0.12012356	-0.44675282	-0.57520455	0.034732997	-0.898337	1.1126137	-1.0300882	0.18037699	-0.20823875	0.22716802	0.479466	0.29825372	0.54603446	0.24243127	-0.49018103	-0.5200132	0.13385516	-0.4380762	-0.20508191	0.44148207	-0.5098093	0.8721174	-0.2364461	0.051437333	-0.18364996	-0.94574	-0.6058435	0.16313395	0.08185306	0.6548809	-0.8404144	0.74800664	-0.2373502	-1.0746876
G001919485	-0.16497982	-0.2523657	-0.07532248	0.8198899	0.23812443	-0.1565587	-0.098636195	-0.3298813	-0.38306427	-0.18427175	0.044531584	-0.9860864	1.479916	-0.18180162	-0.47532248	0.40464664	0.14818548	0.5936701	0.50324947	0.5639134	0.18791875	0.12893194	-0.6181821	0.38523653	-0.44497728	-0.030014578	0.39010817	0.2739817	0.1846272	0.10065377	0.33085334	0.118180126	-0.16574675	0.16879477	0.3264035	0.5138539	-0.58224696	-0.09281038	-0.4261747	-0.07608329	0.24846637	0.062550895	0.1191201	0.49398646	0.39480937	-0.9620541	0.45046026	0.91388714	-0.12995389	0.45325196	-0.7929183	-0.27640423	-0.9111081	-0.99663633	0.6819208	0.31257212	0.5584176	-0.96639615	0.18889922	-0.37227392	0.7257793	-0.2153925	0.42237392	-0.48401034	-1.1548698	-0.6832842	0.7187261	0.8927096	0.47094154	-0.09446266	-0.23230992	0.027872212	0.73735833	0.032542408	0.07789532	0.1992718	-0.46287343	0.21444188	-0.5333938	-0.7379997	-0.81598777	-0.35518503	-0.21893981	0.48978537	0.39810497	-0.14620134	0.032730732	-0.3698768	0.92248213	0.6817614	0.14603141	0.28096706	-0.27564606	0.84963214	-0.25816804	0.88793546	0.06963302	0.6903616	-0.37425774	-0.41984266	-0.12755682	-0.2912779	0.5746337	-0.2431258	0.18861112	-0.6881377	0.09552467	0.3786336	0.3553932	0.6256252	0.63003534	-0.340743	-0.5639115	0.3916461	-0.83914095	-0.15248673	-0.31198338	0.26659375	0.29663235	0.17232394	0.52608526	-0.31117857	0.06645389	-0.7002666	0.062256936	-0.35608548	0.6900029	-0.3417398	-0.47274542	0.33599776	-0.3048934	-0.12321785	0.3683243	-0.8729478	0.18884394	-0.5810424	0.71648324	0.19371104	-0.27580747	-0.00771904	0.62540555	0.6320417	0.9250002	-0.08021343	-0.06887009	-0.56936735	0.25400418	0.041709095	0.89486134	-0.40260094	0.20680425	0.30241543	-0.19766681	0.11443296	0.057503283	0.3903249	0.24441968	0.43995228	0.4715708	-0.3718388	-0.20660356	-0.058642924	-0.12311338	-0.3959978	-0.39656603	0.3155684	-0.9388032	-0.3527043	-0.12272708	0.5484061	-0.33244693	-0.22443953	-0.17562418	-0.20507632	-0.4108323	-0.30609685	0.6271942	0.6559479	0.03532377	0.5004887	0.81337154	-0.10034123	-0.7323351	-0.16203494	-0.12921828	0.040445194	-0.39171135	0.3606814	0.20779265	-0.66139877	0.3243303	0.4211604	-0.13531674	-0.093779534	0.3241169	-0.0067512393	-0.362085	0.04200974	-0.45825446	0.30358955	-0.20633367	-0.48970723	0.7423443	0.17963666	0.13033664	0.40596312	0.402089	0.009781398	-0.4087722	-0.20285162	-0.08001981	0.33269596	-0.24314752	0.76712465	0.43304294	0.5050199	0.5576452	-0.21934861	1.0632349	0.6263193	-0.12836377	0.34177664	0.08930069	0.10250041	0.46520835	0.51271796	0.10407022	0.41747868	0.3633278	-0.6871885	-0.36387974	-0.4522599	0.029111251	0.60672057	-0.22401832	0.11086659	-0.16322781	0.53332424	-0.1038883	0.32076186	-0.6631212	0.26176763	0.31182843	0.1455352	-0.28669757	0.05856297	0.17743693	0.27520722	0.22227159	0.20515715	-0.072588176	0.59167445	-0.38633308	-0.009879082	-0.42786825	0.2780154	-0.33234635	-1.2356125	0.035793696	0.18448044	0.7972699	0.2669894	-0.1274024	-0.9182582	-0.045912623	0.15104766	0.3332796	-0.24567156	-0.5029194	0.14662331	0.9097023	0.05521628	-0.26377386	0.13357027	-0.45054913	-0.08072369	-0.10941449	-0.30235744	0.28181773	-0.40259355	-0.18026496	0.13251193	-0.28974766	-0.12428537	-0.07137674	-0.49657565	0.59969085	-0.40304658	1.0246909	-0.032009184	-0.56190205	-0.37017405	-0.86730695	-0.43614504	0.3739154	-0.6680269	0.46642828	0.15887634	-0.5918704	-0.014244437	-0.0628246	0.7744733	-0.033972204	0.6739373	-0.10833141	-0.20415784	0.23306078	0.50606316	0.38897032	0.530553	-0.84172565	-0.0040495247	-0.5993267	0.19770223	-0.581537	0.81105274	-0.3909672	1.0706635	-0.3465258	-0.12211853	0.10744846	-0.2539678	-0.06275216	-0.3968131	0.32175022	0.22103971	-0.50875545	-0.43383372	0.08177903	-0.3564034	0.701738	0.8131637	0.119827524	-0.103853226	0.6197741	0.664396	0.14534906	0.40354025	1.5843172	-0.3023563	0.12368009	0.016896129	0.43458152	0.33973184	-0.90543723	-0.5357027	0.43947375	0.06972593	0.4607234	-0.38648045	-0.34877527	0.038790584	0.19869053	-0.06750554	0.5660194	-0.43913388	-0.17446798	-0.2808187	-0.13601431	-0.085781515	-0.6774716	-0.032166064	-0.38424212	0.63690054	-0.02880742	-0.15464091	-0.120620966	0.27340513	0.685274	0.5541599	0.7966495	0.39900866	0.16906905	-0.11770876	-0.08631943	0.35791346	0.0990161	0.42654836	0.42151397	-0.38262624	0.59531343	0.23225398	0.30996037	-0.03450032	0.6834984	-0.12559268	0.057560917	0.117553025	0.25148794	0.057348005	0.11834118	0.48316067	-0.40713114	0.106248155	0.013546184	-0.024584778	0.67999226	-0.66255546	-0.62730294	-0.33349913	-0.33320567	-0.52428436	0.3124564	0.26757687	-0.17212303	0.06843305	-0.73163253	0.20735455	-0.671584	0.18982159	-0.022988275	0.32061186	-0.54819834	0.17050153	-0.22233716	-0.11603106	0.48756456	0.053041905	0.4011396	0.99291855	-0.006027296	-0.710927	-0.04192768	0.12343788	-0.26076552	0.7977363	0.61528337	0.32247022	0.13730545	-0.06917679	0.55794764	-0.29465473	0.4000387	0.14835978	-0.9865118	0.067854375	-0.34825435	0.4955623	-0.9174448	0.4636068	-0.27957433	0.38509822	0.2517268	-0.08098318	0.45184237	0.5334506	-0.46611762	-0.32621312	0.21876964	0.6517098	0.37846634	-0.07110451	0.37453923	0.30167466	-0.59777176	-0.16160035	-0.92846715	0.51816535	0.74726754	-0.3272646	-0.706445	-0.6221919	0.2983834	0.29884738	-0.13797496	0.30498755	-0.2517813	-0.5886672	0.32886827	-0.14141992	-0.6682497	-0.61187446	-0.33593887	-0.52559614	-0.16252951	0.88408864	0.1866482	0.31497955	0.15784326	-0.13518548	-0.71714973	0.7266213	-0.104097456	-0.39618996	0.09205653	0.515087	-0.36380053	-0.15408903	-0.7666067	0.7674167	-0.28085136	-0.15754199	0.4730717	0.10951313	0.08637215	0.048072904	0.13434204	-0.5937077	-0.84435296	0.6635158	-0.48389602	-0.771172	0.19936773	-0.026830405	0.21765015	-0.1945459	0.6085048	0.68102264	0.13793221	-0.17557257	0.46611834	-0.45832756	-0.14193462	0.06857656	-0.38717768	-0.24474543	0.74525785	0.32839823	-0.68846405	0.36450478	-0.011097513	0.7597892	0.63878316	0.08771247	-0.12196347	0.16953602	-0.43102974	0.16730541	0.023476839	0.50568223	0.44277263	-0.7322456	-0.5488118	0.19490555	-0.35381234	0.51366025	0.014531732	-0.695631	-0.08696491	0.42436337	-0.4240114	-0.072753936	0.07605958	0.6133442	-0.38162065	-0.16608644	-0.04168331	0.29206806	-0.13667159	0.23739377	-0.30916747	0.25344473	0.27314252	0.29617625	0.29844922	0.69491553	-0.23039588	0.18172733	1.1434195	-0.18092331	-0.39098257	0.39700717	-0.12599766	0.53877133	-0.5869688	-0.058037236	-0.1891886	0.10540408	0.034132972	-0.09291755	0.8683416	0.048472323	-0.005471792	0.4914679	0.34780708	0.14788146	0.40834317	0.43321526	0.3845273	0.61607504	-0.93708587	0.46905103	0.38362744	0.30421662	0.38903362	-0.258735	0.2997772	-0.16076618	0.83847547	-0.2527681	0.7282189	0.39190787	0.5542107	0.324405	0.10278126	-0.17660847	-0.028242707	0.19389406	-0.21840872	-0.9690505	0.06223715	-0.22051737	0.6917462	0.07860884	-0.8539008	0.27235344	-0.29495043	-0.16589299	0.3880328	0.4031109	0.33754775	0.53406596	0.0736551	-0.25382844	-0.21009247	-0.19451883	0.64110005	0.30245012	0.12584154	0.14866112	0.64225805	-0.05358237	0.57023436	0.03304127	1.62076	0.38690132	0.9759157	0.066510975	0.12664051	-0.096949786	-0.15173271	0.24529874	-0.36185807	0.7597219	0.342345	-0.7563937	0.26271978	-0.117794804	0.94959724	-0.7680572	0.007413268	0.91515577	0.23717296	-0.14807597	-0.5818591	0.096475914	0.8523016	0.041333884	-0.6633399	-0.06507501	-0.26979208	-0.83680105	-1.3220295	0.04882639	-0.37088096	-0.08933699	-0.31292728	-0.305348	0.48737735	0.07213646	-0.088426284	-0.7948098	0.12300512	0.10430225	0.37508154	-0.63263637	-1.0357504	0.12517229	0.84916604	-0.023312509	-0.50060713	-0.16275528	-0.13896877	-0.010920435	0.6173078	0.9048102	-0.19751224	-0.29697183	-0.0054649264	0.16110715	-0.41966602	0.66171813	0.34634098	-0.22985251	-0.8714675	-1.02338	0.24653678	-0.2783355	0.10048716	0.03522417	-0.42152673	0.050701916	-0.023042917	0.58349466	-0.3057416	0.30827707	-0.030614175	0.09686975	-0.850002	0.076802805	-0.10491678	0.05880098	-0.14573221	0.43827343	-0.7260604	-0.7858449	-0.06528324	0.9756801	0.03350492	0.54085743	0.10702593	0.48070365	-0.14990684	-0.15071544	-0.007621646	0.38726044	-0.5149451	0.44464386	-0.011360079	0.5915882	-0.09625237	0.35736308	-0.043096974	0.58593863	0.06733692	-0.3673669	0.45837468	-1.3411654	-0.124059156	-0.8045442	0.099757895	-0.79490733	-0.114694424	-0.94217134	-0.050359935	0.0903413	-0.10076451	0.0186449	-0.040039346	-0.062225252	-0.6707941	-0.06918007	1.2257614	0.058592886	0.29664204	0.60109353	0.67597145	0.49339756	-0.06327309	-0.18378562	0.2757783	-0.13346297	-0.62166137	-0.42634946	-0.01578553	-0.31889862	-0.12074529	-0.16905841	-0.60465777	-0.34058243	-0.18436603	-0.80854166	-0.062308133	-0.6705936	-0.34158364	0.2790119	-0.11608921	-0.7242844	-0.6624805	0.547442	0.55521137	0.23986647	-0.3513071	0.37139517	-0.5695744	0.17223464	0.5175954	0.72338116	-0.2973981	-0.74394345	-0.2960939	0.11247632	-0.61107534	0.080643326	-1.0003525	-0.23649782	0.4019231	0.095998615	0.2429378	0.7450369	-0.043535665	0.7017629	0.4162244	0.26097286	-0.7365694	-0.7656052	-0.26144323	-0.34165096	-0.12774794	0.5698395	-0.8783683	0.26932195	0.42907026	-0.2997684	0.026896596	-0.8373647	1.0895743	-0.1975829	0.48923284	-0.7674727	-0.3725572	0.4061426	0.28187445	0.27924812	-0.46478567	-0.41354823	0.92567164	-0.23068349	0.034911603	0.14907284	-0.12745447	-0.1510429	0.22753555	0.548558	-0.35826787	-1.1404331	-0.22397147	0.24270506	-0.48582923	0.08759296	-0.43292588	0.38952327	0.5754957	0.09940755	-0.32532912	-0.25599515	-0.22147119	-0.053969536	-1.3793507	0.86774546	0.4033592	-0.37686825	0.54764646	0.6992033	-0.45604992	0.06142676	-0.33935273	-1.048427	0.17427024	-0.55673754	-0.4565515	-1.1092925	-0.33296913	0.1221552	-0.025131077	0.22357175	-0.31717822	0.41128668	-0.51806027	0.12211624	-0.8514756	-0.90840226	-0.34234646	0.9570245	-0.37748575	-0.32178235	0.9299752	-0.5919673	-0.37298948	0.009261236	-0.07960509	0.087984845	0.020671383	-0.93696934	-0.6455434	0.31800687	-0.14845645	0.3843258	-0.03804429	0.18935108	0.06439021	0.14143091	-0.86252075	0.13565725	-0.40925878	-0.38589478	0.53685975	-0.033846557	-0.5157231	0.8392467	0.15262944	-0.07541756	0.14029337	0.038712308	0.12024036	-0.46920773	-0.98827	0.32766965	-0.60719	-0.39676106	0.19362009	-0.22754529	-0.13517055	-0.20704055	-0.59013265	0.018630564	-0.511317	0.11267218	0.24911475	0.04979172	0.034835596	-0.26332086	-0.34446907	0.11940271	-0.050019145	-0.11914229	-0.61553323	-0.2008557	0.47755197	-0.22230566	0.053647995	0.3827507	-0.634354	0.062407047	-0.04166346	0.067594886	-0.38314044	-0.15681916	-0.7792162	1.159593	-0.06738007	0.050714113	0.4630764	-0.4355348	0.013348967	0.96142894	-0.019557323	-0.27965072	-0.59270346	-0.08326955	-0.0366486	0.22471249	0.41383255	0.8558917	-0.63012695	-0.4098736	-0.54123026	0.25688392	-0.36117265	0.29067755	-0.6293683	0.23854418	-0.2220289	-0.16875711	0.020182595	-0.3396873	-0.0038706735	1.3865833	-0.4162678	-0.27694684	-0.21039322	0.68802905	-0.8129914	-0.45993793	-0.320402	-0.110468894	-0.118642226	0.4906235	-0.02519831	-0.07745811	0.3720909	-0.4097835	-0.63118285	0.07791188	0.015406355	0.61789644	0.44087404	-0.2972814	0.13358246	-0.58062834	0.5847303	-0.64247024	0.096710384	-0.05251424	0.4746715	-0.6322565	0.061368346	-0.1332581	-0.1819923	-0.004474595	-0.31683722	-0.8359053	-0.2015269	-0.24514005	-1.5725034	1.0773652	-0.45211607	0.27406672	-0.2716735	0.12217056	0.70374805	-0.062203944	0.52216756	0.12051072	-0.89651245	-0.68912625	0.16322422	-0.44350228	0.26591823	0.08421156	-0.08992335	-0.2901837	0.0042862296	-0.019898027	-0.0046923268	-0.26214868	-0.7081783	0.11601183	0.4222632	0.63400006	-0.31586826	0.053537235	0.22556579	-0.19827193
