G001824635	-0.54772145	0.05484967	0.13355583	-0.05747068	0.5852642	-0.106345996	0.6175008	-0.64833605	0.089393824	-0.021595523	-0.35351163	0.05004528	0.14541385	0.786378	-0.030105889	0.49078935	-0.14564078	-0.40877303	-0.3671599	0.08174582	-0.36138606	0.121942386	-0.34442782	0.050295174	0.43388328	-0.7734765	-0.0136858225	-0.48268116	-0.45172065	-0.29947084	-0.7442539	0.34907287	0.03560493	-0.5528877	0.137404	0.2631352	-0.62789524	0.6550646	0.3272676	-0.27097735	0.24041548	-0.15508723	-0.31171763	0.2835493	1.0042056	0.1053192	-0.18213044	0.061656117	0.43644962	0.6597788	0.09678583	-0.062462173	-0.7087432	-0.29579747	-0.7209334	-0.5787631	-0.2684122	-0.09140542	0.52601933	0.4246274	0.14775074	-0.41526395	-0.0229159	0.85574305	-0.18966036	0.46117452	-0.5003264	0.20631586	0.105558604	0.29023263	0.6796592	0.14361489	-0.18459961	0.15821275	0.30034733	-0.07650302	0.70132977	0.48065478	0.78870654	-0.7352494	0.27320606	0.061107844	-0.2426733	0.87187815	0.30967367	0.31540972	-0.5682936	-0.2840351	-0.2082614	0.2690769	0.0715747	0.16364148	-0.43825707	0.20776488	0.2030632	-0.89495605	0.08739116	0.24136302	0.38212678	-0.09548979	-0.1573405	0.57094467	0.013725221	0.5847198	0.15681794	0.47694224	-0.24365936	0.08749211	-0.22462401	0.12769908	-0.4497972	-0.7152884	0.2010659	-0.072998405	0.23058693	0.058856472	-0.41686034	0.6195699	0.10236804	-0.4422199	0.22105572	0.3628048	0.2453101	0.54869974	0.6602127	0.4243849	-0.057502054	-0.30655295	0.44223565	0.33144316	0.15843701	-0.4274517	-0.29124993	-0.0031825528	0.30110082	-0.27975613	0.16685209	0.666007	-0.19968604	0.09847869	-0.44075894	-0.2171687	0.45423502	-0.03997589	-0.66821015	0.18739754	0.17461506	-0.5214311	0.23201513	-0.036954343	0.9565076	0.32006174	0.49766815	0.2736807	0.36649895	-0.31525102	-0.3512802	0.50169015	-0.4314993	0.3219369	0.48862818	-0.097745806	0.27918333	-0.15799576	0.027375326	0.5630105	-0.6099013	-0.41564646	-0.47781503	0.33938298	0.21008253	0.1485644	0.021300197	-0.03179051	0.1380788	-0.6321489	0.3822263	-0.15790594	-0.3908116	-0.15738165	-0.2029453	0.06776946	-0.3798765	-0.24583799	-0.12822561	0.24319261	0.21895549	0.5745139	0.041220978	-0.41629913	0.27072585	0.115023315	-0.34255654	0.2539488	0.35139152	-0.31624758	0.755609	-0.36671698	-0.15340525	-0.79176575	-0.16473097	0.53090155	-0.10213083	-0.30688235	0.44763187	-0.30342275	0.7468997	-0.5193212	0.5197889	0.7448492	0.06600723	0.7789307	-0.20377451	0.47394642	-0.3298232	0.70951205	-0.009137958	0.037002303	0.36389035	0.2827267	0.23888683	0.02478972	0.07104275	-0.30849177	0.2856966	-0.74334985	-0.39941716	-0.34308016	0.5870371	0.41900912	0.1130109	-0.086874254	0.31791955	0.00010308623	-0.37995857	-0.24483655	-0.11681965	0.060611278	-0.4202666	0.27088845	-0.7138563	0.12155937	-0.5027659	-0.25585327	0.14945212	0.13515118	0.027804852	-0.7829352	-0.30567592	-0.57279325	0.45559263	0.20454173	-0.58000785	0.6977491	-0.37684172	-0.31284618	0.18878058	-0.35592225	0.0030949116	0.29019704	0.08108738	-0.29774952	-0.5477223	0.5614145	0.3926286	0.6460179	0.3638462	-0.43092582	0.04288572	0.44265592	-0.09087716	-0.17532748	-0.92304903	0.39258546	-0.6326353	-0.35185122	0.08210625	0.0640986	-0.13643484	-0.78626406	-0.16730575	-0.36228055	-0.50443894	0.1688531	0.55373955	-0.057372592	-0.2829634	0.76834923	0.75638765	0.3755159	-0.9558864	0.027357131	0.39788923	-0.17648865	0.2407015	0.056819245	0.5286979	-0.24432027	0.39670524	0.04187952	-0.09660088	-0.5901147	0.21511063	-0.45810792	-0.009707913	-0.5701943	-0.15833345	0.104801655	-0.13669848	-0.042108238	-0.3350965	0.30965856	-0.87037134	0.27261263	0.7219579	-0.34541285	-0.29387695	-0.5171839	-0.47845662	0.3061834	-0.12375207	0.60922515	-0.08362937	-0.23564997	-0.10263409	0.5828929	0.8569515	-0.542483	0.0074834377	0.12516788	-0.034695175	-0.57519734	-0.605723	-0.17410251	0.63020265	0.4107749	-0.21850106	-0.92920387	-0.40891778	0.63299394	-0.21210273	0.6029529	-0.27254343	-0.13639078	0.4238602	-0.45597187	0.13959134	0.09814861	0.06590998	0.35758	0.274599	-0.57582617	0.052698523	-0.035726003	-0.28575268	0.76603365	-0.43026	0.4485364	0.30634838	-0.38399255	0.42092264	0.5184101	0.7981816	0.5502379	0.058543265	0.31861365	0.15211424	0.2710905	0.17726107	-0.12904991	0.62574667	0.0070556104	0.4594375	0.016981661	0.23257636	0.14997213	0.17814049	0.21803866	0.061326712	0.10885165	-0.40287012	0.32455397	-0.111870274	0.29383615	0.498532	0.21442351	0.7344061	-0.48312593	-0.23514634	0.4471745	0.24319905	-0.16640863	1.3754206	0.29418546	0.34738535	-0.21374626	-0.056734852	0.6194805	-0.42601103	-0.70456755	-0.5252588	0.43253595	-0.35676295	-0.4507122	0.3888957	-0.09738934	0.09859423	0.33750716	0.18156186	-0.5288896	0.2839531	0.22101593	0.87720275	-0.25644523	-0.09832461	-0.3271946	-0.08779485	-0.2216262	0.8564998	0.17642319	0.49921364	0.19878936	-0.18765038	0.3335522	0.7072072	-0.44626647	0.12566164	0.018620916	-0.2541655	-0.59938866	-0.19897524	0.06349778	-0.32009643	-0.093973264	0.20161925	-0.39838845	-0.49936986	-0.027101994	0.005414568	-0.40924758	-0.010793656	0.066088244	0.021492153	0.5226017	-0.1364539	0.16339803	-0.3723796	1.2519	-0.81242085	-0.60473514	0.51144326	0.56465054	0.8345172	-0.6821209	0.37150264	0.55827856	-0.36934856	-0.5645978	-0.17856047	0.6220348	-0.14646387	-0.13086873	-0.2720734	-0.18445094	0.15449521	0.50440943	0.07838605	0.24601474	0.17356199	0.699056	0.16409928	0.055041105	-0.13897924	-0.37237018	-0.32921052	0.20919195	0.044067968	0.2235673	0.118625745	-0.04528457	-0.42108762	-0.04908526	-0.16244985	0.20254678	0.28460976	0.005950749	0.1056179	0.6724617	-0.4620903	-0.07923421	-0.8064333	0.3267005	-0.36624348	0.22889793	-0.6189681	0.84755313	-0.2967348	0.30613562	0.23706079	0.2340513	-0.2967124	0.6598511	-0.051008195	-0.014749605	-0.15306792	-0.43316886	0.10676011	-0.21882932	-0.85314953	0.38655016	0.2687729	-0.16779862	0.11559692	-0.5741242	-0.24330683	0.59528667	-0.020422451	-0.14113198	0.48903966	-0.099608004	0.1946183	-0.15933484	0.8295564	0.23023818	0.7099906	0.051677838	-0.07370874	1.3283777	0.5627955	0.14800657	-0.55619437	-0.09645592	0.03362465	-0.05568607	0.07589799	-0.23746221	-0.15391344	-0.04794666	-0.06794739	0.52417165	0.024445668	-0.3948065	0.38036358	-0.30143356	-0.32368493	-0.27802053	-0.049526006	-0.25121352	0.5096366	-0.078594655	0.08791067	-0.025958352	-0.29866552	-0.60953236	-0.25312686	0.6530433	0.78703064	0.45876002	0.051115006	0.5153512	0.24757975	-0.07396097	-0.23603256	-0.32052505	0.060590208	-0.27225512	0.23280182	0.24131787	0.6461708	-0.22827648	-0.027501784	0.19369054	0.30983663	-0.46254134	-0.6984388	0.10939136	-0.36511627	-0.69237304	-0.16872963	-0.37144315	-0.14522482	-0.15224826	-0.49381942	0.24061309	0.017739609	-0.6973276	-1.1614115	-1.3541747	-0.3107942	0.28746292	-0.2710369	-0.27876186	0.13578416	-0.43383223	-1.0367941	-0.46469462	0.21158226	0.102055565	0.652993	-0.04258351	-0.2312688	0.7253136	-0.7963773	0.77639043	0.7733098	-0.19503918	-0.4131551	-0.21312994	-0.26634562	-0.06365815	0.5608908	0.6269478	-0.5818666	0.8396572	-0.10726161	-0.5733482	0.8063423	0.009172484	-0.42744347	-0.23402205	-0.596137	0.09758943	0.9432097	0.8659172	-0.54575986	-0.16677131	0.57505035	-0.66170126	-0.33526993	-0.2446792	-0.4965547	-0.059086308	0.18441668	-0.29703525	-0.40141553	0.30075303	0.1479609	-0.6811889	-0.49249193	0.17719112	-0.03688565	-0.055902228	-0.19831981	-0.4371881	-0.07751629	0.16270977	-0.19067338	0.7275631	-0.30701298	0.0073364973	0.26946872	-0.22183654	0.55548966	-0.20773761	0.11900517	-0.36830088	0.1832408	0.12534991	0.48526546	0.27905786	-0.9092058	-0.2009457	0.054219604	0.8356409	0.15392494	-0.6052691	-0.22952366	-0.74752486	0.0068267174	-0.4849649	0.5018061	-0.05827778	0.37230003	0.0062007643	-0.5214509	-0.21700248	0.26887858	1.241897	-0.19237268	-0.104211785	0.27253902	0.70231307	-0.36281243	0.110019006	-0.29906002	0.059480168	-0.03409639	0.38069627	-0.51679504	-0.97962606	0.19374941	0.30011272	-0.53372955	-0.25335842	-0.5510435	0.49192008	-0.7613781	-0.103101164	-0.71263474	-0.07616161	0.2368451	0.8036326	-0.40232548	0.7093806	-0.78602296	-0.110119075	0.49800867	-0.40481508	-0.4456187	-0.34609365	0.088208035	-0.08465272	0.78279006	0.07110788	0.16227283	-0.103847094	0.25942707	0.27919728	0.42901373	-0.28921014	-0.47307992	0.40449566	-0.34017867	-0.1275821	-0.6444809	-0.8175602	0.14848055	-0.06568365	-0.013622366	0.5045494	0.6567351	0.08094316	-0.1440002	0.8359648	0.7654714	0.3272758	-0.031556137	-0.12506133	-0.73380584	0.26610252	0.27078754	0.34383535	0.28373018	0.47027618	0.10192311	-0.04683629	0.25932866	0.12638785	-0.09322217	-0.505396	-0.2348046	0.19193238	-0.42110544	-0.4317835	0.14716293	-0.087131426	0.10009821	0.57048714	0.44959396	0.751248	0.6177057	-0.4714495	0.43746382	-0.012540206	-0.6432604	-0.18745129	-0.13858613	0.22875394	0.86831933	0.052412733	0.06342012	0.25505793	0.09542841	0.5762256	0.28387326	-0.41984704	0.35908976	-0.09953592	0.3166479	-0.4655329	-0.08077914	-0.020585805	0.32985583	0.36860934	-0.41760445	0.26300928	-0.14763153	-0.4864919	0.52753353	0.7259991	-0.3073305	0.19736491	0.061845377	0.45273435	0.7539765	-0.062233105	-0.15917185	0.028636426	0.5616991	-1.0932231	0.39367247	0.34985733	-0.37466484	0.41788298	0.18338525	0.05373181	-0.28342122	0.5660752	0.3806498	-0.6573832	-0.4749617	0.27925903	0.6747565	0.05670154	0.6509549	-0.2984751	0.19726202	0.047709435	-0.27184498	0.29077402	0.00016117468	-0.033176146	0.24006164	-0.65744716	0.49665576	0.0043769926	0.046140775	-0.56579554	0.3145316	-0.035326466	0.0935173	1.5154878	-0.32410616	-0.2437627	-0.27606443	0.31196	-0.3149165	0.2865317	0.6537803	0.49578178	0.04242434	-0.4691529	-0.76984596	0.35526028	-0.40416107	-0.87196827	-0.016599484	-0.4564419	0.21855204	0.061622605	-0.40382034	0.31243995	-0.7222022	-0.30141878	-0.44505635	0.17360248	0.43604386	-0.14803219	-0.7381264	0.36118025	-0.530478	0.29574752	0.18988538	0.017061025	0.30124867	-0.32024765	-0.1343147	-0.23498105	0.07307845	0.0883877	-0.7734189	-0.42399392	0.32288167	0.28656638	-0.12227154	-0.84144175	-0.034858003	0.21349463	-0.16883859	-0.112798445	-0.12277919	-0.79415816	-0.23709792	-0.09109225	0.5533049	0.18072641	0.607078	1.1549475	0.39068356	0.13318893	-0.08543536	-0.5001715	0.024702504	-0.50880545	-0.29615337	0.46456572	-0.46648812	-0.6818615	0.26418138	-0.4493561	0.6425695	0.7080764	0.34031165	0.6263538	0.80959994	-0.3553445	0.004425347	-0.18899518	0.08011161	-0.13728327	0.1722059	-0.10100147	0.0680991	0.5007064	-0.08020063	0.5633182	-0.6407885	-0.43908668	0.45171398	-0.5890747	-0.4202321	0.35081014	0.060960963	-0.40042776	0.2388784	-0.6840137	-1.1220973	-0.46122366	-0.21371363	-0.45297593	0.38116682	-0.48271263	-0.29829454	0.52695733	-0.6516029	-0.29237348	-0.037158847	0.141419	0.46295795	-0.23450698	0.024555042	-0.09028749	0.002969101	-0.13197097	1.1088243	-0.09232262	0.08992174	-0.16491327	-0.053804114	-0.06406593	-1.0124538	-0.5986901	-0.6359582	-0.60371953	-0.41036367	0.0046866536	-0.0073154345	0.8402741	-1.1197524	-0.2278458	0.18272367	-0.17206734	0.16179074	0.027188212	0.6371504	-0.23699798	0.27126372	-0.081694916	0.59552693	0.5542816	-0.20740864	0.11475977	-0.15148303	0.08204871	-0.5553668	0.004341662	0.15166718	-0.15415505	-0.31443483	-0.92841595	-0.16414955	0.13875158	-0.44691214	0.13593501	-0.35429946	-0.4154835	0.24212642	-0.34243253	0.75315946	-0.010629095	0.9444025	0.05835831	0.98733354	-0.07599923	0.13887757	0.3457026	0.39613292	0.2743288	-0.057003774	0.41537946	-0.70034945	-0.3910932	0.37955976	-0.8145081	-0.02447746	0.54649264	0.30665463	-0.24528544	-0.5544728	-0.114957795	0.09713265	0.15607712	0.43643415	-0.2257148	-0.53414536	-0.2973399	0.2964583	-0.60695875	-0.024043173	0.6696496	-0.08347042	-0.044623286	-0.20840323	-0.0959995
G001778315	-0.18637738	-0.30866042	0.34208432	-0.05460444	0.43873784	-0.107728556	0.5610751	-0.34620225	-0.4474014	-0.2452087	-0.74060524	-0.088539906	-0.519411	1.0563011	-0.40296832	0.6229919	-0.2309957	-0.5101872	-0.33981752	-0.06603653	-0.10839197	0.16647789	-0.41372353	-0.46295488	0.5956911	-0.916343	-0.32962024	-0.58761024	0.093073584	-0.05359152	-0.48316437	0.3283298	-0.5654759	0.01464054	0.12708177	0.27820778	-0.52931964	0.6861335	0.29722825	-0.033588953	-0.23663373	-0.4565603	-0.33126998	0.29748464	0.69127905	0.49189878	0.17244922	0.11789784	0.36314017	0.93215084	0.13341571	0.011502087	-0.46450377	-0.14810063	-0.88775635	-0.34573913	-0.07286818	-0.08729325	0.8500196	0.1132803	0.0049274266	-0.9918995	-0.6034216	0.93106234	-0.17120978	0.27095747	-0.7517836	0.09435797	-0.20062903	-0.05718781	0.8696636	0.1213551	-0.69260997	-0.16961601	0.11075173	0.33885604	0.5427284	0.43076208	0.8552424	-0.15322262	0.67936707	-0.013314754	-0.75441706	0.9554821	0.028548688	0.11313161	-0.3902602	-0.5648649	-0.63480955	0.64392614	0.41584146	0.28905386	-0.741066	0.17819956	0.23903954	-1.0832855	0.2926219	0.5834133	-0.19355291	-0.38169426	0.14514525	-0.13661066	0.13482869	0.589378	-0.22802797	0.23302005	-0.013231158	-0.71155226	0.5656748	0.4289041	-0.777153	-0.8108121	0.042810984	0.09578872	0.2847341	-0.23846975	-0.2754962	0.5112736	-0.4163479	-0.41440326	-0.088140786	0.5984778	-0.045020968	0.34518126	0.060570933	0.5082738	-0.2619416	-0.09573806	0.63561714	0.21677905	0.75454396	0.122317374	-0.4539778	-0.34001344	0.24323282	-0.56343985	0.10655412	0.30008847	-0.6785012	0.050811738	-0.3994501	0.19981349	0.16720586	0.15244074	-0.838134	0.69900686	0.20167257	-0.7019222	0.12614915	-0.47457418	1.2022772	0.44449285	0.42052504	0.30528677	0.7267504	-0.6582593	-0.5423125	0.3736882	-0.42706066	0.33031416	0.6236175	0.040069133	-0.10297266	-0.7632226	0.8026476	0.87786454	-0.3592337	-0.42243308	-0.3575215	0.24271801	-0.22729906	-0.3641118	-0.28646055	-0.0064532943	0.27756587	-0.5408362	0.6791448	-0.2921412	-0.057009667	-0.7509652	-0.8070226	-0.38776568	-0.48074847	-0.69547606	-0.46764663	0.062410608	-0.013751894	0.6359762	0.3400248	-0.3190457	0.43124428	-0.025208756	-0.5485158	0.31061432	0.12182897	-0.5022472	0.74856097	-0.18568113	-0.09501046	-1.0858192	-0.36886534	0.6325892	-0.3240132	-0.40684927	0.3683654	0.0061644316	0.46726382	-0.4614912	0.98901325	0.6578824	-0.0153826475	0.4701904	0.18985254	-0.030303389	-0.060835294	0.39213634	-0.22972712	0.26484597	0.2528122	0.4464104	0.16474317	0.3817887	0.55493987	-0.25432462	0.108095855	-0.7205108	-0.41518128	0.11085423	0.005621992	0.0072526634	0.28478634	0.11652283	-0.001552552	0.08570942	-0.47418177	0.057549804	-0.35861558	-0.05410263	-0.38178518	0.3495661	-0.8539051	-0.20029607	-0.654357	-0.18590137	0.11386987	0.4731764	-0.07638347	-1.186568	-0.7195833	-0.4962146	0.8018813	0.5718591	-0.66557324	0.8916203	0.15294445	-0.55126417	-0.16580543	-0.030738354	-0.32104492	0.44600725	0.15658768	-0.123438716	-0.7801216	0.65103996	0.21979699	1.29461	0.34958088	-0.2842438	-0.16880696	0.5036444	0.2922239	0.07625002	-0.58947194	-0.06251627	-0.35243428	-0.4090037	0.2370426	0.7479948	-0.30208498	-0.7501398	-0.2959759	-0.7132647	-0.89968795	0.20365158	0.9742607	0.048668556	-0.08096124	1.1900828	0.33567205	0.64799947	-0.7692648	-0.061381493	0.39016086	-0.30911043	0.26516256	-0.21493292	0.5185966	-0.08298364	0.28933945	0.20154135	-0.26999563	-0.10750435	0.4206758	-0.15330453	0.28931957	-0.37745956	-0.011091366	0.46488693	-0.2072509	0.09665039	-0.26092923	0.10364181	-0.9364934	0.36813927	0.18923894	-0.67494535	-0.1331119	-0.23275435	-0.1443907	0.44884	-0.29186004	0.6276936	-0.13666528	-0.585906	0.42608124	0.11402206	0.9139934	-0.2961067	-0.36981955	0.2632069	-0.6278071	-0.3230375	-0.43924785	-0.06410039	0.21839893	0.3196578	-0.43663716	-1.036363	0.27312407	0.4346174	-0.0044982135	-0.043898165	0.41841507	-0.443927	0.36866584	-0.20744434	0.28337651	0.2530828	0.6901367	0.64761245	0.47985077	-0.60562253	-0.31949323	0.04388071	-0.25724757	0.2392393	-0.5960068	0.1569904	0.124766245	-0.79507244	1.0224032	-0.24962406	0.89531916	0.9606779	-0.155177	0.23378265	0.07901828	0.12875271	-0.29707077	-0.47913748	0.41126472	0.19890207	0.09981765	0.09393483	0.21897879	0.33876082	0.62992406	-0.25216746	-0.04116386	0.051420733	-0.29664862	0.5668243	-0.14308432	-0.0024901628	0.44522274	0.27634615	0.94578123	-1.2905539	-0.09290439	0.4457927	-0.047468364	0.30285972	1.3685498	0.19846275	0.13957596	-0.8774952	-0.7755367	0.22089899	-0.63951766	-1.1062086	-0.8975912	0.652946	0.06435639	-0.7610773	0.25576496	-0.13644868	-0.086554885	0.2120318	-0.33949953	-0.5562518	0.35257494	0.10330653	1.2564363	-0.06712839	0.39537045	-0.83481073	-0.4268602	-0.0072641373	0.5689943	0.5168157	0.4670828	0.060318813	-0.43698305	0.62485075	0.9136517	-0.33469558	0.21546984	0.009918217	-0.03931439	-0.858983	-0.35051852	0.34719914	-0.26336053	-0.047649592	0.066547096	-0.4503083	-0.9777529	-0.12093431	0.1446731	-0.03192568	-0.53062236	0.45596257	-0.23786665	0.77409244	0.06532551	0.061464727	-0.6821048	0.5200001	-0.6497434	-0.23775676	0.3124527	0.763106	0.059168715	-0.57799184	0.23721549	0.3441514	-0.22817208	-0.15638104	-0.074480355	0.72315216	-0.8543409	-0.5446976	0.2609331	-0.3746952	0.11669364	0.49519604	0.38209224	-0.0934142	0.5850768	1.2150791	0.18600495	0.19938815	-0.1271453	-0.6104416	-0.26713598	0.35187286	-0.12539867	0.9666501	0.5181776	0.40500754	-0.571516	0.24615246	-0.88519365	-0.06945993	0.44373798	0.013748467	0.3559684	0.89379334	-0.053337604	0.03799106	-1.2291785	0.6572031	-0.71475405	0.20934838	-0.8116394	0.58482575	-0.23328543	-0.1897176	0.2650146	-0.026181147	-0.09446399	0.23676774	0.0876195	0.2916066	0.08947414	-0.76591766	0.42189032	0.24246901	-1.0128574	0.16430283	0.57931525	-0.023785472	0.3795176	-0.17488761	-0.09338303	0.8247365	0.15478984	0.08696349	0.73984504	0.17233343	-0.284794	-0.25527942	0.60195094	0.2856475	0.08656367	0.32264975	-0.047169358	0.90091264	0.09990795	-0.023333661	-0.07089427	-0.6391458	-0.2392219	0.35740638	-0.110728055	-0.25482896	-0.1230436	0.2792873	-0.30336076	0.49954748	0.045933574	-0.5925457	0.3181444	-0.45056543	-0.10867392	0.36699894	-0.2777136	-0.7067029	0.7479543	0.13769078	0.20153756	-0.57870877	-0.38235304	-0.68430316	-0.28058088	0.85863954	0.727592	0.88323075	0.4276471	0.67959726	0.6664022	0.16660333	-0.55593324	0.1755065	-0.089449555	0.16504827	0.32038492	-0.42045662	0.48339733	0.45253983	0.045304187	-0.051038623	0.7636378	-0.37259084	-0.7949519	0.021782558	-0.19307515	-0.91521895	-0.1680606	-0.3756669	-0.2553717	0.5416541	-0.69966245	0.2620564	-0.2660741	-0.64061475	-1.2002305	-1.1002805	-0.34666702	0.19376849	-0.35776496	-0.47502142	-0.16538247	-0.10445523	-0.13297783	-0.25785053	0.21939003	0.061176848	0.3970325	0.54297763	-0.77492535	0.6855093	-1.1314721	0.65440226	0.75176156	0.018994883	-0.9699916	-0.64259833	-0.6879338	-0.51772904	-0.07108939	0.477335	-1.0979359	0.75250506	-0.26393634	-0.45195735	1.0751661	0.05489123	-0.36934155	0.10596198	-1.0639945	0.35632092	1.2080839	0.97894144	-0.60804117	0.023973107	0.51395905	-0.4144076	-0.054961786	-0.08527443	-0.2771296	-0.18783706	-0.093266435	0.002981469	-0.6101123	0.31169042	-0.28401408	-0.54969716	-0.77146095	0.6765326	0.3350915	-0.17212453	-0.19133571	-0.49029326	-0.29241824	-0.12287098	-0.115625374	0.32121766	-0.49460375	0.522881	0.4980878	-0.09900593	0.6691671	-0.32314935	0.09041566	-0.4838969	0.63781506	0.18908325	0.18970656	0.2148191	-0.4240025	-0.28166375	0.20252976	0.4746049	0.57967365	-0.37481102	0.02827388	-1.183285	-0.27920705	-0.3255378	0.5271889	0.027737241	0.40482324	-0.2399361	-0.36026698	-0.31305033	0.4189744	1.5627372	0.3027001	-0.52956045	0.3080816	0.62695897	-0.5226925	0.2674779	-0.025132239	0.77890337	0.33276838	-0.24501306	-0.5024169	-1.2386178	0.1652635	0.11239609	-0.6200394	-0.24845153	-0.003773205	0.3725068	-1.0088851	0.49341404	-0.115599245	-0.2771803	0.5689961	0.8842089	-0.33326042	0.702008	-0.11440627	-0.5848609	0.6254747	-0.11419384	-0.29046226	-0.46596164	0.261113	-0.070553675	0.56514096	0.11166254	0.71635914	-0.7464296	0.43990445	0.2313317	0.7810775	-0.09706393	-0.24938208	0.49541506	-0.32632414	-0.15729585	-0.39009714	-1.0254216	-0.09610558	-0.27037838	-0.2921843	0.7514783	0.49606803	0.2557752	-0.49371994	0.6655288	0.7511849	0.2056495	0.25925267	-0.3394162	-1.1368641	0.4493728	0.44708273	0.24977116	0.5568224	0.27317077	-0.22183691	0.21833096	0.14792967	0.20176384	0.17618766	-0.39199808	-0.20734203	0.24844615	0.02486445	-0.6544404	0.08680837	-0.13117723	0.13642627	0.29491746	0.46374905	0.5275332	0.3414622	-0.3285194	0.2742107	-0.033106863	-0.28495455	0.22259891	-0.3890696	0.0014937818	0.7945261	-0.19215414	-0.3775937	0.41767	0.5962145	0.37261912	0.6922445	-0.17954847	0.6045778	0.26695555	-0.13742986	-0.582513	-0.25652534	-0.28434464	-0.058864653	0.49086034	-0.25746122	-0.15332073	-0.07889314	-0.45078063	0.41084167	0.31237528	-0.85877657	0.026561022	0.34010512	0.51559436	0.94757557	-0.3546816	-0.06269732	0.04835397	0.8653661	-0.8949293	-0.043567676	0.5593113	-0.13151938	0.80847144	0.48484206	0.4342138	-0.19500276	0.55087614	0.05861652	-0.9815625	-0.16128837	-0.015212059	0.5419003	-0.19614227	1.2196921	-0.83343613	0.1687091	0.43285477	0.27047652	0.2389921	0.37719387	-0.15970914	0.07646398	-0.47383428	0.40946108	-0.38945755	-0.102854	-0.5352612	0.37456432	0.623972	-0.13581568	0.74250096	-0.1470299	-0.22956431	-0.638926	0.23511407	-0.43161732	0.60666233	0.10411292	0.33980015	0.0074107945	-0.7690194	-0.17649728	0.4580771	-0.5195993	-0.5740399	0.17327297	-0.3349322	0.18650931	0.15547127	-0.23004666	-0.20481472	-0.46831346	-0.19659185	-0.6458427	0.14442983	0.25901115	-0.069055274	-1.2237463	0.3455394	-0.467559	0.16014358	-0.09300262	-0.32396895	0.05340509	-0.86912596	-0.32420766	-0.76217264	-0.039853126	0.1164484	-1.0932463	-0.41046172	0.41030025	0.043590173	-0.50757396	-1.0009189	0.09675659	-0.14324433	0.034372583	-0.16387539	-0.16835722	-0.39677185	-0.06435655	-0.2911014	1.042804	0.46149415	1.2500297	0.9722972	0.35031912	0.07213403	-0.13774975	-0.452738	-0.45997182	-0.7587345	-0.6830113	-0.11419803	-0.13540995	-0.4239221	0.02702333	-0.6119781	0.69502974	0.4935047	0.7883079	0.52026975	1.4148308	-0.457184	0.19556189	0.32579786	0.28501436	0.1296097	0.3406535	-0.4965676	0.09216237	0.47748086	-0.15488365	0.94286954	-0.6370768	0.25699633	0.7734965	-0.77116615	-0.5899397	0.40095565	0.17086096	-0.1850871	0.11901787	-1.3230982	-0.62650335	-0.7666036	-0.2456421	-0.33204633	0.2309741	-0.46199393	-0.29068223	0.16847807	-0.50995135	-0.26717523	-0.012369573	0.14212608	0.17873305	-0.21296391	-0.28448784	-0.2858443	0.48363942	-1.2880994	0.63000864	-0.16802563	0.20424883	-0.605551	-0.10762483	-0.0059916526	-1.1269565	-0.27590927	-0.5339305	-0.4781233	-0.36945736	-0.19165367	0.3570143	1.2592471	-1.2485003	-0.37189087	0.44613257	-0.18288821	0.59898394	-0.020988733	1.1403188	-0.0819518	0.2339288	0.04726582	0.7536884	0.57472336	-0.041509107	0.3325974	-0.37026477	0.27821958	-0.5078	0.010263659	0.17371958	-0.17438962	-0.14215544	-1.2519941	0.07924748	0.08029254	-0.20281145	-0.20132093	-0.30162326	-0.9540495	0.05743274	0.15792109	1.387393	-0.33301425	0.97093457	-0.45999977	0.73087025	-0.05176896	-0.22095907	0.36464906	-0.07955973	0.83000314	-0.41969913	0.48506957	-0.5351611	-0.3835368	0.18044618	-0.2369973	0.22941574	-0.20159149	-0.18694806	-0.6232735	-0.5358504	0.0790736	-0.40281546	-0.053411394	0.5755622	0.33739042	-0.4376304	-0.29586238	-0.42369843	-0.52693224	0.16233402	0.68324345	-0.36055598	0.08547471	0.1443868	-0.39609045
G000165715	-0.66574067	0.500839	-0.03422284	-0.026034601	0.17711239	-0.4885267	1.217307	-0.9704072	0.28097406	0.09075579	-0.47729564	-0.019037172	0.2780313	0.5747161	-0.3506309	0.4752538	-0.45998767	-0.10115801	-0.35499507	0.22648907	-0.44137135	0.011178732	-0.39753628	0.31899923	0.8944056	-0.9049021	-0.25019285	-0.2414841	-0.13239966	-0.4199256	-0.9067546	0.9354571	0.21211888	-0.48286983	-0.1827349	0.10546188	-0.49972644	0.39476252	0.7171522	0.17487773	0.40675837	0.36288366	-0.38044667	0.2336007	1.0563718	0.06593089	-0.62204635	0.04866323	0.40615875	1.0257361	-0.22397369	-0.040513664	-0.71221	-0.6606446	-0.5002535	-0.8998748	-0.45128027	0.41783002	0.28606263	0.40891033	-0.016403444	0.10703313	0.09522419	1.1401148	0.035100967	0.6340879	-0.63400286	0.13586889	0.08160347	0.17174251	0.4856795	0.12318337	-0.28241533	0.19568975	0.42757925	-0.3729921	0.49155274	0.5156456	0.5864117	-0.705003	0.3018658	-0.064655304	0.19366392	0.67305696	0.4477365	0.3211447	-0.7063696	-0.15086623	-0.2860303	0.12230882	0.13682587	0.4189952	-0.8929014	0.44619143	0.25446638	-0.84153724	0.010237023	0.5212501	0.43230656	0.47822624	-0.57462525	0.82396424	-0.049897224	0.25939083	0.35321122	0.44012505	-0.50618464	0.074788585	-0.16751528	0.01838559	0.11461069	-0.69492507	-0.12628607	0.38346612	0.28552514	0.1382564	-0.18401353	0.58360916	0.38685006	-0.679322	0.3995818	0.50414765	0.103667356	0.7216822	0.69354796	0.48456526	0.09735441	-0.56901956	0.3864607	0.35856223	0.303523	-0.5320074	-0.5514215	0.05082283	0.27034152	-0.43914127	0.29185182	0.50234497	-0.019089729	-0.15715289	-0.33266357	-0.1713826	0.30517465	-0.23012324	-0.56092566	-0.10546511	0.28184748	-0.60374725	0.7608355	0.3374128	0.7458912	0.033295542	0.38335282	0.19748932	0.11803517	0.06504542	-0.1259344	0.34890342	-0.5204556	0.11926435	0.6735077	0.10408732	0.47816843	-0.018587127	-0.48281044	0.33626387	-0.8322325	-0.5562201	-0.38044482	-0.15183172	0.4489814	0.48579764	0.43860817	0.074536406	0.47127146	-1.1175413	0.33848366	0.2542095	-0.4078014	-0.23425813	-0.116149664	0.070300974	-0.5095314	-0.29464447	0.18903491	0.18339163	0.0024298728	0.28149557	-0.23142126	-0.09761589	0.08655424	0.47246206	0.18961906	0.18545252	0.3882873	-0.7082659	0.70056945	-0.528298	-0.4516812	-0.48381674	-0.20132488	0.49453443	0.55730486	-0.5410795	0.9770048	-0.43830407	0.7178067	-0.49260372	-0.15996854	1.2372657	0.15391487	0.865983	-0.7434317	1.0755697	-0.7262721	0.4986034	-0.2763167	0.047476456	0.32457656	0.3938072	0.17888418	-0.18854426	-0.34591576	-0.36123115	0.39814097	-0.5880196	-0.4577223	-0.3027374	0.4022243	0.8048697	0.14821482	-0.08695195	0.6871287	-0.13897447	-0.5596281	-0.5024404	0.067947805	0.17844355	-0.114553146	0.14889906	-0.46738088	0.060978413	-0.36026764	-0.14698406	0.38036162	0.0125437975	-0.38694715	-0.4414717	-0.28496593	0.025976859	-0.1489613	-0.4121313	-0.026613824	0.38629055	-0.5952588	0.13963911	-0.088878244	-0.63948613	-0.19532678	0.26877594	-0.23292398	-0.008032694	-0.27901927	0.3594001	0.05748575	0.49658203	0.60736763	-0.67754555	0.42034402	-0.3997093	-0.7688783	-0.57095855	-0.80093944	0.54891086	-0.46756178	-0.3494969	-0.25995892	-0.36034152	-0.039744705	-1.3014879	-0.52132654	0.03650631	-0.42881507	0.20006067	0.51740074	-0.17725009	-0.16959503	0.77392906	0.62684417	0.53783494	-1.1543663	0.33927798	0.47322932	-0.15874967	0.10677916	0.07489684	0.9876849	-0.17174093	0.500705	0.21130115	-0.27842748	-0.9398541	0.16210508	-1.0469248	-0.04712303	-0.7912688	-0.27079922	-0.07162163	-0.39189243	0.10654684	0.0671227	0.3345124	-0.71957797	-0.008442283	0.8063773	-0.34014016	-0.5331466	-0.3168767	-0.67603034	0.1797286	-0.27395257	0.29886365	0.043516114	-0.5594954	-0.72898	0.6647146	0.5997776	-0.7249516	0.40673792	0.0398688	0.06631693	-1.1160141	-0.64743114	-0.74520946	0.72592384	0.046925664	0.24107756	-1.1247587	-0.45074308	0.4114586	-0.09880948	0.96077764	-0.4633361	0.022591963	0.41493616	-0.9223689	0.5199074	-0.53808486	-0.12621304	0.6220606	0.12945591	-0.71902025	1.0014082	0.20809019	0.033021297	0.8196304	0.06466441	0.43310285	0.5249697	-0.43605638	0.50580883	0.5922394	0.8693472	0.1007708	-0.10583968	0.45950767	0.29174915	-0.07656728	0.3727547	0.18143469	0.40346068	-0.39522147	0.40659806	0.04588837	0.038686603	0.09134653	0.06568807	0.13738778	0.26153144	0.45069385	0.03901124	0.15976936	0.35278788	0.46900016	0.33432674	-0.27620393	0.89694417	-0.18044892	-0.22356555	0.7754297	0.32673836	-0.2339099	1.2265618	0.17925975	0.39445347	-0.13636245	0.21973978	1.5778017	-0.13463417	-0.45529953	-0.4652212	0.15338486	-0.74471766	-0.009492911	-0.22368476	0.34652787	0.07787296	0.5360969	0.4488768	-0.4640504	0.500627	0.08316666	0.6790762	-0.52150524	-0.23906042	-0.14753848	-0.3031303	0.18336459	0.6042455	0.5847734	0.4433094	0.0304472	-0.2738822	0.5299155	0.91019696	-0.5416778	0.1499843	0.61195797	-0.783148	-0.23496342	-0.04332187	-0.18582062	-0.8063065	-0.16498998	-0.30477068	0.1840102	-0.3516799	-0.054418594	-0.35614508	-0.7617035	0.23617145	-0.1388288	-0.55393916	0.20755355	0.050750643	0.2864652	0.09180994	1.2842932	-0.7750715	-1.0098964	0.34149787	0.46723092	1.1928675	-1.1307946	0.62351	0.72740155	-0.12739614	-0.6344203	-0.10436647	0.6499737	0.028299838	-0.067347676	-0.5252627	-0.116735324	0.3696733	0.6227498	0.068252854	0.38789016	-0.17788918	0.5712134	0.113137156	0.13402833	-0.3660078	0.2490762	-0.33882684	0.25160393	0.3698938	0.09234104	0.05531945	0.22090408	-0.60941535	0.15248752	0.30874366	-0.35428864	-0.19958082	-0.20859692	-0.59694374	0.4705691	-1.2491242	0.16060396	-0.54709566	0.3780563	-0.63162714	0.19347781	-1.012449	0.9440551	-0.15923193	0.8143998	0.2037227	0.19409388	-0.51473117	0.71434045	0.00027176738	-0.2848503	-0.33002687	-0.47032246	-0.1930641	0.13680296	-0.7483195	0.39673808	-0.13186705	-0.13897035	0.0045568794	-0.6600786	-0.036942154	0.09561836	-0.18829837	0.082713455	0.4848869	-0.46498162	0.24275905	0.20791367	0.81150144	0.26750398	0.63263404	0.14975075	-0.11515446	1.5739508	0.90138364	0.23111099	-1.0117065	0.19679962	0.10374844	-0.016970553	0.039382227	-0.8218209	-0.30661908	-0.5792498	0.05691299	0.21866912	0.6481577	-0.50223815	0.56782055	0.023994744	-0.49338078	-0.45709056	0.31834328	-0.054039016	0.38170892	-0.29159105	-0.10144076	0.37797537	-0.18490468	-0.5784939	-0.45545217	0.44526416	0.75732535	0.75231194	0.16277929	0.038215503	-0.25002897	-0.12935242	0.3646308	-0.38725966	-0.30542898	-0.6412735	0.07521713	0.50790894	0.37235382	-0.59794664	0.11943969	-0.26404685	0.4684723	-0.8038389	-0.26536953	0.25864732	-1.0961179	-0.7938763	-0.12025663	-0.24960142	-0.16451268	-0.775544	-0.13579257	0.28040904	0.5926509	-0.6844687	-1.1497084	-0.83916724	-0.28926072	0.32787752	-0.4258104	0.0431479	0.2896268	-0.49286968	-1.2204298	-0.24246144	1.1338221	-0.004816167	0.7972652	-0.2617591	-0.02743059	0.83121616	-0.8712923	1.0724708	1.3998122	-0.0473333	-0.18824993	-0.061137006	-0.1363337	0.33917755	1.323848	1.0648819	-0.4763	1.0155091	-0.5228832	-0.69550765	0.7344604	0.009845763	-0.24863337	-0.13246828	-0.45668805	-0.44918078	0.7598195	0.88127863	-0.054142624	-0.10314545	0.26725864	-0.14411938	-0.45390335	-0.06840448	-0.99291587	-0.16186261	0.3925941	-0.16852945	-0.7857362	0.39213154	0.21096326	-0.85054255	-0.7021362	0.094897136	-0.35488832	-0.17875457	-0.5496367	-0.150073	0.3972978	-0.70740646	-0.3925144	0.9861138	-0.25527784	-0.048005998	-0.2655852	-0.35762918	0.5135989	-0.51372445	-0.20878753	-0.56228065	-0.039783016	0.5716148	0.16307788	0.10899794	-1.0046258	0.0257041	0.0791035	1.0613719	-0.09264694	-0.90452576	-0.7586229	-0.58223236	0.620592	-0.56976664	0.5455217	-0.29229614	0.32433376	-0.2238321	-0.5902566	0.021660984	0.0097644925	1.0842957	-0.32901892	-0.63046	0.15646303	0.57645	-0.33732647	-0.2502633	-0.10393137	0.18952137	0.16711763	0.63986593	-0.6629698	-1.2822211	0.3601967	0.4751115	-0.0186311	-0.14410785	-0.55416745	0.3577836	-0.97345245	-0.43044853	-1.2111088	-0.50112003	0.65967953	0.8815469	-0.71902645	0.9815295	-0.96041477	-0.008479267	0.4661125	-0.057827353	-0.7034381	-0.26686388	0.030913293	-0.4892835	0.6826227	0.29551896	-0.12896687	0.09121138	0.10579971	0.83313656	0.25398475	0.2374174	-1.1054989	0.35556743	-0.42181525	0.0636307	-0.55646855	-1.1100005	0.80287045	0.050094202	0.28627974	0.62397873	1.0510452	0.038972043	-0.11044088	1.1702915	0.7157764	0.37518772	-0.03305428	-0.6595618	-0.6824518	0.36188346	-0.13445045	0.75089395	0.50944895	0.40308428	-0.07381392	-0.0666165	0.3353721	0.02008523	-0.13093463	-0.5177859	-0.38198018	0.3763606	-1.2021505	-0.34872285	0.08767024	-0.1594589	-0.236108	0.6265012	0.5503648	1.0900034	0.7734692	-0.21540265	0.20126808	0.006184526	-0.99451494	-0.10116306	0.01106181	0.08466828	0.5506606	0.30603486	0.28159103	0.5109098	0.108394176	0.77099824	-0.24598145	-0.4578606	0.3892665	-0.15034324	0.028781071	-0.28916946	-0.34798208	-0.22313075	0.7261966	0.25762308	-0.72028255	0.47310907	-0.31851605	-0.3521037	0.6933383	1.094806	-0.31751892	0.12591638	-0.27435952	0.2667505	0.707934	-0.045821317	-0.3659549	-0.22328898	0.6088691	-1.2753336	0.498526	-0.0620943	-0.9294004	0.81177497	0.23215711	0.1973992	-0.55283284	0.53591657	-0.00947468	-0.91568017	-0.43152186	0.22093625	0.5679437	0.157442	0.46249422	-0.21986178	-0.06219089	-0.228473	-0.7346065	0.11055088	-0.08278832	-0.38259208	0.9523877	-0.93992746	0.00019395351	0.22568944	-0.014537111	-0.2680305	-0.13146219	-0.35742125	0.24713326	2.4969473	0.017495312	-0.34081838	-0.26321742	0.13690159	-0.23977834	0.09849219	1.0688853	0.32151753	-0.14595315	-0.30634755	-0.8998922	-0.14506525	0.1491335	-0.7680085	-0.5089363	-0.2759122	0.04229036	0.31099406	-0.7412427	0.35348874	-1.0679959	-0.28029725	-0.9585999	0.12401044	0.72320986	-0.18295714	-0.085966736	0.35039932	-0.5761469	0.21391973	0.33176154	-0.0669779	0.35219336	-0.36148855	-0.19592632	-0.032050654	-0.3118055	-0.23550072	-0.33766255	-0.43023095	0.09356332	0.98375183	-0.39710677	-0.91286325	-0.31455383	0.3054441	-0.3207568	0.010880224	-0.3156242	-1.4145122	-0.2854501	-0.46314782	0.18360764	0.01746153	0.1917404	1.1540906	0.33441663	0.40121332	-0.18548173	-0.844771	-0.3836996	-0.57514393	0.1545715	0.3067602	-0.5885835	-0.795684	0.82274044	-0.51854295	0.29688117	0.78946126	0.24914244	0.41400492	0.912919	-0.6518992	-0.18453218	-0.39818656	0.15363002	-0.3965968	0.07801914	0.15371819	0.22698982	0.32444403	-0.52435553	0.91268	-0.9714552	-0.6525681	0.2157479	-0.25626338	-0.42386323	0.5391472	0.1174019	-0.05852054	0.027416736	-0.30282187	-1.0243416	-0.44429785	0.16204023	-0.22640131	0.49416068	-0.19697618	-0.52639216	0.8481189	-1.0713811	-0.40097183	-0.049732357	0.1822766	0.6482652	-0.42657936	-0.09542227	-0.40915474	-0.27466774	0.06322116	0.8912792	-0.4335544	0.020237923	-0.010873139	0.11542453	0.18478376	-1.2212347	-1.0235348	-0.76059586	-0.5790447	-0.19646636	-0.27102736	-0.56454724	0.6362534	-1.361174	0.27165467	0.22270212	0.21257505	-0.46930432	-0.33922714	0.4276145	0.10125188	0.11615525	0.057083204	0.7571707	0.8371252	-0.70614433	0.30054796	-0.34170145	0.23125821	-0.5683806	0.13635686	0.3737699	-0.13060714	-0.26907015	-1.0731802	-0.2837391	0.4515204	-0.406186	0.2220173	-0.67713267	0.08286068	0.4291488	-0.34184223	0.49501717	0.5748688	0.9671818	0.16421013	1.2690434	0.045585513	0.4396961	0.6616859	0.2752984	-0.004590526	0.3025934	0.91449386	-0.7940235	-0.5678019	0.3778807	-1.1727883	-0.07053819	0.948543	0.71830404	-0.14957306	-0.639759	-0.33248764	-0.022119036	-0.0024638176	0.8555778	-0.7515372	-1.0129936	-0.7243147	0.7271135	-0.6073605	0.19324732	0.5248927	-0.24800728	0.046702743	-0.635271	0.23338778
G001828535	-0.09839115	0.02853021	0.25443554	0.10693814	0.32037312	-0.14619999	0.5469208	-0.4946154	-0.726465	-0.1999983	-0.55477554	-0.30122316	-0.2516672	0.7441154	-0.14751543	0.59617937	-0.30000207	-0.519909	-0.26917937	-0.08351971	-0.066401765	0.43522376	-0.29767644	-0.5226432	0.560973	-1.0667216	-0.09865439	-0.90221673	-0.06329038	-0.14497668	-0.5101381	0.1534636	-0.3473823	0.055523567	0.1965003	0.29301393	-0.37226272	0.6642379	0.1076363	0.21610732	-0.19117534	-0.3921381	-0.3817741	0.41840047	1.1749182	-0.12586659	0.22808251	0.22418155	0.39243704	0.68035114	0.22092474	0.15001413	-0.85497093	-0.13856545	-0.8902367	-0.07982161	-0.29724118	-0.17713854	0.7316279	0.080582514	-0.076222636	-0.78043157	-0.51464474	1.0973611	-0.08469297	0.3816413	-0.69062304	0.054156244	-0.49631575	-0.12261282	0.8868588	0.08709918	-0.6976384	-0.119752765	0.043143384	-0.03767068	0.4938125	0.2979677	0.42696765	-0.33535814	0.33421344	0.44396073	-0.6700728	0.7196542	0.07515004	0.29112595	-0.58129954	-0.2236087	-0.6211201	0.61653006	0.35395983	0.6261808	-0.6850207	0.3277746	0.23384051	-0.9460063	0.28839302	0.5454705	-0.0031098425	-0.26295406	0.05902875	0.229354	0.31080717	0.3701017	0.039754733	0.35378355	-0.036511064	-0.4017189	0.3867998	0.19459058	-0.58282745	-0.8201983	0.09522059	0.13886262	0.010757163	-0.3205288	-0.50160754	0.6702337	-0.5585628	-0.25993076	0.105745256	0.80171555	-0.15601267	0.4263561	0.12872444	0.45132628	-0.32117283	0.1263378	0.6947458	0.2967608	0.70548165	-0.3121183	-0.5517409	-0.33185178	0.14517748	-0.6816324	0.45397222	0.37845886	-0.2945094	0.19036086	-0.3066383	0.033186466	0.038238466	0.41811687	-0.8228422	0.7955458	0.15189141	-0.50710833	-0.010574661	-0.1948737	1.0429412	0.8304983	0.70865685	0.09717402	0.50300395	-0.504159	-0.31368893	0.33716053	-0.31310692	0.060175322	0.31497937	0.046462238	-0.071676	-0.64520407	0.44112623	0.7488291	-0.20032099	-0.26508987	-0.5143492	0.17948253	0.19054168	-0.53034914	-0.3055719	-0.08023763	0.3089	-0.329215	0.59016585	-0.26214898	0.15349041	-0.5061822	-0.73902243	-0.28792256	-0.62282693	-0.82877636	-0.5085114	-0.33492365	-0.12364392	1.0192177	0.4933219	-0.567904	0.21911646	0.16755809	-0.7073802	-0.16806823	-0.05541463	-0.41637796	0.73792386	-0.23244718	-0.016578645	-0.56435984	-0.22205395	0.3975312	-0.08935067	-0.26522034	0.28289837	-0.02814281	0.6347058	-0.60908425	0.89227045	0.7214463	0.08991414	0.677797	0.05722645	0.33818614	-0.3886023	0.5144453	-0.45134923	0.33630154	0.121254236	0.47353673	0.33179188	0.28973788	0.49616778	0.027941614	-0.016737193	-0.9023396	-0.48821452	0.055702597	0.070906505	-0.12855318	0.29568678	0.05510909	-0.27781618	0.3441509	-0.24782914	-0.07151759	-0.17719997	-0.3447513	-0.6262364	0.503918	-0.60230404	-0.31518635	-0.74623334	-0.13575104	0.043859966	0.3775073	-0.21922706	-1.138439	-0.8742456	-0.5495896	0.9935323	0.07020515	-0.55262595	0.79026425	-0.11670014	-0.8577545	-0.22848521	-0.1390006	-0.17949215	0.03604509	-0.030801192	-0.22412749	-0.8163178	0.8663829	0.2122961	1.3642527	0.29535818	-0.31421706	0.063679725	0.43613267	0.05773434	0.33245707	-0.77961105	-0.062330663	-0.31380635	-0.34542698	0.20994213	0.61268556	-0.5027107	-0.7346398	-0.118466094	-0.49443537	-0.64487094	-0.0008851141	0.9653365	-0.25864327	-0.44409087	0.94924533	0.18426098	0.51818633	-0.8138378	0.16063428	0.32693905	-0.45141357	0.25818956	-0.060011193	0.26064473	-0.13196945	0.5101964	0.041361928	-0.40581942	0.29183456	0.5015328	-0.21474005	0.44340843	-0.13521923	-0.38080645	0.5306968	-0.08059375	0.009983331	-0.53119457	0.2620123	-0.93044245	0.42871854	0.43984896	-0.636219	-0.15790595	-0.21771607	-0.18285245	0.69820154	-0.3749154	0.5975958	0.06005846	-0.38285175	0.20284142	0.2090491	0.86611295	0.010611828	-0.2592132	0.19089492	-0.5734978	-0.43160906	-0.3901524	-0.050305888	0.03556938	0.06638448	-0.5227792	-0.7449845	0.2258597	0.44686094	0.11064571	0.22855717	0.3569689	-0.3266259	0.54745203	-0.19367996	-0.06760428	-0.04620953	0.7401959	0.68839085	0.31985542	-0.5629705	-0.27042064	0.02323994	-0.03626512	0.3397197	-0.59422046	0.62431175	0.057007443	-0.9137638	0.926294	-0.15514517	0.50044835	0.9516274	0.10936701	0.42063767	0.20879507	0.48576635	-0.28855804	-0.22471744	0.6329535	0.59134525	0.055765808	0.09663512	0.3373575	0.46875268	0.84088016	-0.21311334	0.35420728	-0.10789931	-0.074543625	0.19067056	0.054490335	0.34284574	0.45567438	0.40962648	0.66594017	-1.2572877	-0.5357149	0.36614466	-0.595258	0.2344557	1.2212073	0.13808268	0.65197325	-0.6385233	-0.70277977	0.57606614	-0.5168723	-1.0493038	-0.8902035	0.29110938	0.11313689	-0.5260151	0.38918173	-0.44334263	-0.025162041	0.11398259	-0.20322451	-0.74012965	0.49490973	0.21968733	1.4645114	-0.11797729	-0.10524464	-0.62885934	-0.4811266	0.12432676	0.4254893	0.3411486	0.7029214	-0.19468813	-0.6290077	0.6267578	0.4496547	-0.36126173	0.21865934	0.33171672	-0.06726509	-0.99582064	-0.6990613	0.183101	-0.31075144	0.12639964	0.17115888	-0.30753937	-0.6020837	-0.020341158	0.033456936	-0.12858725	-0.26626253	0.068774074	-0.3943466	1.0077804	-0.13705909	-0.057393134	-0.31663114	0.7210245	-0.6168196	-0.44925636	0.18677607	0.36766395	0.09238933	-0.7052643	0.37994638	0.39534968	-0.06998057	-0.6752881	-0.06631023	0.5774707	-1.0487849	-0.39595336	0.28522375	-0.16703449	-0.15385747	0.42869717	0.5994648	0.011277646	0.3106816	0.8178545	0.41126305	0.034705497	-0.09088324	-0.7388442	0.18411651	0.5991822	0.0034585781	0.9224851	0.33094496	0.33198422	-0.6923082	0.19444351	-0.8262229	0.01920113	0.15539579	0.03202191	0.45558572	1.1354089	-0.20216013	0.36350158	-1.0559534	0.7325708	-0.609898	-0.08693457	-0.7828479	0.49339354	0.06372379	-0.10549561	0.41276118	0.09880924	-0.4384382	0.32223865	0.106685415	0.5291499	0.08732265	-0.6949235	0.3345663	0.17292313	-0.6540684	0.3245009	0.6420826	0.2015332	0.2564351	-0.004865654	-0.18479827	0.9824025	0.34825295	0.08796653	0.8000293	0.1619465	-0.23116018	-0.30550113	0.5545847	-0.16201997	0.32418513	0.30077899	0.011415705	0.6187166	0.21910264	-0.25632608	-0.048442513	-0.5838202	-0.23958388	0.10389099	0.06714607	-0.60138464	-0.022837982	0.107480764	0.0044412985	0.53960526	0.01694864	-0.54075277	0.654382	-0.5870099	-0.10847637	0.34721935	-0.33438006	-0.54907024	0.8577895	-0.014277294	0.25921673	-0.3922737	-0.4769031	-0.70096695	-0.3013146	0.7167648	0.604978	1.0164952	0.36428696	0.71298575	0.4864228	0.06770629	-0.28669104	0.102846235	0.05811107	0.25933856	0.097488016	-0.425942	0.42806077	0.52476925	-0.057501823	-0.24341306	0.51526517	-0.2672599	-0.71096575	-0.0398563	0.05765605	-1.017826	0.03842815	-0.17987867	-0.24489275	0.43347782	-0.59001964	0.17042309	-0.25144702	-0.8864955	-1.3407856	-1.0923891	-0.53601074	0.072589606	-0.08243843	-0.8167105	0.29483825	-0.30029494	-0.36933047	-0.40389538	0.06199959	0.23703735	0.48519707	0.52015555	-0.24590427	0.5798173	-1.2051353	0.9766605	0.66694355	-0.099249706	-0.7977537	-0.71316177	-0.7052038	-0.54003274	-0.24718143	0.76001865	-1.36033	1.0405767	-0.010293156	-0.3998879	0.929992	0.07748982	-0.4747221	-0.123324364	-0.8596709	0.50997454	1.1557772	0.89498234	-0.5748277	-0.00862363	0.7009271	-0.3135485	-0.28841102	-0.24203597	-0.2850278	0.3057934	0.044211537	-0.19387653	-0.6739423	0.38303596	-0.067806974	-0.50441664	-0.5265854	0.29017174	0.3961758	-0.013665412	-0.08629914	-0.5202651	-0.2911532	0.15583315	0.22360732	0.26978308	-0.252333	0.107520506	0.42033952	-0.30754742	0.5918418	-0.6189478	0.41389394	-0.2388373	0.5336859	-0.095943116	0.27324542	0.27596968	-0.6813266	-0.17159808	0.31635824	0.47359243	0.4714989	-0.69105464	0.034091502	-1.0045574	0.045164883	-0.578372	0.42688894	-0.18641683	0.02913675	0.17387167	-0.37989664	-0.49818122	0.43374932	1.9003661	-0.05954683	-0.5668355	0.46076852	0.4890142	-0.3002776	0.25789756	-0.097541004	0.52729154	0.4093883	-0.043337792	-0.5718812	-0.96561813	-0.12182517	0.27775633	-0.5339317	0.064855084	-0.09613346	0.07818018	-0.7379676	0.48324922	-0.2687803	0.05590059	0.3451058	0.9629555	-0.39214507	0.6007088	-0.44168246	-0.41179636	0.9580186	-0.22845	-0.033931717	-0.39316002	-0.10460993	-0.19867146	0.49424237	-0.004993692	0.6736952	-0.6674528	0.40596893	0.21690094	1.0110209	-0.15783992	-0.5486054	0.31041634	-0.3933928	-0.554611	-0.54652613	-1.1648576	-0.037050247	-0.35194203	-0.059072614	0.61887276	0.66884404	0.63748884	-0.20872667	0.39514026	0.76698077	0.468243	0.21982752	0.038602844	-0.88761973	0.18376671	0.2648307	0.28498062	0.49126974	0.37985957	-0.018810995	0.381606	0.2017928	0.22314098	0.14087835	-0.23038282	-0.14451036	0.067825496	-0.11672622	-0.9634868	-0.12642506	-0.094931364	-0.09481479	0.24983905	0.28546017	0.32459295	0.24436328	-0.44287884	0.4051437	0.16996504	-0.40633708	0.40693372	-0.3322191	0.031579763	0.96952957	-0.3516308	-0.18720274	0.4847566	0.55720365	0.48892444	0.5554561	-0.4095072	0.4739651	0.02487798	0.13836373	-0.70777035	0.11986419	-0.0083755255	-0.019111514	0.44147673	-0.37424433	-0.054674633	0.07280141	-0.58502275	0.29235688	0.5367315	-0.5952718	-0.06934667	0.30402824	0.6028576	0.7152018	-0.21561775	-0.14585176	-0.11663799	0.6925533	-0.80369914	-0.14674485	0.122289345	-0.03211692	0.6404223	-0.021971032	0.16822469	0.042992383	0.44166118	0.22834454	-0.91549367	-0.60916626	0.18863374	0.6568773	-0.28886676	1.1660342	-0.70128524	0.19971818	0.14505921	0.3425793	0.5946775	0.4314578	-0.117607996	0.21190795	-0.42017865	0.4875028	-0.34322613	0.044506148	-0.5626117	0.17688277	0.32456282	-0.23420936	0.7761442	-0.22799522	-0.54912317	-0.25106448	0.29816192	-0.47857192	0.33635783	0.0005273819	0.4376413	-0.1561076	-0.5911558	-0.62192476	0.011421852	-0.5129143	-0.61118495	0.1159298	-0.21184772	0.31736812	-0.025221989	-0.20222603	-0.19672243	-0.51048625	-0.4944335	-0.60601133	0.15196976	0.24081634	-0.13959919	-1.469972	0.06285769	-0.4180851	0.24954443	0.08022194	-0.33170652	0.31504405	-0.7147681	-0.21051018	-0.7582097	0.004989475	0.1934659	-0.92332155	-0.5244496	0.43800452	-0.19910926	-0.24246654	-0.7062213	0.2613906	-0.17761382	0.02118219	0.1561124	-0.43446395	-0.24857493	-0.037638873	-0.4409302	0.8345019	0.59413624	1.0653106	1.0311823	0.3020624	-0.04184419	-0.11507254	-0.19575295	-0.110172756	-0.6009223	-0.46880215	-0.032429323	-0.046694025	-0.5444099	0.27055228	-0.49005988	0.6880644	0.75556433	0.5881436	0.38806343	1.1080214	-0.27668038	-0.06717263	0.13678911	0.43546015	-0.25242564	0.3290276	-0.39844254	0.13919559	0.37135217	-0.42010042	0.9949633	-0.9494762	-0.06273101	0.8021038	-0.81336886	-0.3248893	0.4421689	-0.09894664	-0.015684068	0.18104476	-1.0132627	-0.8567878	-0.37057558	-0.32683462	-0.34298033	0.054782867	-0.48116553	-0.3717975	0.15882924	-0.39042962	-0.26163194	-0.08167562	-0.06862272	0.16300797	0.0070904195	-0.024370492	-0.31067032	0.31477696	-0.98414224	0.5239067	-0.039780155	-0.10627127	-0.47786576	-0.22613779	-0.04290326	-0.8648461	-0.374196	-0.46355027	-0.54184926	-0.30402815	-0.07800822	0.3100043	1.1849469	-1.0009594	-0.31425798	0.40439737	-0.2971099	0.62130135	0.060092047	0.6472114	-0.23829125	0.22260728	-0.14970621	0.89245903	0.42000777	0.1663427	-0.19128051	-0.51066947	0.4391443	-0.37709275	0.0006572157	0.032509267	-0.45968568	-0.12145999	-0.93789625	0.07469486	0.3217529	-0.029721275	-0.0010471344	-0.4276795	-0.6403626	0.1995421	-0.04097204	0.78572077	-0.4549212	0.9263947	0.12805155	0.6626897	0.018248096	-0.3891808	0.1881159	0.2092495	0.47558314	-0.14475748	0.35302657	-0.77895504	-0.32357296	0.26137707	-0.036282167	0.44000727	0.036195055	0.053931013	-0.53575325	-0.47026154	-0.028726742	-0.23567829	0.030647114	0.27893782	0.44797266	-0.34579486	0.085924536	-0.38065162	-0.41113105	-0.3836645	0.47934702	-0.5041406	0.2631711	-0.021279704	-0.29642886
G000315095	-0.12459675	-0.14989956	0.3335125	0.0064822957	0.27741486	-0.08108026	0.7454604	-0.5775622	-0.56328	-0.1743583	-0.56031793	-0.2550958	-0.10911412	0.6591488	-0.15628064	0.53721535	-0.27913967	-0.56028116	-0.35499012	-0.15665607	-0.15059435	0.58816063	-0.28750336	-0.47295246	0.5562709	-0.9188602	-0.052574694	-0.89345735	-0.18354043	-0.05198565	-0.51191044	0.21451902	-0.40351167	0.010392137	0.22597626	0.231718	-0.40752313	0.70767516	0.12461656	0.029855177	-0.22716767	-0.54979867	-0.39716542	0.5090649	1.2167368	-0.12575218	0.26728895	0.19895339	0.3636278	0.7862334	0.115775265	0.0094213635	-0.9223586	-0.13928066	-0.74551666	-0.20553815	-0.32307404	-0.25137705	0.8048932	0.062486537	0.060827747	-0.8970947	-0.5519041	1.0679536	-0.13396533	0.29155222	-0.69051564	0.12308803	-0.55670875	-0.21074918	1.0210049	0.11755861	-0.74622643	-0.04692468	0.1723119	-0.059472412	0.44328785	0.46147242	0.56543183	-0.30579296	0.27166355	0.5591967	-0.76720655	0.77873766	0.15422986	0.3074477	-0.56837416	-0.24664342	-0.7188408	0.66237855	0.2778095	0.55095017	-0.79207355	0.2064609	0.22369723	-0.9861083	0.2917101	0.6256842	-0.13111329	-0.2636386	0.13129437	0.09450889	0.23858866	0.36778486	0.050006256	0.35709262	-0.07174119	-0.43363172	0.34451288	0.18772587	-0.6782223	-0.90751684	0.12290871	0.099561855	0.013436049	-0.33553463	-0.51353216	0.7078204	-0.5145911	-0.2999751	0.13357143	0.938027	-0.18893977	0.3518463	0.129339	0.27633697	-0.32607543	0.016661763	0.71941197	0.38367864	0.8375441	-0.36280438	-0.66919637	-0.346831	0.19096547	-0.64169496	0.37256506	0.355389	-0.31698084	0.16653207	-0.35313362	-0.01603195	0.10259238	0.5089771	-0.88270575	0.8047401	0.22033349	-0.36881733	-0.07129648	-0.28704858	1.0615768	0.8987789	0.7695893	0.18192431	0.6050975	-0.55001014	-0.39735955	0.2140722	-0.37497592	-0.08817881	0.5165986	0.11935991	-0.21443787	-0.6347651	0.33600557	0.78019357	-0.30299756	-0.36017764	-0.42834717	0.1798287	0.032528803	-0.60273516	-0.31398422	0.05342196	0.25021464	-0.40662724	0.44292068	-0.52157265	0.14682886	-0.5863992	-0.8004985	-0.32615235	-0.40659982	-0.92344475	-0.54264843	-0.3532323	-0.16039993	0.9443014	0.49400344	-0.57930994	0.28087768	0.277831	-0.79418623	-0.18526024	-0.13881043	-0.5764955	0.60420334	-0.06275779	-0.04787302	-0.61896354	-0.38194355	0.3850037	-0.071198404	-0.22669767	0.23449004	0.12103199	0.52074486	-0.62312466	1.0045125	0.7160071	0.023065016	0.66412157	0.122767	0.24719718	-0.35113555	0.49253836	-0.364224	0.315436	0.025184423	0.46543884	0.29365596	0.3542149	0.4090793	-0.21469402	-0.07579489	-0.97014153	-0.64086014	0.13507524	0.22750667	-0.15933242	0.3068859	-0.031809635	-0.34586757	0.41400662	-0.2582633	-0.13350749	-0.1710482	-0.2480014	-0.6973244	0.5518682	-0.628468	-0.32255745	-0.88510716	-0.0783654	0.19032341	0.26488477	-0.22288704	-1.1755838	-0.92696667	-0.45915473	1.1559317	0.13336793	-0.6610049	0.8785252	0.006817907	-0.8363194	-0.30401093	-0.02270545	-0.30936408	-0.04920274	0.050286993	-0.21586652	-0.85625637	0.9207027	0.17006063	1.4629387	0.28430519	-0.3158483	0.03802654	0.41498348	0.074227616	0.2893406	-0.57171124	-0.13353753	-0.29159996	-0.44849476	0.10060844	0.63284504	-0.40286267	-0.8411933	-0.036651105	-0.5835359	-0.73289895	0.002729237	1.1202487	-0.1869196	-0.38374627	1.0223867	0.23549214	0.6107735	-0.8073049	0.30701113	0.3330245	-0.45685852	0.28847963	-0.02242653	0.21901375	-0.2626531	0.535989	0.050107077	-0.33923802	0.22037041	0.59297305	-0.21586078	0.4975843	-0.16308668	-0.3392074	0.5750824	-0.02981639	-0.013257116	-0.4928301	0.3152815	-0.9036782	0.5977163	0.3202042	-0.5874018	-0.11589037	-0.14646167	-0.154308	0.67178005	-0.3765002	0.7471054	0.0884603	-0.2785043	0.24237435	-0.02634406	0.81872684	-0.1971009	-0.22733271	0.31889936	-0.6200325	-0.41981155	-0.39451995	0.011459991	-0.03495936	0.19535734	-0.51454854	-0.7610362	0.31584018	0.46160161	0.10582277	0.18676487	0.31055304	-0.40534487	0.5691844	-0.1545398	-0.10434018	-0.0020548925	0.81964993	0.7454128	0.450986	-0.6340192	-0.3571643	0.01703288	0.061161622	0.26432937	-0.6053699	0.5000263	0.18773943	-0.9118304	0.9442997	-0.26723462	0.5203519	0.97746086	0.20888704	0.402511	0.17785954	0.5320168	-0.37990427	-0.29937965	0.61386794	0.47384894	0.12325023	0.052090883	0.26578328	0.6195886	0.83427453	-0.19172743	0.32424575	0.034861848	-0.10685141	0.2268373	-0.04694666	0.38127607	0.56741834	0.3924442	0.576491	-1.4223523	-0.47884405	0.48279732	-0.54293126	0.19216129	1.2580516	0.04341805	0.5917295	-0.5489675	-0.8440712	0.29718363	-0.5494462	-0.96760833	-1.0026	0.32350752	0.3322131	-0.37744862	0.3835662	-0.40171033	-0.06907803	0.11375924	-0.3493235	-0.6441223	0.5595986	0.23965564	1.4260229	-0.16840601	-0.09217635	-0.596699	-0.3738151	0.051530585	0.42641976	0.2993949	0.7744553	-0.1999076	-0.70047814	0.62941587	0.5263277	-0.49994966	0.30693212	0.33677864	-0.02644331	-0.9654629	-0.69898844	0.18892586	-0.27907497	0.21735947	0.2668757	-0.47305638	-0.70316255	-0.14285436	0.10124137	-0.079797685	-0.40847456	0.08237156	-0.3532459	1.0266019	-0.30101073	-0.07093394	-0.3834943	0.6347684	-0.68760574	-0.46889508	0.26793015	0.43148127	0.121872105	-0.7446751	0.23311797	0.24409056	0.056722246	-0.58739805	-0.08373979	0.6935652	-1.2197437	-0.41438565	0.34155795	-0.21893965	-0.14454459	0.43214488	0.6374419	-0.011315793	0.37223127	0.91692746	0.3139701	0.09960436	-0.07626484	-0.8707629	0.16635445	0.52654374	-0.06785832	0.96328664	0.30236995	0.37685195	-0.6755109	0.30526912	-0.91493124	-0.025037453	0.36476815	0.026184142	0.36285576	1.2381834	-0.26929098	0.37729234	-1.1592647	0.66022	-0.94200873	-0.029122844	-0.7363056	0.5300129	-0.030020803	-0.1262461	0.4858111	0.16797802	-0.53224933	0.3644674	0.12937379	0.45962584	0.22126274	-0.64606476	0.28660586	0.31752074	-0.73732805	0.37717456	0.64069027	0.22849834	0.18533443	-0.05027292	-0.074859366	0.9715123	0.36205867	0.1730841	0.91050833	0.057397977	-0.29367024	-0.4062013	0.67906785	-0.14356253	0.15940303	0.29178223	-0.05188591	0.5672576	0.20228353	-0.26571018	-0.016215727	-0.6201489	-0.048505783	0.16189316	0.072853595	-0.48537463	0.035353243	0.1271978	-0.14297898	0.4220267	0.022558749	-0.47058833	0.7270261	-0.51788753	-0.1073326	0.4235016	-0.47378853	-0.67397654	0.9084077	-0.014725208	0.29120937	-0.47861534	-0.48178416	-0.70181715	-0.28398362	0.7421658	0.7002356	0.97972643	0.55310655	0.77271867	0.54124475	0.08273304	-0.31982026	-0.05805377	-0.0082704425	0.3132227	0.17847958	-0.33992982	0.44786608	0.5889952	-0.04981952	-0.2438539	0.41952556	-0.13869971	-0.8605789	0.06419795	-0.018200219	-1.0493122	0.027854644	-0.15289524	-0.28573495	0.58523	-0.69380486	0.31496435	-0.28120318	-1.025267	-1.4917148	-1.1035863	-0.71035284	-0.044553563	-0.1931857	-0.83117306	0.19769809	-0.33675727	-0.4499596	-0.19917566	0.045344114	0.19173758	0.36205298	0.536057	-0.27570844	0.6625285	-1.2177407	0.89113337	0.6153735	0.042926453	-0.84569365	-0.8858094	-0.6616597	-0.475916	-0.2897852	0.8302984	-1.3733609	1.0286578	0.0042309985	-0.5297526	0.7899868	0.005057499	-0.43308425	-0.10095665	-0.96180916	0.50602543	1.271538	0.8307371	-0.65699285	-0.027759165	0.59217006	-0.48337233	-0.29799291	-0.15896446	-0.1674979	0.19971535	-0.010281146	-0.17556496	-0.73875344	0.24425809	-0.116718754	-0.47897694	-0.61790526	0.40899256	0.45886877	-0.033755653	-0.111269325	-0.49648857	-0.24690905	0.26627243	0.3490033	0.39303273	-0.48727584	0.19213961	0.45747268	-0.2675514	0.5132741	-0.56815386	0.47600567	-0.28785607	0.5511061	0.04461164	0.3983672	0.16785185	-0.6066343	-0.150247	0.2875675	0.40693983	0.5615415	-0.59733677	0.14809655	-1.0120846	-0.00022917986	-0.4830998	0.5159713	-0.11996885	0.08060336	0.17761198	-0.29694605	-0.5736271	0.48514462	1.7979951	-0.098237574	-0.6443981	0.41394845	0.556087	-0.39240646	0.35522732	-0.050756752	0.5895808	0.31980503	-0.06859824	-0.6819205	-1.0964855	-0.023317888	0.16594824	-0.5853874	0.11408743	-0.08398795	0.10804295	-0.71563727	0.5157063	-0.29932755	0.14141622	0.37770358	0.969015	-0.3205375	0.7749068	-0.4867918	-0.444929	0.9409534	-0.16995162	-0.008657873	-0.5021638	-0.03221132	-0.35591826	0.47095442	0.020371541	0.8099631	-0.6627252	0.34409097	0.31739646	1.0114157	-0.1871056	-0.5191144	0.40470424	-0.40191168	-0.5776673	-0.5835193	-1.1175574	-0.13822716	-0.5420738	0.05209224	0.52596533	0.66131574	0.7250699	-0.1989767	0.4160306	0.83732367	0.464106	0.14682232	0.043001592	-0.93267953	0.09958087	0.40920386	0.19945478	0.47670197	0.39885575	-0.009906292	0.49440292	0.2586571	0.29212078	0.11275927	-0.26759005	-0.088311076	0.24165411	-0.1479822	-1.0231326	-0.13287008	-0.17078876	-0.057111457	0.3319772	0.22996542	0.12986203	0.26519233	-0.4484799	0.44017917	0.1843283	-0.3058275	0.35355175	-0.39455578	0.020616978	0.970934	-0.4226401	-0.10524213	0.621051	0.6079073	0.44805974	0.5347185	-0.3138088	0.41623557	0.06322989	0.11345132	-0.8637328	0.053993694	-0.059872717	-0.020969972	0.5665598	-0.5291399	-0.28798947	0.018357903	-0.40274704	0.40711018	0.4680745	-0.5918855	-0.15620023	0.4080277	0.6747394	0.75772446	-0.22121045	-0.078697085	-0.24114455	0.77623594	-0.8281366	-0.17284442	0.034063894	0.1469444	0.52342856	0.03309971	0.13526902	0.023951977	0.44358888	0.1262132	-1.0398135	-0.6107788	0.011929154	0.6174588	-0.30938065	1.3266864	-0.72378796	0.16568413	0.22878337	0.24796364	0.6458813	0.2165366	0.013589531	0.073320575	-0.46559456	0.5479647	-0.34745437	0.042742893	-0.63221073	0.32123095	0.3983013	-0.28711334	0.7959991	-0.31881487	-0.53667206	-0.32121745	0.25922891	-0.50618243	0.41344917	-0.04126814	0.44262588	-0.1435292	-0.64446497	-0.49206027	0.11968094	-0.51469946	-0.56919146	0.10789396	-0.19762903	0.4087513	-0.09325889	-0.1746678	-0.25219357	-0.5043497	-0.36942905	-0.5804928	0.1086018	0.1405646	-0.23899214	-1.4644579	0.16774143	-0.40595633	0.2775864	-0.061192293	-0.25791454	0.29242057	-0.67744184	-0.33866295	-0.74424845	-0.15959905	0.14867449	-0.95070946	-0.58221143	0.4840951	-0.2502894	-0.3995855	-0.79134345	0.29378158	-0.1714128	-0.029735953	0.2040945	-0.34999382	-0.2863341	-0.090782374	-0.561406	0.7687423	0.8095534	1.1853142	1.1061156	0.29316044	-0.067092605	-0.07011341	-0.0876064	-0.16387907	-0.6352237	-0.46956402	-0.10522087	-0.0422405	-0.45358634	0.3571945	-0.33927637	0.6906707	0.5873878	0.65490574	0.44627988	1.18591	-0.34090275	0.033414453	0.24602526	0.45740598	-0.07062507	0.384107	-0.36150205	0.102529615	0.33140096	-0.38998038	1.0164318	-0.86307883	0.05144292	0.6741631	-0.8920058	-0.2704391	0.43191612	-0.10939804	-0.14526506	0.26121953	-1.2402805	-0.9287675	-0.48868042	-0.42278108	-0.46694228	0.06467503	-0.37980688	-0.3359841	0.0023355559	-0.38627923	-0.17800395	-0.015016317	-0.13122793	0.24231566	-0.043257132	0.030875519	-0.42564416	0.51331544	-0.9768456	0.53844976	-0.09552078	-0.09691052	-0.51392627	-0.11085048	-0.08770212	-0.93856716	-0.41264266	-0.5502777	-0.5267666	-0.35044295	-0.026995748	0.327407	1.286759	-1.031318	-0.3535435	0.46600085	-0.32960165	0.5347856	0.08175339	0.66988814	-0.23098408	0.15923774	-0.15239495	0.9174814	0.4534765	0.2587447	-0.30963156	-0.58993787	0.24635962	-0.27062726	-0.15494514	-0.09732401	-0.2983418	-0.0042964667	-1.0377773	0.092543714	0.23022065	0.07387142	-0.043202348	-0.3750217	-0.7863344	0.08080383	-0.21777163	0.895692	-0.5359117	0.9824536	-0.07578236	0.6517735	-0.05529801	-0.4889053	0.22677743	0.21526991	0.6291287	-0.18513547	0.3344258	-0.75652623	-0.35506797	0.25797546	-0.14057013	0.55464846	0.09053281	0.084404536	-0.48666522	-0.48989123	-0.105780005	-0.15586615	0.0100009665	0.25001565	0.40118134	-0.25393733	0.08654256	-0.37831283	-0.47389984	-0.2357316	0.53980374	-0.451558	0.21046382	0.018091958	-0.30242574
G001642915	-0.5342306	0.60437036	0.040087916	0.081390575	0.3433857	-0.36292648	1.3592987	-1.0778846	0.5449236	0.13658306	-0.47553936	0.2997868	0.31303018	0.5649454	-0.27291942	0.2125245	-0.27495414	-0.38693422	-0.5112268	0.2987787	-0.35809195	-0.060637675	-0.4350465	0.5174961	0.79769206	-0.98906827	0.04751101	-0.52081573	-0.28201002	-0.3014363	-1.0635458	0.7855344	0.2389371	-0.8533758	-0.0948132	-0.17226213	-0.37124166	0.40233326	0.8493277	0.044194415	0.8641963	0.36721772	-0.60896945	0.15426286	0.795094	0.25752783	-0.7886578	0.09646487	0.2546357	0.8156549	0.06467846	-0.2050007	-0.8521716	-0.4592763	-0.47404352	-0.7816481	-0.3301041	0.34284484	0.027434677	0.66967493	0.07459707	0.18761297	0.2125935	0.65188956	0.11744255	0.8280773	-0.61604804	0.3922719	0.3848781	0.29740775	0.67539066	0.19047403	0.08227921	-0.009231955	0.77099824	-0.64953214	0.46830297	0.4801259	0.64743185	-0.78474057	0.0404229	-0.40692687	0.3229686	0.75210375	0.40703052	0.44819534	-0.7978853	-0.16858336	-0.42916036	0.15533152	-0.1266262	0.022691905	-0.84708726	0.4577581	0.05445467	-0.82820606	-0.08304694	0.68167865	0.21453975	0.4290599	-0.29872856	0.8004278	0.050303765	0.18507758	0.5853438	0.5648182	-0.56232756	0.048977554	-0.6024354	-0.29270738	0.22481266	-1.0492035	-0.016573846	0.039824992	0.31487352	0.19934379	-0.2973556	0.42714125	0.1890737	-0.9956597	0.4590394	0.4740007	0.08081184	0.52804226	0.625482	0.47506112	0.0455558	-0.7699265	0.26813248	0.2294839	0.08151272	-0.5942872	-0.24563783	0.08819826	0.46831498	-0.594799	0.0741858	0.4446805	0.010319769	0.070555225	-0.27534997	-0.40380058	0.26802897	-0.23884004	-0.46283868	0.050402597	0.12475465	-0.7329713	0.59639776	0.24768189	0.6277485	-0.053448275	0.21068816	0.345711	0.51520205	0.17323112	-0.47152337	0.41137135	-0.36148238	0.30017275	0.71025187	-0.06264022	0.5064483	0.07170519	-0.67504025	0.17644846	-1.0616487	-0.460649	-0.13971376	-0.084735125	0.6040485	0.48873714	0.17351174	0.09639627	0.08144777	-1.1968915	0.43029833	0.27202585	-0.5749448	-0.011596292	-0.1114583	0.29339048	-0.44514292	-0.38218802	0.04876232	0.22352922	0.25529796	0.5653986	-0.2886622	-0.43133974	-0.08499034	0.30456644	0.020910855	-0.013987575	0.38484004	-0.86141706	0.45164016	-0.4337377	-0.5613502	-0.47001898	0.056064606	0.41285643	0.4119693	-0.46045053	0.8895493	-0.26885194	1.1948619	-0.6669623	-0.042490184	1.0169415	0.47401798	0.65330076	-0.5683985	1.1065782	-0.5107025	0.75602114	-0.40234974	-0.10584009	0.29713136	0.25702786	0.23265678	-0.21988551	-0.19959617	-0.21505946	0.55317825	-0.97244406	-0.52238214	-0.32910898	0.74830925	0.72426593	-0.031571075	-0.37303975	0.9664921	-0.22090872	-0.47464997	-0.52066076	0.046153843	0.21380746	0.007963024	0.2859387	-0.43429303	0.19785269	-0.21373324	0.06345549	0.36692	-0.053287245	-0.021985725	-0.4816369	-0.055294424	-0.18846461	-0.112429395	-0.17362502	-0.16313997	0.74949217	-0.79264134	0.10923591	-0.11587706	-0.7309432	-0.30936998	0.063236296	-0.058955908	0.12900683	-0.32442576	0.50525725	0.18029198	0.38159078	0.42910314	-0.6798314	0.18480411	-0.15205868	-0.2537645	-0.30434492	-0.68410933	0.6546846	-0.53735703	-0.39476988	0.09731752	-0.05427237	0.0747274	-1.111769	-0.42145675	0.23301697	-0.38922268	0.118567854	0.40570897	-0.15356955	-0.24450973	0.8471337	0.8964863	0.4803243	-0.87260956	0.53408384	0.4089	-0.10916459	0.19507858	0.26594412	0.7736485	-0.1766385	0.4916817	0.09113824	-0.36608073	-1.0206283	0.41496798	-1.1894951	0.04743761	-0.8794065	-0.19027983	-0.31210276	-0.71795684	0.047217175	-0.026230853	0.5139531	-0.5640088	0.12789279	0.88596547	-0.6842165	-0.64942884	-0.39079309	-0.9006155	0.14345442	-0.521983	0.23943855	-0.26051483	-0.45516175	-0.889437	0.398619	0.5109476	-0.89469725	0.24696985	-0.21306634	0.08441165	-0.86008406	-0.5311867	-1.0421541	0.5834671	-0.13949205	0.096569315	-1.269568	-0.7602427	0.51055706	-0.05767864	0.8214161	-0.63633144	0.10654448	0.5103093	-1.1551826	0.37344664	-0.5266288	-0.17728636	0.32644796	-0.007973827	-0.8152862	1.0017886	-0.03050232	-0.089330845	1.1072156	0.010573119	0.43549246	0.7305962	-0.05130458	0.42251796	0.75747347	0.6538988	0.29200098	-0.16540667	0.28604433	0.27211615	0.15317845	0.5047783	0.0069797933	0.32724857	-0.31007132	0.85806656	-0.031736493	-0.14589682	0.48605528	-0.37985277	0.2231578	0.44984156	0.68459046	0.011087626	0.16105017	0.15045398	0.647334	0.31041324	0.10607791	0.8608606	-0.088780396	0.035625003	0.6076495	0.37166154	0.010188326	1.3618251	0.28856626	0.3247561	0.17481971	0.12500478	1.2058983	-0.33246738	-0.41133416	-0.23765299	0.22005436	-0.68055457	-0.13151109	0.014261194	0.2273717	0.25094318	0.48042428	0.5157257	-0.5545286	0.5405566	0.15116194	0.6303812	-0.51629794	-0.34253308	0.1847771	0.17728874	-0.122036934	0.707555	0.3594951	0.8386614	0.20586441	-0.37146166	0.02681768	1.087206	-0.8738606	0.038951684	0.6733185	-0.80095464	-0.46107602	-0.1433286	-0.2257988	-0.4679075	-0.30918384	-0.29220212	0.2136721	-0.24243566	-0.08845115	-0.40432775	-1.110522	0.36254683	-0.2084359	-0.67324626	-0.06074734	-0.07408694	0.06282902	0.21148327	1.3327549	-1.0958738	-0.8309438	0.23594478	0.5642501	1.1222937	-1.0325408	0.39182252	0.86525095	-0.28874877	-0.5874452	0.06897518	0.40361315	0.10948604	0.3158395	-0.34394398	-0.02881696	0.3755284	0.44995812	0.13720383	0.49554357	-0.09719751	0.5429468	0.044389367	0.18251437	-0.24709821	0.15034443	-0.38484055	0.104458936	0.4424175	0.0006529018	-0.062172145	0.2064068	-0.5336277	-0.06547898	0.114699334	-0.12367241	-0.07857824	-0.40067363	-0.6771213	0.65113544	-1.0032934	0.0055823326	-0.75611556	0.1575602	-0.5889224	0.2671824	-0.7873314	0.8903045	-0.5736953	0.9636072	-0.0038956925	0.3510894	-0.49329197	0.90682626	0.071055636	-0.28512853	-0.50476503	-0.7115988	-0.2744375	0.08627917	-0.8764273	0.5560101	-0.23071997	-0.26357856	-0.0031768084	-0.79318583	-0.25609905	0.28014144	-0.2792604	-0.44660002	0.28610796	-0.2975117	0.2631635	0.19481164	0.9310259	0.39324662	0.87971663	0.009270877	-0.280035	1.8520241	0.5323181	0.29278165	-1.3332479	0.47417408	0.36324435	0.009306997	0.010683328	-0.43461424	-0.37701255	-0.7066408	0.06518541	0.21948326	0.54115653	-0.4803832	0.5494314	-0.1410482	-0.64562833	-0.40143877	0.3927399	-0.49083155	0.07248944	-0.30671558	0.0479237	0.6414142	-0.16431837	-0.62783635	-0.31754237	0.47244656	0.70297706	0.503631	0.030517846	0.41612554	-0.4977175	0.14987114	0.20088786	-0.49437553	-0.11486316	-0.6397337	-0.0048766136	0.9027846	0.24786815	-0.61242366	0.14710349	-0.21997881	0.43574113	-0.80639625	-0.4148432	0.33847618	-1.1291667	-0.437406	-0.29848263	-0.3970718	-0.0864601	-0.7084365	-0.18238932	0.33079883	0.72320896	-0.61223096	-0.9920509	-1.1954497	-0.23661478	0.41633677	-0.25890693	0.18933332	0.46053398	-0.700737	-1.3896441	-0.22554414	0.72719276	0.09734511	0.8377194	-0.38323635	0.06882103	0.6185564	-0.9544492	0.8880861	1.3770725	-0.35335988	-0.121124715	0.33818147	-0.104446545	0.43405768	1.1118318	0.97983825	-0.42193717	1.3961785	-0.43070924	-0.590944	0.60108906	-0.082746714	-0.19765328	-0.20803067	-0.3626868	-0.3459855	0.76825047	0.9185368	-0.099430844	-0.3633109	0.47512794	-0.2653984	-0.25878066	-0.21408918	-0.67116886	-0.15696225	-0.00960058	-0.18395065	-0.7897641	0.824897	0.28958347	-1.0020351	-0.80054545	0.12652713	-0.2985876	-0.059832998	-0.64224434	-0.6387555	0.20949441	-0.29055083	-0.44825536	0.637222	-0.2672944	-0.12723282	-0.48463723	-0.5651073	0.4734233	-0.1581899	-0.10340987	-0.47351596	-0.0348562	0.572551	0.01026009	0.07691109	-1.0824881	-0.18404141	-0.21362838	0.7617166	0.15164244	-0.8354689	-0.5409361	-0.50660866	0.8337789	-0.5858329	0.15101126	0.019300506	0.56950617	-0.0918845	-0.6964924	0.09631723	-0.13181792	1.2352859	-0.5072321	-0.6058457	0.2876121	0.8167435	-0.21079573	-0.027793437	0.07185775	0.15366898	-0.027926326	0.849229	-0.73052084	-1.4132249	0.30114147	0.34078154	0.067931175	-0.15959698	-0.55395865	0.4452356	-0.56428355	-0.4377964	-1.1518728	-0.5246215	0.65621126	0.74022716	-0.62949836	0.9513327	-1.2848918	0.24048835	0.36738452	-0.3962505	-0.71742713	-0.6534525	-0.0608866	-0.29191756	0.7942625	0.24423139	0.031984717	0.042428046	-0.017923221	0.6261324	0.3395177	0.31454864	-1.2153776	0.5505354	-0.35604393	0.038282543	-0.60145545	-0.9889244	0.32885253	-0.07343678	0.14026332	0.8685145	1.1464351	0.19495097	-0.23658866	1.2258327	0.7701563	0.39301598	0.01013506	-0.47404593	-0.74830747	0.44000906	-0.36051697	0.80201596	0.462079	0.45847493	-0.25027627	-0.06092325	-0.014587447	0.3678246	-0.47603962	-0.36530215	-0.19619381	0.6102857	-0.7672616	-0.1854502	0.20765638	-0.47878733	-0.048199467	0.6553828	0.56073177	1.0537088	1.0888748	-0.1918221	0.41560045	-0.16849296	-1.0425761	-0.07619241	0.091991425	0.08528215	0.37662446	0.54784936	0.59434485	0.39038336	-0.21477343	0.5449472	-0.102914385	-0.7418202	0.52493626	-0.60823685	0.27879024	-0.34963202	-0.11352704	-0.042887405	0.584317	0.26856965	-0.7982684	0.30321178	-0.35936764	-0.43316966	0.5878482	1.0540736	-0.2131455	-0.13958564	-0.25725758	0.06173463	0.6653935	0.2660187	-0.39988264	-0.16890019	0.47936678	-1.4310193	0.5305347	0.1680238	-1.1369497	0.69772995	0.07623249	0.43985826	-0.4542898	0.21139857	0.008252174	-1.0079508	-0.58184826	0.09277618	0.7555313	0.15207124	0.055358425	-0.07544908	-0.004267752	-0.26989684	-0.45453024	0.25722665	-0.07103939	-0.23600915	0.9279336	-0.84783196	-0.04592541	0.03591544	0.06687875	-0.3698135	-0.13910094	-0.2574582	0.384799	2.476766	0.16082211	-0.52200997	-0.3090742	0.20457737	-0.3145749	0.11151249	1.2565532	0.4769412	-0.22238825	-0.38123572	-0.92107856	-0.09131661	-0.24684583	-1.0499666	-0.3534969	-0.24989921	0.19944634	0.18807347	-0.48031768	0.43336093	-0.9108663	-0.24047548	-1.0726007	0.23663178	0.93496746	0.13917707	0.005191028	0.20835038	-0.6155939	0.4043067	0.5776776	0.22950426	0.666304	-0.53828555	-0.29882327	-0.091915235	-0.5737237	-0.028348044	-0.2698932	-0.47605756	0.22655943	0.99160916	-0.08369045	-1.019662	-0.35523278	0.6928008	-0.40603662	0.106589586	0.044288814	-1.4245034	-0.72916114	-0.47534835	0.38382974	0.046969786	0.41284084	1.2268848	0.23686445	0.4893806	0.062363178	-0.61517197	-0.11140819	-0.4146378	0.090872586	0.5864732	-0.7104239	-0.7459851	1.2165811	-0.46691337	0.21754025	0.4318842	0.01567842	0.36175913	0.9040174	-0.48725897	-0.36968166	-0.44050995	0.18632531	-0.698094	0.037738126	0.27238566	0.24858147	0.44484657	-0.61879605	0.6470443	-0.8058995	-0.36162794	-0.06698764	-0.87790626	-0.41393834	0.6315132	-0.13421445	-0.30560282	-0.20662561	-0.5031325	-0.9416956	-0.5169087	0.20565242	-0.064500675	0.37767255	-0.5052915	-0.6382261	0.9366132	-0.9463959	-0.30641848	0.13398859	0.1411348	0.73874134	-0.39841822	-0.49073967	-0.26679808	-0.24927032	-0.035708427	0.85212827	-0.26001632	-0.15016618	0.29831633	0.4356325	0.092030615	-1.165516	-1.0941284	-0.7921016	-0.4632018	-0.17383027	-0.011097521	-0.5730667	0.32962364	-1.4192965	-0.08611173	-0.00029328465	0.29974473	-0.06642589	-0.035736963	0.32670516	0.016291082	0.000679031	0.061326295	0.82360995	0.5468014	-0.40944195	0.09477412	-0.30626243	-0.2220842	-0.765996	0.18144582	0.26190946	-0.017185997	-0.31694955	-1.0941483	-0.41683826	0.21865995	-0.6245158	0.5692086	-0.5672732	0.041767947	0.3139822	-0.42111152	0.40684924	0.3780132	1.2229766	0.17506725	0.88589215	0.12885508	0.25057107	0.78126466	0.3152001	-0.09099974	0.21614362	0.7234023	-0.9264822	-0.33839667	0.26293913	-1.07608	0.02471035	1.0872271	0.54777795	-0.06402911	-0.6469682	-0.42921045	0.44846043	0.088958144	0.65338373	-0.6565432	-0.77634	-0.5324985	0.86818725	-0.5746088	0.14257208	0.65886986	-0.44279096	0.12832284	-0.5259104	0.058151208
G001642875	-0.770059	0.54927194	0.19469574	-0.12637119	0.08026016	-0.23066942	1.4647267	-1.1055529	0.35129648	-0.22477701	-0.49999392	-0.103423834	0.4460023	0.3968128	-0.6162336	0.63736415	-0.2666297	-0.20061085	-0.47028053	0.17033647	-0.4664573	-0.07197676	-0.48413968	0.2602855	0.9237772	-0.9540763	-0.103438735	-0.42217848	-0.2587458	-0.420497	-0.98675704	0.7876618	0.008655906	-0.66733104	-0.051145017	-0.072711535	-0.50842285	0.2535512	0.7751503	0.18930063	0.48376554	0.6911549	-0.63506496	0.10861239	1.1740272	-0.051913917	-0.53003407	-0.041974604	0.41544464	0.6201012	-0.28603733	-0.042071074	-1.1048443	-0.5221565	-0.5576547	-1.177852	-0.6949672	0.5716619	0.16429979	0.41597134	0.047303855	0.024991512	0.20123795	1.1682744	-0.11725518	0.635261	-0.30575866	0.047647357	0.19045183	0.2524244	0.59377927	0.03331998	-0.23234256	0.3305572	0.5802226	-0.44376716	0.45249704	0.9628657	0.49074852	-0.35099554	0.1397982	-0.12024173	0.21693957	0.6780013	0.45109645	0.49212146	-0.91744065	0.04399003	-0.3833818	0.055788223	-0.13006943	0.52879053	-1.0148066	0.36684936	0.06068735	-0.7969024	-0.07177921	0.6883538	0.19084387	0.70507944	-0.6213068	1.0759072	0.11318612	0.18570492	0.5598439	0.24840382	-0.8895318	0.06536457	-0.06361787	-0.08994979	0.037206456	-0.9285784	0.11797826	0.12503986	0.17610663	0.013234735	-0.22003965	0.4608343	0.31337416	-0.8048074	0.5442358	0.6428317	-0.31022745	0.7615294	0.7068606	0.43748623	0.04914519	-0.4655382	0.62794924	0.26999053	0.19677393	-0.38822794	-0.7118244	0.12291003	0.27067745	-0.51505727	0.53921187	0.4965418	0.17113	-0.017004654	-0.2469932	-0.29638046	0.16442126	-0.14754988	-0.38410056	0.22326098	0.3317418	-0.6681833	0.66242594	0.24981299	0.808946	0.027584419	0.5920821	0.18756545	0.08840138	0.09936583	-0.064386755	0.18234849	-0.46934843	-0.11066583	0.64948356	0.013202202	0.44128457	-0.050598532	-0.81120646	0.16726266	-1.0606297	-0.693031	0.09956833	-0.38574988	0.95851725	0.19034418	0.14800891	0.3988186	0.40745208	-1.133888	0.17197324	0.12757671	-0.38786608	-0.08562297	-0.097629756	0.15923089	-0.49651057	-0.46732062	-0.12764543	0.16576128	0.10340606	0.4777527	-0.21239026	-0.18308315	-0.011360064	0.1489249	0.21654567	-0.15464798	0.27013502	-0.839493	0.41291034	-0.52300185	-0.17734161	-0.044622585	0.017167568	0.68768466	0.3561664	-0.53407305	0.6570249	-0.06750156	1.0432982	-0.4134292	0.07100237	1.295813	0.44490278	0.9891578	-0.6719668	1.1261326	-0.7304641	0.6338779	-0.1798248	0.16652286	0.38885012	0.25522858	0.14935507	-0.23222142	-0.22891185	-0.17138787	0.38302472	-0.69364524	-0.59132254	0.061514754	0.513928	0.5889235	0.22265284	-0.079257965	0.7816404	-0.16839607	-0.46233976	-0.62693197	0.052731425	0.20103666	-0.18615884	0.462624	-0.66147596	0.25558272	-0.25466102	-0.12982897	0.35469288	-0.36040136	-0.14612257	-0.76873547	-0.32411295	-0.021259915	-0.33891964	-0.42836064	-0.06288746	0.58022946	-0.6871252	0.24191119	-0.22336051	-0.5728812	-0.35885215	0.16720024	-0.33576524	0.058244586	-0.19120446	0.6331277	0.07774246	0.43667084	0.3310028	-0.713963	0.31176722	-0.35022876	-0.5877304	-0.48768267	-0.6552519	0.5191196	-0.13349256	-0.40356773	-0.2291977	-0.24224272	0.25816453	-1.2054654	-0.31411335	0.26898053	-0.36431667	0.10162327	0.68387747	-0.1726431	-0.23951906	0.707432	0.4812978	0.49705163	-1.0904233	0.4049527	0.16999051	-0.12080458	0.16463794	0.1307885	1.0419087	-0.5237381	0.34127644	0.2210045	-0.1690507	-0.5142523	0.13746326	-0.94320416	0.27009928	-0.59583503	-0.14287843	-0.293231	-0.33951968	0.13027349	0.04863503	0.3583154	-0.8483858	0.0065253377	0.890591	-0.3693149	-0.4966808	-0.26545647	-0.5210355	0.4357198	-0.280365	0.4148158	0.052618206	-0.73381245	-0.9776215	0.31323674	0.47332954	-1.0818111	0.7243218	-0.32621872	0.20864458	-1.1603034	-0.40878797	-0.9698656	0.6459105	-0.44257092	0.17224982	-1.1119432	-0.6889535	0.68949604	0.0123267025	0.86532515	-0.4018817	0.1412535	0.46676362	-0.8098349	0.40978223	-0.67945814	-0.17442307	0.54002637	-0.3183577	-0.67365474	1.0073665	-0.07009737	0.22334093	1.029033	0.111585364	0.4938295	0.5357239	-0.6654905	0.5843729	0.79026943	0.83388543	-0.15750486	-0.022925518	0.57295716	0.34472978	0.37392938	0.5622642	0.00074929	0.38606867	-0.28591835	0.5527054	0.41150674	0.10405545	0.117670015	0.0787991	0.12718222	0.45885485	0.5784682	-0.049929753	0.25791436	0.39260662	0.5262431	0.51037824	0.040531695	0.8707087	-0.25484633	-0.23193415	0.6475382	0.34872895	-0.42338425	1.2259359	0.41250914	0.70976096	-0.1022001	0.17354938	1.1717157	-0.29806954	-0.19531485	-0.5232822	0.11642507	-0.53383166	0.56969875	-0.07700051	0.38282356	-0.05630015	0.75436926	0.27426714	-0.5481217	0.70360106	0.2650228	0.48181298	-0.7349314	-0.46535888	0.11327322	-0.26070362	0.19128174	0.7267136	0.64116883	0.75651073	-0.22029775	-0.14289336	0.32936138	0.92237115	-0.64835197	0.1202504	0.6050095	-1.0017916	-0.2218399	-0.25710082	-0.2697604	-0.67178166	-0.28778654	-0.18997848	0.4581123	-0.044453666	-0.34092885	-0.455095	-0.68092	0.18949208	-0.34008887	-0.48711967	0.31001085	0.1017223	0.19859523	-0.058127947	1.2610344	-0.8616884	-0.6434093	0.5547088	0.5055239	0.7693567	-1.3351884	0.58724463	1.0227331	0.12647703	-0.5996349	-0.028681844	0.54596514	-0.04373294	0.18680456	-0.26142874	-0.1592046	0.39991528	0.5084219	0.31637016	0.39486068	-0.49680868	0.6851311	-0.14061087	0.2180565	-0.66139364	0.234287	-0.17874354	0.29566222	0.32927555	0.186165	0.05042368	0.27406245	-0.845711	0.13894418	0.17952359	-0.40537333	-0.051584944	-0.2161724	-0.5941657	0.74387485	-1.252722	0.3459916	-0.6653507	0.115777835	-0.6931066	0.48318732	-0.94084793	0.7773003	-0.33283085	0.9388333	0.31639513	0.35040054	-0.44021523	1.0134228	-0.11005563	-0.19327623	-0.16357088	-0.5100068	-0.27031597	0.13100868	-0.67555743	0.52401704	0.2800054	-0.305364	-0.11291252	-0.7099132	0.09444481	0.29865146	-0.08570187	-0.10095611	0.6788845	-0.46503913	0.518568	0.09755072	0.9947384	0.21898627	0.8308928	0.17191635	-0.2739655	1.5906019	0.74975646	0.16322556	-1.1305419	0.38341427	0.3272298	-0.013809979	-0.06595958	-0.68487436	-0.41043213	-0.6103059	0.02094166	0.029788524	0.642	-0.40202254	0.54347676	-0.2209107	-0.495211	-0.30955577	0.37341762	-0.15633602	0.4234334	-0.40060937	0.011455774	0.42560428	-0.18557741	-0.4087813	-0.57350147	0.27065283	0.82558405	0.96533495	0.0054600537	0.3584627	-0.33954597	0.22035566	0.46499717	-0.42857328	-0.22440556	-0.56771517	-0.0365099	0.7195551	0.2526934	-0.6313405	-0.23494193	-0.34288645	0.16017601	-0.4164809	-0.3910975	-0.059493452	-1.2044071	-0.6132834	-0.1418447	-0.29945728	-0.33284748	-0.66739523	-0.22507182	0.31969523	0.6569016	-0.7849548	-1.2746506	-1.1577832	-0.57040924	0.33357823	-0.31577897	0.21541731	0.3774038	-0.45029807	-1.3060403	-0.1679562	0.8216884	0.08051367	0.9407449	-0.42780727	0.23989426	0.8004145	-1.1163936	0.9861009	1.548762	-0.27390572	-0.12031241	-0.066643655	0.10491836	0.31255242	1.3202729	1.0398734	-0.26087955	1.2277441	-0.551522	-0.29204997	0.7785528	-0.3313049	-0.1425046	0.011688262	-0.3368596	-0.2951812	0.71402365	1.0036873	-0.10696325	-0.34414706	0.5307683	-0.22966327	-0.5945598	0.13432178	-0.80240846	-0.12245483	0.37552717	-0.30561298	-0.88711405	0.63063794	0.28597367	-1.0762606	-0.8255755	0.27708235	-0.46916077	0.20149697	-0.593376	-0.4301081	0.3412765	-0.65537983	-0.15838353	1.0442384	-0.4622506	-0.28053284	-0.2695613	-0.17074811	0.39155626	-0.27975744	-0.002635412	-0.59217536	0.021597922	0.60245025	0.060098693	0.22215705	-1.1974063	0.22592367	-0.23078622	0.6577488	0.30788732	-0.7727855	-0.83972055	-0.72223437	0.63554865	-0.57200336	0.19926825	-0.4762479	0.28960872	0.2592401	-0.9298459	0.025455356	-0.21655099	1.1197891	-0.52299696	-0.57141703	0.028338179	0.40158218	-0.29234058	-0.02012676	-0.039705172	0.06729194	0.009292468	0.8918514	-1.0188954	-1.5047998	0.4457026	0.44573858	-0.20841661	-0.12758255	-0.6147535	0.38107383	-0.76285714	-0.4525503	-1.3298258	-0.41689444	0.6353731	0.83093536	-0.72467786	1.0662243	-0.9793672	0.19470817	0.6869476	0.087756574	-0.6204941	-0.51803404	-0.08315993	-0.63755107	0.5578505	0.22020154	-0.1229351	0.110167205	0.15224418	0.63517576	0.49441025	0.11030042	-1.0072594	0.2803049	-0.3231999	-0.073592275	-0.4552373	-0.8588085	1.0157394	-0.35232297	0.38415185	0.7562435	1.0713112	0.33089098	-0.07985674	1.1914761	0.7396562	0.42071855	-0.08285579	-0.6893849	-0.442993	0.234882	-0.21831885	0.6215658	0.432418	0.26707417	-0.3031306	-0.068998486	0.30119315	0.27873468	-0.09975836	-0.34513566	-0.3288372	0.28022042	-1.352412	-0.38813305	0.10824272	-0.35468566	-0.15904206	0.78995633	0.41834962	0.84241986	0.86794186	-0.42549154	0.29739377	0.10726689	-0.70651937	-0.3827299	-0.14010441	0.21174987	0.6070994	0.14760229	0.40226704	0.44760787	0.078208044	0.72416246	-0.34289575	-0.7544038	0.4441078	-0.23699063	0.11963172	-0.47886568	-0.08700667	-0.17313978	0.70869285	0.44415584	-0.8243346	0.3435562	-0.41530085	-0.45836478	0.9790371	0.85745406	-0.25923282	-0.03809586	-0.20961662	0.21622251	0.40685666	0.003946945	-0.32017303	-0.5150757	0.66414833	-1.1207979	0.450688	0.10373455	-0.7635112	0.6915146	0.100715935	0.2644793	-0.22697094	0.29482618	0.30623528	-1.228084	-0.5138536	0.07063147	0.48334676	-0.26564142	0.26305434	-0.33064604	-0.21838793	-0.14476898	-0.55315745	0.28348863	-0.3045539	-0.17891292	0.9270966	-1.0344309	0.20912677	0.22618204	0.23672381	-0.2510551	-0.1956612	-0.21063663	0.43380547	2.4762907	-0.05590999	-0.5082091	-0.35829437	-0.2311829	-0.370325	-0.17112523	0.92213684	0.17149013	0.035097077	-0.44238696	-0.804924	-0.13441154	0.055814028	-0.50064623	-0.16825648	-0.1274702	0.4697886	0.44729882	-0.6111791	0.11191271	-1.2158837	-0.28512484	-1.0608964	-0.029648066	1.026778	-0.24744579	-0.12605073	0.5906492	-0.7040308	0.39675242	0.6824931	0.084928766	0.3206771	-0.33197337	-0.25421575	-0.05782321	-0.4388737	-0.44245946	-0.27834302	-0.6003594	0.18994457	0.7911262	-0.4794801	-0.899276	-0.17382708	0.69896567	-0.33404773	-0.17523214	-0.35002565	-1.458683	-0.47668558	-0.39152634	0.33369154	0.12514494	0.063244715	1.1431715	-0.01652965	0.7479619	-0.12617433	-0.7005371	0.005757004	-0.40357375	0.20630018	0.5437708	-0.5324707	-1.0305142	1.1131616	-0.5110764	0.24404952	0.74212956	0.4111899	0.5625414	0.85144806	-0.5255643	-0.32529002	-0.3247051	0.23083764	-0.5035524	0.12630096	0.23172039	0.20466015	0.55852866	-0.54788965	0.9726527	-0.957995	-0.38585937	0.272489	-0.5819765	-0.08031145	0.8689603	-0.03968712	-0.05199817	-0.060919084	-0.15978354	-1.0422451	-0.2642798	0.06904055	-0.46410885	0.71223956	-0.49939793	-0.5035723	0.6640627	-1.1452513	-0.42404363	-0.14220922	-0.09244317	0.69180185	-0.62119573	-0.2684936	-0.5852313	-0.30955243	0.059718847	1.0787404	-0.142782	-0.13195822	-0.04970426	0.31509727	0.019965768	-1.015971	-1.0134921	-0.7548091	-0.6432513	-0.11171544	-0.092887774	-0.38925195	0.57518154	-1.5081706	0.23471533	0.3646975	0.2765965	-0.5554678	0.16820627	0.22277576	-0.21327166	0.06235948	-0.16142084	1.0588421	0.40836823	-0.5987384	-0.018669844	-0.40928426	0.24904919	-0.4448197	0.19642055	-0.16504298	-0.31418827	-0.367485	-1.0159554	-0.33185118	0.4541593	-0.47771236	0.23041785	-0.8461004	-0.23496467	0.21225654	-0.41597337	0.26323688	0.6236472	1.0996397	0.51474535	0.87462074	-0.003954485	0.24974406	0.7595602	0.28085238	0.047969088	0.333403	0.77682537	-0.90505964	-0.47047722	0.3802213	-1.334751	-0.033481583	1.029674	0.6742669	-0.045945704	-0.20935582	-0.33674377	0.053161442	0.020511918	0.5658699	-0.6475809	-0.5630865	-0.62507606	0.41330677	-0.36670685	-0.0013433695	0.4477362	-0.22370568	0.32550132	-0.88896376	0.34439844
G001824605	-0.09668132	-0.07982877	0.23034608	0.29130498	0.45394516	-0.099698156	0.4662758	-0.23920368	-0.63981736	-0.39838654	-0.5225189	-0.37909502	-0.37389502	0.877729	-0.25906867	0.6654967	-0.33807248	-0.6460127	-0.38266376	-0.06340264	-0.08450326	0.47183573	-0.37518132	-0.7455362	0.63321054	-0.97707045	-0.038924694	-0.8456571	-0.05749525	-0.23448598	-0.5047698	0.20648023	-0.27837998	0.083977036	0.15771583	0.2653722	-0.3296309	0.6454153	-0.00887233	0.20342872	-0.43856972	-0.5252085	-0.29150224	0.36588505	0.8897064	0.0065355003	0.37702817	0.19676512	0.28957883	0.9060409	0.15672201	0.06556485	-0.83286035	-0.26957792	-0.9491029	-0.022183627	-0.2081097	-0.27303764	0.80950713	0.20632817	-0.09104648	-0.9892592	-0.5953389	1.268018	-0.061826855	0.4035408	-0.8025438	0.03575501	-0.603992	-0.18332319	0.78613824	-0.031594828	-0.81019706	-0.1050923	0.033996448	0.11122644	0.5815226	0.20823409	0.5601796	-0.14875802	0.47358787	0.60545063	-0.6989006	0.6655438	0.052479804	0.28682566	-0.5215819	-0.2139629	-0.7265582	0.6579815	0.4146762	0.79808366	-0.7391217	0.45927978	0.2837877	-1.017204	0.39503488	0.62254906	-0.00243406	-0.39744562	0.3773045	0.12981954	0.25989372	0.4708405	0.054351702	0.4393849	0.13441706	-0.49170548	0.33752635	0.34733135	-0.71666586	-0.6589898	0.00085134804	0.08430034	0.26653236	-0.38400877	-0.51908857	0.588816	-0.41698664	-0.21978414	0.05834937	0.7531381	-0.20912671	0.3195293	0.039011747	0.43871954	-0.21184689	0.33172506	0.70713055	0.29254547	0.7095428	-0.3035712	-0.5712559	-0.3156991	0.058689386	-0.536039	0.35674775	0.35798663	-0.56100285	0.13872993	-0.3692625	0.040168554	0.062983096	0.40091258	-0.6858509	0.57039195	0.10202964	-0.5240037	-0.08475189	-0.32588875	1.1299691	0.87608975	0.6906318	-0.048244804	0.4881729	-0.5716349	-0.35848874	0.47383925	-0.24907944	0.04983312	0.1266821	0.23272812	-0.24811637	-0.8029148	0.54622024	0.6779347	-0.22299851	-0.17920798	-0.5537833	0.23201612	0.16961077	-0.6543522	-0.44437057	-0.0449426	0.4290757	-0.30849925	0.6375438	-0.23479854	0.10339323	-0.55092895	-0.7869164	-0.16229278	-0.6756574	-0.8358278	-0.5325954	-0.33897865	-0.11743249	0.87839484	0.4918121	-0.42162502	0.51960975	0.24668315	-0.7445414	-0.14983061	-0.23854822	-0.48529375	0.6984077	-0.22905096	0.0793502	-0.6782266	-0.2596667	0.42744923	-0.09936871	-0.39122155	0.31052852	0.2742414	0.6105355	-0.4469762	0.9866972	0.6753891	-0.10129902	0.70494413	0.15038083	0.31922105	-0.4513027	0.5943655	-0.49790186	0.33243087	0.12765291	0.37964332	0.18893775	0.54338455	0.5395993	0.013794541	0.16327968	-1.0829135	-0.6316285	0.14243329	-0.095467865	-0.19153214	0.31044486	0.06587185	-0.20754991	0.42806566	-0.21935439	0.08907963	-0.29548255	-0.30016023	-0.6852222	0.40997732	-0.6156672	-0.39954424	-0.83523804	-0.22810127	-0.13925526	0.61753905	-0.23348124	-1.3661999	-0.937184	-0.511075	1.1486769	0.12837012	-0.5810571	0.9129008	-0.054873735	-0.84044266	-0.34346005	-0.1555243	-0.22046354	-0.025324166	-0.087749645	-0.2886752	-0.8253339	0.87657714	0.17408901	1.4753983	0.5486887	-0.23403358	-0.11551583	0.41639912	0.1305463	0.47752413	-0.8558213	-0.28912783	-0.32578078	-0.56545794	0.008165777	0.7402004	-0.4913739	-0.85675865	-0.3322394	-0.38726872	-0.65401846	0.018921204	1.0408297	-0.30249125	-0.5623158	0.92968404	0.14529382	0.6991469	-0.9243928	0.2258563	0.43568373	-0.37128508	0.3021204	-0.22571121	0.27876604	0.06634098	0.4596359	-0.036373913	-0.35452318	0.088997886	0.33696142	-0.105760306	0.4781497	-0.2111297	-0.36605108	0.65408003	-0.012169585	-0.006374866	-0.4946937	0.29090917	-0.89373064	0.43933553	0.42815173	-0.58183163	-0.022155315	-0.0858075	-0.11639871	0.61221445	-0.256813	0.55674213	-0.037084624	-0.4295985	0.4268759	0.13601613	0.9195986	0.10463341	-0.2862552	0.25659585	-0.7126498	-0.45571578	-0.43951702	0.10651153	0.07663738	0.26739693	-0.4493736	-0.71223426	0.46218222	0.3223288	0.023819089	0.10435788	0.3754965	-0.32817662	0.6064436	-0.31353217	-0.00041033886	0.054002404	0.8495353	0.8523088	0.2887214	-0.49097162	-0.3616541	0.100137755	-0.041211084	0.13247974	-0.84866923	0.4861313	0.012075946	-0.9961246	1.066452	-0.34329358	0.61387485	0.95183784	0.048308402	0.48892903	0.061266243	0.6005994	-0.4555418	-0.30071306	0.59339595	0.49072474	0.10812783	-0.016366132	0.20123383	0.3923532	0.9010598	-0.3012885	0.33959842	-0.26762947	-0.021872662	0.3483194	0.051122606	0.17059761	0.5448416	0.44856077	0.5281599	-1.0961231	-0.65709764	0.52187556	-0.530123	0.2859114	1.374651	0.16869777	0.4321589	-0.72554994	-0.75049996	0.2888124	-0.6604061	-0.97570956	-1.1105949	0.2135674	0.21370065	-0.6373347	0.35234433	-0.48360705	0.032823086	0.13439119	-0.47880617	-0.724933	0.31322455	0.024944007	1.5000933	-0.08929002	0.11561507	-0.78722095	-0.28842172	0.11515708	0.355259	0.3013269	0.57478595	-0.16970786	-0.56254476	0.6441134	0.4050429	-0.42596906	0.35808483	0.2826997	0.06731976	-1.0041507	-0.7031822	0.21354982	-0.21496493	0.041621327	0.32002217	-0.35164785	-0.83636963	-0.015489817	0.040142357	-0.0043568313	-0.18587653	0.17057277	-0.40426448	0.93666553	-0.11784476	-0.25449604	-0.34947184	0.653926	-0.72482497	-0.5119382	0.090311036	0.4462017	0.19591239	-0.678175	0.3070669	0.29631254	-0.25129977	-0.5010274	-0.12754342	0.5291156	-1.0698714	-0.45990276	0.16219044	-0.11066578	-0.26628068	0.1825912	0.75553745	-0.100926936	0.46776077	0.72762364	0.42231548	-0.17070849	-0.036285684	-0.64921653	0.14522389	0.6715327	-0.06466903	1.065951	0.41642612	0.4941091	-0.8144926	0.18122299	-0.8364574	-0.006307021	0.24183233	-0.053156763	0.5923244	1.2760112	-0.14873245	0.2482563	-1.2402453	0.72093964	-0.44887635	-0.13393223	-0.8552772	0.5830429	0.11321743	-0.0716632	0.54366565	0.043443218	-0.4674373	0.35814294	-0.008295365	0.3787134	0.17194489	-0.7920983	0.4041073	0.35371876	-0.58565176	0.3405601	0.66233784	0.027758464	0.27542436	0.12704375	-0.015535183	0.9343683	0.44280615	-0.14372867	0.8828395	0.023950301	-0.1691418	-0.48027822	0.38362473	-0.14070773	0.09102551	0.26431465	0.020415649	0.5470451	0.18628544	-0.3614477	0.041662823	-0.57041264	-0.31660134	0.13835683	-0.0015893839	-0.5292485	-0.052965343	0.16956845	-0.042743072	0.5511333	-0.055919416	-0.71740294	0.5724575	-0.66009057	-0.1293374	0.39047444	-0.40819156	-0.6655446	0.80873966	0.0007683635	0.2619951	-0.61849767	-0.37712196	-0.75381964	-0.27057242	0.8165162	0.63749325	1.0314827	0.5164135	0.76606196	0.48415154	0.17471667	-0.28259104	0.2519891	0.042725205	0.31324336	0.30039966	-0.592129	0.48438612	0.54787755	-0.0527635	-0.3303225	0.5487002	-0.3428802	-0.70847297	-0.101902105	0.16529298	-0.9401614	0.05813922	-0.16579296	-0.2796155	0.46943194	-0.6935416	0.32349512	-0.34759218	-0.91608566	-1.4554868	-1.0646318	-0.42690933	0.095461644	-0.07184309	-0.7688463	0.02715952	-0.36337465	-0.28480625	-0.45039165	0.20036289	0.024247892	0.41965756	0.5984105	-0.14090112	0.5582499	-1.1153314	0.95464903	0.6349916	-0.021701438	-0.64437985	-0.73676527	-0.7165067	-0.62217236	-0.30726206	0.58691365	-1.4293768	1.0228088	0.040456146	-0.3702178	1.0029576	0.14118457	-0.42488065	-0.22013481	-1.0069455	0.6732366	1.2033677	0.7923186	-0.3959528	0.16549361	0.6465288	-0.34783652	-0.1707954	-0.3628485	-0.34933504	0.2938825	0.2019719	-0.10286906	-0.74085414	0.48600274	-0.13295141	-0.41547275	-0.48264146	0.34252554	0.22423476	0.062040478	0.05246988	-0.5334639	-0.21937597	0.043201424	0.1209686	0.35306913	-0.28169322	0.21109107	0.70463586	-0.23211855	0.5827553	-0.62907946	0.37686986	-0.21255845	0.49928302	0.022869721	0.38320366	0.16365458	-0.67131615	-0.30784297	0.21570848	0.46118817	0.4244094	-0.73556817	0.20300885	-1.1256428	-0.09678546	-0.58262193	0.4875109	-0.2591086	0.23114553	0.21941996	-0.26932573	-0.5397078	0.39725518	2.0531492	0.002378568	-0.66803145	0.59004086	0.5579129	-0.32860333	0.2734624	-0.1433762	0.6104295	0.45695537	-0.13697256	-0.49344933	-1.0232596	-0.12383595	0.1951471	-0.51039064	-0.05407989	-0.036206618	0.009101212	-0.9325038	0.4077552	-0.049473077	0.15826291	0.29772183	0.97261226	-0.38073736	0.6358224	-0.3366021	-0.4356002	0.9743895	-0.32566336	-0.04435104	-0.31401974	-0.09945936	-0.23036735	0.45436674	0.0043099225	0.8445713	-0.778829	0.35738695	0.16301547	0.94827753	-0.05832982	-0.5490534	0.45239523	-0.23931314	-0.47191885	-0.55040103	-1.2497822	-0.23441154	-0.29497427	-0.17852701	0.69096863	0.5876014	0.71386766	-0.28248227	0.14649872	0.7846067	0.4161849	0.3788917	-0.11442373	-0.9804144	0.23957723	0.30917156	0.34480911	0.58359444	0.5234932	0.18941744	0.2611319	0.2357234	0.19082734	0.22540045	-0.52137727	-0.08443105	-0.025142968	-0.09553026	-1.0287887	-0.23576546	-0.20910175	-0.12650065	0.19078065	0.3486626	0.27872595	0.053827256	-0.51915205	0.44303098	0.05471003	-0.07576889	0.48187876	-0.35886848	-0.06289521	1.2451917	-0.35747242	-0.29315343	0.420229	0.6385182	0.42671826	0.5336352	-0.34316865	0.40743804	0.12787756	-0.19485323	-0.83887327	0.036137	0.089933306	-0.022283524	0.27055034	-0.37089342	-0.06217374	0.03395313	-0.40480536	0.257166	0.49283665	-0.7779747	-0.19866985	0.45786574	0.64787126	0.8085602	-0.043364275	-0.10749182	-0.11993039	0.5604016	-0.722942	-0.09417094	0.14818832	0.077966616	0.557012	0.08777796	0.12732105	0.05721143	0.5408356	0.0721764	-0.85326445	-0.8776655	0.32816938	0.5225996	-0.17456199	1.4032876	-0.88366497	0.23410513	0.24306132	0.49144343	0.49337775	0.5081898	-0.077170774	0.22984344	-0.41589147	0.49849576	-0.41156822	-0.08945122	-0.63690674	0.18776722	0.47069296	-0.25789723	0.6738371	-0.16196492	-0.30659434	-0.529009	0.24361028	-0.4733362	0.48955363	-0.20070039	0.4796074	0.020825416	-0.5633116	-0.3962784	0.0067398064	-0.6036946	-0.55375683	0.075009644	-0.21284097	0.30323184	-0.002554424	-0.2563655	-0.20877679	-0.3717487	-0.316642	-0.6163457	0.28831434	0.15177643	-0.38061017	-1.5432196	0.16221498	-0.44180658	0.17228395	-0.03641872	-0.4293416	0.2972605	-0.6827592	-0.23533863	-0.987329	0.24077152	0.21734679	-0.9510459	-0.5160702	0.38360542	-0.10247001	-0.44544622	-0.5765263	0.24087772	-0.33617342	0.23526688	0.024275228	-0.30311555	-0.28294888	0.14700174	-0.31750444	0.9046311	0.70890486	1.1638241	0.96516985	0.43620062	0.062619425	-0.045476288	-0.1527039	-0.08004331	-0.68121964	-0.4902964	-0.22189999	-0.0594258	-0.5283184	0.357078	-0.6667731	0.6412122	0.5435935	0.627809	0.4140966	0.95654035	-0.31513754	0.026265353	0.24948162	0.4368031	-0.27457136	0.34070322	-0.34650534	-0.040640503	0.3274544	-0.1796413	0.9151968	-0.9618152	-0.06819572	0.95023966	-0.8481133	-0.07837984	0.47191516	-0.034342676	-0.07662168	0.15448299	-1.0255892	-0.89277923	-0.39966446	-0.2338548	-0.19777499	0.16651906	-0.33599895	-0.29667485	0.00034195185	-0.29426697	-0.11096984	-0.16580263	-0.20160261	0.029528387	-0.018770903	0.17165533	-0.21151443	0.49586913	-0.99540454	0.50024134	0.13526532	-0.14506796	-0.5817529	-0.3908582	0.0057869926	-1.1042314	-0.31277096	-0.45081395	-0.56795233	-0.12972629	-0.09638771	0.3487228	1.371267	-0.9730227	-0.3421558	0.5590444	-0.2943086	0.660447	0.088996574	0.80005604	-0.016129404	0.18411896	-0.2064578	0.9626303	0.58483076	0.1616171	-0.16845113	-0.41182518	0.48884162	-0.33755028	-0.05327373	0.1450122	-0.28555292	0.0035470426	-0.9905712	0.26103523	0.2473939	0.02522561	0.052262206	-0.50903445	-0.89103025	0.07463373	0.13030693	0.9040602	-0.58038783	0.91667336	-0.10292533	0.51967263	-0.091238186	-0.38789558	0.19551091	0.25254443	0.6079608	-0.25027305	0.45368975	-0.745105	-0.25540823	0.07196319	0.05057226	0.40772763	-0.091317624	-0.07021473	-0.5842135	-0.3674306	0.05895126	-0.480882	0.024081375	0.32705408	0.5634339	-0.38944378	0.09548515	-0.3994369	-0.35013396	-0.19952683	0.4354012	-0.5457035	0.08235282	0.15274335	-0.35521716
