G900101435	0.5715197	0.3241668	-0.5918661	0.32511288	0.54565763	-0.9738714	-0.59280026	-0.055447318	0.64759976	0.84582895	0.9416432	-0.28534135	0.40991533	-0.032953985	0.3385604	-0.2898797	-0.60112596	-0.23289561	0.0059024766	0.24332231	-0.88106966	0.3432874	-0.76514566	-0.1352035	-0.12754229	0.2266565	-0.69203186	0.52836907	0.47372815	0.40595403	0.027987331	-0.632254	0.028359607	-0.35410687	0.75452024	0.36320567	0.0832633	-0.46275994	-0.033038855	0.2627734	0.043465547	-0.44551373	0.22550566	-0.106709465	0.8307399	0.07157491	-0.010068417	-0.47497088	-0.3656431	0.41250825	0.26730788	0.06024617	-0.96328807	0.030048862	-0.6961622	-0.48974386	-0.26445988	0.39802247	0.06269368	0.22754616	0.21613747	0.03300488	0.18159933	0.028296113	0.095612936	-0.2283751	0.18469241	1.1296356	0.049257815	-0.27493668	0.680039	-0.61028033	-0.3074826	0.26281953	0.44387525	0.49483302	-0.6032858	-0.1882475	-0.08806512	-0.5079207	0.299889	0.07849507	1.1214389	-0.7797774	-0.52378994	0.07617788	0.28842655	-0.5520651	0.24804604	-0.01938843	0.45392704	0.1551167	0.66491514	-0.07673268	-0.2490701	0.20471731	-0.50451493	0.48739412	-0.41686493	-0.37623227	-0.6603322	1.0791954	0.20129123	0.36163184	-0.16943417	0.2804773	-0.6184154	0.36116773	-0.5539248	0.41650873	-0.56820846	0.18919972	-0.02543071	-0.13368864	-0.4944058	-0.83804315	-0.10744227	0.042582378	0.07518257	0.13948888	-0.7680179	-0.18523613	0.2870563	-0.028511703	0.9863931	0.3025052	0.2909464	-0.14825907	0.6598253	0.012711957	-0.11442578	0.0770573	-0.9490583	0.81794256	0.30585486	-0.5139959	-0.023695633	-0.007233642	-0.5265222	-0.5092624	0.22252369	0.53565985	-0.6817268	0.41604483	0.71896255	-0.26992905	0.02573967	0.40790433	0.4399802	-0.010172725	-0.282297	0.30049586	-0.07092205	0.6520213	0.16850257	0.71077263	-0.6079689	-0.17457111	0.17758688	0.2127817	0.4488669	-0.39170098	-0.124972865	0.09166342	0.473825	0.14508694	-0.109069094	-0.6284978	0.39741457	-0.227204	-0.5717083	-0.6412305	-0.33822298	-0.2693423	-0.0030885525	0.30646813	1.4324671	-0.5857392	1.1854343	-0.5901925	0.08092967	-0.2131434	-0.5655957	0.25345463	1.0587592	-0.07580319	0.72621095	-0.4217526	0.08800247	-0.99763787	-0.7870164	0.4654117	0.06149237	-0.1304207	-0.35177952	-0.9953799	-0.43286136	0.74550086	0.46932092	0.21124673	-0.10520586	0.17759264	0.85805464	1.1422435	0.5396445	-0.23646124	0.24721348	0.18781073	0.69017303	-1.0863626	-0.17794478	0.4689436	-0.24235757	0.3023635	0.08299887	-0.05954936	-0.7902093	0.17373493	-0.3085372	0.059776038	-0.08372359	-0.2250016	-0.34908044	-0.7313658	0.5647013	-0.089371905	0.616752	0.4743991	0.18561861	0.05684726	0.024743691	0.5602241	-0.327651	0.48424447	0.51455826	0.38474113	-0.32913795	-0.6953275	1.276528	-0.15232109	0.09381433	-0.19736165	0.22647744	-0.27000123	0.08705355	-0.17592433	0.19520777	0.3669209	-0.18469788	-0.24506292	-0.32559755	0.28708422	-0.090975925	-0.9191911	-0.0065955967	0.4235949	-0.94266933	-0.57707274	0.38635164	0.36063263	-0.19827852	-0.734877	-0.79613334	-0.6109753	0.44672102	-0.165012	-0.8447438	-0.74754345	-0.08833679	-0.6436784	-0.11373474	-0.29004955	-0.778099	0.033727825	0.03170678	0.08036502	0.21672876	0.6198489	-0.24679789	0.39134312	-0.22836098	-0.505496	0.32442397	-1.0727059	-0.39406484	0.040093154	0.3195496	0.9161299	-0.071436286	-0.002932489	0.5325143	-0.32819417	-0.25555277	-0.13742423	0.191068	0.09508568	0.27604437	-0.6723516	-0.06198889	0.7609118	-0.16561836	-0.33161253	-0.1440833	0.33668545	0.5212419	0.33617863	-0.9874643	0.5251396	1.1439348	0.42478085	-0.3951062	-0.24288794	0.722597	0.07176681	0.2869781	0.76076454	-0.73921865	0.0067833215	-0.6142895	-0.07145122	-0.08218974	-0.64467937	-0.7469505	-0.118394196	-0.26717442	0.1156382	0.16527762	-1.0365247	0.10026021	-1.2360494	0.48162535	-0.21452615	-0.1922185	-1.0466772	0.5563986	0.37553293	0.27704045	0.25125566	0.60377353	1.0568333	-0.22199398	-0.20674586	0.34914032	0.2666688	0.40918478	-0.44503576	-0.12627047	-0.28415394	0.3434276	0.65535724	-0.20168306	0.43842942	-0.5593221	0.16624457	-0.08517179	-1.1994312	0.72938037	-0.27518824	0.12579083	-0.006794095	-1.0225708	-0.1728926	0.47921062	0.3387679	0.8243607	1.3339508	0.5840296	0.9030894	0.023182858	0.52537763	1.0302943	0.13693905	-0.09978375	-0.026080102	0.0966562	-0.8475871	-0.15891707	0.3899156	-0.40811273	-0.3281427	-0.34784582	-0.38569397	0.33141768	0.03373287	1.2439177	0.22904974	-0.14449425	0.78258663	0.11607334	-0.82155895	-0.07089573	0.8710276	-0.13896325	-0.033989884	0.8237062	-0.2529317	0.3737705	0.79961896	-0.15322958	-0.35807472	0.3277855	0.2588416	-0.228325	1.1457963	0.7850156	-0.28190643	-0.76247376	-0.1618987	0.23948811	-0.039852947	0.455011	0.17763233	0.41786313	0.8083754	0.28027475	-0.12697029	0.80402637	-0.4511252	0.5868693	0.3666416	0.47230375	0.088549614	0.12814811	-0.24673897	0.019961655	0.06988409	-0.3063996	-0.9258715	0.27711323	0.7703695	-1.1268978	-0.74817747	0.66853505	0.35180932	0.6984343	-0.7417165	0.09253231	-0.38529748	0.13014743	0.06931922	-0.05326253	0.14976074	0.13183452	0.22373173	-0.07435968	-0.47383496	-0.27473453	-0.21145828	0.98253345	0.91061336	-0.28110436	0.110872895	1.3699095	0.43974125	-0.062404677	-1.532194	-0.33981383	0.12283202	0.6211369	0.014331207	-0.44948715	0.70072347	-0.28238928	-0.3072579	-0.20511076	-0.33892906	0.27734149	-0.05033219	-0.006524861	-0.09209764	0.07733509	-0.7753189	-0.12161699	0.46640733	-0.07906529	-0.34122238	0.010870621	-0.16841397	-0.61561424	0.7175449	-0.6182341	-0.11094615	-0.472485	-0.21305573	0.36774457	0.43143162	0.37069482	-0.30316743	0.09502572	0.91986364	-1.2782944	-0.059286177	-0.3678378	0.2721637	-0.62378293	0.48792714	0.57926977	0.5304126	-0.22422376	-0.560977	0.52162755	0.09439026	0.29694635	-0.058106847	-0.68481493	-0.1740793	0.3359472	-0.07714716	-0.2276681	-0.06952293	0.06591639	-0.7748045	-0.6305211	1.0614529	0.26915532	-0.12262499	0.36010242	0.0019575208	-0.3723647	-0.7297657	0.8004726	0.7345784	0.9323298	-0.84581864	-0.18953586	0.21596462	-0.6959176	0.2733192	0.052095868	0.2870887	-0.43027613	0.2787386	-0.3014861	-0.08119762	-0.21273342	0.35680145	-0.2541921	-0.2602601	-0.2938652	0.2947033	0.48270118	1.1115637	-0.08769775	-0.2908888	0.37633073	0.32280746	0.2240732	0.08059801	-0.5843222	0.44819188	-0.7446337	-0.31629565	-0.61843336	0.17301396	-0.9752877	0.43031764	0.35079688	0.22465405	0.67362565	0.098487064	-0.006191477	0.2134679	-0.092561126	0.33080268	0.059090897	0.41323417	-0.38653493	-0.6670541	0.07832083	-0.64494604	0.058450952	0.25957954	0.14328335	0.18741417	-0.010499597	-0.44073254	0.047271043	0.74401885	-0.16677336	-0.15129408	0.13761085	0.07816445	0.29966247	-0.47489488	0.7997313	0.12848207	-0.45653522	0.17944172	0.48293033	-0.26638693	0.70325035	-0.025596172	-0.07873711	-1.0517817	-0.5181744	-0.9372368	0.61648834	-0.099134	-0.24874347	0.6666167	-0.67693913	0.575968	0.20318028	0.04339771	0.33197063	-0.41415957	-0.011488557	-0.34106043	-0.09444013	-0.27932656	-0.009117365	-0.8908945	-0.14338714	-0.6362047	0.24771625	-0.31150854	-0.34421864	0.38806581	0.7116399	-0.38279265	0.27580255	0.7423078	0.58203924	0.4687993	0.36880812	-0.036316544	0.08253825	-0.13032812	0.2542093	-0.5779967	-0.20618284	0.22511427	0.24553701	-0.22452521	0.9138011	0.42051345	0.41130227	-0.7335496	-0.16032675	0.45809335	-0.12486288	0.1763255	-0.3262166	0.23018283	0.004503101	-0.05278331	0.1854959	0.8456713	-0.14058731	-0.32304558	0.667691	0.60265356	-0.41984922	-0.46537054	0.023516953	-0.1780394	0.09934734	-0.738112	0.65271264	0.116262935	-0.561191	-0.17332098	0.19291323	-1.0753295	-0.8320211	-0.23066342	-0.2382201	-0.49640375	-0.75762886	-0.76837957	0.38007712	-0.29201812	0.3312689	0.3283405	0.49942812	0.017958462	0.1076093	0.44299144	0.60881066	0.38756895	-0.58082294	0.92716867	-0.084135026	0.15368858	0.039985195	-0.4891703	0.13338766	0.030497119	0.59137654	-0.35908973	0.42499915	0.042935014	-0.05769907	0.61746323	0.19452763	-0.59025913	0.1517249	-0.9355535	-0.93654513	0.14833748	0.753437	0.19745941	0.5752954	-0.49600792	0.71282107	-0.2608029	-0.3188757	-0.20571668	0.3800136	-0.28352445	0.37678027	0.009836316	0.5479347	1.0489005	0.12121835	-0.7467525	-0.1587114	0.14205155	-0.44944888	-0.26327443	0.75006074	-0.36772484	-0.34912446	0.60273516	0.5193398	-0.29801968	0.4400702	0.94573355	-0.98388743	0.23852034	-0.20335075	-0.2547745	0.14863761	0.2056419	-0.23506892	-0.12468526	0.116356276	0.39140058	0.025789618	0.21391645	0.18615346	0.058819383	0.13586032	0.27789176	-0.7005333	-0.7990651	0.14580986	-0.5492948	0.3481968	0.70129603	0.40373006	-0.114464626	0.504849	0.12757666	0.30406314	-0.20353249	-0.37333164	0.37105766	-0.5427801	0.3666299	0.66478026	0.01572147	0.9263328	-0.5172199	-0.44518897	0.2999168	0.7393068	-0.055156037	0.32099792	0.31573933	-0.10428587	0.092301205	0.18389787	-0.37284464	-0.3852252	-0.39705974	-0.14879543	-0.2530719	-0.26973757	-0.38713872	-0.157156	-0.15683794	0.05366367	-0.3220643	0.49982837	-0.29765192	-0.24236608	0.36849013	-0.6402842	-0.27629673	-0.36871466	-0.55719125	-0.49539775	0.6567815	1.1757087	0.33188856	0.41975945	-1.0778077	0.32836136	-0.25409272	0.81584716	0.91109526	-0.14465624	0.10618408	0.16257209	-0.15021402	0.15031512	-0.36719316	0.063100934	-1.0038674	-0.6411803	-0.1439474	0.7461673	0.6378252	0.6090423	-0.2442804	-0.5843121	-0.39515248	0.13126498	-0.5050007	0.239874	-0.21178502	1.1415884	-0.3244567	-0.22360305	-0.5152529	0.290626	0.044638038	0.2237683	-0.0699708	0.3564159	-0.09858044	0.101727754	-0.59949934	-0.4164409	-0.15372244	0.6540904	-0.87289965	-1.1732104	0.50981367	-0.08085175	0.046292096	-0.42781973	-0.09857234	0.43504193	-0.2757771	-0.7860849	0.98709875	0.3543299	-0.64460456	-0.5448152	0.07023311	0.30922496	-0.4675776	0.8963112	0.0108226985	-0.98403835	-0.07595015	0.47408295	0.4109797	-0.47816262	0.29059327	-0.35247454	0.12584007	-0.4265334	-0.08827886	-1.2208757	-0.576575	-1.1727529	-0.23125541	0.24347277	-0.5164924	-0.7141068	0.5436034	0.3399971	-0.050817072	0.2445845	-0.14971375	0.6121952	-0.35191178	0.31411332	-0.32801956	0.88569576	0.43968529	-0.3452091	-0.31953087	-0.35031757	0.52695036	0.24734592	0.567083	0.16072609	-0.77929723	-0.1961112	0.034239963	-0.12286337	0.8101078	-0.74241817	0.2644707	0.03672733	0.09964278	-1.4342966	-0.792265	0.28731483	-0.1714361	0.027097352	-0.2071032	0.14397989	-0.18467924	0.098386	0.0741985	0.4313795	0.51856726	-0.25038007	0.23835555	-0.30254292	0.29872122	0.47950304	1.047808	0.82307506	-0.57391036	-0.25631422	0.18387282	-0.09092902	0.4822323	0.050397083	0.31591797	-0.28968862	0.07097938	0.4718115	0.0071376413	0.46496946	-0.3652054	-0.06456915	0.40208268	-0.17417574	-0.06266455	-0.5421727	-0.64514434	-1.2882214	1.1409144	0.2470794	-0.0048929155	-0.18658197	-0.5892746	-0.092696816	0.013309717	-0.087614305	-0.2021091	-0.1767233	-1.2702676	0.34925437	-0.30905595	0.60349464	-0.0045534372	-0.503819	-0.8776489	-0.5585134	-0.21601185	0.30640686	0.09230372	-0.90853435	0.29676262	-0.39651623	0.46015462	-0.9051463	-0.36862755	0.022291541	0.1650951	0.36522973	-0.66948986	-0.4126644	0.15043089	-0.3216495	-0.25071517	-0.34504282	1.0230637	-0.44283926	-0.41078103	-0.011905089	0.8180406	-0.5461711	0.5802945	-0.59631497	-0.5390255	-0.0032222122	0.7284503	0.05095037	-0.97268707	0.8436703	-0.18150857	0.047452264	0.60567635	0.29718208	0.27524513	0.34512582	0.1380327	0.1582205	0.22927937	-0.66426146	-0.212841	-0.8729552	-0.6867012	0.23790473	0.004582301	0.49245703	-0.07555382	0.21235529	-0.34448257	0.42253184	0.3222944	-0.8887576	-0.43077803	1.0814297	0.013127878	0.3127316	-0.3174545	-0.4707709	0.20007837	0.38146734	-0.3130056	0.19890165	-0.88011247	-0.11754514	0.062823474
G000422945	0.09927497	0.73954326	-0.4643408	0.02873674	0.43992195	-0.6375766	-0.74809134	-0.44342133	0.78429794	0.23020348	1.0384364	-0.21294105	0.5037073	0.003018394	0.40219176	-0.30742538	-0.6600816	-0.40129754	0.45921046	0.08009227	-1.0067892	0.60831326	-0.8349054	-0.29303104	-0.14686638	0.1689146	-0.5349518	0.4963375	0.59939796	0.50335157	-0.54861164	-0.54295194	0.37233186	-0.22435501	0.67265964	0.305003	-0.0046634153	-0.53966343	-0.16590127	0.39480728	0.16184312	-0.62110597	0.7669941	-0.025803506	0.54475325	0.16540553	-0.02642849	-0.46259916	-0.114800215	0.5942464	0.14878072	-0.034475967	-0.9819192	-0.01143302	-0.8640351	-0.35391855	0.002831921	0.5343574	0.22468553	0.19192599	-0.023338467	0.45206165	0.16001184	-0.3208717	-0.3064952	-0.16245943	-0.012165487	1.3024844	-0.37440944	-0.42395014	0.6550088	-0.47697875	-0.4093698	0.2775924	0.5112897	0.55206907	-0.50439835	0.10974545	0.2770378	-0.63997006	-0.013248324	-0.092421636	0.8855674	-0.762452	-0.4260109	0.1351117	-0.015874512	-0.59736824	0.27780777	0.2176835	0.1458563	0.49244425	0.7523759	0.14246626	-0.052822262	0.13228634	-0.50857913	0.18696558	-0.37963533	-0.059794277	-0.6919649	0.94225365	-0.048777804	0.22402608	0.28472015	0.18841691	-0.5920747	0.03132145	-0.50494385	0.42821106	-0.28712732	-0.036820233	-0.00799554	-0.10988918	-0.2512807	-0.7687086	-0.0711624	0.2752149	-0.022856206	0.526137	-0.8734213	-0.40054733	0.24190128	0.1301743	0.92002606	0.43657023	0.1675843	-0.31770414	0.8182827	-0.47826934	-0.09469682	0.06542578	-0.38037795	0.62288725	0.21155111	-0.27455056	0.08050163	0.12977187	-0.2774006	-0.6152828	0.2718184	0.7125516	-0.67714703	0.24489477	0.62326545	-0.25760373	-0.009703681	0.45742396	0.16316998	0.06156847	0.013504088	0.54534906	-0.36719334	0.37125552	0.4160491	0.37135348	-0.6541378	-0.19991201	-0.08752777	0.41044927	0.43840992	-0.28158435	-0.22942096	-0.17762747	0.16972256	0.05675354	-0.40839818	-0.62037283	0.577318	-0.22414628	-0.61718476	-0.60643023	-0.5177285	-0.33851117	-0.36940515	0.43264922	1.3732553	-0.47270697	1.1435285	-0.56915337	0.11527081	0.1588349	-0.62357527	0.34494686	0.73597366	0.22633225	0.87657326	-0.24237296	0.47681326	-1.2318561	-0.82635355	0.6001635	0.29487467	0.06806691	-0.589021	-0.8464514	-0.2719989	0.54877144	0.6557032	0.61061466	-0.0623852	0.47487083	0.84677887	1.3345786	0.54210037	-0.6162272	0.15925825	0.16030973	0.75617516	-1.0982841	-0.46501186	-0.1299276	-0.23629373	0.21603908	0.10469088	-0.16662398	-0.63991636	-0.024736196	-0.107025415	0.43041492	-0.20576009	-0.29282266	-0.22261547	-0.92776775	0.21139403	0.1386874	0.75052065	0.3625431	0.01710333	0.005666092	-0.05745396	0.5133962	-0.29089457	0.75567955	0.46371707	0.44718534	-0.24679595	-0.8409723	1.2881038	-0.11331129	-0.069097176	-0.16100049	-0.20432326	-0.31919977	0.045885175	-0.12734257	0.43026084	0.695085	-0.08763188	-0.15886691	-0.3426355	0.30956662	0.041408613	-0.8516897	-0.023278445	0.63161623	-0.8746202	-0.48138872	0.2319831	0.32028973	-0.46544427	-0.5095155	-0.99080956	-0.4017558	0.35878667	-0.10410556	-0.3055924	-0.35278016	-0.10758325	-0.65850824	0.16506964	-0.4430439	-0.7376686	-0.047874868	0.14848585	0.40346712	0.28555095	0.13167176	0.18259415	0.25463688	0.050314635	-0.68950224	0.5669798	-0.87307394	-0.41988158	0.059285372	0.4435494	1.1561947	-0.25838256	-0.29861778	0.6294284	-0.5433763	-0.0096193105	-0.1514263	-0.10901058	0.09220486	0.276129	-0.7371783	-0.4063491	0.85738194	-0.020467997	-0.37236792	-0.29784852	0.40950668	0.85147965	0.6671986	-0.5380057	0.4511298	1.219728	0.44954613	-0.43947047	-0.43791467	0.5882961	-0.089004695	0.34054804	0.76379037	-0.9399477	-0.050215323	-0.02268657	0.017039381	0.4247594	-0.5120834	-0.37313974	-0.4809157	-0.13827771	0.0935501	0.4107033	-0.93456686	0.5556161	-1.5335506	0.4045664	-0.26387838	-0.027006328	-1.2003579	0.6954826	-0.0738173	0.49087608	0.29336596	0.48209518	0.6361386	-0.14524522	-0.109317094	0.45554686	-0.06802255	0.52862036	-0.5894417	0.08139208	-0.2514629	0.48023042	0.4509373	0.08272089	0.34352875	-0.64327276	0.0046513975	-0.28927737	-1.0520003	0.47909907	-0.16646531	0.026368696	0.07294023	-0.97595954	-0.5717206	0.360358	0.33106714	0.54814917	1.5154667	0.73059994	0.81751245	0.21418065	0.285343	0.7910718	0.09140691	-0.13964465	0.092108	0.1443487	-1.009496	-0.5115882	0.54847246	-0.7031765	-0.30774802	-0.3787357	-0.8235655	0.705542	0.19521566	0.82867134	-0.021873564	0.00914517	0.80666757	0.40265423	-0.4663559	-0.110482335	1.0803688	0.2584089	-0.0834165	1.0318037	-0.23877339	0.5539783	0.527446	0.046045683	-0.81116897	0.27240217	0.1521752	-0.26728287	0.9711772	0.93937683	-0.38710433	-0.7808403	-0.11341235	0.3103075	0.20301664	0.41706952	-0.07325801	-0.0019484013	0.94687796	0.6385459	-0.36665952	0.5714054	-0.606758	0.9668411	0.20343335	0.35605344	-0.13757432	0.20790502	-0.10556021	0.3849933	-0.22405782	-0.39947045	-0.586908	0.5250402	0.48818532	-0.79823416	-0.9737725	0.6125992	0.28401178	0.59668946	-0.5050685	-0.051124424	-0.68952703	0.24267876	0.26777124	-0.16881749	0.43757725	0.2719239	0.73807806	0.16872546	-0.15460213	-0.20259285	0.0767197	0.94793034	0.9335636	-0.33099034	0.51951104	1.6702567	0.5153522	0.01077719	-1.4543607	-0.44639558	-0.12823859	0.5005783	-0.24959983	-0.08504844	0.8064531	-0.5575968	-0.48184747	-0.4444015	-0.30224377	0.20908022	0.33866945	-0.40769583	0.11585246	0.038403124	-0.5083873	-0.3504564	0.24563043	-0.11494818	-0.2614364	0.26660094	-0.39252925	-0.5603142	0.30641946	-0.57367367	-0.13642302	-0.14691599	0.14240274	0.5254909	0.6073814	0.13714716	-0.28316388	0.049302757	1.1865253	-1.0849136	-0.045604847	-0.040652245	0.17624332	-0.4946773	0.19511163	0.63896877	0.5999335	-0.22871219	-0.75608385	0.71100646	0.35184035	0.1335119	-0.48392612	-1.0020454	-0.09203027	0.59483385	-0.42364305	-0.23445204	-0.04613939	0.08981307	-0.45800328	-0.7550115	1.1950555	0.21053886	-0.22732212	0.5914709	-0.05037711	0.2107414	-0.3213302	0.7263118	0.9170116	0.96119094	-1.1119486	-0.405981	0.1200751	-0.7805908	0.80752206	0.011072993	0.092432395	-0.5116356	-0.0026138872	-0.44501024	-0.2336684	0.06935991	-0.15657678	-0.019492581	-0.3104664	0.015709996	0.48022598	0.3626991	1.3080505	-0.43897304	-0.13558795	0.39865625	-0.07071107	0.16632721	0.17967297	-0.39283994	0.70037967	-0.84035945	-0.26140502	-0.80908686	0.29153585	-0.7451867	0.36423397	0.3760918	0.37492234	0.4514848	0.11830798	0.17669535	0.18754816	-0.0005412251	0.17073369	0.07456287	0.11373233	-0.6019681	-0.73981184	0.046930548	-0.7064698	0.137955	0.48029616	0.12944427	0.0038105845	0.21223202	-0.6251806	0.13452452	0.7756878	0.06589555	-0.097941965	0.27224562	0.19921564	0.6379975	-0.40717655	1.0374418	0.01942961	-0.5528429	0.31404895	0.4227365	0.24457863	0.68972224	-0.031229675	-0.32570928	-1.0721529	-0.44373825	-0.5327743	0.6823117	-0.21684504	-0.092071876	0.8581011	-0.32301748	0.906984	0.3794204	-0.18929408	0.030099347	-0.6113483	-0.120824985	-0.33341336	-0.21456423	-0.15744469	-0.20885861	-0.9687545	0.15857525	-0.5775377	0.38883612	-0.51452446	-0.7572061	0.5595253	0.7179836	-0.23557736	-0.040733904	0.53627586	0.19351265	0.4026637	0.65297174	0.27521533	0.3859002	-0.1474481	0.07721634	-0.5347352	0.04461409	0.094135255	0.3891918	-0.06738491	0.94484085	0.6503458	0.79876745	-0.74250096	-0.4568615	0.14459044	0.29631013	0.47618335	-0.15269084	0.41559184	-0.069792666	-0.07463515	0.21461129	0.86657375	-0.110430576	-0.58674014	0.66676384	0.42702913	-0.5301476	-0.28494006	-0.04274413	-0.049455598	0.35333824	-0.84833515	0.84394985	-0.0059872307	-0.13364616	-0.21650764	-0.21175236	-0.95437676	-0.8540807	-0.10417834	-0.3390544	-0.7588371	-0.8174896	-0.73434424	0.7113215	0.020888768	0.19389474	0.4516385	0.37445915	0.25016505	-0.13767615	0.50584686	0.44815108	0.57132506	-0.6601727	0.787335	-0.036844358	0.107262686	0.26304752	-0.5495347	0.079586625	0.07076532	0.18205224	0.19547461	0.55137205	-0.552318	0.18403018	0.61917615	-0.1712262	-0.7796109	-0.063807845	-0.74396396	-1.4015297	0.26443467	0.78714836	0.37483662	0.41657412	-0.49270898	0.6784818	-0.29194075	-0.46488303	0.05252564	0.45777068	-0.17696075	-0.013014913	0.05066067	0.16163647	1.2968371	-0.13088386	-0.69261193	-0.18019697	0.16714269	-0.21290444	-0.20750809	0.9737317	-0.5986502	-0.45224673	0.68057436	0.6917592	-0.07775547	0.88945913	0.9858888	-1.0275248	0.09417288	0.082911015	-0.44780576	0.2934447	0.24819517	-0.37037128	0.3342048	0.3277332	-0.15906434	0.04211554	0.4473817	-0.0049119443	-0.21339294	0.040559582	-0.03377281	-1.0313344	-0.95113325	0.09413522	-0.5878067	0.0012137294	0.20501404	0.22841689	-0.37720346	-0.055749785	0.13047138	0.5670885	-0.29442134	-0.8782449	0.35992384	-0.63391495	0.23310976	0.52502495	0.13073891	0.60602045	-0.4530342	-0.21970859	0.19758886	0.98179126	-0.032414496	0.30806682	0.3183598	-0.34173247	-0.061414912	0.29600525	-0.4929038	0.0138539225	-0.04986517	-0.4040212	0.3141179	-0.5504865	-0.7618817	-0.32307866	-0.035226557	-0.06949252	-0.47040427	0.8908557	-0.41976973	-0.3042454	0.4159802	-1.0024533	0.03492394	-0.42274106	-0.5496166	-0.60409534	0.5578867	1.1015546	0.043756664	0.58348125	-1.0133893	0.61735064	-0.53151256	0.86342317	1.2154778	-0.60187143	0.4471093	-0.043451533	-0.198659	0.009439439	-0.52045935	0.14998694	-1.0419313	-0.8329273	-0.02273357	0.61943513	0.67436165	0.4883263	-0.4812869	-0.63924277	-0.15790695	0.25033432	-0.6954963	0.21823213	-0.2990318	1.4837346	-0.020746946	-0.4701637	-0.3967616	0.17526393	-0.3177668	0.31558725	-0.005748432	0.17278525	-0.3640306	-0.29702407	-0.3277909	-0.9140262	-0.058607608	0.81657946	-1.0748714	-1.1494255	0.2638582	-0.31360695	0.07887524	-0.56370836	-0.094338685	0.5307099	-0.3057813	-0.6591331	0.8055211	0.22581248	-0.8062886	-0.38094386	0.035843194	0.5035993	-0.117269054	0.9112927	0.10134715	-1.0191133	-0.23457429	0.3433952	0.48635522	-0.77704465	0.3185811	0.024595449	0.20118263	-0.54695666	0.21434438	-1.3462393	-0.8262409	-0.7999351	-0.38965514	0.08885908	-0.44360888	-1.1668906	0.24147892	0.07964842	0.2994163	0.545901	-0.0014029779	0.8981437	-0.6423508	0.6076943	0.0883878	0.6494291	0.6387448	-0.010644391	-0.26533645	-0.077944204	0.77710503	0.23516585	0.61499906	0.032163657	-0.80634034	-0.23227158	0.12382967	-0.04011044	1.0073221	-1.0826249	0.4633371	0.1832008	0.1319764	-1.7944067	-0.6103088	-0.09850238	-0.05861762	-0.30442703	-0.59205985	0.2774887	-0.42809963	0.10936314	-0.1604666	0.38473058	0.4241086	-0.3477552	0.34791043	-0.2272926	0.330846	0.44492644	0.9483011	0.4082903	-0.9882169	-0.41273636	0.22658312	0.31366298	0.16706994	0.24856931	-0.139863	-0.4075467	-0.0934425	0.50535536	-0.35648227	0.40204558	-0.82357365	-0.06662504	0.21751374	-0.21287219	0.30955714	-0.5093149	-0.3428492	-1.5592678	1.3160471	0.064092085	-0.08163582	-0.73397315	-0.9864627	-0.37528795	0.28000987	0.030931987	-0.2403979	-0.009007223	-1.2373847	0.090031594	-0.3443437	0.73125684	-0.26417667	-0.7981031	-0.97319114	-0.67555594	-0.24441466	0.49431026	0.046266913	-0.57689357	1.1371701	-0.37258202	0.4392808	-0.50033855	-0.29772425	0.1458967	0.22166876	0.424701	-0.6339936	-0.9321765	0.18466184	-0.17298353	-0.057863176	0.10016483	1.3469069	-0.49061188	0.0011361986	-0.38684106	0.80151737	-0.61049736	0.4688077	-0.15536046	-0.64769274	0.2136008	0.91441464	0.26182973	-1.0328922	0.83827055	-0.21473384	0.18301497	1.0132993	0.13775936	-0.022175848	0.16170728	0.28371564	0.07289314	0.22276667	-1.0183674	-0.17333497	-0.50467855	-0.1630323	0.48574135	0.16485104	0.8176097	-0.24261522	0.28876913	-0.117284626	0.3665704	0.51737344	-0.87996113	-0.86659557	1.0093095	-0.22776917	0.8672415	-0.3345347	-0.7460139	0.11107861	0.430875	-0.21385932	-0.051014937	-0.7798127	0.21054411	-0.17354016
G000192845	0.39836696	0.5546579	-0.2515256	-0.2679998	0.5310559	-0.73483413	-0.70868117	-0.17927802	0.37575263	0.4818341	0.84991664	-0.19165471	0.50962275	-0.08990793	0.3327094	-0.2807867	-0.40753788	-0.2576382	0.09071271	-0.06234626	-0.6307014	0.25673333	-0.5031474	-0.042024206	-0.034528106	-0.031639833	-0.45480478	0.26368102	0.26570278	0.44854838	-0.54615796	-0.3941161	0.023657955	-0.34756956	0.6073623	0.7251052	0.17473799	-0.1592827	0.04814571	0.20997562	0.1671597	-0.45187876	0.46939236	0.15039141	0.8272283	-0.016194388	-0.10000746	-0.3631869	0.066767335	0.5029507	0.4008113	0.12214262	-0.7058051	-0.2586104	-0.46806425	-0.20019445	0.2762411	0.10888715	0.1826157	-0.027553827	0.15885904	0.19740869	0.19933264	-0.2757587	-0.18471359	-0.36135554	-0.014424175	0.9595704	-0.27135858	-0.47824228	0.684955	-0.52238786	0.013564378	0.14745367	0.35201406	0.20606592	-0.3924177	0.14040944	0.22796199	-0.61234665	0.16476338	-0.022001982	0.86885715	-0.3689444	-0.38960472	0.23051521	-0.043964	-0.73561084	0.3705135	0.384111	0.21228458	-0.028125018	0.14248815	0.05020289	-0.057292044	0.2929837	-0.35529307	0.11913932	-0.50250137	-0.21816796	-0.4261881	0.7734008	0.12838873	0.35223058	-0.08932321	-0.09982325	-0.5387763	0.15144198	-0.61816823	0.63734645	-0.4415415	-0.08217472	-0.009270504	-0.50256526	-0.06273777	-0.7056726	-0.160288	-0.03893611	-0.13985233	0.017345428	-0.6072617	-0.09606833	0.5406147	-0.052824244	0.46533307	0.5903372	0.16461468	-0.18713018	0.53541857	-0.47540703	0.10685496	0.24149379	-0.31616795	0.63203436	0.17742907	-0.49971142	-0.025050223	0.30494168	-0.09086932	-0.46658504	0.51309407	0.44715175	-0.71891224	0.21498828	0.75335264	-0.17393023	0.21300954	0.4933114	0.24208039	-0.005893573	0.013992295	0.18999559	-0.15213776	0.512164	0.31615013	0.57517743	-0.7759844	0.070748724	0.059764605	0.31644177	0.32364368	-0.4901493	-0.19108355	-0.066244334	0.19723228	0.100587405	-0.27145055	-0.61096704	0.549417	-0.2956701	-0.45674986	-0.5354326	-0.38027483	-0.5160894	0.016543008	0.39968166	0.8187504	-0.41330975	1.0823835	-0.68761677	0.098358005	0.0111246705	-0.4917688	0.07023532	0.8631322	0.10924582	0.7378222	-0.3310023	0.45733505	-1.1768847	-0.7214012	0.6214425	0.14842896	-0.09949702	-0.37497336	-0.60035306	-0.14484191	0.45408815	0.4918394	0.45090514	0.01027371	0.15471713	0.53278077	0.8730435	0.34289035	-0.3098263	0.17442875	0.19024591	0.6020081	-0.8806535	-0.39626926	-0.05651626	-0.22876531	0.08245753	-0.14242333	0.14230078	-0.5741027	-0.13783894	-0.15808943	0.14810744	-0.2007035	0.028698966	-0.3892938	-0.3850205	0.113498814	0.0856151	0.62836665	0.36658967	-0.090182796	-0.1339302	-0.20383452	0.67262155	-0.0205997	0.46877038	0.6123061	0.3401023	-0.24561544	-0.62045485	0.84343636	-0.12981898	0.3090902	0.3384074	-0.1780121	-0.063977346	0.39476618	-0.037180528	0.3275752	0.40195546	-0.1323924	0.09399736	-0.24499463	0.07140776	-0.27396655	-0.6748792	0.22539051	0.47097105	-0.6048581	-0.269716	0.37609494	0.18837005	-0.21507828	-0.40999973	-0.7603375	-0.23250286	0.4018339	0.19071922	-0.5422412	-0.34820288	0.20295927	-0.7618438	-0.005616516	-0.244557	-0.39016485	-0.16437739	0.048413947	0.2923765	0.13522708	0.4404688	-0.116619565	0.49491632	-0.17511114	-0.28426442	0.21142751	-0.854723	-0.21554458	0.23773763	0.25829193	0.7401672	-0.014139608	-0.09732619	0.32936722	-0.2852183	-0.28590176	0.113306195	0.0660169	0.09478566	0.033146083	-0.49467856	-0.33155638	0.9345907	0.02130273	-0.24285063	-0.14301208	0.19022135	0.4725194	0.2885986	-0.6872405	0.46028113	0.81828403	0.69753253	-0.36770296	-0.26092944	0.36962909	-0.103113264	0.3202908	0.6085934	-0.6672673	-0.17898491	-0.07933836	0.018308356	0.24208331	-0.067643285	-0.49026474	-0.058541805	-0.22027983	-0.006087795	0.32554686	-0.9522103	0.39860877	-0.94486403	0.10167891	-0.50826263	0.29241604	-0.9109471	0.5547639	-0.15352616	0.103418134	0.07006521	0.39032865	0.477329	-0.11457521	-0.051107287	0.29117563	-0.19818234	0.31087428	-0.6200042	-0.0024511814	0.039883703	0.5336803	0.4122694	-0.13283724	0.25564384	-0.60944355	-0.1911853	-0.074384496	-0.7163739	0.4057625	0.080853194	0.27065298	0.20702988	-0.78537476	-0.56372744	0.2684759	0.38241237	0.40230444	1.1907392	0.93268573	0.58748925	-0.12542447	0.3191776	0.6421228	0.25496957	0.13504127	0.21345888	0.12544176	-0.8987503	-0.298877	0.3601368	-0.24275576	-0.5220296	-0.20871869	-0.7631767	0.27290604	0.007793583	0.7843518	0.23749752	-0.12273055	0.90006065	0.51247895	-0.07918468	-0.048749447	0.71280503	-0.07832472	-0.35023314	0.9407774	-0.31580293	0.43830293	0.65793973	0.32211828	-0.590741	0.28491256	0.2060812	-0.39998943	0.65177745	0.63937575	-0.3534477	-0.67674434	-0.35347536	0.020916656	-0.10106212	0.4634423	0.047489047	-0.021505006	0.6473857	0.0033152848	-0.3574417	0.7350283	-0.5377459	0.94543195	0.2409308	0.15458956	0.14858735	0.40072554	-0.119785324	0.2659619	-0.0890924	-0.31806293	-0.62958133	0.5224567	0.5766751	-0.64491713	-0.5823804	0.7808063	0.24522865	0.27415305	-0.06615008	-0.31493798	-0.45545992	0.30203274	-0.01217711	-0.38750342	0.48780468	0.095281795	0.4150383	0.035058398	-0.45156175	-0.10329077	-0.11080988	0.7787255	0.6425782	-0.04474543	0.21350825	1.3955379	0.07019875	-0.1035364	-0.95650005	-0.4498847	0.010929853	0.43549937	-0.1613422	-0.14919	0.7727123	-0.5060272	-0.14147083	-0.19490209	-0.13661002	0.4389097	-0.06846289	-0.23154917	-0.14009754	-0.21432836	-0.51614106	-0.2289387	0.44011092	0.033461526	0.012743901	0.0780531	-0.048101693	-0.15834929	0.14721371	-0.39949268	0.15580738	-0.31581068	0.20370884	0.28231415	0.4560016	0.35389808	-0.07855624	-0.089282095	0.6887158	-0.85147196	-0.22739401	-0.04514186	0.014105938	-0.293046	0.3637688	0.19828856	0.18067396	-0.13170116	-0.4793779	0.44313705	-0.16934703	0.3909584	0.10017172	-0.91007924	0.039328963	0.2965029	-0.1881614	-0.09805022	-0.35445184	-0.0019257963	-0.3482446	-0.72295827	0.7558854	0.20393582	0.07778156	0.45210835	-0.09868425	0.23776405	-0.37827033	0.49700293	0.8102009	0.6883612	-1.0694067	-0.55437034	-0.00016796961	-0.6959362	0.33262974	0.30517974	0.11479584	-0.26819322	0.2457902	-0.28046408	-0.20772925	0.018879086	-0.017994046	-0.30397815	-0.08163266	0.023519032	0.14608362	0.20571691	0.91922694	-0.23640214	-0.2680521	0.6089893	0.33048263	0.06698984	-0.10850972	-0.2324056	0.42768544	-0.4601458	-0.49591583	-0.49020255	0.18195933	-0.803196	0.17297646	0.19057208	0.20810832	0.5589044	0.02494841	-0.21726252	-0.048783958	0.06604564	-0.126719	-0.06412008	0.34850854	-0.19580679	-0.6141311	-0.15251395	-0.5413287	-0.21031934	0.36262614	-0.18970731	-0.0273301	-0.10772763	-0.41081938	0.18590987	0.5449859	-0.1980429	-0.29503503	0.18309085	-0.12779364	0.43731698	-0.05063066	0.784281	-0.051342994	-0.5927617	-0.03192927	0.4285025	-0.039747953	0.6763319	0.27952904	-0.020767547	-0.6651897	-0.34755164	-0.57673305	0.42052263	-0.20140323	0.07726331	0.5919737	-0.23291203	0.41947737	0.34564778	-0.2292995	0.2182376	-0.22205006	-0.21293628	-0.19270752	0.037996426	-0.187796	0.025881737	-0.53392285	0.07061647	-0.30078518	0.1569696	-0.47282463	-0.53390336	0.1744811	0.39357638	-0.47895777	0.11412529	0.4479875	-0.09817602	0.46951562	0.16291304	0.52783644	0.13745221	-0.1362336	0.22539106	-0.30972713	-0.08227374	0.2943183	0.37012386	-0.19782183	0.8479059	0.3351785	0.4940641	-0.6956986	-0.1539856	0.4202252	-0.08051647	0.24054039	-0.19552016	0.30217013	-0.0822826	-0.118109226	0.06976965	0.42756534	0.003925346	-0.2693904	0.4388156	0.5361279	-0.6286751	-0.19126256	0.19164774	-0.09696772	0.40411326	-0.66515315	0.6604953	0.029383417	-0.29707488	-0.34089762	-0.09316473	-0.90458995	-0.7149658	0.06732039	-0.3256265	-0.6239706	-0.7453581	-0.51894164	0.30675796	0.15952304	0.26290786	0.25676572	0.2511974	0.18026409	-0.10447082	0.5022855	0.104558796	0.40794504	-0.6600135	0.6100481	-0.036625803	-0.2341316	-0.04994166	-0.5711895	-0.13718331	0.0812566	0.36497527	-0.1945638	0.6354133	-0.065914005	0.08978546	0.2685647	-0.10887476	-0.7403499	0.34248245	-0.6282599	-0.8078481	-0.09944998	0.54334724	0.020063493	0.5240562	-0.5852695	0.5598979	-0.12638399	-0.6012489	-0.23961876	0.47121307	0.10522963	-0.0015409589	0.2678951	0.2926442	0.86256194	-0.2624518	-0.5721641	-0.20692414	0.14345843	-0.16486882	-0.09687288	0.5596191	-0.41351786	-0.13515517	0.7656386	0.87371635	-0.11273223	0.76976883	0.8037275	-0.7057641	0.09397698	-0.1025193	-0.3480667	0.41953534	0.08820838	-0.47504848	-0.0007605497	0.31220987	0.19133005	0.051161088	0.29955158	0.08391271	0.07413787	0.43525058	0.35905492	-0.990924	-0.75061905	-0.16554251	-0.6334975	-0.02685839	0.5905417	0.024636753	-0.027630903	0.21346526	0.19337372	0.32819992	-0.3649147	-0.47105548	0.34041426	-0.3174762	0.5536361	0.41586703	0.001031518	0.8481078	-0.22574408	-0.11456978	0.2856158	0.94195926	-0.22942096	0.24051046	0.75250816	-0.3033644	-0.006215252	0.14492273	-0.23278397	0.06327053	-0.025275424	-0.14047164	0.14765513	-0.54683554	-0.51788116	-0.4281175	0.046143472	0.014542967	-0.295323	0.44402567	-0.2045793	-0.40443555	0.4280993	-0.67047775	-0.024920404	-0.28858358	-0.7149829	-0.4547373	0.45568374	0.8486884	0.23083392	0.382814	-0.50114006	0.4676236	-0.42267275	0.9400177	0.92790043	-0.28155354	0.47351983	0.027560122	-0.18519072	0.30932826	-0.32738996	0.14508998	-0.9801605	-0.5198454	0.12903741	0.70232147	0.515944	0.38591373	-0.34526098	-0.7628759	-0.22904882	0.040345475	-0.4498988	-0.0035431534	0.06571938	0.9380982	-0.44600055	-0.3327601	-0.2788179	0.3839743	-0.38264394	0.27004075	0.17869118	0.3597618	-0.031848095	-0.06662908	-0.24057299	-0.6110132	-0.07209894	0.44697887	-0.48307997	-0.970772	0.4831489	-0.014916204	0.0870922	-0.701914	-0.06665084	0.33903113	-0.29097483	-0.4940522	0.93810153	0.13600305	-0.3913968	-0.62481683	0.24643126	0.32074898	-0.45982766	0.6098543	-0.012238823	-1.037008	-0.08834948	0.086622745	0.4482864	-0.4628796	0.020168997	0.11778	0.06362991	-0.49798688	-0.036716044	-1.1904886	-0.5866507	-0.7611778	-0.2825663	-0.02058348	-0.69239765	-0.71243054	0.15453312	0.3040566	-0.0024591088	0.2622108	-0.07904576	0.7075448	-0.15794787	0.5988413	0.16480254	0.78334373	0.58000493	-0.1930789	-0.17488517	-0.34080487	0.4528706	-0.2559685	0.42374775	0.022146106	-0.54435575	0.021311	0.090812854	-0.35561034	0.6621356	-0.92231786	-0.06145881	0.076616496	0.049960233	-1.2834193	-0.43302846	0.13967612	0.25459778	-0.21973588	-0.4430895	0.32711792	0.21548788	0.36391416	-0.17129685	0.47228503	0.44029987	-0.36904222	0.18815054	-0.19086556	-0.11145041	0.22904962	0.8516848	0.7037282	-0.57013893	-0.49994442	-0.025944054	0.14632376	0.4924934	0.16802926	-0.0921962	0.057730258	0.07766381	0.3910064	0.070428155	0.5264665	-0.64752907	-0.022444058	0.47611865	0.04593414	-0.010879412	-0.41185445	-0.54717064	-1.193546	0.9792348	0.07761306	-0.19077913	-0.269318	-0.32072034	-0.3439544	0.39946494	-0.16022362	-0.06428093	-0.4182432	-1.0470576	0.39098594	-0.30917042	0.4651258	0.012363672	-0.43156308	-0.61102384	-0.47679123	0.11067716	0.2529943	0.35897335	-0.51535505	0.2925027	-0.24663508	0.5086451	-0.49939477	-0.10800485	-0.20673284	0.06325476	0.1824151	-0.638306	-0.34101045	0.09839241	-0.14570427	0.12771404	-0.08402109	0.95329165	-0.2924805	-0.27915305	-0.25120655	0.5891398	-0.40085396	0.7829458	-0.034444958	-0.62325007	0.22171032	0.6527367	0.013836488	-1.1399055	0.41865107	-0.00048545003	0.023863705	0.53417575	0.20288476	-0.053587645	0.5141797	0.05960311	0.057157196	0.13728978	-0.691575	-0.1911715	-0.4255188	-0.44120213	0.54794484	0.16507398	0.46286523	0.29211688	0.09658843	-0.36258575	0.23967826	0.18807349	-1.010147	-0.3455936	0.8341612	-0.19065753	0.40147817	-0.2362901	-0.37258124	0.4076079	0.45538652	0.14314297	0.17751187	-0.36769047	0.15934788	-0.09497158
G000757725	0.33525792	0.47257036	-0.30979502	-0.3709063	0.57327163	-0.79490864	-0.73952794	-0.13707998	0.33791068	0.47079542	0.7563317	-0.20378004	0.41467598	-0.16053554	0.32728982	-0.24033323	-0.46138686	-0.29296756	-0.11999618	-0.009737212	-0.5465025	0.08725692	-0.3024786	-0.032388717	-0.36083007	-0.054371327	-0.41895366	0.31716546	0.1917691	0.41043466	-0.5261265	-0.38410455	-0.0599176	-0.40752655	0.51374954	0.8127372	0.2320484	-0.059612066	0.21542966	0.2145249	0.29437774	-0.50075626	0.304475	0.1404577	0.65583944	-0.13381611	-0.13170235	-0.32015634	0.05805601	0.59416276	0.5981349	0.08416055	-0.75062895	-0.19907127	-0.33863038	-0.22165214	0.2810963	0.11045235	0.30716088	-0.24409637	0.12201184	0.23552859	0.39100954	-0.28535724	-0.209542	-0.34692782	0.040462077	0.7977942	-0.22053847	-0.45108387	0.648126	-0.55126977	-0.024220869	0.14150295	0.38702998	0.23308113	-0.420972	0.06536797	0.33859858	-0.6253323	0.23029633	-0.027217299	0.9582078	-0.32068464	-0.42162284	0.19060868	-0.06564562	-0.7087419	0.36293283	0.3970589	0.24790917	-0.11099288	-0.00016582012	-0.116112694	-0.004344523	0.35806105	-0.3885269	0.13689515	-0.5625863	-0.12961456	-0.32717037	0.6368729	0.03706999	0.45902234	-0.267268	-0.18635377	-0.52848876	0.15682152	-0.56045294	0.6471821	-0.42748106	-0.18188752	-0.04878986	-0.4657469	-0.044618145	-0.55274296	-0.060739405	-0.052478865	-0.25134534	-0.079228275	-0.5390494	0.12849118	0.71015793	-0.05486898	0.45529002	0.5104795	0.2455916	-0.2693555	0.5221456	-0.40056497	0.2656842	0.2929142	-0.33032027	0.5459255	0.19445226	-0.43830702	-0.17024598	0.3778451	0.021880716	-0.31694633	0.5638895	0.4323022	-0.60603225	0.11643288	0.72328115	-0.11154081	0.087225385	0.6490409	0.36881572	-0.03045787	0.15951714	0.15759625	-0.15886992	0.52858436	0.30507836	0.6935481	-0.83976316	0.11406165	-0.03086868	0.2725663	0.32786402	-0.6483299	-0.1986028	-0.09671474	0.15369868	0.05853244	-0.2856182	-0.62519515	0.48138505	-0.21971501	-0.49906173	-0.57694674	-0.36266476	-0.5221989	-0.007485058	0.48596802	0.69426423	-0.41352654	1.1301931	-0.835803	-0.00388553	-0.004526779	-0.54662156	-0.016655363	0.7908429	0.20559406	0.60946935	-0.44038177	0.41374797	-1.0506439	-0.8003174	0.54031926	0.22629191	-0.14117567	-0.290519	-0.538338	-0.15929876	0.4255298	0.40918025	0.4182742	0.16011968	0.1332679	0.55425334	0.77325314	0.35248625	-0.11968495	0.14203557	0.21779141	0.41484678	-0.8008423	-0.3823404	-0.011974931	-0.3641053	0.017825738	-0.24418098	0.12641025	-0.52307755	-0.21202146	-0.13871469	0.27606517	-0.18921798	0.053888455	-0.41680852	-0.333456	0.18837553	0.013569474	0.70464605	0.33848524	-0.20653377	-0.12519598	-0.16787708	0.7626709	0.032059073	0.3106784	0.5078301	0.30931434	-0.38891518	-0.60152096	0.6887709	-0.11773868	0.3513478	0.40186775	-0.24543814	-0.06444827	0.47895968	0.093915135	0.34287062	0.30605567	-0.054350123	-0.001306206	-0.19084221	-0.11141453	-0.36232394	-0.74248946	0.21488163	0.39922148	-0.4551735	-0.18732688	0.32644472	0.16741446	-0.16125096	-0.39892426	-0.6682122	-0.26608902	0.4774353	0.20305191	-0.6335572	-0.29354966	0.22254735	-0.89725995	-0.10600847	-0.039013796	-0.3731901	-0.2564154	-0.021305896	0.23136681	0.0958861	0.56392586	-0.13396555	0.60910344	-0.23420589	-0.14594744	0.05893986	-0.7770327	-0.2512889	0.3112314	0.19106695	0.70976573	-0.068889335	-0.16247478	0.23959738	-0.18803474	-0.35318524	0.15329227	0.15489854	0.1523971	-0.026667207	-0.36923158	-0.25488657	0.95971024	0.0032921433	-0.25998265	-0.12238831	0.24894646	0.48938805	0.061530627	-0.74495053	0.31945366	0.682322	0.6439165	-0.29150188	-0.1942712	0.3307465	-0.1936017	0.34313285	0.66421485	-0.7553833	-0.16184029	-0.20513202	-0.06828074	0.08010262	0.06855613	-0.4616388	0.022994421	-0.25980318	-0.18731505	0.23827314	-0.9120878	0.44710612	-0.73526186	0.14920846	-0.57496107	0.38275436	-0.77444863	0.45154426	-0.16432676	-0.123214945	0.06387262	0.3614747	0.5191585	-0.06940505	0.041717365	0.37513244	-0.21465282	0.39810407	-0.5434922	-0.04907137	0.07523844	0.67042613	0.33550003	-0.24650738	0.2299246	-0.6258727	-0.1728031	0.0030805469	-0.7647687	0.4289192	0.1178482	0.25616956	0.14905399	-0.6348796	-0.42365417	0.29895762	0.23188683	0.42769414	1.0910629	1.0503788	0.46419913	-0.31002086	0.30415705	0.5764005	0.044806987	0.31486353	0.17984551	0.2114049	-0.8121488	-0.26224536	0.20754194	-0.22069463	-0.46236095	-0.051254362	-0.81160283	0.28433752	-0.103438795	0.7479735	0.2372132	-0.27802268	1.0850137	0.56246364	0.014768839	-0.113497436	0.51796675	-0.1222157	-0.4482421	1.0256563	-0.27521026	0.3294425	0.74463636	0.22741246	-0.5295199	0.37515026	0.13357353	-0.47546297	0.61561114	0.51829565	-0.28548592	-0.585019	-0.3843971	-0.17736854	-0.17508978	0.5552868	0.09637895	-0.03274355	0.6792324	-0.13440582	-0.3588055	0.7567535	-0.44703403	0.87454593	0.20460245	0.14284028	0.21659836	0.49202833	-0.035367295	0.24316914	-0.00789506	-0.2420555	-0.58515036	0.520264	0.676473	-0.49246833	-0.36748946	0.7063664	0.22125098	0.23989853	0.008365758	-0.36998877	-0.40110594	0.3127693	-0.080099545	-0.46705058	0.5062855	0.09934065	0.2780011	0.045262687	-0.42228425	-0.1472242	-0.11977346	0.61479634	0.62175524	-0.106492	0.18557979	1.131344	0.014794296	-0.07879904	-0.9148399	-0.51652384	-0.07988012	0.44424775	-0.052824154	-0.18559518	0.753424	-0.40450713	-0.07301818	0.0033801198	-0.11900179	0.49239075	-0.08036929	-0.2326482	-0.18651775	-0.20227033	-0.49860454	-0.26044953	0.3792708	0.06729437	-0.03630483	-0.06297643	-0.024119958	-0.16940117	0.097256005	-0.42869607	0.09152551	-0.29600278	0.21057056	0.27165824	0.40782097	0.47971585	0.053567767	-0.31197774	0.5245553	-0.86634624	-0.41237926	0.051664755	-0.116590574	-0.26055825	0.4383703	0.04815319	0.18546125	-0.059187412	-0.3937138	0.38203564	-0.1842158	0.44093958	0.08520243	-1.0321811	0.06027001	0.16643196	0.009247728	-0.023413576	-0.3661987	-0.078095235	-0.20601591	-0.7030445	0.57377166	0.2874875	0.28580648	0.4881818	0.021570727	0.23671985	-0.3253007	0.32879	0.7571646	0.6906113	-1.0067567	-0.4508095	-0.08759017	-0.72460306	0.2346197	0.38586214	-0.01547949	-0.13992804	0.34993428	-0.18867308	-0.077610955	0.09806344	0.0011154413	-0.3391911	-0.07311486	0.11246709	0.097604886	0.19103818	0.94304824	-0.25841674	-0.32360184	0.5862188	0.31359142	-0.0037652254	-0.12945846	-0.1247948	0.30527538	-0.34776375	-0.6170963	-0.38796997	0.071543574	-0.7938407	0.10681306	0.07363883	0.15011838	0.5486046	-0.021614078	-0.30843258	-0.14601137	-0.00047796965	-0.11116887	-0.24918753	0.28995594	0.036487088	-0.5035996	-0.17712045	-0.50561297	-0.19019973	0.3303632	-0.20626381	0.034222543	-0.094151735	-0.15652683	0.42191607	0.49411216	-0.19004913	-0.22305262	0.12561318	-0.06668377	0.38268474	0.05465571	0.73067963	-0.17059189	-0.6182146	-0.19190796	0.4952932	-0.15886712	0.6920905	0.3276437	0.060516693	-0.47919065	-0.25955045	-0.5561381	0.37287495	-0.13357556	0.0783595	0.508011	-0.23791762	0.41379434	0.28839803	-0.20883381	0.23615146	-0.32603157	-0.16906348	-0.25865424	-0.021556668	-0.080899306	0.06610936	-0.29895654	-0.046277523	-0.18289146	0.09062882	-0.46987894	-0.46144366	0.055090383	0.36573586	-0.59983003	0.055021495	0.41097325	-0.00605743	0.48267376	0.18216713	0.51825416	0.114947766	-0.2690074	0.10715124	-0.2958483	0.041038975	0.29926062	0.410209	-0.17862394	0.71895593	0.22424054	0.3921426	-0.50908	0.044543132	0.3434365	-0.16561738	0.27552593	-0.11769381	0.19702427	-0.010023117	-0.06067151	-0.17137927	0.39645857	0.07134314	-0.3009799	0.34943885	0.45663273	-0.5852121	-0.12089893	0.25102764	-0.08504351	0.45592475	-0.6413425	0.6834951	0.031058487	-0.35045326	-0.28525332	-0.12534076	-0.8239312	-0.5779326	-0.020420402	-0.23940362	-0.63623506	-0.8018039	-0.51262206	0.2818125	0.12903762	0.2885536	0.24061981	0.08042696	0.24196905	-0.06927996	0.29172432	-0.05920444	0.2947681	-0.68199104	0.55146855	-0.00093241036	-0.29230267	-0.07561754	-0.692536	-0.242537	0.17312208	0.35830808	-0.23496914	0.4826559	0.084878504	-0.0048106015	0.27471173	-0.06564606	-0.58094627	0.42856959	-0.74951583	-0.7275575	-0.2276887	0.43950534	-0.045494817	0.6059302	-0.6246944	0.6258738	-0.07502976	-0.54744744	-0.2664959	0.39139298	-0.010966212	-0.024683475	0.37069926	0.47645146	0.8118572	-0.17673531	-0.5550108	-0.36788648	0.072612345	-0.1821107	-0.09078751	0.41481507	-0.32571355	-0.14138144	0.7029345	0.86543083	-0.08112435	0.8940667	0.6953705	-0.6290688	-0.04623673	-0.18265057	-0.2246484	0.4066887	0.0016813278	-0.48021024	0.048245028	0.16708204	0.28136235	0.13897598	0.2409567	0.17946173	0.12922573	0.3057553	0.50180686	-1.1141616	-0.7173674	-0.24442431	-0.53451216	-0.04632081	0.6044982	0.020258717	-0.06614978	0.29192317	0.098676294	0.37115198	-0.424819	-0.36227277	0.42687228	-0.264159	0.47269326	0.29515094	-0.104994036	0.9095657	-0.17924397	-0.06847713	0.1735815	0.9594607	-0.2093521	0.20171979	0.8574514	-0.18568356	-0.02804647	0.19326071	-0.26369604	0.034052104	0.10500105	-0.022164643	-0.03682626	-0.55373335	-0.50500596	-0.46085656	0.044110015	0.030330986	-0.21174994	0.36221558	-0.15763554	-0.41203937	0.32175988	-0.7421679	0.02446255	-0.21641573	-0.80558616	-0.44381452	0.39204675	0.8170458	0.21001849	0.2865134	-0.4438393	0.38592708	-0.42355072	0.8769082	0.84339535	-0.17117628	0.5117035	-0.072153285	-0.23492767	0.38285044	-0.291283	0.15974648	-0.86930496	-0.5076699	0.23166099	0.7027323	0.42874146	0.2928667	-0.31572834	-0.8234314	-0.2288983	-0.048897922	-0.53519976	-0.1323184	0.025901422	0.80998755	-0.58022594	-0.25782537	-0.14797619	0.4218784	-0.4063655	0.17091733	0.21857563	0.38865936	0.065380156	0.10548054	-0.10732424	-0.46836442	-0.09664187	0.3941915	-0.33247834	-0.8491403	0.40492296	0.009274349	0.024713047	-0.6601436	-0.06027612	0.2534126	-0.39070448	-0.3232382	0.9412403	0.1407316	-0.27565953	-0.5694987	0.17657521	0.27159178	-0.54097915	0.49429375	-0.075228006	-0.9380689	0.052061483	0.007971182	0.56412154	-0.4733989	0.07692513	0.15223512	0.00846016	-0.6061697	-0.16772506	-1.0619291	-0.48842713	-0.7238696	-0.098939896	-0.12928802	-0.68889785	-0.584943	0.2250124	0.36566347	0.11220626	0.2411286	0.030320778	0.6037419	0.001564797	0.55180067	0.10059038	0.6733891	0.43533427	-0.3395899	-0.08549172	-0.38486525	0.29199064	-0.15861116	0.3609947	0.07195975	-0.54672194	0.09238394	0.0884072	-0.42738742	0.6518048	-0.8324415	-0.07267165	0.14725497	0.078944206	-1.2620647	-0.4266082	-0.05620447	0.37092435	-0.30044627	-0.5304412	0.31405526	0.33242568	0.48192897	-0.1993116	0.5402892	0.43339136	-0.30492234	0.185429	-0.1623788	-0.20628294	0.23013276	0.85217464	0.67766595	-0.44411838	-0.36485726	-0.06951383	0.021633685	0.6687695	-0.024889916	-0.08651771	0.25533417	0.17755388	0.46254304	0.13411999	0.39418224	-0.72547853	-0.03826923	0.49531043	0.055135563	-0.1679161	-0.34832942	-0.53476954	-1.1459618	0.85709846	0.1074653	-0.23101947	-0.29835194	-0.26965958	-0.21175247	0.45711818	-0.120340884	-0.09091619	-0.4582871	-0.9739195	0.38382906	-0.34887722	0.56990725	0.05120018	-0.42243814	-0.45540977	-0.4918352	0.22079724	0.23401755	0.4286402	-0.34786296	0.061008334	-0.2145428	0.6174288	-0.44528437	-0.12530486	-0.30265483	0.013389885	0.22392672	-0.6732091	-0.19148201	0.07981123	-0.08023107	0.19791223	-0.10738087	0.81250894	-0.23138782	-0.34520113	-0.34750396	0.5318431	-0.35654402	0.7660089	0.064156085	-0.61476386	0.0954828	0.5260963	-0.05334223	-1.1853415	0.36878234	0.20112865	0.15277596	0.4371893	0.13687602	-0.13494273	0.62173986	-0.1193289	0.14520869	0.14955057	-0.51995885	-0.11686331	-0.27131724	-0.58918184	0.5580067	0.3102228	0.56546366	0.38959193	0.040474266	-0.3494756	0.16149962	0.19594797	-1.0584829	-0.17072457	0.8507826	-0.16453417	0.38766426	-0.14900419	-0.34971178	0.30614296	0.3717358	0.121427774	0.08371719	-0.2538105	0.16519773	-0.057984382
G900109895	0.38585496	0.46700197	-0.4542234	-0.1886917	0.6237865	-0.83064866	-0.8220831	-0.04085307	0.64866215	0.6387916	0.9332454	-0.14772132	0.3402326	-0.30183426	0.40172184	-0.14378631	-0.41609934	-0.2683291	-0.14781113	0.17022443	-0.5224458	0.18030654	-0.52114564	0.11701438	-0.064137496	0.21146716	-0.5719874	0.39965788	0.28263137	0.38223773	-0.5451164	-0.37172642	-0.008569166	-0.420488	0.49300784	0.39512	0.2665552	-0.22909054	0.09844822	0.14204162	0.23941478	-0.35690856	0.35490608	0.1601984	0.6907673	0.01656118	0.017148644	-0.4870798	-0.021909624	0.42932415	0.46861276	0.057223782	-0.7381489	-0.07879825	-0.53368217	-0.1647944	0.028474182	0.4259635	0.10527	0.097301446	0.23140642	0.19241875	0.28028798	-0.3549653	-0.14962614	-0.1820987	0.056336343	1.0691885	-0.25098512	-0.401661	0.74541324	-0.71833205	0.05269	0.2936711	0.24934138	0.48473006	-0.6186091	-0.11988863	0.106420845	-0.7357357	0.29744247	0.045054346	0.9392436	-0.4359417	-0.5304358	0.16522987	0.1614584	-0.67268753	0.34020892	0.13640998	0.2971453	-0.016174078	0.34793463	-0.13797586	-0.20166138	-0.05640948	-0.41258046	0.30265546	-0.45799506	-0.34799165	-0.50442314	0.71793604	0.026392858	0.45717692	-0.106230825	-0.046203755	-0.3116429	0.17990263	-0.4773413	0.59266704	-0.45408988	-0.122282565	-0.100997016	-0.4596036	-0.08288491	-0.64436156	-0.16133535	0.18749931	-0.08299934	-0.049340792	-0.6871565	0.064640254	0.4178822	-0.024556562	0.44727275	0.37780753	0.30140138	-0.20317455	0.51171416	-0.3642623	0.09271312	0.05240953	-0.39810902	0.6481349	0.28286904	-0.4335637	0.079176724	0.2078279	-0.24896216	-0.38065332	0.50419986	0.48018086	-0.6664941	0.2666962	0.6679542	-0.086172655	0.074406475	0.5042361	0.2832967	-0.07210636	-0.14777249	0.08933457	-0.33201817	0.55664665	0.20433983	0.6395205	-0.7102777	-0.04811777	0.014398124	0.16161966	0.3999352	-0.48769754	-0.33263385	-0.009304091	0.187096	-0.14791316	-0.13250801	-0.61058223	0.5290863	-0.33735627	-0.52384543	-0.48525158	-0.5288096	-0.45194292	0.12833288	0.4233635	0.9548252	-0.6252871	1.0515077	-0.60643727	0.21536523	-0.017280787	-0.60022897	0.23714882	0.8540989	0.19728786	0.5762392	-0.26419023	0.39966747	-0.9272804	-1.0322623	0.4854031	-0.0092193335	-0.018084586	-0.4440893	-0.49212015	-0.25182277	0.38838083	0.3671863	0.25867832	0.034365334	0.22678098	0.497846	0.89823174	0.41461715	-0.19601476	0.17737806	0.09876083	0.5668683	-0.9621148	-0.4510379	-0.1023007	-0.4576761	0.011723921	-0.20766093	0.014720157	-0.8238212	0.14116582	-0.2844947	0.13226053	-0.20510101	-0.116307154	-0.34413186	-0.3810231	0.11326985	0.035434037	0.6522426	0.2838612	0.056451663	0.13287067	-0.14059329	0.60552275	0.04343845	0.59094995	0.44470286	0.32287607	-0.29004768	-0.5320305	1.007016	-0.16286044	0.36586535	0.1673424	-0.022970147	-0.060724527	0.29240274	-0.18350787	0.44289207	0.31056172	-0.03663504	-0.16429971	-0.12174183	0.10117598	-0.13935024	-0.7496387	0.22841403	0.47658	-0.47923866	-0.35788783	0.4822175	0.20210588	-0.21344468	-0.68953824	-0.9132898	-0.35850832	0.6642382	0.052399993	-0.46575394	-0.42440453	0.1307041	-0.76178116	-0.08127646	-0.34181905	-0.57484925	-0.016627558	-0.06814322	0.35126305	0.16779718	0.42069367	0.03946002	0.64203274	-0.26147425	-0.3541541	0.18560609	-0.74146855	-0.21242596	0.19024765	0.42377144	0.76079166	0.039578058	-0.047150463	0.33663324	-0.23573208	-0.21924785	0.0076016933	0.05358672	0.05783026	0.10260904	-0.5195285	-0.2391093	0.81358063	-0.111159146	-0.25805157	-0.23307717	0.19592543	0.4202103	0.23626629	-0.76736784	0.25843617	0.80491674	0.48976207	-0.40019044	-0.37374502	0.41528443	0.038784847	0.29468477	0.63777494	-0.6025576	-0.12837423	-0.21924469	-0.06798579	-0.059122324	-0.23113912	-0.42925298	-0.07213424	-0.17193538	-0.113667846	0.28750998	-0.88432205	0.19717182	-0.8129277	0.1779476	-0.39910713	0.115738116	-0.7893252	0.4478905	0.18495074	0.042557	-0.002755493	0.48871058	0.558651	-0.2632812	-0.00959678	0.32079306	-0.12918386	0.26098937	-0.54834163	0.05413547	-0.028452516	0.54943156	0.5303907	-0.32668152	0.27027297	-0.66833997	-0.09511426	-0.15374784	-0.939585	0.56331116	-0.08364554	0.14905494	0.18692136	-0.696755	-0.30471772	0.40919745	0.16547538	0.47236004	1.2369993	0.81432015	0.40264156	-0.21040016	0.37693155	0.71078557	0.031399965	0.15192896	-0.019255966	0.13947889	-0.8568017	-0.3434703	0.21821493	-0.19616936	-0.35782862	-0.26345485	-0.5780436	0.14806855	0.04893216	1.0387661	0.0858061	-0.32431155	0.93976194	0.3475368	-0.1911717	-0.15868443	0.66813576	-0.25413322	-0.29372627	0.8754061	-0.19449641	0.20326822	0.73862696	0.25637186	-0.46183464	0.37286112	0.1361601	-0.31612998	0.95265204	0.63348603	-0.3264351	-0.66144896	-0.2593737	0.02436024	-0.21672866	0.53443193	0.07056126	0.008795083	0.64721954	-0.1439546	-0.26651216	0.7413814	-0.48714375	1.0025725	0.12688588	0.35449487	0.011115305	0.4510849	-0.21331343	0.21061479	-0.09760092	-0.2819776	-0.62276673	0.39107245	0.53577936	-0.54310054	-0.5870557	0.809163	0.16502003	0.46007788	-0.3161595	-0.28735226	-0.4000527	0.27417466	0.09529203	-0.045808945	0.44834045	0.06268125	0.23186657	-0.06259309	-0.37319526	-0.18468067	0.017148852	0.6939602	0.79206127	-0.13185754	0.15385821	1.3327419	0.41029924	-0.2242825	-1.1440988	-0.43306363	-0.023815703	0.42504203	-0.03787121	-0.28217512	0.6815533	-0.36042812	-0.20700766	-0.1767537	-0.28574792	0.35599306	-0.056563884	-0.23929271	-0.108121514	-0.056551844	-0.5380209	-0.045865208	0.5212593	-0.06715653	-0.13618465	-0.11988993	-0.06450915	-0.33242732	0.24040419	-0.42643702	-0.11969176	-0.2907396	0.081089824	0.40934935	0.35529122	0.39465982	-0.050338864	-0.27913824	0.8324816	-0.9824039	-0.03433152	-0.11055866	-0.0097370185	-0.40377885	0.2472868	0.19147053	0.28341103	-0.23804356	-0.5061607	0.44038963	0.13232788	0.17018086	-0.036370143	-0.92052543	0.07099792	0.21809202	-0.12513056	-0.117917515	-0.11764701	-0.047926337	-0.42207816	-0.66497767	0.7159224	0.41930798	-0.16947225	0.31045014	0.08488561	0.3205359	-0.6158211	0.45211518	0.85747486	0.9972589	-1.0055265	-0.29919988	0.114996955	-0.5484345	0.24229938	0.3156351	-0.13906053	-0.21826142	0.28977835	-0.14780992	-0.026708841	0.029527098	0.10201487	-0.27496204	-0.16521958	-0.08423969	0.22865707	0.13889296	0.9113134	-0.3423072	-0.3994786	0.4830132	0.2086975	0.2503891	-0.17076312	-0.3975752	0.369604	-0.42893022	-0.4143712	-0.5238205	-0.008792818	-0.6723284	0.36662406	0.16722362	0.15987548	0.6894103	0.024769794	-0.18810265	0.08686113	-0.03139621	0.13778451	-0.1319519	0.17893168	-0.2279282	-0.6405101	-0.010925218	-0.59400946	-0.19384396	0.35285598	-0.07813406	0.008847237	0.09589794	-0.25060636	0.31881648	0.6877896	-0.23744106	-0.026516318	0.02621879	0.024503797	0.2804719	-0.17609422	0.5675378	-0.29450187	-0.6836434	-0.057122022	0.30962068	0.034854963	0.63380975	0.1653508	-0.15209326	-0.69367003	-0.4269376	-0.6541019	0.5480063	-0.20473376	0.03646198	0.7070198	-0.29346797	0.37408802	0.16386424	-0.061019495	0.23169057	-0.6134783	-0.04743912	-0.20774695	-0.17295775	-0.18876006	0.13247076	-0.51133054	0.114816755	-0.38982758	0.020095468	-0.39570594	-0.40672982	0.118233524	0.37502414	-0.42871505	0.3426315	0.5374491	0.241151	0.58841157	0.13858533	0.40757853	0.059519842	-0.23476088	0.2170327	-0.35995325	-0.067261346	0.24780753	0.45155752	-0.16636758	0.7497251	0.34938383	0.5118593	-0.5594609	-0.038416147	0.3576519	0.0882522	0.22074568	-0.17125583	0.26632267	-0.16365544	-0.062765926	-0.016840607	0.41181087	-0.09563242	-0.33582374	0.4551071	0.61638975	-0.41223234	-0.18291885	0.3126002	-0.07228658	0.3468427	-0.7657345	0.51012224	0.055087537	-0.33773518	-0.39186496	-0.081013426	-0.9176327	-0.6550971	-0.057418913	-0.13485633	-0.56057394	-0.7593635	-0.6164808	0.34443772	-0.05201273	0.32489693	0.31010896	0.32683277	0.07382053	0.12012805	0.19578736	0.12742662	0.31648946	-0.8810493	0.49319106	-0.174335	0.06012764	0.17139867	-0.7416882	-0.13829736	0.16365182	0.35638016	-0.24006109	0.49025166	0.10920139	-0.012221545	0.48141432	0.057702504	-0.62995446	0.44722492	-0.6156728	-0.80404276	-0.15788046	0.49478796	0.14948624	0.4897254	-0.6826879	0.74043494	-0.12943795	-0.36809662	-0.1380053	0.47461653	-0.0068817986	0.020945221	0.33790803	0.47578496	0.76965827	-0.06757161	-0.63556075	-0.11770135	0.04101286	-0.29973614	-0.10164687	0.482923	-0.3846909	-0.2176248	0.5932778	0.631199	-0.17947045	0.6924584	0.7078841	-0.6110259	0.06400409	-0.08128446	-0.119769074	0.36655423	-0.05908724	-0.27334982	-0.013062139	0.20897025	0.36697406	0.11007635	0.37630284	0.2947952	0.08908151	0.16148281	0.30035892	-0.8619811	-0.7673945	-0.13052845	-0.5606313	0.06582018	0.6955426	0.112016775	-0.1885759	0.21650031	0.11001331	0.40609628	-0.31265217	-0.49643493	0.087916	-0.27231532	0.60463977	0.540263	-0.077724956	0.8476751	-0.4281085	-0.21892947	0.010594144	0.8931509	-0.0028067827	0.09569776	0.86054325	-0.22371417	-0.052170068	0.23310542	-0.2904812	-0.24216086	-0.23597986	-0.026525214	-0.07677814	-0.38446942	-0.33121833	-0.4339011	-0.27239263	-0.09656066	-0.25417048	0.41100052	-0.16379248	-0.483244	0.52454746	-0.70934653	-0.17818055	-0.2723429	-0.7203329	-0.33572677	0.42093796	0.8619537	0.34738174	0.28668255	-0.5959517	0.2922619	-0.088391714	0.9522122	0.8079171	-0.19028169	0.40764147	-0.012375936	-0.3531841	0.15497077	-0.28841084	0.073099375	-0.9759103	-0.5396146	0.05820536	0.8158561	0.56373143	0.51885194	-0.26737118	-0.78517866	-0.1521443	0.10697779	-0.31506744	-0.121650174	0.057021745	0.8538416	-0.28364724	-0.15212291	-0.17344646	0.34371763	-0.2720383	0.17870346	0.13432443	0.47268426	0.040401563	0.053295672	-0.34149984	-0.5381712	-0.2047527	0.5112507	-0.7257476	-1.1004772	0.35378778	-0.10734871	0.16973229	-0.6291346	-0.14348423	0.153835	-0.35031787	-0.4107255	0.9040396	0.09719521	-0.29944333	-0.46035388	0.070828244	0.23336148	-0.51074064	0.509436	-0.008735366	-0.8343445	0.06550729	0.0031443238	0.37568715	-0.4744947	0.059836566	0.08198117	0.0729528	-0.61370635	-0.19231093	-1.0468967	-0.36771274	-0.8057604	-0.098690994	0.01982516	-0.6503529	-0.63861626	0.31703836	0.2419495	0.034722492	-0.028515488	0.027928587	0.77473897	-0.11167091	0.48454916	0.07558249	0.691404	0.38292393	-0.24198595	-0.044057757	-0.46156204	0.34519768	-0.066833615	0.26836756	0.1503376	-0.38915545	0.049051784	0.058901276	-0.09927322	0.70729077	-0.80974764	0.116675645	0.19645134	0.3205491	-1.2045252	-0.5629733	0.06601737	0.31063372	-0.2772289	-0.57910395	0.17706479	0.12210057	0.14022888	-0.12039088	0.43298018	0.39016896	-0.19064617	0.34111822	-0.18866813	-0.07925479	0.4228388	0.7894132	0.7518437	-0.34634447	-0.34789863	0.12857941	0.13740385	0.43182117	0.076503515	0.116404824	0.02021414	0.18180725	0.23110315	0.24796356	0.3867501	-0.68260145	-0.024121884	0.30665445	-0.11693385	-0.064309984	-0.46719772	-0.70405865	-1.2288021	0.75862646	0.17374131	-0.15148485	-0.21835744	-0.53045726	-0.1650916	0.31483477	0.037783183	-0.10323495	-0.4438467	-1.0837463	0.30667183	-0.0953109	0.6351234	-0.10682674	-0.46744657	-0.5386997	-0.6241525	-0.023055866	0.2282726	0.29222363	-0.45628226	0.3163858	-0.09866923	0.5090569	-0.4865676	-0.21795675	-0.18017063	0.1631401	0.3645541	-0.47424537	-0.45400918	0.14654702	-0.1482215	0.01466772	-0.054060668	0.94633174	-0.43742603	-0.39323714	-0.059294775	0.5051747	-0.39461765	0.58446467	-0.09885356	-0.41947746	0.113009214	0.5532092	-0.26938498	-1.1613722	0.5410773	0.15631077	0.17237434	0.29905233	0.1487016	-0.01239866	0.5199871	-0.012013607	0.2080342	0.11419536	-0.666034	0.017937742	-0.53989196	-0.5644528	0.53372806	0.25130904	0.28044525	0.15679368	0.06691548	-0.37427387	0.3049147	0.14406258	-0.912251	-0.28713349	0.78182244	-0.21972783	0.31094885	-0.40587676	-0.41459513	0.32426566	0.35983294	0.034180194	0.13123995	-0.5520312	0.058040857	-0.16071388
G900103545	-0.06687798	0.744645	-0.39674687	-0.03386171	0.48451614	-0.684467	-0.8599388	-0.42026722	0.9039458	0.08573696	0.98702025	-0.15099838	0.41858214	-0.1551615	0.37759322	-0.14784025	-0.54891354	-0.56184405	0.34338	0.054679833	-0.84044063	0.53729737	-0.68292224	-0.06428942	-0.0038897395	0.2508202	-0.590428	0.38034326	0.65148973	0.6683354	-0.81722057	-0.48843062	0.4638158	-0.11092909	0.86033267	0.22790582	0.095585875	-0.28998578	-0.23227085	0.3103751	0.34422264	-0.61602163	0.63787115	0.1507581	0.42695254	0.052675314	-0.18553784	-0.32198265	0.024737746	0.45954138	0.30046508	-0.027095169	-0.70925415	-0.08314419	-0.85128844	-0.2018174	0.15762323	0.5956984	0.04762744	0.17405653	0.00037181377	0.48932534	0.33907968	-0.5722099	-0.29879755	-0.1174696	-0.026874289	1.1162739	-0.4646126	-0.23106211	0.6026979	-0.4161271	-0.23187058	0.3325327	0.544883	0.545809	-0.2811758	0.042884704	0.2766453	-0.78043413	0.022001296	-0.113150515	0.87510633	-0.8223192	-0.3864141	0.22887546	-0.040362865	-0.5874667	0.2809071	0.41433746	-0.057338372	0.3083591	0.7183655	0.14515224	0.10479824	0.17165701	-0.36075097	0.18327168	-0.34251815	-0.20031774	-0.67677	0.74819833	-0.16472739	0.19864751	0.15842596	0.025986165	-0.5299139	0.0442613	-0.45172623	0.43637446	-0.24320012	-0.2573398	0.09205993	-0.27205575	-0.16808404	-0.67187846	-0.121121764	0.27991587	-0.018219888	0.36867392	-0.8180411	-0.35417163	0.41704142	0.043542102	0.71463513	0.47638986	0.27984107	-0.18316464	0.88228464	-0.41682863	0.04690039	-0.060978025	-0.2450597	0.7146044	0.08160825	-0.25738928	0.11030478	0.2994905	-0.13975601	-0.48951137	0.10393983	0.60950226	-0.6668508	0.19550711	0.65516984	-0.15598355	-0.005320102	0.515076	-0.021394886	0.026029766	0.018210217	0.45083123	-0.49259526	0.5219732	0.57178897	0.42036366	-0.6092242	-0.16784668	-0.14314267	0.3193031	0.3902257	-0.60959584	-0.52991295	-0.21616475	0.21157701	0.00393486	-0.48318368	-0.55197304	0.6583762	-0.13657317	-0.48194456	-0.67758167	-0.5406027	-0.47081482	-0.17877607	0.55764884	1.154872	-0.3079199	1.0825204	-0.6130523	0.15515028	0.38139677	-0.63246137	0.48188227	0.6148863	0.30887282	0.80921596	-0.33123085	0.4875178	-1.1079638	-1.006921	0.6076386	-0.03915134	0.09461886	-0.41697434	-0.6381825	-0.26316565	0.48426187	0.69106185	0.6834777	0.103003144	0.43460706	0.57357895	1.2547551	0.58693755	-0.568412	-0.01651571	0.18167669	0.6529853	-1.1176788	-0.6676395	-0.16401371	-0.42774647	0.14222935	0.0013485551	-0.2028139	-0.43577075	-0.04104241	-0.1464433	0.49224555	-0.23438774	-0.27019033	-0.33432233	-0.690647	0.000288859	0.22600341	0.68258804	0.5092907	-0.21441846	0.12343687	-0.16988616	0.52653396	-0.27813625	0.63314754	0.58211285	0.45243526	-0.18765354	-0.7661064	1.1647661	-0.2060512	0.17731199	-0.08317149	-0.2430182	-0.22442181	-0.05268067	-0.16219349	0.5700316	0.66731536	-0.16113792	-0.19013488	-0.3193784	0.27870578	-0.1598632	-0.7336993	0.07596117	0.56033254	-0.7961849	-0.61398727	0.13493401	0.31318092	-0.47803447	-0.56449443	-1.1267259	-0.14251667	0.6589123	-0.0035362542	-0.06475137	-0.17034979	-0.10760204	-0.8093572	0.13142994	-0.40552622	-0.73151505	-0.11810804	-0.03555312	0.5009393	0.23857625	-0.067419335	0.46850228	0.3316884	0.16722146	-0.6701631	0.56572455	-0.7603751	-0.35490635	0.059675224	0.39179707	1.0042477	-0.11423391	-0.26201954	0.4750602	-0.42952153	-0.02733785	0.022398472	-0.07444284	0.24369088	0.27490246	-0.6690536	-0.2953206	0.9822656	-0.06384057	-0.33196503	-0.2862299	0.3224976	0.7549715	0.5834598	-0.52015954	0.28719893	1.0860873	0.46555388	-0.42332888	-0.5147341	0.48442397	-0.07308607	0.23512094	0.6989295	-0.90205705	-0.16752337	0.14349169	0.11313163	0.36135125	-0.2929625	-0.3016581	-0.32932416	-0.14376698	0.05933772	0.43933368	-0.9772748	0.5606673	-1.0756907	0.1623101	-0.21795887	0.1594998	-0.88638806	0.57121867	-0.048312776	0.35227388	0.07722807	0.5577266	0.50784886	-0.2622661	0.071352616	0.37485248	-0.12332243	0.38515633	-0.6291219	0.24923441	-0.0808858	0.5972495	0.5128781	0.044374853	0.32360888	-0.72592413	0.0024313629	-0.23645088	-0.9159895	0.26292285	-0.2204656	-0.13640809	0.119556606	-0.8482064	-0.57146984	0.48980734	0.25137508	0.3596548	1.4853536	0.7692759	0.73905754	0.20745899	0.5092646	0.78792965	-0.1053434	-0.091217324	0.018714547	0.19123158	-1.0064912	-0.5626888	0.29777244	-0.28823924	-0.25414222	-0.36918995	-0.7652047	0.7637964	0.19337964	0.65418106	-0.13617349	0.002672106	0.54003245	0.41903734	-0.38851908	-0.19094	0.8424573	0.06940969	-0.07777509	1.0057869	-0.40615606	0.5160083	0.5154374	0.30150068	-0.6140919	0.33646715	-0.18617623	-0.34235567	0.8784845	0.84565115	-0.33323264	-0.96746653	-0.23069102	0.12178682	0.15865095	0.44413072	0.027349114	-0.21746522	0.8151427	0.5063287	-0.22745085	0.45003194	-0.6145214	1.1777359	0.20917171	0.3015763	-0.056369245	0.3117546	-0.32609516	0.33416578	-0.20647438	-0.4530428	-0.4896559	0.5096029	0.30499136	-0.6529285	-0.6893605	0.8776018	0.1996647	0.41310155	-0.29313612	-0.37294602	-0.72758526	0.22322842	0.24343184	-0.2732216	0.44958663	0.31193656	0.70388633	0.12788518	-0.1948129	-0.15196207	0.06979498	0.8990873	0.68987966	-0.22523826	0.5110212	1.6261158	0.42310473	-0.26225317	-1.1348497	-0.54254127	-0.33742595	0.46141514	-0.2698974	-0.13302785	0.76264083	-0.51671183	-0.32074922	-0.3559034	-0.19190967	0.3426109	0.42310473	-0.59741896	0.22928438	0.012250334	-0.35955852	-0.20467478	0.40723497	-0.32573903	-0.12542176	0.18915798	-0.19819778	-0.48907158	0.24633971	-0.4680204	-0.18824276	0.013648804	0.25280648	0.66391987	0.5823697	0.27067617	-0.30909556	-0.095822334	1.1710955	-0.9268916	-0.108633935	0.028517142	0.008807398	-0.5069572	0.24973375	0.5260645	0.46402615	-0.15393831	-0.7504706	0.6451155	0.17281201	0.12138903	-0.25217608	-1.1941173	-0.041754752	0.7701619	-0.4441768	-0.106632724	-0.15290837	0.11381453	-0.18945144	-0.7726943	1.0761335	0.27631906	-0.43985766	0.6002877	-0.09553241	0.44283342	-0.40104517	0.5250839	1.0507936	0.9732836	-1.0744104	-0.3522402	0.0357655	-0.50968945	0.8072164	0.04408808	-0.20150383	-0.29823264	0.030637123	-0.4731039	-0.11697303	0.115571946	-0.2804795	-0.22261393	-0.1958828	0.08388895	0.45887613	0.33026457	1.0718443	-0.5514442	-0.057638556	0.29907793	-0.14620437	0.17346616	-0.07234618	-0.33861107	0.6205232	-0.83677226	-0.26982233	-0.7526272	0.18756534	-0.7418264	0.65164095	0.29629263	0.3100123	0.5006027	0.053663313	0.00804431	0.25815877	-0.05930817	0.07614922	0.14787777	0.10003129	-0.43435258	-0.66290504	0.041954495	-0.7372321	0.07737197	0.4712755	-0.019162089	-0.09845099	0.16630936	-0.4289686	0.1256584	0.8267092	0.080855355	0.05941534	0.20659316	0.039341807	0.57194275	-0.38345948	0.8357204	-0.019655406	-0.6170506	0.32871336	0.33644012	0.42612392	0.69842917	0.12982932	-0.389576	-0.8426448	-0.5326113	-0.32674342	0.5121538	-0.24936152	-0.045577303	0.7892505	-0.036907196	0.72738737	0.40933108	-0.2410167	0.028550297	-0.5596088	0.023796767	-0.36369425	-0.3182969	-0.12006575	-0.119580686	-0.6812574	0.12820345	-0.56866527	0.32562977	-0.39743203	-0.70606714	0.27565378	0.51762784	-0.031187937	-0.10611352	0.34120974	0.06252228	0.5573129	0.600734	0.60355335	0.32114705	-0.16655096	0.07328522	-0.3454466	0.050193008	-0.004987672	0.3917877	-0.23416558	0.92833686	0.45370096	0.7114837	-0.7111433	-0.47454792	0.03157696	0.32007068	0.4409447	-0.15663487	0.42452997	-0.2817884	-0.039292485	0.25988054	0.63079625	-0.17830908	-0.59201795	0.63661665	0.5021937	-0.4944505	-0.34877187	0.13047035	0.011982247	0.49295095	-0.7862984	0.6510055	-0.01391004	-0.16902801	-0.28214872	-0.35778737	-0.97982615	-0.64700824	0.018571585	-0.2749662	-0.67830217	-0.765905	-0.7164321	0.7160529	-0.12892325	0.33450973	0.3298534	0.3416469	0.06405753	-0.21462412	0.5719812	0.40521958	0.5485594	-0.5781103	0.52062833	0.014538527	0.03162313	0.3527796	-0.6116469	-0.114733264	-0.0012329221	0.16015333	0.17767262	0.51863176	-0.4612513	0.16356684	0.531268	-0.21383205	-0.7983017	0.010559086	-0.7510151	-1.0657549	0.13805765	0.4263539	0.27835888	0.357295	-0.4809125	0.7073971	-0.24479026	-0.48868698	0.06410153	0.7192557	-0.12186761	-0.14591822	0.09595534	0.13149619	1.0330715	-0.09328297	-0.6114048	-0.2707498	0.27130163	-0.057737984	-0.12363894	0.7458302	-0.76363397	-0.6539726	0.65823984	0.62040925	-0.04823774	0.9833252	0.7284807	-0.8888761	-0.004961632	0.15684097	-0.35801595	0.2869717	0.088162035	-0.35039854	0.54470575	0.24486965	-0.058223173	-0.021836415	0.37032542	0.02896446	-0.06279823	-0.059019	0.02927722	-1.0718181	-0.8244488	-0.022990748	-0.56502426	-0.06335123	0.34705013	0.08902106	-0.42735618	-0.30932656	0.012029216	0.47404072	-0.26851222	-0.8859	0.17463008	-0.5110177	0.33913302	0.58854496	0.02448535	0.44084847	-0.38380945	-0.24762854	0.16479981	0.926544	-0.058750726	0.2286782	0.52291566	-0.3719738	-0.16417503	0.28324747	-0.54683363	0.1589057	0.13402799	-0.30252355	0.3876649	-0.4361087	-0.57979065	-0.33956748	-0.06294611	-0.071672976	-0.38924447	0.9709712	-0.44297677	-0.349476	0.51718974	-0.89662415	0.0103266835	-0.31026816	-0.76673573	-0.60327256	0.4094303	0.7339596	0.06470984	0.5299439	-0.70656526	0.5865808	-0.3983474	0.7961478	1.1306175	-0.4711333	0.49505204	-0.06962428	-0.34893575	0.15171887	-0.41640505	0.16085723	-1.0212291	-0.7728754	0.009045482	0.6865678	0.7762258	0.37005895	-0.36020905	-0.83580524	-0.12683669	0.1766284	-0.39851832	0.16031179	-0.18149595	1.1884977	0.047191292	-0.3836186	-0.25278604	0.2645068	-0.5836319	0.37537807	0.0055206344	0.27368012	-0.3084966	-0.1696702	-0.33919266	-1.0089743	-0.169813	0.7550066	-0.95332944	-1.0306647	0.3212078	-0.24601698	0.18779485	-0.5831262	-0.24409446	0.41294053	-0.32275397	-0.5496685	0.93326384	0.023148194	-0.6024601	-0.51992136	0.13604182	0.42403084	-0.2430913	0.5520966	0.16901481	-1.0347257	-0.33002317	0.20909593	0.28095204	-0.7657918	0.26618296	0.26828095	0.2522239	-0.5045505	0.18895365	-1.2675947	-0.47484773	-0.73442644	-0.23006487	-0.01704754	-0.4606894	-1.0447303	0.25527602	0.121444196	0.20973662	0.34263352	-0.05525044	0.9226587	-0.28683016	0.48609728	0.2701013	0.56546557	0.6332025	0.14026602	-0.13528222	-0.2730201	0.67976296	0.17501915	0.40423334	0.11737278	-0.6823406	0.023178324	0.021210853	-0.20897917	0.9437595	-1.0483624	0.30966532	0.16688016	0.31853488	-1.5943052	-0.44921637	0.02508393	0.09695849	-0.2861798	-0.71732265	0.21544254	-0.01868359	-0.0144520365	-0.15482983	0.3616853	0.40711892	-0.24291396	0.36191803	-0.17398298	0.18783788	0.5283538	0.8786927	0.30524984	-0.8162499	-0.19824636	0.23368472	0.14389336	0.15185192	0.35883796	0.09452013	-0.14924061	-0.1020581	0.39442864	-0.29453215	0.37839654	-0.87036514	0.013585918	0.20260026	-0.069793865	0.23959	-0.25081286	-0.42021024	-1.5224326	1.1157007	0.17124549	0.12949294	-0.60119575	-0.91699654	-0.26193994	0.49086013	0.033200167	-0.1625194	-0.07073818	-1.0631496	0.1905103	-0.22758994	0.6536411	-0.27132416	-0.6120231	-1.0821657	-0.7086492	-0.22909218	0.41339076	0.26821804	-0.5427031	1.0378718	-0.3095469	0.34142336	-0.29212314	-0.13449994	0.06390029	0.16680178	0.31620136	-0.53494304	-0.89489305	0.19791521	-0.26536086	0.13140514	0.18961746	1.2666998	-0.56549406	0.024933055	-0.27586532	0.6802572	-0.59788615	0.54817843	-0.07805729	-0.6171561	0.19649848	0.7510987	0.11928332	-1.0473465	0.86701226	-0.04558353	0.2620012	0.7809325	0.043868214	-0.15314136	0.33401948	0.16446172	0.33486518	0.20392278	-0.78588706	0.08898713	-0.60476214	0.049089164	0.4507401	0.24172097	0.52991176	-0.22592205	0.36873892	-0.09912658	0.441871	0.1846624	-1.0140558	-0.73547125	0.97654605	-0.4269594	0.7218775	-0.24425656	-0.8021297	0.28642175	0.38719326	-0.054590315	-0.1462949	-0.67855716	0.2655279	-0.3405507
G900142915	0.49279916	0.38772696	-0.64809096	0.14202045	0.47866753	-0.9143809	-0.622766	0.082374975	0.7502347	0.8994045	1.0570521	0.16088656	0.3091544	0.05809021	0.5394447	-0.39199898	-0.31073785	-0.19055083	0.16123405	0.24919602	-0.6834585	0.46981758	-0.5519281	0.03671585	-0.010055229	0.5186132	-0.72714496	0.5525922	0.4708204	0.21860442	-0.21114978	-0.66930187	-0.055039853	-0.29737625	0.67999065	0.26641744	-0.035166994	-0.39012206	-0.051985204	0.24200705	0.03617128	-0.25477016	0.27400017	-0.06733814	0.7252306	0.22077054	-0.06760824	-0.37206587	-0.3150363	0.4576128	0.20460916	0.2311885	-0.6325963	-0.10847968	-0.8415709	-0.37736124	-0.08400804	0.4688015	0.30949813	0.29789782	0.23548234	0.1424858	0.2750535	-0.1427212	0.19666189	-0.15943958	0.18956654	1.204581	0.14210239	-0.585573	0.6258646	-0.5869136	-0.10695574	0.49407348	0.27146152	0.5157982	-0.77142984	-0.1385344	-0.106732935	-0.57739204	0.33181554	-0.020923957	1.0573459	-0.6589384	-0.49092025	0.2548533	0.16440997	-0.58853096	0.30832142	-0.07390714	0.40079963	0.06782484	0.5349538	-0.21084249	-0.2767024	0.031865284	-0.4212461	0.42967784	-0.5887326	-0.34028047	-0.65105855	0.9082724	-0.00088312104	0.47107458	0.015786946	0.1281213	-0.39725262	0.22242716	-0.6372099	0.4471241	-0.4675486	0.12935358	-0.13994458	-0.26697233	-0.41840822	-0.8953683	-0.18857479	0.18320866	0.074130565	0.017953329	-0.6976968	-0.35466972	0.287499	0.13200554	0.6338345	0.3165932	0.41844526	-0.21772064	0.7372142	-0.17331378	-0.009696305	0.027562171	-0.5358896	0.6822715	0.1721305	-0.52573955	-0.03470274	0.04721979	-0.27238935	-0.3694832	0.34895444	0.6112746	-0.67219734	0.56608784	0.68952733	-0.3316321	-0.07174544	0.49660772	0.42566815	-0.1360642	-0.36411726	0.2124066	-0.3409925	0.67256796	0.06908803	0.79641885	-0.5737317	0.013548009	0.03852099	0.29264483	0.42626494	-0.4233134	-0.13406445	-0.017583966	0.54434204	-0.025646664	-0.007561952	-0.73325837	0.28417867	-0.24649487	-0.45598775	-0.44189104	-0.41947258	-0.41864896	0.24192259	0.23406796	1.4339783	-0.67209774	0.89490056	-0.6206142	0.10106061	-0.22620386	-0.9147945	0.15220866	0.93308467	0.17964198	0.6096558	-0.19228292	0.36332452	-1.1754935	-0.9287855	0.3695373	0.013043046	0.11634269	-0.45661187	-0.93958646	-0.38115448	0.54240006	0.5538173	0.22370152	-0.11430601	0.2652425	0.6786283	1.1627878	0.45684984	-0.28582305	0.16918346	-0.039422303	0.7093764	-1.1236881	-0.19911495	0.058898047	-0.36515474	0.21656622	-0.20016119	-0.12734058	-0.99328893	0.23340884	-0.23654519	0.07734619	-0.253363	-0.21155816	-0.09648772	-0.43300146	0.46972576	-0.14689845	0.551987	0.51792055	0.2806543	0.2561973	-0.07387654	0.5959428	-0.09835726	0.6249025	0.5907492	0.44798988	-0.2396192	-0.6461803	1.4103551	-0.020305946	0.19323659	-0.045384884	0.24678752	-0.113530695	0.35615575	-0.25308356	0.25563014	0.41854718	0.0007864386	-0.20545189	-0.07707399	0.26946393	-0.04316497	-0.9286643	0.056214392	0.6162622	-0.9086675	-0.59464943	0.46969312	0.45792168	-0.35994428	-0.8536577	-0.9303341	-0.4362775	0.57397616	-0.21874195	-0.53131753	-0.6172812	0.010297023	-0.55865663	-0.12850726	-0.3238137	-0.61520225	0.099106714	0.0064013526	0.23284957	0.3836943	0.5299068	0.10817006	0.48712355	-0.38031733	-0.3925961	0.43379548	-0.8368589	-0.2726688	0.14928779	0.4240365	0.9224693	0.15795207	-0.0717974	0.6988753	-0.41855767	-0.14086659	-0.20281088	0.13311568	-0.010908872	0.17490417	-0.675513	-0.2108929	0.82842577	-0.25127855	-0.45278108	-0.18164824	0.2604729	0.53484213	0.31492686	-0.7816241	0.55525017	0.9453584	0.47388482	-0.47240332	-0.3424254	0.7485326	0.10432649	0.29715183	0.64711976	-0.70481336	0.19470716	-0.2500158	-0.20820217	-0.18278366	-0.6581895	-0.6452557	-0.1323772	-0.12871987	-0.088620335	0.1968989	-0.9345381	0.23024891	-1.1908559	0.5325998	-0.17187753	-0.22260764	-0.94887197	0.40292215	0.4259981	0.32558033	0.15645128	0.43572474	0.8442394	-0.27790737	-0.20872664	0.34623143	0.19429047	0.4106791	-0.4180429	0.0879437	-0.27767876	0.38654274	0.7554108	-0.12955724	0.5679984	-0.6858872	0.028428257	-0.039860114	-0.9136482	0.83720815	-0.2539791	0.20713124	-0.038397804	-0.8083246	-0.13656081	0.48935285	0.30196154	0.8123177	1.3164495	0.77870923	0.7396187	-0.050954364	0.20699182	0.8686	0.19577143	0.10384552	-0.15588227	0.12614284	-1.1438321	-0.29139972	0.35659587	-0.2999137	-0.37403274	-0.26734555	-0.42497537	0.22191036	0.06083332	1.359343	0.15543833	-0.24524817	0.7930525	0.10916513	-0.56498563	-0.009567916	0.9234367	-0.23583478	-0.20707805	0.7062635	-0.03265828	0.24306674	0.7084854	0.028995283	-0.39047167	0.3713623	0.08935259	-0.050998673	1.2450774	0.8109146	-0.30729488	-0.6907683	-0.08015863	0.3153019	-0.21183898	0.3487443	-0.039374128	0.12178448	0.9281266	0.17455135	-0.18756594	0.69410586	-0.5599543	0.6880857	0.14359628	0.55467725	-0.056832097	-0.012082212	-0.31985113	0.21002069	0.09106114	-0.3669532	-0.7878362	0.17048678	0.6840347	-0.94503677	-0.68748295	0.7418274	0.18869528	0.62635493	-0.5411812	0.016946673	-0.40519026	0.11990258	0.2681495	-0.11396431	0.21915041	0.041512817	0.28497544	0.013613492	-0.5650244	-0.24837324	-0.0047194213	0.77998096	0.8727592	-0.08712874	0.15773396	1.5522804	0.49290246	-0.26774216	-1.3074434	-0.17472968	0.17282562	0.46997625	-0.11420429	-0.23213121	0.7467939	-0.1317873	-0.4379934	-0.22897607	-0.30978602	0.2594328	0.06624687	-0.10927677	0.08598544	0.09776452	-0.740654	0.11994305	0.5406893	-0.17196962	-0.22885334	-0.19534358	-0.18307674	-0.43409193	0.5193211	-0.48221576	-0.13713762	-0.34738412	-0.0894523	0.4660498	0.36448854	0.13488801	-0.23649028	0.07764506	1.1422079	-1.1546583	-0.017369255	-0.25027314	-0.029490314	-0.44569957	0.26395386	0.49757597	0.578424	-0.2583766	-0.54099005	0.46280318	-0.0056105256	0.12711442	0.056063056	-0.76468	-0.14734438	0.15730795	-0.20172654	-0.34013733	-0.13465239	0.025142744	-0.6725643	-0.6242515	0.95413125	0.41400117	-0.3769639	0.26885086	0.027256176	0.028601557	-0.79683656	0.64477736	0.9670976	0.8852365	-1.1110812	-0.25462216	0.06657151	-0.61954516	0.14886251	0.13149755	0.09832691	-0.38429368	0.23193975	-0.21995151	-0.1778729	-0.36254132	0.12840697	-0.22007123	-0.3675699	-0.30929288	0.23084688	0.29156187	1.0637982	-0.14566413	-0.24625885	0.3622159	0.30695626	0.36138368	-0.17061178	-0.6851847	0.4235186	-0.43180335	-0.33578634	-0.5185019	0.29501218	-0.85704446	0.49687007	0.17829868	0.35084456	0.8111552	0.1794923	0.00551565	0.27912152	0.09302366	0.2782569	0.052183293	0.2652726	-0.3970725	-0.6294538	0.06555967	-0.49075234	-0.28078827	0.3073661	0.20013058	0.11321598	0.1218791	-0.35103172	0.07578525	0.6516571	-0.30867165	-0.18581635	0.04700139	0.18563727	0.033771545	-0.3615294	0.7575547	-0.111998186	-0.5456242	0.06434286	0.4306902	0.008343697	0.49780035	-0.048487976	-0.2158123	-1.0432174	-0.6633049	-0.99852693	0.69156796	-0.080351144	-0.15296203	0.64751124	-0.5928267	0.52938235	0.17684376	0.1965931	0.13158976	-0.26680326	0.026027769	-0.35780698	-0.18726815	-0.18419522	0.081662536	-0.980262	0.041339353	-0.5931406	0.27522755	-0.36877263	-0.40534174	0.4808388	0.5461516	-0.5633162	0.30200115	0.7624888	0.41573393	0.5121515	0.19136126	-0.023927212	-0.2068137	-0.13209344	0.40284508	-0.42261118	-0.28797513	0.24250019	0.36509818	-0.090534315	0.9043883	0.3804003	0.56398726	-0.67140126	-0.09743178	0.46013623	0.02322945	0.15771312	-0.40013856	0.27686074	-0.13052207	-0.14768678	0.11777292	0.6685238	-0.19346191	-0.26286677	0.6472794	0.7713454	-0.20634478	-0.41222334	0.084801644	-0.12726495	0.038869664	-0.8747808	0.39757448	0.3568632	-0.4928882	-0.5304585	0.12537587	-1.1059607	-0.8401629	0.004864633	-0.20992464	-0.44691867	-0.97403675	-0.6876046	0.39213	-0.13955617	0.37273568	0.23217435	0.35977077	-0.10367146	-0.019580975	0.2631325	0.47574323	0.40757987	-0.61808777	0.90494365	-0.1739326	-0.045849748	0.10237093	-0.6254136	0.20823884	0.1660968	0.41047943	-0.09953387	0.4971627	-0.017567307	0.043128997	0.8164881	0.004731521	-0.6522865	0.25771865	-0.6865143	-0.91881216	0.14556849	0.7170296	0.35954317	0.498362	-0.5062309	0.6784049	-0.20834461	-0.28097707	-0.20031813	0.39410836	-0.042345397	0.1939421	0.07295793	0.57548094	0.859378	0.07379475	-0.5602825	-0.124408364	0.076159574	-0.49743345	-0.094408706	0.6892197	-0.39619723	-0.3107142	0.68337363	0.5244561	-0.14313564	0.5457517	1.0090054	-0.82647824	0.048172742	-0.20523494	-0.06944736	0.081556246	0.124481894	-0.15135804	-0.19812532	0.12534302	0.3758139	0.22701176	0.30918586	0.13879356	-0.07676202	0.13476035	0.16761662	-0.63312566	-0.89947426	0.1006592	-0.43887615	0.21916094	0.6294766	0.24429286	-0.040918335	0.41679168	-0.032206908	0.34891647	-0.1797736	-0.3525925	0.05816999	-0.70108247	0.51074976	0.6911315	0.057247765	0.92526674	-0.39614767	-0.38331056	0.09224951	0.8757571	-0.06124345	0.20970476	0.62658656	-0.15606135	-0.037814643	0.44525278	-0.43600395	-0.42030153	-0.4860256	-0.11297059	-0.05561985	-0.3379438	-0.28673893	-0.3320592	-0.3178851	-0.03921333	-0.3094964	0.527026	-0.2687014	-0.3350702	0.23064826	-0.5978666	-0.30079967	-0.4364234	-0.5576999	-0.48230875	0.47089776	1.1522344	0.42069256	0.4039749	-1.0030615	0.20007336	-0.16975328	0.9402944	1.0066235	-0.1515347	0.37151077	0.0054477006	-0.2824429	-0.1718423	-0.31939068	-0.13023989	-1.1824071	-0.6463574	-0.12864298	0.86467236	0.5664029	0.50277036	-0.24868366	-0.5361864	-0.1335292	0.18793142	-0.354677	0.11421944	-0.001886569	1.1470798	-0.14115539	-0.28256997	-0.4206671	0.22413808	-0.22176398	0.33951876	0.00786525	0.42269796	-0.13984007	-0.010290436	-0.5348538	-0.34263253	-0.13582484	0.69186795	-0.95590544	-1.2627314	0.44444108	-0.22005221	0.08200063	-0.6184615	-0.10226324	0.23422974	-0.41278696	-0.61176664	1.0074198	0.20045367	-0.51625544	-0.40760627	0.023341238	0.32139134	-0.5470068	0.83871144	-0.106824	-1.0309619	-0.13146263	0.3058334	0.39865518	-0.3674948	0.31161338	-0.04857762	0.082089655	-0.6399682	-0.32291436	-1.3220556	-0.46390754	-1.1590406	-0.21507631	0.14261296	-0.61831	-0.77553046	0.31074917	0.31686422	-0.10680944	0.030704498	-0.20360932	0.8379742	-0.27370542	0.60820615	-0.12978263	0.80920565	0.43908063	-0.42500696	-0.26623547	-0.35418588	0.52512157	0.09220518	0.5898976	0.32393935	-0.5214632	-0.13522106	0.2617339	0.17062345	0.94306993	-0.83091843	0.42828834	0.24095756	0.06553021	-1.285234	-0.78159463	0.34931728	0.09261201	-0.08875405	-0.37936813	0.18548632	-0.15589085	0.1528458	-0.17549336	0.6346545	0.651391	-0.2584224	0.34091064	-0.12599441	0.12910146	0.5376575	0.8481958	0.8004745	-0.36205173	-0.36965436	0.17720804	-0.0071911886	0.33787185	0.057971075	0.22153908	-0.25563252	0.061013453	0.32771307	-0.030633524	0.3159437	-0.4049533	0.059431296	0.50269186	-0.2853526	-0.016477495	-0.5730792	-0.7599468	-1.417631	1.0449576	0.25278956	-0.15344906	-0.32996705	-0.5122635	-0.24539578	0.18152943	0.041593574	-0.12713948	-0.4107671	-1.2741272	0.20709935	-0.24239469	0.7258334	-0.09903973	-0.5970515	-0.7014763	-0.5341357	-0.33614194	0.6290438	0.13720831	-0.87033045	0.41090047	-0.24394357	0.35231015	-0.76418763	-0.13651969	-0.06992757	0.37210023	0.6422454	-0.51260966	-0.4511841	0.061281234	-0.3650773	-0.17321438	-0.11842382	1.0343244	-0.37271997	-0.47137207	0.18863477	0.69619316	-0.3735186	0.462013	-0.31906554	-0.44807696	0.09756952	0.81530595	-0.11170861	-0.78667086	0.75523627	-0.19786061	-0.0381867	0.37745506	0.24476954	0.069304615	0.3289445	0.21741125	0.016254619	0.035685197	-0.89977914	-0.069253474	-0.8808107	-0.7304891	0.50509065	0.06894417	0.54502773	-0.0075348914	0.1755102	-0.48507947	0.2619372	0.23544312	-1.0806531	-0.4559303	0.94124156	-0.07028018	0.094341114	-0.35499573	-0.4783774	0.1052796	0.28411916	-0.27717558	0.1909167	-0.78489846	-0.22390956	-0.07029356
G001636615	0.6564433	0.064476	-0.5410956	0.32272595	0.4898681	-1.0307049	-0.5240121	0.42140263	0.66040355	1.2377744	1.0264099	0.13969025	0.38619864	0.067402035	0.55909556	-0.4831198	-0.079423726	-0.03960684	-0.18776935	0.38302475	-0.65377265	0.24157272	-0.4057298	0.1391676	-0.06684018	0.49772975	-0.78774685	0.5964156	0.276944	0.08867109	0.08639738	-0.6919558	-0.16198792	-0.3482472	0.55472475	0.37677372	0.025598291	-0.37892136	0.082270235	0.15130824	-0.03598041	-0.1876094	0.026701957	-0.02763842	0.684582	0.12909107	0.09123698	-0.43184403	-0.31845108	0.35625046	0.27095637	0.24777752	-0.6449128	-0.11212303	-0.6927911	-0.3557198	-0.26405388	0.2156013	0.36436513	0.33806288	0.36241174	-0.07547331	0.309231	-0.09638688	0.3975181	-0.23462729	0.101007715	1.1042401	0.43486863	-0.48452818	0.50053227	-0.6283833	-0.07373865	0.35471827	0.20119451	0.48567304	-0.8311194	-0.26123843	-0.40379664	-0.46617708	0.52145815	0.06327557	1.1193874	-0.5908308	-0.5987372	0.31852907	0.28064454	-0.5541939	0.32500222	-0.22378819	0.67286843	-0.15256198	0.29666322	-0.30512375	-0.36840093	0.055769004	-0.39925802	0.583259	-0.80886126	-0.31642738	-0.58406013	0.97288275	0.10837384	0.5322166	-0.21602459	0.14651325	-0.27145496	0.31052232	-0.6000633	0.6924843	-0.5898821	0.36517757	-0.09762783	-0.37314427	-0.50215995	-0.9534053	-0.15167673	0.05171548	0.10659072	-0.14600058	-0.6170366	-0.06477012	0.34973282	0.019346207	0.57631135	0.15289621	0.5032821	-0.25177398	0.68987226	0.017661229	0.21544126	0.07310483	-0.8145069	0.7137269	0.281306	-0.63030505	-0.13500461	-0.034531623	-0.2974124	-0.24852037	0.4976065	0.37775773	-0.71063733	0.53520584	0.67353976	-0.27966067	-0.01646471	0.57604957	0.6269156	-0.059651434	-0.5020628	0.1381442	-0.2323612	0.72355366	-0.047106966	1.0178285	-0.46475294	0.09440737	0.20457342	0.28111458	0.36178398	-0.56231284	0.051447213	0.1605767	0.49084213	0.032881126	0.0056367517	-0.6612154	0.1196571	-0.3121836	-0.54371035	-0.26877433	-0.29996642	-0.3050109	0.41226208	0.1276766	1.473829	-0.80059004	0.7895945	-0.61850786	-0.010173649	-0.30861074	-0.9951128	-0.07705812	1.0741097	0.07908949	0.4688967	-0.32358417	0.25384736	-1.0703638	-0.84561366	0.1154128	-0.12178971	0.052102707	-0.45148423	-0.88904727	-0.45300668	0.5940915	0.46171847	-0.026283324	-0.14749554	0.19579394	0.67017794	1.101447	0.3483672	0.028118305	0.32770473	-0.049263388	0.6258185	-1.0139306	-0.055334155	0.27084813	-0.3189838	0.29860103	-0.19060436	0.05071482	-1.0343021	0.2810083	-0.4531136	-0.1077762	-0.2803592	-0.13108772	-0.10701242	-0.2580899	0.59751564	-0.27202258	0.44004202	0.46482676	0.3906451	0.3348332	-0.0509995	0.62257165	0.0015155971	0.60769904	0.66418	0.37591255	-0.34219766	-0.57762223	1.2715158	-0.01310654	0.30336165	-0.032228738	0.43780375	-0.1945406	0.5045748	-0.106480256	0.040861428	0.16848613	-0.09183644	-0.22627512	-0.05778262	0.196197	-0.14412297	-1.076659	0.054865927	0.38390112	-0.7535952	-0.44823018	0.55820745	0.4872148	-0.23717779	-0.9159181	-0.8568926	-0.453111	0.64083815	-0.29635462	-0.9225151	-0.7109166	0.11214239	-0.58520544	-0.33871838	-0.32277036	-0.59187424	-0.0031770542	0.053201716	0.026804432	0.4451716	0.75750726	-0.1272609	0.60351074	-0.5481722	-0.19129881	0.11729035	-0.8785886	-0.18170623	0.13106431	0.2859848	0.7202205	0.32424885	-0.12891334	0.5467559	-0.35576588	-0.358149	-0.21203671	0.19458786	-0.031667426	0.18583676	-0.59871197	-0.10356459	0.75869554	-0.3959669	-0.41148615	-0.18289849	0.1671174	0.27235204	0.12296581	-1.0438119	0.55337834	0.67644024	0.48292688	-0.4517616	-0.16495773	0.74454826	0.14625397	0.2243002	0.6924404	-0.5769828	0.24313384	-0.5779326	-0.25551265	-0.56940424	-0.62172365	-0.68062747	-0.058419645	-0.20900173	-0.26782492	0.06409958	-0.7861273	0.09955451	-1.14486	0.6542333	-0.20598316	-0.24228267	-0.7498201	0.16862187	0.6492018	0.12272525	0.1258068	0.40732718	0.90724516	-0.31142354	-0.20929098	0.22222136	0.26154017	0.3243991	-0.38217175	-0.07816389	-0.20767789	0.25585413	0.8530798	-0.3875929	0.5390197	-0.64766645	-0.032331824	0.03972631	-1.0339737	0.9566556	-0.07092349	0.35493323	-0.12565187	-0.65105164	0.08355217	0.48086303	0.34975642	0.9733416	1.22999	0.7451701	0.76164937	-0.24790192	0.28204286	0.7633885	0.049586892	0.23062527	-0.13731152	0.21004374	-1.0779	-0.20779307	0.22093382	-0.12243557	-0.44910365	-0.20099816	-0.37013692	0.0409645	0.073511675	1.4466527	0.29593697	-0.46893734	0.9324752	0.12416431	-0.6862706	-0.11719495	0.7766195	-0.46340597	-0.25730747	0.49616623	0.12460892	0.0514884	0.8154725	-0.06854765	-0.26741928	0.4959436	0.20228352	-0.17166975	1.1913856	0.7701582	-0.15694353	-0.55069554	-0.018278338	0.23137988	-0.3462742	0.53228134	-0.05161944	0.37823772	0.7456787	-0.097807854	-0.09929484	0.87819874	-0.38393325	0.49942452	0.26086825	0.4668287	-0.035163134	-0.050000064	-0.28808993	0.12813032	0.27678624	-0.2701828	-0.8704302	-0.037858456	0.7371041	-1.0398594	-0.50472635	0.6199348	0.019256383	0.64995354	-0.6089435	0.022079915	-0.13874945	0.252462	0.0519104	-0.11562415	0.2940278	-0.08305547	0.028722793	-0.15398	-0.7087853	-0.2801097	0.016660005	0.67586637	0.8225946	-0.057911143	-0.073537484	1.3212265	0.46146047	-0.37026694	-1.3337939	-0.16745707	0.29714894	0.5551961	0.12762439	-0.41767085	0.7728092	-0.052002728	-0.34619266	-0.17137325	-0.26133737	0.25782162	-0.109499454	0.13121077	0.016823485	0.02354066	-0.8095416	0.2702422	0.54141235	-0.09172523	-0.2596281	-0.36253205	-0.09297463	-0.46945155	0.48485678	-0.47068983	-0.16994852	-0.53198445	-0.22989278	0.35883635	0.26202863	0.31398773	-0.18355519	0.09826803	0.83860016	-1.2459085	-0.09636275	-0.23985055	-0.0868903	-0.3626438	0.4129349	0.4712212	0.6032793	-0.24210206	-0.40053433	0.2992994	-0.073349625	0.23992085	0.35021025	-0.5114616	-0.097512156	-0.100856096	0.0057599843	-0.3926939	-0.015379101	-0.16044535	-0.67157626	-0.51779014	0.87264526	0.51586485	-0.11936875	-0.016484722	0.036637187	-0.17026913	-0.95829594	0.683064	0.8262838	0.87398916	-0.91463053	-0.16742218	0.16444105	-0.5693761	-0.073731616	0.2332219	0.10853361	-0.25626338	0.40190324	-0.059862666	-0.07244867	-0.44370067	0.4407339	-0.2758635	-0.26834214	-0.4199785	0.07268715	0.31517547	0.94088	0.041606054	-0.45565936	0.3996609	0.5751964	0.24676499	-0.32266816	-0.70943564	0.32622632	-0.24304765	-0.404193	-0.41270715	0.21318734	-0.8091277	0.5008191	0.19105484	0.31255308	0.7533779	0.120966166	-0.12940829	0.30551296	0.11013013	0.2843722	-0.080922246	0.32235587	-0.20816654	-0.4956819	0.060808435	-0.45549247	-0.41556606	0.20157216	0.07030535	0.12326154	0.031196192	-0.30662066	0.14318472	0.5041224	-0.39394855	-0.28717285	-0.15113549	0.15158333	-0.30482382	-0.30720836	0.4969461	-0.2313713	-0.5471881	-0.015874371	0.46436954	-0.20800573	0.5007515	0.035170823	-0.13855231	-0.85304123	-0.55376196	-1.286582	0.7327318	0.029691368	-0.09728789	0.49713564	-0.6650625	0.2430851	0.1296655	0.33850384	0.39209074	-0.095574826	0.15928005	-0.30081648	-0.0780012	-0.35676414	0.26664186	-0.9205715	-0.057547346	-0.4541965	0.23628205	-0.1876976	-0.15861526	0.3027478	0.50691843	-0.792204	0.39355102	0.95177424	0.6784112	0.42783296	-0.0010254383	-0.041079253	-0.47066468	-0.062488317	0.46361828	-0.4354343	-0.24577042	0.38607797	0.28402248	-0.22539723	0.81024736	0.1889236	0.34913492	-0.6199622	0.0116429925	0.50620556	-0.26384673	0.16114041	-0.53805023	0.18331558	-0.0471298	-0.09658611	0.1259459	0.6113372	-0.21325374	-0.1342737	0.6200364	0.9709035	-0.19915187	-0.28416014	0.16131112	-0.327562	-0.28214222	-0.84311616	0.39516965	0.47304118	-0.68425834	-0.6141875	0.33830667	-1.0708466	-0.8037643	-0.0468601	-0.20505923	-0.48288432	-0.9463618	-0.7362015	0.21764496	-0.42294797	0.46869558	0.17125362	0.30395293	-0.14968553	0.15517253	0.19475375	0.37969327	0.29281002	-0.65081954	0.7280894	-0.25307015	0.013732567	-0.08767827	-0.65188193	0.2195718	0.21186621	0.61593413	-0.42824972	0.43217728	0.40196523	-0.122698486	0.67840743	0.076970324	-0.4608518	0.41769478	-0.77019256	-0.68044424	0.031595826	0.73067206	0.2884335	0.5571043	-0.5658808	0.7703477	-0.2657282	-0.09954189	-0.40995124	0.41915953	-0.08893205	0.4349376	0.10291031	0.9041485	0.67842466	0.22361498	-0.5395845	-0.23947987	-0.20706694	-0.70199376	-0.15473449	0.514021	-0.20143504	-0.17838603	0.6476221	0.5314517	-0.27101403	0.35585517	0.9041488	-0.69058377	0.05078178	-0.5059185	-0.014567256	0.04343927	0.023096666	-0.009170018	-0.58474773	0.15650868	0.52393985	0.33916825	0.21840346	0.20053056	0.1471716	0.20991218	0.16236074	-0.4207837	-0.87666005	-0.06473729	-0.40507	0.38808692	0.8479693	0.27061668	0.09415464	0.7754223	-0.114171386	0.20441583	-0.19024627	0.0128439665	0.041243494	-0.5674722	0.5920861	0.6379254	-0.13048787	1.0816239	-0.28279692	-0.26826143	0.16840988	0.78555095	-0.028736062	0.02795294	0.77104867	-0.07311042	-0.043838162	0.46588635	-0.46871683	-0.7058062	-0.6874455	0.011139005	-0.37479305	-0.22068402	-0.17098612	-0.39496902	-0.3475048	-0.013259947	-0.12987998	0.17846248	-0.16885015	-0.31224027	0.15478538	-0.5301516	-0.43619055	-0.38252863	-0.7270138	-0.38136417	0.4896203	1.094488	0.6332645	0.27477318	-1.0594866	0.04038301	-0.13347337	0.8451131	0.8237129	-0.0124785565	0.26307267	0.004503906	-0.39826944	-0.07454175	-0.24432914	-0.1811574	-1.1282779	-0.5212858	-0.044606403	0.8920959	0.5185869	0.5881671	-0.13463709	-0.4497031	-0.33100027	0.09866297	-0.2666219	-0.045125782	0.13168892	0.9246813	-0.29249698	-0.23830712	-0.5579518	0.2214486	0.05413337	0.21065408	0.012700751	0.50304586	0.042734027	0.16619109	-0.6296319	-0.010083824	-0.20165463	0.5918779	-0.8109577	-1.2399913	0.38554072	-0.033590518	0.112737395	-0.6042055	-0.022386715	0.044839922	-0.3541791	-0.65517163	0.91047174	0.11560196	-0.2539581	-0.36902472	0.244796	0.065110624	-0.91809314	0.9447702	-0.25196066	-0.89030415	0.020547189	0.18863727	0.4886212	-0.26161036	0.27649412	-0.21394785	0.030266978	-0.65125895	-0.5401823	-1.0790006	-0.27121598	-1.2109628	-0.1379486	0.32529342	-0.6409373	-0.66596884	0.45610118	0.51010317	-0.3490347	-0.26539057	-0.17828728	0.6818177	-0.056934312	0.59020394	-0.46313503	0.9079617	0.19232315	-0.5624759	-0.20399347	-0.4257217	0.39349923	0.14754565	0.5289022	0.3288648	-0.50840175	-0.20305157	0.2645504	0.10774398	0.98341125	-0.6600762	0.3110458	0.13442175	0.036388807	-0.962533	-0.81574893	0.41276532	0.1687437	-0.016913682	-0.20035559	0.18363681	0.005189419	0.19646089	-0.24472265	0.7128499	0.6150361	-0.18465754	0.29346675	-0.20485345	0.025671884	0.4812534	0.80844724	0.9618666	-0.17453495	-0.308224	0.23470306	-0.21412578	0.4795725	-0.0016895682	0.37153703	-0.12809452	0.13585022	0.3581887	0.2906891	0.23716971	-0.16183497	0.037034027	0.63027525	-0.32336098	-0.26883948	-0.5785722	-0.8837198	-1.2452905	1.0058427	0.3748474	-0.17167337	-0.07206237	-0.23780648	-0.15764704	0.009895816	0.061125353	-0.19082963	-0.58456266	-1.2763162	0.2954593	-0.20145175	0.72631305	-0.060146548	-0.5556389	-0.45714092	-0.4225436	-0.23751323	0.5235492	0.19684443	-0.8145052	-0.1763893	-0.299272	0.4778599	-0.91912776	-0.12502879	-0.14105755	0.43472058	0.71402633	-0.54202163	-0.14820471	0.07954821	-0.2959957	-0.29749936	-0.25883043	0.74380356	-0.2555003	-0.72296894	0.2786095	0.5489135	-0.23245141	0.5922388	-0.3733416	-0.275065	-0.09311707	0.67971236	-0.23670566	-0.7440737	0.58425254	-0.10708922	-0.12682202	0.1294015	0.3124157	0.0069023073	0.45891494	0.05779481	0.098461166	-0.021482319	-0.7119746	-0.14001954	-0.9821168	-0.9237651	0.5033268	0.09772538	0.4435523	0.041492328	0.14765051	-0.67560804	0.13026273	0.16469038	-1.0245073	-0.11626175	0.9245734	0.027264997	-0.20671251	-0.48483345	-0.4085765	0.23322272	0.42837662	-0.23440576	0.3310882	-0.66064334	-0.4920876	0.003430456
