G001824635	0.5389781	-0.5873823	-0.65107644	-0.5962032	0.54975593	-0.44050604	-0.38605684	-0.7153164	0.16626331	0.6849388	-0.3918738	0.08231293	-0.12113375	-0.0022990853	0.8417562	0.71561396	-0.60744506	-0.4308282	-0.35671574	0.26430017	-0.15272942	-0.40949377	-0.5111449	0.35682487	-0.010539725	-0.4778679	0.5864309	-0.42303598	-1.0589925	0.16114658	0.37634325	0.33053073	-0.16181871	0.29238144	-0.04159625	-0.36087394	-0.6255775	-0.20487863	-0.017256707	0.052071385	0.7319469	-0.09553152	-0.2615242	-0.62124795	0.13440546	-0.14606608	0.42662492	-0.23840311	0.30720067	-0.22717673	0.30134982	-0.436422	0.7512734	-0.03974221	-0.48591465	-0.016612515	0.30815732	-0.3468396	-0.5971852	-0.4126584	0.5260827	-0.28414556	0.25398284	0.29226747	0.2796066	-0.94378984	0.31709528	0.18026155	0.35975048	0.5608495	-0.09315975	-0.44522923	0.21506497	-0.95359993	-0.35694534	-0.45765263	0.9174702	0.47306636	0.35806876	0.24624795	0.562649	-0.12058569	0.5639611	0.054266244	-0.8027199	0.20034137	-0.5596168	-0.2703423	-0.33363885	-0.2594126	-0.16237205	0.047730178	-0.031060398	0.022119373	0.032553345	-0.092655905	-0.28067076	0.077364236	-0.25174752	0.4384856	-0.4577449	0.5817292	0.1405373	0.023385093	0.65493363	-0.20699702	-0.24185686	-0.25029254	0.36509904	-0.2892056	-0.44568276	0.8155063	-0.4523377	-0.025294214	-0.37521026	-0.08760825	0.15631643	-0.23798749	-0.6441932	-0.90881807	-0.50113255	-0.27006763	0.0015974641	0.49442172	-0.15236445	0.5158367	0.30828732	-0.5896762	-0.13077597	0.30715817	-0.028850935	-0.1321623	-0.02124101	1.0093757	-0.732758	-0.12864055	0.439161	-0.6357006	0.12750131	0.20247748	0.70719916	0.4175476	0.048432335	-0.5960973	0.78119177	0.7516613	0.16426787	-0.280618	-0.28109658	0.23825262	0.22792748	0.42515227	-0.2285423	-0.023545133	-0.08848363	-0.45489746	-0.40991828	0.16706829	-0.77902097	0.04897529	-0.35711837	0.48540342	0.84435767	0.3579889	0.17275786	0.16719621	0.5674027	-0.15090701	0.088994175	-0.06640288	0.022492796	-0.26302326	-0.16683052	0.3333556	0.29133743	-0.25977975	0.16612473	-0.3027659	-0.17881712	0.49785143	0.2601531	0.07787563	-0.17995083	-0.116561875	0.1358687	1.0347993	0.31949678	-0.11020444	0.22927651	-0.41850778	0.10542986	-0.36740702	0.3950137	-0.4387105	-0.69499296	-0.23596457	0.0045084953	-0.16620977	-0.6253431	-0.07950373	0.6642428	-0.10990985	0.6600918	0.21727772	-0.21723342	0.79098153	0.08341342	-0.08064854	-0.4473054	-0.16430266	0.025355875	-0.5317728	0.2555734	0.18489803	-0.65347123	-0.4618227	0.2069957	0.058989182	-0.84219265	-0.029637054	-0.3733241	-0.33096057	0.3520745	0.11408377	-0.6385914	-0.8861767	0.29630473	-0.33538532	-0.034589797	-0.31290993	0.4568982	0.41248208	0.66020006	0.44208136	-0.08279304	0.25466156	0.66955507	-0.53778416	-0.2260472	0.3669696	0.03349676	0.11452328	-0.63636804	0.053165883	0.6196077	-0.054882586	-0.90540844	0.6817622	0.12310876	0.29301068	0.14271063	0.34385988	0.42211962	-0.10439581	0.069915414	-0.23228583	-0.5975797	0.6171808	0.14809698	-0.16910064	-0.4743867	0.06336666	0.05673142	-0.22893158	-0.1470665	0.46111545	-0.59336627	-0.4154687	-0.114433646	-0.4252507	0.4269613	0.7501118	-0.24023844	-0.40027398	0.08906229	0.270322	0.6450774	0.57453287	-0.38988677	-1.0290604	0.12765716	0.14898294	0.43926173	-0.32396227	0.5217994	-0.54581064	-0.11811644	-0.25516593	0.6609199	-0.18376392	-0.20576675	-0.12300367	0.5492659	0.5418621	0.26554853	0.10140723	-0.4227801	-0.0039059892	0.43766156	0.29376853	-0.4265358	-0.09232199	-0.15327628	0.20463926	0.9674072	0.23315272	-0.3058942	0.94559973	0.40658668	-0.08888048	-0.5936887	-0.0004351735	0.17842421	0.64503646	0.029803291	-0.018718377	0.028205574	-0.69655895	-0.028257988	-0.10601999	0.038269415	-0.26569378	-0.07470271	-0.49133825	-0.017913938	-0.54708445	0.32292542	-0.19180308	0.2558447	0.026315212	0.27712607	0.31920487	-0.43348747	-0.06469565	0.028460115	0.4279847	0.29048458	-0.61917496	-0.31125307	0.3938432	0.07109656	0.23287609	-0.16435614	0.04230027	-0.2259807	-0.8758395	-0.39478552	0.27328724	-0.12363748	0.06464909	-0.51771516	-1.0764167	0.57847965	0.13176417	-0.1797752	0.66127205	1.0020115	0.10212481	-0.6884968	-0.0417123	-0.066696025	0.107910395	-0.1553925	0.019444078	0.60446787	-0.38883173	-0.084876664	0.81029207	-2.3782253e-05	-0.27780548	-0.45719427	0.4565122	-0.66745454	0.26608658	-0.27492127	-0.21968645	0.56703204	-0.52065533	0.20738226	0.54399896	0.58780503	0.71655726	0.007713765	-0.11809865	-0.30945525	0.3020743	-0.60277563	0.36760667	-0.43948042	-0.55865073	-0.5784608	-0.2524901	-0.12974817	-0.03815779	-0.14445694	0.41845697	0.14023356	-0.07010198	0.368757	-0.59247553	0.3654328	-0.4228353	-0.1252408	0.40805307	-0.24557576	0.5833936	0.71281445	-0.7332827	-0.21513653	0.10524455	-0.28011513	0.13882124	0.009878978	0.05202826	0.3892512	0.047484994	0.72290504	-0.4453531	-0.2160225	-0.32499385	-0.7535355	0.8186669	-0.10090865	-0.03647262	-0.2809335	0.036226913	0.2778107	-0.24330275	0.2032644	0.22195947	0.9208533	0.26905537	0.17975128	-0.37154967	0.018509425	-0.14950648	0.09574477	-0.004116997	0.21124339	-0.25118217	0.4457488	0.122087985	-0.2299886	0.8243939	0.23295291	0.04426956	-0.5047739	0.40920353	-0.88659316	0.0052132383	-0.040285125	0.33053526	0.37649852	0.6323711	-0.03929224	0.39951634	0.6501645	-0.7048223	0.014163077	-0.5237777	-0.3215654	-0.19570765	-0.07052737	-0.5189005	-0.9093876	0.07406795	-0.20190081	-0.28332514	0.27534604	0.5847959	0.60995317	-0.25985208	-0.11533742	0.5436752	0.22656801	0.044927284	-0.068470016	-0.32737225	-0.12701526	-0.031081907	0.037309945	0.1971004	-0.1987541	-0.3947614	0.22780749	-0.0758343	-0.3528989	-0.30328953	0.5287831	-0.24056321	-0.5779669	0.17629257	-0.44929433	0.54587996	0.62301	0.044468805	-0.05276692	0.19657642	0.19721974	0.28705853	0.304321	-0.46497962	-0.79009914	-0.5457946	-0.21117045	0.22984295	0.0576419	0.087711506	0.23011012	-0.09946886	0.23868638	0.18215016	0.8226039	0.17154182	-0.86902255	-0.13259694	-0.5467262	-0.15314303	-0.30558473	0.35614845	0.35309094	0.30759084	-0.61163545	0.097590014	-0.30363274	-0.15221377	0.6035805	0.20953594	0.03617578	-0.1980592	0.015070483	-0.4072161	0.049563505	-0.3167622	0.023525529	0.19726792	0.6806445	0.7247189	-0.03229607	-0.123551786	0.38033906	-0.24105175	0.19140276	-0.20066905	0.5598691	0.88420475	-0.07318033	0.11561017	0.2220816	-0.27785072	-0.76301676	0.38325992	0.14017683	-0.36138308	-0.47936946	0.56151867	-0.3972816	-0.47873503	0.3921878	-0.2680828	0.7913023	-1.1150596	-0.39688283	-0.40331504	0.013549164	0.56895095	0.30447114	-0.024617463	0.14569622	0.54261315	-0.09488589	-0.029707	-0.46734154	-0.490046	0.5182501	-0.05583465	-0.9477194	-0.77701926	0.092805065	-0.37174046	0.12642813	-0.060308725	0.031740442	0.49093914	0.027929299	-0.057202578	-0.37248707	-0.34211922	-0.49587184	-0.15907402	-0.20678642	-0.09057044	0.15377623	0.18481812	-0.17520407	-0.24589837	-0.3598749	-0.013918385	0.13392836	0.22373562	0.16468024	0.17414957	0.47769445	-0.23207556	-0.98866713	0.29050028	-0.08252302	-0.46380186	-0.21046883	0.1647563	-0.17334937	-0.49667796	-0.4646852	0.07055104	0.13648322	-0.6479173	-0.5757649	-0.31337628	-0.056290343	-0.045007065	-0.811175	-0.10492867	0.5484334	-0.5102223	-0.16446762	-0.30885172	-0.32801202	-0.057439	0.19070394	-0.13962463	-0.2823342	0.17600448	0.225318	0.12904154	0.3995167	0.5406662	0.13641883	0.1025817	-0.52191454	0.059769064	0.2907457	-0.084273726	0.6731843	-0.19338948	-0.1962384	-0.6065507	0.5647262	-0.6260425	0.046149522	-0.5950347	-0.49487007	-0.24584898	0.6153339	-0.20854285	-0.68662584	0.68037736	0.61236715	0.028473258	-0.07480219	0.43792537	0.59923124	-0.17628036	0.20386526	0.49353045	0.20328534	0.2682349	0.109159574	0.88994074	-0.71389186	0.59544486	0.43907088	0.46452639	-0.72111905	-0.2957218	0.20906334	-0.03136754	0.083125874	0.48124325	0.5879585	0.6738243	-0.11044125	0.6007163	0.11491798	0.14839917	0.28904015	0.07259307	0.67234343	0.23969904	0.17261228	-0.27230406	0.14400361	-0.11104869	0.06920338	0.16037369	0.07452519	0.6827203	0.47677618	-0.5070994	-0.32098687	0.6362438	-0.054771602	-0.8983338	-0.68443465	-0.62317145	0.07660832	0.66025704	0.58166975	0.9370846	-0.29089093	-0.88999677	-0.18655056	0.18661408	-0.1998938	0.3030508	-0.026017576	-0.19671518	-0.5436518	0.06323679	0.12766302	-0.15423703	0.39273208	0.45493555	-0.01503174	-0.54604876	0.47551525	-0.33291486	0.97555566	0.45251736	0.17128788	-0.4602814	-0.10777196	0.22539942	0.0038792193	-0.43908748	0.62219495	0.05675879	0.11612399	0.123655505	0.23635271	0.05393868	0.07310939	-0.5316163	0.47100732	0.16679677	-0.4154933	0.12478411	0.6728878	0.21005228	0.5559885	0.25508827	-0.29512453	0.13773471	0.12066239	0.9174111	0.41274405	0.081823945	-1.0012308	-0.18188328	-0.38936958	0.4904044	-0.7128186	-0.2447256	-0.28306687	0.037821308	-0.24082665	-0.32379684	0.10900569	0.08406211	0.12851097	0.6568942	0.12599172	-0.21023607	-0.17597379	-0.31136724	0.037973046	-0.10785574	0.28234023	-0.0777017	-0.055394948	0.16297397	-0.59767085	-0.16053154	-1.0142239	0.17971237	0.012923181	-0.17009242	0.44815642	0.10482071	-0.40688542	0.018475622	-0.35619843	0.4736194	-0.42455184	-0.8399063	0.13356721	0.19708955	0.2128174	0.77450895	0.32432818	-0.6195115	-0.1385209	-0.12390169	-0.5997797	0.5310441	0.3311528	0.26769444	-0.5166165	-0.4771983	0.009070996	0.34973305	-0.30200064	0.46596292	0.29924214	-0.8360834	0.6529815	-0.6364177	-0.4695208	-0.25673172	0.4163885	-0.14505717	-0.730145	0.37083465	0.4170851	0.8239598	-0.1965582	-0.40800056	0.4732262	-0.14909665	0.71398425	0.070708275	0.71744615	-0.57407016	-0.38183093	0.7614847	0.34275794	0.5367491	-0.11881183	-0.22327471	-0.2607788	0.008047249	0.14194731	-0.035292342	0.02177015	-0.15076718	-0.081873186	0.27127963	1.0777785	-0.4769042	0.001596095	0.22312953	0.26311034	0.5432558	0.16459921	-0.86732304	0.06604859	0.27534792	0.3095043	-0.6669656	0.093470335	0.38655198	-0.119987205	0.31416464	0.08145766	-0.40433675	-0.17138363	0.1473659	-0.24479064	0.0123331845	-0.37049195	0.47036088	-0.03649452	-0.38473654	0.32576716	-0.024906479	0.08829963	-0.11416726	-0.33729714	0.1974532	-0.1332341	0.18240196	0.25220656	0.64475	0.5991724	0.34737825	0.48978412	-1.127982	-0.23146732	-0.19367634	0.004396841	-0.31345925	0.14948432	-0.40281576	0.17530811	-0.1162389	-0.3189813	0.08487615	0.39769197	0.4020826	0.13923982	0.35960215	0.23570347	-0.4570697	0.4253097	0.15820903	0.34412012	-0.88416874	-0.8119849	0.19555232	-0.44054118	-0.37120503	-0.25607085	0.5194687	-0.110625446	-0.2087697	0.013582289	-0.33456874	-0.32972613	0.33936968	0.82189065	0.34085107	0.1914844	0.08417702	-0.50046283	-0.45477426	-0.856409	0.44312704	0.2602473	-0.13182019	-1.0987679	0.031429738	0.104538605	-0.58373463	0.032095633	0.54187304	-0.8757379	0.44445348	-0.24806237	-0.09466182	0.40422434	0.80325985	-0.085009634	-0.10669267	-0.21077617	-0.3040862	0.5005953	0.22606641	-0.63825274	-0.14868146	0.33895415	0.095401764	0.17256986	0.42716286	0.03144477	0.063906446	0.08603564	0.10957221	0.12889093	-0.5453113	-1.120022	-0.31237525	0.09152195	-0.008943399	0.7091139	0.52170706	1.0338925	-0.6616979	0.10411328	0.23690937	-0.46080768	-0.018137634	0.45414472	0.7165234	-0.56965953	0.22338536	0.8196231	0.03967148	0.5478141	-0.5366843	-0.42347074	0.29990843	0.35621786	-0.19510123	0.020255432	0.52733195	-0.1934515	0.27808282	-0.5333646	-0.28627002	-0.1758228	-0.258079	0.6515619	0.86546624	0.34764293	-0.07746122	0.08126551	0.3527317	0.1637041	0.24448809	0.05748436	-0.02282679	0.25935778	0.42680418	-0.06611912	0.5055757	0.54150707	-0.07117456	-0.07130939	-0.68802154	-0.038368776	0.046021573	0.32558066	-0.24513489	-0.42265332	0.29161525	0.3937267	-0.1018129	0.2442134	0.14745173	-0.60452574	0.039171845	0.05264765	-0.029472917	-0.15624529	0.09200769
G001778315	0.21758595	-0.6073438	-0.47791725	-0.5980887	0.762202	-0.49111244	-0.11404905	-1.0070703	-0.10628698	0.52966833	0.057670638	0.41694	-0.11707727	-0.007913671	0.45520127	0.5197088	-0.38911086	-0.46076873	0.30694214	0.285499	-0.07676469	-0.23349972	0.326834	0.73430794	-0.0056312084	-0.512112	0.33076048	0.18141887	-1.0354333	0.18099415	0.68856734	0.37705278	-0.58516824	0.04591933	-0.13148624	-0.38736373	-0.3217735	0.16778734	-0.47108194	-0.18716131	1.3208435	0.27937606	0.0045576245	-0.49064896	0.7194622	-0.45983297	0.20089321	-0.6238451	0.6630119	-0.7114081	0.1112013	-0.23313303	0.8758745	-0.14749989	0.028806161	-0.38320267	0.21137846	-0.5156174	-0.39651543	-0.16894591	0.48610657	-0.14252557	0.01013051	-0.30104133	0.5803335	-0.50254333	0.056603253	-0.31009868	-0.16361013	1.0619605	-0.5626824	-0.42590708	-0.11110145	-0.74928766	-0.31537488	-0.5789194	0.9886102	0.5629736	0.109419085	0.22674103	0.29099327	0.14462018	0.77366203	0.064226	-1.2850626	-0.22412582	-0.6848898	-0.78535974	-0.5049139	0.15179425	0.0018994063	0.44995138	0.43478072	-0.2862304	0.35135174	-0.29608548	0.55388	0.3533352	0.2942176	-0.0677367	-0.08107576	0.53684765	0.70724237	0.34260392	0.38539347	-0.38802093	0.12018418	-0.71309865	0.28784814	-0.035897456	-0.37847617	0.8537227	0.004412234	-0.09049493	-0.68162346	0.10811788	-0.15671761	-0.9704606	-0.35401577	-0.7286375	-0.2995463	-0.5789871	-0.2535782	1.0707263	-0.6299352	0.44614	-0.003565617	-0.5565983	0.086826384	0.25764635	-0.08909404	-0.24470738	-0.56636894	0.84036934	-0.06073889	-0.4882834	0.5045382	-0.9183712	-0.30625507	0.50330526	0.61870897	1.0019712	-0.2742014	-0.5086991	0.19085824	0.5449371	0.073754385	-0.6877994	-0.01742075	0.008828148	0.081554174	0.28928673	0.016228586	-0.050029986	0.10961884	-0.42420292	0.06125006	-0.36460376	-0.7045385	-0.0241732	0.048313648	0.84418964	0.5486107	0.6472832	0.25960025	0.64816135	-0.038174085	-0.13909125	-0.08160724	0.36024192	-0.34033513	-0.20997363	0.20380743	0.107480824	0.18726446	-0.2738631	-0.17245919	0.20275018	0.4160368	0.42626163	0.65126234	0.10585159	0.42500317	0.087225586	0.026110161	1.2350843	0.3518456	-0.18627718	0.17361128	-0.5439614	0.59801465	0.24359371	0.29960936	-0.59289515	-0.50465256	-0.12812814	0.38043174	-0.020137519	-0.98032176	0.12213224	0.8883139	0.43551314	0.6905655	-0.05722326	-0.0028995275	0.43489137	0.17961827	-0.45704913	-0.24761203	0.21908478	-0.021751314	-0.6628127	0.77420825	0.5355696	-0.5793095	-0.080630146	-0.06330761	-0.11181681	-0.9357281	-0.113278	-0.9222972	-0.84275305	0.28517342	0.25956503	-0.4416589	-0.7535222	0.60890126	-0.05371988	-0.027767628	-0.5732863	0.58638275	0.028121635	0.84318227	0.11142862	0.109255165	0.6530779	0.5844619	-0.26588774	-0.45564112	0.47806436	-0.029211476	-0.42103627	-0.7801075	0.22257468	0.8224269	0.33154774	-1.1190921	0.41054243	0.035785004	0.17499813	0.3876675	-0.2581052	0.21051627	-0.089533925	0.40342265	-0.2311461	-0.63977814	0.10059607	0.38181084	-0.5755205	-0.2535772	-0.033290092	0.6074642	0.2565927	-0.12833513	0.019657753	-0.3874615	-0.32033572	-0.38894165	-0.61693925	0.740176	0.7709271	0.05576449	-0.21824521	0.28996706	0.47323465	0.769724	0.23715754	-0.7581792	-0.84736526	0.5939902	-0.42518896	0.15578964	-0.45313984	0.5494343	-0.68861294	-0.034488022	0.044140317	0.69731045	0.2504326	0.27970266	-0.49746308	-0.13152122	0.61723053	0.43266383	0.1513806	-0.27694508	-0.5740577	0.56485903	0.25501937	-0.44780093	-0.09686753	-0.16256937	0.7059865	0.6185014	-0.13715595	-0.09338935	1.441104	0.5070693	-0.2139169	-0.71528566	0.17724907	0.23249447	-0.11492975	-0.15985006	0.14175697	-0.24090317	-0.3697409	0.084060684	0.24690466	-0.021814197	-0.440445	-0.09880248	-0.46019667	-0.16522944	-0.52102774	-0.11893129	-0.15727095	0.4108331	-0.26557374	-0.24594098	0.45057228	-0.6692621	0.07864213	-0.36825216	0.39270538	-0.12054838	-1.1469777	-0.83820105	0.10621172	0.50553447	0.7782345	-0.03647913	0.04079874	-0.6553933	-1.0268388	0.11116062	0.3309573	-0.4383099	0.044105373	-0.6584705	-0.8654982	0.36010122	0.5635398	0.5229877	0.49656668	0.8471464	-0.27169836	-0.44583043	0.00822553	-0.43742576	-0.5691571	-0.25384435	0.26713413	0.19186337	-0.3675892	-0.22740158	0.6984558	-0.4986595	-0.7888237	-0.52750295	-0.07361469	-0.5436858	0.38460338	-0.6497017	-0.5460024	1.2924032	0.024414435	0.32278493	0.3099901	0.13507079	0.25851357	-0.22134274	-0.007803738	-0.1491543	0.19288827	-0.44628757	0.020828426	-0.69084096	-0.6600697	-0.7706044	-0.37510523	-0.35729128	0.33018935	-0.39919773	0.29530883	-0.15758723	0.2617069	0.49131757	-0.5832683	0.01779735	-0.2375505	-0.2575733	0.76592255	-0.54897606	0.811833	0.8206835	-0.8575006	-0.5563859	-0.104600936	-0.31453845	0.016104147	-0.12483027	-0.5338242	-0.009871356	0.11329868	0.7369854	-0.5066333	0.21818519	-0.6119131	-0.92278886	0.642232	0.43380105	0.22627556	-0.51500255	-0.10610625	0.4959697	-0.06294282	-0.050238073	0.11072111	0.6672353	0.4834055	-0.090263724	-0.2863113	-0.19799288	-0.3238483	-0.41050282	0.6798022	0.18540655	-0.1894364	0.5629308	-0.14640969	-0.10251197	1.2035897	0.1600051	0.28056318	-0.42440724	-0.18836135	-0.629628	-0.098635785	0.22024246	0.5015087	0.108327225	0.52245796	0.5412974	-0.093546644	0.54490554	-0.88953084	-0.0632523	-0.8068458	-0.41463554	-0.34713024	-0.370636	-0.11371595	-0.6708139	-0.0559147	-0.39708364	-0.43050978	-0.025751464	0.6029868	0.0925277	-0.13280481	0.6046779	0.084803164	0.48392594	0.228293	0.06265351	-0.25428492	-0.3949537	-0.24405551	-0.092252254	0.8011728	0.24321583	-0.28154856	-0.037744224	0.19929066	0.0066566737	-0.16656092	0.6374928	-0.35566935	-0.8917007	0.63646424	-0.45190153	-0.013414606	0.596569	-0.33977634	0.21977362	0.52871674	0.81404006	0.38340604	0.06579674	-0.7034497	-1.1723195	-0.5354664	-0.33382338	0.0571144	0.27036828	-0.34949905	0.31142378	-0.21847059	-0.0478404	0.21691263	1.0990615	0.36414218	-0.37717313	0.31197143	-0.57862	0.09378652	-0.73073316	0.25736594	0.10336068	0.35160938	-0.3101838	-0.2705175	0.051202506	-0.8654174	0.81686795	0.35659656	-0.6821123	-0.07985884	0.2783891	-0.2574859	-0.31117994	-0.0904953	0.46287367	0.08866374	0.5132935	0.7439266	0.029052868	0.026444107	0.26382354	-0.21390656	0.24603802	0.043618202	0.61732477	0.86072916	0.36197492	0.26259762	0.116647854	-0.5949813	-0.43843973	0.17503196	0.8419541	-0.5935695	-0.24645501	0.57554233	0.07700833	-0.26511073	0.16725191	-0.3962105	0.4678766	-0.8563157	-0.36654013	-0.64477897	-0.0941602	0.578902	0.15966152	-0.57083774	-0.2276061	0.44109857	-0.17681438	0.051688075	-0.15667899	-0.32098624	-0.123030946	0.10838619	-0.9359026	-0.93159115	0.04187698	-0.44456527	0.27961048	0.07330642	-0.24131131	0.25679547	0.30719388	0.34939393	-0.58936965	-0.016804181	-0.49885747	0.3340723	0.1577099	-0.3740717	-0.15626843	0.118130654	-0.43662116	-0.31042844	0.07680628	0.048561662	0.0007546395	-0.28810614	0.2987251	0.49348938	0.70278084	-0.16825196	-1.1105621	0.21665859	0.28920704	-0.2989015	-0.44319537	0.4845509	0.12929177	-0.4027769	-0.23504888	0.42636478	-0.0055363104	-0.28281632	-0.3455603	0.09540935	-0.31048504	0.23357779	-0.56352454	-0.06796463	-0.15569456	-0.049164474	0.3376817	-0.34956536	-0.22668433	-0.24849287	0.3514016	0.18042485	-0.45582446	-0.11676483	-0.15376253	0.61683923	0.2743795	0.090212524	-0.012435319	-0.041339263	-0.5167099	0.23695382	0.5603734	-0.010234788	1.2305818	0.07093629	-0.15724185	-1.079253	0.97381693	-1.2648884	-0.011206701	-0.7920027	-0.4191642	-0.4301014	0.6608761	-0.31863806	-0.80195117	0.4089185	0.79071975	-0.13917631	-0.19639464	0.7887805	0.09903413	-0.6335784	-0.06247863	0.4870065	0.21808824	0.22492757	-0.26706895	1.3797942	-0.9112385	0.53959495	0.33663377	0.3393305	-0.43202394	-0.6573322	-0.10614598	0.12472245	-0.04382568	0.39756745	0.9815395	0.9181657	0.23431402	0.43343028	0.0914385	0.40178284	-0.17123917	0.44454622	0.6788762	-0.10392912	0.59504354	-0.5108926	0.46030873	-0.2807622	-0.06886773	0.4110944	0.39001334	0.4153772	-0.10844069	-0.83791727	0.29633474	0.7016754	-0.038864136	-1.0649083	-0.05462444	-0.36460963	0.5460037	0.6594653	0.78352714	1.0481669	-0.2914609	-0.8098682	0.1663979	-0.5300853	-0.13942099	1.1201122	-0.57818055	-0.0089915395	-0.13457698	-0.14321837	0.47728217	-0.24610299	0.66099393	0.3451962	0.15483026	-0.6145499	0.8265059	-0.21609041	0.85240525	0.4687426	-0.0746457	-0.18067922	0.038266487	-0.3911609	-0.5189367	0.04278147	1.0603747	0.34059697	0.06757203	-0.17428648	-0.27497488	-0.31497738	-0.24256587	-0.4702403	-0.07197073	0.68400633	-0.5026783	-0.2176279	0.53143543	-0.01025901	0.19110204	-0.05542233	-0.23970082	0.12198487	0.38266385	1.2562251	0.21159548	-0.3954207	-1.068732	-0.4377327	-1.0111768	0.8043159	-0.37584212	-0.6179322	-0.6023241	-0.15573607	-0.15112513	-0.6050623	0.34549463	0.1003606	0.40167105	0.7955185	-0.00838694	0.0027888268	-0.022202969	-0.7090626	0.11872378	0.15540087	0.14839429	-0.60392964	-0.059047364	-0.2515195	-0.8550476	-0.277601	-0.8400297	0.15459299	-0.08803868	-0.28667003	0.5654491	-0.26701632	-0.22588702	0.14909248	-0.36049944	0.20585461	-0.440601	-0.88431525	-0.23336214	-0.072525114	0.65114516	0.8847996	-0.15314078	-1.1935011	-0.20331189	0.3599047	-0.95095134	0.6436529	0.37696886	0.3913983	-0.2800746	-0.39951104	-0.23121145	0.6851202	-0.5995209	0.6480855	0.114732996	-0.5815653	0.7915763	-0.52693486	-0.86974925	-0.5878287	0.19844532	0.29713672	-0.4429472	-0.001296699	0.09424797	0.6802188	-0.7107147	-0.14268595	0.5800588	-0.4920347	0.23690611	-0.16923869	0.14672351	-0.11651604	0.18584046	0.220902	0.7196294	0.13710305	-0.4255442	-0.049550526	-0.44077083	-0.49448043	0.7322498	0.08573865	0.20820713	-0.32284158	-0.24251273	0.16086507	0.93367255	-0.6975304	0.027054816	0.082191214	0.07674378	0.49573526	0.34961465	-1.0817387	0.3234377	0.68574524	0.2186399	-0.7494073	-0.11548698	0.6694541	-0.15501684	-0.59533286	-0.04333386	-0.5484664	0.07478279	0.22626352	-0.46852213	-0.19398844	0.12429482	0.39563185	0.3043621	-0.5257185	0.26754993	-0.2077615	0.06474209	0.18669467	-0.33691168	0.3739847	-0.16183662	0.36718118	0.5159696	0.5529753	0.46015733	0.61117154	0.31387615	-1.2257882	-0.20487666	-0.6924942	-0.010800272	-0.34440655	0.04174632	0.57093143	0.23895213	0.3569428	-0.24021332	-0.26819688	0.4441192	0.15468082	0.20217684	0.1781731	0.2653273	-0.52843344	0.35301706	0.19679657	0.48977545	-0.43832058	-0.21278876	0.11343333	-0.706365	-0.15787522	0.20089778	-0.014562488	0.023885459	-0.11864296	-0.04799214	-0.63721037	-0.49490485	-0.047320597	1.1431248	0.27187768	0.2256761	-0.40119743	-0.7925044	-0.91670424	-0.2839803	0.28297085	-0.052542567	-0.2174834	-0.7530929	-0.22594146	0.29571074	-0.79257107	-0.2247417	0.043074235	-1.2352931	0.5722591	-0.37702662	0.002428174	0.265812	0.97063386	-0.35358888	-0.058843136	0.07285386	-0.4995444	0.6255163	-0.037800908	-0.24118997	0.45592228	0.13598403	0.07537666	0.19951014	1.1165185	-0.2867209	0.25996938	-0.23457065	-0.12671992	-0.031876214	-0.17637478	-0.9543189	-0.17543842	-0.15811408	-0.15270106	1.0265962	0.37180448	0.95391786	-0.7768134	0.6264445	0.34341022	-0.63371634	-0.19816393	0.51916355	0.81020087	-1.1190277	-0.20141266	0.5634616	-0.16357492	0.26956442	-0.42733902	-0.6229595	0.94678664	0.44517	-0.3146808	-0.3426456	0.36132038	-0.06609085	-0.11701533	-0.63829327	-0.39361137	0.19609673	-0.435699	1.2444147	0.4090476	0.19413164	-0.01305823	-0.01236406	0.1969474	-0.0067362934	-0.1509706	0.37710083	-0.32023048	0.1916893	0.32225484	-0.32228804	0.19081298	0.33790988	0.06595475	-0.33362597	-0.5154836	0.20759371	0.29511207	0.5806604	0.2606057	-0.8256491	0.4320069	0.017373294	-0.14492407	0.12043825	-0.17136827	-0.91371655	0.25970674	0.06371174	-0.23987329	-0.45056653	-0.017919667
G000165715	0.555858	-0.6504507	-0.20801458	-0.55236346	0.26144883	-0.32419294	-0.7858317	-0.556317	0.3134958	0.5747161	-0.4821668	-0.40073246	-0.3192646	-0.39765242	0.858652	0.86108875	-1.1036953	-0.35607666	-0.9782158	0.4327531	-0.24845946	-0.3742264	-0.8567931	-0.13363087	-0.12665889	-0.54856443	0.8705585	-0.8708543	-0.74107623	0.2891868	-0.48088163	0.40311244	-0.16282423	0.35097247	0.26975155	-0.21844661	-0.16467047	-0.46381864	0.18075678	0.31200105	0.50536805	-0.14323752	-0.6058953	-0.7363251	-0.5264765	0.2070508	0.4175923	-0.19169712	0.22981061	-0.4476959	0.94250304	-0.44415128	0.56919	0.21881166	-0.573684	0.090747535	0.4735714	-0.277856	-0.45581323	-0.15879874	0.7112386	-0.35474718	0.11258419	1.0366381	0.18967968	-0.3864084	0.3900368	0.48069698	0.6016687	0.59079236	-0.4320708	-0.646963	0.5266758	-0.8179449	0.18651852	-0.6068268	0.8381373	0.5530483	0.0025461316	0.73866355	0.48936757	0.20084438	0.47672924	0.07361007	-0.6478829	0.56723654	-0.9024261	-0.029577069	-0.155557	-0.74558556	-0.2463157	-0.23571303	-0.31329218	0.2744522	-0.90127	-0.42972183	-1.0557024	-0.72374266	-0.5293722	0.5359693	-1.1597741	1.210714	-0.11567728	0.08727719	0.73508835	-0.2113365	-0.41963544	-0.40838766	0.61558616	-0.24768431	-0.116950095	0.8672974	-0.5727983	0.4668888	-0.110876694	0.10321605	0.113367975	0.17300181	-0.5537392	-1.141674	0.05199173	-0.33005878	-0.35856044	0.18840046	0.14433858	0.15083173	0.12978196	-0.16056347	-0.330346	0.015111476	0.32896167	0.19368169	0.13765767	0.5262111	-0.6140032	0.7156411	0.43235475	-0.44441807	0.24337079	-0.1964405	0.7319792	-0.011044204	0.36450818	-0.82776725	1.1631925	0.7342527	0.2262375	0.12225567	0.03253168	0.72220045	0.097864576	0.23173018	0.24131243	-0.28542522	0.04094299	-0.5753372	-0.31093544	0.7855447	-1.1570256	0.16123106	-0.522859	0.10105789	0.99027854	0.29103994	0.2663327	-0.038158376	1.0358232	-0.08997272	-0.24902232	0.07513954	0.051380932	-0.06502208	-0.4797579	0.59755915	-0.12892435	-0.6885778	0.28408387	-0.46284908	-0.5044733	0.4487189	-0.014821917	-0.14054453	-0.2648294	-0.12602283	-0.25569838	0.95240134	0.55689824	0.11461246	-0.035761744	-0.8459384	-0.49673337	-0.57209253	0.5206033	-0.42153838	-0.7404492	-0.26204294	-0.024864435	-0.17446041	-0.06733985	0.13953908	0.65642965	-0.033354167	0.46760282	0.88071024	-0.29561245	1.0281985	-0.3250173	0.20180364	-0.4172773	0.060236067	0.16196544	-0.10485811	-0.112766474	0.14297515	-0.5624394	-0.5636537	0.17748006	0.39969265	-0.65927917	-0.11602583	-0.12975214	-0.504877	0.30048925	0.33157885	-0.4696809	-1.1774536	0.4903477	-0.42704406	-0.20660172	0.028435916	-0.05725667	0.75319266	0.39705747	0.07090941	-0.22704661	-0.22967918	0.9029345	-0.49206406	0.2745818	0.36969572	0.37739253	0.32385015	-0.4266923	0.5197067	0.6547856	0.4702616	-0.72507596	0.6253724	-0.3846819	0.53963006	-0.47056898	0.66566527	0.5495038	-0.09069657	-0.31955048	0.026745588	-0.62425417	1.2937132	-0.19875832	-0.28689417	-0.35498953	-0.37789816	-0.27292013	0.04065582	-0.36262363	0.377666	-0.2972025	-0.14277549	0.08411273	0.1411004	0.33897513	0.15411343	-0.7191188	-0.38012862	-0.32681888	0.16931725	0.13359524	0.74195987	-0.07610816	-1.0817413	-0.3348332	0.4275089	0.3986759	-0.73256516	0.64003026	-1.0611897	0.04560203	-0.5947455	0.6571206	0.044484943	-0.4458365	-0.7691581	0.95062184	0.3559972	-0.15440865	0.23197992	-0.6476773	0.47078872	0.67522717	0.2804641	-0.4651627	0.021966439	-0.09649524	-0.19411904	0.94118804	0.5851543	-0.2598031	0.42516845	0.41299826	0.01504983	-0.5163824	0.20286255	0.5034905	0.836728	0.6931303	-0.28720596	-0.47342968	-1.0084294	-0.3788522	-0.6045165	-0.08764523	-0.35789233	-0.11640708	-0.3815142	-0.0683563	-0.0600999	0.3899743	-0.42360318	0.32887053	0.21978912	0.19881123	-0.0088428855	-0.67945445	-0.2836918	0.040467337	0.33657956	0.65464616	-0.47322297	0.0357527	0.11252254	0.053643882	0.70091707	-0.5393666	-0.15072833	-0.024936333	-1.0203624	-0.5344759	-0.066802785	-0.2440674	-0.3208397	-0.4511295	-1.3540356	0.37325412	-0.35214058	-0.6127286	0.76533663	1.0981882	0.079964116	-0.93148553	0.1123835	-0.03644605	0.47063982	-0.24220407	-0.4170681	0.45956805	0.1480852	0.37836874	0.29149103	0.66470957	0.33456498	-0.7518265	0.72604465	-0.88999015	-0.010132909	-0.17437166	0.19728643	0.47434533	-0.69289047	-0.21077147	0.4692434	0.45961064	0.71071845	0.57164264	-0.5697417	-0.67287123	0.63678384	-0.9781056	-0.015123129	-0.84932053	-0.65579414	-0.14012328	-0.07824291	-0.06956196	-0.3689804	0.23869395	1.0866292	0.08829317	0.14742097	0.62364805	-0.74352443	0.24820551	-0.40236092	0.25235477	0.19656986	0.3108672	0.4255156	0.72094905	-0.6680161	-0.12687495	0.6217746	-0.2081915	0.30354804	0.40093648	0.63569057	0.31499156	-0.30757517	0.87414914	0.13207117	-0.6901991	-0.1252782	-1.2139494	1.0850058	-0.13960993	-0.18306777	0.008672684	0.039653093	-0.023317128	-0.26415864	0.16910177	0.050748408	0.9206608	-0.12935413	0.31933644	-0.54748464	-0.25069308	-0.5189303	0.34950534	-0.117365375	0.12090097	-0.4036795	0.46819472	0.12168488	0.142144	1.1076391	0.14437906	0.046394907	-0.40223908	0.6387295	-1.1414843	-0.26298538	-0.35858142	0.056988895	0.545485	1.0338337	-0.105321646	0.56281155	0.6988096	-0.5088756	0.06941472	-0.21510908	-0.16062643	-0.4700715	0.05612257	-0.4310026	-0.7249862	0.6520994	-0.3715568	-0.019171469	0.5880076	0.22194816	1.4227443	-0.38649726	-0.33452508	0.8747036	0.07657464	-0.3141435	-0.42797762	-0.4177027	0.13330778	-0.031813413	-0.16771218	-0.03670673	-0.5145135	0.033143945	0.2937574	-0.1244621	-0.60734904	-0.4989698	-0.0023151338	-0.09075765	-0.2751229	-0.44025177	-0.88570607	0.98111045	0.34556097	0.37969905	0.10679558	0.38704336	-3.1873584e-05	0.48925626	1.0669563	-0.8608707	-0.57057464	-0.4831673	-0.020270094	0.12653747	-0.29812962	0.4178935	-0.14451645	0.0021818131	0.34511262	0.47291714	0.5820227	0.028928846	-1.0951179	-0.12693556	-0.625537	-0.40930048	-0.08723612	0.28343576	0.35260463	0.4444435	-0.6310208	0.52050054	-0.3548138	-0.20168456	0.6830776	0.042284682	-0.047539234	0.1046786	0.14352918	-0.82488203	0.3460638	-0.2749253	-0.0018444657	0.20726909	0.9406514	0.7470544	-0.33161187	0.2276777	0.33276457	-0.48872465	-0.10187182	-0.5576543	0.38519856	0.585317	-0.20883256	0.5542544	0.0007953942	0.22849612	-0.88749427	0.14970836	0.18043537	-0.6317938	-0.7839133	0.87238926	-0.60215694	-0.7170214	0.9541178	0.29257047	0.8555234	-0.6556238	-0.38361555	-0.31384984	0.5292718	0.68809545	0.33499813	0.05467557	0.11276714	0.53588843	0.09216909	0.020252436	-0.5701951	-0.7837845	0.69340324	-0.09841694	-0.7631539	-0.7427163	0.24013777	-0.28612703	0.17357779	0.030445397	0.3846171	0.21092689	-0.30165902	-0.124850936	-0.24875146	-0.29140654	-0.061402354	-0.046960607	-0.36809677	0.20898095	0.40183756	0.19626737	-0.010347486	0.18061587	-0.5907581	0.089237496	-0.07640764	0.41331983	0.5446313	-0.37812397	0.40698004	-0.33429462	-0.9827304	0.7381714	-0.53054816	-0.5543504	-0.057133123	-0.03827308	-0.042785294	-0.18077964	-0.48740608	0.05986646	0.22170967	-0.9114974	-0.7569928	-0.42438877	0.13631205	-0.18040483	-0.9497139	-0.6782501	0.81522155	-1.1947238	0.103271596	-0.099520326	-0.7181654	0.26385605	-0.29263145	-0.23302664	-0.12507665	0.5976014	-0.20662235	-0.89562064	0.1860644	1.2890258	0.46416083	0.16539891	-0.35315302	-0.36706504	0.0048551857	0.024202216	0.34159505	-0.18486778	-0.5714687	0.16387951	0.5043101	-0.59278184	0.0681247	-0.504063	-0.23841816	0.61501116	0.34451976	0.30094433	-0.13360298	0.9872861	0.50469506	-0.04683411	0.12543075	1.0161402	0.58040833	0.020214975	0.24324636	-0.0047263056	0.3502593	0.2740375	0.1607728	0.8674081	-0.64286435	0.6231822	0.45424488	0.6858808	-0.5825784	-0.09330244	0.16200687	-0.22614019	0.17652124	0.16225822	0.8007784	0.5744606	-0.47565848	0.5637138	-0.01167044	0.07414779	0.7210559	-0.14277332	0.52510715	0.4524755	0.073052615	-0.47439337	-0.20467745	-0.04167811	0.22387289	0.2686504	-0.52000546	0.9276239	0.31592786	-0.38392866	-0.60942614	0.85208875	-0.063442975	-0.74073595	-0.40224028	-0.7767172	-0.37112716	0.7627312	0.39281195	0.3988705	-0.11605663	-0.50989085	-0.2923593	0.4056137	-0.09787921	-0.40288645	0.33319402	0.053409725	-0.8980826	0.15755723	-0.02267918	-0.1873921	0.6380733	0.74010944	-0.24999216	-0.15776736	0.7238604	-0.41685003	1.1549271	0.5813711	0.27300572	-0.54948467	-0.3901055	0.5875077	0.27818915	-0.5480198	0.6328107	-0.48596188	0.0127200335	-0.011806868	0.418905	-0.06400618	0.19669816	-0.36920786	0.7751393	-0.09650555	0.17061153	0.5910896	0.48021594	0.3225658	0.6708447	0.2119984	-0.27141726	0.34577662	0.24026603	0.7569399	0.41398367	0.15614513	-1.1019411	0.042297214	-0.37190866	0.6059511	-0.8194011	-0.3066252	-0.22197554	0.05205825	-0.6421316	-0.19280294	0.37535802	0.15269345	0.005500436	1.0175519	0.23172753	-0.45266312	-0.11197752	-0.20848352	-0.11579843	-0.38854563	-0.09268418	0.29784474	0.46231383	0.596334	-0.7455794	0.1376296	-1.103228	0.35070935	0.5742961	-0.15105486	0.13235258	0.15416141	-0.19179294	0.092515975	-0.24351245	0.14798608	-0.14296561	-0.7921172	0.039071202	0.2828856	-0.11354898	0.7548107	0.18711606	-0.79412055	-0.19386211	-0.21095306	-0.23222472	0.07721326	0.17704244	-0.17413993	-0.7386347	0.0025800506	0.33200872	0.14019799	-0.5127506	0.2820426	0.35556585	-0.4720475	0.83186114	-0.765754	-0.46252978	-0.08587136	0.2421265	-0.44763094	-1.1342504	0.4156841	0.5217279	1.2937942	0.19501802	-0.7360572	0.57142556	-0.023059651	1.0873811	-0.334679	0.75001276	-1.0192232	-0.87561005	0.5584853	0.41982016	0.5714457	-0.21023047	-0.53487605	-0.21614936	0.09914836	-0.10420483	0.26205814	-0.3329004	-0.003583908	0.122036666	0.635875	1.3352947	-0.07725075	-0.22849815	0.20393258	0.5546696	0.1450908	0.15512526	-1.2340283	-0.0883242	-0.29703742	0.15073556	-0.047695965	-0.5508908	0.45836318	-0.33334315	0.4270484	0.06147349	-0.27907777	-0.19196324	0.08963272	0.41501188	0.552153	-0.5381166	0.55664134	0.3565237	-0.3659473	0.028751671	0.15496112	-0.09556463	-0.3241372	-0.46462554	0.14693001	0.012008458	-0.15343578	0.42974254	0.7346178	1.0068033	-0.06907545	0.8375951	-1.3623744	-0.2653793	-0.4849424	-0.068587475	0.25908786	0.36845896	-0.522658	0.12112057	-0.38086468	-0.66846704	0.20243472	0.091485485	0.69523335	-0.15958524	0.107860215	-0.44433457	-0.48967513	0.46596885	0.06647949	0.52604663	-0.77626055	-1.0878978	0.21513873	-0.3892593	-0.8234503	-0.5881389	0.52444685	-0.07735121	-0.1591362	0.045427367	0.047474355	-0.54701054	0.45843765	0.33402377	0.93079364	-0.13819356	0.95387506	-0.2290175	-0.3719242	-1.1910793	0.0027490854	0.308637	0.30845463	-1.0485611	0.041974634	-0.022852331	-0.23720828	-0.5250578	0.73444045	-0.29567504	0.1283175	-0.05181533	0.15369293	0.6259284	0.32534418	-0.032330498	-0.2851223	-0.37665397	-0.3432774	0.2974858	0.60685253	-0.97315496	-0.57913834	-0.015378803	0.37578005	0.08045304	0.04214087	0.026675604	-0.2300372	0.8148666	0.08668936	0.8435234	-0.46658856	-0.90030193	-0.1102985	0.7342062	-0.010143969	0.54950947	0.60367835	1.0707812	-0.79392475	-0.16198747	-0.14750466	-0.3458088	0.096384734	0.73662454	0.47017556	0.11219114	0.25741714	0.9995681	-0.006299913	0.4893176	-0.22947246	-0.43049836	0.32178524	0.24069093	0.34650898	0.19610927	0.6227543	-0.23036934	0.2927084	-0.5477378	0.197969	-0.35210428	-0.37376276	0.79178286	1.137492	0.4722032	-0.37736607	0.0781568	0.9514089	0.41108993	0.38175684	-0.38979512	0.015151799	0.8515699	0.66862124	0.19539614	0.7094545	0.6945916	-0.21797782	-0.34036684	-0.71677756	-0.0020878315	0.039407864	-0.18405363	-0.13610509	-0.69037783	0.45254236	0.25482872	-0.41711983	0.53911203	0.0026240349	-0.6073228	0.3848009	0.03891255	-0.2901993	0.15702477	-0.17703098
G001828535	0.23830147	-0.5092918	-0.5042063	-0.7761362	0.5742269	-0.56369483	0.13510503	-0.9201859	-0.09065742	0.5607477	-0.014654733	0.3130944	0.05267907	0.13978925	0.4420558	0.7705136	-0.4720859	-0.32741785	0.31624448	0.15813097	-0.2944225	-0.35708663	0.40128732	0.744256	-0.050067395	-0.7383369	0.46987852	-0.06289971	-0.7989601	0.08785701	0.73992383	0.17743592	-0.33551797	0.20130831	-0.1578462	-0.3109753	-0.5239723	0.38886654	-0.77684575	-0.41612387	1.1717347	0.028320193	0.16791862	-0.46145213	0.84047467	-0.49492732	0.14217725	-0.16976336	0.52488685	-0.6580957	0.0042624176	-0.26184374	0.589392	0.0040882304	0.024015553	-0.26756892	0.22605145	-0.18034777	-0.4480113	-0.10687354	0.7219734	-0.44009674	0.044188723	0.040379092	0.51538646	-0.59953237	-0.052543998	-0.27947962	0.046500325	0.8666264	-0.37545052	-0.31538722	0.09200001	-0.99458045	-0.4366957	-0.5692506	0.6393889	0.69036674	0.20800984	0.3036893	0.49025813	-0.035915464	0.9750997	0.43099096	-1.1420476	-0.324319	-0.45954943	-0.80171406	-0.42281905	0.36455253	0.20759174	0.39481598	0.28133875	-0.33061448	0.3117225	-0.05603081	0.3062681	0.5195958	0.12409746	0.008278333	-0.4440676	0.5161742	0.41387975	0.17775777	0.47941837	-0.4951794	-0.033163205	-0.8221651	0.22550684	-0.29412842	-0.3676616	0.68376577	0.23810712	-0.10558042	-0.7781944	0.20144415	-0.08394684	-0.7870865	-0.5325861	-0.82747215	-0.2895347	-0.28496122	-0.18703112	0.6680603	-0.46245626	0.5848178	0.25389928	-0.7389577	0.11515233	-0.15682659	-0.04874987	-0.29569313	-0.565889	0.82669854	-0.22567765	-0.26245612	0.6124428	-0.6383445	-0.27675092	0.77421063	0.67586255	0.70417464	-0.10825682	-0.28708628	0.08827223	0.3863407	0.14817595	-0.6046525	-0.16233881	-0.22227667	0.04582461	0.45632416	-0.17186633	0.11729413	-0.29989433	-0.49331367	0.35566455	-0.101129055	-0.78674704	0.08280069	-0.19186462	0.89562833	0.29437205	0.69981503	0.24435353	0.56202257	-0.20430782	-0.32542434	0.13669065	0.026705205	-0.3001938	-0.21060374	0.09530206	-0.09512767	0.3097872	-0.17334934	-0.100516275	0.32480356	0.34063578	-0.044303685	0.83994097	0.07334685	0.2394002	0.06428665	0.113790065	1.1418183	0.098579496	-0.1451732	0.18079142	-0.48226702	0.44983482	0.34854972	0.50673026	-0.5715487	-0.68181443	-0.058195263	0.14376503	-0.04905963	-0.9776974	-0.31501392	1.2258494	0.19312042	0.8063165	0.22836551	-0.043213233	0.64458257	0.16971028	-0.25841588	-0.33954728	0.35264117	-0.080483824	-0.5087228	0.6859816	0.7163606	-0.5028635	-0.08971766	-0.015699044	0.061136477	-0.72164464	-0.03328544	-0.737626	-0.767408	0.32845208	0.28691185	-0.6962661	-0.9424948	0.4678121	-0.17724729	0.029110998	-0.46748152	0.4452185	0.18665083	0.7477108	0.27470195	-0.050910622	0.51994944	0.559569	-0.18204036	-0.49938607	0.80229497	-0.11096546	-0.12127048	-0.44461352	0.12452704	0.86120063	0.25356317	-1.2169297	0.34882835	-0.32675856	-0.11566031	0.32105947	0.040011868	0.46679473	-0.3286001	0.33301404	-0.64512813	-0.51820296	0.11752024	0.21856123	-0.27933803	-0.434345	-0.19315676	0.3974651	0.27092385	-0.34462732	0.13338427	-0.51464736	-0.030647308	-0.08815986	-0.78778195	0.5726998	0.60929334	-0.011019334	-0.08113212	0.229439	-0.042087317	0.73412836	0.35510162	-0.4573879	-0.90780604	0.51187605	-0.35827833	-0.25167292	-0.39401537	0.40044552	-0.7656833	-0.057885244	-0.04078713	0.33801973	0.4462662	0.20529978	-0.075612426	0.04081446	0.5203452	0.3488416	0.3394602	0.0061709583	-0.375343	0.4572145	0.14217523	-0.67261225	-0.02058515	-0.19869448	0.6313142	0.42079017	-0.0033625811	-0.03193573	1.2765925	0.25647867	-0.18903078	-0.7583462	-0.063008904	0.21343887	-0.04211366	0.15610586	-0.17412274	-0.06678197	-0.34231225	0.26217806	0.542271	-0.25382322	-0.21591708	-0.14519663	-0.06376432	-0.16015165	-0.661358	-0.23247662	-0.46262735	0.5885945	-0.3682006	0.088288516	0.60197985	-0.5239047	-0.10331327	-0.104203224	-0.015339807	-0.46502757	-0.9622757	-0.7291985	0.30562335	0.5010046	0.9033538	-0.13439189	-0.06496552	-0.77080214	-0.9007486	-0.08217044	0.44837764	-0.5306792	0.03948249	-0.35750574	-0.8498379	0.44008735	0.5102372	0.17380247	0.39042157	0.87233	-0.06280759	-0.5927861	-0.23852427	-0.32126647	-0.25119275	-0.24261314	0.15679288	0.2575509	-0.2831781	-0.29868305	0.76754594	-0.49693224	-0.52480733	-0.6485105	0.046561807	-0.32672888	0.3481813	-0.63553035	-0.18357757	1.2585466	-0.106297836	0.53981906	0.0900632	0.3194512	-0.024147063	0.022874743	0.015840262	-0.15392438	0.16293406	-0.56910414	-0.18771134	-0.7738596	-0.98652905	-1.0069379	-0.19258012	-0.53722996	0.7155206	-0.48711222	0.38108495	0.054312743	-0.070678934	0.66630745	-0.63611585	0.22407109	-0.4306374	-0.4463849	0.40538114	-0.9643184	0.6912618	0.6554049	-1.1437238	-0.22776452	-0.38717672	-0.2320485	0.24552894	-0.10932715	-0.62977546	-0.093302704	0.16619897	0.5664232	-0.5985782	0.27074942	-0.17052062	-0.799843	0.49075955	0.1650286	0.29077834	-0.5844637	-0.5523879	0.16867884	-0.20309944	0.0033272058	0.22176503	0.75378364	0.5053502	0.21189706	0.027655765	0.12059069	-0.31199473	-0.18754847	0.5676252	0.088809446	-0.16824636	0.6304537	-0.14704931	-0.11057305	1.1004746	0.17103946	0.36947817	-0.20699655	0.3121645	-0.87544024	0.14018448	0.25471157	0.43438122	-0.07718171	0.6410278	0.2849151	0.18018854	0.7352623	-0.8909028	0.18983567	-0.62197053	-0.6443773	-0.28983283	-0.25558352	-0.27061647	-0.84852135	-0.06636965	-0.36216587	-0.5410633	0.20576729	0.4246151	0.19152468	-0.11838946	0.59217936	0.10349411	0.42522314	-0.017381027	0.099095464	-0.5489077	-0.4159587	0.014496222	-0.09259775	0.71722126	0.28833532	-0.59970856	-0.26148474	-0.03989318	-0.036276963	-0.09645033	0.8664575	-0.6347477	-0.98022133	0.43321806	-0.6873188	-0.2316228	0.5001681	-0.22827825	0.3335949	0.42621022	0.9062089	0.5367339	0.09397128	-0.49982676	-0.9535388	-0.69846433	-0.50548726	0.3934659	0.18184923	0.08949366	0.32464227	-0.24522518	0.19543299	0.15647033	0.6030586	0.662573	-0.54817516	0.16035956	-0.58348495	0.11514448	-0.7720655	0.49056214	-0.13624741	0.31737304	-0.5614018	-0.48540604	-0.04069692	-0.72751486	0.56553024	0.35641515	-0.59278	-0.2661713	0.5744321	-0.4572472	-0.2911231	-0.23504372	0.40441865	0.2669389	0.51022685	0.37436366	-0.15837377	-0.05333242	0.41660172	-0.24215251	0.044196658	-0.13091448	0.6602801	0.9181077	0.40947738	0.0397558	0.14639321	-0.6427777	-0.52797735	0.078123495	0.94088256	-0.7188263	-0.22795907	0.53531754	-0.13794532	-0.2578908	-0.035426676	-0.6669231	0.44058663	-1.4527104	-0.3977051	-0.51740676	-0.13826856	0.7273048	0.3684788	-0.6610781	0.050956316	0.63734007	-0.28398287	-0.20142326	-0.4193386	-0.53019065	-0.23977366	0.03954293	-1.2982391	-0.95310766	-0.3815708	-0.2887172	0.16225159	0.14786117	-0.40579534	0.2656629	0.3357262	0.32836357	-0.41350335	-0.242496	-0.6279248	0.2237454	0.020984493	-0.1819031	-0.07527609	0.35007465	-0.41561583	0.08052138	-0.04796326	-0.24755834	-0.07179181	-0.037904292	0.06347997	0.30477658	0.8495113	-0.13646497	-1.0882767	0.045610964	0.23017965	-0.15596831	-0.21437034	0.31076574	0.23800017	-0.5440274	-0.38986108	0.026947662	0.022312373	-0.23091075	-0.18669638	0.022104062	-0.5135853	0.08437508	-0.75085723	-0.24177578	-0.25703537	-0.047263026	0.22110087	-0.60788965	-0.022134334	-0.45096996	0.23383793	0.07294202	-0.55327374	0.024596758	-0.3079952	0.17351916	0.30074972	-0.07063049	0.075233795	0.31190604	-0.48833138	-0.07480113	0.69187945	-0.09546499	1.1353257	0.11932312	-0.11407076	-1.1099705	1.0618992	-1.0550183	-0.14935939	-0.5917448	-0.81284577	-0.16645251	0.28612524	-0.13620532	-0.6887114	0.42826477	0.6406634	-0.17533469	0.14697866	0.4988549	0.21193874	-0.5756068	0.27473217	0.2967196	0.0542391	0.39698666	-0.33327302	0.9303559	-0.62323284	0.6145306	-0.0042045414	0.6341844	-0.28107584	-0.823849	-0.102458894	-0.108983815	0.3009616	0.48055637	1.0444258	1.0241355	0.19321328	0.322537	-0.22255781	0.6770633	-0.24314898	0.34218058	0.3693728	0.0484017	0.47160953	-0.6917963	0.35427982	-0.21657762	-0.19073631	0.5511192	0.41128102	0.40375757	0.29843646	-0.9233569	0.15317428	0.77163285	0.24902926	-0.976711	0.025713624	-0.14918534	0.40134215	0.6221056	0.9843451	0.7133961	-0.26647604	-0.622518	0.4797275	-0.52623534	0.031893745	0.81189674	-0.7563078	0.15757093	-0.21376061	0.022357985	0.6802499	-0.39819413	0.5585178	0.7051526	-0.2284071	-0.49435478	1.0713978	-0.279011	1.0200931	0.34825218	-0.0068559796	0.039910257	-0.12981749	-0.28741205	-0.42383572	0.12733725	0.6250124	0.440795	-0.059969142	-0.4287191	-0.12464456	0.009448297	-0.0036433935	-0.3665431	0.06524268	0.53833556	-0.3682007	0.02919598	0.56166476	-0.06416609	0.04937452	-0.05909507	-0.26837736	0.16928668	0.44059977	1.1775535	0.23194097	-0.4282285	-1.1006505	-0.23450223	-0.7137592	0.59097207	-0.50854266	-0.5483155	-0.21412483	-0.4335644	-0.3973387	-0.3515163	0.2362254	0.009205252	0.46965605	0.52802455	-0.071400076	0.31906745	-0.26024228	-0.44950727	0.13085793	0.29106396	0.18937342	-0.57031214	-0.13465056	-0.2136144	-0.67532724	-0.23245162	-0.8676605	0.18909071	-0.19241062	-0.2790799	0.043576546	-0.37582445	-0.30386877	-0.16046791	-0.4957565	0.40876567	-0.30485868	-0.8009757	-0.37518823	0.12915826	0.15335286	0.8636458	-0.06596037	-1.2032374	-0.06493385	0.2830715	-0.6866806	0.520202	0.22301361	0.24792504	-0.22165398	-0.39862603	-0.07163732	0.5706142	-0.3486447	0.491373	0.4472555	-0.8743459	0.7493509	-0.48269272	-0.81998533	-0.7023325	0.45637167	0.35640416	-0.089522675	-0.02731482	0.09410137	0.8756938	-0.51221347	0.07680909	0.52317107	-0.31977564	0.52605504	0.0480372	0.31344444	-0.28111145	0.069318384	0.16869359	0.49409965	0.23888592	-0.5475986	-0.13918225	-0.44244415	0.068707064	0.5791967	0.023628294	0.23174098	-0.2488819	-0.26910603	0.16928014	0.8645849	-0.9354398	-0.116933785	0.10340801	0.3709317	0.40640795	0.22980507	-1.0056555	0.13326325	0.5809666	0.22958443	-0.5582443	-0.0024054646	0.42744872	-0.1125583	-0.49503395	-0.023923099	-0.3167595	-0.24578978	0.13435884	-0.36938506	-0.006409228	-0.070424005	0.49182028	0.32679087	-0.2076093	0.19073853	-0.034259573	0.26586503	-0.043301787	-0.24387573	0.19513771	-0.23612346	0.3219787	0.5871502	0.3689622	0.44018993	0.57536435	0.21666038	-1.3811861	-0.5425818	-0.68316454	0.46410656	-0.27858496	0.38181567	0.31941023	0.58488715	0.577265	-0.3086603	-0.20554361	0.5294575	0.32826006	0.22765622	0.24519324	0.3553873	-0.6792416	0.5829906	0.21714616	0.5143646	-0.5022837	-0.40382367	0.13617048	-0.76262283	-0.39436308	0.21397123	0.026632637	-0.05476114	-0.50262547	-0.16452527	-0.5141914	-0.28065354	-0.0727259	1.0142188	0.0074485242	0.35212654	-0.21663463	-0.7520442	-0.71663225	-0.61377084	0.11650747	-0.20773101	-0.13433644	-1.1609782	-0.10075255	0.12654847	-0.4168188	0.013493851	-0.07422448	-1.1907768	0.47611582	0.05228725	-0.2712738	0.49069497	0.6069627	-0.34138665	-0.42681918	0.1830376	-0.32795358	0.65429723	0.13937199	-0.36426112	0.37659788	0.33916506	-0.06771171	0.44028977	0.6724113	-0.33136287	-0.08836822	-0.032770246	-0.032702766	-0.43714884	-0.3137385	-0.7521918	-0.18132314	-0.089954026	-0.16320427	1.3677844	0.3872849	0.8177807	-0.8367382	0.7667519	0.5673003	-0.3519187	-0.1887209	0.7384446	0.65151685	-1.2366059	-0.25887915	0.463993	0.10986228	0.87047774	-0.5157421	-0.87204564	1.0772512	0.8430414	-0.208416	-0.659543	0.35935974	-0.0457995	-0.26691383	-0.7515501	-0.3766017	0.18889917	-0.5497272	1.0899557	0.4031404	0.10901123	-0.10639423	-0.14413711	-0.13132046	-0.108552575	-0.039491504	0.24192734	-0.5337721	0.32709968	0.26867598	-0.10957815	0.32435516	0.19664341	0.09980771	-0.12110667	-0.4395591	0.1539101	-0.08890717	0.31320292	0.10765985	-0.7312097	0.7032176	0.11106816	-0.23318489	-0.20530346	-0.17281845	-0.8428956	0.06360704	-0.04005523	-0.33775797	-0.34459478	-0.0920479
G000315095	0.24976844	-0.57602894	-0.49178597	-0.7649148	0.6503812	-0.54295504	0.23174863	-1.0235591	-0.15850925	0.53264815	0.12052956	0.35481083	-0.0060471594	0.30477184	0.31921884	0.6804832	-0.44535622	-0.35828406	0.42481506	0.12491154	-0.2762579	-0.43645003	0.5577069	0.8759874	0.05634755	-0.794086	0.50048685	0.03541529	-0.88971376	0.15822697	0.810896	0.17470947	-0.415979	0.12167907	-0.20066613	-0.30889082	-0.5378064	0.4746479	-0.6648979	-0.50747466	1.3159908	0.24293709	0.07627784	-0.3405743	0.933316	-0.5293447	0.16152844	-0.21128628	0.5849339	-0.72734904	0.09557752	-0.3254571	0.65431166	0.10780525	0.021032698	-0.36247274	0.28775626	-0.17541304	-0.43064755	-0.23368105	0.86361015	-0.2648217	-0.04250975	-0.0021045804	0.54371274	-0.63838	-0.18190815	-0.3350667	0.028214216	0.93780017	-0.2408803	-0.27506685	0.19677112	-0.9348911	-0.41478077	-0.69784826	0.8926343	0.5345594	0.18930306	0.2947106	0.39839804	-0.03659825	0.82791865	0.31157556	-1.4134284	-0.38646263	-0.4293978	-0.9439351	-0.37499666	0.30407852	0.14381558	0.5203845	0.28784883	-0.24040708	0.3305001	-0.07865323	0.49128368	0.4387998	0.10195872	-0.094266295	-0.44934332	0.53561175	0.6867578	0.14470574	0.4173556	-0.40224963	-0.030724421	-0.76721716	0.2310622	-0.22064826	-0.40631407	0.6861511	0.22798121	-0.17040971	-0.73584783	0.2270833	-0.19904083	-0.87182444	-0.66620994	-0.8775184	-0.33553493	-0.18622579	-0.31079364	0.6838604	-0.5698919	0.623697	0.29007557	-0.58652353	0.105388574	-0.1572303	0.03986392	-0.15336654	-0.6641074	0.91460073	-0.14568838	-0.3769331	0.52424216	-0.7295799	-0.33130932	0.7564379	0.7334284	0.85278445	-0.12412973	-0.2003335	0.03465727	0.29681706	0.17334409	-0.7628194	-0.17964809	-0.27116445	0.110624805	0.4421273	-0.19779184	0.18380177	-0.33560467	-0.5063895	0.2444837	-0.2776756	-0.78755134	0.09405731	-0.074733645	0.97590065	0.36105663	0.6682782	0.30420354	0.5539641	-0.15613386	-0.25879973	0.030197173	0.12247342	-0.17949888	-0.27661514	0.072651125	-0.17735523	0.3746876	-0.18484223	-0.12769109	0.319084	0.29993385	0.1286169	0.77812564	0.14917302	0.2439058	0.21015713	0.05631595	1.2482607	0.2575066	-0.12950099	0.28907275	-0.505195	0.45854658	0.41220558	0.3881911	-0.5074709	-0.56878775	-0.19758803	0.13598996	-0.04230404	-0.99134904	-0.23363167	1.2198489	0.2521998	0.77453387	0.29091957	0.09928201	0.6162113	0.15644103	-0.13702366	-0.28521925	0.24736473	-0.2502771	-0.6678946	0.8049991	0.6195679	-0.5428424	-0.09938852	0.091891035	0.044534884	-0.9076681	-0.09495634	-0.6793228	-0.728985	0.3393139	0.23110692	-0.71473867	-0.95598656	0.57617885	-0.19800888	0.09659496	-0.58531034	0.4843803	0.14080131	0.8566303	0.29678684	0.06663492	0.6194643	0.6583971	-0.10501386	-0.4637886	0.90625936	-0.014700361	-0.32546473	-0.45293108	0.11547035	0.84081787	0.3179241	-1.2181114	0.48284972	-0.08375892	-0.002988696	0.2966863	0.1008107	0.5291089	-0.37052014	0.37450302	-0.58159345	-0.5759742	0.011310846	0.32500708	-0.2364595	-0.42110974	-0.18174824	0.5225356	0.31958023	-0.30595362	0.24789023	-0.5748523	-0.07191825	-0.18858296	-0.7477819	0.60864043	0.7113023	0.083018556	-0.1687077	0.1920329	-0.10917127	0.796616	0.35074285	-0.60104734	-1.0583605	0.5985402	-0.3138286	-0.16015995	-0.45720705	0.5471591	-0.6685502	-0.0723663	0.0075632036	0.44756153	0.34642774	0.31706786	-0.1802241	0.096246526	0.583292	0.33792675	0.3889746	0.036693394	-0.5148207	0.4427932	-0.05173266	-0.67190725	0.030814476	-0.22002804	0.77287567	0.593032	0.17764576	-0.012800947	1.343812	0.45874697	-0.16640227	-0.632277	0.018844366	0.16819005	-0.024199829	0.07618381	-0.021096654	-0.09355703	-0.37527892	0.15769872	0.43723676	-0.19492932	-0.30611113	-0.13744497	-0.14122131	-0.28991747	-0.7195104	-0.17471254	-0.46288872	0.5139458	-0.4395157	-0.039566338	0.68300426	-0.6300432	-0.1795319	-0.15906617	-0.014838606	-0.42360467	-1.1639694	-0.66582394	0.3277834	0.52304256	0.72728497	-0.06618863	-0.11879896	-0.6848804	-0.99829817	-0.12034581	0.40042564	-0.5764609	0.08913696	-0.33544672	-0.8576571	0.40856606	0.37436074	0.2254618	0.42631033	0.8757677	-0.029197857	-0.54173994	-0.17068908	-0.48569527	-0.46635365	-0.46788684	0.29306933	0.23509806	-0.419906	-0.3054692	0.8099337	-0.47394094	-0.51760036	-0.60892093	0.005640447	-0.2880593	0.36903024	-0.70779955	-0.23746784	1.3241174	-0.116253376	0.5334174	0.20540568	0.19504721	0.036593482	-0.024823755	0.0725435	-0.1470842	0.26386255	-0.4658404	-0.12884958	-0.76822805	-0.96540916	-0.9971893	-0.2575802	-0.63316596	0.58353686	-0.5385673	0.34741092	0.16588147	-0.13408522	0.65999734	-0.74497277	0.24501745	-0.44701165	-0.4908926	0.4462713	-0.94619036	0.9749257	0.80347466	-1.241919	-0.34667253	-0.22294994	-0.29305592	0.13897026	-0.2550477	-0.6702703	-0.12927863	0.23358315	0.6463543	-0.6678745	0.27611125	-0.35851187	-0.878484	0.60459673	0.1254082	0.22756985	-0.6726445	-0.47621366	0.349799	-0.05157414	-0.048898205	0.31820574	0.86956155	0.5552615	0.074750304	-0.027991995	0.026481241	-0.26864928	-0.23977596	0.5384542	0.119198754	-0.15674768	0.62134004	-0.15259862	-0.10223669	1.0274787	0.22846243	0.41176337	-0.31548366	0.22057463	-0.9331161	0.12534252	0.3123122	0.41642588	-0.13318954	0.7457828	0.38124084	0.10986775	0.75661147	-0.81617224	0.11725095	-0.71906316	-0.5893059	-0.4773587	-0.49440163	-0.27042395	-0.8513775	-0.049613684	-0.4661209	-0.39349744	0.25810084	0.47550237	0.21291512	-0.13301457	0.67241144	0.11742216	0.3604073	0.05944264	0.04792893	-0.44385213	-0.5343528	0.021809071	0.0006969571	0.73333836	0.26682273	-0.4875447	-0.33427545	-0.016156077	-0.03408034	3.9491802e-05	0.87880564	-0.69988036	-0.9036761	0.47620505	-0.6042719	-0.1640755	0.6803329	-0.21487176	0.45128518	0.41458705	1.0128908	0.39530125	0.04735227	-0.40784037	-0.9568119	-0.57333577	-0.49110273	0.35591653	0.36403722	-0.106133625	0.2864788	-0.33938217	0.21373779	0.271383	0.7218032	0.67798185	-0.62145597	0.23183244	-0.72211653	0.117689274	-0.80087554	0.24727027	0.055449948	0.28293142	-0.48065352	-0.34333968	-0.062886834	-0.8657934	0.7805311	0.5542776	-0.61505526	-0.18696375	0.62352985	-0.4447896	-0.38338104	-0.2535013	0.47620627	0.29364014	0.65449524	0.52937293	-0.22493176	0.06845081	0.5107459	-0.34172383	0.07267555	-0.06688014	0.7524688	0.9242522	0.4010542	0.093789086	0.29862386	-0.68884623	-0.410362	0.25785372	0.9046155	-0.58609366	-0.23273042	0.52860737	-0.08560225	-0.2300024	-0.09163234	-0.5100129	0.45713592	-1.4620627	-0.45227134	-0.643379	-0.196219	0.6686822	0.29245257	-0.6020564	0.005237343	0.59038794	-0.21214625	-0.081630066	-0.35104433	-0.5382542	-0.27525705	-0.0017153174	-1.363454	-1.121489	-0.29310608	-0.2896077	0.3048825	0.112188116	-0.33939105	0.34010577	0.3944985	0.37237245	-0.492624	-0.14315644	-0.55334115	0.32403946	0.18056989	-0.31994656	0.032270376	0.436669	-0.36028117	0.074758895	-0.001962334	-0.12788674	-0.09186868	-0.1412184	0.25212267	0.3278004	0.7918997	-0.19285384	-1.2017218	0.07432172	0.23136011	-0.16207796	-0.3830321	0.2263108	0.21171522	-0.49003845	-0.46789712	0.13239472	0.08539686	-0.22693852	-0.220925	0.053306192	-0.46557486	0.16001652	-0.8081373	-0.14023712	-0.21847044	-0.08352175	0.39452472	-0.6744181	-0.13777581	-0.4330443	0.21885422	0.15242669	-0.4644284	0.024196781	-0.310692	0.18308155	0.38877124	-0.13937047	-0.048611175	0.12792507	-0.34538785	0.13741417	0.6998123	-0.020799682	1.0822759	0.24270375	-0.246624	-1.2737855	1.0586228	-1.0818963	-0.17315823	-0.83950835	-0.7671405	-0.09885503	0.44290087	-0.24094419	-0.84033346	0.4557175	0.72357833	-0.20561671	0.09956056	0.6874173	0.26274535	-0.68350756	0.26936695	0.4414342	0.061683595	0.39841825	-0.31170022	1.132685	-0.6943275	0.66528696	-0.054401323	0.5237034	-0.26220906	-0.83879334	-0.12545815	0.07780844	0.10044435	0.7027515	0.99626845	1.152296	0.18179351	0.408812	-0.2850069	0.76752675	-0.25805283	0.38765708	0.5258699	0.04380624	0.51507545	-0.8264346	0.19319832	-0.24471316	-0.3001668	0.47652918	0.51935726	0.27493677	0.20330855	-0.9391336	0.2353535	0.79915965	0.26496565	-0.96978694	-8.5271895e-05	-0.1536611	0.36274165	0.572414	1.0567468	0.766801	-0.15373045	-0.73158216	0.6346382	-0.61578286	-0.032013416	1.0354648	-0.74884194	0.099746585	-0.21428138	-0.08981438	0.5851294	-0.48992756	0.6778679	0.70077586	-0.2459776	-0.54633194	1.1070641	-0.4088457	0.926857	0.47623605	-0.051201515	-0.07241233	-0.20095843	-0.12334953	-0.62700206	-0.0005400777	0.63731706	0.40100104	0.022503555	-0.44252583	-0.115782484	0.090755075	-0.034638226	-0.46224138	0.110946774	0.5456655	-0.28499538	-0.0025721565	0.59008336	-0.16284533	0.07418952	0.06103547	-0.2616406	0.2370947	0.3835837	1.1937118	0.39658925	-0.5871414	-1.0690465	-0.21027514	-0.76386166	0.70309746	-0.5202714	-0.53963506	-0.19174135	-0.3214967	-0.24898218	-0.31011933	0.22949299	0.10256666	0.41987726	0.48375064	0.08050105	0.39591235	-0.20352145	-0.5872709	0.12964284	0.16667488	0.14852725	-0.48026145	-0.21886444	-0.30764258	-0.83026206	-0.36254686	-0.7196316	0.34359115	-0.15685134	-0.3510781	0.0075561404	-0.4120825	-0.4484128	-0.21246174	-0.41934475	0.3545485	-0.34364724	-0.9024294	-0.2942831	-0.029268146	0.2536107	0.9867676	-0.18560104	-1.3134732	-0.0033266507	0.31199062	-0.6820964	0.59962434	0.34209743	0.3240003	-0.22205833	-0.45713922	-0.13691059	0.7810108	-0.4434455	0.46617728	0.39898908	-0.91384816	0.71585524	-0.53815734	-0.8068409	-0.83479005	0.29874954	0.30329165	-0.062438607	-0.009274967	0.05736421	0.93395466	-0.7345982	0.044203483	0.5151671	-0.3814675	0.48890725	-0.06607717	0.2444799	-0.25513285	0.1260412	0.28393513	0.4044749	0.18952468	-0.4115783	-0.18862951	-0.55566865	-0.12954485	0.7283814	0.17190203	0.34037703	-0.21955723	-0.25690308	0.096252866	0.90503585	-0.91668063	-0.16352785	0.06963946	0.18224856	0.44639623	0.28510374	-1.2354342	0.19476137	0.6705501	0.2172794	-0.73164415	0.073367536	0.41842484	-0.07031025	-0.5687008	0.011228383	-0.35165724	-0.22935557	0.088316925	-0.50695276	-0.011604279	-0.05920492	0.5113078	0.37226057	-0.4465987	0.2129916	-0.1692378	0.27699128	-0.14903982	-0.23267636	0.23721018	-0.16033325	0.4041928	0.63939476	0.5300053	0.4970045	0.74975187	0.17589149	-1.3400168	-0.38291955	-0.7831438	0.44990984	-0.31391612	0.4396978	0.39516738	0.47997418	0.585555	-0.37508833	-0.21640308	0.6560533	0.12131727	0.37817806	0.2118834	0.4196579	-0.7461399	0.6412812	0.11380643	0.38002005	-0.3660758	-0.34241378	0.036503784	-0.8460589	-0.28899986	0.30032733	0.027954563	-0.02823925	-0.31602937	-0.17103302	-0.58193165	-0.23403114	0.01564657	1.1096649	0.2091647	0.27874434	-0.26107123	-0.6413782	-0.7284115	-0.53865016	0.09328275	-0.26399976	-0.25174633	-1.0112484	-0.13006978	0.16531254	-0.5371949	-0.16627607	0.028396234	-1.3017858	0.63509125	0.061136425	-0.2629408	0.42995924	0.7918567	-0.40481058	-0.50011396	0.2400953	-0.2888633	0.63207674	0.16162948	-0.38098976	0.36973384	0.21625483	0.018583834	0.40799367	0.743495	-0.40073717	-0.15332884	-0.12394062	0.087954216	-0.31322002	-0.500034	-0.7908567	-0.22504026	-0.12260094	-0.1940976	1.3189877	0.4087385	0.94415194	-1.0038189	0.82711697	0.5524423	-0.4462938	-0.17590801	0.8246312	0.702947	-1.2047862	-0.21470138	0.33937696	0.13109373	0.8053458	-0.4670002	-0.7869159	1.3066344	0.8133633	-0.32179272	-0.57301354	0.34975517	-0.019165497	-0.23600811	-0.86007655	-0.31512603	0.1679347	-0.5377977	1.214418	0.32901376	0.0022244155	-0.123717904	-0.23307113	0.06603396	0.027992725	-0.007600993	0.41622177	-0.49951845	0.2585076	0.22830656	-0.021293782	0.30562556	0.12149906	0.1762568	-0.22302128	-0.49121517	0.025487483	-0.011642113	0.4608764	0.17051567	-0.70902264	0.7117542	0.04730922	-0.17734039	-0.22496285	-0.04760182	-1.0185373	0.11726634	-0.09770795	-0.27530253	-0.43588248	0.000643732
G001642915	0.5652904	-0.8101359	-0.06159626	-0.77095604	0.18388402	-0.26152632	-1.0301421	-0.72822523	0.24760655	0.5423348	-0.47313097	-0.61031723	-0.43742424	-0.25522956	0.9485358	0.76755846	-0.8021796	-0.10395439	-0.7161808	0.3499074	-0.22961873	-0.59742534	-0.8097398	-0.307985	-0.3348797	-0.69240046	0.9742647	-0.7030275	-0.93546766	0.2818298	-0.17988086	0.76048315	-0.15951987	0.47356594	0.3778882	-0.25300843	-0.48883986	-0.39695168	0.4170257	0.3254918	0.34336513	-0.13086128	-0.6579683	-0.77113914	-0.5651434	0.761359	0.33056086	0.1552854	0.25191963	-0.378397	0.8499144	-0.58748627	0.77343327	0.28102544	-0.63314736	0.33121818	0.6186099	-0.3635332	-0.50012547	-0.28980285	0.5085706	-0.316392	-0.03912328	1.0269775	0.3633573	-0.5473092	0.48874563	0.38250503	0.8201321	0.48675537	0.13543327	-0.43251663	0.41136295	-0.45548505	0.29766867	-0.53479385	0.78236836	0.55840683	0.0903655	0.646976	0.40598312	-0.056240544	0.62710255	-0.28485173	-0.27949104	0.21796647	-0.8522372	-0.118578725	0.119607106	-0.9360117	-0.34498096	-0.14421342	-0.50935817	-0.05509755	-0.8417174	-0.44417933	-0.9972905	-0.55873746	-0.9014632	0.65947926	-1.0682575	1.279729	-0.14829606	-0.10220957	0.5042962	-0.1639388	-0.4955111	-0.24661723	0.9876662	-0.47498173	-0.26252443	0.7414539	-0.5408809	0.31546265	-0.4052983	0.047353297	0.19667807	0.08878443	-0.6906369	-0.84469086	-0.10498072	-0.2107588	-0.05800283	0.3067556	-0.12927233	0.14717546	0.052744225	-0.4675115	-0.073074095	0.22502978	0.36948863	0.14487307	0.24779132	0.5222363	-0.4870547	0.66900504	0.3190171	-0.3784715	0.09079182	-0.12166935	0.5370299	0.24132961	0.045277424	-0.7651932	1.1248066	1.0538044	0.31220502	-0.020072091	-0.2796666	0.7332524	0.23512265	0.5699949	0.04644216	-0.3539225	0.09428987	-0.80581105	-0.3659983	0.5697681	-1.0003005	-0.11418988	-0.42906284	0.15616599	1.0972011	0.25456667	-0.014862716	0.20710316	1.0984074	-0.09251891	-0.24736606	-0.28357616	0.07650602	0.039170623	-0.6525867	0.47350731	-0.035451844	-0.68022823	0.41326532	-0.062111214	-0.39625558	0.6985288	-0.21418108	-0.15251045	-0.4289733	0.2168231	-0.12453401	1.1194268	0.53152573	0.15481512	0.15380377	-0.9197109	-0.4693793	-0.49605197	0.44954067	-0.57368475	-0.84564763	-0.4265288	-0.111798465	-0.33625403	-0.0043389946	0.288209	0.77254665	-0.3229177	0.5836876	0.96062684	-0.26074776	1.0487611	-0.15337732	0.33886385	-0.5645933	0.060838513	0.4554125	-0.19843507	-0.18736818	0.11834578	-0.65245855	-0.77072585	0.011955678	0.3127683	-0.86334455	-0.048174247	-0.11550218	-0.25574878	0.13124081	0.32645357	-0.6545834	-1.4064062	0.27915278	-0.42277974	-0.025221504	0.009933956	-0.035121202	0.9231706	0.06757519	0.101273514	-0.46977127	-0.24546412	0.6626337	-0.66190916	0.18187839	0.29578492	0.09794077	0.2756961	-0.32827172	0.43163335	0.43032354	0.35765234	-0.5618593	0.7605187	-0.4740215	0.5375439	-0.6968621	0.5608671	0.50038904	-0.05109024	-0.36756545	-0.115186155	-0.6580963	1.1313807	-0.12752824	-0.4890272	-0.5381272	-0.08497694	-0.13117588	-0.09620316	-0.13781996	0.59775	-0.32898965	-0.06877872	0.05289331	0.27052692	0.24773833	0.051610745	-0.72403413	-0.8098937	-0.23687753	-0.121448584	0.291215	0.76471525	0.1811412	-1.1321292	-0.070580125	0.533338	0.77324843	-0.59699315	0.5455872	-0.80517465	0.25539413	-0.6482544	0.67902637	-0.46487844	-0.6024449	-0.534201	1.0306579	0.123692274	-0.03959375	0.32007226	-0.67973334	0.70218194	0.63566864	0.081924886	-0.47714642	0.33696088	-0.059318937	-0.03235764	1.3485878	0.6164535	-0.33042234	0.53837115	0.34828544	0.10474081	-0.8493557	0.29343784	0.3142	0.85569924	0.8056911	-0.21630982	-0.35409027	-1.1318175	-0.50110096	-0.66553533	0.150565	-0.1310879	0.15505624	-0.4881442	-0.22487691	-0.34418446	0.466568	-0.40580747	0.3556741	0.41824165	0.48416242	0.41330042	-0.69812256	-0.07039121	0.01331	0.4653416	0.41886938	-0.46220934	0.015197486	0.19400604	-0.050618723	0.179285	-0.40249372	-0.22711846	0.029492483	-1.1252254	-0.53205895	0.06620884	-0.31795073	-0.19968629	-0.44950965	-1.1217611	0.33112216	-0.66868746	-0.7489513	0.6436375	0.8826991	0.20010716	-0.6027024	0.03882727	-0.19995333	-0.07917225	-0.35941464	-0.3695035	0.604842	0.28912088	0.52050287	0.7093667	0.68401074	0.2857018	-0.56958455	0.82831216	-0.8804947	0.008673489	-0.20863867	0.22373396	0.51850975	-0.81644297	0.041217357	0.683265	0.4957475	0.69321764	0.4355396	-0.48087537	-0.73685277	0.6517912	-1.0969713	0.10889734	-0.47113132	-0.655434	-0.30847394	-0.0073625147	-0.045989394	-0.26440236	0.16123998	0.8756712	-0.19123197	0.3694118	0.7253672	-0.7233006	0.4043932	-0.27878767	0.1723803	0.29497886	0.4462641	0.7658536	0.8014623	-0.9160574	-0.30019474	0.8001059	-0.34901348	0.29254133	0.50420225	0.49995872	0.32317266	-0.16781428	0.9324583	-0.20037487	-0.8607956	-0.054888323	-1.3217149	1.2621133	-0.2994486	-0.11735013	-0.11446674	-0.0652912	0.1138944	-0.10682517	0.2558384	-0.16242999	1.1262984	0.0029672086	0.07734431	-0.26064205	-0.07309685	-0.76712084	0.26455754	-0.345585	0.2747516	-0.5760876	0.31562668	0.18769573	0.22767122	0.70327884	0.15523516	0.1375481	-0.3201574	0.4260673	-1.1372992	-0.36909297	-0.43365875	0.30993408	0.3739268	1.1361793	-0.078422815	0.47084522	0.6418937	-0.67084354	0.17833547	-0.15668248	-0.2573968	-0.7076034	-0.13465756	-0.62165135	-0.73142016	0.48814917	-0.30896407	0.04324764	0.5752083	0.22497343	1.4127595	-0.24478683	-0.1663781	0.8019285	-0.027562007	-0.4280208	-0.56956613	-0.43395185	0.06785071	-0.027490437	-0.04689896	-0.09359291	-0.46604413	0.2494826	0.44649512	-0.3207811	-0.647581	-0.3745383	-0.029138446	0.060498282	-0.39815113	-0.3758042	-0.9811109	1.2118611	0.68164146	0.24138126	-0.06175995	0.23478843	-0.032967955	0.937412	0.8320154	-0.57154375	-0.7775002	-0.8208735	0.073251426	0.29265028	-0.43495566	0.4275272	-0.19319321	-0.09279747	0.47180337	0.3516615	0.82555956	-0.026610903	-1.182341	-0.29329053	-0.50514424	-0.42800185	-0.06717175	-0.004975766	0.37102205	0.21991307	-0.5514095	0.44009107	-0.48667645	-0.15511294	0.60967743	0.07217188	0.027123414	-0.19190702	0.12090564	-1.0402963	0.4118913	-0.39094168	-0.21347001	0.48647606	0.79116076	0.7125761	-0.27787662	-0.2778343	0.45615575	-0.16225564	0.14805806	-0.68070954	0.123148955	0.64907336	-0.43988973	0.51763237	0.031493366	0.036534175	-0.9013447	0.18579128	0.43139857	-0.7104647	-0.96916556	0.8204824	-0.449575	-0.53652006	0.7684736	0.21961549	0.6230445	-0.67334324	-0.47052544	-0.1295709	0.29732352	0.6915576	0.19888076	0.37456158	0.1433203	0.56453276	0.27024192	-0.14304376	-0.780166	-0.6823965	0.6249687	-0.1503782	-0.7652673	-0.6324892	0.23426047	-0.40853322	0.105585575	0.033573993	0.40594545	0.11075473	-0.36092344	0.01024209	-0.30457723	-0.4068213	-0.2970456	-0.14289132	-0.20731014	0.23746586	0.34473163	0.23885441	-0.0035639256	0.4220871	-0.32688498	0.070651636	0.07940544	0.3973207	0.5962206	-0.31365052	0.2887287	-0.09756139	-1.0191791	0.6865562	-0.49183026	-0.91082567	-0.10708204	0.050160244	-0.22727418	-0.3664105	-0.6833355	-0.05483979	0.19828257	-0.8147537	-0.6222623	-0.51629275	0.27777565	-0.23262167	-0.91055465	-0.6002064	0.8691351	-1.1597568	-0.13563524	-0.1219177	-0.5749914	0.23855878	-0.17127435	-0.26317	-0.31908947	0.41674817	0.15939006	-0.68215287	0.31146687	1.0474639	0.35932395	-0.05892785	-0.6310594	-0.69391537	0.24579012	0.03543157	0.22042513	-0.46542197	-0.57285416	0.24917224	0.2704869	-0.5935835	0.17085022	-0.4001474	-0.21655014	0.13190612	0.0627418	0.23341577	-0.44873995	1.0300422	0.65302026	0.06351741	0.08166695	0.68356997	0.6599727	-0.12526897	0.22056338	0.09301328	0.21545668	0.5112999	0.18580098	0.9929139	-0.26234537	0.55508494	0.51324356	0.4997075	-0.524037	-0.13390946	0.4791066	-0.09415066	0.21175711	0.39515507	0.26233223	0.4179678	-0.53997093	0.5552698	-0.020571053	0.17704543	0.6905737	-0.045335576	0.39364022	0.57866883	0.0031141527	-0.38544184	-0.039692104	0.120718874	-0.0035647452	0.30756158	-0.5666983	0.938367	0.46810526	-0.4204084	-0.87137866	0.7270601	-0.22913569	-0.59462994	-0.49018168	-0.6786177	0.13049242	0.46129557	0.20925839	0.48753297	-0.021979481	-0.627586	-0.0940544	0.36018693	-0.2377885	-0.6259572	0.18978202	-0.26943898	-1.1583557	0.11597925	0.021231323	-0.3137078	0.57336307	0.45500833	-0.28496757	-0.2000403	0.4457804	-0.15716253	1.1841046	0.25773853	0.31060645	-0.54322904	-0.53498167	0.68514943	0.119369954	-0.5950569	0.567014	-0.4691557	-0.0172126	0.16700509	0.261527	0.088319644	0.24893713	-0.093539685	0.53484386	-0.08006921	0.08219889	0.37625435	0.419271	0.4319752	0.7673539	0.1689585	-0.4812293	0.21455152	0.41758782	0.69836587	0.3696236	0.3585623	-0.8211186	0.084667176	-0.0303512	0.4007489	-0.93645406	-0.27301916	-0.031602234	0.36712337	-0.32148772	-0.5700731	0.32733652	0.15483937	0.10568212	0.9895921	0.26794666	-0.6262727	-0.20717919	-0.11669916	-0.18712908	-0.29213673	0.0035619736	0.12624171	0.53236645	0.6507325	-1.0702019	-0.15417796	-1.1533294	0.1781588	0.4377859	0.084772706	0.1965619	-0.067664914	-0.18290287	-0.060459048	-0.15979132	0.30236828	-0.39202642	-0.83058596	0.32422292	0.19009438	-0.11624342	0.79218614	0.23865628	-0.33611456	0.01963614	-0.2633446	-0.46101016	0.40557244	0.2862023	-0.19585112	-0.703587	-0.36016977	-0.07434861	0.15282823	-0.47859454	0.40472463	0.2860885	-0.34814125	0.73013556	-0.71868175	-0.49758613	0.17459874	0.3163121	-0.25837564	-1.3030028	0.39621744	0.30977058	1.1404874	0.22543597	-0.83551985	0.77938384	-0.1338406	1.2355201	-0.45532632	0.7341445	-1.1075151	-1.0459205	1.0129081	0.10592392	0.8110888	-0.2485661	-0.47340956	-0.2695099	-0.055795684	-0.34790376	0.2149378	-0.29398283	0.19183984	-0.045178175	0.61994475	1.1358792	0.034140825	-0.20920698	0.42076987	0.3278628	0.29234102	-0.17297316	-0.8563533	-0.065835394	-0.1834926	0.22967316	-0.12147689	-0.31447923	0.24289536	-0.033044904	0.32343388	0.17538583	-0.37783715	-0.096781045	0.12832852	0.16753858	0.66989315	-0.81794465	0.50328606	0.37927973	-0.28206968	0.07275161	-0.1667504	-0.38803464	-0.31105703	-0.27201635	0.10396794	-0.29660958	0.14269087	0.5165275	0.5028064	0.99420184	0.057029575	0.7122093	-1.4046814	0.020007923	-0.33468804	0.01318422	0.08880395	0.37716588	-0.47495964	0.065398514	-0.3650145	-0.45768508	0.18247417	0.13847345	0.43625882	-0.14406377	0.24990073	-0.49907532	-0.60461015	0.46510902	0.2473086	0.47413367	-0.8257755	-0.8861958	-0.055179708	-0.4239912	-0.64011693	-0.7637403	0.40529764	-0.297431	-0.1127622	0.20515625	0.22706051	-0.75184214	0.21701169	0.4809819	0.6621089	-0.06249351	0.58012486	-0.11138387	-0.39330405	-1.056634	-0.03247425	0.27904493	0.06100168	-1.0996432	0.09916161	0.009961531	-0.069789395	-0.28134295	0.49321836	-0.2800982	0.12504856	-0.14670092	0.226894	0.556578	0.37200966	-0.071810514	-0.14687459	-0.4250664	-0.4141681	0.18384677	0.53141797	-1.0873647	-0.55927193	0.118522555	0.013807386	-0.07716024	0.3375018	0.07762621	-0.40255204	0.86894894	-0.105975255	0.6683886	-0.56503725	-1.203477	-0.48161423	0.6200399	0.0048626736	0.2789963	0.7772722	1.2083969	-0.5389151	0.03362605	-0.17665853	-0.09369076	0.037789345	0.6546225	0.5036982	-0.26397407	0.6027171	0.7118435	-0.15522388	0.23313917	-0.49932724	-0.5367631	0.5076428	0.33220032	0.109529495	0.36465544	0.728571	-0.08037466	0.43315604	-0.24437813	0.3092773	-0.5622883	-0.7794548	1.0195036	1.2604136	0.4760018	-0.6290095	0.28132352	0.94811827	0.62658143	0.59370995	-0.2781982	0.15354621	1.0417486	0.57291687	0.4445893	0.63715106	0.9605222	-0.19852178	-0.02026707	-0.9451412	-0.18999784	-0.05018493	0.17546734	-0.4562751	-0.57743526	0.059469074	0.21889555	-0.25748754	0.30952027	0.27189693	-0.31003815	0.23680845	0.3100947	-0.20819363	-0.04127706	-0.3121213
G001642875	0.7635671	-0.8704474	-0.091323756	-0.73825425	0.075073786	-0.38395458	-0.7851748	-0.8385115	0.25557202	0.75605685	-0.38820288	-0.5269581	-0.58998346	-0.41922733	1.1234123	0.64817727	-0.9823935	-0.35714543	-0.84389263	0.56064916	-0.29036132	-0.654804	-0.7615888	-0.31685668	-0.519928	-0.78265214	0.8706619	-1.2082083	-1.1254246	0.1122704	-0.29039165	0.34857878	-0.23217481	0.6563768	0.079614475	-0.21394569	-0.44045985	-0.34501556	0.39439434	0.3818493	0.7348703	-0.0888946	-0.4779187	-0.7031667	-0.48636615	0.25329474	0.52011716	-0.09377461	0.38853645	-0.3532636	0.7667011	-0.5931502	0.6892158	0.17929116	-0.3319772	0.4364489	0.33324063	-0.3871014	-0.6670641	-0.5431703	0.84139454	-0.54172873	-0.062299162	1.0297728	-0.1005477	-0.46715567	0.8902736	0.3483303	0.85262275	0.55707294	-0.3291216	-0.7204581	0.7670919	-0.70299876	0.10023469	-0.6873152	0.6532812	0.78624284	-0.0055983365	0.74858916	0.3304065	0.24721996	0.46289536	0.11565673	-0.2720266	0.27090615	-0.6725892	-0.24762528	0.03157146	-0.6740867	0.12023659	-0.19652027	-0.5940727	0.25511295	-0.87658954	-0.336764	-1.2074176	-0.8927053	-0.773994	0.6156646	-1.3123212	1.3713871	-0.058886357	-0.21573995	0.7540692	-0.17771333	-0.57580113	-0.4041494	0.8409703	-0.105201006	-0.24713111	0.85301644	-0.68485427	0.4671262	-0.5921218	0.14340243	0.23195747	0.1599043	-0.5149915	-1.0996548	0.13520837	-0.23087506	-0.36801657	0.15122184	0.26788813	0.29266995	-0.019707128	-0.12594005	-0.16331564	-0.119343445	0.383039	0.096477866	0.15109524	0.5358134	-0.7290921	0.5954619	0.15110794	-0.35158685	0.10819919	-0.10069537	0.7305895	0.22568375	0.34897056	-0.74390876	0.91698337	0.51999176	0.120901674	0.16059026	0.3067608	0.55327165	0.14284754	0.27706206	0.04490298	-0.4039005	-0.3711422	-0.74280626	-0.46325892	0.5726832	-1.1742685	0.025267981	-0.42676485	0.43921992	0.9069525	0.3869514	0.30174562	-0.108874984	0.9696816	-0.15151283	-0.66228163	-0.3185222	-0.16309519	-0.078687	-0.56399375	0.7163106	-0.02801086	-0.6184913	0.2560035	-0.39655113	-0.6871709	0.5197113	0.048203155	-0.31449348	-0.3932305	0.0022590756	-0.36683998	0.970391	0.51332384	0.07951835	-0.045048326	-0.7523089	-0.5743785	-0.47312027	0.34972906	-0.4069004	-0.8725437	0.07343149	-0.24026147	0.16413446	0.30090344	0.30732837	0.8477615	-0.17300615	0.59602123	1.1488608	-0.0017603487	1.4168739	-0.10347092	0.6684971	-0.674304	0.25629827	0.047720313	0.08668249	-0.2024168	0.21796119	-0.4729626	-0.39014077	0.14500406	0.33104903	-1.001704	-0.26887098	-0.11293405	-0.30183923	0.61726123	0.42598164	-0.45797873	-1.2541032	0.5071421	-0.3860655	-0.23656562	0.07004206	0.26429895	0.8791368	0.4793585	0.1572075	-0.549351	-0.19498503	0.6872765	-0.5068497	0.31610474	0.52686155	0.44487312	0.36832076	-0.3903784	0.36644524	0.45314738	0.23984244	-0.770308	0.8339391	-0.5911956	0.32053939	-0.5300032	0.6026108	0.6883907	-0.21965528	-0.06630021	0.12126729	-0.76633966	1.368747	-0.4014689	-0.14546412	-0.6514333	-0.2386605	0.07068375	0.34959108	-0.057057742	0.41315594	-0.22316664	0.015737198	-0.23212576	0.29072553	0.37114638	0.5527603	-0.6231953	-0.27899966	-0.16896226	0.06659031	-0.07944287	0.76916677	0.08023463	-1.2260354	-0.070562094	0.7333064	0.6060616	-0.8383625	0.62846357	-1.3321359	0.27813783	-0.7579789	0.6710083	0.034247905	-0.44853446	-1.0908136	0.7837594	-0.007408306	0.06897557	0.27409643	-0.76598734	0.51662016	0.5091836	0.06270237	-0.7924907	0.25042015	-0.10040504	-0.20367068	0.97282726	0.7536751	-0.49114466	0.25499803	0.48037404	0.042061552	-0.6191566	0.005038008	0.21689059	1.1687323	0.83364403	-0.42954355	-0.54208857	-1.042103	-0.32084334	-0.6094284	-0.16634843	-0.25437382	-0.008866295	-0.3611497	-0.18841016	-0.50607264	0.50380254	-0.5859882	0.3952505	0.54041934	0.31015742	-0.027382016	-0.9080557	-0.3153209	-0.21628247	0.39748165	0.70327306	-0.45967358	0.22620228	0.2870133	0.29780632	0.45884684	-0.40842488	-0.45008546	-0.14692965	-0.98533076	-0.20289725	-0.18374653	-0.2615183	-0.15166861	-0.6119301	-1.0757792	0.4731714	-0.33388412	-0.6491015	0.9116554	1.151016	0.28063482	-0.93043303	0.11239663	-0.4169843	0.24845584	-0.71449906	-0.4761589	0.3975826	0.038306847	0.3818767	0.44128907	0.7667588	0.15020849	-0.7212684	1.0384316	-0.89314955	0.20682168	-0.105261445	0.41824278	0.5855038	-0.9048979	0.09723756	0.55696905	0.562248	0.68585217	0.16477606	-0.5132084	-0.7774531	0.4995378	-1.0402324	0.10412244	-0.5733704	-0.8051528	-0.34898248	0.1720478	-0.27622226	-0.044721454	0.07704211	0.75251555	-0.022672322	0.1665352	0.49771798	-0.75332034	0.31688341	-0.522139	0.12257874	-0.01451008	0.2771764	0.6763325	1.0560253	-0.7839017	-0.3387206	0.5883998	-0.16151443	0.27498412	0.047589064	0.62581307	0.3798266	-0.19972464	0.80713373	-0.05820191	-0.93605256	-0.08226165	-1.0707694	1.3555462	-0.12044407	0.039674044	0.0897852	0.028521225	0.17674166	0.026889253	0.6102691	-0.024351835	1.2166386	0.19064549	0.13991147	-0.2545442	-0.27786192	-0.93177956	0.2268781	-0.34222642	0.29702592	-0.50578856	0.63683265	0.1979303	0.13459697	0.7454777	0.3558446	0.10300619	-0.3854208	0.6639139	-1.3732567	-0.05490298	-0.40054464	0.34677905	0.58100915	1.216008	-0.08699809	0.48646706	0.5286865	-0.59153825	0.11352685	-0.388698	-0.42772013	-0.59656596	-0.092118934	-0.7695134	-0.7353722	0.45779058	-0.44303328	0.0054732263	0.42176947	0.36707485	1.5807118	-0.35777554	-0.3378968	0.98889536	-0.13663307	-0.15562865	-0.6389706	-0.23992519	-0.24447015	0.19789335	-0.031822532	-0.13488835	-0.3263768	0.14231503	0.2578321	-0.3018131	-0.7997185	-0.5514777	-0.16466692	-0.29036036	-0.4585863	-0.26540542	-0.9496602	1.1901077	0.5589772	0.04268521	-0.08359048	0.46954668	-0.09319949	0.69236404	1.1324937	-1.008208	-0.52943546	-0.46123832	0.006499186	0.12957993	-0.41792554	0.36499465	-0.32178903	-0.20484021	0.09204662	0.5353973	0.27419037	0.09861919	-1.142221	-0.18510205	-0.53536874	-0.4399611	0.022181273	0.48059896	0.5570688	0.22572085	-0.6658734	0.6278149	-0.50259924	-0.042076826	0.554047	-0.1489315	0.016040385	-0.01029405	0.10754794	-0.8770747	0.3620721	-0.41051868	-0.24924503	0.32831347	0.90644175	0.69136965	-0.42376575	0.29565346	0.5401403	-0.23088671	-0.057203062	-0.57096523	0.29720825	0.6439537	-0.3777513	0.4718077	0.19443665	0.003799431	-0.9243076	0.02098976	0.4007944	-0.7298122	-1.0389757	0.81883395	-0.494311	-0.5944054	0.9280261	0.059450507	0.73396856	-0.58297175	-0.30040488	-0.04778495	0.34791303	0.8388196	0.18035497	0.30211756	0.2815183	0.7527866	0.34533817	-0.08384046	-0.8070587	-0.75256234	0.6903559	-0.25010443	-0.898363	-0.58251786	-0.19515933	-0.4076672	-0.05756274	0.33669883	0.13481526	0.23239073	-0.35826516	0.06952036	-0.15424207	-0.302977	-0.1863768	0.09625155	-0.46240073	-0.14859048	0.31348765	0.6357788	0.025395691	0.59181505	-0.522819	0.25258034	-0.07845357	0.33950502	0.3714795	-0.39676917	0.30363742	-0.11342439	-1.2232041	0.5883432	-0.5828458	-0.6090373	0.13563946	-0.19779244	-0.16821012	-0.20126495	-0.75821793	-0.031631872	0.1326915	-0.99758995	-0.71460503	-0.6145371	0.20849174	-0.46062478	-0.96198547	-0.47514993	0.825543	-1.2621119	0.30587235	-0.17247902	-0.5715945	0.02845776	-0.29387057	-0.15862706	-0.36362296	0.71538055	0.26138034	-0.70783514	-0.019827068	1.016483	0.64468026	0.21665132	-0.7097467	-0.47491905	-0.022762626	0.05521159	0.3889771	-0.2993442	-0.84179795	0.15232867	0.27266523	-0.5686403	-0.16834036	-0.32433486	-0.044128068	0.5968025	0.12708905	0.15168402	-0.2524912	1.0469154	0.77442193	-0.38134807	0.3853318	0.8482553	0.75731355	-0.13070163	-0.10158664	0.012771033	0.29691324	0.44578165	-0.08815623	1.2507366	-0.8027428	0.8499478	0.10419636	0.69209516	-0.58304566	-0.081664614	0.1663309	-0.13763946	0.15125707	0.393269	0.65175307	0.44836083	-0.3812448	0.43314663	-0.07810283	0.094544046	0.5753825	-0.016866226	0.27354783	0.3349638	-0.05482716	-0.64596415	-0.24598229	-0.26423484	-0.08102563	0.33655336	-0.38677278	1.1903569	0.42149246	-0.4753456	-0.5593555	1.1393447	-0.17714226	-0.51200926	-0.25891727	-0.6314959	-0.16593418	0.6324873	0.2624681	0.5485671	0.16985175	-0.72338444	-0.24528956	0.39581966	0.0017777085	-0.17995971	-0.098759234	-0.10756767	-0.9470821	0.15775403	0.005468905	-0.40953282	0.9680341	0.5930829	-0.16035989	-0.23080325	0.59007245	-0.39791209	1.1669257	0.6168853	0.33662838	-0.58237463	-0.42677915	0.5962232	0.21255895	-0.6827865	0.33606222	-0.4589913	0.05382493	-0.20047848	0.6102611	0.027500406	0.08198577	-0.30918586	0.7361721	0.031991303	0.37155753	0.6804243	0.48848438	0.24828371	0.8386729	0.18456775	-0.5004596	0.5071658	0.5198898	0.80962783	0.25758162	0.049851373	-1.0092866	0.46924454	0.0062187165	0.47973326	-0.82776546	-0.4236984	-0.17058253	0.34577695	-0.6993715	-0.5229698	0.096683025	0.13697107	0.2377573	1.1901895	0.13410267	-0.36745936	-0.21847267	-0.25718844	0.009867333	-0.20871267	-0.026710555	0.48453516	0.6894802	0.5666361	-0.87055457	0.32127583	-0.97353053	0.39451188	0.69931847	0.17570871	-0.10584578	-0.024869256	-0.32174748	-0.06330609	-0.20633882	0.23013815	-0.2930042	-0.7256538	0.3492639	0.2933811	-0.27600273	0.8021256	0.18279807	-0.99831265	-0.13035065	-0.23688301	-0.5116178	-0.0068698823	0.23204847	-0.1398676	-0.46572298	-0.15581831	0.0043376833	0.2567101	-0.54754794	0.107535884	0.36694866	-0.07991597	0.6325928	-0.6106334	-0.4949538	0.09788244	0.30517504	-0.086817585	-1.1696218	0.41482306	0.12395415	1.2566502	0.13515836	-0.5221546	0.51170856	-0.10862252	1.3212916	-0.26620913	1.0486512	-1.0124758	-0.9779273	0.67017686	0.34605965	0.6323237	-0.08219153	-0.50351894	-0.27364787	-0.108355954	-0.118059844	0.21218485	-0.3629802	0.15373679	0.17201278	0.6990613	1.0093088	-0.12857388	-0.46736926	0.25462523	0.5606615	0.37685376	0.24444708	-0.99076164	0.112929665	-0.44167393	0.18498383	0.07999715	-0.3505631	0.14850263	-0.058078967	0.32142985	-0.01848422	-0.28740102	-0.13110882	0.21927822	0.14994419	0.74280435	-0.678226	0.42367184	0.32338482	-0.1371637	-0.0026353598	-0.11753425	-0.3511992	-0.17024219	-0.23843431	0.26584867	-0.13711718	0.17902169	0.5400349	0.7672957	1.0050116	-0.022002995	0.6410619	-1.3962777	0.13477957	-0.30919504	0.22745733	0.21682218	0.21614492	-0.58929306	0.25478542	-0.4381193	-0.54453284	0.1385622	0.3241482	0.73949546	0.068081796	0.5319594	-0.5863455	-0.6485064	0.7040204	0.45035598	0.4687366	-0.48133698	-1.1187108	-0.02027756	-0.45200926	-1.1008306	-0.7283553	0.35093632	-0.22058621	-0.22818486	0.14880285	-0.09006935	-0.6846701	0.48639745	0.29826075	0.9133903	0.010234922	0.67581713	-0.32783964	-0.2786136	-1.1707438	-0.23380072	0.438516	0.19932576	-0.96277666	0.04955271	-0.05039306	-0.084484726	-0.35324836	0.5241641	-0.18744023	-0.053932562	-0.10357916	-0.033236012	0.47722828	0.29092276	-0.36670685	-0.25830653	-0.40198532	-0.3225314	0.28638	0.52101994	-0.9676515	-0.5693363	-0.04570946	0.072484344	0.04935492	0.089342624	0.30936342	-0.20707348	0.80407983	-0.22829731	0.49656838	-0.29258162	-1.2582916	-0.38582724	0.74796635	-0.05774975	0.42398363	0.71905833	0.59291804	-0.993239	-0.16129676	-0.004040718	-0.22650701	0.05178699	0.8084334	0.4871742	-0.120838776	0.42672032	0.9403601	-0.15897968	0.40147105	-0.11905235	-0.37703097	0.5779265	0.3346125	0.28393966	0.10139817	0.55763966	-0.38995373	0.49141365	-0.44551292	0.18469515	-0.5741979	-0.8095438	1.0840771	1.1658392	0.48227724	-0.2931338	0.20263016	0.87255156	0.2246342	0.40294477	-0.09540075	0.07279843	0.93490875	0.50911254	0.3063116	0.7262199	0.73001385	-0.20127393	-0.66668034	-0.88703513	0.08278899	0.016031794	-0.3816539	-0.23828202	-0.6729231	0.23084486	0.2683403	-0.15561497	0.12494889	0.09158948	-0.53977114	0.4398044	0.2020214	-0.38985956	0.22151153	-0.22402355
G001824605	0.13016611	-0.48619282	-0.6093968	-0.68441385	0.54497874	-0.63566744	0.2590812	-1.0422161	-0.058973677	0.42846742	-0.055234015	0.4918871	0.09364723	-0.004646912	0.35944253	0.60179615	-0.6704808	-0.26631665	0.223733	0.08705228	-0.15664478	-0.14569607	0.48506865	0.86492956	-0.0045523345	-0.6877836	0.3794484	-0.11622578	-0.88680005	0.13173723	0.6387689	0.09802431	-0.465745	0.1997683	-0.13428678	-0.2851488	-0.46407112	0.41016647	-0.7494614	-0.4514644	1.2588525	0.22742535	0.18907867	-0.39054292	0.94859535	-0.6316356	0.14555022	-0.37542295	0.46231425	-0.79740727	-0.028470092	-0.35471427	0.56194896	-0.08593191	-0.19094265	-0.3222383	0.1947106	-0.21103483	-0.34891763	-0.040908337	0.6258942	-0.39498663	0.12951156	-0.13660836	0.5722387	-0.41846603	-0.22890683	-0.2531599	0.022671208	0.98311865	-0.31430757	-0.33782426	0.15277441	-0.8244874	-0.46276113	-0.33583075	0.827758	0.63452595	0.19893037	0.20892033	0.50674236	0.07889876	0.9052892	0.352083	-1.2345073	-0.3596639	-0.6216951	-0.90182275	-0.49688607	0.36030418	0.18433926	0.43923128	0.40704554	-0.27105027	0.45544952	-0.1014473	0.42586932	0.5862745	0.2679723	-0.009834409	-0.22068407	0.47106868	0.58689034	0.30474713	0.40545627	-0.41812262	0.0962846	-0.65068793	0.25697932	-0.081185214	-0.45318633	0.6981157	0.29448536	-0.21508932	-0.7629622	0.2655745	-0.15341833	-0.7689336	-0.51456505	-0.8972965	-0.26750588	-0.2086841	-0.3501693	0.5384171	-0.5394047	0.47363076	0.36337894	-0.6646972	0.13574642	-0.2943078	-0.097509116	-0.2060999	-0.657408	0.9188036	-0.0823963	-0.4323448	0.5969456	-0.83146524	-0.10025765	0.9203281	0.6101743	0.8283646	-0.10981576	-0.48857123	0.03889829	0.36654776	0.17569411	-0.8205906	-0.12466292	-0.16635984	0.04481542	0.28829122	0.060268223	0.2534687	-0.105849445	-0.50118136	0.33239636	-0.25142986	-0.6740752	-0.13207768	-0.28025585	1.0584912	0.35485452	0.61264586	0.25780618	0.6760709	-0.14090219	-0.16185823	0.24945083	0.032574594	-0.17370568	-0.30042547	0.044357773	-0.03908564	0.36909968	-0.12128617	-0.18974958	0.21371563	0.46436107	-0.18407133	0.6854733	0.22860283	0.31775686	0.030244797	0.14621183	1.1865728	0.10908812	-0.17128266	0.01790908	-0.5443488	0.5493724	0.39345008	0.54225266	-0.54650605	-0.5891587	-0.022402108	0.23663938	-0.047468185	-1.0436795	-0.40663868	1.144279	0.371374	0.7638539	0.17320982	0.044307783	0.6561483	0.04871741	-0.3906726	-0.46241346	0.25346285	-0.3303794	-0.6312883	0.81147516	0.78026694	-0.54497194	-0.02147901	-0.05826533	0.062695295	-0.77015483	0.12020254	-0.79096365	-0.71719813	0.25103614	0.22035772	-0.70557266	-0.8636043	0.5551842	-0.19369794	0.04971671	-0.4686719	0.62482625	0.08169593	0.7738403	0.27876407	0.054721415	0.43728524	0.67171186	-0.19487265	-0.61553	0.74352956	-0.20492724	-0.2728654	-0.63280475	0.010358527	0.8025968	0.14836363	-1.2436836	0.363716	-0.26626116	0.026956737	0.3934047	-0.17334677	0.41524902	-0.20386711	0.10302752	-0.6211088	-0.44661945	0.04473248	0.4530415	-0.3845447	-0.18748102	-0.16124114	0.40498304	0.3136577	-0.22754604	0.10005171	-0.4490442	-0.027595893	0.011476338	-0.91298676	0.5887273	0.69687986	0.020007923	-0.070841365	0.16577762	-0.22483164	0.6743004	0.34912968	-0.5661372	-0.8969928	0.46647483	-0.33556032	-0.22079754	-0.59776306	0.45837513	-0.5741528	0.07889697	0.023073643	0.35687038	0.734934	0.3068042	-0.040880382	0.016429506	0.46030837	0.15496418	0.37616822	-0.007704556	-0.48254246	0.398279	0.22791392	-0.730778	-0.084677204	-0.13027203	0.6262567	0.39695606	-0.09255278	-0.07248756	1.4111927	0.36119974	-0.106080055	-0.64270985	-0.08090764	0.32209802	-0.044999912	0.022718836	0.06918663	-0.19777578	-0.13840824	0.30219463	0.65339327	-0.20337367	-0.19737932	-0.24915004	-0.2217014	-0.29360777	-0.68013346	-0.34200656	-0.37962887	0.58541393	-0.5128451	0.11160281	0.7110531	-0.4685738	-0.26685712	-0.13436681	0.042920247	-0.51705676	-1.076441	-0.8085184	0.0844574	0.37628677	0.9988135	-0.15224585	-0.067800805	-0.8137628	-0.9274253	-0.10597972	0.35820663	-0.4892968	-0.01810193	-0.48337838	-0.8568113	0.56624806	0.59420395	0.21969765	0.29940528	0.9977698	-0.046001934	-0.5139043	-0.13283075	-0.3274178	-0.23974541	-0.308811	0.2519139	0.43583986	-0.28745085	-0.44854853	0.7760128	-0.712705	-0.43063954	-0.6794841	-0.15899375	-0.3200775	0.38715208	-0.5008137	-0.21403491	1.1236125	-0.18828154	0.49827716	-0.08085062	0.35376763	0.05537565	-0.0430893	0.12033914	0.01622802	0.23307005	-0.5660882	-0.26156056	-0.90392756	-0.8277972	-0.99434364	-0.35896072	-0.44149315	0.8482053	-0.465314	0.3102986	0.000432536	-0.115129024	0.68316096	-0.5654659	0.20172456	-0.3816499	-0.5506085	0.48878092	-1.0794349	0.6368234	0.69915205	-0.8929347	-0.13680655	-0.31320983	-0.26296282	0.08804626	-0.06798772	-0.531495	-0.24916962	0.23483877	0.8082598	-0.66005504	0.27656192	0.07301339	-0.61183494	0.35853934	0.46315047	0.25872698	-0.64635456	-0.30059722	0.2581466	-0.15677665	-0.18422517	0.24761744	0.76560426	0.49074894	0.26568496	0.013252333	0.10903597	-0.33005756	-0.2927434	0.64559114	0.1481503	-0.2299346	0.59557354	-0.11315456	-0.052847058	1.1352543	0.29583967	0.2664972	-0.16679536	0.103713624	-0.7780811	0.09566146	0.3240626	0.5048978	0.01830279	0.6980626	0.14298815	0.10878894	0.671123	-0.8937643	0.20238966	-0.61139905	-0.54234713	-0.14559413	-0.29895705	-0.008999884	-0.94652617	-0.037802726	-0.29238933	-0.47964907	0.1116406	0.3964991	0.1288994	-0.12935624	0.54917103	0.085155755	0.50224376	0.12178741	0.16263491	-0.5761833	-0.30777493	0.049405217	-0.11090404	0.89777166	0.34194684	-0.6980529	-0.47473615	-0.15346569	0.18247145	0.04492814	0.9194569	-0.6156555	-1.0629029	0.6559033	-0.76277184	-0.34462664	0.5493221	-0.27142298	0.26275802	0.3659125	0.9026828	0.43496105	-0.10272812	-0.5957618	-1.0582032	-0.57415074	-0.4712693	0.41787034	0.18847385	0.04414317	0.3283497	-0.27007884	0.3879678	0.21153039	0.62109745	0.6322697	-0.35863796	0.13120927	-0.6686788	0.0583983	-0.87080044	0.52845335	-0.104788825	0.38962048	-0.4298528	-0.5464879	-0.045419186	-0.86988264	0.59668493	0.48653433	-0.70489985	-0.2079181	0.5586283	-0.42353648	-0.3709131	-0.105386466	0.46755233	0.02069664	0.51149327	0.3999828	-0.16441792	0.13738978	0.29547876	-0.35097295	-0.12444016	-0.024249166	0.7225468	0.8237393	0.4272472	0.08373445	0.11977178	-0.57978284	-0.5856701	0.06955922	0.8670667	-0.68037814	-0.40234953	0.58856845	-0.07288163	-0.2849642	-0.110085726	-0.76805925	0.45753282	-1.4688015	-0.33160582	-0.5163516	-0.19801521	0.69139427	0.37093365	-0.69320923	0.07978083	0.64048094	-0.46984452	-0.032778487	-0.30449137	-0.4080523	-0.18749961	0.030153975	-1.1195953	-1.0116473	-0.13918754	-0.30652815	0.2268058	0.05537463	-0.41847944	0.39867443	0.46630523	0.24902171	-0.4289347	-0.29015025	-0.61622506	0.3508377	0.0034013316	-0.33282566	-0.033216808	0.2583989	-0.45180637	-0.25718638	0.0018191114	-0.17325927	0.029268987	-0.16494492	0.08811659	0.18986557	0.77098346	-0.03373257	-0.96897995	0.07899667	0.39075875	-0.15011425	-0.38114125	0.29436797	0.20722315	-0.47539192	-0.31205463	0.09936241	0.19088086	-0.38190025	-0.14004935	-0.065299556	-0.5103911	0.13154468	-0.9489775	-0.15546542	-0.22204708	0.0067222863	0.24176104	-0.5015795	-0.14477873	-0.4497079	0.2511309	0.13981684	-0.60253793	0.06219411	-0.45604408	0.22436959	0.34658384	-0.11899169	0.00501702	0.13689235	-0.3549562	0.12098235	0.58106244	0.062092066	1.2805662	0.15710779	-0.06598374	-1.0994701	1.187408	-1.0019015	0.054199964	-0.6952396	-0.66895777	-0.23364732	0.36501062	-0.16771366	-0.71694887	0.46908623	0.5822836	-0.30225012	0.060147643	0.55042046	0.064023525	-0.5841309	0.24854115	0.44310537	0.07593185	0.23507355	-0.37105876	1.0915096	-0.593609	0.5703098	0.12713017	0.58040994	-0.23465937	-0.7919879	-0.041979104	-0.022161841	0.18502584	0.45586896	1.107028	0.99771166	0.2895642	0.44455987	-0.27606636	0.5804298	-0.36343148	0.4459219	0.50174177	0.0267732	0.39213538	-0.75075084	0.37579027	-0.024005687	-0.18836284	0.4925894	0.4281484	0.36771336	0.035050645	-1.1014603	0.28716332	0.7417381	0.22555904	-1.1354196	0.07958619	0.02278401	0.3473462	0.6033517	0.8075515	0.85121936	-0.22229302	-0.6812031	0.55084884	-0.5107509	0.12744412	1.0194669	-0.8285951	0.23711957	-0.13961679	0.07371491	0.7021278	-0.5237868	0.5264688	0.596719	-0.16733678	-0.5973979	1.199305	-0.2800001	0.9459121	0.27196452	-0.019858781	0.25560826	0.107013375	-0.3651743	-0.5463151	-0.0325751	0.63747364	0.452671	-0.07602599	-0.47485474	-0.16026953	-0.04957661	-0.12794608	-0.44211063	-0.19836369	0.51734453	-0.44454023	0.018510103	0.63709724	-0.08121534	0.123493455	-0.0779869	-0.25982118	0.15650603	0.39895174	1.3171302	0.3104584	-0.60147977	-1.0984973	-0.26789474	-0.70654094	0.51854527	-0.40163743	-0.56277853	-0.24511284	-0.5377174	-0.36622933	-0.2269378	0.36536846	0.19321433	0.34073	0.5149634	0.014698088	0.35247096	-0.25897467	-0.52050114	0.11425076	0.20324871	0.18180372	-0.90410566	-0.22247261	-0.3212663	-0.5848469	-0.48825824	-0.8680278	0.21840325	-0.22198492	-0.35918725	0.11121337	-0.36666238	-0.24843952	-0.1363034	-0.5076817	0.2618059	-0.32641163	-0.7816914	-0.3178562	0.0056771636	0.3027929	0.92752385	-0.12078309	-1.11754	-0.2551452	0.48262018	-0.7108504	0.40465394	0.4285193	0.39023873	-0.07815458	-0.40338856	-0.10717012	0.6662743	-0.3132868	0.4219841	0.40499318	-0.9728005	0.8652917	-0.6380346	-0.9563568	-0.7049057	0.31683767	0.39002162	-0.10326643	-0.03554271	0.1733165	0.82310283	-0.53609204	0.1662625	0.5111031	-0.3978629	0.28722945	0.028964788	0.14030406	-0.2119811	0.24079026	0.09012294	0.60971826	0.13089187	-0.46479	-0.045544192	-0.49454647	-0.04102517	0.78670704	-0.00829668	0.077881694	-0.2683445	-0.310159	0.18310529	0.7996623	-0.91793454	-0.22015865	0.07743798	0.37584126	0.57927257	0.4758364	-1.129005	0.12574184	0.6500169	0.3414337	-0.61643314	-0.10223395	0.7022959	-0.31742442	-0.46073592	-0.122223854	-0.19492956	-0.1407393	0.20106053	-0.44406873	-0.13728407	0.16005738	0.4226347	0.113138616	-0.27329928	0.15614286	-0.03294476	0.29578477	-0.21388648	-0.20542935	0.29108042	-0.1493493	0.4238379	0.58116394	0.4395783	0.5075194	0.39845854	0.16106325	-1.3443457	-0.3745916	-0.7982558	0.5639013	-0.45048553	0.32792592	0.53608775	0.7143957	0.57913315	-0.1759212	-0.18865258	0.41322133	0.22124836	0.42652786	0.20644632	0.53281194	-0.6470674	0.491859	0.35719067	0.5013968	-0.24660656	-0.3142026	0.1478419	-0.6862174	-0.4444762	0.17618777	-0.11085136	0.0023224056	-0.5752244	-0.16686833	-0.39632457	-0.16195545	0.006524764	0.9835274	-0.011286378	0.29181764	-0.21260107	-0.7584878	-0.6683334	-0.55730283	0.27839	-0.14309189	-0.120959565	-0.91834676	0.004840046	0.05236216	-0.43901563	0.08529715	-0.09130402	-1.3338027	0.35647807	0.19455019	-0.2239523	0.4506423	0.5764171	-0.34058157	-0.45629585	0.03383839	-0.28142223	0.5116893	0.33740115	-0.3176524	0.37195644	0.46790427	-0.037451535	0.49988097	0.8947302	-0.45105654	-0.042448148	-0.21179202	-0.11116944	-0.3073574	-0.28650877	-0.82108307	-0.10727791	-0.12014899	-0.16585235	1.4755516	0.21031377	0.8809711	-0.9370276	0.7908927	0.652878	-0.43103427	-0.020072177	0.6925943	0.6408055	-1.1773359	-0.30812746	0.43515873	0.077780396	0.7225869	-0.6536373	-0.75061667	1.172353	0.7417762	-0.3546563	-0.5056416	0.38838983	0.0024457201	-0.19759943	-0.6073791	-0.3569802	0.2094894	-0.48621672	1.2391071	0.42043287	0.071426734	-0.1204482	-0.07821107	-0.03178501	-0.18744114	0.10501155	0.34623313	-0.5939473	0.37982416	0.44858488	-0.15080371	0.11745395	0.080273405	0.1836727	-0.027295843	-0.33244228	0.04342685	-0.21338056	0.5056873	0.14119498	-0.67268205	0.6339104	0.08240342	-0.3177067	-0.11904777	-0.25340658	-0.8841654	0.06990938	-0.2240525	-0.17350349	-0.34971535	-0.022377409
