G001536165	-0.99694645	0.20629203	0.072155654	-0.38337037	0.34319192	0.7355837	0.87644285	0.73805624	0.7523677	0.8727332	-0.1839337	-1.1855922	-0.33945835	0.6097704	-0.08900465	0.16337234	-0.24695593	-0.24139914	0.9592637	-0.08577362	-0.23438634	0.027754102	-0.17790923	0.45469105	-0.33578205	-0.19216587	-0.8143343	1.7133281	-0.02589806	0.01002869	0.24254769	-0.16686189	-0.13414076	0.64447665	-0.6531029	0.42423266	0.098634124	0.20054668	-0.30609918	0.40051892	-0.22532926	0.32417458	-0.2803528	-0.7324995	0.29338127	-0.98588103	0.05869525	-0.4054003	-0.24096197	-0.55741584	0.35998958	0.61714	-0.7254809	0.22846597	-0.89416486	-0.37014407	-0.7947075	0.18569261	0.49458164	-0.26558435	-0.26236358	0.27938282	0.033367485	0.38843283	0.9617408	0.033273935	0.5441202	-0.26107973	0.37135732	0.3623513	-0.61321926	-0.110213056	0.2891572	0.29571766	-0.56399226	0.58738434	-1.4928966	0.542971	0.093491346	-0.05597423	-0.3510619	-0.5008751	0.61938673	-0.24117781	-0.010918468	0.013461992	0.09405947	-0.04858169	0.8725693	0.4632293	0.26550013	-0.5929893	-0.6477004	-0.61146915	-0.01784812	0.82033134	0.20350641	0.43756533	-0.5210213	0.7062078	-0.1517376	-0.5755482	-0.043236367	0.22469339	-1.0607708	-0.19611666	0.30163857	-0.19175799	-0.93344396	-0.47090432	0.2837754	-0.66170436	0.6234706	0.4021548	-0.20947549	0.058206007	0.4322943	-0.21534517	0.46521938	-0.9914726	-0.0113559365	-1.2783898	-0.18844056	-0.59180385	-0.37924743	0.43112847	0.17152113	-0.8295463	-0.34792817	0.08315139	-0.21135129	0.15714511	0.5298674	0.17518261	-0.21768916	0.5436417	0.26639542	-0.012481932	-0.3006305	-0.7751834	-0.4415605	1.22727	-0.35433835	-0.3889192	0.38053206	-0.098537736	0.6057128	-0.103302926	-0.74227273	-0.8302456	-0.22767976	-0.95381904	0.59502494	0.090378344	0.5023239	-0.46928316	0.40019846	0.506436	0.4951254	0.8528622	-0.31058592	-0.08090073	0.080633864	0.45960298	0.4525028	0.05002793	-0.63377416	-0.3601569	0.15069148	-0.24884239	-0.011037376	0.6626203	0.3463641	-0.48277456	-0.073949784	0.1164546	0.1369228	0.65512025	-0.63636947	-0.21259229	0.0058070943	-0.62649286	0.5311435	-0.109469876	-0.016669266	-0.3427124	-0.54850066	-0.010274127	-0.7088634	-0.15470107	-1.1875222	-0.18181196	1.005194	-0.9744035	-0.4518236	0.65191716	0.48041525	0.09240585	0.2765997	0.029056638	0.76002717	-0.3304842	-0.30096084	-0.31561482	-1.2056863	-0.6375303	-0.57549644	0.22918077	-0.0030946136	-0.45256823	0.63056433	0.50643665	0.18007974	-0.57258326	-0.32547504	0.1601237	0.07782373	0.28669977	0.018889166	0.61735064	0.29580212	0.17285404	-0.24042909	0.07872303	-0.74123824	0.15535769	-0.15437284	0.43592653	-0.29625282	-0.15190753	0.0038449913	-0.6493423	-0.41049474	-0.04480701	0.55329394	0.13032159	0.5717729	-0.74025786	-0.10610235	-0.1669262	0.21475726	-0.066452175	-0.7679979	0.6003791	0.66333145	0.26017153	0.40889955	-0.32020748	-0.7232025	-0.36955285	-0.9298491	-0.43743336	-0.3412878	0.8380834	-0.51046675	0.6222092	0.08629165	0.653811	0.36385563	0.5187107	0.048009746	0.77702904	-0.44214588	-0.46210474	0.23366307	0.88073814	-0.30025148	-0.058744706	-0.40628263	-0.6445164	0.017041385	0.07626775	-0.1865308	0.09796947	-0.763728	0.70273364	-0.4386515	0.82434833	0.7251221	0.17168556	0.12136185	-0.22297832	1.1348505	0.46008173	-1.0475074	0.1740259	0.14939971	-0.04401096	-0.45672864	0.46816745	-0.22534549	-0.42971814	-0.02888015	-1.0615976	0.25231397	0.67176354	1.2878323	0.0010763109	-0.26152766	-0.1696453	0.54485667	0.04736258	0.2564177	0.13968444	0.59321964	0.19025254	0.16279438	0.23509096	-0.64844286	0.17148733	-0.44356734	0.6354183	0.39701745	0.08245888	-0.118906245	-0.19566041	0.0013402402	-0.12599474	0.57751423	0.5928117	0.0070067197	-0.48862618	0.28197834	1.3819453	-0.36955076	-0.7610938	0.34640115	-0.20672047	0.25361937	-0.081365526	0.3226565	-0.4719618	-0.20290679	-0.61617255	0.35519424	0.34053198	0.20275272	-0.11299053	0.23461834	0.8114459	-0.819002	-0.5167158	-0.30054235	0.90260327	0.76729083	-1.1132436	0.63359576	-0.23780549	0.518718	-0.3432968	-0.09121433	-0.3317831	0.019035771	0.42369542	0.091195375	-0.43716407	0.40136975	-0.5525187	0.0031267703	-0.17151582	0.06439023	0.45673442	0.12953958	0.62352943	0.8108846	0.19826084	-0.40676677	-0.33588973	0.70932055	-0.042272955	-0.24834189	-0.28774634	0.04401449	-0.7935686	0.39063305	-0.14226483	-0.6361075	-0.8473735	0.032748982	0.3524921	0.024213523	0.2163055	-0.19460003	-0.56629705	0.56191874	-0.26535845	-0.38878158	0.1723052	-0.24044046	0.06385277	0.6569791	-0.42785743	-0.31610662	-0.09632191	-1.0682471	0.20631668	-0.09500784	-0.4502457	-0.2670219	-0.6977403	-0.53805363	0.3078359	-0.5571189	-0.65247333	1.2847404	0.7205522	0.7099502	-0.13425186	-0.7531345	-0.11228338	0.41327554	-0.25053948	0.30160108	-1.0311488	0.110222846	-0.21828371	0.7305485	-0.5906918	-0.44408986	0.9308976	-0.5568545	0.010244548	-1.0478837	-0.17939606	-1.2070663	-0.5258947	0.7245729	0.34834877	-0.45290762	-0.13950242	0.32455355	-0.90084773	0.22444211	0.29278135	0.24030286	0.055772007	-0.18714692	0.0358693	-0.120611936	-0.75790894	-0.0612002	-0.38992625	1.1048651	-0.06035657	-0.5909505	-0.71342933	0.38932994	-0.15939993	0.081112325	0.30203968	0.071258485	0.115698144	-0.547667	0.70675063	-0.48423076	-0.97677505	-0.7516016	1.2605867	-0.23865804	1.0723195	-0.13700813	-0.5297968	-0.9125481	0.9637333	-0.42311662	-0.68245363	-0.24746843	0.6088643	-0.21322706	0.06799081	0.1468269	-0.45056096	-0.36551046	0.23891878	-1.2179492	-0.06738016	-1.0514803	0.12166482	-0.6590611	-0.1945984	0.06663045	-0.27367473	-0.32168028	0.018893793	-0.34284675	0.089910805	0.0063605458	-0.11420274	0.35752732	-0.052515298	0.20346549	0.19195977	0.37733752	-0.25494462	-0.28642434	-0.6089287	0.7064721	0.107508324	0.6339585	0.046966925	-0.1980479	0.40202177	0.32666016	-0.17306018	-0.22121279	-0.03947884	-0.4605244	-1.0568334	0.24455845	-0.10768073	0.52730596	-0.17797369	0.76310354	0.5368168	-1.02331	-0.56001776	0.9921805	0.027500361	0.47314835	-0.144604	0.30764025	0.1390494	0.825556	-0.2776047	1.1201465	0.6745001	0.8228679	-0.544616	-0.3285691	0.23350272	-0.47631893	-0.12946723	0.099810556	0.0052486956	-0.06961301	0.30840445	-0.46982604	-0.6103029	-0.097034626	0.2507239	0.13815913	-0.7967557	1.1632538	0.13652684	-0.38794336	-0.036763757	-0.08530999	0.2623027	0.2529059	0.45621145	-0.331648	-0.841288	-0.5170318	-0.16405967	0.15657106	0.6325002	1.2953409	0.65734744	-0.08668621	-0.5952028	-0.22379844	-0.8209553	-0.38460988	-0.46515703	0.7096799	0.8828417	1.087544	1.2303054	0.21115135	-0.09843519	0.65438485	-0.7524687	1.0410852	0.01737687	0.29631615	-0.8793151	-0.37844035	-1.1953796	-0.1031242	-0.3017358	0.30906513	-1.0283062	-0.360021	-1.1616179	0.70347035	0.49589968	-0.35859534	-0.051097512	-0.30187964	0.6923445	0.58474475	-0.25296676	-0.03410536	0.12278144	-0.15967569	0.1351899	-0.5342262	0.41978177	-0.3506502	0.47219104	0.37679344	-0.71181524	0.089406386	-0.3195318	-0.3096466	-0.026678577	0.7277831	-0.052054822	-0.83269614	-0.11822219	-0.5172417	0.40624642	-0.34726608	0.21145874	0.31474754	0.5909666	-0.33683115	-0.80383706	-0.50744796	-0.4332686	0.74916625	-0.19146049	-0.666821	0.032169342	-0.34921488	1.0036762	0.09303876	-0.02386836	-0.49636248	-0.2214252	-0.048008874	0.9238785	0.33572543	0.71125335	-0.23895016	-0.97753847	-0.4742797	-0.15396246	-0.02418214	-1.0818536	-0.37477505	-0.5795653	0.63289785	-0.7345293	-0.06047838	-0.487527	-0.47702247	0.13867986	-0.22920787	-0.2001011	-0.03748229	-0.028263986	0.08174457	-0.3740168	-0.2715072	-0.050401807	0.4861	0.4672164	-0.20153072	-0.17201455	0.55753005	0.9455695	-0.58339876	0.37485492	-0.8822759	-0.55999064	-0.557971	-0.8165455	0.10217255	0.14431138	-0.62931347	-0.6863142	-0.2836219	0.75280535	-0.49813098	1.1312362	0.08113851	0.49192905	-0.54031897	0.6418791	-0.066722274	0.45028934	-0.9838562	0.4610597	0.45582414	-0.8368006	-0.22903168	-0.036536247	-0.06380536	-0.04951772	-0.87931746	0.15065575	0.5093912	0.734027	0.7632492	0.6920273	0.5881591	-0.6431436	-0.0199458	-0.35402262	0.9293752	0.3742299	0.46075624	0.5069377	0.09785178	-0.68588096	0.51080644	-0.628191	-0.10863744	-0.049341314	0.4630345	0.6953415	-0.88929623	-0.046274662	-0.87904286	-0.5427767	-0.082339585	0.91054523	0.09744626	-0.33992445	0.4815134	-0.13334508	0.31942308	0.26798937	-0.14738315	-0.22789043	0.4942543	-0.084797524	-0.41071674	0.33555025	-0.2423796	0.39778626	0.4425333	0.3669388	0.07404873	0.25242338	-0.44123524	-0.36064437	-0.30765715	-0.08321515	0.7855289	0.42279494	0.44862118	-0.05696771	-0.15771988	0.69576645	-0.20516336	0.8523723	-0.32965237	0.7350533	0.613744	0.07628249	-0.24949017	-0.6608262	-1.2223766	-0.3947013	-1.0553224	-0.5666126	0.046865627	1.2886376	-0.044667497	-0.49554378	1.605534	0.10321608	1.0631098	0.31104046	0.49519637	0.41672814	0.6857478	-0.3335334	0.09696807	-0.19430327	0.45286983	0.9461336	-0.40861452	-0.37188953	1.422604	-0.46845293	0.59819	0.869235	-0.40481237	0.40795624	-0.29818183	-0.11121484	0.3692543	-0.059435435	0.40902516	-0.31149906	1.1738089	0.28592646	-0.3592027	0.69228	-0.25403705	1.1706109	-0.12029466	-0.295277	0.17156665	-0.36125988	0.17240353	0.5625661	0.7437947	-0.7474364	0.21936464	-0.8281175	-0.3738394	0.7548224	0.38379103	0.3703077	0.19068684	1.1718419	0.8068665	-0.56526953	0.055580854	0.31002796	0.08134876	0.14498897	0.3304002	-0.075628236	0.5334089	-0.88500464	0.29548785	0.45852602	0.02362565	0.11158042	-0.36978102	0.023293067	-1.298847	-0.50229836	-0.98520494	0.21589223	0.046168238	-0.31292734	0.76406014	0.043678418	0.029753089	-0.5156066	-0.3189181	-0.2381312	0.42778814	-0.23440492	0.068595305	0.10219446	-0.9515291	-0.0854509	-0.18233368	-0.095038384	-0.20812565	0.2434999	-0.61708504	-0.36281958	-0.34612107	-0.14088467	-0.07535359	0.6085801	-0.059862293	0.10890691	0.96771526	-0.82114613	0.045331217	-0.89088637	0.06784602	-0.38345546	-0.1336195	-0.1747857	0.16837567	-0.715892	0.184207	0.35337767	-0.09439092	-0.014059201	-0.18607348	0.78193915	-1.1106408	-0.021839917	0.8496105	-0.3496025	0.18871005	0.09229565	0.16834937	-0.42149192	-0.030179638	-0.2910285	0.17060286	0.30852687	-0.49626905	0.5886793	0.91644627	-0.6837366	0.49084637	-0.1792487	0.20131058	-0.50304675	-0.17359072	-0.21869689	-0.5219513	0.24862328	-0.25503716	-0.54127145	0.29997692	-0.2412215	-0.27680326	0.6915912	-1.0575223	0.40478182	0.010697179	0.081875354	-0.12015781	0.46538484	0.3323645	-0.32384664	-0.022043988	0.098070696	1.0199201	-0.261441	0.846574	0.08892112	-0.35861027	-0.3979483	-1.2219234	-0.91905254	-0.43058023	-0.58143705	0.20449549	1.0760064	-0.34742638	0.22352275	-0.10868797	-0.56931335	-0.550719	-0.43624496	-0.865198	0.9940735	0.37034565	0.010464542	0.43738526	-0.12525624	0.17087641	0.2126638	0.33033794	-1.2040677	0.66548437	-0.05057068	-0.6422328	-0.37098628	0.07858114	-0.9423635	0.37443757	-0.52713823	-0.009526074	0.24879837	0.38457632	0.5555471	-0.5309846	-0.923632	-0.086794585	0.4156891	0.08596143	0.78396	-0.1037669	0.50007653	-0.21782103	0.69658214	-1.0428898	-0.031894267	0.10216321	-0.8355197	0.09653102	-0.52767944	-0.6333494	0.2867322	0.28534144	-0.48678645	0.55128384	0.16999954	-0.24945755	-0.18288016	0.86518365	0.14302078	0.064519346	0.13304205	0.1636138	-0.3919962	-1.0633843	-0.3865566	-0.47816002	-0.43059152	-0.022006541	0.23396063	-0.22538406	0.8990245	-0.18877119	-0.042838983	-0.3831988	-0.99463165	0.25278562	-0.1720689	0.48937607	-0.11771414	0.17512062	0.0032982826	-0.35211265	0.54293436	-0.35784584	-0.0710258	-0.46533966	0.49890125	-1.4819051	-0.3049168	0.7088606	0.22646433	-1.1717081	-0.7780015	-0.26704293	-0.025914326	-0.41884136	0.0978567	0.66063493	-0.3979364	0.32961333	-0.6311207	1.1504441	-0.6792549	-0.607902	-0.7470703
G001536025	-0.99303466	0.21655679	0.11477879	-0.35882148	0.35417786	0.75158536	0.90681076	0.67381275	0.737675	0.8667703	-0.22883621	-1.1566265	-0.36702543	0.5899578	-0.0069140196	0.17422304	-0.25299472	-0.28107232	0.94334334	-0.11896536	-0.22524938	-0.00567428	-0.1825679	0.4245429	-0.28033304	-0.22059996	-0.8053628	1.639443	0.0027066693	0.03612359	0.23658097	-0.18190967	-0.10646212	0.66205156	-0.63183755	0.40885207	0.15129241	0.20779887	-0.31647792	0.38538468	-0.23772389	0.33578193	-0.24083535	-0.7682641	0.2912645	-0.95296156	0.07014629	-0.3783901	-0.27043536	-0.6003538	0.39324924	0.65122753	-0.7329128	0.16397858	-0.8465383	-0.34902647	-0.7763257	0.18110007	0.5308227	-0.30335313	-0.26065618	0.2875898	0.04057449	0.34596512	0.98182297	0.017108917	0.53645366	-0.2231901	0.36330682	0.4104148	-0.59885204	-0.1118176	0.26348093	0.27747402	-0.5190967	0.59621954	-1.4536337	0.4957752	0.06690426	-0.093270466	-0.33979052	-0.45231184	0.6028179	-0.23617467	-0.016489267	0.029938266	0.051442325	-0.059812948	0.8317809	0.42330745	0.22963987	-0.6008208	-0.65454525	-0.5979695	-0.012202084	0.83324075	0.18714756	0.4816193	-0.48075593	0.70836794	-0.19152749	-0.57636505	-0.054733478	0.20236555	-1.1564411	-0.16013359	0.32804507	-0.19105041	-0.91630673	-0.48772615	0.27291992	-0.68160766	0.6599076	0.37273324	-0.14720777	0.101172134	0.47277993	-0.22388396	0.44972947	-0.92661595	0.032279134	-1.2429924	-0.20555115	-0.59883916	-0.34294027	0.42910773	0.19250149	-0.7610976	-0.32148635	0.106571384	-0.19698043	0.12853509	0.5317311	0.20263356	-0.25377476	0.5005343	0.24310648	0.026281372	-0.2877581	-0.73012257	-0.41400316	1.2127177	-0.36274052	-0.40843695	0.35675153	-0.16584313	0.63584626	-0.09631604	-0.7036803	-0.8402467	-0.21951783	-0.956135	0.59386104	0.08491713	0.53840363	-0.4405835	0.41342366	0.5172285	0.44936937	0.835979	-0.26860863	-0.03934671	0.08485681	0.44079044	0.46574765	0.02943921	-0.58793795	-0.35487503	0.10702276	-0.2414043	0.0065938756	0.63509274	0.37692708	-0.47697014	-0.10226101	0.051286403	0.14856091	0.63495827	-0.6275013	-0.19199355	0.04556404	-0.636661	0.5335449	-0.08948533	-0.022193685	-0.37530217	-0.56099135	-0.018162102	-0.69705224	-0.13498646	-1.1804941	-0.1812532	0.9708505	-0.96457	-0.46279413	0.6142705	0.49192888	0.08122631	0.28215197	0.07870689	0.7208354	-0.37712538	-0.2950579	-0.26015547	-1.2320035	-0.65112793	-0.50879306	0.24934626	-0.026285917	-0.47149384	0.59676605	0.52072453	0.20638518	-0.5500294	-0.317935	0.078833565	0.048704028	0.29266492	0.031665817	0.5964022	0.29361773	0.18078285	-0.2051135	0.05571746	-0.7200347	0.16457154	-0.20551154	0.4669795	-0.2719689	-0.1474188	-0.030072927	-0.6808449	-0.42786828	-0.07477686	0.54223585	0.07127729	0.63071895	-0.7334262	-0.10738611	-0.1566737	0.19250084	-0.08168407	-0.81191325	0.63346386	0.6431309	0.2570019	0.4214618	-0.2567122	-0.731735	-0.38330325	-0.93897223	-0.5258559	-0.3477423	0.88004595	-0.515893	0.6071929	0.1264869	0.6566991	0.38218287	0.5336184	0.046429202	0.8279343	-0.38388965	-0.46621946	0.21137778	0.91272944	-0.28459197	-0.062428586	-0.39666653	-0.60798883	0.00093853474	0.07548664	-0.21003261	0.10913241	-0.75074255	0.66826534	-0.50101817	0.7867003	0.75470424	0.1612125	0.15381734	-0.24387527	1.1078961	0.45341116	-1.0431294	0.12303808	0.14938326	-0.045334585	-0.42474043	0.5078651	-0.21999928	-0.43758824	-0.01913236	-1.0604324	0.22847325	0.60896844	1.3021423	-0.01110968	-0.23933125	-0.20239432	0.53713167	0.034402944	0.24791321	0.2249433	0.5690181	0.23937711	0.1751141	0.24117678	-0.6418052	0.20122445	-0.3814271	0.6254919	0.44632408	0.08640827	-0.114535585	-0.18330516	0.053674757	-0.12721252	0.52676976	0.60449386	0.02555111	-0.5167144	0.32059908	1.3438898	-0.35116702	-0.6997184	0.35063422	-0.19074605	0.22410306	-0.065873384	0.3052656	-0.45100063	-0.1948731	-0.6276186	0.36896515	0.36509025	0.19894755	-0.06649324	0.2530196	0.8225697	-0.81977	-0.52794856	-0.26871288	0.8509593	0.72588706	-1.1042423	0.67815655	-0.21440238	0.49561316	-0.2881914	-0.05793561	-0.31973365	0.016947865	0.41635954	0.078289956	-0.39855656	0.44146645	-0.5803575	-0.055062577	-0.116956264	0.03212416	0.5160188	0.12341294	0.60482174	0.82478184	0.19309513	-0.4077251	-0.34754395	0.6947642	-0.011862889	-0.22709921	-0.27709427	0.020847373	-0.769118	0.36519915	-0.12229961	-0.66889036	-0.8224267	0.01726228	0.36589694	0.07594246	0.17604017	-0.17468695	-0.60566646	0.55840653	-0.29635608	-0.38336787	0.15727079	-0.23215595	0.018812686	0.68322504	-0.42323244	-0.30950567	-0.086209685	-1.1177721	0.21549968	-0.066427074	-0.47901922	-0.24402961	-0.6709284	-0.56280816	0.29835027	-0.5651748	-0.6664989	1.298204	0.70056045	0.72442293	-0.11208048	-0.7723235	-0.07604535	0.3921054	-0.21731131	0.2526067	-1.0318458	0.09159553	-0.23185435	0.7478256	-0.69258213	-0.3987733	0.8551581	-0.46286452	0.009634912	-1.0762477	-0.23716673	-1.2707996	-0.5608425	0.73067415	0.3471874	-0.4697252	-0.13350818	0.29459974	-0.8859454	0.194605	0.35890388	0.21126677	0.12140439	-0.1983749	0.056960225	-0.14636874	-0.75354373	-0.061534166	-0.3490072	1.0836003	-0.10558048	-0.59236085	-0.6318309	0.40113783	-0.13365757	0.06532237	0.34078494	0.040498704	0.16619827	-0.57920146	0.6886229	-0.42663264	-0.98926055	-0.7718819	1.2482616	-0.28717697	1.0483389	-0.16216609	-0.5519884	-0.92592466	0.99630094	-0.39513156	-0.706442	-0.18111117	0.55620027	-0.26177782	0.046491742	0.13800798	-0.44576114	-0.3371742	0.2677428	-1.2160914	-0.038245484	-1.0384375	0.15542486	-0.66460264	-0.13087483	0.057774097	-0.29837206	-0.31810343	-0.03251916	-0.3798194	0.11851367	0.06951577	-0.1052655	0.34657517	-0.025594808	0.20777023	0.25020096	0.42361808	-0.27867237	-0.25116682	-0.6293062	0.6692652	0.14217134	0.62134725	0.038939483	-0.16310018	0.42599416	0.31536984	-0.24333139	-0.25499788	0.026618928	-0.50199103	-1.0932989	0.25695774	-0.10836506	0.541459	-0.13429445	0.83424705	0.5521499	-1.0337884	-0.52393746	0.945483	0.01023072	0.527817	-0.15312786	0.2999903	0.15149142	0.85744834	-0.31835252	1.1039679	0.65341496	0.8047442	-0.49702477	-0.29770875	0.19041032	-0.5070412	-0.17528674	0.07875532	-0.038182177	-0.085629255	0.30109763	-0.51304084	-0.5930133	-0.09029766	0.21381773	0.19457367	-0.8152207	1.2035651	0.12114847	-0.36868978	-0.05339168	-0.06495257	0.2517453	0.20551184	0.44982326	-0.3021083	-0.82185376	-0.54514104	-0.163405	0.110203646	0.62843347	1.2496352	0.709017	-0.12078178	-0.5757545	-0.2122411	-0.79853624	-0.37700632	-0.4370355	0.72373456	0.91354537	1.1259915	1.2374665	0.24305278	-0.12109515	0.6700437	-0.76875347	1.0329618	0.032288462	0.32247135	-0.84975153	-0.4006207	-1.1558696	-0.05437781	-0.29327497	0.29362914	-1.0128107	-0.30026275	-1.1664536	0.70640224	0.47571686	-0.35406047	-0.061286777	-0.30785942	0.6827139	0.59394723	-0.2443721	-0.009927295	0.10610604	-0.16838494	0.12528495	-0.52545696	0.35703254	-0.29189906	0.4620973	0.39455807	-0.6830247	0.066886574	-0.32921028	-0.24452856	-0.040571004	0.7221285	-0.036472335	-0.7869824	-0.13743234	-0.542137	0.38671905	-0.3532291	0.16513681	0.32241023	0.59353805	-0.3306057	-0.8407031	-0.5098357	-0.43875977	0.7342003	-0.16056806	-0.6593761	-0.0035926178	-0.36395884	1.0002589	0.10848335	-0.044243917	-0.5078336	-0.21657059	-0.0140110105	0.9301253	0.31124508	0.7094782	-0.2441829	-0.96361846	-0.5000007	-0.17647943	0.027950317	-1.0840487	-0.3588157	-0.5750811	0.65886736	-0.7330971	-0.10841276	-0.5094583	-0.51820755	0.16744244	-0.24726549	-0.14408855	-0.035848618	0.03201945	0.099000156	-0.37366867	-0.29227322	-0.017094165	0.5228083	0.4674122	-0.21605808	-0.18065009	0.5556459	0.901353	-0.5834881	0.3908714	-0.90246886	-0.57052135	-0.5544772	-0.8780281	0.09814298	0.17086588	-0.59237033	-0.6316596	-0.19307916	0.74866205	-0.47397214	1.1160543	0.096149795	0.4452803	-0.58519495	0.6745603	-0.068473905	0.47104818	-1.0072708	0.46699333	0.42585462	-0.84833074	-0.21943912	-0.0774079	-0.055157825	-0.038536593	-0.8690207	0.20063993	0.48778817	0.77981955	0.7355741	0.6733558	0.63610125	-0.6013942	-0.047589317	-0.32796764	0.9250681	0.35556653	0.479301	0.48900858	0.051564515	-0.73459625	0.491907	-0.6332215	-0.06650858	-0.009650305	0.46841145	0.6985276	-0.8895347	-0.09149046	-0.8991728	-0.5049867	-0.14260656	0.9156321	0.093052074	-0.31929612	0.46539143	-0.10802266	0.32022637	0.27289307	-0.14775105	-0.2505679	0.458821	-0.077548236	-0.44887877	0.34594142	-0.27853116	0.3500612	0.4314715	0.36306238	0.11603853	0.16048896	-0.44865924	-0.38891077	-0.31281644	-0.112846985	0.7981681	0.43246126	0.5179793	-0.0675509	-0.17342362	0.61861897	-0.20326556	0.80756223	-0.35688895	0.7114354	0.61041826	0.042200416	-0.26875225	-0.59153426	-1.2532334	-0.4180562	-1.0465403	-0.6043514	0.10671854	1.2945685	-0.02548436	-0.56753683	1.5694027	0.07981828	1.0241544	0.31910792	0.4608943	0.40421116	0.76273584	-0.34793448	0.076481834	-0.1744438	0.40852258	0.9353242	-0.43889627	-0.37238663	1.4142345	-0.47787076	0.60590583	0.84387565	-0.39303523	0.4380471	-0.35818976	-0.14579523	0.30784917	-0.06217958	0.3963802	-0.284764	1.1526756	0.2659536	-0.3482719	0.755345	-0.30238473	1.1797386	-0.10987827	-0.28660512	0.16805041	-0.3779562	0.16769485	0.53441644	0.72661895	-0.72444755	0.2626074	-0.85490596	-0.32101598	0.71482503	0.34907335	0.35654444	0.17958696	1.1661618	0.7720433	-0.56416786	0.05552104	0.35739568	0.061344594	0.15003747	0.29233283	-0.07287571	0.51824975	-0.8508404	0.3193585	0.44667614	0.024830189	0.10676828	-0.38685554	0.015100058	-1.2812341	-0.48358986	-0.95587975	0.21650738	0.08945297	-0.31553388	0.7038112	0.034971178	0.005703211	-0.5365031	-0.36506227	-0.22117487	0.45921993	-0.25292787	0.14126201	0.08123046	-0.90548074	-0.103737995	-0.17809522	-0.081065446	-0.19129032	0.24626613	-0.5930692	-0.3708651	-0.37171525	-0.11700174	-0.041320965	0.55533636	-0.013190404	0.10071014	0.9587083	-0.85036325	0.09687417	-0.8632022	0.06982234	-0.34137675	-0.116818026	-0.1514439	0.14858586	-0.6949283	0.07887095	0.32092926	-0.10802153	-0.0034895241	-0.174335	0.7929301	-1.0893449	0.04128845	0.8079268	-0.34857175	0.19603413	0.059389204	0.18089616	-0.4226533	-0.02261933	-0.33023548	0.11790359	0.28310835	-0.48118818	0.6430712	0.87353206	-0.7114841	0.48776728	-0.1946111	0.219105	-0.5075572	-0.15206027	-0.24024907	-0.4561475	0.24896082	-0.2274527	-0.539069	0.310469	-0.20316029	-0.2957365	0.61003536	-1.058717	0.38666782	-0.023335688	0.05686596	-0.14488254	0.4445752	0.34179157	-0.288995	-0.052814618	0.14281976	0.9975164	-0.3111254	0.8443806	0.107708976	-0.32790375	-0.36917448	-1.17177	-0.9143526	-0.37253866	-0.56074923	0.20716763	1.1155436	-0.3149147	0.15939063	-0.105638295	-0.6130937	-0.58607244	-0.38821995	-0.8461175	0.999958	0.3418482	0.08364113	0.46442747	-0.11131108	0.23222767	0.22758605	0.3150801	-1.1631796	0.6460757	-0.09259847	-0.66518086	-0.3193112	0.08924369	-0.9535492	0.35436958	-0.53638554	-0.0040015876	0.29129866	0.360495	0.5740468	-0.50195366	-0.9135055	-0.09170595	0.4131791	0.051556207	0.75968856	-0.08314337	0.47394347	-0.21147737	0.6786778	-1.0092661	-0.016668007	0.14788908	-0.7986032	0.15655637	-0.52647865	-0.61931205	0.3039613	0.2712784	-0.5120754	0.57289875	0.115151405	-0.2867853	-0.22671647	0.86342335	0.15699694	0.10497248	0.17559838	0.21498898	-0.37372988	-0.9913601	-0.47186807	-0.48468268	-0.41303682	0.004171431	0.27568632	-0.28283378	0.8953974	-0.2345023	-0.006221568	-0.4100704	-0.9735567	0.22579595	-0.19692022	0.50647235	-0.044045404	0.21371683	-0.01951532	-0.4101397	0.5013672	-0.36077106	-0.02058743	-0.5120316	0.52216166	-1.5063412	-0.29145116	0.7227939	0.25680342	-1.1917714	-0.8029458	-0.25825202	0.0053491592	-0.44577983	0.1318695	0.6950161	-0.3888119	0.31885752	-0.6616467	1.123718	-0.67189777	-0.5859059	-0.70683205
G001804665	-0.5626221	0.01334624	0.079008564	-0.20537929	0.43298668	0.51543725	0.37262836	0.801692	0.31932673	0.83907795	-0.187031	-0.56464314	-0.32819086	0.59992856	0.14055131	-0.077545375	-0.32093927	0.046584636	0.8146826	0.4221537	-0.22485895	0.22281247	-0.0046744347	-0.11905476	-0.20533082	0.3165799	-0.7791731	1.2464027	-0.30801153	-0.11494565	0.28632933	-0.036287814	0.10768435	0.019822478	-0.69619703	0.5131304	0.550189	0.18784092	-0.03442222	0.43581396	-0.33565915	0.28843695	-0.0049883425	-0.27352008	0.24936925	-0.43874672	0.02644433	0.2698313	-0.7021537	-0.29610205	0.26803797	0.1869401	0.09985787	0.35719794	-0.29178756	-0.842535	-0.4508376	-0.13525	0.57525146	0.44229725	-0.0692724	0.09023526	0.2586516	0.28781918	0.71201384	0.7659899	0.12395802	-0.19954468	0.014537796	0.35328496	-0.39128953	0.29454798	0.25785905	0.30227664	-0.51490235	0.12843984	-1.111504	0.6415467	-0.36538154	-0.017874554	-0.27694628	-0.69993365	0.9274194	0.32979974	0.30883378	0.70189166	0.15528819	-0.3902023	0.80796516	0.2289088	0.38364393	-0.21485461	0.07777953	-0.31741843	-0.015738696	0.33495712	-0.517584	0.5067754	-0.8822687	0.23613699	-0.27322194	-0.48545182	0.2778953	0.6798506	-0.72200197	-0.7457851	0.5560903	0.018265814	-1.1149864	-0.8393128	-0.026413605	-0.38329464	0.63489115	0.37850052	-0.51015115	-0.25322074	0.59051126	-0.29133153	0.917156	-0.4990666	0.28159726	-1.2321889	-0.14284259	-0.44878498	-0.47217715	0.2533114	0.22482105	-0.37474442	-0.44200072	-0.053017467	-0.21357822	0.16051662	0.33244073	-0.13146001	-0.20273477	0.21398742	0.6105986	-0.2245106	-0.48169774	-0.95509624	-0.5024662	1.6335022	-0.61899793	-0.6323714	0.65368366	0.19079043	0.94452137	-0.46431243	-0.51120365	-0.91628206	0.20406157	-1.3214927	0.7366334	0.0015815198	0.7476362	0.09683946	0.41954458	0.6776983	0.017934628	0.73367417	-0.32522	-0.1240232	-0.0763716	0.4890813	0.29997188	0.1431557	-0.33541846	0.0661646	-0.21668282	-0.4256133	0.063799	0.7098223	0.50150555	-0.7961504	0.33493763	0.06629526	0.53185475	0.25462264	-0.6910353	-0.30110455	0.51648366	-0.20750627	0.17468148	-0.15513787	-0.3287308	0.08570126	-0.80294645	0.15427682	-0.46013325	-0.9765971	-1.1328444	0.13850088	0.6035412	-0.48463815	-1.0914094	0.7623478	0.6175348	0.0747495	0.065969504	0.2883373	0.4248369	0.36308235	0.5306585	-0.8814425	-0.33126265	-0.78663284	-0.43333983	0.3559232	0.06195222	-0.35525113	0.47966883	0.46200874	0.054753065	0.027585879	-0.5166532	0.03464119	0.03669682	-0.14816597	-0.0013161749	0.53676957	0.42648458	0.06599441	0.30842954	-0.19524653	-0.36970013	-0.20852831	-0.4229573	0.5595718	0.04044643	-0.18727082	0.030216485	-0.53981686	-0.86503494	-0.01855959	1.0320487	0.39010483	0.17128411	-0.93881965	0.050345346	-0.28885186	0.005432494	-0.0171884	-0.42401183	0.68174094	0.3601569	0.45470145	0.4810306	-0.42147678	-0.49468744	-0.7267434	-0.743116	-0.2794284	-0.49647656	0.8131609	-0.519272	0.2349234	-0.13348466	0.6486605	0.25680542	0.64561105	-0.04448861	0.7418397	0.050673053	-0.22185504	-0.30434364	0.40880153	-0.24120557	-0.07204915	-0.6113311	0.07845725	-0.22694227	0.6709954	-0.1916103	0.6016001	-0.5018151	0.31204563	-0.5999587	0.91841066	0.557939	-0.092637025	0.24955752	-0.20961863	0.7054132	-0.049877316	-1.2288353	-0.012900114	0.04753116	-0.21943134	-0.13897386	0.8482034	0.20849334	-0.46359625	-0.12421368	-1.0706469	0.12183599	0.25290966	1.2303752	-0.32148767	0.19613734	-0.51193154	-0.06657997	1.2514434	0.00704512	-0.2424144	0.6947304	0.3595754	0.26369178	-0.14451234	-0.50391984	0.49174953	-0.23200858	0.34653103	0.96095014	-0.043481097	-0.321011	-0.21375549	0.045065984	-0.21080805	0.03582239	0.6616223	0.28986934	-0.76736116	-0.26423067	1.4921706	-0.22943363	-1.1689501	0.2137239	0.1484103	0.31748465	-0.28693765	0.41931513	-0.6198457	-0.028215587	-0.7392893	0.4902631	0.8178454	0.12996717	-0.115555346	0.28170365	0.7966407	-0.42098284	-0.67861325	-0.23322222	0.47674787	1.177545	-1.1205703	0.96963346	-0.15389794	0.6249471	0.21029261	-0.23146394	0.22172755	-0.15689176	0.7998828	0.072972	-0.48342705	0.27063155	-0.17702438	-0.0007048696	-0.07044393	0.08980246	0.7909426	0.6246757	0.054049984	0.3142011	0.273795	-0.71612895	-0.49025205	0.36393553	-0.11362099	-0.35522687	-0.074794054	0.22554941	-0.6835516	0.24214791	-0.25768778	-0.3498578	-0.66918373	-0.085589826	0.079860404	0.07843953	0.15154907	-0.053309105	-0.49194402	0.25248796	-0.4447026	-0.89210945	-0.12264659	-0.25024596	0.5297936	0.7177706	-0.5585369	-0.34836656	-0.003953308	-0.9001938	0.09227982	-0.54865015	-0.35492843	-0.58681023	-0.9858167	-0.10273497	0.17053075	0.008767217	-1.0227765	1.1151175	0.09506814	1.0614585	0.22800612	-0.5724964	0.56593126	0.75669205	-0.78120685	0.37989795	-1.0087007	-0.08714616	0.0789084	0.75025403	-0.6172806	-0.41400626	0.17541073	-0.13704066	-0.015380144	-0.42442816	0.062455416	-1.1666963	-0.8545689	0.5351471	0.34975028	-0.95277643	-0.13499767	-0.11591921	-0.99355364	-0.20266718	0.82526875	0.254792	0.35137972	-0.3019535	0.22859395	-0.504823	-0.35252273	-0.51237005	-0.1265318	0.94986564	-0.4885859	-0.480987	-0.48717833	0.23718399	0.10469669	0.32696882	-0.11899331	-0.38266158	0.12229447	-0.35239032	0.44109854	-0.11647926	-0.81729096	-0.4983908	1.2772157	0.1774787	1.0160207	-0.5412853	-0.7709062	-0.8436768	1.3508213	-0.80326813	-0.41042256	-0.6531789	0.71335936	0.24881175	0.2386267	-0.31355536	-0.3482082	-0.33156154	0.2448956	-1.159424	-0.38010782	-0.6728029	0.2539279	-0.6278544	0.14828902	-0.4063817	-0.5602966	-0.38347942	0.24742857	0.1868591	0.19955751	-0.27997887	-0.29962194	0.5120647	-0.14854111	-0.08773245	0.650785	0.40566218	-1.0426599	0.006456077	-0.52263314	0.17333919	0.63159275	0.3860944	0.21304382	-0.11827485	0.01742442	-0.034968615	-0.6038468	0.18126227	0.23614576	0.036870025	-0.7381949	-0.41147298	-0.24317649	-0.3257525	-0.1589308	0.42347276	0.26147446	-0.8197124	-0.5086969	0.35645872	0.1168215	0.3992424	0.030874193	-0.22183384	0.27783376	0.35495636	-0.3977922	0.5638315	0.4119467	0.4165644	-0.23572874	0.16056186	0.30897257	-0.62243724	0.21973476	-0.25030446	-0.5117457	0.22230263	0.37566593	-0.29311717	-0.37352917	-0.11377405	0.06443626	0.27229422	-0.7578318	1.4041274	0.06455676	-0.7474316	-0.4091432	-0.24253216	0.46276462	0.28996223	0.07690835	-0.47361192	-0.69250023	0.09947166	-0.1170399	-0.17634779	0.44034415	1.3100678	0.4927982	-0.4533678	-0.42961204	-0.4153105	-0.5919635	-0.049307257	-0.82476777	0.6313309	0.27829036	0.72541153	0.5975696	0.034491226	0.010944724	0.9778859	-0.9657324	0.84890187	0.46476033	0.6033019	-0.84115	0.42926276	-1.0893952	-0.1725302	-0.08179283	0.10934299	-0.76488006	-0.30629918	-0.779286	0.72020763	0.40648764	-0.36684412	-0.5937438	-0.3252482	0.60574365	0.71064633	-0.31193405	0.09363006	0.06651804	-0.22088511	0.09745984	-0.0742503	0.21960849	0.17644039	0.093949765	0.3614454	-0.29600507	-0.21282275	-0.6526308	-0.2663797	0.27390873	0.62743026	-0.46480393	-0.7531292	0.27563363	-0.060608804	0.33019975	-0.103931904	-0.23973027	0.32326907	0.73761284	-0.62757593	-0.72668993	-0.21660644	-0.44344327	0.7897117	-0.124319166	-0.61974096	0.076058865	-0.51385015	0.9340024	-0.4179523	0.55185306	0.0528915	0.081870936	-0.028613567	0.889385	-0.07065812	0.43510345	-0.008979082	-0.78822696	-0.1275188	-0.62409115	0.014679432	-0.5337278	-0.083723634	-0.34019244	0.5074989	-0.08564535	-0.11587514	-0.1943892	-0.8664013	0.11821042	0.124173835	0.010626793	0.49574903	-0.0049261153	-0.25775036	-0.27023	-0.55438143	-0.61876845	0.46112335	0.5911708	0.002728492	-0.41487432	0.20347613	0.39011842	-0.5548234	-0.07465826	-0.74103355	-0.48264444	0.12979022	-0.70686233	0.08165023	0.30813354	-0.117715865	-0.5541526	-0.25043726	1.0157722	-0.68980837	0.63692063	-0.23695719	0.21291009	-0.5873169	0.5118026	-0.2501284	0.76265764	-0.8875487	0.27515486	0.7210616	-0.83465683	-0.50047934	0.4776414	0.20310023	-0.035561174	-0.9586287	0.26541483	-0.10310593	0.52988756	0.41443118	0.6596133	0.8036246	-0.79179	-0.40650028	-0.42281115	0.50711656	0.583254	0.37293088	0.45339176	0.33365798	-0.2903607	0.119205	-0.52173054	-0.55024004	0.051088706	-0.060417928	0.49168998	-0.3225418	-0.3432396	-1.229464	0.06687014	-0.15331978	0.8167728	-0.07493171	-0.06034384	0.20777874	0.19546008	0.5251185	0.42825946	0.24646352	-0.18310203	0.0671657	0.26673034	-0.8410342	0.35197827	-0.1602962	0.051126167	0.18462354	0.42888403	-0.10582678	-0.28120223	0.036944732	0.3106533	-0.017664954	-0.13885391	0.64529616	1.000087	-0.01296879	0.14495158	0.03647253	0.03722459	-0.5894697	0.8209615	-0.13528928	0.5417602	0.4349115	-0.0751614	-0.5203439	-0.19279796	-0.38878953	-0.48749933	-0.547982	-0.22172292	0.09790409	0.5860833	-0.34886575	-0.73370004	1.4041319	-0.27809918	0.80353224	0.32716393	0.3202006	0.25732598	0.8560843	-0.24903077	0.22810031	-0.13426848	0.4776123	0.68401647	-0.050971888	-0.16454309	1.4380227	-0.26251674	0.23503383	0.10452233	-0.059669733	0.26883504	-0.17198785	0.14630473	0.37424123	0.39978763	0.21725768	-0.5839329	0.8207736	0.1997659	-0.4079628	0.2958829	-0.049420923	0.9371239	0.0139994025	0.020489112	-0.059270043	-0.8674537	0.04374051	0.34804028	0.6306808	-0.004617095	-0.017877743	-0.45448905	-0.2978357	0.83948016	-0.11069277	0.26366293	-0.41984445	1.5027266	0.6171968	-0.75288206	0.28539565	0.29641238	0.25490397	0.38876903	-0.39444786	-0.4923859	0.78485966	-0.53988105	0.6067014	0.39752668	0.036021136	-0.31501442	-0.20748736	-0.010162592	-0.98014367	-0.23229474	-0.8764163	0.5465628	-0.1443764	-0.13217424	0.37881973	0.45309088	-0.23754524	-0.7147218	-0.6058315	-0.35843253	0.6426825	-0.30585498	0.034467768	-0.17893201	-1.1119547	0.1894801	-0.14894448	-0.20952475	-0.7480403	0.2115002	-0.41479307	0.24742256	-0.3664776	0.16747537	-0.44168833	0.5238906	0.09413989	0.4435786	0.50519776	-0.27825493	0.1102353	-0.48108166	0.21176171	-0.9057846	0.13637045	-0.15094689	0.5028166	-0.5172574	0.022445604	0.62084174	0.6901956	0.26077417	-0.31708613	0.35011923	-0.6080135	0.25339043	-0.046346962	0.18021974	0.48597616	0.09707421	0.36052287	-0.110076204	-0.8021058	0.059003547	-0.39445245	0.2871986	0.06444666	0.14873827	0.2634575	-0.24767911	0.5283224	0.022422716	0.41342312	-0.2879703	0.30262122	0.2999876	0.041413978	0.2711348	0.024207413	0.1484727	-0.044827834	-0.014835596	-0.19821782	0.3567599	-0.48741117	0.3953663	-0.1816441	-0.024145663	-0.1846239	0.78902745	0.97826755	-0.25599495	0.24643514	0.15436639	0.72541285	0.37651867	1.2061727	-0.24902298	-0.4121851	-0.2896539	-0.54316705	-0.7418729	-0.30235592	-0.9374792	-0.40431693	1.0757787	-0.63565063	0.05292988	-0.11387557	-0.56184244	-0.85365534	-1.028416	-0.8515693	0.7327574	0.5316434	-0.61748075	0.15041873	0.24470463	0.22377145	0.36508343	0.33936208	-0.890541	0.28179896	0.11496025	-0.42664933	0.1783498	0.048850596	-0.5416336	0.70080936	-0.33940315	0.08912262	0.2785623	0.17208076	0.58193505	-0.41825444	-0.9891618	-0.17605652	0.15172306	0.10062796	0.49114013	-0.46851844	0.38723135	-0.13027851	0.5132643	-0.66444194	0.16021636	0.41281134	-0.64978683	0.021690965	-0.59810036	-0.46186376	0.6289713	0.42763412	-0.91922396	0.40281054	-0.06685169	0.09644512	-0.09254086	0.7312	0.7049155	-0.40584648	0.3882672	0.22463515	-0.4628963	-0.80650246	-0.34261593	-1.3100698	0.34821892	-0.30512118	-0.32036358	-0.5494208	0.49951732	-0.08041464	-0.0086325705	0.11506601	-0.93702906	0.09670642	-0.47703594	0.29366463	-0.26331347	0.47647488	0.119015366	-1.0609314	0.2257658	-0.5822067	-0.3927477	-0.45915353	0.25609553	-1.2472239	-0.23337232	0.15058991	0.6059669	-0.85177624	-0.40675858	0.44158393	0.12653688	-0.69253075	0.45228294	0.07014215	-0.22465514	0.6651776	-0.78493893	0.4263052	-0.6221179	-0.75197864	-0.50195646
G000375825	-0.50381076	0.18069242	-0.36929372	-0.11232886	0.46887732	0.88238806	0.88231933	0.9185523	0.42304888	0.52814215	0.13368893	-0.6493574	-0.65368086	0.5777587	-0.15952998	-0.12973243	-0.42084396	-0.3896528	0.19986185	0.29188573	0.0113226175	-0.021599144	0.11047423	0.65390074	-0.09867847	0.61064106	-0.39692235	1.0400455	-0.0898173	-0.11338644	0.136495	0.30963662	0.20016891	0.28306088	-0.16562143	0.3235085	0.1737901	0.5859515	-0.06814456	0.6239357	-0.055446103	-0.24342185	-0.22836962	-0.39148718	0.24998803	-0.25596768	-0.32495093	0.015236571	-1.018429	-0.6552293	0.2536414	-0.11316011	-0.27849331	0.34191114	-0.110021025	-0.4417101	-0.6672652	-0.2518102	0.5644326	0.27928734	-0.25086483	0.15786073	0.1887306	-0.08928806	0.49926645	0.93959343	0.646207	-0.42207536	0.28795183	0.24803275	-0.21498066	-0.05733069	0.64424884	-0.11153458	-0.08626863	0.19860604	-0.70744747	0.79788506	-0.38169947	-0.2541107	-0.31751117	-0.20876366	0.92611325	0.34551618	0.5196297	0.2285484	0.5696504	-0.5163283	0.8252209	-0.0024912357	0.36859924	-0.41986918	-0.09877422	-0.11952001	0.024335876	0.5914403	0.00256712	0.36666334	-0.36744416	0.22623797	-0.26823416	-0.6991477	0.09785106	0.09033096	-0.7840334	-0.59042096	-0.00052148104	-0.16910331	-1.1429888	-1.0142395	0.049471512	-0.057632226	0.68216735	0.4027134	-0.036572546	-0.55651706	0.71223044	-0.5105301	1.132151	-0.5379895	0.053784892	-0.6026238	-0.61661375	-0.72506523	0.056187466	0.2590738	0.1825426	0.2608057	-0.19888191	-0.24090068	-0.15089291	-0.015431702	0.19773856	0.06308577	-0.08243258	0.2580999	0.40642235	-0.050822202	0.13579503	-0.6123773	-0.2916925	1.1519847	-0.6061405	-0.48998493	0.27724275	-0.18961556	0.6052972	-0.068642974	-0.6064154	-0.6366787	-0.051198743	-0.83589625	0.80194396	0.5827608	0.54537666	0.21670099	0.17042942	0.25867474	0.54742444	0.60552144	-0.3574866	0.21961838	0.08414619	0.19848692	-0.092082724	0.34412092	-0.57934356	-0.2601593	-0.058565646	-0.7562088	0.08223517	1.1916884	0.48348957	-0.81658256	0.16184166	0.15253302	0.3817618	0.30977383	-0.57307047	-0.100963235	0.920007	-0.4265349	0.21512827	0.102711745	0.40962112	-0.194112	-0.76251376	0.07997587	-0.51108843	0.0013914853	-0.78290206	-0.03272204	1.2698244	-0.67647696	-1.0511672	0.79317343	0.81234705	0.09074144	0.25294968	0.15762225	0.011123419	0.5559625	0.19269201	-0.19342029	-0.42940658	-0.8677296	-0.22410388	0.78125834	0.32325	-1.0602312	0.080258586	0.2605495	-0.1462585	0.023501974	-0.16833073	-0.2851454	0.5255782	0.008431137	-0.15986261	0.5494732	0.69447964	-0.022896022	-0.044542193	-0.17210741	-0.5562209	0.15301098	-0.06907063	0.6608307	0.039094508	-0.2229492	0.5102346	-0.41576156	-0.7377986	-0.4747392	0.74825466	-0.1551756	0.37176347	-0.34212562	0.0920662	-0.5415621	0.3400279	-0.04157318	-0.5387872	0.4861717	0.49131775	0.2893774	0.37671778	-0.5210089	-0.04630042	-0.82395774	-0.66686785	-0.7344809	-0.46562964	0.26400667	-0.03490579	0.6531693	-0.17772955	0.093565114	0.37931007	0.5650171	-0.19194326	0.48293597	-0.19319719	-0.15849423	-0.0996569	0.9555887	-0.1638137	-0.2582424	-0.12644733	0.108872175	-0.41917247	0.49611178	0.0759429	0.18018883	-0.12704909	0.2855303	-0.866914	0.8013959	0.7611234	-0.040990576	0.27913606	0.12200174	0.4814087	0.21986037	-0.32599366	-0.12161064	0.16722876	-0.46133602	0.22149798	0.7642594	-0.031005666	-0.59659773	-0.06638406	-0.4739643	-0.26985282	0.40083325	1.1458036	-0.27829733	0.26221204	-0.2969146	0.0055480897	0.6275329	0.19640282	-0.18864878	0.14645836	-0.015655719	0.006585166	0.074115574	-0.78773236	0.38578287	0.04947316	-0.10599953	0.48463112	-0.38721606	0.3710181	-0.43731076	-0.10645524	-0.04934922	0.4860158	-0.008400172	0.3646917	-0.36289024	0.14887127	0.66341406	-0.29400373	-0.74324876	0.34564346	0.34954834	0.2873605	-0.33421683	0.60523695	-0.2813557	-0.547966	-0.74207056	0.5660376	0.71584547	-0.07620228	0.2985034	0.5261404	0.7627642	-0.6766863	-0.44644156	-0.47925377	1.0133636	0.44597548	-0.8063944	0.66056633	0.4579541	0.48441118	0.6465658	-0.6309954	0.012678474	0.0917298	0.13498577	-0.044703066	-0.47954234	0.32724518	-0.5897333	0.3087538	0.17224452	0.18515238	0.97477585	0.66439116	0.1375261	0.4209044	-0.14401327	-0.085063055	-0.1805354	0.52628016	0.034740955	-0.07880178	-0.3671382	-0.22557384	-0.8278047	-0.0073905587	-0.50333804	-0.086937785	-0.65536034	0.19756877	0.21285754	0.34682393	0.37851942	0.09262708	-0.09121087	0.67164016	-0.27472046	-0.7283224	0.17441632	-0.104044765	0.23535198	0.6577119	-0.4429015	-0.6883544	0.20052716	-0.6470078	0.15226531	-0.24897009	-0.37948102	-0.21491536	-0.42329788	-0.3024051	-0.05377662	-0.37405726	-0.5331423	1.1503338	0.07013816	0.025460072	0.042608827	-0.4054363	0.4539643	0.33870313	-0.7216148	-0.17513068	-0.6207819	-0.09134859	0.053422853	0.11392932	-0.5397638	-0.060453884	0.34600016	-0.14540574	-0.24679454	-0.310193	-0.25400987	-1.0916045	-0.64650875	0.88078976	0.49315757	-0.78206587	0.021201879	-0.045387447	-0.42939323	-0.16457985	0.43035448	-0.027182698	0.098953635	0.4450954	0.03617686	-0.3658238	0.004408255	-0.10306966	0.0106401	0.35439196	0.12836361	-0.46632162	-0.50283796	0.11778113	0.404581	0.34481502	-0.22046816	-0.8371365	0.066631906	-0.45006764	0.08458683	-0.32395178	-1.2202966	-0.46300662	1.2904406	0.32708624	0.8869483	-0.23408608	-0.9241655	-0.25830856	1.2970464	-1.1006649	-0.28155607	-0.4216265	0.31890702	0.16320094	0.48911342	-0.24027398	-0.29859832	-0.01935584	0.2318295	-1.0835357	0.19431293	-0.46629483	-0.06621605	-0.22521617	0.3848407	-0.4273902	-0.47033268	-0.20446393	0.08243585	-0.031829394	0.06258607	0.15427	-0.11460978	0.39099845	-0.27423152	-0.29230174	0.12472054	0.23367548	-0.54342693	0.017360106	-0.52789736	-0.098175555	0.48327196	0.6167114	-0.2721154	-0.036505327	-0.24868725	0.40137035	-0.38663644	-0.12942854	-0.048418567	-0.23907194	-0.6993318	-0.07975486	0.18448474	-0.16345567	-0.089870155	0.67464584	0.23290452	-0.6095938	-0.2664775	0.82098794	-0.015001759	0.24625744	-0.24524865	0.16177033	0.1631358	0.58918256	-0.30002102	0.68683106	0.81381565	0.7520284	0.0025570095	0.29020473	0.3517323	-0.75618315	0.29364726	0.26936322	-0.09306693	0.097845	0.4196347	-0.40296465	-0.5014002	0.22264913	-0.15861912	0.47339302	-0.45029017	1.4130754	0.32640722	-0.62900716	-0.21513209	0.11892081	0.22222371	0.2657706	-0.038889676	-0.3538233	-0.31437665	-0.46990722	-0.25654507	0.22269404	0.7294431	0.77926093	0.75304365	-0.2963587	-0.3612598	-0.37383187	-0.5108526	-0.34011927	-0.45970428	1.2729654	0.4953062	0.91427165	1.0318472	-0.082430005	0.14982325	0.4563464	-0.9893774	0.38480794	-0.021687843	0.7976746	-0.6571382	-0.15172264	-0.90212107	0.26687926	-0.030224815	-0.27338463	-0.4297558	0.028474346	-1.1596394	1.0842416	0.19974844	-0.4869658	-0.6555277	-0.3584105	0.54602087	1.0960331	-0.39238197	0.06452059	0.021522582	-0.4856226	0.46103537	-0.36385813	0.34510988	0.14182234	-0.01757855	0.21707112	-0.6558395	-0.17892252	-1.0501616	0.078737885	-0.021120444	0.9235037	0.21466054	-0.5108174	0.22301605	-0.033617347	-0.21108565	-0.03181851	-0.4445717	0.38969058	0.970711	-0.4692753	-0.34675306	-0.58815277	-0.5141634	0.37211338	-0.20932066	-0.22696652	0.21105492	-0.2502548	0.9044564	-0.6314816	0.27139127	-0.32949215	0.21595833	0.5253143	0.5676184	0.31605953	0.55450904	-0.2070679	-0.7382258	-0.13764766	-0.11783224	0.7465583	-0.4291796	-0.09897861	-0.5759356	-0.19993378	-0.08201043	-0.34003937	-0.47412157	-0.289002	0.11925578	-0.09784812	-0.411644	0.37132215	-0.17758071	-0.0352986	-0.3005334	-0.31515378	-0.44901994	0.2724113	0.6827142	0.61598814	-0.49466646	0.16618761	0.24049596	-0.299428	0.39746872	-0.38458273	-0.451199	-0.37556046	-1.1212072	-0.44963664	0.4168176	-0.2662904	-0.21887213	-0.18810776	0.77299845	-0.2935463	0.85140485	0.4228089	0.42105782	-0.32623944	0.3701655	0.07478027	0.5320618	-0.69336456	0.99055064	0.36448038	-0.84132576	-0.38683578	0.03942519	0.15424827	0.26106203	-1.33214	0.4782228	0.23714834	0.36004683	0.5949586	0.9750377	0.64596033	-0.81039155	0.03596798	-0.24757962	0.3421843	0.15422253	0.06108588	0.24780887	-0.044513375	0.015276447	-0.12917173	-0.21154493	-0.38668087	0.18239528	0.31028083	0.4361931	-0.33859855	-0.20348413	-0.87905806	-0.059494507	-0.1545999	0.6320989	0.2650745	0.011542976	0.33807105	-0.019566268	0.34918624	-0.10382262	0.2705714	-0.604691	-0.088111326	-0.24928692	-0.5740143	-0.04673767	-0.6662803	-0.032381304	-0.21392366	0.2705247	0.7921534	-0.37866077	-0.24937719	-0.092726424	-0.5564168	-0.055228114	0.54015017	0.58749604	0.2782536	0.15589571	0.046477735	0.15227413	-0.6628843	0.1804271	-0.10423556	0.32859313	0.44670826	-0.16477904	-0.74573183	-0.02422294	-1.0032239	-0.011544928	-0.39491692	-0.6143366	0.14627554	0.623078	-0.23645507	-0.65712476	1.0757697	0.22813727	0.6149945	-0.174877	0.53260124	0.47211754	0.862321	0.13318068	0.11345586	0.09979409	0.57541215	0.5840623	-0.22603479	-0.44182068	1.311282	-0.635028	0.73057485	0.3680523	0.1064149	0.55601513	-0.5712863	0.35827813	0.42951685	-0.24179539	0.15450531	-0.51177704	0.34391782	0.3280924	-0.31911346	0.5705204	-0.05719979	0.33985227	0.2942465	-0.083481655	-0.048458017	-0.6233781	0.15160817	0.11240319	1.0807546	-0.64972097	-0.07775396	-1.2175007	-0.12876424	0.4052257	-0.13966608	0.2653385	-0.0018316433	0.7051917	0.28454852	-0.51058185	-0.019978076	0.25985295	0.06794803	0.00021374226	-0.045081854	-0.305834	0.5306783	-0.8152394	0.38649893	0.46935472	0.23578182	-0.28381452	-0.33550048	0.03855139	-0.86576277	-0.3261053	-0.81562877	0.35372353	0.025075406	-0.2790236	0.57959247	0.24486259	-0.83089036	-0.8935403	-0.5056273	0.03140132	0.85354906	-0.16106172	-0.06257537	-0.19846198	-1.1095393	-0.02439855	0.27218083	0.18389133	-0.3717643	0.5660734	-0.27453345	0.08761747	-0.33464974	0.26336458	-0.3709338	0.3868753	-0.038023762	0.30518115	0.6543294	-0.7062399	0.4005748	-0.39831567	0.36917675	-0.18982221	0.2538067	0.0615263	0.33167517	-0.03789042	0.12093264	0.4877442	0.5555022	0.20588027	-0.37501746	0.96910095	-0.677932	0.49956033	0.28663185	0.03527813	0.5006219	0.25073934	0.19168492	0.069845915	-0.3396347	-0.40858805	-0.26243305	-0.0855446	-0.31197983	0.6252242	0.41527343	-0.39783728	0.55212677	0.049858183	0.0038876832	-0.26231197	-0.36520022	-0.091072775	-0.2613464	0.039943427	0.07881129	-0.41540945	0.21009994	0.8699672	-0.5660298	0.3831704	-0.036981754	0.0071063414	0.006016612	0.009237409	-0.043291822	0.60140777	0.86490345	0.1537564	0.54695773	0.13076662	0.67661977	-0.087949425	1.2628362	-0.3087958	-0.46108884	-0.41659963	-0.69338155	-0.6020656	0.051306054	-0.8024378	-0.3189975	0.8385398	-0.35990363	0.21642995	-0.026896715	-0.9114794	-0.69640917	-1.1583358	-0.58479404	0.66454643	-0.09130761	-0.113411516	0.37398863	0.10920122	0.558673	0.20573008	0.27135652	-0.69991815	0.886389	0.2125839	-0.29352224	-0.13032661	-0.42463633	-0.92683274	0.13476904	-0.7533269	0.011264652	-0.2000213	0.114996195	0.418417	-0.4664703	-1.0399851	-0.23783828	0.17008659	0.46240872	0.3861069	-0.03737554	-0.16647717	-0.79870534	0.7140474	-0.72620225	0.30684578	0.11761111	-0.33041865	0.20964137	-0.5614081	-0.65658736	0.021080673	0.50148904	-0.28876314	0.5242662	0.2980814	-0.036547787	0.029569745	0.8137538	0.1241418	-0.27645236	0.27603814	0.2626161	0.17654932	-0.6189738	-0.2134588	-0.49889857	0.22181964	-0.36509264	-0.24877092	0.02855134	0.4075948	-0.6012991	0.03268046	-0.12287444	-0.5224209	-0.013250381	-0.48347938	-0.2873215	-0.2735393	0.23649244	-0.4026029	-0.6805601	-0.074290335	0.06288791	-0.30128586	-0.014494121	0.13041776	-1.3349478	-0.29815906	0.6574394	0.35782158	-0.7840703	-0.17166743	-0.3257712	0.13921152	-0.4951769	0.56381243	0.3445475	-0.5870305	0.37197012	-0.7666371	0.05935044	-0.60330933	-0.56236106	-0.1539481
G001872685	-0.52612644	-0.3036365	-0.044683836	-0.10223215	0.18863133	0.6059795	0.7065242	0.5236603	0.28773016	0.7674837	0.11322893	-0.5358538	-0.10773247	0.46379256	-0.09171964	0.38814253	-0.73790556	-0.7724445	0.21651466	0.13866448	0.14204179	0.016401172	0.09610306	0.4284799	-0.12014164	0.40585503	-0.2953838	0.9923018	-0.3735729	-0.18719366	0.10616696	0.2809652	0.6378084	-0.15069446	-0.65906376	-0.016891986	-0.29021847	1.012615	-0.12429915	0.10870528	-0.06647737	0.008082807	-0.30569685	-0.7039918	0.32658565	-0.33799905	-0.23521742	0.25464565	-0.22127616	0.081926584	0.116100535	-0.26865846	-0.41324085	-0.10240385	-0.11510295	-0.26573026	-0.563907	0.042934477	0.10575235	-0.028124854	-0.34056535	0.21395186	0.10318382	0.44232285	0.83483106	0.50868785	0.2875958	0.036015034	0.4849196	-0.056945562	-0.3287143	0.028363712	0.7665682	0.14342235	-0.16789381	-0.016436651	-0.7390266	0.68855774	0.044529587	-0.4412482	-0.3307563	-0.5029047	0.66515213	0.16745791	-0.035185784	0.43808526	0.6484096	-0.5020258	0.80967796	-0.417387	0.46709743	-0.21462137	-0.053216875	-0.06565115	0.07064533	0.66436386	0.02036801	0.08371486	-0.38676998	-0.1363854	0.32009986	-0.58723056	0.1118498	-0.11257321	-0.80348986	-0.643358	0.21633711	-0.24310204	-0.9122746	-1.0194677	0.37044287	-0.7098085	0.3543673	0.9520104	0.22801757	-0.25810176	0.58410794	-0.11007257	1.0369322	-0.45005086	-0.10744093	-0.5718247	-0.83471036	-0.5063818	0.3014156	0.2626003	0.34793293	0.15874839	-0.0061478764	-0.13720402	-0.04734306	0.16366334	0.11293826	0.58084285	-0.12973773	0.6945212	0.12500131	0.34945378	-0.32620674	-0.25833106	-0.6001717	1.281524	-0.72752136	-0.41029167	0.2831183	0.017854601	0.42189193	0.1990053	-0.40181804	-0.4625406	-0.20267786	-0.81576544	0.6255964	0.29442284	0.12966964	-0.29903704	0.2772744	0.22195347	0.17179507	0.99962896	0.06252078	0.2813306	0.04592733	0.43262687	0.4099989	0.07756923	-0.6271399	0.13935074	0.0019145012	-0.24063635	0.40826428	0.7612607	0.33202615	-0.4879859	0.27033272	0.008542202	0.18555743	0.30730128	-0.44662276	-0.19394541	0.50063497	-0.110699065	-0.066524945	-0.029542271	0.098529965	-0.36244476	-0.24749361	0.1398432	-0.15506774	0.06009475	-0.76492035	0.08106914	0.6977743	-0.28201506	-0.97746927	0.5441363	0.28687721	0.15767187	0.38768256	0.016594857	0.3268636	-0.1392745	0.09712608	-0.09803449	-0.22507223	-0.4234028	-0.4427374	0.5592047	0.1344841	-0.5224651	0.05632107	0.34510487	0.10083035	-0.2855069	0.09466761	-0.07360348	0.45304018	-0.20868555	-0.11242807	0.11222087	0.5733581	-0.055130094	-0.36647758	0.03113233	-0.60864794	-0.11124611	-0.006613873	0.5946202	0.07653491	0.17181951	-0.29034376	-0.55999637	-0.40485787	-0.19439006	0.70525444	0.3660895	0.52174175	-0.16969034	0.22063944	-0.05854702	-0.014569476	0.011138678	-0.46390057	0.007614374	0.5480605	0.22649333	0.10510412	-0.025090158	-0.39782795	-0.3811554	-0.41274422	-1.0488985	-1.0185938	-0.059768602	0.079842284	0.31319603	-0.41179818	0.41146183	-0.4144718	0.030649327	0.047323734	0.26632822	-0.168142	0.26247346	0.4412093	0.4208433	0.11128166	-0.2995624	-0.2247916	-0.42874944	-0.75183964	-0.039913367	-0.038729742	0.053038217	-0.37873673	0.2202787	-1.1664327	0.5280577	0.45939437	-0.21317837	0.017865783	-0.033066794	0.42916876	-0.26759434	-0.077136576	0.07189271	0.30279326	-0.5590241	-0.24595994	0.50171286	-0.11009094	-0.4649015	0.13515323	0.17014453	-0.25860518	0.5169976	0.73962677	-0.44316298	-0.08532276	-0.39241666	0.078189015	0.43306714	-0.2491835	-0.21882305	-0.391698	-0.061100915	-0.08434101	0.06939061	-0.48372096	0.11505628	0.2293671	0.1243956	0.1913461	0.05184029	0.004597351	-0.82231176	0.11866662	-0.08549131	0.38628197	0.4245959	-0.010913506	-0.22871912	0.23551542	0.42187363	-0.13182351	-0.54835266	-0.35153168	-0.09969488	0.18760827	0.05287507	0.18933122	-0.6367681	-0.3959688	-0.58637697	-0.09106852	0.4684952	0.09710999	0.21625975	0.4296177	0.6894373	-0.5626219	-0.43019253	-0.004280474	1.1125734	0.5078776	-0.3638109	0.57806504	0.32068336	0.44147456	0.17620622	-0.4075912	-0.058620885	0.15894306	-0.18241368	-0.4554551	-0.39136007	0.59775686	-0.3279396	-0.18793195	0.3455904	0.31491673	0.9547033	0.44084162	-0.50272655	0.67758036	0.01952869	0.17003652	0.013301838	0.52606374	-0.21923652	0.10498141	-0.5343456	-0.09307535	-0.60953444	-0.42405882	-0.18580791	0.41525573	-0.13999204	0.5024086	0.0083436	0.24351358	0.47258055	0.4047447	-0.306276	0.37402636	-0.39273924	-0.5694884	-0.06106759	0.15598007	0.21502538	0.058785185	-0.4049894	-0.7502757	0.44455886	-0.30755734	-0.15066302	-0.12074216	-0.9929018	-0.18262732	-0.04689485	-0.08592243	-0.08691517	-0.8114033	-0.45740724	0.55999374	-0.18157825	-0.4148277	-0.13306794	-0.7206467	0.12086539	-0.1103141	-0.54082316	0.44498432	-0.32899997	-0.36564124	0.41191566	0.09875679	-0.5979948	-0.42316705	0.21645898	-0.2905531	-0.20440587	-0.17344983	-0.1407302	-0.4716486	-0.2728262	0.67409295	0.027529359	-0.2837926	-0.46984357	-0.057505324	-0.575526	0.17749453	0.4445361	0.041666016	0.38053733	0.60773087	-0.36219928	-0.67887354	-0.1135596	-0.29698977	0.255288	0.6985601	0.18299936	-0.5983702	-0.32806534	-0.052161068	0.08057803	0.39867148	0.03299968	0.07623826	0.30751526	-0.28851777	0.2686762	-0.12168281	-0.50324154	-0.17607388	1.0190458	-0.2080359	0.8879254	0.17293623	-0.91281825	-0.2551249	1.0642227	-0.6824755	-0.25169542	-0.120932326	-0.22406521	0.33350527	0.5636967	0.28675506	-0.2452452	0.17737442	0.28681862	-0.7405504	0.6255538	-0.34657237	0.7211448	-0.1286638	0.39819133	-0.12342113	-0.71765804	-0.342186	-0.24653107	0.02710063	0.19701335	0.10565658	-0.15782541	-0.591216	-0.2622854	-0.33626533	-0.2933492	0.38941374	-0.37580752	0.10773638	-0.13190702	0.03708893	-0.04703465	0.42691636	0.19664252	0.11091891	-0.29950976	0.4496439	-0.14575768	0.04678601	-0.53936	-0.14372706	-0.40433246	0.14397433	-0.2459605	0.0689199	0.12566023	0.7872788	0.22363171	-0.31291568	0.10530794	0.58085144	0.31185544	0.13442846	-0.1265359	0.18019682	0.45179033	0.9258956	-0.47478843	0.79563123	0.7403015	0.55091816	0.016254485	0.087222144	0.50693506	-0.71793544	0.33488834	0.5000618	-0.3263126	0.48720592	0.025612429	-0.2805548	-0.7811909	0.19011411	-0.37921467	0.5792584	-0.630494	1.2090023	0.3013454	-0.060906943	-0.34877795	-0.034418046	0.121349424	0.0653321	0.016727626	0.1726171	-0.09557578	-0.3612762	0.42991108	0.32721806	0.02348189	0.4258503	0.24033897	0.059807688	-0.30219877	-0.14403123	-0.21226458	-0.15125382	-0.38187778	0.664716	0.73196715	0.7000684	0.7860192	0.054102123	-0.2963869	0.54684854	-0.7680179	0.18725368	-0.35404786	0.6654746	-0.10655646	-0.05410227	-0.8814707	0.4358133	-0.0794293	-0.21523568	-0.2849965	0.14709722	-0.82387596	0.81381583	-0.14430046	-0.12363371	-0.24069245	-0.05832418	0.38786113	0.82489264	-0.24151832	0.20889762	0.08111653	-0.2879109	0.54021066	-0.14400157	-0.10617648	-0.4494678	-0.21893452	0.18270747	0.16902046	0.040206775	-0.3613933	0.039268225	-0.3051296	1.0441256	0.07964766	-0.25749293	0.28865844	0.27421546	-0.05746992	0.2743408	-0.2826629	-0.033344805	0.9402368	-0.9322058	-0.47271213	-0.39834553	-0.69973725	0.75326324	0.035134062	-0.31365898	0.07009083	-0.35579452	0.6341877	-0.42535484	0.028304882	0.08683784	0.07914333	0.7488369	0.36239395	0.35925388	0.42354015	-0.19104998	-0.35547158	-0.37681615	-0.58287746	0.4219539	0.046655934	0.058057338	-0.030520882	-0.35335338	0.10784511	0.7881278	0.107113674	-0.570814	-0.2756452	-0.21169806	-0.60683393	0.5823177	-0.25520265	-0.12697907	-0.20082337	-0.46509978	-0.64603823	0.27643216	0.61837417	0.11766129	-0.9348233	0.28977388	0.19990154	-0.3775291	0.5529331	0.18393558	-0.5287171	-0.22984271	-0.90200615	-0.26543307	0.31673086	-0.11460112	-0.24408	-0.21858329	0.8032163	-0.17983536	0.5019634	0.8535893	0.20857644	-0.45634097	0.71296996	0.28421053	0.761879	-0.37065476	0.43024966	0.3782271	-0.57559854	-0.22770725	-0.09877997	0.20425142	0.38574132	-0.39362293	0.20946822	0.051774696	0.33118218	0.48520938	0.5044427	0.12588938	-0.4017852	0.15158793	-0.1875302	0.025182918	0.059823662	-0.017574996	0.04687486	-0.31799355	0.18756147	-0.1021432	-0.21608137	-0.0021270681	-0.15135756	0.4200925	0.4756726	-0.09329733	-0.58154273	-0.5133044	0.3243057	-0.2828457	0.3952781	0.1025942	-0.3917203	0.34038574	-0.0694533	0.123661846	-0.100831516	0.46874037	-0.7920418	0.20556986	0.22674598	-0.6345691	-0.00106363	-0.5533959	0.36954683	0.21216422	0.17803562	0.37674153	0.086851016	-0.3630528	-0.16102387	-0.30514097	-0.20651658	0.51685345	0.36182204	0.25731832	0.558902	0.33779103	-0.04479277	-0.18140692	0.79250926	-0.15336365	0.39893955	0.25396377	-0.20051935	-0.39485538	0.37263858	-0.6857349	-0.2765587	0.01378005	-0.39819378	-0.042334907	0.25317287	0.09501554	-0.7415354	0.6367905	0.26917607	0.25672138	0.22991496	0.4790576	0.42863664	0.7326922	0.27099	-0.08042146	0.04044351	0.11319749	0.27747232	-0.019002765	-0.57428837	0.9245589	-0.39835718	0.90104437	-0.046144634	0.050386332	0.4169164	-0.97453284	0.70882434	-0.030270994	-0.030764855	-0.13537985	-0.3607718	0.62638295	0.22011694	-0.334175	0.35592276	0.016338542	0.4056539	0.3861497	-0.47189808	-0.58693725	-0.71004367	0.45883077	0.4510523	0.32574922	-0.41348296	-0.5222931	-0.96400267	-0.3334449	0.41888174	0.29510385	-0.007714078	0.15734005	0.6490138	0.37716538	-0.2096569	-0.27987608	-0.1659826	-0.015412897	-0.050212305	-0.022482812	-0.52319026	-0.05873117	-0.62839293	0.102443896	0.47048405	0.22456239	-0.5657524	0.47743076	-0.5238189	-0.8307971	-0.16535166	-0.59628177	0.11834386	-0.01567839	0.042913303	0.6346017	0.19856462	-0.27844697	-0.44258508	-0.7170018	0.5084639	0.09384525	-0.3380127	0.23937654	0.005219035	-0.63224816	0.33584332	0.48746887	-0.2613263	-0.18849744	0.49037263	-0.12150114	0.007222891	-0.121332064	0.33225983	-0.6760076	0.15985909	-0.054208986	-0.26899058	0.115350366	-0.19720557	0.020467516	-0.024682757	0.42656934	0.16058636	-0.439475	-0.31100368	0.2280013	0.17819919	0.16219819	0.31424096	-0.2945711	0.0041433424	-0.089266986	1.0505968	-0.56118023	0.8796171	0.30226722	0.09020394	0.47567153	0.43368563	-0.02597797	-0.23569745	-0.31217977	-0.10177028	-0.42397565	-0.22768494	-0.30049455	-0.06804979	0.2555942	-0.42912275	0.18973318	-0.20239882	0.077687055	-0.25470483	-0.08443867	0.16182059	-0.1772576	0.4408547	0.49618924	0.090029016	0.5991714	0.62034065	-0.90240735	-0.027445257	-0.1405829	-0.025476165	0.20419486	-0.1791364	-0.048649915	0.41585	0.962283	0.42860124	0.41663122	0.2726462	0.70208514	0.5632701	0.8644878	0.069813296	-0.2097054	-0.24299374	-0.37751397	-0.6054247	0.22219908	-0.75103325	-0.350819	0.20894578	-0.27390945	0.24664986	-0.07751602	-0.99002755	-0.19582075	-0.82957673	-0.7399572	0.29712665	-0.33791548	-0.4530398	0.50849164	0.28393006	0.40662295	0.13031144	0.20276707	-0.6975976	0.42496145	0.15494329	-0.10432105	-0.1457506	0.13119239	-1.0072881	-0.20405008	-0.4750732	0.06494572	0.08705492	0.30270857	0.24799708	-0.25732407	-0.74008346	-0.1387156	0.29797453	0.21718432	0.30824876	0.06960477	-0.37105063	-0.5580177	0.18628699	-0.9085927	0.39824745	0.009270668	-0.15376964	0.5177573	-0.57760465	-0.6538819	0.58583534	0.19211723	-0.052255865	0.6472276	-0.21557418	-0.24897021	-0.38035494	0.73861957	-0.17179586	-0.36039972	-0.37420505	-0.088679075	-0.16143364	-0.82299525	-0.2912001	-0.47377914	0.033990953	-0.35343152	-0.1300911	0.18611896	0.58387303	-0.069081664	0.23347451	-0.50564444	-0.29151288	0.38364246	-0.5236647	0.15464856	-0.22035128	0.8862152	-0.072139256	-0.5755031	0.48166567	-0.097688034	-0.33055717	-0.4667064	-0.040162772	-0.97015786	0.10492478	0.26326114	0.3586021	-0.29403207	-0.1941632	-0.19729641	0.62846285	-0.7712523	0.067847654	0.74427354	-0.25770238	0.25773087	-0.7565905	0.32121128	-0.26170963	-0.7660257	0.14355806
G001576985	-0.50253844	-0.06640424	-0.25226802	0.04382497	0.39244652	0.666444	0.87462413	0.7167495	0.264382	0.58350545	0.16456074	-0.64864117	-0.40635324	0.5988637	-0.22313017	0.3333654	-0.550255	-0.4978404	0.20020628	0.0846111	-0.004798025	0.009304784	0.057993576	0.4161261	-0.19234759	0.4740047	-0.20421085	1.1538708	-0.25654995	-0.17728093	0.13324925	0.33170906	0.48273185	0.25213656	-0.262654	0.02722904	0.09280099	0.7979437	-0.08537364	0.3184908	0.014431909	-0.113933094	-0.35741717	-0.6013941	0.29632908	-0.2042112	-0.18865207	0.16032788	-0.7987053	-0.40637237	0.098393545	-0.2856078	-0.43006334	0.116577744	0.060806513	-0.42371053	-0.71464705	-0.17072454	0.38574433	0.2125406	-0.3736732	-0.0103961155	0.20517789	0.018868715	0.629562	0.7805681	0.30726582	-0.16977793	0.33161438	0.22984049	-0.2710414	-0.23377773	0.6233622	0.20905714	-0.18635389	0.08811924	-0.8077465	1.0952518	-0.07259905	-0.48178482	-0.2236731	-0.30424637	0.9206327	0.19727978	0.19651821	0.22273764	0.5957606	-0.5927478	0.76675725	-0.14611763	0.17659366	-0.40316546	-0.10442897	0.006414622	0.04844427	0.8137228	0.13002414	0.20148072	-0.25590104	0.011488825	0.17299089	-0.5547336	0.24609923	-0.001729399	-0.91079456	-0.68853235	0.15575075	-0.011190355	-1.008848	-1.0767599	0.09116399	-0.32856786	0.49058455	0.5544526	0.1273186	-0.47074908	0.71711075	-0.36007378	0.9231748	-0.47442758	-0.032339975	-0.42062676	-0.6305518	-0.6160978	0.21209237	0.14971745	0.19209673	0.3464295	-0.01740805	-0.08824067	-0.006594464	-0.03625512	0.2502736	0.39143175	-0.12785868	0.47826445	0.42568886	-0.005826086	-0.07274873	-0.340647	-0.34172666	1.0495915	-0.6551367	-0.47293052	0.32293642	-0.2536591	0.49873126	0.02243492	-0.49912882	-0.6752609	-0.06756775	-0.86368555	0.81482583	0.49856865	0.30710846	-0.026595622	0.09911533	0.20360929	0.43901753	0.81023204	-0.27917105	0.14282554	0.1039197	0.37281045	0.26654047	0.18574056	-0.6241142	-0.08146885	-0.058819696	-0.46539393	0.31190148	1.0817616	0.45221442	-0.5396638	0.102019	0.1312203	0.303892	0.53787434	-0.4129691	-0.09772138	0.6806319	-0.2531726	0.04026845	0.19111416	0.38608548	-0.48387772	-0.6357532	0.23306459	-0.19801402	0.016347691	-0.6363338	-0.03192541	0.99936837	-0.53108233	-1.0796907	0.588189	0.73195195	0.04431082	0.36706826	0.23198938	-0.038213782	0.36981952	-0.084889665	0.042606093	-0.39566046	-0.5732091	-0.41036665	0.6440044	0.20719083	-0.77782387	0.110527664	0.34230372	0.0116310865	-0.23734216	0.08842841	-0.020424053	0.52948743	-0.10835789	-0.14932393	0.15782103	0.74080676	0.05045399	-0.22572815	-0.20992841	-0.48244798	0.086617544	-0.096965484	0.700353	-0.08373164	0.035452746	0.19564441	-0.55602515	-0.6369871	-0.4683503	0.67212796	-0.023131207	0.35283256	-0.20342098	0.12580924	-0.4233014	0.017100656	0.044173628	-0.54428935	0.13659954	0.56085825	0.21656801	0.13609144	-0.26704487	-0.23376581	-0.51889884	-0.79242307	-0.8684748	-0.72645247	0.19294412	0.13751471	0.27944866	-0.5637	0.23767745	0.03678538	0.23030682	-0.14478213	0.5203331	-0.17179632	0.21082553	0.10029988	0.8012039	-0.0045545623	-0.23331833	-0.09451784	-0.07656664	-0.56506866	0.20742217	0.028842874	0.17592952	-0.34087226	0.036351897	-0.9943702	0.68796146	0.71487534	-0.18585676	0.057654873	-0.09832108	0.45247138	0.19646546	-0.19417316	-0.07324508	0.117001474	-0.49050632	0.18194419	0.5577535	-0.04986748	-0.67720807	0.11247361	-0.21708004	-0.1937034	0.38075513	0.8453152	-0.3861337	0.118261494	-0.2204282	0.029529914	0.42534944	-0.07747924	-0.08525565	-0.26223326	0.21733597	0.06584856	0.102195546	-0.6089261	0.43757316	0.3261235	-0.104197904	0.49560726	-0.21601926	0.28798428	-0.5499483	-0.14288208	0.11955318	0.40451568	0.2838788	0.14690386	-0.30061263	0.023387887	0.5521076	-0.2869748	-0.4892435	-0.13609806	0.093093015	0.18819503	-0.105584264	0.3013673	-0.39256167	-0.41563505	-0.39697194	0.1000092	0.6647284	0.049319193	0.3087614	0.49199528	0.81703717	-0.5188804	-0.50542843	-0.35145104	1.0226015	0.464144	-0.6129196	0.46655864	0.3818093	0.5955648	0.46500948	-0.45639706	-0.06459981	0.19201314	0.01801534	-0.09850579	-0.42154208	0.382056	-0.39013368	0.13964754	0.28978285	0.22060597	0.93671095	0.49673688	-0.050649345	0.4515736	-0.15174618	-0.13952316	-0.12875919	0.6386391	-0.25333512	0.056294575	-0.39521432	-0.113508396	-0.6026937	-0.25136447	-0.33951598	0.1391926	-0.49544728	0.45796272	0.16023508	0.30837306	0.52489096	0.12161681	-0.10786873	0.6581482	-0.34242368	-0.5104419	0.17387593	-0.14779718	0.42188174	0.5960388	-0.3571063	-0.6530504	0.3713763	-0.5381689	-0.0025949255	-0.16341144	-0.63236487	-0.119021565	-0.36489862	-0.21531996	-0.1862391	-0.5961837	-0.5060031	0.86294764	-0.29759368	-0.14901829	0.17918825	-0.45583546	0.35281605	0.37156138	-0.6642949	0.05008167	-0.3141033	-0.13192745	0.2169706	0.24124986	-0.47900844	-0.1842335	0.25488007	-0.19094172	-0.22686182	-0.28860167	-0.279015	-0.6461979	-0.5511459	0.67362535	0.2904746	-0.5708205	-0.17349699	0.0811526	-0.7400912	-0.09382327	0.36000827	-0.0035618618	0.5028037	0.50489175	-0.08228256	-0.6416185	-0.08146934	-0.0014952421	0.22984593	0.41316724	0.27879116	-0.34109712	-0.27293187	0.11515744	0.26649296	0.49859568	-0.17068192	-0.30952862	0.08417064	-0.36870164	0.2763192	-0.23441818	-0.9761361	-0.38491207	1.109113	-0.0009738803	0.85207754	-0.07990933	-0.81415	-0.13667116	1.3617474	-0.9149179	-0.09531604	-0.26640567	0.05076027	0.20885384	0.5480062	0.012527883	-0.34573576	0.1898595	0.43130344	-0.9391249	0.30377784	-0.3813904	0.2859744	-0.007139515	0.5872944	-0.1078836	-0.62143093	-0.11945656	-0.16404274	0.026258029	0.1159336	0.10362516	0.052693576	0.0011813696	-0.20720658	-0.28347158	-0.2343579	0.46947896	-0.53332365	0.023012348	-0.2822003	0.09475832	0.45328552	0.6424566	-0.13064855	0.108735725	-0.09901273	0.43366444	-0.2581527	-0.090044335	-0.21946037	-0.021162368	-0.59309375	-0.06790961	-0.1265266	-0.17833975	0.049802214	0.7196917	0.28421307	-0.30598783	-0.002408281	0.7085159	0.2965228	0.08975007	-0.048502706	0.26040262	0.15609992	0.76030385	-0.4393722	0.78324205	0.9982356	0.6068413	-0.21854731	0.27983534	0.52361655	-0.8382877	0.1956783	0.28859782	-0.23060662	0.3760007	0.17606184	-0.35521492	-0.6015444	0.22109756	-0.38320327	0.52082765	-0.38847858	1.2372894	0.38288215	-0.5413777	-0.32598948	-0.19401687	0.23781809	0.26231402	0.02808918	0.087491155	-0.13928044	-0.47817224	0.006324619	0.16330725	0.39506957	0.6617265	0.57019717	-0.106476456	-0.21964344	-0.3511171	-0.358221	-0.19870761	-0.46599397	1.012209	0.52315617	0.8966193	0.9224112	0.040992767	-0.00042194128	0.45655182	-0.8227994	0.3837306	-0.26780993	0.8497007	-0.42832977	-0.16768251	-0.934202	0.38484877	-0.046917394	0.039034978	-0.34693888	0.15684576	-0.9942875	0.8768723	-0.10889053	-0.13694799	-0.52622926	-0.33733112	0.50486636	0.91801083	-0.3636794	0.17317207	-0.03009434	-0.42799953	0.49779242	-0.23639861	0.054100417	0.007339269	-0.09110887	0.401954	-0.20812538	-0.1733531	-0.8329105	0.047146216	-0.13636509	0.9543332	0.20668466	-0.60487795	0.23564792	0.21926026	-0.021972492	0.06773874	-0.25872064	0.27111173	0.89964676	-0.5649049	-0.08583143	-0.5816171	-0.6266277	0.45000345	0.012781605	-0.33974984	0.34108847	-0.30289543	0.8280499	-0.60977685	0.20543252	-0.16163853	0.2221325	0.7231286	0.47229666	0.19814953	0.5209402	-0.22148153	-0.46668673	-0.2885719	-0.23375016	0.64627826	-0.23021401	-0.0017786026	-0.15266746	-0.37459564	-0.0043291673	0.35695934	-0.2406303	-0.3641147	-0.036485136	-0.26827088	-0.38599768	0.40485293	-0.15095907	-0.013240993	-0.13532409	-0.37367398	-0.66259384	0.41303492	0.7149321	0.41117164	-0.59529555	0.27355662	0.05850537	-0.3386511	0.46393913	-0.088409126	-0.44597274	-0.25474232	-0.9234464	-0.32581878	0.31421924	-0.2791685	-0.19542009	-0.15096724	0.6929294	-0.24983346	0.6156859	0.4298833	0.36369538	-0.21999075	0.5467411	0.026309937	0.6425876	-0.54331	0.8465166	0.3856138	-0.736575	-0.2607276	0.025882475	0.044592544	0.24612457	-0.82178116	0.45734218	0.0613126	0.39782402	0.48236275	0.8082852	0.45927504	-0.5604425	0.14500612	-0.2227817	0.17885399	0.12068567	-0.09958523	0.110183015	-0.1424303	0.18560764	-0.0051460527	-0.23248103	-0.21009961	0.20760839	0.43247038	0.6200002	-0.026216954	-0.20615648	-0.66841996	0.060099598	-0.32770687	0.63991034	0.250393	-0.2563579	0.48316553	-0.062376052	0.15950376	-0.096679375	0.3552108	-0.63861954	0.054504916	-0.10500711	-0.6560143	0.078918785	-0.6003973	-0.002589099	0.01932533	0.21380602	0.62403685	-0.19357309	-0.34368646	-0.18735042	-0.4720471	-0.16813534	0.5940358	0.40491664	0.46164843	0.40073708	0.12706703	0.044650823	-0.33090755	0.33337966	-0.08074041	0.4164881	0.3508157	-0.0830732	-0.6605308	0.22038022	-0.82461715	-0.12486607	-0.14490421	-0.45624885	0.034256183	0.29319113	-0.12810846	-0.4311648	0.74628204	0.2607773	0.47540686	-0.13776544	0.4905751	0.52157015	0.821314	0.31170022	-0.054740787	0.014020085	0.3872486	0.44236556	-0.18584193	-0.6204707	0.9672686	-0.5257993	0.8052663	0.05765909	0.106558904	0.49491575	-0.8666128	0.4461159	0.20701787	-0.09478539	0.037638247	-0.49647465	0.39293557	0.39678073	-0.10278179	0.6881245	-0.081337124	0.41722682	0.63892186	-0.3189569	-0.40096104	-0.4301691	0.3488129	0.2924019	0.57716656	-0.54629356	-0.15196553	-1.0658218	-0.24758926	0.27403253	-0.024244327	0.05920896	0.18352544	0.6620307	0.3566596	-0.4168728	-0.183648	0.048028767	0.10768454	-0.18368335	0.007283032	-0.4308514	0.2544007	-0.85948944	0.36574775	0.4543001	0.1945707	-0.41649783	0.3174433	-0.309353	-1.0996101	-0.17643712	-0.7115851	0.27436075	0.17454606	-0.21221364	0.47039872	0.12264857	-0.68171704	-0.5714493	-0.6147664	0.26306665	0.5006098	-0.120942436	0.010575842	-0.01143948	-1.0232961	0.09973712	0.27149278	-0.062314063	-0.0053758323	0.49630347	-0.33824152	-0.07270074	-0.3107074	0.24347916	-0.5304715	0.24697636	-0.23714077	0.12874164	0.51530135	-0.46159476	0.35246408	-0.04716104	0.42833018	-0.05880975	-0.096387506	-0.058558077	0.40748566	0.1908418	0.17482947	0.34374124	0.31951162	0.15545057	-0.10131018	0.8899034	-0.5403122	0.694265	0.2745754	-0.07850121	0.5071398	0.36186472	0.00033679605	0.011396334	-0.25643033	-0.4566847	-0.34822226	-0.15045199	-0.2682557	0.4436436	0.28980717	-0.4669383	0.53362817	0.013090953	0.19320175	-0.38463187	-0.25035396	0.1547725	-0.20786038	0.18150672	0.43866402	-0.21592623	0.42693573	0.7234454	-0.91747606	0.23884764	-0.21535361	-0.15749915	0.21561378	0.14271241	-0.0980214	0.474445	0.8837016	0.32867765	0.3309775	0.10142809	0.5090528	0.38915685	1.1100237	-0.067231126	-0.3520157	-0.49776378	-0.5419057	-0.6515819	0.18558109	-0.75096285	-0.29853633	0.71958876	-0.27154803	0.44058838	-0.03898987	-1.0097648	-0.42836207	-1.0512944	-0.57100475	0.54865295	-0.24049148	-0.11646213	0.5530302	0.2008071	0.5525899	0.12106151	0.042025458	-0.6971996	0.88215506	0.12749891	-0.16325426	0.06439121	-0.16898341	-1.0887415	0.044145823	-0.5576507	-0.054778516	-0.029390484	0.30934256	0.38941273	-0.4250145	-0.90167034	-0.06889606	0.39332652	0.34961122	0.42612183	-0.16616318	-0.2871786	-0.6289843	0.41194582	-0.6963586	0.38515946	0.08614245	-0.19646609	0.32190925	-0.6553434	-0.64839506	0.2560476	0.24497503	-0.12146589	0.49755663	0.19845131	-0.26210213	-0.1935017	0.748653	-0.036837235	-0.22480586	-0.02586294	0.072561026	0.035388876	-0.6462172	-0.2735772	-0.56278896	0.16933307	-0.43241274	-0.27346995	0.19563937	0.3327729	-0.41547	-0.015211225	-0.27322632	-0.47575718	0.21059263	-0.55508476	-0.0053224266	-0.13168181	0.51515263	-0.23967454	-0.4359678	0.17496721	0.055192605	-0.2437627	-0.17174432	-0.032400772	-1.2119954	-0.015186518	0.5346988	0.29689112	-0.50915897	-0.08395721	-0.09888953	0.2660638	-0.6642455	0.23320909	0.21913397	-0.44667476	0.35648888	-0.76898134	0.14906138	-0.35258165	-0.54539984	-0.05995381
G001304015	-0.36167917	0.13432848	-0.30439615	-0.17259215	0.015680194	0.39702147	0.6431044	0.77486175	0.29132688	0.67940366	-0.066803254	-0.76750064	-0.43695313	0.13625754	-0.3123845	0.68051153	-0.68485636	-0.69283885	0.06877571	-0.5261818	-0.09725909	0.10826058	0.20702434	0.64363784	-0.3760346	0.42368644	0.14169711	1.1766626	-0.07223472	-0.3676731	0.03891197	-0.0031336024	0.35525092	-0.20268601	-0.62229204	-0.38647148	-0.69350976	0.8355508	-0.2848546	-0.4564619	-0.55546623	-0.057355702	-0.59738153	-0.76023996	0.24429002	-0.3514785	-0.0042508543	-0.19033559	-0.30276072	-0.0059924126	-0.18888614	-0.66877735	-0.046421655	-0.16827689	-0.027239978	-0.6514154	-0.54008484	0.37878096	-0.06396955	-0.2049184	-0.3028201	0.42733592	0.15452227	0.55694795	0.92853975	0.16671647	0.09851384	0.030277774	0.43288857	-0.3176586	-0.5836941	-0.086136185	0.15117988	0.17383009	-0.08329627	-0.2123823	-0.7506949	0.97449744	0.026407704	-0.6913617	-0.3756594	-0.7556337	0.8398218	-0.10358496	-0.16216262	0.040803075	0.41082522	-0.21319208	0.65678775	-0.6243696	0.08206712	-0.14870036	-0.36915693	-0.1644743	-0.48534244	0.8521337	0.03459353	0.2296471	-0.1787577	0.15986948	0.30260795	-0.7549971	0.053295035	-0.014703974	-0.9515279	-0.74770695	0.19026569	0.08998823	-0.78016084	-0.6390907	0.06564517	-0.57170033	0.22679015	0.9290929	0.5979463	0.002966456	0.66514426	-0.39456388	0.77773815	-0.28213438	-0.38006827	-0.39137703	-0.41823316	-0.886775	0.3624504	0.07652728	0.43425632	-0.11478311	-0.07282656	0.009001888	-0.1842345	0.5008961	0.33388	0.05512049	-0.0002459772	0.35498968	0.33960214	0.36390418	-0.44074917	-0.25169626	-0.4171521	0.41859058	-0.8452734	-0.16575107	0.43043762	-0.48366696	0.80952686	0.41936117	-0.88545656	-0.44416732	-0.13509819	-0.89752483	0.72874606	0.38766012	-0.04217252	-0.05090347	0.09880386	-0.18809274	0.35158956	0.9589572	-0.28223133	0.65613854	0.12310085	1.0394039	0.12660673	0.09231801	-0.991765	0.101932794	0.31723967	-0.2496014	0.39906037	0.9401028	0.27976364	-0.3549187	0.03503175	-0.26945668	0.31998894	0.18068622	-0.73537636	-0.10099588	0.37015897	-0.05418412	-0.039197363	0.3305624	0.1559058	-0.76854944	-0.20485884	0.022269733	-0.28132942	0.5060802	-0.77721524	0.39504454	1.0220191	-0.5222829	-0.8411602	0.5929943	0.6561681	-0.06436989	0.27198833	0.26691735	0.668684	-0.16710281	-0.24654542	0.223713	-0.55945814	-0.34728402	-0.3945234	0.7324949	0.26221222	-0.40606552	-0.025832877	0.69756955	0.14755487	-0.041871537	0.07247388	0.21675842	0.73679465	-0.032432944	-0.2797226	-0.055230916	0.27206784	-0.022008985	-0.141224	0.12825568	-0.20494547	0.19648848	-0.13045448	0.7062166	0.057281137	0.22147684	0.123948544	-0.49800998	-0.16707063	0.04207	0.2713335	0.03123258	0.26934093	0.11323516	0.42229366	-0.411107	0.13082719	0.044885114	-0.3637154	-0.14530295	0.58384	0.13902865	0.24638672	0.05068186	-0.6609919	-0.317813	-0.582907	-1.0711554	-0.9757463	0.04900773	-0.10186699	0.64058393	-0.67655194	0.24576963	-0.42445564	-0.29748398	0.21298377	0.46580225	-0.33519042	0.2927199	0.5268414	0.45935738	0.20509084	-0.46282768	0.09364837	-0.21756104	-0.5918439	0.05383402	-0.18833375	0.06511959	-0.6477548	-0.033652037	-0.8146882	0.13993937	0.6937052	-0.30510998	0.18316638	-0.057706743	0.7431123	-0.2895397	0.3619305	0.1705564	0.18827365	-0.20217277	0.054748178	0.5765209	-0.11481352	-0.3469442	0.121325344	0.35723922	-0.062372267	0.39481747	0.8258654	-0.6236562	-0.32341966	-0.68293697	0.16153885	0.30217963	-0.4990426	-0.36855417	-0.50058985	0.21251303	0.022243783	0.3716547	-0.5436849	0.41498265	0.20940268	0.13601841	0.44136816	-0.19825053	-0.079795346	-0.44088584	0.13211158	0.13062102	0.3971898	0.3135103	-0.10009231	-0.3283466	0.4768439	-0.02387324	-0.275383	-0.41548505	-0.72650963	-0.043977726	0.41579303	-0.11593813	0.1598006	-0.48340243	-0.1719501	0.04929763	-0.25823337	0.6132212	0.29654095	0.3577162	0.527774	0.5927782	-0.8277852	-0.2807681	-0.0009955093	1.1141462	0.38019875	-0.18661499	0.45714253	0.04968202	0.14245707	-0.018030077	-0.099464	-0.29205155	0.2209008	-0.19928701	-0.27944523	-0.62754786	0.7823802	-0.43849868	0.25849634	0.43369636	0.42177004	1.1159146	0.12656051	0.09920807	0.5906809	0.20576558	0.3033846	0.13361755	0.8059068	-0.3106377	0.09421853	-0.4655185	0.06990291	-0.8389448	-0.17526637	-0.15299585	0.5244323	-0.18475485	0.46225524	0.07292798	0.13143446	0.25962925	-0.14790663	-0.32393426	0.37346858	-0.37520418	-0.2086662	0.14506152	0.19330102	0.118743494	0.020572837	-0.47598338	-0.7501161	0.50518835	-0.3032504	-0.082116544	0.21914938	-0.920632	-0.3064138	0.17620158	-0.5218191	-0.04134035	-0.3066665	-0.37851948	0.89608824	-0.07916984	-0.5764956	0.40693083	-0.6777668	0.18641734	0.0074956715	-0.45757392	0.5919051	0.14304006	-0.6293297	0.025563575	0.04282605	-0.58310074	-0.36880535	-0.06302139	-0.38729057	-0.37537378	-0.3871597	-0.23417622	-0.38520876	-0.52218324	0.35791236	-0.120956406	-0.12012236	-0.28222924	-0.034572527	-0.49084136	0.21656752	0.08596738	-0.17288643	0.02752855	0.68261284	-0.3261534	-0.71641797	-0.120538086	-0.07619929	-0.04169219	0.44441116	0.3868459	-0.2772404	0.16846664	-0.14559752	-0.13813487	0.35462785	-0.15543348	0.39778206	0.20548931	-0.3146221	0.3295002	0.24288419	-0.7909031	-0.34264857	0.93508214	-0.48624513	0.9982927	-0.0679468	-0.85514283	-0.12697177	1.0182831	-0.68244696	0.0788328	0.05995436	-0.3735432	-0.12379127	0.29160768	-0.0015126206	-0.2892028	0.7745185	0.27698523	-0.7295341	0.51318026	-0.17498276	0.7711127	0.047342464	0.40088564	0.1001697	-0.8386351	-0.5121715	-0.26740235	-0.17739044	0.25635815	-0.15230133	0.04466918	-0.61072564	-0.42431962	-0.19043487	-0.59277207	0.6474165	-0.19301105	-0.016064957	-0.35685596	0.21673805	0.034812927	0.58411646	0.26775825	-0.14327767	-0.16802841	0.6103566	-0.11318156	0.03867443	-0.6982989	-0.25261968	-0.70679545	0.006842643	0.11266929	0.27189943	0.4090439	0.863194	0.12298933	-0.031938065	0.1477849	0.5784473	0.5026039	0.008177802	-0.12507786	0.76724434	0.3859431	0.8730371	-0.25345415	0.93693566	0.6260516	0.6345691	-0.13755117	-0.10846518	0.6133241	-1.0924342	0.3774479	0.5893132	-0.16461691	0.51380706	-0.17368403	-0.15972498	-0.8379975	-0.049659308	-0.5609918	0.6699797	-0.47689936	1.0050842	0.5581234	0.093711734	-0.16133252	-0.0862343	-0.13263482	0.13732292	0.17091933	0.58411795	-0.26750755	-0.46573249	-0.063096546	0.40201324	7.778406e-06	0.26168072	0.10456896	0.0566293	-0.13422154	-0.23492001	-0.19892377	0.02726388	-0.4381487	0.56111294	0.80528337	0.95400345	0.7551522	-0.03801596	-0.05381857	0.55504	-0.6402515	0.13271056	-0.55548334	0.6533828	-0.20428136	-0.38819826	-1.0215294	0.34832758	-0.09484036	-0.051441953	-0.54541457	-0.04355368	-0.9853749	0.7899455	-0.57335675	-0.0038645938	0.16482453	-0.2722296	0.5163511	0.7297847	-0.17796865	0.039085988	0.07172401	0.014018171	0.24000663	0.019801863	-0.41249543	-0.53879035	-0.1450716	0.7048831	0.1618739	-0.08660036	-0.46052152	-0.55325395	-0.21082586	0.84420025	0.66577446	-0.44831818	0.25902534	0.44099706	-0.29431248	0.41774213	-0.45274496	0.22019885	0.47658497	-0.7157209	-0.13224512	-0.32593524	-0.50723016	0.7688097	-0.05043295	-0.21937674	-0.06584176	-0.5835319	0.7849704	-0.07370254	-0.08736828	0.4296298	0.16816154	1.1438599	0.40315586	0.44387245	0.4892284	-0.017034546	-0.54492056	-0.64339757	-0.68967915	0.3533365	-0.2824676	0.059482098	0.010715678	-0.269214	-0.04022309	0.5902604	0.14423859	-0.23192033	0.0933935	-0.35269794	-0.5804594	0.39148957	-0.28786433	-0.26085907	-0.086475044	-0.65669346	-0.7203882	0.616169	0.52437484	0.26810157	-1.1880779	0.5945529	0.2247518	-0.23715723	0.813344	0.101386994	-0.26229072	-0.1743884	-0.66277844	-0.6985391	0.4009361	-0.35805023	-0.06329448	-0.1952415	0.6952284	-0.47476715	0.45665148	0.4955418	0.3575686	-0.19899018	0.32988676	0.22699095	0.7566045	-0.22056507	0.73053277	-0.1645213	-0.0944691	-0.072977714	0.050484493	-0.06337405	0.49016148	-0.024338193	0.11869021	0.59495527	0.6635282	0.12909864	0.8003135	0.19234496	-0.22249107	0.35267517	-0.13438784	0.18365853	-0.10332072	-0.2862098	0.31308824	-0.4442094	-0.111769915	0.145517	-0.33566225	0.07284066	0.04987397	0.26871568	0.4874956	-0.01243557	-0.3830233	-0.69502723	0.021771504	-0.34523404	0.049951255	0.22892196	-0.68594056	0.40564913	-0.37201	0.029870689	-0.32722098	0.26797152	-0.2555328	0.039179415	-0.15149796	-0.7034075	0.105502665	-0.62527895	0.114349835	0.04978241	-0.09218758	0.44190946	-0.03942384	-0.7588869	-0.45917425	-0.55980325	-0.19693504	0.25466788	0.32112378	0.5319024	0.5342306	-0.030756183	-0.057248086	-0.1063174	0.66237044	-0.061150976	0.52802515	0.53307813	0.48240808	0.087886915	0.3338582	-1.181351	-0.08382493	0.3787886	-0.23507863	-0.2139556	0.3191368	0.22007035	-0.35834336	0.37789285	0.33204743	0.5547168	-0.34115425	0.7106107	0.26571906	0.7193415	0.23040375	-0.14043598	0.08274005	-0.09791877	-0.2609712	-0.4064764	-0.5371135	0.5776582	-0.36312157	0.7701562	-0.05006644	0.30266887	0.2171882	-0.6336845	0.38596696	-0.24162659	0.5678241	-0.13282388	-0.17653832	0.30509365	0.42534304	-0.18458578	0.48707342	-0.071711145	0.6981311	0.63117564	-0.7538113	-0.66685706	-0.3819602	0.53306866	0.44092652	0.65022194	-0.53833574	-0.2320433	-0.58278495	-0.1545752	0.33042938	0.2172211	0.16061038	0.053591676	0.90456855	0.59596217	-0.30028692	-0.20373438	-0.21238135	-0.033951312	-0.3601408	0.36845422	-0.2501427	-0.27955827	-0.4244583	0.22312936	0.68655694	0.2337703	-0.7216001	0.7965419	-0.26455137	-0.7935944	0.20251673	-0.72787046	0.44942302	-0.06419787	-0.6020185	0.5409466	-0.12876596	-0.33401996	-0.40897483	-0.27931565	0.47966573	0.37904045	-0.13606025	-0.174367	-0.110370815	-0.7215698	0.6823829	0.20866616	0.055273145	0.13493115	0.55100125	-0.025615364	-0.17500539	0.115208864	0.15754737	-0.51262	0.24693984	-0.16147572	-0.63994515	0.6277262	0.040436763	0.14289692	0.020171348	0.5230993	0.80508137	-0.47470146	-0.4155887	0.40695924	0.3088562	0.15357412	0.17321059	-0.50438994	-0.04126928	0.0047116205	0.57356524	-0.46155235	1.2006121	0.2898274	-0.032243483	0.5256494	0.48120224	-0.43112284	-0.018631846	-0.33879316	-0.33632502	-0.20868593	-0.12335853	-0.25998294	0.32375193	-0.10928816	-0.5078949	0.25958714	0.2283765	0.10323823	-0.3649063	0.03641057	0.22413827	-0.22487487	0.19499052	0.29781985	-0.19971168	0.46851796	0.37857306	-0.8556893	0.010107502	-0.2696972	-0.28195858	0.71437323	0.19430897	0.10054186	0.16643777	0.998615	0.2516086	0.37743643	0.4548419	0.3890169	0.5649419	0.77313113	0.10034448	-0.09501372	-0.38052198	-0.3373705	-0.54046375	0.019610718	-0.8814654	0.21800733	0.5363252	-0.07564755	0.03920421	-0.3414166	-0.81012946	-0.54095674	-0.6400205	-0.7336107	0.4741747	-0.48452035	-0.121134415	0.76270384	0.5040082	0.14696252	-0.16061887	0.09360419	-0.47784027	0.64214885	-0.027447537	0.15923508	-0.0063758586	0.1803301	-1.2223682	-0.35732135	-0.333582	0.087141246	-0.2856209	0.32133833	0.08350741	0.3196119	-0.48710555	-0.29304045	0.32294977	0.30622748	0.64535314	0.20784508	-0.35912898	-0.31261683	-0.0055788644	-0.8996683	0.12587607	0.15964353	-0.18310176	0.518904	-0.028799772	-0.7836586	0.0018453076	0.41154408	0.2446921	0.9372759	0.3258316	-0.45930573	-0.4266404	0.7695373	-0.5678951	-0.7962332	-0.21155727	-0.35729647	-0.09569928	-0.860422	-0.17783417	-0.8200463	-0.2929199	-0.5687621	-0.2282241	0.20340365	0.35892782	0.06642463	0.26976693	-0.7119414	-0.31393117	0.9690528	-0.39626187	0.25506657	-0.10787157	0.87816894	0.14069945	-0.22011687	0.5273788	-0.12939589	-0.13729092	-0.682207	0.1660794	-0.8354504	0.17312656	0.5666176	0.11266217	-0.3759652	-0.51333857	-0.38250124	0.5592037	-0.7655665	0.08995148	0.7168577	-0.44131267	0.0785014	-0.8966292	0.15317743	-0.15831809	-0.43820724	0.04631549
G001304155	-0.4265553	-0.08706772	-0.265762	-0.24841334	0.0853745	0.31254327	0.6446456	0.89073616	0.30303648	0.626853	-0.054400742	-0.89058465	-0.30771062	0.53414106	-0.28475046	0.43402067	-0.5856456	-0.4406736	0.50632674	-0.41183513	-0.13166872	0.40569997	0.28738126	0.56960595	-0.27440476	0.35366046	0.0048308894	1.3688092	-0.13476622	-0.49564618	0.19388759	0.097185105	0.31847757	0.006985992	-0.3142333	0.026396647	-0.29064292	0.7873166	-0.39460972	-0.27248567	-0.32204458	-0.25194967	-0.4997026	-0.48443955	0.21181858	-0.50198376	-0.20404148	-0.1915836	-0.51921874	-0.23301546	-0.16378129	-0.54208004	-0.21343616	-0.045587197	-0.16997683	-0.44253397	-0.5459552	0.26952112	0.3125983	0.015531737	-0.17647183	0.328625	0.23446429	0.5604317	0.993942	0.49774888	0.14866382	-0.33411205	0.6786524	-0.15526459	-0.5685274	-0.09590815	0.17548448	0.06186191	-0.03624235	0.18095267	-0.63035226	0.96374446	0.040152684	-0.7620646	-0.19075716	-0.5092565	1.0739571	0.14925012	0.261578	0.113441825	0.38443893	-0.23382126	0.41529	-0.38231117	0.109951586	-0.23662767	-0.17505361	0.2569454	-0.7795017	0.78841937	-0.07467666	0.12715259	-0.18047503	0.27184996	0.19567263	-0.6635263	0.2772509	0.22644484	-0.7901863	-0.63482255	-0.13757168	-0.09733105	-0.7232013	-0.59357023	-0.3647914	-0.5293982	0.25463876	0.40375704	0.3601504	0.030529104	0.25977167	-0.35306674	0.44152313	-0.4101422	-0.05107574	-0.82470953	-0.32923257	-0.63915664	0.12785685	0.21509212	0.36837345	-0.23519987	-0.20556743	-0.094958484	-0.14311734	0.23047993	0.60172045	-0.17708732	0.07357314	0.31785756	0.14301126	0.012062274	-0.0006625131	-0.4522099	-0.3193261	0.56282324	-0.6204661	-0.19710484	0.512074	-0.40523565	1.1925299	-0.20346233	-0.90899026	-0.56334794	-0.12383106	-1.1534466	0.52277267	0.572329	0.17797917	-0.18454885	-0.054564208	-0.21490717	0.40133402	1.0311155	-0.135126	0.27169105	0.36261642	1.0547161	0.2386598	0.14959842	-0.8601776	0.05232674	0.28186125	-0.3643169	0.2745948	0.9899636	0.33330837	-0.2684053	-0.026339	-0.1555027	-0.0364002	0.40445167	-0.8998561	-0.14925286	0.5555305	0.0059352666	0.15371715	0.23988612	0.052211896	-0.7093487	-0.29599145	-0.072368994	-0.35557058	0.1683836	-0.6553143	0.12906101	1.0969841	-0.43762594	-0.7589533	0.48648518	0.83440864	-0.042561844	0.05641868	0.069090426	0.5447991	0.039562985	0.011309281	0.08883929	-0.6382544	-0.15162425	-0.1364598	0.67492175	0.15392788	-0.5262548	0.13931549	0.607813	0.14957632	-0.2743404	-0.08181769	0.07929344	0.6405919	0.07966229	-0.28841233	-0.007907741	0.19489555	-0.19219339	-0.19022195	0.394396	-0.4570319	0.3529846	-0.24620727	0.71512115	-0.08872487	0.22916536	0.07148342	-0.54933906	-0.21843715	-0.22887868	0.4524137	0.14128698	0.29772365	-0.36431322	0.3560894	-0.5964423	0.11520715	-0.23103225	-0.44008416	0.20284578	0.53215164	0.1599434	0.47860393	-0.20460719	-0.5999892	-0.7084107	-0.8530568	-0.8059001	-0.8274035	0.5068767	-0.06880474	0.585691	-0.7339524	0.297392	-0.16826044	0.09062211	-0.070341855	0.5169045	-0.23268433	0.1507034	0.5384345	0.5426293	-0.17898276	-0.22181751	-0.031207487	-0.3510871	-0.5066711	0.16510963	0.18566221	0.23150983	-0.7114215	0.00075063854	-0.75200784	0.34249166	0.65591854	-0.3117532	-0.036539875	0.04053156	0.90720594	-0.4130301	-0.0045183226	0.33152735	0.061364837	-0.29914275	0.23048553	0.7789563	-0.12198159	-0.24131016	0.14038676	-0.040200666	0.07720496	0.16100018	1.0249281	-0.528152	-0.20599018	-0.34292358	0.25312033	0.6645613	-0.19461957	-0.34366754	-0.33139116	0.06897767	0.17193243	0.2570738	-0.65254784	0.26435477	0.15114823	0.0033028275	0.6851456	-0.21268982	0.040784404	-0.27823082	0.03997892	0.3691879	0.37952417	0.37211668	0.022818767	-0.18252261	0.4813427	0.25161892	-0.31435207	-0.6213667	-0.5095127	0.0718607	0.24176729	-0.21434854	0.16117938	-0.522867	0.022871137	-0.18318078	-0.0027657002	0.8840771	0.31170157	0.33497787	0.37373275	0.7362323	-0.8092181	-0.2712727	-0.27695635	1.0151918	0.68802917	-0.31239235	0.7439192	-0.022480607	0.33135846	0.16038004	-0.2814563	-0.073756665	0.26964056	-0.11142565	-0.35770825	-0.8209457	0.77065766	-0.5714585	0.3486637	0.48469162	0.42351884	0.925354	0.14560618	0.32810816	0.47060472	0.04132384	0.053157926	0.055322737	0.63013947	-0.42960972	-0.14308688	-0.21290189	0.102915674	-0.7576454	-0.107482836	-0.32860935	0.16737728	-0.44608048	0.47375	0.08381633	0.15250948	0.052190065	-0.3289701	-0.51546043	0.67592084	-0.33711055	-0.4972832	0.32893658	-0.0543222	0.07283589	0.20434384	-0.37689465	-0.5618917	0.31211257	-0.39951652	0.08878738	0.034757495	-0.5464053	-0.22826512	-0.23492065	-0.43467748	-0.049937353	-0.41317075	-0.35227653	0.8535769	0.015528142	-0.24269201	0.2669723	-0.7497753	0.44325083	-0.03733501	-0.56473124	0.2708385	0.022799388	-0.54982674	0.12924019	0.0675954	-0.35625866	-0.33327073	0.17845497	-0.3025365	-0.47131908	-0.24676073	-0.479298	-0.63191766	-0.6819041	0.53595376	0.2864309	-0.47236723	-0.35459146	0.025224574	-0.3974917	0.076023355	0.12969801	0.030446693	0.22290765	0.61366206	-0.031004474	-0.69516104	-0.42096367	0.085915804	-0.1271443	0.42685664	0.34379217	-0.3669666	-0.14435032	-0.109347105	0.0145510435	0.3095169	0.054543838	0.024669707	0.2015014	-0.39978305	0.38653415	0.13861448	-0.85522985	-0.55327153	1.1689819	-0.5281127	0.76130664	0.062462915	-0.846943	-0.033982545	1.1861175	-0.89048433	0.09609066	-0.19481292	0.15216684	0.10105254	0.60218585	-0.1531842	-0.51937497	0.67881835	0.16935542	-1.10696	0.59860826	-0.1311666	0.41955858	-0.102629334	0.35905603	0.21320842	-0.6590491	-0.43993077	-0.23581207	-0.16693342	0.44657707	-0.12261535	0.09383118	-0.23572393	-0.4292572	-0.39188185	-0.15111677	0.88905925	-0.36074802	-0.19175363	-0.6494992	0.31837767	0.1414589	0.7128341	0.25395057	-0.04023257	-0.2145442	0.5630323	-0.3343966	-0.05358979	-0.6816996	-0.101128384	-0.8401809	0.0423982	0.3258475	-0.051168233	0.19589162	0.87837636	0.326908	0.009312719	0.10565923	0.8052715	0.3498271	-0.15133497	-0.1111	0.5970434	0.2366144	0.7186767	-0.27695835	0.93295515	0.73375714	0.58083785	-0.27835485	0.036304645	0.47132358	-0.9230838	0.07679633	0.45507187	-0.31145084	0.36302313	-0.18474732	-0.17946564	-0.615725	0.36682874	-0.4638031	0.2601314	-0.4250321	0.7320323	0.3684649	-0.19324505	-0.21269067	0.26269573	0.05994028	0.32727912	0.35066515	0.33958703	-0.43402004	-0.618387	-0.35839158	0.6579402	0.28497314	0.39273325	0.1861664	-0.039204836	-0.22226173	-0.25745022	-0.48394403	0.037735857	-0.58630884	0.63205606	0.68584204	0.88514185	0.77996576	-0.21665788	0.2528053	0.6169708	-0.85325587	0.40588066	-0.32539114	0.8431164	-0.42611888	-0.27265537	-1.1806996	0.07139975	0.08241732	0.10480231	-0.3498586	0.20521858	-0.9450933	0.76658785	-0.22266328	-0.28700176	-0.019430604	-0.20838752	0.17768511	0.89909446	-0.36777532	-0.18134332	0.08666077	0.1943626	0.28474388	-0.20120327	-0.071631745	-0.25950998	-0.123515986	0.46356434	-0.13977896	-0.15452483	-0.4998636	-0.19699207	-0.3577165	0.6596142	0.6050091	-0.89444244	0.14574158	0.2264552	-0.27531472	0.3602397	-0.50620574	0.545666	0.5459119	-0.52988946	-0.12579371	-0.3950026	-0.41126263	0.5568217	-0.03953582	-0.3413575	0.3072962	-0.62004584	1.0393083	-0.19496214	0.3618635	0.03495094	0.04323803	0.8277046	0.59775287	0.2082113	0.5677508	0.3777455	-0.3284877	-0.30592865	-0.42521137	0.54804057	-0.5550745	0.059761584	-0.032638334	-0.13269594	-0.43870768	0.35926604	-0.09753777	-0.14194176	0.14880846	-0.038102075	-0.5869731	0.12244631	-0.08297491	-0.1135406	-0.073492825	-0.4825386	-0.704779	0.5092086	0.56395465	0.09778889	-0.956877	0.6083983	0.11538431	-0.3932785	0.9806059	-0.11081602	-0.31408578	-0.25504023	-0.6960387	-0.54351074	0.34849584	-0.43789902	0.00011624396	-0.18404233	0.7826249	-0.47803688	0.5182695	0.31334817	0.2337411	-0.04141511	0.26074916	0.2181476	0.5058701	-0.46246544	0.54787934	-0.108958334	-0.35707858	-0.1460272	0.29693314	0.07112099	0.65701103	-0.3291791	0.14151059	0.42362875	0.5898166	0.09811239	0.9437069	0.1962452	-0.5212255	0.20553008	-0.32371992	0.25531793	-0.12779832	-0.2303744	0.43837237	-0.22905988	0.02738069	0.08263995	-0.020069316	-0.27794546	0.04801435	0.17140806	0.62379086	0.12456684	-0.18475702	-0.7645198	-0.10610635	-0.23947255	0.18839785	0.48052615	-0.39741367	0.18487753	-0.36396608	0.12243124	-0.17055123	0.29671323	-0.34121713	-0.05225554	-0.12717095	-0.35722682	-0.079328775	-0.48811302	0.031496212	0.17102344	-0.02850902	0.52652705	-0.00066131353	-0.44699657	-0.34222335	-0.4290574	0.107943356	0.38816166	0.3395579	0.23298508	0.30842543	-0.000352934	0.06280896	-0.20262107	0.46306098	-0.15952991	0.47193468	0.56134236	0.63605964	0.08043504	0.14351498	-1.1396872	0.11455667	0.11649789	-0.38686514	-0.1930297	0.37600255	-0.18330051	-0.21876357	0.72575414	0.11667228	0.36908385	-0.40970805	0.473474	0.2937513	0.6408724	0.041120112	-0.11102533	0.115758955	0.23274782	0.0064012036	-0.46046844	-0.48000804	0.81875783	-0.3489608	0.7744803	0.16290827	0.1663521	0.24083991	-0.6711929	0.22629261	0.04606229	0.36667755	0.009391695	-0.30998787	0.2911292	0.6087778	-0.15154314	0.7482023	0.03637582	0.7755873	0.47013152	-0.6024045	-0.31976628	-0.4144366	0.8454852	0.18963332	0.9626978	-0.52908677	-0.09898519	-0.6059833	0.02136314	0.29700205	-0.02857501	0.51394826	-0.18336791	1.1171377	0.7709132	-0.5424252	-0.13991144	-0.11665225	-0.066863656	-0.18872397	0.27158147	-0.07032162	0.054732993	-0.6389934	0.26171505	0.65664876	-0.12164823	-0.51428986	0.33296132	-0.44500822	-0.8522416	0.09370744	-0.8761953	0.5263071	0.20911759	-0.67914736	0.3688703	-0.17282405	-0.4153664	-0.49584436	-0.39105442	0.008835524	0.464979	-0.23942718	-0.43839577	-0.13471088	-1.0643866	0.5435684	0.08667189	0.3486829	-0.07749051	0.5833682	-0.36068732	-0.3920176	-0.0218983	0.35495192	-0.45523635	0.42372274	-0.19149779	-0.19258356	0.73340034	-0.1917307	0.24122982	-0.07861067	0.31047833	0.743104	-0.31510544	-0.36838883	0.48026606	0.17130373	0.16491097	0.4016711	-0.23448095	-0.2548716	0.011051089	0.9893406	-0.61888874	0.8637293	0.37815875	-0.1972077	0.27510715	0.2614836	-0.1661863	-0.19722876	-0.49677974	-0.38102874	-0.1586383	0.092743754	-0.1625036	0.44854826	-0.18034115	-0.49630326	0.35382906	0.3356	0.25867814	-0.47984248	-0.3095893	-0.038696177	-0.29481232	0.06450224	0.24770151	-0.36753303	0.57334584	0.5659661	-0.77250385	0.064540625	-0.33349505	-0.3395065	0.3476051	0.06592408	-0.16962227	0.31204692	1.2371619	0.13132073	0.45434502	0.5873756	0.7194967	0.55962896	0.9132927	-0.106275305	-0.17247534	-0.4813683	-0.37168556	-0.5875998	-0.049256682	-0.7214454	-0.025984496	0.7823982	-0.03461927	-0.04739505	-0.21314208	-0.96644443	-0.5436988	-0.7838012	-0.7514576	0.70355093	-0.23335819	-0.2753378	0.68950343	0.58206594	0.0320981	0.07133396	0.2720503	-0.59291875	0.76562655	0.020776063	-0.08403836	-0.046837665	0.10907132	-1.1736152	-0.0893421	-0.54933226	0.18410249	-0.37814614	0.5774072	0.46942136	-0.10553071	-0.56392676	-0.32745388	0.44679236	0.34344783	0.50713694	-0.048473567	-0.26507214	-0.0084365755	0.23951626	-0.8443038	0.18857358	0.32967466	-0.30323654	0.43632016	-0.054790586	-0.72286034	-0.0047267973	0.34965873	0.091071956	0.8003122	0.3307443	-0.47896516	-0.23081176	1.0088384	-0.28527898	-0.7898862	0.19687375	-0.36162692	0.06661909	-0.6401037	-0.21091053	-0.7937563	-0.22619855	-0.45927578	-0.4684673	0.30740798	0.4862696	-0.37638035	0.23838487	-0.3877483	-0.5103345	0.6358002	-0.5243921	0.09889503	-0.37514037	1.1049881	0.13663226	-0.1380434	0.61183107	-0.1912097	-0.16391549	-0.58103716	0.39522204	-1.2935414	0.21131316	0.5327795	0.012767058	-0.44850326	-0.4970475	-0.36228558	0.62693894	-0.687046	0.3286373	0.26864737	-0.7544542	0.2947277	-0.66096663	0.3686903	-0.24518552	-0.80704224	-0.44809934
