G001007025	-0.22097538	-0.14355469	-0.594062	-0.25967818	0.52948886	-0.3215074	0.0582833	-0.5381078	-0.0041571856	0.512686	0.13606653	0.2948455	0.3979615	-0.26288515	0.3875889	0.74270606	-0.4436673	-0.16733198	0.4272889	0.8312503	-0.2421595	-0.20041552	0.36631453	0.23187205	0.20282832	-0.5373723	0.34637317	-0.29418686	-0.9569233	-0.22724754	0.51281357	-0.1033871	-0.18344507	0.12526381	0.03629969	-0.2529585	-0.3049925	0.06839743	-0.57865286	-0.43525958	0.89054996	0.23799708	0.22224833	-0.5726855	0.72376466	-0.28521505	0.39585316	-0.27986106	0.3658787	-0.54526496	0.15022212	-0.20494288	0.354827	-0.3024971	-0.25079754	-0.07171118	0.14890842	-0.3953034	-0.2967841	0.072381586	0.805217	-0.06574184	0.013086408	-0.36520374	0.18958268	-0.21148364	-0.20291868	-0.41581458	-0.17130938	0.73598737	-0.43748614	-0.64615273	0.10364491	-0.62391907	-0.2562803	-0.67342865	0.5865943	0.9091301	0.08239414	0.03806396	0.5468876	0.25198793	0.5357807	0.12588732	-0.6753111	-0.04093016	-0.17425439	-0.52860445	-0.48251024	0.23608857	0.13049647	0.24359229	0.4283281	-0.101970464	-0.042832717	0.07440214	0.045758985	0.47428375	0.11037889	0.0012996793	-0.048092782	0.31408936	0.26288235	-0.0251606	0.49164248	-0.43756837	-0.060949236	-0.61249316	0.14691877	-0.020347022	0.16881725	0.34222078	0.07153246	-0.1852186	-0.5503872	0.0695155	0.0934324	-0.62836665	-0.18902014	-0.8926853	-0.3208177	-0.09160594	-0.35759097	0.8399992	-0.43156946	0.3593995	0.09604049	-0.5127921	0.03540396	-0.15956593	-0.34431654	-0.3270753	-0.5764479	0.27053386	-0.16070956	-0.4258866	0.1380524	-0.67369133	0.08382302	0.56290424	0.64886194	0.7801355	0.29905707	-0.33440313	-0.112940475	0.6649514	0.25706753	-0.35035703	0.30218953	-0.10277657	0.38056278	0.36088008	0.39047667	0.38717777	-0.4019526	-0.20415165	-0.112755	-0.049953014	-0.7000706	-0.20082647	0.014792353	0.5868786	0.022889778	0.06479584	-0.07223235	0.46740308	-0.20882395	0.114136755	0.044220895	-0.09409504	-0.2646633	-0.49049103	0.23266768	0.42585173	0.07541704	0.25069767	0.20962271	0.4151063	0.30965692	-0.2848518	0.2874317	0.117856085	0.47729933	-0.019476622	-0.13944426	0.6346001	0.24233489	-0.21634226	-0.1887317	-0.44890112	0.724459	0.18213513	0.21055114	-0.28374296	-0.92771995	-0.3766171	0.06552273	-0.11737108	-0.9178659	-0.046282083	0.7966812	0.2880128	0.5815717	0.35792708	0.011606159	0.64991355	0.2443684	-0.29720038	-0.019008718	0.15367407	-0.21226062	-0.49123353	0.3232835	0.67550313	-0.46612918	-0.024485715	0.11009142	0.029319555	-0.9577839	0.4109884	-0.7509295	-0.4384238	0.26772934	0.36620787	-0.38935953	-0.8621973	0.13358359	-0.14616784	0.30485046	0.0057178885	0.59099185	0.27747715	0.29589942	0.20695555	0.3062675	0.23999684	0.7505583	-0.22353047	-0.46049863	0.43602788	0.041165024	-0.24494028	-0.85202557	-0.4556206	0.56893474	-0.30622643	-0.9736646	0.50717545	-0.23530263	0.1616923	0.43238693	-0.19840342	0.30669874	0.22835934	0.37738717	-0.58911747	-0.5827434	0.08575183	0.17516056	-0.23290804	-0.24318899	-0.10829781	0.5827339	0.23353311	0.15355334	-0.3745123	-0.32190886	-0.016262913	0.18355502	-1.0600585	0.38343707	0.39927194	0.026749872	-0.028599173	-0.099833004	0.18452172	0.6064313	0.07584506	-0.45647645	-0.5419532	0.86998445	-0.31335956	0.23763306	-0.2911546	0.23114303	-0.52293885	0.55196667	0.045422386	0.23082615	0.49677956	0.25189215	0.18528163	0.21447745	0.1751934	0.017821569	0.563695	-0.21513782	-0.2010449	0.36649042	0.15500489	-0.5000373	-0.030407622	-0.56032157	0.37322518	-0.00065769255	0.010888562	-0.22900909	0.9829275	0.0549469	-0.17187634	-0.5223092	0.007918745	0.16055158	0.18117696	-0.094445854	0.14808124	-0.061842382	-0.23176482	0.17906237	0.299671	-0.020458639	-0.045254566	-0.040006757	-0.28418618	-0.008615322	-0.41405386	-0.09466816	-0.31265762	0.5817419	0.045742065	0.2013357	0.2770901	-0.34723985	-0.31076163	-0.7426101	0.516657	-0.20250826	-1.2235057	-0.88293433	0.5716108	0.2743615	0.7368522	-0.10387505	-0.21073093	-0.6045496	-0.54462445	-0.4957576	0.0745975	-0.20368066	0.3485607	-0.48447415	-0.5289125	0.4544419	0.7239624	0.24247307	0.1856569	1.1942751	-0.21346064	-0.56946397	0.0949709	-0.14851926	-0.4927724	-0.10200599	-0.15349507	0.20638075	-0.47469267	-0.0504955	0.5789826	-0.46665767	-0.48845476	-0.8427581	-0.0853765	-0.3080538	0.19650203	-0.5807899	-0.0005156398	0.8921038	-0.5565163	0.054467887	-0.21309933	0.15507694	0.21817625	0.35526806	-0.07063169	-0.2156564	0.1916897	-0.6520269	-0.49800274	-0.55851734	-0.78742194	-0.7267479	-0.19245121	-0.09242436	0.47120118	-0.14055738	0.1962402	-0.16218789	-0.08326836	0.30257374	-0.50712144	0.05497463	-0.22605336	-0.4609249	0.69920087	-0.5992528	0.11292422	0.64889807	-1.1158162	0.00031462312	-0.43182594	-0.33771908	-0.24713618	-0.22296086	-0.4464012	-0.4322207	-0.07417998	0.508312	-0.697441	0.19233361	-0.01761549	-0.25877357	0.4112908	0.25685853	0.2072773	-0.312329	-0.31200373	-0.03488286	0.30539212	-0.14434344	0.18211888	0.72241354	0.82737285	0.1475402	-0.089147754	-0.09599969	-0.29347038	-0.39359236	0.44297725	0.04208751	-0.091030195	0.5939295	-0.15065478	-0.00051862374	0.9418893	-0.16187695	0.19149984	0.26160175	0.15473996	-0.5517154	0.06309803	0.2895805	0.4053262	-0.0089615695	0.72129965	-0.06911723	0.041691646	0.5998024	-0.8833995	0.12992772	-0.07136478	-0.35173318	-0.11102924	-0.09500173	-0.11618171	-0.7853877	0.23226327	-0.25339904	-0.42758954	0.26833043	0.3323544	0.016156778	-0.16697103	0.2430081	0.13550486	0.7307914	-0.20288405	-0.26662332	-0.21245234	-0.3359505	-0.35253096	0.09051594	0.7999495	0.004724264	-0.28256708	-0.042651027	-0.1300021	-0.22460313	0.22056426	0.71442676	-0.36247697	-1.2576625	0.09844519	-0.9011984	0.114335395	0.5384709	-0.37530583	0.20664966	0.2291435	0.5073407	0.7965158	0.085769616	-0.86825424	-0.7431217	-0.371378	-0.40963387	0.39348277	0.33481592	0.096420206	-0.19097336	-0.1417158	-0.18646479	0.34081548	0.43062243	0.042902276	-0.60076094	0.03846432	-0.09907794	0.050071716	-0.99364007	0.20561631	0.17651741	0.24092534	-0.37351438	-0.2346114	0.05744773	-0.5163313	0.3226654	0.2024199	-0.43053392	0.13771549	0.37518084	-0.288582	-0.27108693	-0.12675591	0.115005486	-0.06652719	0.039684355	0.4405532	-0.75432086	0.1823973	-0.09392684	-0.49699855	-0.05828382	0.48853782	0.2503572	0.5277251	0.1378277	-0.1018796	0.0126776695	-0.24447802	-0.71935475	0.0656963	0.46998954	-0.4866335	-0.21952659	0.41984656	-0.16240197	-0.31925905	-0.46304417	-0.65918595	0.3085053	-1.2085268	-0.37510708	-0.39527756	-0.10189478	0.7019002	0.51233447	-0.3424681	-0.03516923	0.74753165	-0.65590847	0.09661303	-0.36027348	-0.43032494	-0.05297787	0.02264715	-1.1032834	-0.5948541	-0.24710926	-0.37937546	0.31664252	0.054752216	-0.11806251	0.21381	0.54141605	0.29534182	-0.56412315	-0.38867587	-0.6381711	0.062267117	0.341821	0.024774827	-0.09837228	0.14412147	-0.20041576	0.16457528	-0.01966812	-0.014875829	0.46802366	-0.17106229	0.25756112	-0.14292957	0.42179006	-0.13566144	-0.9110928	0.17796761	0.44649547	0.15421632	-0.424855	0.2264826	0.24936259	-0.1599667	-0.19244796	0.09523232	0.55859286	-0.27107322	0.1316385	-0.20944749	-0.7963456	0.32082057	-0.42925832	0.022321314	-0.16081496	-0.3517214	0.20221785	-0.39784917	0.42721003	0.027251333	-0.21310562	-0.09064582	-0.16761217	0.057683095	-0.21408124	0.37838128	0.102981724	-0.22373223	-0.26623634	0.1570023	-0.7629207	-0.14966016	0.74493647	-0.17314857	0.6069119	-0.1967588	-0.21583048	-0.719938	0.720469	-0.8206005	0.26876053	-0.4030515	-0.35692483	0.3108735	0.020452157	-0.12382369	-0.20572595	0.3834405	0.63519436	-0.32056212	-0.1022743	0.37814045	0.05055809	-0.56493807	0.24576163	0.20138033	0.4157174	0.53271055	-0.46012503	0.96292365	-0.45174676	0.3485657	0.11359307	0.6965866	-0.12233676	-0.2775958	-0.37468874	-0.19502428	0.39419782	0.13386671	1.0920511	0.4605316	0.38746923	0.6270446	-0.23202008	0.688187	-0.23524854	0.50780815	0.34668788	-0.20638952	0.16053614	-0.4621182	0.5096046	-0.15440555	-0.21757314	0.5786164	0.68653226	0.23484355	0.22069833	-0.7408371	-0.17988725	0.6821179	0.18116982	-0.69038767	0.23445137	-0.43744928	-0.030830055	0.5056333	0.6188245	0.45232987	-0.32281983	-0.6765731	0.3680762	-0.22099589	0.07560151	1.0307004	-0.7659612	0.09193447	-0.38674814	-0.2501471	0.78410417	-0.6377866	0.29430264	0.23670004	0.0046085417	-0.5146723	0.65347844	-0.64443505	0.7170064	0.36627102	0.20939353	0.081929386	0.14919977	-0.64107746	0.10663012	-0.31563437	0.44159734	0.16156608	-0.23640092	-0.07377192	0.086092524	0.04437363	-0.14791986	-0.40310732	-0.02630876	0.14892873	-0.4248778	-0.28181985	0.6131675	0.081679106	0.30351552	-0.24969335	0.27107897	0.5680826	0.06700625	1.0150678	0.06041868	-0.2023732	-1.1053393	-0.16654001	-0.48260987	0.46186486	-0.18552978	-0.50440425	-0.04706473	-0.22890727	-0.4264751	-0.010319125	0.34510309	0.36609256	0.63164294	0.40144557	0.39177954	0.082315594	-0.11955309	-0.2116931	0.23880675	-0.05989468	0.1341028	-0.39019763	-0.053886116	-0.17904717	-0.32994974	-0.36431822	-0.5534497	0.3751716	-0.0080700815	-0.43695652	0.2368179	-0.32000855	-0.00020662323	0.044454396	-0.69672585	0.30422568	-0.2507491	-0.6176916	-0.043487877	0.047602296	0.26121873	0.48463842	0.21205766	-0.80842304	-0.19242439	0.24221237	-1.135973	0.30352396	0.46431193	0.42714763	-0.05171846	-0.22335458	-0.33099592	0.5327479	-0.18095729	0.57651246	0.31583792	-0.8431412	0.71261775	-0.45295316	-0.71830654	-0.2862926	0.285395	0.09499517	-0.22385697	-0.15202475	0.266504	0.14865653	-0.50416124	-0.1186976	0.24869937	-0.11347991	0.33024728	0.109787166	0.3000183	-0.25108021	0.095400214	0.45080844	0.7812005	0.03638646	-0.0012418479	0.21316893	-0.4068629	-0.1279653	0.7290591	0.25906163	0.18030031	0.08462226	-0.77954215	0.07627409	0.7529329	-0.8880628	0.057565287	-0.29215983	0.13409817	0.3501614	0.647734	-0.5756551	0.15522571	0.08500156	0.2667714	-0.31623033	0.16646242	0.17162557	-0.030604362	-0.16117942	0.04004556	0.2107929	-0.024730772	0.3150105	-0.067180455	0.2345815	-0.0918712	0.6738904	-0.050472856	-0.2308439	0.22824857	0.11852897	-0.14202881	0.07477608	-0.5712054	0.20286702	-0.043891378	0.26147398	0.2917984	0.52166104	0.6445662	-0.013525233	0.15474336	-1.1374177	-0.24041203	-0.6311666	0.56524825	-0.07450933	0.0784913	0.6771099	0.72603345	0.12044503	-0.16722092	-0.29942477	0.14419602	0.3126319	-0.069448546	0.5240605	0.08447648	-0.26642317	0.68342036	0.29875726	0.51498497	-0.43888384	-0.21146695	0.14571221	-0.39384302	-0.4672822	-0.18244156	-0.25581008	-0.17874753	-0.44421956	-0.37301505	-0.39258105	-0.25954065	0.13774055	0.67793226	-0.16900404	0.6518076	-0.32451674	-0.71268404	-0.51560634	-0.50644743	-0.11749186	-0.06584996	-0.3316784	-0.7853344	-0.1669542	0.42951003	-0.6314719	-0.013054647	0.20538881	-1.2218134	0.0029706806	-0.4594337	-0.16232103	0.14176378	0.24595818	-0.026245043	-0.41631564	-0.24658293	-0.14346579	0.69672346	0.08544615	-0.32126763	0.17419836	0.0792256	-0.10483474	0.3750565	0.5510757	-0.4028313	-0.251668	0.22970909	-0.32331932	-0.2896963	0.010724589	-1.0582541	-0.18065724	0.104895435	0.35851645	1.056959	-0.10076837	0.61936593	-1.0280981	0.5368134	0.40687385	-0.27377123	0.06570245	0.75614244	0.4180886	-0.76878375	-0.052280053	0.2678531	-0.15804677	0.32578725	-0.45311418	-0.4006434	0.8751313	0.4360783	-0.12187624	-0.39252502	0.19897243	-0.083063155	-0.7473294	-0.5246375	-0.5110321	0.02918582	-0.31034994	1.1495857	0.4293355	-0.1767272	0.22700334	0.26858342	0.26283744	-0.33149156	0.21887381	0.36875442	-0.5129043	0.66507494	0.39203966	0.13438272	-0.05079639	0.15352795	0.16846405	-0.56960297	-0.14375103	-0.20154788	0.5907047	0.29586685	0.37539208	-0.5848862	0.32174936	0.026639134	0.06685749	-0.19813585	-0.14373414	-0.42748082	-0.33387315	-0.2260515	0.010580316	-0.06590139	-0.19350088
G000091085	-0.2259471	-0.14893717	-0.592502	-0.26322842	0.53200626	-0.3234637	0.058374256	-0.5338889	-0.005676225	0.51021653	0.14022864	0.29505634	0.40074667	-0.260625	0.38954675	0.7412988	-0.44251907	-0.16909677	0.4266783	0.8326466	-0.24304432	-0.20015502	0.3630474	0.2306552	0.20609179	-0.53655106	0.34647205	-0.29485616	-0.9560613	-0.22717835	0.50978756	-0.0994353	-0.18468052	0.12875098	0.035935655	-0.24973662	-0.30731457	0.07144292	-0.5789486	-0.4301031	0.8948957	0.24009743	0.22427703	-0.5750611	0.72054666	-0.2828886	0.39216936	-0.27961305	0.36619532	-0.54146403	0.14723434	-0.20622538	0.3570528	-0.30205858	-0.25105774	-0.06454627	0.14585662	-0.39475855	-0.28773	0.06972213	0.8026839	-0.0673313	0.010630399	-0.36441985	0.18670979	-0.20870058	-0.20364219	-0.41302004	-0.16834474	0.73811436	-0.4396354	-0.640582	0.10491884	-0.6274166	-0.26089895	-0.6721226	0.5900041	0.9016702	0.08221692	0.03842044	0.5543275	0.2572615	0.5397291	0.12941635	-0.67546505	-0.0433226	-0.17920099	-0.53138316	-0.47680932	0.23727843	0.13283408	0.24518749	0.43324667	-0.10495168	-0.045806006	0.074754596	0.049350224	0.476082	0.10985449	0.004107058	-0.05148746	0.3110643	0.2586416	-0.028488776	0.48937994	-0.4386986	-0.054714963	-0.613642	0.1481696	-0.026971228	0.16683328	0.3461395	0.07009518	-0.187522	-0.5546743	0.07378879	0.09589425	-0.6263886	-0.1931383	-0.89712983	-0.3226115	-0.08743692	-0.3605201	0.8367219	-0.43424857	0.35844812	0.09784946	-0.51263916	0.03516926	-0.15906492	-0.34413075	-0.32896522	-0.5737166	0.2675131	-0.16258442	-0.42146567	0.1342212	-0.67209697	0.08457084	0.56798196	0.6549971	0.78113294	0.294407	-0.33342052	-0.11017047	0.66151655	0.2614066	-0.34927037	0.30752328	-0.10649848	0.38673487	0.36356327	0.3947753	0.38865453	-0.4029965	-0.20891106	-0.11650014	-0.049980894	-0.6991793	-0.20137472	0.014613748	0.5835775	0.02468425	0.06735554	-0.06575677	0.46644142	-0.21103819	0.11220071	0.045224637	-0.09901723	-0.2645935	-0.49375275	0.23062463	0.42226562	0.07506293	0.2517953	0.20886862	0.41753584	0.3109564	-0.28376937	0.2872327	0.11655611	0.47691002	-0.022495672	-0.13595523	0.63448143	0.24122383	-0.21900317	-0.18684754	-0.44551706	0.7258917	0.17850694	0.2109769	-0.28231293	-0.92992437	-0.37358436	0.06508526	-0.12570938	-0.9190701	-0.044903487	0.79557675	0.28967637	0.58389306	0.359411	0.01087993	0.65290976	0.24524544	-0.29528782	-0.022497289	0.15549226	-0.2132256	-0.49210274	0.3226381	0.6753205	-0.46806246	-0.023589842	0.10801938	0.03013733	-0.96278197	0.41372457	-0.74999094	-0.44353932	0.27218366	0.3649811	-0.3888899	-0.8671398	0.1335862	-0.14586793	0.3009722	0.0057198703	0.5926962	0.27867457	0.2975607	0.20327805	0.30808067	0.24274327	0.75481457	-0.22350442	-0.4605118	0.43678206	0.03622868	-0.24705195	-0.85320437	-0.45477387	0.5721459	-0.3100509	-0.97369295	0.50671756	-0.239912	0.16302471	0.43097308	-0.19519225	0.30589136	0.22460365	0.37419975	-0.5822898	-0.58367	0.08164899	0.1787184	-0.23327866	-0.24000359	-0.107420266	0.58615863	0.23563391	0.15211928	-0.3738614	-0.3265431	-0.016016072	0.1832605	-1.063152	0.38173264	0.4012177	0.035396636	-0.028362855	-0.10787624	0.18045603	0.60858	0.07549341	-0.45435226	-0.54092455	0.86691487	-0.30744344	0.23701584	-0.28964385	0.22811657	-0.5227444	0.5496108	0.047343522	0.23340021	0.4985032	0.25076443	0.18904275	0.21826717	0.17381585	0.02376269	0.5627642	-0.21584277	-0.20241342	0.36920097	0.14997055	-0.49989572	-0.028110206	-0.56061447	0.3724606	-0.00090150535	0.01120697	-0.23022366	0.9848054	0.05458188	-0.17121388	-0.51939917	0.009945929	0.15888652	0.18151617	-0.09917689	0.14710334	-0.06348425	-0.23362848	0.17924714	0.2965564	-0.020363927	-0.050444834	-0.03422913	-0.2853502	-0.007439457	-0.41590682	-0.091581985	-0.31479418	0.58769417	0.045143634	0.2011885	0.28104258	-0.34495756	-0.3106818	-0.7431308	0.5155022	-0.20776062	-1.2214746	-0.8842062	0.5691023	0.26925236	0.73610044	-0.10170187	-0.20933464	-0.60438913	-0.54280484	-0.49663174	0.07364883	-0.2017001	0.34528646	-0.48195377	-0.5272638	0.45171124	0.72199667	0.24276207	0.18603614	1.1951213	-0.21207689	-0.56976557	0.09603602	-0.1507594	-0.4991603	-0.10604331	-0.1486836	0.20755348	-0.4763225	-0.052193858	0.5790427	-0.46331555	-0.48891586	-0.84451723	-0.08126612	-0.30705112	0.19614702	-0.5814328	-0.00045914948	0.88773334	-0.55913585	0.055873334	-0.21228364	0.15261899	0.22094116	0.34857136	-0.06788108	-0.21676028	0.19222127	-0.6485479	-0.49919856	-0.56051874	-0.7891505	-0.7243259	-0.19384925	-0.095467016	0.4744461	-0.13934945	0.19972238	-0.16581121	-0.08481245	0.30565268	-0.50738084	0.05860561	-0.22628853	-0.4650441	0.6991278	-0.5974388	0.11619387	0.65248835	-1.1140896	-0.0007444322	-0.43361533	-0.33537135	-0.25051066	-0.22228113	-0.44554883	-0.4348628	-0.076070294	0.50588024	-0.69958043	0.19212833	-0.019888535	-0.25984386	0.4121667	0.25658274	0.20753175	-0.31479082	-0.30929944	-0.03445582	0.306842	-0.14202651	0.18046895	0.7233941	0.8287761	0.14762215	-0.08977763	-0.09514743	-0.29379252	-0.39589858	0.43868914	0.03739503	-0.093652576	0.5949949	-0.14929517	-0.006478496	0.94083774	-0.16327538	0.19351959	0.25865042	0.15447426	-0.5481973	0.06697048	0.29619256	0.41265726	-0.0064888224	0.7229776	-0.07565929	0.03660918	0.6045824	-0.88330233	0.12911391	-0.0698272	-0.35391602	-0.11061119	-0.09472972	-0.12210783	-0.7847469	0.23058465	-0.25922745	-0.4290566	0.26669475	0.33121276	0.015528552	-0.17016752	0.24684975	0.1344336	0.73350483	-0.19951516	-0.26642662	-0.20687194	-0.33569002	-0.3533873	0.08693448	0.80060494	0.003907591	-0.28457972	-0.046113193	-0.12922488	-0.21984147	0.2203281	0.713876	-0.36200917	-1.2564303	0.09912465	-0.9017142	0.11453466	0.5392577	-0.37613887	0.2025412	0.22666565	0.50840956	0.79968345	0.08545265	-0.8699632	-0.74077755	-0.37280262	-0.40520883	0.3927669	0.33904344	0.09709969	-0.19382635	-0.13848326	-0.18555313	0.3397223	0.42988718	0.047710955	-0.5985882	0.039879654	-0.1000368	0.048435763	-0.99389565	0.2060171	0.17756334	0.23966154	-0.37563348	-0.24062817	0.060706288	-0.51236194	0.31599307	0.20666915	-0.43104574	0.14095005	0.37572744	-0.28558293	-0.27494544	-0.1246079	0.11861642	-0.062143765	0.041310366	0.44185078	-0.75219864	0.18144584	-0.087577425	-0.4988704	-0.055503815	0.48985457	0.25260508	0.53059167	0.14257078	-0.10439801	0.015219152	-0.25190744	-0.717953	0.06902507	0.47543573	-0.47927296	-0.22245264	0.41735378	-0.16079639	-0.32039452	-0.4607523	-0.6640525	0.3049049	-1.2127565	-0.38090172	-0.3968402	-0.10471697	0.70149684	0.5098722	-0.33920807	-0.031800628	0.7387555	-0.6565314	0.093389735	-0.36347014	-0.43287864	-0.049948122	0.025084332	-1.1015446	-0.5938479	-0.25139534	-0.3747701	0.31539065	0.05449909	-0.11937153	0.2099718	0.5428108	0.2933849	-0.5606679	-0.39196163	-0.641464	0.05889944	0.34336826	0.025549948	-0.1018415	0.145303	-0.19955325	0.1601245	-0.014552288	-0.015749633	0.46584564	-0.1688627	0.25813633	-0.142676	0.4236907	-0.12790734	-0.9136931	0.17754957	0.4466946	0.15678081	-0.42563367	0.22625664	0.24678111	-0.16427447	-0.19094852	0.09200175	0.5621133	-0.26861322	0.13056174	-0.20869055	-0.799299	0.32028726	-0.43191743	0.022379056	-0.160901	-0.3537034	0.20556583	-0.40128264	0.42377526	0.028365951	-0.21048671	-0.09358895	-0.16904566	0.060687467	-0.21046145	0.37727055	0.099368654	-0.22206551	-0.26608887	0.15723446	-0.76104224	-0.14522351	0.7446514	-0.17379071	0.607317	-0.19800523	-0.21547534	-0.71772313	0.7212467	-0.8244074	0.27088353	-0.39846504	-0.35726044	0.31705695	0.023291633	-0.12634647	-0.20157987	0.38576436	0.6338316	-0.31682977	-0.10408622	0.37563592	0.04846713	-0.5638167	0.24697208	0.19493875	0.41749257	0.5316551	-0.458964	0.9600607	-0.45022956	0.34648046	0.11714344	0.6981255	-0.12228447	-0.2820248	-0.3785901	-0.19323054	0.39397585	0.13841231	1.0935279	0.45971513	0.3893913	0.6233772	-0.23277643	0.69183266	-0.23060144	0.50454706	0.349739	-0.20479973	0.16063023	-0.46012312	0.5089083	-0.15586092	-0.21554	0.5776905	0.6846168	0.2414371	0.21860649	-0.74113524	-0.17817412	0.6871501	0.18146321	-0.6857791	0.23456815	-0.43598437	-0.027956128	0.50537527	0.6203327	0.45375085	-0.32473844	-0.6783829	0.37014872	-0.21614091	0.076159045	1.0297999	-0.7664689	0.09370518	-0.38963062	-0.2536951	0.78383803	-0.6422628	0.29515213	0.23418845	0.005420223	-0.51747364	0.6471673	-0.64210963	0.7174777	0.36833254	0.20742872	0.08161715	0.14974807	-0.63915366	0.10203743	-0.31826192	0.44152975	0.15728241	-0.23868339	-0.07583214	0.08022654	0.04360374	-0.14560568	-0.40647098	-0.025989644	0.14819297	-0.42172801	-0.28475535	0.6137463	0.07977085	0.30718327	-0.24970508	0.2740378	0.567205	0.062682204	1.0127699	0.058692724	-0.20451997	-1.107716	-0.16853768	-0.48707774	0.4586486	-0.18299171	-0.50091404	-0.042918354	-0.22990556	-0.42604864	-0.011356631	0.3450702	0.36162335	0.6301917	0.40087706	0.39144665	0.08595276	-0.11685023	-0.21147755	0.23989293	-0.057864904	0.139365	-0.38854367	-0.05119554	-0.17945896	-0.32917792	-0.36729583	-0.5501423	0.37641776	-0.00681901	-0.43978357	0.23500079	-0.31540143	0.0014564246	0.0425722	-0.69279087	0.29781985	-0.2569898	-0.6164374	-0.043206513	0.041674554	0.26279712	0.48729086	0.21375203	-0.8088274	-0.19023031	0.23921138	-1.1348975	0.2977474	0.463204	0.42447588	-0.045194156	-0.22610499	-0.32697415	0.53529656	-0.18118456	0.57840526	0.31720668	-0.845087	0.70655215	-0.44818884	-0.7182295	-0.28742397	0.2889777	0.09653956	-0.22508062	-0.14658323	0.26704153	0.15013409	-0.50097805	-0.11819808	0.24413773	-0.114297286	0.33018607	0.11429447	0.29857415	-0.25458223	0.09951069	0.45063823	0.78356445	0.03560251	0.00046833605	0.21087399	-0.40557626	-0.13132808	0.7313626	0.25823444	0.17709157	0.08806271	-0.77824193	0.079836175	0.75180167	-0.8894994	0.058561683	-0.2906323	0.13520692	0.35342902	0.6458478	-0.5772661	0.16093649	0.08378866	0.27131224	-0.31629863	0.1606498	0.17090407	-0.030714102	-0.16258405	0.03628564	0.21000078	-0.026740085	0.3173861	-0.07198954	0.23133698	-0.091200255	0.6736605	-0.051179588	-0.23199362	0.22511862	0.12040632	-0.13620426	0.075562164	-0.5712995	0.19642392	-0.04351393	0.26689962	0.29451463	0.52184975	0.646018	-0.009187266	0.1527741	-1.1352807	-0.2415605	-0.6297928	0.56480163	-0.07645886	0.08111058	0.67659533	0.7307835	0.122376144	-0.16766264	-0.30193117	0.14597312	0.30908155	-0.071793854	0.52282757	0.08517208	-0.26449445	0.679771	0.2978936	0.5145814	-0.43437773	-0.21225432	0.14575043	-0.39677018	-0.46329424	-0.18100618	-0.2554543	-0.18046772	-0.4410018	-0.37256423	-0.39235464	-0.25544047	0.1458866	0.67715216	-0.16533303	0.6512242	-0.32463795	-0.7180629	-0.51251924	-0.5037626	-0.12021806	-0.06742364	-0.33518434	-0.77998495	-0.16427252	0.43134978	-0.6316917	-0.011452235	0.20193584	-1.2215306	0.0035845488	-0.45381722	-0.16466556	0.14128062	0.24530655	-0.023832113	-0.4126573	-0.24478786	-0.14369507	0.6933759	0.08493003	-0.32332084	0.16977407	0.077572465	-0.10555647	0.37890315	0.55470514	-0.4084444	-0.2486155	0.23191543	-0.3217803	-0.2916552	0.006847605	-1.0551546	-0.18777877	0.099223174	0.3605286	1.0553464	-0.10069676	0.61967266	-1.0311449	0.5394568	0.40805587	-0.27802798	0.06715724	0.7601775	0.41772127	-0.7695434	-0.053303465	0.2667608	-0.16039997	0.32863986	-0.45142674	-0.39952287	0.87601256	0.43819302	-0.121034265	-0.3924895	0.19934788	-0.08671395	-0.7465591	-0.5254812	-0.50949687	0.028954104	-0.31104654	1.1471713	0.42935312	-0.17596683	0.21962133	0.26613465	0.26425236	-0.3270273	0.22157791	0.36381045	-0.51332855	0.66416395	0.39550868	0.13629311	-0.04482873	0.15298706	0.16653308	-0.5657925	-0.14667371	-0.19938968	0.59110016	0.2925135	0.37942168	-0.58377546	0.32309437	0.02680856	0.06796843	-0.19930987	-0.14322335	-0.42562854	-0.33458614	-0.22665529	0.009976849	-0.06285483	-0.1884847
G001796065	1.0662988	-0.86319643	-0.50155467	-0.7669929	0.0015000403	0.07317263	-0.25674587	0.26773417	0.5339221	1.5664517	-0.16157913	-0.8563083	-0.06511904	-0.44758725	1.0301467	0.5821912	-0.92171293	-0.13714889	-0.4724546	0.46626198	0.272745	-0.63349104	-0.519554	0.17418717	-0.35110354	-0.15853974	0.7651962	-0.0856345	-0.9009486	-0.6794008	0.30327153	0.1229271	0.1771724	0.62789315	0.10410473	-0.42971513	-0.27688748	-0.35291466	-0.5095258	0.08911297	0.37709114	-0.49327222	-0.38527924	-0.20891991	0.7571986	0.098594606	0.2720337	-0.53012663	1.0642949	-0.15554346	0.7673562	0.5320387	1.1632787	0.15096414	-0.27706218	-0.16088256	0.2379218	-0.72140646	0.14160582	-0.45385164	0.6875843	-0.5881266	-0.14717111	-0.3024155	-0.32469586	-1.4145637	0.22590218	-0.04388231	0.059820294	0.24558108	-0.48651403	-0.7193225	-0.104937404	-0.3330879	-0.0985732	-0.35522586	0.62164783	0.6000866	0.4187048	0.20846064	0.19885707	-0.2988168	0.7814332	-0.53456527	-0.16231242	0.77897966	-0.48324427	0.38372797	-0.47311872	-1.1253211	-0.19341372	-0.4175447	-0.10088278	0.60315967	0.092171244	-0.02020903	-0.27111113	-0.60782003	-0.8502273	0.3736262	0.16318235	0.70281184	-0.5599068	0.023052156	0.17457855	-0.3261115	-0.5780229	-0.21772335	-0.011044487	-0.5216418	-0.31342784	0.94070387	0.28861892	0.30549246	-0.14527951	-0.1401473	0.29452765	-1.0661709	-0.55554664	-1.2139876	-0.5443316	-0.69043076	0.6749271	0.918144	0.3060757	0.45598537	0.32778892	0.34380114	-0.16239013	0.57933927	0.35611582	0.35614276	0.06622805	0.78298974	-0.2608373	0.22955386	0.45472032	-0.5726284	0.14850698	-0.08157789	0.25218487	0.5132723	-0.27517295	-0.92109525	0.67008936	0.4098906	-0.443828	-0.10372451	0.0946733	0.19721192	-0.07690579	0.047635823	-0.0934356	-0.47543848	0.50766635	0.16618805	-0.4269583	0.2309997	-1.0027082	-0.0063504577	0.55331993	0.5718914	0.99193347	1.1251466	-0.1888133	0.23813355	-0.38784254	-0.34055036	0.0017833859	-0.29917228	0.13931288	-0.1839655	0.51677394	0.21427655	0.4256465	0.20034148	1.0681251	-0.04566264	0.03476394	1.1683617	0.39089453	-0.5320278	0.66230196	0.3605813	0.5848411	0.9847476	0.67139184	0.08233707	0.2592178	-0.34555689	0.13683848	0.0041328073	-0.17651282	-1.184329	-0.7253832	-0.13370943	-0.3470169	0.34107757	-0.45194232	-0.5671228	0.3107978	-0.48685262	0.9691388	-0.15300441	-0.5157053	0.8386413	0.37288305	-0.09449449	-0.09053302	-0.023442067	0.48797718	-0.20837966	0.6893071	-0.2523443	0.09367907	0.56084466	0.17123026	0.55737644	-0.292687	0.08436396	0.31973475	-0.5512886	0.53094214	0.8743876	-0.03597842	0.13555191	0.8205416	-0.122410595	-0.26734042	0.009570003	0.06229849	0.14516203	0.60465944	0.3673378	-0.31236568	0.07555479	-0.16183288	-0.26743042	-0.67499876	0.1738278	-0.20312351	0.10810323	-0.12354398	0.036762014	0.43416896	0.12416345	-0.67156816	1.1240318	0.3088469	-0.022853673	-0.33249244	0.37292543	0.10952744	-0.34489626	1.1523058	0.3739924	-0.49832177	0.3671191	-0.12331697	0.0861063	-0.22551118	-0.29011035	0.002594389	-0.44988623	0.4236913	0.062539026	-0.032004267	0.34647322	-0.9316568	-0.36236945	-0.11068845	1.2284572	-0.5836391	0.110512	0.30170408	1.1233764	0.5079527	-0.2678737	-0.9391483	-0.4498816	0.3208157	-0.03221634	0.6107478	-0.12119001	-0.32088012	-0.2514406	0.23378778	-0.06426536	0.9820373	-0.4655862	0.10991805	-0.48796028	0.17927837	0.70693517	-0.099511035	0.3189941	-0.22967073	-0.257506	0.38304064	-0.17517748	-0.1472884	-0.5216223	-0.24099946	0.12507448	0.8135125	0.8275708	-0.47791985	0.71427655	0.63050306	0.3189126	-0.8446228	-0.40249828	0.6573621	1.3254772	-0.13102278	-0.26145858	-0.53853333	-0.6719659	-0.03616658	-0.12515205	-0.1527063	-0.1712584	0.39565685	-0.7787131	0.013148144	-0.62991565	-0.17858803	-0.062211588	0.021185663	0.23892546	-0.1806606	-0.9902114	-0.9402542	0.2140692	-0.5284227	0.7843721	0.31633455	-0.34343827	0.06399436	0.7400969	-0.44252837	0.22517459	-0.44317612	0.20590112	0.11676718	-1.0565555	-0.0070866346	0.50969017	-0.25898808	0.7120401	-0.5007896	-0.8365462	-0.11354306	-0.15303904	-0.46066839	0.4989206	1.1232674	-0.028828025	-0.4193362	0.0012327507	0.12899768	-0.25572807	0.10937005	-0.7541696	0.2589083	-0.044538528	-0.09021629	0.87722063	0.41623026	-0.3049994	-0.5541487	1.142497	-1.0277818	-0.3043585	-0.5862962	-0.29487544	0.7364787	-0.34028867	0.039925754	0.71040314	0.024857074	0.29217094	0.22417235	0.12427154	-0.469569	0.12894177	-0.29015252	-0.051656574	-0.1142508	-0.6574555	-0.18693013	-0.16392343	-0.84953254	-0.5888949	0.3358653	0.58962154	-0.039979875	0.5392861	0.2726065	-0.42553088	0.068122	-0.6659851	-0.124726236	-0.008006707	0.07265275	0.40638757	0.8258597	-0.64926296	-1.2207948	0.23716386	-0.5878453	-0.1859774	-0.08352181	-0.43068713	0.45796928	0.25459832	0.28579104	0.036762454	-0.18979834	0.117652245	0.01322902	0.11416274	0.4164167	0.006325051	-0.07712513	0.35337952	0.8207472	-0.012456914	0.2839505	0.03052339	1.5709599	0.6000519	-0.42308134	0.841735	-1.0291827	-0.8350705	-0.05999729	-0.1991882	0.29308242	-0.1554375	0.21196222	0.18963334	-0.39977884	0.31971905	-0.7078436	0.18442282	0.14086488	-0.30191255	-0.32037354	-0.19684611	-0.2739397	-0.41579327	0.94020265	0.12210313	0.51704353	0.09083146	0.5973804	-0.53918403	-0.60960364	-1.0014578	0.025589399	-0.9620809	-0.42061347	0.20829639	-0.8497606	0.09263638	-0.9212748	0.06941858	0.67154104	0.3477165	0.60872054	0.36065245	0.49664235	-0.34940618	-0.25979537	-0.31888574	-0.14373843	-0.7732797	-0.19514965	-0.03856966	-0.36425942	0.22472	-0.2185794	-0.11501067	0.54905933	0.21670796	-0.79810435	-0.33528963	-0.119010985	-0.101318754	-1.0552158	0.32231915	-0.24621192	1.0783898	1.1005869	-0.21471208	-0.18073085	0.5561485	0.2534529	0.1298455	0.20104092	-0.8250778	0.2912223	-0.69295233	-0.2238392	-0.6186525	-0.18114653	-0.037073016	0.24701992	0.2607795	-0.02701636	-0.12219122	0.6229043	-0.221955	-0.25860822	0.36390412	-0.55875814	-0.68991685	-0.32516378	0.16253735	-0.29843706	-0.20787472	0.005107045	0.84425706	-0.12869352	0.123067155	0.7618488	-0.05935821	-0.4641987	-0.18270437	-0.5939581	-0.3284005	-0.004201852	-0.601791	-0.18806331	-0.14133388	1.2234491	1.1959482	-0.28148207	-0.045051888	0.20344229	-0.12900811	-0.41723758	-0.19232343	1.0511911	1.4711334	0.008561537	-0.6585609	-0.19912544	-0.03627439	-1.0364629	0.092328325	0.78247285	-0.1583139	0.25170416	0.8997516	0.077517085	-0.3790727	-0.1853801	-0.20044303	0.18719667	-1.1200953	0.12918368	-0.63574004	-0.17725855	0.65359294	0.12284127	-0.49613443	-0.050358698	0.6209432	-0.0049020797	-0.26235604	-0.08094499	0.08805904	0.11783448	0.18191673	-0.4135836	-0.18464866	-0.2318263	-0.3164996	-0.3826336	0.34127128	-0.7258202	0.010689676	-0.4775917	-0.1698657	0.2827111	0.14181156	-0.023669884	0.121068165	-1.1592697	-0.44939238	0.20940307	0.44022667	-0.4620483	0.0457049	0.16556276	0.42798325	0.49362445	0.38900492	0.88284683	0.46260187	0.26058292	-0.24048042	-1.0176384	-0.18521136	-0.801337	-0.471987	-0.40035555	0.6268892	0.020665381	-0.6611557	-0.011993125	0.3845362	-0.5849813	-0.38866785	-0.5978602	-0.52674496	0.039034706	-0.48135865	-0.117696136	0.102545775	0.44212627	-0.45478055	-0.90445644	0.28764313	0.32584715	-0.10657233	-0.29192272	0.12209494	-0.31210333	-0.17681105	0.29038227	0.29420468	-0.15539107	0.56317705	0.99341184	-0.5319701	-0.25582987	-0.2515692	-0.13061225	-0.5679133	0.28168452	-0.027396977	-0.34996617	-0.28035218	0.61903083	-0.45333862	-0.18884686	0.15831351	-0.63313544	-0.15439104	0.2413198	-0.443577	-0.51911014	0.4688886	1.7298331	0.3976528	0.5560411	0.75710124	-0.5444882	-0.69570065	0.6348625	0.4427315	0.16009238	0.3677288	-0.35246465	0.36814976	-0.5581778	0.23301709	1.0893645	0.48835927	-0.6323138	-0.402873	-0.09373942	-0.11402008	0.89029825	0.6470953	0.41607428	0.15330221	-0.9446524	0.8697621	0.54015684	0.30262178	0.6324944	-0.39388454	-0.17804854	-0.30599958	1.0742204	-0.90707016	0.33845082	-0.376001	-0.022337139	0.40161413	0.67059034	1.1182852	0.13578475	-0.21274641	-0.21644822	0.6935463	-0.1247617	-0.72528505	0.104148984	-0.376847	-0.57003486	0.35148364	0.31131095	0.88232803	0.28599602	-0.5600638	0.16528092	-0.11612059	-0.0073304027	1.0561987	-0.21291584	-0.5799471	-0.7854185	-0.10913426	-0.25383598	-0.2936008	0.887404	0.29008073	-0.24580385	-1.0877464	0.16720724	0.11765468	1.5973861	0.6474401	0.36396408	-0.5250361	-0.31689548	-0.33128965	-0.3123865	-0.8575046	-0.012235433	0.15411517	-0.3406406	0.27074936	0.33883512	-0.03275621	0.061941773	-1.2288821	0.828437	0.55389816	0.015584245	0.20372903	0.32229728	-0.10969938	0.6320452	0.27546018	0.4731826	0.03466721	0.8745409	0.9096575	-0.80079937	-0.11299181	-0.5200252	0.5327882	-0.33603325	0.42070237	-0.14502051	0.05669955	-0.6311402	0.5702306	-0.7189021	-0.7771282	0.025107533	-0.76791614	0.13657455	1.1101863	0.4708424	-0.5917339	-0.31096882	-0.10728818	-0.25451967	-0.9778551	-0.28495058	0.2969529	0.15301162	-0.012428887	-0.47699597	0.17669442	-0.989727	0.39321038	0.37034574	0.6547693	0.58444446	0.37033266	0.4524405	0.22880667	-1.0239426	-0.12982154	-0.9718687	-0.67186046	0.39304358	0.42334586	0.1976003	0.205779	-0.3274603	-0.51559824	0.07858656	0.50844616	-1.3843844	0.03841211	-0.36484903	-0.12016919	-0.4607792	-0.04294425	0.23014967	0.0800558	-0.4891078	0.80856824	-0.24115857	-0.5050748	0.14469782	-1.0774488	-0.07097018	-0.14478381	0.13732463	-0.740655	-1.608535	0.21740346	-0.6380083	1.0022634	0.14487442	-0.19833806	0.52441347	-0.4000061	0.45827183	0.3556442	-0.19210093	-0.8583766	-0.9638271	0.67431295	0.62089485	0.5255996	-0.11901036	0.0484956	0.2853983	0.4801914	0.08695295	-0.19894828	0.34537107	-0.33646896	0.18838564	-0.21271984	0.9593005	-0.60688674	-0.37846708	0.5890424	-0.34265876	-0.014619306	0.024155527	-0.11511603	0.22525367	0.05491036	-0.05693157	-0.8273978	0.30347475	0.22187439	0.2628391	-0.7290273	-0.49602893	-0.049303792	-0.23471564	0.08152245	-0.008648038	0.098632336	-0.41803434	0.9421966	0.5486329	-0.605395	-1.0385594	-0.4420106	-0.50345266	0.35329592	-0.39819223	-0.05404987	0.4762275	0.0018261373	0.024466	0.5870059	0.9346677	0.50342584	0.8420732	-2.0533547	-0.8717448	-0.45326135	-0.14985535	1.1757332	-0.60491383	-0.394401	0.054310918	0.29699495	-0.47067755	-0.5015969	0.28921282	0.70522034	-0.55692124	1.199311	-0.64184517	-0.61803854	-0.07435213	0.37548938	0.42963523	-1.085222	-1.0874943	-0.59162396	-0.20633253	-0.29224968	0.6198053	0.25629428	0.10488269	-0.27130085	-0.25042087	0.21027187	-0.8316721	0.32653978	0.72590935	0.9504207	0.44449374	0.20616503	-0.6951998	-1.069981	-0.30348513	0.34255576	-0.0937994	-0.32988364	-0.49959904	-0.24862336	0.80193913	-0.435145	0.3820004	0.20071046	-0.75953776	1.2378974	-0.7566545	-0.19741166	0.2069838	0.7632836	0.068108864	-0.3373838	0.22590584	-1.1593691	-0.026264623	0.25790656	-0.03046213	0.9630928	0.23806795	0.49896964	0.34515262	1.0753231	-0.16890077	0.36144653	0.54855186	0.31524798	-0.21820822	0.15664852	-1.5667862	0.102234125	0.48171222	-0.25683126	0.640121	0.6960496	0.5152198	-0.8382574	-0.41980556	-0.25452104	-0.3207862	0.11727694	0.037830688	0.92961043	-0.09897208	0.593847	0.7318632	-0.18358724	0.17482218	-0.36749095	-0.3965959	0.60683125	0.13221508	-0.5155107	-0.25196254	0.5521334	-1.0052902	0.057631828	-0.40813416	-0.3869525	-0.93049157	0.37168676	0.9011337	0.75083745	0.24702972	0.77835524	-0.16515169	0.202432	0.2460924	0.28917977	0.362886	0.3108635	0.012915105	-0.022835393	0.2218107	0.36411312	0.33282298	-0.4162785	-0.3779593	-1.013282	0.7803731	0.7106741	-0.3266008	0.4053796	-0.38795748	0.61247903	0.17598604	-0.33438748	0.4757437	0.15032515	0.052634224	0.5144835	0.0784646	-0.11899531	0.42413196	-0.16426635
G000583875	-0.42635304	-0.1334498	-0.83975184	-0.29407746	0.7077405	-0.7644605	0.10912721	-0.83977586	-0.23979244	0.2284126	0.29916266	0.66742766	0.46285182	0.096658885	0.056239434	0.6047416	-0.06447521	-0.20730399	0.68281436	0.7898608	-0.34729537	-0.1482773	0.6690185	0.4615108	0.43295553	-1.0052526	0.33883524	-0.26128653	-0.8495028	0.09368037	0.5513826	-0.15863651	-0.26998395	-0.08240214	-0.05800402	-0.32171535	-0.3479261	0.422063	-0.64755005	-0.63943154	1.1454052	0.25964656	0.1038845	-0.56647307	0.9071286	-0.38512266	0.42158026	-0.18799603	0.2293221	-0.7448821	-0.31271824	-0.32845205	0.26930368	-0.16608779	-0.34130862	-0.12854181	-0.06773219	-0.2013109	-0.47063404	0.19126385	0.7595347	0.01051864	0.27010965	-0.2505383	0.63294953	-0.034366913	-0.29858914	-0.59555393	-0.40450615	0.8671366	-0.28413054	-0.6979587	0.18111113	-0.92452544	-0.44493383	-0.8079372	0.56841266	0.809582	-0.30597666	0.034548536	0.6484135	0.13736412	0.60906655	0.23136634	-1.1195161	-0.28420603	-0.037146673	-0.886537	-0.5141166	0.68163717	0.2871607	0.6367435	0.49190933	-0.61494577	0.2659039	-0.16890077	0.48857942	0.87278366	0.47832423	-0.24708027	-0.32120693	0.039962023	0.4833178	0.03095008	0.47484785	-0.44397274	0.17291227	-0.78096545	0.26189017	0.21326649	0.2668111	0.1625123	0.23613964	-0.41902184	-0.5975299	-0.17460799	-0.193012	-0.7034301	-0.31630915	-0.94272184	-0.48684987	-0.13037702	-0.5771991	0.9162848	-0.96916157	0.27995482	-0.05037479	-0.73758864	0.23546124	-0.43609363	-0.33057857	-0.4258087	-0.78505796	-0.013484158	0.02509898	-0.7077274	0.29427898	-0.8412693	0.056769937	0.85585415	0.72841036	0.8395794	0.33743423	-0.082661875	-0.4192698	0.50691694	0.5232934	-0.586058	0.2708459	0.10250904	0.46126133	0.48314548	0.3074614	0.638672	-0.6745226	-0.37729755	0.11359027	-0.3603269	-0.5834185	-0.31943783	0.024477642	0.7845804	-0.23889612	0.012531966	0.03729987	0.7710932	-0.13633063	0.18362397	0.12828726	-0.07047039	-0.21070072	-0.68675005	0.17176181	0.23663825	-0.0020947456	0.21324241	-0.24139681	0.52991396	0.45762694	-0.5061558	0.54118335	0.26436064	0.3541257	-0.06273028	-0.30186477	0.6675461	0.23951173	-0.42183992	-0.100067735	-0.59047747	0.9170927	0.43141136	0.38058975	-0.18039587	-0.72771454	-0.62174803	0.021217078	-0.18952769	-1.2629819	0.17836505	0.8541887	0.532688	0.69852006	0.6526456	0.47320113	0.39658052	0.17041394	-0.44804797	-0.106642455	0.074598856	-0.61316407	-0.5288087	0.5495878	1.0174518	-0.5243248	-0.10956763	0.119757	-0.2796954	-1.08809	0.35099	-0.9606166	-0.7506027	0.16100568	0.15737805	-0.7463569	-1.0962042	0.03631895	-0.14860372	0.51598716	-0.008131459	0.932718	0.2813876	0.2859903	0.34599274	0.29960233	0.6395854	0.8691276	-0.15678935	-0.4910424	0.67015207	0.016853802	-0.5033813	-0.90667605	-0.29384014	0.71400374	-0.28459466	-1.0778958	0.37057692	-0.20567125	0.094439015	0.63371336	-0.39831203	0.35887983	0.3155619	0.25282595	-0.91975904	-0.44852033	0.085911855	0.2453595	-0.23767966	-0.41564873	-0.04456899	0.6578429	0.56449395	-0.14231177	-0.14217271	-0.5036249	-0.25846055	0.63549364	-1.1520439	0.59626323	0.3235284	0.22802232	-0.019587427	-0.18373822	-0.3137974	0.6512935	0.37627324	-0.36969903	-0.89921355	0.917428	-0.23257281	-0.041320667	-0.70416194	0.66687775	-0.6337871	0.48408318	0.31294486	0.23796135	0.7495758	0.32591853	0.42243165	0.08630939	0.22221006	0.10241421	0.49442175	-0.17791912	-0.3477283	0.36131686	0.16240248	-0.63080716	0.35688215	-0.4493152	0.5742127	-0.16277528	-0.40627784	-0.04812877	1.1936069	-0.026091993	-0.3477063	-0.63139486	0.08168942	-0.005334109	-0.32579905	0.23969549	0.31497785	0.027188182	0.083374664	0.015621364	0.5708698	0.014131732	-0.14311865	-0.112047225	-0.17658934	-0.17021805	-0.3581268	0.09915511	-0.20802565	0.7162124	-0.2052675	-0.0051558316	1.1024694	-0.3111539	-0.3979129	-0.7848179	0.19567464	-0.27269736	-1.6006308	-0.99999714	0.4456379	0.71635175	0.76482236	0.0021799803	-0.40719718	-0.93357635	-0.40965834	-0.6294875	0.11847471	-0.4351269	0.3669898	-0.19839366	-0.37661195	0.6496303	0.82899237	0.5286333	-0.024119258	1.1733098	-0.37170258	-0.5831369	0.13597164	-0.4951085	-0.67526686	-0.410582	0.23058161	0.20914859	-0.2268802	-0.2148999	0.74399143	-0.78108597	-0.77521765	-0.7411455	-0.4156764	-0.22027026	0.31327042	-0.5826702	0.024911165	1.0634183	-0.4124838	0.17523491	-0.45733157	0.10337679	0.13104953	0.30620447	-0.2002064	-0.39792377	0.2774075	-0.7972134	-0.52023697	-0.70317215	-0.9884017	-1.0539653	-0.3270097	-0.00081747025	0.88351893	-0.6591169	0.15236232	0.084919706	-0.23056474	0.580881	-0.7264383	0.1408431	-0.09556523	-0.49685198	1.0682143	-0.91007495	0.48603043	0.5293587	-1.4450941	0.23154494	-0.3762172	-0.23053475	-0.010724112	-0.19064704	-0.5959763	-0.63234437	0.15152895	0.7777539	-0.984005	0.32712573	-0.03844476	-0.557243	0.5225698	0.36511493	0.28829497	-0.38843074	-0.49232945	-0.23642163	0.34442195	-0.23764676	0.25532666	0.5428748	0.7729645	0.34093538	-0.3218729	0.1928482	-0.34807897	-0.45970687	0.65977025	-0.118029594	-0.22550641	0.4387789	-0.26098657	0.16588235	1.0810133	0.03661988	0.5343746	0.11854403	0.1682818	-0.6953365	0.12272132	0.5652224	0.7104212	-0.4877198	0.8788452	-0.1390501	0.12453333	0.61486644	-0.81186163	0.28884953	-0.26188013	-0.34212065	-0.15572748	-0.16106531	-0.19608152	-0.6592549	0.17976874	-0.030935332	-0.6001161	0.05136631	0.5285922	-0.25048545	-0.29040563	0.35001576	0.20133984	0.7798679	-0.17138807	0.011067361	-0.14454153	-0.51729476	-0.37481046	0.20940687	0.96085453	0.19088638	-0.30592766	-0.2466121	-0.26332977	0.115066156	0.3126829	1.0489516	-0.47082534	-1.2682446	0.45845804	-0.7910466	-0.4754088	0.48073092	-0.36261	0.45446295	0.16203403	0.94300896	0.90323305	0.080088116	-0.51059294	-1.268668	-0.5175916	-0.6127361	0.75455296	0.5758703	0.1829397	-0.0059850514	-0.37504402	-0.08960497	0.58196294	0.30314282	0.20401953	-0.6271506	0.009042386	-0.17124769	0.160055	-1.2832294	0.15947445	0.35805234	0.36799175	-0.48779806	-0.4028322	0.04797694	-1.0030446	0.2335785	0.64669794	-0.4950087	0.28665197	0.7280623	-0.27293533	-0.4049257	-0.044331446	0.09925046	0.069281906	-0.01742258	0.34564066	-0.74361026	-0.09164384	0.1663543	-0.53915435	0.060211673	0.31440526	0.11723983	0.34649524	0.60806644	0.13865943	0.2571411	-0.29821122	-0.5328488	0.20990318	0.47789586	-0.6095996	-0.41071337	0.14385289	-0.2113601	-0.13808522	-0.344593	-0.9645316	0.33069655	-1.2724178	-0.630944	-0.55502427	-0.509336	0.92552584	0.63738835	-0.4263236	-0.15408453	0.7903051	-0.84327716	0.26216945	-0.53174114	-0.65450376	-0.29443198	0.048651125	-1.4396477	-0.6426646	-0.18073697	-0.38202578	0.5380202	0.21106173	0.08725129	0.3220584	0.7572317	0.42845997	-0.74370575	-0.43031186	-0.81549215	0.21144515	0.8474273	0.0136347115	-0.12580386	0.19314128	-0.1458328	0.12853786	-0.032077372	-0.1280315	0.4100455	-0.38316634	0.2480047	-0.07541081	0.53827167	-0.15821002	-0.7859276	0.010029167	0.786469	0.11277221	-0.5873176	-0.1239988	0.4767407	0.03495796	-0.35998622	0.19336143	0.7519102	-0.333223	0.3355537	0.18352601	-1.0843956	0.5491957	-0.6896024	-0.12522075	-0.304419	-0.20707859	0.4508222	-0.73690784	0.43994215	-0.31989563	-0.05144965	0.11827771	-0.17164537	-0.0132505	-0.48244646	0.38368154	0.26520893	-0.6137577	-0.7330458	0.35281014	-0.82013535	-0.103093654	0.96664774	0.0090931505	0.79169583	-0.14450122	-0.29154015	-1.1199895	0.8226378	-1.0466812	0.5178089	-0.8855433	-0.34527537	0.2191735	0.115407914	0.026090324	-0.1964536	-0.0023286343	0.3087357	-0.46688136	-0.27520978	0.388504	0.38654023	-0.46962035	-0.07225883	0.2350551	0.25895724	0.41555417	-0.2564201	1.2584958	-0.29810175	0.2980149	-0.08713946	0.60349345	0.16937432	-0.42088994	-0.27524918	-0.1717735	0.29255807	0.18573456	1.1477927	0.63463223	0.5968841	0.42315876	-0.74111253	0.87728477	-0.46654916	0.8650709	0.6822953	-0.13784955	0.117723644	-0.6095614	0.5573386	-0.026334591	-0.28054267	0.6396366	0.60595256	-0.043640286	0.4051832	-0.8664285	-0.089362316	0.8759882	0.27983966	-0.6173693	0.37174147	-0.2940413	0.2556136	0.7627549	0.83976257	0.37349626	-0.41287535	-0.7551647	0.67814934	-0.33812127	0.0431484	1.2548102	-0.992246	0.37269464	-0.22419018	-0.28092393	1.0247421	-0.946273	0.13732474	0.43473732	0.07148163	-0.42603248	0.9442003	-0.59744954	0.53677046	0.40822348	0.09964308	0.2921603	0.18788198	-0.48388296	-0.09883235	0.05896777	0.6278849	0.41395056	-0.38714957	-0.16018227	-0.23124722	-0.08513139	-0.19637628	-0.20755965	-0.3193019	0.065300316	-0.46116102	-0.31892008	0.7364914	-0.09936013	0.2942621	-0.6182883	0.21995673	0.6350987	-0.24624276	1.0275307	0.21771887	-0.45985466	-1.2470297	-0.627349	-0.6518555	0.45404595	-0.45834163	-0.6423677	-0.045871586	-0.16351992	-0.43901095	0.13907152	0.38498133	0.42984217	0.92051375	0.110048845	0.293406	0.5374667	0.0022817552	-0.4431575	0.3866008	0.23549989	0.34650058	-0.55826855	-0.03557422	-0.51307964	-0.5095579	-0.5031245	-0.30338192	0.19320187	0.008193135	-0.7660009	-0.012777984	-0.7605201	-0.03261116	-0.09981437	-0.41126144	0.4514039	-0.114910126	-0.50005585	-0.3741156	-0.3133086	0.36970177	0.7360651	0.028020784	-0.9934081	-0.13865808	0.15475096	-1.0906224	0.66629344	0.6463958	0.5158067	0.098895304	-0.4161713	-0.39781535	0.8682458	-0.2752059	0.596481	0.6537398	-0.9382323	0.89704967	-0.35024893	-1.0375191	-0.54653597	0.20176595	0.40885258	0.14208327	-0.2787773	0.5778718	0.032528415	-0.9421369	-0.28094882	-0.019928858	-0.1639421	0.46797836	-0.023367852	0.46668333	-0.056704104	0.46722013	0.23076767	0.49503154	-0.23455282	-0.30525964	-0.009579979	-0.6115983	-0.48502818	1.1053638	0.33738497	0.13665304	0.17618063	-0.8090856	0.34523284	0.7573502	-0.8805268	0.14136899	-0.49964863	-0.013084799	0.51319706	0.6942762	-0.68809205	0.08870098	0.26704603	0.31468484	-0.34819537	0.14935094	0.30673584	0.08713547	-0.06862101	0.33986157	0.21103072	0.0023305975	0.40475094	-0.2631809	0.0692063	0.07893254	0.478906	-0.31888825	-0.21550876	0.6498663	0.2647946	0.036173493	-0.046630524	-0.7487275	0.21408713	-0.25565815	0.49370405	0.6024294	0.5307579	0.5457949	0.06879586	-0.036646836	-1.0363375	-0.10286495	-0.90331036	1.0795748	-0.4155432	0.40065807	0.8815701	0.7416077	0.41567823	-0.034690455	-0.24274334	0.21223709	0.19697905	0.13646789	0.17330654	0.47602203	-0.47011793	0.8679265	0.20437178	0.42869526	-0.19879645	0.07215899	0.23048288	-0.6600926	-0.4385649	-0.27666685	-0.26088306	-0.23914123	-0.22471553	-0.43282282	-0.52251506	-0.08550534	0.07623771	0.89250827	-0.29706955	0.564693	-0.6543848	-0.84518725	-0.46007	-0.3166797	-0.081009805	-0.04442209	-0.56292295	-0.79889333	-0.05163744	0.19695464	-0.66165286	-0.0037942529	0.2557156	-1.3218887	-0.0724504	-0.31395254	0.07149926	0.31361166	0.25617003	-0.18683006	-0.41865677	-0.2751792	0.058810227	0.80323064	0.0722501	-0.11890561	0.118285865	-0.008470446	-0.26048177	0.392089	0.28594482	-0.43435124	-0.33749557	0.0045089275	-0.42621687	-0.20514041	-0.09313196	-0.66809344	-0.35862774	-0.1034619	0.47834587	1.268282	-0.23026869	0.6203489	-1.1132532	0.96469057	0.58700454	-0.21239725	-0.018816456	1.1418993	0.42135084	-1.0702428	-0.21270722	0.038450703	-0.030595422	0.3876328	-0.5753784	-0.5709499	1.1152692	0.7320326	0.20045277	-0.33501393	0.06015879	0.51126516	-0.8442552	-0.5412794	-0.4248026	0.3942977	-0.615436	1.4466954	0.444932	-0.46213907	-0.1711174	0.18371177	0.3427247	-0.5886017	0.08680695	0.35210615	-0.8404729	0.74781734	0.3262953	0.006649941	0.065457284	0.15568566	0.33384192	-0.5016941	-0.061785385	-0.6899917	0.3043614	0.5715992	0.38608146	-0.6355939	0.45798337	0.083085954	-0.02453518	-0.33744562	-0.09823246	-0.71597683	-0.37297565	-0.43876687	-0.25684068	-0.39272276	-0.10923756
G001796105	1.0195309	-0.8772798	-0.51358443	-0.7896967	-0.0060379505	0.11175603	-0.23887277	0.23079729	0.52440643	1.5483634	-0.14810845	-0.83477557	-0.0652651	-0.46833766	0.9934076	0.5758757	-0.90436244	-0.14298046	-0.45995584	0.46928728	0.28258356	-0.62113583	-0.5010594	0.1691816	-0.35538894	-0.15879676	0.7489103	-0.0957475	-0.9139399	-0.68863463	0.34123358	0.13707691	0.13848266	0.6258539	0.11910415	-0.41626638	-0.27524808	-0.3463143	-0.47211474	0.08374953	0.37407064	-0.5417865	-0.40323117	-0.21727872	0.72772676	0.09942609	0.23173396	-0.5116821	1.0567652	-0.15264586	0.7470879	0.5101929	1.17116	0.12711246	-0.28877208	-0.1556132	0.20499068	-0.7165174	0.1386008	-0.43796185	0.6655661	-0.5733532	-0.13109928	-0.2783582	-0.34925577	-1.4545369	0.24683623	-0.036698252	0.028867513	0.24466927	-0.458316	-0.7131742	-0.090765566	-0.35256153	-0.09333454	-0.36057308	0.5916765	0.61069775	0.42868042	0.19518432	0.19801119	-0.29032478	0.8059027	-0.55852276	-0.14048284	0.7629236	-0.5007618	0.3880161	-0.47098726	-1.1087503	-0.1962783	-0.43025768	-0.11686382	0.6083604	0.09030719	-0.017624557	-0.29702	-0.6239276	-0.8360223	0.36561656	0.17282888	0.7338654	-0.5780803	0.0078098625	0.1895006	-0.3149262	-0.57935	-0.21211651	0.01066187	-0.51384825	-0.3071889	0.97314	0.2988265	0.31870854	-0.16192925	-0.14166969	0.31261262	-1.0756714	-0.58567095	-1.2104335	-0.5222443	-0.6687572	0.6584707	0.95284086	0.3093254	0.46929452	0.32972676	0.3207897	-0.16305101	0.55954427	0.34432393	0.3261841	0.062769316	0.816946	-0.29347366	0.22682214	0.44616807	-0.57086897	0.16841069	-0.044311136	0.26202762	0.5338468	-0.25143594	-0.9536357	0.6610984	0.3894708	-0.4092762	-0.08178969	0.11946615	0.1744327	-0.1051031	0.05081024	-0.10850817	-0.46967041	0.51070064	0.1527675	-0.4462457	0.21634683	-1.0008907	-0.0023691952	0.56248796	0.5565303	0.9946526	1.1025865	-0.16414493	0.21257181	-0.3775875	-0.3431761	-0.020506628	-0.30078766	0.1319009	-0.2006832	0.49259472	0.2135403	0.44606036	0.19950998	1.0768205	-0.049752347	0.039454274	1.1393907	0.38582325	-0.49122497	0.6533096	0.35828042	0.6146716	0.9525624	0.67185944	0.08916416	0.22706437	-0.36014298	0.14759624	-0.0028250515	-0.17118058	-1.1770284	-0.70669043	-0.12022483	-0.3189145	0.34201795	-0.46122855	-0.552669	0.3352198	-0.4959673	0.9850707	-0.13911232	-0.52620095	0.8410507	0.38512608	-0.118768424	-0.08657631	-0.012842305	0.50819755	-0.238574	0.7059523	-0.25299215	0.074429855	0.58454615	0.13335943	0.5533903	-0.30923107	0.10026662	0.33043995	-0.56561846	0.5280044	0.8947116	-0.02273205	0.15374398	0.81281173	-0.13356724	-0.28268963	0.010173485	0.053350106	0.13296005	0.6034537	0.36819446	-0.30184478	0.030563593	-0.16464588	-0.25477475	-0.68355596	0.17087528	-0.20267448	0.10293177	-0.105161846	0.033948213	0.43350998	0.11060752	-0.64867526	1.1220112	0.29148573	-0.008140814	-0.3417241	0.39084876	0.12597618	-0.35828453	1.1451508	0.3650356	-0.5129382	0.37201387	-0.13100421	0.07914385	-0.20038356	-0.2960623	0.006608218	-0.41470137	0.46314076	0.027238682	-0.017920613	0.34645376	-0.93997604	-0.33846056	-0.048712432	1.2063236	-0.5917451	0.14215824	0.28898203	1.1570783	0.5338495	-0.28457865	-0.9599832	-0.46325037	0.3329877	0.0035965145	0.59129983	-0.14498088	-0.29492417	-0.24594657	0.23567657	-0.054068863	0.9506116	-0.44570148	0.09597989	-0.48470497	0.17791362	0.6581528	-0.10902482	0.30107984	-0.25007486	-0.2958533	0.38112843	-0.18736313	-0.15383653	-0.53412026	-0.21310833	0.1264503	0.7854648	0.83697987	-0.44682366	0.73159	0.6073842	0.3328377	-0.8590353	-0.40772617	0.67088836	1.2817087	-0.119561404	-0.25903815	-0.5037817	-0.6570198	-0.032914996	-0.17622633	-0.1886884	-0.16340996	0.39787754	-0.76254773	0.018467903	-0.62980604	-0.19087613	-0.08574022	0.036481433	0.29578513	-0.1935265	-0.99473834	-0.92649806	0.21268667	-0.53713006	0.7742286	0.28698528	-0.3125933	0.08020046	0.73610866	-0.4594821	0.23107362	-0.4471272	0.18912579	0.12371996	-1.0804951	0.018814877	0.4610348	-0.2521615	0.7055756	-0.504261	-0.7948448	-0.14980404	-0.14486596	-0.48024535	0.48498404	1.1075417	-0.030223563	-0.3879287	0.010743789	0.14609176	-0.23988631	0.11138496	-0.7757493	0.2736497	-0.013060108	-0.059671916	0.88895464	0.40764785	-0.3223613	-0.5681083	1.1224693	-0.9919458	-0.28352302	-0.5930884	-0.31390464	0.71539503	-0.3563777	0.03947556	0.72021925	0.053910904	0.32094833	0.23408988	0.117979266	-0.43494016	0.10907708	-0.27799684	-0.075179935	-0.15410946	-0.6544915	-0.19888678	-0.19420937	-0.8525842	-0.5954102	0.35263342	0.59567344	-0.07162076	0.5300311	0.24547349	-0.4281349	0.07746394	-0.68775785	-0.1341141	0.0025959462	0.05608605	0.40741912	0.85064507	-0.64021564	-1.2144444	0.2673464	-0.58718383	-0.21117792	-0.1062963	-0.4500911	0.4606696	0.2559423	0.25698754	0.055192	-0.1802528	0.10082614	0.008613259	0.104391426	0.47279865	0.023509294	-0.08772597	0.36883515	0.82190883	-0.024570495	0.30236837	0.025435477	1.5842313	0.62405634	-0.44496396	0.807686	-1.0326514	-0.8253436	-0.07448365	-0.19710681	0.3146671	-0.17727098	0.22204155	0.19549125	-0.38121444	0.30780023	-0.7099394	0.20448445	0.11875944	-0.34897816	-0.32983202	-0.20120367	-0.2694736	-0.39706457	0.97652507	0.10493179	0.51585823	0.07291628	0.60587305	-0.53593713	-0.5932777	-1.00994	0.032019414	-0.91900575	-0.3930815	0.19540948	-0.87037736	0.12293053	-0.9166383	0.045576513	0.65563995	0.33551094	0.60519725	0.3756495	0.4930905	-0.3755772	-0.25939456	-0.3218979	-0.13114604	-0.7766581	-0.2119865	-0.089499906	-0.3529485	0.23490956	-0.17772347	-0.10389973	0.55071974	0.20073922	-0.79710364	-0.35026813	-0.121970594	-0.122045144	-1.0537927	0.347138	-0.2250463	1.0876472	1.1118897	-0.24415377	-0.18882278	0.5772748	0.26768726	0.097722426	0.17018437	-0.78128433	0.29487374	-0.6865681	-0.23239502	-0.5951612	-0.16684224	-0.046893135	0.20422977	0.2696623	-0.025478587	-0.10667479	0.59490347	-0.20781223	-0.2492246	0.36413592	-0.5332028	-0.6896682	-0.30877328	0.14940909	-0.30618888	-0.20677015	-0.007499084	0.8385012	-0.12772289	0.115136	0.7955832	-0.06682843	-0.47602403	-0.15053554	-0.57304895	-0.34168646	0.017899975	-0.5977385	-0.18898517	-0.109497175	1.1826768	1.1910812	-0.29018503	-0.07167548	0.19980463	-0.14447239	-0.38067877	-0.17389575	1.0678098	1.4627187	0.008208111	-0.65367246	-0.17126137	-0.055297896	-1.0542941	0.111953914	0.78645736	-0.15791456	0.20768094	0.90749216	0.08387281	-0.38431203	-0.18500206	-0.23580773	0.19444953	-1.1170304	0.11791822	-0.6165861	-0.18831	0.6467603	0.13512239	-0.51017874	-0.02980481	0.6340939	-0.0117682405	-0.2524687	-0.06342967	0.070114434	0.13003042	0.18189874	-0.41048527	-0.19313209	-0.24955985	-0.33379766	-0.3420092	0.3284173	-0.7236718	0.026495963	-0.46925253	-0.16288725	0.29487488	0.1355509	-0.041679993	0.11307135	-1.1521623	-0.43911844	0.16880378	0.4701271	-0.45127282	0.036907375	0.20308323	0.41556394	0.51467663	0.37270907	0.8777455	0.47083497	0.23552781	-0.2300494	-1.0219753	-0.20699717	-0.8023869	-0.47223967	-0.39142823	0.63938665	-0.012502525	-0.6575352	-0.0063111186	0.3907314	-0.54835546	-0.3807028	-0.6138711	-0.506382	0.051652454	-0.45027825	-0.100521415	0.094426244	0.48685163	-0.4609433	-0.9146197	0.29251242	0.37159348	-0.083755404	-0.3176421	0.13830626	-0.31895742	-0.19003464	0.2887094	0.30120435	-0.14072958	0.5879798	0.99730784	-0.51865417	-0.25444084	-0.2289199	-0.12585759	-0.533846	0.28998685	-0.046907693	-0.352887	-0.28287268	0.64638245	-0.43223372	-0.1782338	0.14863983	-0.6313088	-0.18976802	0.26389402	-0.42015362	-0.520613	0.44481608	1.7179705	0.37302402	0.5568006	0.7620335	-0.55301595	-0.7201711	0.618982	0.43471706	0.1786278	0.3774537	-0.35101873	0.37806863	-0.55341643	0.261883	1.1022533	0.50050247	-0.6226321	-0.40772322	-0.11835784	-0.11133918	0.8859681	0.6612778	0.3958098	0.15252528	-0.9277811	0.85160565	0.5235806	0.2996502	0.6245103	-0.3595045	-0.17245436	-0.32000196	1.0730954	-0.9099614	0.3376463	-0.35576195	-0.04266022	0.42557162	0.66646945	1.105282	0.11345068	-0.17891875	-0.22715974	0.69326633	-0.13578576	-0.70495474	0.10352398	-0.37992382	-0.5667065	0.36110073	0.2959314	0.85949326	0.28913033	-0.5631436	0.13421464	-0.11853123	-0.007194191	1.0467873	-0.22768945	-0.5749324	-0.7592128	-0.11132309	-0.224204	-0.2910722	0.88408995	0.2544658	-0.21465836	-1.1012582	0.17719911	0.12052835	1.6014944	0.6249106	0.39929545	-0.5415843	-0.32477626	-0.34937847	-0.32733446	-0.86630887	0.022782564	0.16570038	-0.32978815	0.23033091	0.3559758	-0.074907064	0.0836901	-1.2485688	0.82410514	0.5314965	0.026757434	0.23531	0.35153735	-0.10445594	0.6050571	0.29148945	0.43288434	0.047529474	0.8815341	0.92418367	-0.77599365	-0.11154395	-0.52834135	0.52350175	-0.3274647	0.4236467	-0.15137242	0.047964513	-0.60429084	0.5485026	-0.7193752	-0.75657606	0.035171896	-0.7687371	0.12769508	1.0997303	0.48521134	-0.6121279	-0.30237728	-0.101194955	-0.23933044	-0.98651206	-0.31289852	0.27940333	0.1440742	0.0024680123	-0.46427804	0.19355117	-0.9868667	0.39711896	0.3687574	0.6277014	0.5525112	0.32251835	0.4369896	0.2590508	-1.0455371	-0.17422575	-0.96256715	-0.656294	0.4010933	0.42364475	0.20266575	0.19492778	-0.32622564	-0.53595257	0.060948256	0.54154414	-1.3589966	0.054574996	-0.32285976	-0.07738187	-0.41574544	-0.0023357458	0.1920467	0.07730758	-0.49551028	0.777399	-0.22531776	-0.5227127	0.15388551	-1.0800052	-0.06083645	-0.13106838	0.15504432	-0.76826066	-1.5906243	0.21665278	-0.6205478	1.0026796	0.16264075	-0.189315	0.5201005	-0.38317823	0.43912712	0.31049538	-0.2246542	-0.8560267	-0.9240063	0.67943186	0.5957832	0.5265187	-0.14507867	0.031520218	0.29176635	0.43814808	0.11281596	-0.22058688	0.3399042	-0.31837562	0.19908153	-0.22258301	0.92834795	-0.6089106	-0.38826156	0.5723662	-0.32563496	-0.011944838	0.05952248	-0.09127408	0.2503054	0.041767865	-0.0907404	-0.7997203	0.32406676	0.20867684	0.2285116	-0.7195738	-0.5278973	-0.047043823	-0.2131746	0.07772419	-0.004460573	0.089024305	-0.40833485	0.9634499	0.54689896	-0.56454504	-1.0434066	-0.4422259	-0.48268586	0.3339464	-0.41881683	-0.0515748	0.48873585	-0.009109616	0.02637329	0.5891715	0.9177841	0.5121136	0.8136297	-2.0579536	-0.86724246	-0.4347428	-0.15129192	1.1456754	-0.5516727	-0.40400806	0.05725865	0.30864754	-0.46241954	-0.509368	0.30614963	0.6659104	-0.56922156	1.1743712	-0.6216923	-0.6002366	-0.040438265	0.3492188	0.44908807	-1.0783975	-1.0883875	-0.58079714	-0.18635055	-0.2839898	0.5969295	0.24559559	0.102593124	-0.28904694	-0.20417649	0.19449049	-0.81579137	0.3609705	0.72032857	0.950649	0.45096338	0.18019673	-0.6881243	-1.0786637	-0.3283069	0.3258376	-0.09619603	-0.3365476	-0.50401896	-0.26723152	0.7695489	-0.44509962	0.41549918	0.19002455	-0.76740354	1.1959358	-0.7669587	-0.20611185	0.19827539	0.7740842	0.07420412	-0.36442074	0.21583745	-1.1570427	-0.0076348297	0.27278402	-0.021744631	0.97507596	0.23166698	0.50210696	0.33868736	1.0804678	-0.16444387	0.35203233	0.57509243	0.31352898	-0.23294178	0.155485	-1.5556948	0.07518026	0.49269646	-0.2633045	0.600762	0.6969581	0.5296409	-0.833429	-0.42652535	-0.26288858	-0.3148477	0.09226033	0.03355921	0.9338971	-0.08023906	0.6067971	0.72543615	-0.2143583	0.17351575	-0.37456155	-0.41521665	0.5691363	0.11459619	-0.50066733	-0.22635399	0.54632205	-1.0239172	0.064403415	-0.41608715	-0.34759572	-0.9211657	0.37575194	0.9013253	0.7522938	0.28155804	0.8062881	-0.17915833	0.19616419	0.21359605	0.2855251	0.39255327	0.32734078	-0.0065852404	-0.034189805	0.24243394	0.34656835	0.34115475	-0.41665047	-0.38728514	-1.0196012	0.7722023	0.74213004	-0.32211202	0.41115764	-0.40094844	0.6443161	0.17611784	-0.3343381	0.4513446	0.1435	0.041558057	0.4886935	0.09075469	-0.10708022	0.4503394	-0.17385125
G000237205	0.32516146	-0.4823055	-0.5158478	-0.6141857	0.16208932	-0.21360463	-0.09318274	-0.50127107	0.012381449	0.92060864	0.00014227629	-0.26191813	0.10973799	-0.14149266	0.7601909	0.29640022	-0.5837567	-0.2573738	0.066205114	0.44353873	0.011467963	-0.58956283	0.17724639	-0.13724451	0.081535846	-0.70167375	0.5639839	-0.34676042	-0.8874263	-0.30622882	0.45296258	0.021587074	0.045515016	0.32863444	-0.113817215	-0.16071913	-0.2671485	-0.075469606	-0.75862646	-0.33995306	0.88152754	-0.18812117	-0.19532244	-0.45074874	0.7909038	-0.019206226	0.62800443	-0.42798308	0.94645184	-0.28321618	0.19210789	0.0052534733	0.69320273	0.18921366	-0.2438294	-0.13612355	0.13173477	-0.36778817	-0.40967053	-0.40167388	0.61551225	-0.6452071	-0.141682	-0.17937547	0.18675315	-0.8780648	0.112380445	-0.45118147	-0.1399114	0.5662379	-0.4482317	-0.44771647	0.020846859	-0.84169877	-0.28363115	-0.6507868	0.47330412	0.6802224	-0.0024044886	-0.06263167	0.3834058	-0.2221516	0.54364884	0.1520976	-0.8300219	0.34610155	-0.1487314	-0.4149783	-0.36020303	-0.2941953	0.17123772	0.260225	0.026231319	-0.031590518	-0.29784942	-0.046077814	0.15193325	-0.44693002	-0.030686118	0.16360761	-0.24216235	0.468727	0.12171003	-0.17793381	0.39435378	-0.3281686	0.111498035	-0.5809205	0.29573375	-0.158009	-0.15283279	0.67423284	0.1920816	0.16001372	-0.3881508	-0.0046432614	-0.0037282556	-0.7149979	-0.66062415	-1.1038488	-0.43243426	-0.3220203	-0.052648425	0.7306308	0.07556406	0.5374412	0.15497771	-0.31731787	-0.2477582	0.040151857	0.24574412	-0.22314142	-0.19695067	0.7341243	-0.3999833	-0.08456667	0.56363714	-0.55750513	-0.00060637295	0.33743513	0.80972505	0.6341334	0.061387878	-0.4873838	0.3437108	0.41599378	0.022676632	-0.46604347	0.08323492	-0.04157953	0.38918394	0.31786442	-0.074178725	-0.035681963	-0.4918415	-0.1562476	-0.06578387	-0.040253416	-0.92418385	0.18791668	0.12068528	0.6504787	0.5422281	0.8243029	-0.0907861	0.46895522	-0.50221384	-0.12746349	-0.12821127	-0.5491127	0.12436245	-0.32812706	0.5758538	0.23915164	0.3344531	0.21051306	0.4167425	0.058322415	0.017938137	0.34930575	0.70237964	-0.13660249	0.37925985	0.092221856	0.05143919	0.7101352	0.5889995	-0.20797835	0.119552135	-0.58860075	0.3137073	-0.06054899	-0.023922004	-0.81024694	-0.7133704	-0.2685488	-0.048017204	-0.020017713	-0.38929325	-0.22697109	0.5775965	-0.16308182	0.9455246	0.17742188	-0.1917824	1.1081214	0.38034958	-0.0021784306	-0.112116635	0.08309778	-0.0962622	-0.26286763	0.31056213	0.548545	-0.14084074	0.161754	0.31007314	0.1870506	-0.53731966	-0.049000442	-0.17493875	-0.62376106	0.6261017	0.5840744	-0.47959134	-0.52125174	0.5578511	-0.17388299	0.093920186	-0.13249215	0.2858516	0.35077024	0.7631672	0.5718936	0.04038191	0.17210993	0.18619092	-0.20499614	-0.7422072	0.33156466	0.24331453	-0.051414773	-0.26234764	-0.072910696	0.7031692	0.059687898	-0.99525714	0.880198	-0.073175974	-0.38826156	-0.057607055	0.2921314	0.39776325	-0.27766222	1.0241758	-0.080994114	-0.82002956	0.454624	-0.011063755	-0.08241388	-0.5786841	-0.6452408	0.13848387	0.21236783	0.0319259	0.012015872	-0.32021493	0.15207182	-0.48757344	-0.5323163	0.20058954	0.8517261	-0.23997852	0.091797814	0.11926162	0.49248368	0.47873488	0.09485239	-0.7501979	-0.6504175	0.6730648	0.11775133	0.27725375	-0.2812302	0.29939058	-0.58229214	0.40608525	-0.23397823	0.58735514	0.18730925	0.24986647	-0.32571995	0.18362	0.24835727	0.2896257	0.29340968	-0.3560507	-0.34697637	0.3720112	-0.07207717	-0.46494204	-0.00044175982	-0.23626909	0.27306804	0.54064786	0.42168295	-0.11627968	0.7913104	0.27342695	-0.18817958	-0.77622736	-0.17367065	0.3182265	0.39888722	0.07767613	-0.14835668	-0.34820092	-0.22765575	0.1414142	0.13351706	-0.18220925	-0.00032672286	0.09752002	-0.078964815	-0.13374533	-0.6848229	-0.13926743	-0.20664907	0.6699906	0.28501716	-0.3204506	-0.24272971	-0.90355307	-0.19785926	-0.73191917	0.43949986	0.30799782	-0.77537304	-0.47052926	0.60276824	0.4438951	0.27336657	-0.14643563	-0.5229844	-0.44980657	-0.58793736	-0.38610768	-0.09193531	-0.38153446	0.43259317	-0.025607929	-0.48888424	0.37102297	0.33798403	-0.012759551	0.17849524	1.1250689	-0.025568098	-0.49670875	-0.06920583	-0.20776573	-0.40990877	-0.24614084	-0.31825837	0.22633342	-0.07853634	-0.04533084	0.707562	-0.08009448	-0.5993724	-0.7511792	0.40804717	-0.6363771	-0.18271023	-0.5827647	0.019239321	0.9084386	-0.47981474	0.12630571	0.2663114	-0.11667918	0.15200181	0.036403045	0.07104106	-0.3097911	0.0013539344	-0.48446217	0.027269736	-0.58568555	-0.9914822	-0.6262838	-0.2024196	-0.6126182	0.07760094	-0.20209748	0.35554218	0.22234637	0.2080753	0.5842065	-0.31639028	0.18643183	-0.5022302	-0.4945228	0.12755542	-0.45901	0.40529877	0.9042461	-0.9450002	-0.42663026	-0.26883864	-0.037464913	-0.17074144	-0.21830744	-0.26000386	0.19555429	0.23472321	0.2791837	-0.49923086	0.15560147	0.13161251	-0.20850828	0.45702043	0.37924936	0.2704888	-0.12925836	-0.026601136	0.5252457	-0.114372656	0.1578146	0.070032805	1.1118153	0.5826651	0.18657333	0.33823124	-0.48938283	-0.4206966	-0.09668835	0.09042892	-0.019410178	-0.010966875	0.6457635	0.07098268	-0.24980861	0.31460023	-0.07651533	0.45601743	-0.18061027	0.058780372	-0.69496155	0.098033376	0.13124752	0.11523035	0.37309593	0.5742106	0.06212236	0.01181294	0.9103065	-0.554751	-0.2523374	-0.68447256	-0.36168754	-0.5539129	-0.11699272	-0.19170588	-0.5704818	-0.06604272	-0.3362368	-0.017580122	0.3952432	0.5025687	0.04425174	0.045292422	0.4766621	-0.0032779574	0.1900381	-0.13455735	-0.178139	-0.3046687	-0.6339454	0.19913884	0.22851202	0.20060882	0.07473029	-0.47967282	0.07595367	0.03435774	-0.35899925	0.21797639	0.14543909	-0.70281625	-1.0379895	0.48920694	-0.7710904	0.34157136	0.70161915	-0.29765958	0.22276145	0.39019895	0.40061712	0.5438747	0.03474298	-0.7117101	-0.27361494	-0.42572948	-0.40075064	-0.39291322	0.35293916	-0.04589714	0.19207087	0.005357247	0.05225309	0.2621707	0.36991435	0.36589333	-0.6220946	0.2695042	-0.36512005	-0.23180324	-0.6532653	0.446166	-0.00038519502	0.08490935	-0.55011517	0.17628406	-0.16401267	-0.25177294	0.55957085	0.18483698	-0.238262	-0.18277895	0.10219787	-0.07902018	-0.05302272	-0.4552429	-0.07465516	0.0444244	0.72075945	0.5757999	-0.5144097	-0.10098709	0.38651952	-0.13823229	-0.009033516	0.17342773	0.7685581	0.9178055	0.43227345	-0.1925664	0.16419506	-0.13204342	-0.7098218	0.02215787	0.80887026	-0.518194	-0.13352743	0.45570242	-0.07065466	-0.22358212	-0.25360513	-0.3264265	0.4290666	-1.3674895	-0.08509701	-0.4344882	-0.108527884	0.8459222	0.34851515	-0.33049828	0.12293933	0.76602507	-0.16256848	-0.18994194	-0.30884698	-0.112945914	0.18870816	-0.044415012	-0.71471596	-0.62845004	-0.61008203	-0.3336401	0.31998822	0.38051417	-0.35924223	0.38288224	0.10425469	0.1524217	-0.2621169	-0.18392342	-0.3905444	-0.09784414	-0.04633774	-0.37819195	0.012839332	0.39563003	-0.27972552	0.08277981	0.0039980933	0.30203566	0.27044111	0.10020121	0.32976025	0.079983726	0.4282366	-0.53144103	-1.1052663	0.113805026	-0.10324018	0.049642146	-0.25906032	0.2991105	0.2693416	-0.35742605	-0.28740555	0.18054456	0.24012123	-0.25927424	-0.18130448	-0.31637546	-0.4470441	-0.1085873	-0.55775744	0.18027732	0.035106532	-0.5510241	0.2344664	-0.31458175	0.32812905	-0.30602998	-0.028009154	0.09219991	-0.16327335	0.07144061	-0.18251348	0.1955312	0.17196581	-0.009517342	0.3240015	0.034006186	-0.789839	-0.039886773	0.20640528	-0.46573624	0.6796578	0.14893934	-0.58646595	-0.6749549	0.71774554	-0.5375715	-0.13107324	-0.19684453	-0.6595186	0.38835192	0.106057286	-0.28653345	-0.43072972	0.22925824	0.9047922	-0.034125924	0.43493032	0.6955363	-0.07148975	-0.7757841	0.08553755	0.3548148	0.052682742	0.5157242	-0.48815927	0.8572961	-0.9311586	0.30276987	0.23174171	0.6620659	-0.27433252	-0.48523644	0.050357968	0.0054793656	0.74842256	0.3301885	0.70680976	0.5580764	-0.1988621	0.39303157	0.13084489	0.6156051	0.32956845	0.2714143	0.23966666	-0.14067583	0.55013144	-0.7666111	0.32516629	-0.3353732	-0.37363324	0.7775107	0.73951244	0.64036816	0.6082512	-0.4414952	0.028469935	1.0172055	0.42437637	-0.7309343	0.19256343	-0.24914281	-0.012869768	0.5670836	0.4457267	0.6375642	0.13939488	-0.51490223	0.34325278	-0.25035495	0.29861787	1.0945129	-0.64766586	0.0106628835	-0.45318633	-0.08510473	0.16669591	-0.87109715	0.73655397	0.40236118	-0.28443316	-0.79165083	0.6651573	-0.19699574	1.205726	0.7175361	0.27730605	-0.3686879	-0.14412647	-0.3161955	-0.18144032	-0.40354407	0.082053855	0.21352169	-0.23449178	-0.15679717	0.18571189	0.068527795	-0.14461137	-0.7544295	0.22555065	0.41220456	-0.24698058	0.41314334	0.4351143	-0.20999919	0.43863744	-0.2416428	0.10238333	0.47673666	0.19254638	1.0649202	-0.24017482	-0.3089597	-1.1230128	0.18454443	-0.41967165	0.6453106	-0.14045073	-0.30929297	-0.15869734	0.359044	-0.90446126	-0.47058478	0.3605272	-0.15180027	0.47913533	0.62129	-0.13679573	0.14747012	-0.46704304	-0.17593917	-0.02806265	-0.25619483	0.072046794	0.2760041	0.117124856	-0.093594015	-0.3239838	-0.041733697	-0.6987459	0.4459065	0.41046023	-0.084795594	0.0056973174	-0.24012136	-0.017374985	0.06147486	-0.5179682	0.22110644	-0.36377373	-0.5535638	-0.044317126	0.16072425	0.14838928	0.6224918	-0.04773009	-0.69805527	0.14150448	0.3747147	-1.1182268	0.029376313	0.31759328	-0.06409359	-0.03366255	-0.13782352	-0.17265525	0.639589	-0.3535992	0.6883949	0.3549365	-0.590824	0.6094672	-0.70471025	-0.542743	-0.17860104	0.20702286	-0.044667393	-0.76431626	-0.08836847	-0.26060295	0.6870377	-0.052795097	-0.05447731	0.21188189	-0.32710743	0.41834286	0.34818503	0.3450048	-0.525142	-0.4157869	0.28520447	0.47410467	0.05799608	-0.22874346	0.056883045	0.027424388	-0.00984098	0.38832793	0.12260687	0.35569966	-0.07080832	-0.35901782	-0.06945947	0.65742856	-0.91700166	-0.08192477	0.04520376	0.056851953	0.2822854	0.25527415	-0.36560118	0.38698426	0.33609316	0.05622855	-0.525123	0.12845305	0.10747573	0.3277651	-0.44629124	-0.10194878	0.13405615	-0.15055454	0.31784666	0.077287436	0.028361619	-0.20024607	0.8717518	0.21814473	-0.24006534	-0.08267063	-0.24625778	-0.20811623	0.19820864	-0.37473232	0.2168092	-0.089852154	0.5758011	0.43962213	0.71250004	0.77094924	0.25458384	0.25410998	-1.3756953	-0.36227155	-0.35632858	0.4505753	0.15746841	0.29643562	0.11246231	0.30083284	0.40725225	-0.3845992	-0.3427068	0.41248155	0.3092733	-0.06455985	0.82724017	-0.22877526	-0.49280965	0.65219384	0.2926506	0.32333848	-0.48069113	-0.707666	-0.15591207	-0.7232429	-0.4942599	0.12503248	0.26535347	-0.5215122	-0.21021673	-0.06257883	-0.20710115	-0.39265352	0.43585134	0.62656224	0.45262507	0.48717088	0.0051130056	-0.74693835	-0.6701861	-0.28035682	0.2344921	0.16025919	-0.26401556	-0.62484497	-0.16736531	0.55539	-0.64609593	0.49016905	0.46939194	-1.0133209	0.7343576	-0.40177828	-0.17850271	0.18778056	0.4724803	-0.35600728	-0.5313694	0.011988074	-0.37488955	0.32873315	0.28363794	-0.24924746	0.6032156	0.17197405	0.48863518	0.348232	0.5432645	-0.16208911	-0.028022185	0.27956218	-0.13927725	-0.04681416	0.03441164	-0.94556975	-0.056254685	0.12520836	-0.077303186	1.0387211	0.4457314	0.4340739	-1.1631883	0.38143855	0.088715136	-0.21361691	0.06367062	0.68995965	0.44483986	-0.7295667	0.32377622	0.6453287	0.13136388	0.4400159	-0.33287096	-0.29395533	0.88808966	0.5694161	-0.2520017	-0.091716975	0.24253544	-0.2590352	-0.39975393	-0.4544149	-0.3003089	-0.14619505	-0.59637725	1.2463042	0.563212	0.04878716	0.3936848	-0.42476815	0.22797996	-0.18123676	-0.011025384	0.3003713	-0.5298152	0.5185948	0.0027296022	0.0955697	0.32690918	0.15178871	-0.187476	-0.6239619	-0.537853	0.24385491	0.3708854	-0.280509	0.43493736	-0.45159724	0.6034275	0.4292075	-0.09961194	-0.0036773086	0.18357037	-0.42024183	0.03075859	-0.41610146	-0.29046908	0.16114268	-0.13952355
G001897225	0.024314284	-0.40474987	-0.5114629	-0.6700278	0.6467165	-0.5105128	0.018751025	-0.80233085	-0.19915788	0.5897316	0.2675534	0.10880237	0.1907355	0.30935293	0.3732698	0.32657397	-0.4160568	-0.22977123	0.6341244	0.48640305	-0.21790653	-0.23210055	0.6411775	0.36464614	0.18583757	-1.0853703	0.47186634	-0.3739869	-0.7472973	0.025619566	0.73923475	0.22957127	0.11205274	0.184939	-0.18230647	-0.24617425	0.005121708	0.28210706	-0.80349517	-0.67785287	1.10693	0.10716203	-0.20870693	-0.59560907	1.0904453	-0.24159966	0.75315905	-0.32948166	0.6234715	-0.4571566	-0.17165007	-0.014201373	0.5519607	0.20130235	0.017993338	-0.0058387816	0.05092565	-0.16299409	-0.45590577	-0.27695116	0.81621933	-0.254479	0.11675863	0.10293417	0.49043033	-0.6007632	0.044121534	-0.5311656	-0.42060733	0.891401	-0.524367	-0.46351922	0.090239555	-0.8467038	-0.61464846	-0.7244896	0.45485568	0.5296881	-0.15315303	-0.0087348	0.3868473	-0.28371957	0.5965997	0.26900682	-1.1172054	-0.016499788	0.21073526	-0.74263686	-0.4991231	0.22059321	0.3376351	0.88874435	0.47609314	-0.4473786	0.08060831	-0.33889928	0.4972577	0.053868636	0.3044816	-0.126568	-0.2984798	0.1982476	0.33248407	-0.0191372	0.512744	-0.12200236	0.35688776	-0.9587247	0.3398071	-0.025492579	-0.045349464	0.62307644	0.27672544	-0.16867304	-0.27507046	-0.1635361	0.010767356	-1.0029905	-0.5918752	-0.8500253	-0.38581944	-0.23059136	-0.3365152	0.9821794	-0.3766616	0.34601566	0.025832176	-0.67830735	-0.17266105	-0.091122545	0.0227132	-0.24630347	-0.4944079	0.51213795	-0.26664042	-0.4645411	0.574441	-0.5806172	-0.16706419	0.8858769	0.85535556	0.77334666	0.0032172129	-0.1724316	0.002257146	0.36647883	0.3907417	-0.7946555	0.09041032	-0.03980001	0.53971094	0.4260707	0.00034981966	0.39456934	-0.6620039	-0.33367813	0.17108625	-0.2096136	-0.64084023	-0.09627686	0.23289531	0.6760331	0.11028582	0.50152785	0.015540928	0.6810694	-0.42588422	-0.12179522	-0.004516393	-0.1439484	0.09019615	-0.360842	0.24401754	0.07342106	0.1012893	0.2901881	0.018760607	0.24003871	0.40416723	0.120737225	0.7174654	0.16414508	0.39065114	-0.05824861	-0.09716909	0.67840564	0.41517064	-0.324367	0.21056534	-0.59962076	0.4677879	0.20556328	0.24638921	-0.6266291	-0.6877928	-0.50913566	0.03256789	-0.19202751	-1.1266296	0.07909536	0.762558	0.3602884	1.0799186	0.32222304	0.22039954	0.6280398	0.24818291	-0.59048635	-0.35323495	0.0690417	-0.056715645	-0.4860323	0.3856467	0.7953722	-0.30054867	0.03604111	0.21697393	-0.061259173	-0.9496065	-0.052119777	-0.50176746	-0.9350611	0.52986145	0.35030967	-0.8759309	-0.83124816	0.21660656	0.05503261	0.41661775	-0.44357583	0.6609833	0.34773988	0.67300963	0.4101134	0.016487047	0.60084164	0.38538235	0.116346136	-0.72535497	0.56596273	0.042149954	-0.5480373	-0.4559499	0.06225705	0.85043377	-0.11674845	-1.2097652	0.7124041	0.12601835	-0.49251056	0.17488332	0.14661178	0.3361111	-0.044461966	0.7105517	-0.8410959	-0.6580041	0.19400421	0.19436184	-0.18021336	-0.6244648	-0.6492112	0.34924307	0.38781124	-0.25139213	-0.0070322007	-0.42035758	0.004266888	-0.00997816	-0.7343805	0.34009868	0.69215554	-0.06039615	-0.07703972	-0.073791996	0.124790266	0.5737704	0.14843571	-0.43976122	-0.87269807	1.0154208	0.12851143	0.11030225	-0.4957625	0.7456061	-0.5919881	0.43118045	0.002289921	0.46037173	0.49255073	0.06703997	-0.087956294	-0.02947585	0.6199134	0.49366528	0.38589036	-0.30844754	-0.5636917	0.30428874	-0.043732114	-0.56098944	0.2397131	-0.19048113	0.35393202	0.1421888	0.07383996	-0.02249761	1.0204082	0.26157698	-0.30645502	-0.94382	0.025883257	0.2617464	-0.21036191	0.06684021	-0.18719465	-0.23345003	0.11927578	-0.08514439	0.27034676	-0.24046536	0.1265325	0.13902049	0.014859229	0.09997915	-0.40456748	0.20994902	-0.15660907	0.7578466	-0.2101453	-0.3091385	0.6877345	-0.62311494	-0.13954043	-0.7501872	-0.07262179	-0.24853423	-1.0646809	-1.03645	0.69648874	0.75957066	0.4742561	0.20721114	-0.6634514	-0.81889325	-0.5949447	-0.5638657	-0.028771356	-0.6681167	0.49943987	-0.110778764	-0.29514247	0.85528886	0.5998364	0.38583192	0.076242834	0.9354249	-0.3515648	-0.42924327	-0.09884183	-0.49247962	-0.52072316	-0.3919077	0.004768148	0.067423105	0.035329297	-0.26465333	0.8663964	-0.49977607	-1.0702817	-0.4855676	-0.050159127	-0.58207774	0.14113094	-0.547758	0.12404004	1.0222913	-0.39365256	0.37079856	0.009459086	0.00657513	0.28107035	-0.01641184	-0.03397368	-0.21113232	0.0669343	-0.6181403	0.0013385713	-0.91346824	-1.0393019	-0.9869697	-0.3275693	-0.1633392	0.2446349	-0.5523321	0.19054902	0.26103988	0.31688538	0.53407824	-0.40109253	0.2135635	-0.42751652	-0.6289502	0.80375457	-0.7350069	0.58671844	0.96533436	-1.2072196	0.018995956	-0.15969734	-0.043139752	-0.08357355	-0.2534511	-0.40630746	0.020227328	0.2667935	0.5139208	-0.8386613	0.35743618	0.026123367	-0.47418427	0.46287146	0.5763029	0.27311757	-0.25832036	-0.35858768	0.14140874	-0.08175734	-0.05574821	0.035080343	0.937389	0.62490606	0.46115327	-0.022194415	-0.09848827	-0.36716458	-0.39480034	0.42564046	-0.21658802	-0.14042158	0.5757853	0.012161285	0.052287742	0.57777363	-0.21502379	0.46623808	-0.13361938	0.15600426	-0.6833621	0.26098022	0.45242912	0.38854516	-0.057843395	0.88971514	0.22670828	-0.21467969	0.8241027	-0.61074126	0.097147375	-0.59794396	-0.30400804	-0.45288262	-0.23700908	0.04037649	-0.7096535	-0.17862825	-0.31852636	-0.25573483	0.23430322	0.6876955	-0.263901	-0.010675326	0.6745742	-0.026349127	0.3823256	-0.25047764	0.1027599	-0.36476904	-0.57422394	-0.01640679	0.1653854	0.46498886	0.29677227	-0.40400442	-0.05724617	-0.29493982	-0.15019205	0.33297017	0.4735413	-0.6626725	-1.2805047	0.52627206	-0.8730856	-0.2154163	0.6384386	-0.25653124	0.4031266	0.11442757	0.93071806	0.7725928	-0.118511625	-0.3481589	-0.8148936	-0.5656322	-0.64090073	0.071947426	0.7742746	0.04081513	0.22976811	-0.11977411	0.04545918	0.5916655	0.3363764	0.31067455	-0.53647053	0.17791197	-0.2888698	0.086946115	-0.86478066	0.30148613	0.012717724	0.020229489	-0.6680616	-0.096426636	0.08893609	-0.6186851	0.40303278	0.6483918	-0.30395564	0.029187769	0.25784492	-0.07177707	-0.43687367	-0.29307646	0.24528655	0.13989937	0.6028611	0.303043	-0.5741176	-0.34359443	0.48801962	-0.08033207	0.2064271	0.06396186	0.6708858	0.5167482	0.5683249	0.038505137	0.34556332	-0.65727544	-0.5553173	0.196574	0.6352971	-0.72937435	-0.07123642	0.25287727	-0.044301696	0.015129238	-0.53316516	-0.4615565	0.5629386	-1.4753382	-0.5141041	-0.46929175	-0.32689822	0.8642451	0.38651103	-0.5020589	-0.012282163	0.7856803	-0.34731084	-0.0854653	-0.36531794	-0.52808374	0.010021143	0.18228213	-1.1460594	-0.7921291	-0.50854284	-0.32833678	0.67684126	0.23812075	-0.20611323	0.4996551	0.45338202	0.24375166	-0.5050826	-0.005279541	-0.62055624	0.10764317	0.3411686	-0.37107876	-0.099691555	0.31292355	-0.1546065	-0.05478847	-0.0011050329	0.04175517	0.30245942	-0.19983086	0.21105817	0.12000401	0.63446367	-0.2502118	-0.89578205	0.19580892	0.3471733	-0.09062499	-0.44524327	0.18326011	0.4864356	-0.36920792	-0.37753573	0.233752	0.16736628	-0.12212317	0.060503796	0.12408316	-0.7732628	0.015464157	-0.61675787	0.018852651	-0.14907257	-0.4264693	0.2523528	-0.630895	0.4218842	-0.44479787	0.038703777	0.09070206	-0.07401852	-0.15578647	-0.5894659	0.32992998	0.09629938	-0.4734923	-0.21673757	0.2336843	-1.0093945	0.059576288	0.6108989	-0.2315461	0.9618153	0.25258076	-0.4344976	-1.0230725	0.9769852	-0.8151587	0.04911135	-0.55270255	-0.47542107	0.35268706	-0.008222133	-0.12034638	-0.57889265	-0.041637518	0.71250194	0.004699081	-0.08553958	0.62371796	0.11382741	-0.70603627	-0.12224457	0.12292344	0.10801708	0.6877414	-0.22150786	1.0978856	-0.8699112	0.29274207	-0.026304312	0.48715723	-0.17820239	-0.5609797	0.16534883	0.21968004	0.63414824	0.39833933	1.0417448	0.70680463	0.1488271	0.27600124	-0.23620604	0.7183377	-0.13574834	0.609607	0.63999623	0.033199474	0.37908792	-0.57905805	0.26567128	-0.18692747	-0.38821745	0.8473749	0.7168485	0.14880216	0.6392489	-0.71623695	0.016868234	0.99511814	0.49165252	-0.80900204	0.33881977	-0.1630153	0.32615834	0.67951524	0.42543605	0.54914325	0.06716711	-0.39169717	0.657031	-0.45932156	0.19121477	1.3774099	-0.9746902	0.20202947	0.043504387	-0.06631093	0.56925815	-0.9821261	0.593763	0.54891133	-0.24348408	-0.6214756	0.93882906	-0.33408073	1.0796084	0.34569734	0.43106443	-0.1355299	0.040373653	-0.4465966	-0.233128	-0.08527888	0.5557843	0.3364322	-0.21249151	-0.07830992	0.06512629	-0.04010791	-0.041464522	-0.46463352	0.0815001	0.37404162	-0.37966916	0.09952098	0.7179401	-0.40480056	0.29686826	-0.4551201	0.05627656	0.44004336	0.0015101768	0.9284651	-0.113601	-0.46360582	-1.2783028	-0.21497506	-0.54748577	0.5697857	-0.57563615	-0.53207445	-0.07117611	0.22743502	-0.5601028	-0.42838264	0.64771855	-0.0807831	0.7042699	0.15443927	-0.24506915	0.4284396	-0.016048193	-0.49663508	0.16330723	0.11491719	0.2969447	-0.054290324	-0.021435425	-0.42205542	-0.54844165	-0.2572416	-0.45914996	0.39034885	0.10880718	-0.37105575	-0.15259276	-0.6890763	-0.19874391	0.13860098	-0.47064233	0.37688124	-0.292989	-0.43987936	-0.44048387	-0.31662858	0.2766368	0.5956658	-0.32600313	-0.8330727	0.03806803	0.15826184	-1.2445089	0.5287537	0.61146295	0.49078354	0.07185655	-0.29835367	-0.2238751	0.7810352	-0.41780582	0.7216462	0.7182162	-0.874086	0.7779484	-0.74376595	-0.85702336	-0.5194871	0.36420953	0.25057846	-0.16462755	-0.30645615	-0.0577327	0.55938023	-0.6312207	0.15895322	0.26817858	-0.22681034	0.39404684	0.07750133	0.3461987	-0.29672292	0.011725202	0.06288241	0.47680306	-0.03402868	-0.54236907	-0.020616978	-0.17549272	-0.27331525	0.67124915	0.26908383	0.47651064	0.06318393	-0.48879457	0.42191362	0.7024611	-0.98652387	0.26191705	-0.24280068	-0.15456235	0.5661479	0.5287216	-0.3870859	0.34898084	0.6104407	-0.017229006	-0.67376316	0.43274206	0.16790658	0.19282572	-0.336969	0.37834185	0.047730386	-0.059117705	0.34376597	-0.022492051	-0.0042636096	-0.06553066	0.87874705	0.054665457	-0.46947008	0.2556358	-0.20747575	-0.13801026	-0.030704424	-0.48367426	0.21185914	-0.05397728	0.5964203	0.62959725	0.81331563	0.56781846	0.37917542	0.12785065	-1.1305141	-0.16010207	-0.7325338	0.7756634	-0.27157536	0.34481966	0.37693205	0.5296267	0.57222205	0.0057896823	-0.37823582	0.32990703	0.34851575	0.11127368	0.5313684	0.18313906	-0.7354097	0.658685	0.26448727	0.2712595	-0.19253889	-0.14423765	-0.03278701	-0.8190323	-0.5263803	-0.100436956	0.17267631	-0.4191565	0.02349919	-0.25605592	-0.48973623	-0.09210444	0.14556417	0.8037319	-0.005801648	0.5709685	-0.41940463	-0.7815288	-0.75152427	-0.23223136	0.22373754	0.15321401	-0.5087808	-0.80511487	-0.34824076	0.3467736	-0.64842886	0.4854945	0.36071104	-1.2266523	0.57745576	-0.37505805	0.0023154914	0.430634	0.29391593	-0.4619368	-0.43701112	-0.09699647	0.031137407	0.5658333	0.30383947	-0.11861974	0.7950237	0.10130091	0.23838425	0.5658119	0.26360548	-0.21709651	-0.32391065	0.07472938	-0.24848783	-0.09550567	-0.052443773	-0.80238706	-0.16132934	-0.22393584	0.04018633	1.2052819	0.2006334	0.59685177	-1.2458043	0.7706673	0.36760807	-0.2047174	-0.2295987	0.6643974	0.29833293	-1.1157861	0.178862	0.30502775	0.04600686	0.5722587	-0.53639597	-0.5413348	1.0758746	0.79522187	-0.049453825	-0.13072258	-0.012722902	0.28649527	-0.8266064	-0.5981834	-0.23680468	0.37526882	-0.81446123	1.4902998	0.36740318	-0.26697645	0.07603076	-0.12904172	0.23120515	-0.5798307	0.057287544	0.4359177	-1.0688173	0.630479	0.1574167	0.0025164783	0.34373677	0.22761497	0.22523224	-0.41931215	-0.24190909	-0.20812532	0.1813039	0.1429923	0.35124308	-0.4706633	0.87927324	0.39328933	-0.09586123	-0.15876392	0.16312462	-0.6888708	0.04664138	-0.6099441	-0.3933214	-0.025965475	-0.019812576
G000454725	-0.3554709	-0.17857617	-0.85054755	-0.28292716	0.5827505	-0.6333455	0.05932936	-0.8058038	-0.22041453	0.32222223	0.35302678	0.6186165	0.4070322	0.007814225	0.2906103	0.5324368	-0.21891484	-0.2698881	0.5074882	0.78339297	-0.19644536	-0.07641136	0.4001044	0.3671921	0.29455113	-0.86474127	0.30137914	-0.25808766	-0.87862164	-0.042413414	0.3392061	-0.2372547	-0.16049245	0.007020116	0.011448592	-0.36543757	-0.2972316	0.37313712	-0.7137518	-0.5607146	1.0496953	0.15233655	0.15701443	-0.43802232	0.6893238	-0.36453658	0.3552779	-0.24863015	0.21425594	-0.6010548	-0.23086412	-0.31983596	0.13847075	-0.18791443	-0.46576422	-0.054466903	-0.049100988	-0.14721225	-0.4167518	0.14393409	0.6298753	-0.12735167	0.24851274	-0.21805048	0.46557575	-0.07678461	-0.26724494	-0.5066238	-0.30155063	0.7841569	-0.20328364	-0.6586857	0.15529239	-0.74040955	-0.40364707	-0.8130091	0.6815765	0.818255	-0.20349815	0.06582335	0.47506103	0.11433386	0.56161916	0.21877521	-0.9046789	-0.26721025	-0.19632797	-0.7822734	-0.52942836	0.51373696	0.25283483	0.5796313	0.36685833	-0.44236147	0.16920462	-0.067043506	0.37289387	0.7394041	0.16193804	-0.09757401	-0.09624054	0.1447505	0.38075438	0.026891537	0.5656324	-0.3845676	0.11161621	-0.6914313	0.31459767	0.11901502	0.17288278	0.23470736	0.028986737	-0.30256718	-0.5922375	-0.01055041	-0.22077338	-0.5237282	-0.35273817	-0.8580356	-0.45305675	-0.0065445825	-0.42612797	0.8649049	-0.72878945	0.23626484	0.003907338	-0.65204835	0.1561896	-0.24860856	-0.21689422	-0.41080952	-0.6801878	0.09594098	-0.064174175	-0.5753365	0.21689594	-0.6780401	0.2047286	0.7614721	0.6262017	0.7794915	0.38631243	-0.16463724	-0.26294893	0.48870575	0.4506508	-0.5267745	0.18709971	0.08418536	0.4796702	0.3686056	0.20353603	0.56843007	-0.61118186	-0.36408424	0.030585468	-0.29200763	-0.678385	-0.13291848	0.025034517	0.81008923	-0.10684061	0.07935989	0.047981083	0.6522099	-0.17172118	0.0646148	0.03083828	-0.20985839	-0.18719515	-0.61847204	0.20214695	0.18229914	0.040099382	0.2927346	-0.10915853	0.5050077	0.3010126	-0.40481964	0.52962506	0.1544175	0.20163222	-0.081189066	-0.16863218	0.62002873	0.22236268	-0.2452904	-0.12538317	-0.58957165	0.84227705	0.37836897	0.21300606	-0.23123479	-0.7895118	-0.4753055	-0.008809894	-0.08286536	-1.1043792	0.1496259	0.7092874	0.4147839	0.7006935	0.46440738	0.40163866	0.54841495	0.16831061	-0.35775304	-0.16432911	0.1955139	-0.41898784	-0.43024638	0.5150256	0.9183889	-0.47536743	-0.14732255	0.13870032	-0.19162834	-1.0445901	0.25570303	-0.8822206	-0.58946043	0.046485335	0.27094465	-0.6181766	-1.0594615	0.118343964	-0.16267851	0.4125515	0.11763455	0.82368994	0.23087275	0.354709	0.23616883	0.30744797	0.6470066	0.972306	-0.26020607	-0.36744803	0.5735117	0.0805097	-0.42530224	-0.78940135	-0.27833956	0.73055077	-0.25880998	-0.99395627	0.51721853	-0.24627681	0.07622969	0.46696377	-0.30619588	0.3333606	0.26173833	0.24116841	-0.78456527	-0.4888759	0.11689228	0.14130506	-0.18302727	-0.36630893	-0.048392825	0.5273516	0.4775811	-0.07092051	-0.16679648	-0.47747034	-0.28048584	0.6071758	-0.9685066	0.5733077	0.32645142	0.059539124	-0.059396744	-0.20524554	-0.28437495	0.49265358	0.3856728	-0.34237894	-0.9313382	0.8243345	-0.16016175	0.112586826	-0.5847967	0.6100087	-0.61303294	0.38923836	0.16620758	0.30392656	0.5967051	0.19223669	0.32596445	0.21489272	0.1945588	0.044059828	0.35537034	-0.18726712	-0.27794915	0.3336726	0.17377347	-0.5795766	0.1650041	-0.5350425	0.51562583	0.0051955134	-0.23740658	-0.20489228	1.061487	0.059046686	-0.3796209	-0.6935077	0.06181869	-0.0001673922	-0.1782477	0.14409705	0.2464577	0.12442908	0.045760676	-0.01590617	0.48693797	-0.0012759939	-0.013980955	-0.06254521	-0.23565911	-0.10987498	-0.43573493	0.11746807	-0.2749017	0.6599296	-0.069732934	0.15793307	0.8245342	-0.34188202	-0.357903	-0.65761894	0.26197773	-0.23335579	-1.449926	-0.78534985	0.32686558	0.4964975	0.7779157	-0.050260976	-0.35061187	-0.9038378	-0.48350352	-0.5836807	0.06448007	-0.3809933	0.20927294	-0.27322185	-0.45945942	0.59128356	0.7405623	0.46579638	0.0041439384	1.162266	-0.39853293	-0.5650073	0.04879807	-0.46627158	-0.51861614	-0.33120924	0.22375122	0.24778485	-0.14111012	-0.27742964	0.6594387	-0.50974166	-0.6770205	-0.745387	-0.16544947	-0.31549025	0.13307497	-0.55429995	-0.0018448681	0.7881032	-0.53654814	0.16167432	-0.4340303	0.29892272	0.1640785	0.3587483	-0.1362506	-0.272305	0.11939282	-0.71331877	-0.438813	-0.6618925	-0.89235234	-0.9848472	-0.36501062	-0.0303533	0.8214214	-0.493149	0.022465326	0.02952791	-0.2036552	0.6169721	-0.5891452	0.21101752	-0.08240635	-0.50030994	0.7964721	-0.6835921	0.4066359	0.58304816	-1.1677315	0.1316933	-0.35665512	-0.19475985	-0.16349007	-0.18108174	-0.43613926	-0.536481	0.18985224	0.7585331	-0.8722385	0.20476739	-0.034015074	-0.41933802	0.49919277	0.2385938	0.31850845	-0.4079639	-0.33866107	-0.16208875	0.25735223	-0.038339227	0.17959523	0.6072109	0.6308907	0.21310872	-0.31093714	0.034720466	-0.24274328	-0.41617128	0.4884592	-0.14044996	-0.2620536	0.43634015	-0.31147248	0.11681302	1.0234883	0.033755034	0.39282727	0.16555446	0.2469128	-0.6851114	0.15704344	0.39483678	0.7320832	-0.36909187	0.8558465	-0.09728421	0.3061335	0.58292645	-0.76975024	0.14160576	-0.20896406	-0.3074644	-0.17199036	-0.17636913	-0.26165447	-0.6655133	0.25917274	0.0054323673	-0.54042065	0.0854375	0.45303926	-0.062190145	-0.24377802	0.31869584	0.18819487	0.78418076	-0.09680872	-0.026204228	-0.119143546	-0.36489826	-0.14980459	0.3330599	0.88913655	0.15968424	-0.35596216	-0.01521039	-0.23286489	-0.06959171	0.28721765	0.8512111	-0.3388088	-1.3204548	0.38719022	-0.73643446	-0.35757333	0.44831422	-0.3351547	0.36512738	0.20369378	0.7455183	0.8439253	0.06406193	-0.65379655	-1.030492	-0.5252808	-0.4977101	0.59435695	0.49242765	0.20915389	-0.071476206	-0.26170018	-0.1151413	0.56476116	0.43450803	0.14231768	-0.63094753	-0.14245288	-0.12993002	0.09658998	-1.1922393	0.17144898	0.25919324	0.39134806	-0.5589391	-0.3975631	0.008804858	-0.86702055	0.28451842	0.45472527	-0.47692236	0.12562624	0.5040998	-0.1969454	-0.314826	-0.06464066	0.10361016	0.04769487	0.12713057	0.42654794	-0.78093815	-0.045337528	0.16349155	-0.5892542	-0.041399002	0.31284854	0.048626117	0.42444262	0.55153596	-0.01261114	0.27094567	-0.3033072	-0.4989922	0.20410532	0.4345009	-0.6619375	-0.53092784	0.2250768	-0.071112946	-0.14506039	-0.34077662	-0.7938365	0.23990312	-1.2196076	-0.50817406	-0.5858451	-0.4154494	0.7414133	0.5794026	-0.40378526	-0.08127272	0.78249	-0.77986604	0.21238089	-0.60012305	-0.53089416	-0.17763379	-0.039760783	-1.2936835	-0.69424593	-0.19333363	-0.3795601	0.41544953	0.20810603	-0.0023109168	0.31863028	0.6638001	0.42065045	-0.7363606	-0.33411717	-0.71208084	0.11167817	0.5759695	0.0146035105	-0.10256991	0.24088588	-0.08323422	0.079447076	-0.12836546	-0.09803842	0.383734	-0.28004438	0.16223383	0.055240527	0.468975	-0.14045781	-0.79883516	0.042158842	0.6255337	0.10533756	-0.46994674	-0.031726956	0.37486103	-0.14546603	-0.32579905	0.034001112	0.65780014	-0.48810714	0.21113865	0.04749511	-0.96237504	0.420763	-0.5088314	-0.11565375	-0.28397027	-0.25302282	0.29002604	-0.54701144	0.32181203	-0.20592594	-0.041293167	-0.010133639	-0.17068483	-0.06694132	-0.36499834	0.40202942	0.29213956	-0.39268962	-0.482854	0.28029525	-0.7155163	-0.14022994	0.84561133	-0.14097078	0.7296853	-0.07345274	-0.44648874	-1.0077784	0.7433353	-0.94888747	0.43448314	-0.6983861	-0.46866617	0.28967714	0.14996356	-0.06648615	-0.36982885	0.19357553	0.20382427	-0.42604092	-0.2547471	0.36274093	0.43582183	-0.47176355	0.017192006	0.20681259	0.30004704	0.4200642	-0.35062814	1.257524	-0.36217493	0.36233318	-0.04000008	0.6064322	0.08819276	-0.42523885	-0.3143204	-0.100902855	0.29502717	0.06940532	1.1757814	0.56416774	0.5075928	0.48274967	-0.4858001	0.93418634	-0.3724017	0.7170845	0.60802656	-0.10124955	0.2002196	-0.55201733	0.5457386	-0.075628825	-0.21090339	0.58536774	0.5523853	0.16141322	0.3526678	-0.81472564	-0.18481782	0.89648753	0.3012201	-0.6489936	0.26837668	-0.3561472	0.313258	0.7593272	0.6199659	0.455002	-0.42170632	-0.76485604	0.6304164	-0.26521307	0.12309178	1.1792833	-0.97710526	0.26318103	-0.21240681	-0.1846169	0.84074104	-0.8533155	0.23537791	0.38110125	0.04884526	-0.4023888	0.9730571	-0.4732955	0.5754965	0.47039846	0.1321994	0.27158925	0.14653265	-0.49828687	0.03377994	-0.0033382978	0.5947691	0.27462888	-0.4120758	-0.17434585	-0.27360862	0.018131763	-0.070685804	-0.23407698	-0.22996345	0.09346807	-0.3765017	-0.18461439	0.7271599	-0.09948212	0.30645454	-0.51423174	0.20987244	0.65184766	-0.13460332	1.0934962	0.18022564	-0.40908584	-1.3289769	-0.44469005	-0.6341229	0.29249445	-0.44999725	-0.5465811	-0.0048389435	-0.2001703	-0.3600307	0.06978828	0.47081232	0.40435416	0.70640594	0.12756082	0.31172943	0.37079024	-0.028693035	-0.31743264	0.32919103	0.10086292	0.33144292	-0.34429038	0.040347748	-0.32404947	-0.40700993	-0.54768246	-0.53200126	0.2702375	0.11293878	-0.67645496	-0.011489511	-0.66388166	-0.06984746	-0.109536424	-0.3500291	0.47132295	-0.27383	-0.56063545	-0.25095814	-0.22941436	0.3329879	0.6322629	0.123557866	-0.829564	-0.12220007	0.106923684	-1.0424144	0.3961015	0.6097511	0.40330568	0.10643329	-0.3782979	-0.23735848	0.79183483	-0.27895904	0.59426713	0.55089635	-0.8702581	0.7938323	-0.4452442	-0.9077017	-0.48774195	0.17109011	0.25419092	-0.044082455	-0.32587293	0.5427978	0.09917331	-0.79846907	-0.20144798	0.100520805	-0.06428728	0.5256837	0.047704548	0.3629774	-0.25308996	0.4408157	0.30559117	0.56331325	-0.07999992	-0.22430855	-0.024676502	-0.387461	-0.36036828	0.89590526	0.3202875	0.13449866	0.18409665	-0.80700475	0.2981489	0.5887094	-0.8023867	0.09960097	-0.4178828	-0.009649694	0.50875723	0.7013409	-0.610301	0.20465693	0.20777434	0.27699625	-0.27166885	0.14562386	0.37292022	0.04361596	-0.014694469	0.26161322	0.2671327	-0.07737784	0.43556038	-0.19155383	0.13465637	-0.025668606	0.49322736	-0.19329487	-0.15553844	0.56234634	0.24816474	0.060887933	0.027490206	-0.7880877	0.09857735	-0.2316682	0.45095652	0.67271364	0.45241702	0.46829647	0.04396172	-0.106554486	-0.98787814	-0.12446076	-0.66692215	0.891342	-0.39184445	0.29147825	0.6352576	0.5033514	0.25442344	-0.15279257	-0.267495	0.19370592	0.18497667	0.008170649	0.286164	0.39951998	-0.4622004	0.83248854	0.20941177	0.35870367	-0.13687208	0.016205221	0.075342394	-0.66258323	-0.46274444	-0.25478762	-0.2891512	-0.24110067	-0.23173593	-0.4806559	-0.34205672	-0.1399869	0.07934579	0.8506656	-0.25816745	0.55759454	-0.49169648	-0.7446174	-0.34053886	-0.30838603	-0.020451263	0.09960812	-0.37601286	-0.71773314	0.0067312717	0.168541	-0.64602506	0.11658486	0.21671742	-1.2501541	-0.025697872	-0.25267953	0.06646162	0.22803187	0.25567353	-0.25029314	-0.3448594	-0.37828493	-0.10282704	0.76727986	0.1199849	-0.1753611	0.06681748	0.0074444115	-0.18145066	0.35415176	0.26993263	-0.36795443	-0.26139206	-0.052305937	-0.40571347	-0.14965194	-0.12265852	-0.6917687	-0.34062916	-0.0034371316	0.4413757	0.9967851	-0.28324604	0.61530244	-1.0474292	0.8043755	0.47740674	-0.21715716	0.055834778	0.8997233	0.41500425	-0.8867196	-0.15777567	0.11310139	-0.01511699	0.3007582	-0.46570745	-0.55173177	0.9616166	0.55215114	0.13006797	-0.27426177	0.13577674	0.3722275	-0.74758136	-0.49821883	-0.2979441	0.27613413	-0.5477193	1.3493044	0.53082407	-0.33125663	-0.1459164	0.16645789	0.22833443	-0.5684092	0.1925576	0.3715956	-0.729779	0.63265204	0.4357529	-0.087604195	-0.016578697	0.21525171	0.21399745	-0.46635154	-0.14366037	-0.58209515	0.28819233	0.40348375	0.35189366	-0.62803507	0.37676454	0.16375756	-0.010160357	-0.29712594	-0.077969156	-0.7076143	-0.34943736	-0.42752936	-0.26620114	-0.27561852	-0.0938622
