G000974425	0.3179711	0.8339063	-0.46474946	0.09797454	0.09366328	0.47389278	-0.0035433173	-0.51085174	-0.670414	0.09526582	0.60220855	0.34165114	0.7108323	-0.14305738	0.21521023	0.110575624	0.12708229	0.23992254	-0.34006056	-0.72732556	0.5043102	-0.3540644	-0.34428373	-0.013196334	-0.28542832	0.4736638	-0.05780623	0.09539297	0.46157178	0.485174	-0.58859026	0.007367909	-0.24833307	-0.4106455	-0.068152264	0.3420391	-0.23544946	0.6825192	-0.59481245	-0.46446288	0.096753955	-0.47985882	0.29271233	0.21532215	-0.45429456	-0.17292482	0.09018983	-0.18576065	0.8687743	0.38482904	0.4497071	0.3753826	-0.80905765	0.4773642	0.042337	0.6691068	-0.21705838	0.28048673	-0.21419016	-0.021017656	-0.047871612	-0.23479515	-0.06952453	-0.678442	0.6090634	-0.35912934	-0.4526437	0.043679595	-0.12233397	-0.62993103	0.36353287	0.5684391	0.18707563	0.6058923	0.62022126	0.72141075	-0.52252537	-0.03978379	0.1677849	-0.2823795	-0.73644984	0.31841165	-0.42344928	-0.65121937	-0.0049960464	0.5036581	-0.33529362	-0.03260144	0.092990756	0.1444115	0.02568525	-0.50527763	-0.15110877	-0.091270015	-0.033350445	-0.18736894	0.45834178	-0.0775704	0.5066744	0.44008756	-0.4181727	-0.2704073	0.37268257	0.16042921	-0.16978577	0.39261657	0.08897436	-0.5149071	0.9121841	-0.015129447	0.4099786	-0.09492317	0.043923825	-0.09468582	0.37472188	-0.16177061	0.44901186	0.15631269	-0.37122107	-0.20629832	-0.23241517	0.21105513	0.16359887	-0.33077648	0.68094367	-0.08679883	0.012127355	0.48316398	0.5454626	0.051850885	0.46774113	0.38592947	-0.27771556	0.38908938	0.116467476	0.32060987	-0.9273821	-0.55152047	0.85464436	0.36154562	-0.18397816	0.046238042	-0.35543033	0.42006963	0.34495234	0.21077716	-0.051717043	-0.20020224	-0.5901708	-0.17388512	-0.4163369	-0.13100998	0.18457663	-0.28400216	-0.40698594	0.52288336	-0.3724156	0.06469247	0.17777172	-0.08219567	0.00053848326	-0.09286434	-0.63178885	0.15665549	0.46389276	-0.24472584	0.19280648	1.1229448	-0.022862606	0.2817057	-0.5655119	0.4807402	0.25265828	-0.5135143	-0.51157796	0.17332813	0.07556687	-0.82204056	0.023863465	-0.060715795	-0.09216238	-0.66613185	0.7936499	-0.13359018	-0.169839	-0.6235813	-0.3792379	0.2954222	0.08939501	0.3715305	0.38616952	-0.36332554	0.37358856	-0.06993079	0.077162325	-0.41415298	0.4898338	0.6317934	0.54087543	0.44526562	-0.62329566	0.50504506	-0.15043393	-0.741572	0.06441675	0.3632999	-0.14671421	0.3522609	-0.2421689	-0.18505448	-0.06652516	0.7959191	-0.19867587	-0.09099233	0.19343072	0.08574049	0.22377393	0.7330755	0.18172053	-0.1711254	-0.4088959	-0.33332974	0.49364233	0.1573174	0.3695616	0.22948405	-0.012092859	0.6237823	0.39743972	-0.2503038	0.9678154	0.18602791	-0.07348971	-0.5535112	-0.37978375	-0.20596579	-0.4793297	0.47081387	-0.5868743	-0.07934922	1.1097436	0.3520291	-0.6533245	0.6557712	0.44100833	0.18980756	-0.08304874	-0.6367196	0.6279136	-0.19219263	-0.15118793	-0.111023456	-0.2585491	-0.15728696	0.54446924	0.42390412	0.31373727	0.33589578	-0.034805708	0.06310238	0.27771485	0.14094843	0.37460843	0.16030796	0.6797985	-0.40292463	-0.18702936	0.27996624	0.12765037	0.2225084	0.7506092	-0.0022246465	-0.08402003	-0.6912154	0.46496117	0.23043758	0.16661063	0.059304	-0.06111476	0.46457592	0.27886242	-0.3321494	0.056757886	0.543619	-0.15017755	-0.23689972	0.13490517	-0.8035745	0.14392689	0.115801424	0.18637711	0.14062145	0.8100871	-0.6338367	0.15976536	-0.24127713	0.68384624	0.34353676	0.465006	-0.4329831	-0.6421574	-0.40353537	0.7783636	0.53909516	0.045389272	-0.076027974	0.90587	0.5296114	0.28911456	-0.30332157	0.27420142	-0.16332918	0.13057381	-0.22043762	0.82903177	0.08380632	-0.22904235	-0.3019771	-0.31687915	0.47937822	0.3004707	-0.123230934	-0.16174366	0.65305436	0.59125334	-0.41547972	0.29159126	0.4144673	-0.1737389	-0.516819	-0.53950137	-0.34236532	0.3676411	-0.37723255	-0.62977886	-0.21163973	-0.15652135	0.26701987	-0.26267484	0.47964424	0.17622158	0.66359854	-0.67805755	0.80554855	0.3487533	-0.7931633	0.2368457	0.18372884	-0.4123083	0.71373343	0.25142255	0.2584204	-0.13020529	-0.11611408	-0.39426386	-0.52546906	-0.33042678	-0.2170829	-0.3428138	0.17898978	-0.14417078	0.3041288	0.099745385	0.14592007	-0.35797268	-0.8959038	-0.5311824	-0.002866052	0.32280517	0.18588015	-0.6104901	0.44743687	0.07707909	-0.2677872	0.10858043	0.23833257	0.14437652	-0.37268752	0.026836082	0.045678556	-0.0335498	0.5700276	0.3746563	-0.2918238	0.52979904	0.15257335	0.49284446	0.14704993	0.11407748	0.29931426	-0.0716666	-0.44707212	-0.013608694	0.0049340203	-0.3215595	0.6301955	-0.2845962	0.30316365	-0.45297492	-0.1456288	0.8524155	-0.73258454	0.3914402	-0.16732416	0.34018037	0.25727272	0.21021974	-0.62740266	0.07808049	-0.33917654	0.20962623	-0.79913884	-0.13664088	-0.055471107	0.052290827	0.35373646	0.18689024	0.15309747	-0.10661048	-0.35703617	-0.13569766	-0.6323304	0.3740989	0.7800659	-0.2824069	-0.55880415	-0.04682219	0.17918956	0.38104776	-0.28610027	0.15193202	-0.18442209	-0.18989778	-0.12076467	0.11818232	-0.42343923	-0.035566866	-0.14597161	0.21281096	-0.24149182	-0.02968914	0.31020528	0.5584102	-0.36316937	-0.77737856	0.11030818	0.42851305	0.18858084	-0.07265722	0.14366557	0.04514942	-0.86330324	0.33237708	-0.08435027	-0.4832856	0.26021975	0.019304238	0.24098283	0.13663258	0.8042016	0.13562888	0.4128174	-0.3890604	0.8896781	-0.3160388	0.42360514	0.59525096	-0.8225167	-0.0021003932	0.6047594	0.117032796	-0.5435241	-0.67247057	-0.103076786	0.300271	0.022548005	-0.059379682	-0.18208078	0.28739852	0.9256254	-0.6470355	0.03774938	0.12923026	0.35352707	-0.36235252	-0.39164662	0.0042869896	-0.4846784	-0.25876004	-0.05947107	-0.2883234	0.39523947	0.31867862	-0.4658891	0.23159003	0.6265216	0.81184983	-0.17229638	0.6446656	-0.1049923	0.16203731	0.32289928	-0.72275627	0.012639567	0.31230998	-0.44234043	-0.61779255	0.21713015	-0.4792953	0.17308044	-0.111784846	-0.50970036	0.24292028	-0.26771918	0.05041742	0.40569848	-0.023142949	-0.33646682	-0.7154039	-0.64646876	-0.022702346	-0.90589833	0.45509464	0.9906568	0.35813847	-0.14426574	-0.43717024	0.360931	-0.08176418	0.08465864	-0.4641659	0.17863622	-0.3935439	0.43155718	0.41264564	0.12394345	-1.0126765	-0.96454835	0.57336986	-0.44363314	-0.76822996	0.060546577	0.43271196	0.37487283	0.0019205511	-0.7367705	-0.0013712645	-0.033920616	0.25741166	0.07639356	0.0026754737	-0.25094777	-0.79723805	0.3434075	-0.22836879	-0.44166946	0.6601137	0.32062566	-0.5500023	0.33978552	-0.2787831	0.16659033	-0.027875602	0.028027326	-0.16883667	-0.14423126	-0.06075695	-0.49903855	0.08568366	0.13022083	0.14166242	-0.5214164	-0.042211533	0.31761754	0.09194574	0.09619028	0.10081242	-0.4787888	0.2913171	-0.11757777	0.36208412	0.17442062	0.64827	-0.22471586	0.5960394	0.12672058	-0.22810552	-0.08583695	-0.3495824	0.36900663	-0.3887002	0.17127332	-0.39809722	0.020830028	0.20820472	0.08325872	-0.33685946	-0.3438992	-0.75330323	-0.16950996	-0.027425714	-0.058034547	-0.31521374	0.8022109	-0.42671537	-0.22415541	-0.8727046	-0.82400334	-0.28654432	0.5913195	0.12579319	0.59695363	0.5478741	-0.34643722	-0.11959255	0.29404628	0.2543276	0.15610078	0.465571	-0.708284	-0.49430063	-0.18553302	-0.2835044	-0.05681599	0.091389656	-0.32481733	0.31948858	-0.35884145	-0.11485783	-0.25023177	0.113235265	0.20681451	0.107439086	0.339431	-0.1600869	0.04405707	0.62481594	-0.1161298	0.4795432	-0.07659011	0.15941085	0.14017569	-0.29814363	-0.41243678	-0.4703073	0.1254088	0.04467394	0.07464191	0.84770286	-0.014858872	-0.2834046	0.3484508	0.5864773	-0.70867753	-0.36733797	-0.41541377	-0.18797728	0.7005955	-0.7029028	0.42699894	-0.3998685	0.003200341	0.55303353	0.05972576	-0.056592867	-0.21473204	-0.22771472	-0.32394278	-0.4136529	0.2906771	0.29031464	-0.6303043	0.09927325	-0.19665718	0.174872	0.20736468	-0.5925224	0.6089485	0.35882702	-0.31374228	0.004755322	0.32961985	-0.40397206	-0.1822295	-0.50276923	0.034760147	-0.24945363	-0.49816966	-0.09349416	-0.037673935	0.08188101	0.24053699	0.16518141	0.1156189	0.15262526	-0.6424972	1.1804616	0.19241056	0.30533063	-0.29692668	0.98914516	0.24515747	-0.063550875	-0.06895664	-0.48906675	0.037236452	0.22375149	-0.09904949	0.06595783	0.19260064	0.51275915	-0.099545784	-0.9955854	-0.36705416	0.119155765	0.5862073	0.07657869	-0.092408076	0.8823331	-0.30334455	0.4644939	0.11074074	0.26811454	-0.81231344	-0.043669567	-0.06776752	0.37243974	0.092907	0.17261598	0.8102454	-0.083550304	-0.70413536	0.25652346	-0.2545799	0.44692972	-0.22085902	-0.17068888	-0.13949984	0.23816364	-0.49563676	0.6482511	0.24427277	1.0313363	0.19074412	-0.6368995	0.49289274	-0.016307004	0.089991	0.5384612	-0.4511279	-0.3115717	0.3572968	0.10197966	0.62824744	0.23283273	-0.24102491	0.08191828	-0.4520945	-0.5099293	-0.24543211	0.1169371	0.51720744	0.37043846	-0.37483215	0.34266275	-0.8321365	0.25299552	0.3613847	0.20551945	0.37099245	0.34628546	-0.36713254	0.3276441	0.26941058	-0.27507782	0.13300052	0.99028385	-0.60594475	-0.17582941	-0.38533038	0.83182657	-0.017561913	1.1539702	0.5477148	-0.012896329	0.1152364	-0.011301726	0.17457242	-0.35900882	-0.00978975	-0.1994981	-0.008420289	-0.32320145	0.26833737	0.41099238	0.104160205	-0.0422651	-0.15821588	0.41276592	-0.021297336	-0.017697707	-0.52711874	-0.52100337	-0.76752764	-0.07149607	-0.5119897	0.37922302	-0.35678557	0.5052599	-0.16200128	-0.14556243	-0.41756088	0.88259447	-0.3395394	0.12029689	-0.47309887	-0.12325971	0.5699575	0.23393053	-0.49046993	0.6857046	0.19775839	-0.17590424	0.11206849	0.03269227	0.022323042	-0.4907967	0.2166152	-1.0597656	-0.08231434	0.09869967	-0.7331134	0.59209514	0.7938445	0.0175899	0.47291088	-0.019983936	-0.1663213	0.02826932	0.71809447	-0.08006115	-0.84602594	-0.49614984	0.11245021	-0.0035350397	-0.11711125	-0.5580507	0.15512137	0.29577065	0.35890692	0.025029622	0.13959765	0.422905	0.048857287	-0.10020797	-0.34983402	-0.20481113	0.46241888	0.02718564	-0.21753359	0.4611292	-0.241384	-0.6643668	0.20894825	-0.018689454	-0.26812288	-0.88897955	-0.031379864	0.085978135	0.53103596	0.058352225	-0.7479155	-0.16374466	-0.020073555	0.27205142	0.16197819	0.16011645	-0.31267452	0.13862188	0.18768749	-0.15636949	0.0510578	-0.3518095	-0.34656444	0.6189427	-0.32447925	-0.5377806	-0.6771136	0.39312425	0.12751669	0.27323592	0.40417716	0.5806676	0.16926348	-0.31691116	-0.20034017	-0.17255546	0.2130617	0.35759652	0.37417722	0.08971983	-0.59507626	0.7084474	0.9365751	-0.08202389	0.1322631	-0.037234817	0.13831997	-0.30753747	-0.7596003	-0.12357512	-0.5549987	-0.48413584	0.0362311	0.08947346	0.03487721	-0.6968806	-0.4843589	0.14691621	-0.77296656	-0.2912001	0.15662947	-0.29038587	0.10293731	0.27037656	0.07599741	0.56951123	0.50733304	-0.5629431	0.38482463	0.27565143	-0.31172752	-0.13341995	0.039321102	-0.494448	-0.10127634	-0.0041348487	0.40699637	1.0621283	0.02244033	-0.6426073	0.1649901	0.052477866	0.19444954	-0.27341902	-0.27200657	-0.5618876	0.63739336	0.53144044	0.15505834	-0.09888202	0.0156416	-0.7831185	-0.11306456	0.07142464	0.21173838	0.42901352	0.17732382	0.5868524	-0.18962291	0.31330147	-0.20470859	-0.37348735	-0.7096676	-0.69080293	0.45844808	-0.36062264	0.5263122	0.09130703	0.18941665	-0.41349372	-0.28097787	0.06442514	-0.25755987	0.051711075	0.21246563	-0.17632052	0.6200511	-0.5194991	0.021100119	0.3710246	0.09998566	1.2965077	0.24294376	0.28357035	-0.4433478	0.36023545	-0.47848463	-0.22752762	-0.42001462	0.08023631	0.027883738	-0.17748499	0.10111004	0.16123289	0.59795433	-0.42432705	0.3260581	-0.113597915	0.3041508	0.6476577	0.0563301	0.7636057	0.38377467	-0.16243538	0.22812402	0.6225198	-0.77040803	-1.0868535	0.5233091	-0.2253265	0.09861708	0.2547443	0.77559304	0.45305386	-0.7179475	0.63867354	-0.12739964	0.47379267	-0.31667262	-0.7172287	0.7897897	0.2949425	0.29217237
G000701505	0.20170964	0.43160057	-0.61414236	-0.38677496	-0.0011766478	0.31803975	-0.1314635	-0.8642976	-0.32893878	-0.14605492	0.44247696	0.27219748	0.8677761	-0.0070894584	0.28134596	-0.011606425	0.2539991	0.11462763	-0.39414394	-0.3484737	0.53450453	-0.3437047	-0.31981647	0.027231269	-0.110131085	0.47959226	0.1344259	0.011268243	0.47857386	0.23057303	-0.80852664	0.023367688	-0.37451562	-0.75117266	0.044286124	0.23693874	-0.21965232	0.7051736	-0.9446787	-0.27405775	-0.2027482	-0.47703397	0.38475186	0.2878123	-0.41326785	-0.279078	0.12170954	-0.13785936	0.92645437	0.582177	0.4845764	0.2719681	-0.7039459	0.73322344	0.18514356	0.78026164	0.047930855	0.35038888	0.08441621	-0.20183158	-0.61955565	-0.17551702	-0.068725705	-0.5433447	0.37059075	-0.29689264	-0.51490295	0.228394	0.12108059	-0.55677634	0.21060553	0.48794684	-0.10707888	0.70223063	0.437925	0.6541243	-0.58391976	0.16218796	-0.16147831	-0.054279663	-0.47488683	0.44894755	-0.6385268	-0.4688298	-0.0396121	0.41859615	-0.3151353	-0.020703144	0.44851643	-0.1549499	0.18713179	-0.4190554	-0.32625002	-0.06841347	-0.19576801	-0.12744594	0.52654475	-0.2919674	0.51997346	0.5523793	0.09763262	-0.080330595	-0.0065446794	0.18889871	0.1705181	0.410313	0.10763505	-0.25410536	1.0936958	0.045619234	0.07709544	-0.39698622	0.056910306	-0.1789228	0.8126546	0.07456303	0.3637747	0.0013983548	-0.26096404	-0.110297844	-0.3560279	0.20587994	0.1306316	-0.2707485	0.558861	0.10025327	-0.16442347	0.576744	0.53669715	0.13344254	0.2765033	0.4169864	-0.51164764	0.12190045	-0.012316555	0.15633239	-0.9776391	-0.528303	0.6941495	0.37769353	0.1468254	-0.06198753	-0.23685247	0.17916358	0.2674614	0.48958552	0.092804134	-0.1766103	-0.7953063	-0.09674512	-0.18603796	-0.3988536	0.25171238	0.08786919	-0.32352424	0.5740107	-0.20277184	-0.06420308	0.6181525	-0.2033832	0.17358322	0.096857786	-0.3277539	0.00014686398	0.5458777	-0.5535069	0.48324114	1.2548664	-0.41507727	0.20933172	0.021019235	0.43539464	0.020812467	-0.41361445	-0.25299475	0.3513267	-0.032366782	-1.0552266	0.03533174	0.106399864	-0.36889496	-0.5739334	0.3573689	0.03997363	-0.17257741	-0.40239385	-0.68441594	0.19730508	0.16086301	0.7326165	0.46436235	-0.123854004	0.37591913	-0.3168884	0.1050285	-0.07808541	0.12929189	0.86122066	0.41787863	0.2536529	-0.606668	0.35575318	0.10492089	-0.87757874	0.14223638	0.17591973	-0.13393271	0.56569654	-0.439763	-0.3267911	0.0885486	0.6279417	-0.4498015	-0.031229325	0.07506019	0.3280745	0.2585069	0.5372893	0.03651295	-0.36597687	-0.3936127	-0.22195628	0.19645831	0.04098548	0.225545	0.016692258	0.1327121	0.5105177	0.35005882	0.109614395	0.9725015	0.35007212	-0.33201408	-0.5614098	-0.35443032	-0.32882345	0.031439427	0.40615603	-0.7363835	-0.071279034	0.5143117	0.07465232	-0.60891336	0.5582719	0.4267015	0.23623016	0.07964266	-0.74345636	0.3328047	-0.15594892	-0.06605721	-0.112242885	-0.21111222	0.008570382	0.4177581	0.4187611	0.4081516	0.7843132	0.20051385	0.5276909	0.08197912	-0.23086654	0.42129856	-0.2785898	0.5128193	-0.13146439	-0.3825602	0.479688	-0.31587017	0.4727167	0.7638186	-0.375833	-0.039116427	-0.67517173	0.07684304	0.40207842	0.35444885	-0.13529146	-0.11855796	0.60588753	0.1913037	0.0656889	0.36867282	0.69635224	0.16027011	-0.33411032	0.423801	-0.7151329	0.43154636	-0.033165663	0.169309	0.061517403	0.8782412	-0.51591057	-0.3244909	-0.06717737	0.55302453	0.39562285	0.5859875	-0.4956347	-0.43755648	-0.43187618	0.59335876	0.5296582	0.5414665	-0.36142287	0.5230303	0.47412923	0.12400966	-0.056343727	0.086399734	-0.58207834	0.12470514	0.051763423	0.5834272	-0.266542	0.056278683	-0.12283277	-0.42892623	0.32169116	0.26782095	-0.24321006	0.014037013	0.58500797	0.46769857	-0.21120605	0.3542598	0.16559492	-0.32599044	-0.34561455	-0.41790426	-0.039112195	0.17995888	-0.48158368	-0.15058993	-0.21123952	-0.34872338	0.09070608	-0.03322068	0.47221178	0.621959	0.8950871	-0.55662835	0.5545347	0.48932514	-0.92455775	0.0790316	0.023974441	-0.5650847	0.6571436	0.08680745	0.59402424	-0.22544894	-0.06512092	-0.39913517	-0.4776762	-0.56066537	-0.25018466	-0.21969575	-0.08371806	0.13113324	0.20146558	0.082891546	0.20926198	-0.07219553	-0.98401314	-0.47048363	-0.019660424	0.08872229	0.19098987	-0.39703658	0.6381315	-0.7411672	-0.22078747	0.13439108	0.42902458	0.0370318	-0.63261765	0.19915426	0.052257232	-0.1823496	0.49475116	0.033214092	-0.42132807	0.60582054	0.0921807	0.5374118	-0.18892337	0.011943221	0.21339214	-0.2248968	-0.23541167	-0.052755207	-0.23110482	-0.41217917	0.8356608	-0.10761827	0.60691476	-0.28205118	0.17362893	0.71785825	-0.4480717	0.12943456	-0.073538035	0.2481676	0.7066522	0.48606813	-0.6721801	0.10522768	-0.4238919	0.18289524	-0.73556536	-0.09581776	0.39881653	0.06827843	0.19943947	0.44659352	0.21688628	0.11155674	-0.76563644	-0.36301228	-0.25950703	0.22547597	0.50166607	-0.21122357	-0.38833928	-0.16639403	-0.25257915	0.07227618	0.03842792	0.41628855	-0.14417036	-0.3403099	-0.17652567	0.35118273	-0.1483322	-0.23473471	-0.26048774	0.38388637	-0.20750532	0.51250744	0.38598377	0.5447536	-0.66026574	-0.51859444	0.05794759	0.5688809	0.1768033	-0.53536725	-0.07199228	-0.082889065	-0.5637595	0.17438419	-0.4275228	-0.42336458	0.1866462	0.15203057	0.39042294	-0.0950359	0.7116334	-0.21075182	0.300933	-0.26676255	0.7057317	-0.29196537	0.60427547	0.4669953	-1.1376505	0.57450014	0.5109241	0.20252365	-0.59844327	-0.4205758	-0.30515862	0.24918675	-0.40739882	0.25566062	-0.12574899	-0.2417784	0.8493246	-0.33924156	-0.15813959	0.12219414	-0.14512216	-0.41870347	-0.118716	-0.01469624	-0.6254517	0.06590641	-0.2044698	-0.30586827	0.34159786	0.24993959	-0.54615796	-0.10005558	0.013707474	1.0122858	-0.48945385	0.42831856	-0.21773489	0.14818013	0.2749725	-0.49063334	0.19843154	0.048438873	-0.33361515	-0.83727396	0.11564464	-0.68794274	0.26852328	-0.16842484	-0.6430631	0.27104458	-0.4328173	0.12907803	0.23820668	0.058924645	-0.45049185	-0.60173756	-0.5366402	-0.067668125	-0.9380349	0.3894268	1.212676	0.6231886	-0.13551715	-0.39236096	0.54119074	-0.23718768	-0.009692505	-0.12416543	0.5359589	-0.4223783	0.48716873	0.66343665	0.31714347	-0.85561645	-0.8034875	0.9389116	-0.23491487	-0.43468195	0.05709523	0.4190959	0.2965566	-0.04207381	-0.62767625	0.10456154	0.14466918	0.52132195	0.09569544	0.16628028	-0.48113352	-0.9301375	0.27252546	-0.09560608	-0.41648692	0.3767483	0.4002338	-0.53666687	0.70450866	-0.5599456	0.069438845	0.22010253	0.010096431	-0.26085806	0.024707586	-0.052641526	-0.3449886	-0.15269926	0.18445115	0.38673693	-0.5912029	-0.048656285	0.1397084	-0.10807387	-0.006580785	0.22421402	-0.33330935	0.61473554	-0.25819352	0.54325616	0.38510007	0.62923265	-0.57742393	0.67480457	0.24604061	-0.20823513	-0.40696773	-0.07079512	0.01415804	-0.3266131	0.067956105	-0.30185187	-0.15261045	0.30905578	0.3432059	-0.41117835	0.06410187	-0.62259483	-0.13476287	-0.36364925	0.11378039	-0.48571184	0.6864487	-0.406287	-0.3013759	-0.8595367	-0.65447575	-0.24964817	0.8661844	-0.035721645	0.53644145	0.6877773	-0.20665753	0.16192919	0.0147033185	-0.0014757067	0.037860766	0.4381872	-0.70585144	-0.05248378	-0.2317429	-0.50978535	-0.031570643	0.070029914	-0.25711718	0.29226002	-0.32367945	-0.22225325	-0.20107213	0.31503186	-0.028486378	0.11957739	-0.026212953	-0.3715564	0.13647236	0.5129527	-0.076614186	0.6072986	-0.37900096	0.042386115	0.3490919	-0.21707428	-0.46100894	-0.33144054	0.26272872	0.099867575	0.22634923	0.5806551	0.026687257	-0.32954982	0.078396566	0.5124637	-0.74020684	-0.41484767	-0.57355297	-0.3788856	0.30607638	-0.33230308	0.40672836	-0.5626583	0.15577981	0.35944888	0.22252803	0.15898506	0.083634645	-0.17109358	-0.34906095	-0.16698885	0.33998615	0.29100907	-0.3620582	-0.13128674	-0.21037093	0.18692787	-0.14544982	-0.40522012	0.28115177	0.13986546	-0.7142343	0.011898063	0.53924537	-0.41619587	-0.6304748	-0.38055974	0.2956857	-0.14362054	-0.5449511	0.17154036	-0.22889325	0.16965373	0.3660347	0.03480521	0.14186251	0.016454756	-0.56765056	1.2471642	-0.11033453	0.26084018	-0.23452142	1.2544622	0.572304	-0.255478	0.073253274	-0.4218244	0.16529496	0.14438245	0.04231806	-0.032795504	0.30853125	0.342286	0.47607154	-0.9163475	-0.59559095	0.048385262	0.593865	0.013604194	-0.28053495	0.8379774	0.09984693	0.5808913	0.208233	0.6150327	-0.8018735	-0.110448316	-0.39909405	0.2843272	0.16833349	0.18449718	0.8586264	-0.08633163	-0.55550116	0.19557455	-0.13096213	0.39803475	-0.29499066	-0.14749277	-0.064582735	0.00979688	-0.76028645	0.23213984	0.3405489	0.93272173	0.43988398	-0.6365669	0.3162452	-0.19606608	-0.28613937	0.42888185	-0.2521171	-0.37106812	0.3926638	-0.17158413	0.8220762	-0.14520925	0.0040774494	0.29822028	-0.52379876	-0.15034747	-0.24011073	-0.012467414	0.6575589	0.25775304	-0.17079616	0.25163153	-1.2177185	0.2876088	0.104076564	0.12514023	0.4503841	0.39387652	-0.34060758	0.25412124	0.08517593	-0.38778904	0.2800501	0.7672864	-0.49136367	-0.23830009	-0.4709044	0.679417	0.043015525	1.1658956	0.49405587	0.07016745	0.39271814	-0.26249278	-0.06233065	-0.4211021	-0.08289321	-0.14967129	0.0048033595	-0.6955934	0.12894683	0.418679	-0.16665462	0.005315371	-0.27129957	0.29044795	0.12836008	0.040268324	-0.2496422	-0.21413991	-0.6877818	0.073778786	-0.52353203	0.10684292	-0.32082954	0.38765398	-0.27038658	-0.28225747	-0.5888227	0.92680156	-0.078237325	0.33483148	-0.41409242	0.005452752	0.60660946	0.23286906	-0.3762915	0.6731777	-0.021760777	-0.27820754	-0.13864373	-0.27540088	-0.1779233	-0.44711137	0.25567085	-0.9328126	0.12985685	-0.07263673	-0.5857667	0.48697063	0.78500867	0.10781987	0.001059413	0.45251277	-0.1498559	-0.029255003	0.4985346	0.1305699	-0.75336766	-0.26819855	-0.090444624	-0.35350284	-0.27982473	-0.43215063	0.23004633	-0.2016109	0.0018095672	-0.09067192	0.16637796	0.16715682	-0.033884287	0.004093498	-0.3798424	-0.030457243	0.47225338	-0.2055499	-0.32603955	0.49697322	-0.39284533	-0.47044152	0.051805675	0.25888214	0.14857066	-1.0531106	-0.07320355	0.1709606	0.2672502	0.24746987	-0.84686846	-0.4509049	0.16193065	0.542471	0.3339354	0.27910936	-0.44638395	0.28879645	0.20699954	-0.6768211	-0.06588854	-0.26833537	-0.36005285	0.46641177	0.0064424574	-0.3755898	-0.94309354	0.38516694	-0.118656754	0.17567478	0.43204758	0.3371295	0.3584607	-0.09030719	-0.3673438	-0.15805148	0.026521303	0.06168382	0.559327	0.041831583	-0.46806592	0.35575315	0.742122	0.053238392	0.2525128	0.07337851	0.39342237	-0.25761712	-0.6498208	0.08706111	-0.3695802	-0.49181306	0.044783354	0.14967428	0.066452906	-0.77380466	-0.6614564	0.20547974	-1.0507257	-0.45668995	0.018471919	-0.10323466	-0.012756556	0.3803025	-0.073222846	0.37115985	0.46993655	-0.4123726	-0.0080064535	0.45481557	0.09888622	-0.41597933	0.074304916	-0.30686313	-0.24512897	-0.29072356	0.7058741	0.9459368	0.058992743	-0.6782286	0.17452772	-0.1272184	0.064155445	-0.36435014	-0.06150771	-0.3867042	0.36185503	0.50300837	0.39636868	-0.6600926	0.07220104	-0.40116024	0.12691295	0.20553312	0.21803756	0.24987933	-0.094080605	0.7216756	-0.00356856	-0.09376149	-0.24228518	-0.12893039	-0.5401616	-0.72572494	0.42495406	-0.13061917	0.60976803	0.3038506	0.28526857	0.0015373081	0.03792415	0.20924234	-0.1813566	-0.1884315	0.19387195	0.02246952	0.3984178	-0.22724822	0.08866452	0.11753425	-0.08694711	1.0326439	0.23899546	0.16831714	-0.40186357	0.1334795	-0.596503	-0.02044335	-0.15200551	0.007826462	-0.10335948	-0.18446256	-0.09936263	0.2574248	0.6614373	-0.33384588	0.11445516	-0.010711268	0.35833097	0.4922074	-0.13811313	0.8919583	0.28665084	-0.05892566	-0.114734255	0.30934173	-0.2964121	-1.1543872	0.454615	0.023039073	-0.19150028	0.06691986	0.5346883	0.15896273	-0.8485372	0.6323166	-0.36294776	0.43007421	-0.06553215	-0.37221956	0.643041	0.100929216	0.19122173
G000374085	0.35224888	0.89652973	-0.38297373	0.15317392	0.07290122	0.43993026	0.120839536	-0.40185982	-0.7706548	0.023276117	0.6103173	0.3739371	0.6852818	-0.31168413	0.30794397	0.15772904	0.19864273	0.26839152	-0.36211196	-0.8130004	0.48478636	-0.43477553	-0.24148089	-0.06574658	-0.23305534	0.43344703	-0.09039922	0.07750604	0.5649314	0.4418345	-0.6205915	-0.004928604	-0.3270402	-0.32896662	-0.15306324	0.39272523	-0.22695172	0.65182096	-0.45135507	-0.4876492	0.10396242	-0.41638273	0.29177448	0.18609828	-0.41541415	-0.18195294	0.06925683	-0.23093048	0.8968638	0.39982897	0.4292223	0.42253053	-0.8053266	0.4180413	0.01476118	0.6869267	-0.30372345	0.17085439	-0.145363	0.02696754	-0.03113044	-0.26629937	-0.17149034	-0.67467755	0.725676	-0.36360267	-0.3824932	0.062108487	-0.12716186	-0.67547375	0.29213077	0.46879083	0.15345035	0.62945247	0.51323926	0.5903895	-0.469707	-0.12332815	0.2845843	-0.28235856	-0.7795664	0.38733417	-0.3426191	-0.5012587	0.021999195	0.5890356	-0.3424216	-0.049812563	0.12696436	0.23682994	0.043803275	-0.5103437	-0.18740152	-0.14881964	-0.037356704	-0.11924538	0.499992	-0.06308547	0.44412768	0.3241421	-0.47490802	-0.28806177	0.41581658	0.10884416	-0.19252124	0.35418162	0.018402189	-0.5999616	0.8196024	-0.17026645	0.4134166	0.012654275	0.029307932	-0.23250353	0.27782792	-0.15982488	0.3960696	0.20360294	-0.3412483	-0.15390672	-0.25627428	0.11240783	0.24549511	-0.3560327	0.5964896	-0.052778885	0.03465216	0.4319395	0.43037054	0.060615346	0.4860849	0.37446326	-0.20812038	0.40881047	0.07431716	0.2910918	-0.8444412	-0.4778737	0.9445268	0.39172956	-0.2537279	0.08320269	-0.41017604	0.5420639	0.33938324	0.16131961	-0.08288348	-0.188066	-0.6327635	-0.11972773	-0.4798647	-0.07431306	0.20788531	-0.25549772	-0.43004197	0.5440397	-0.29158795	0.12891278	0.27140772	-0.08803887	0.023005895	-0.06509648	-0.7326627	0.16017783	0.4431945	-0.23223944	0.19759822	1.2251527	-0.015722387	0.3865092	-0.57989043	0.49219203	0.32711023	-0.5571487	-0.56419194	0.09013149	-0.026602238	-0.77750456	0.055200823	-0.017312288	-0.065358594	-0.6637096	0.76748073	-0.09312263	-0.14510202	-0.6827266	-0.3853346	0.29070622	-0.029018454	0.43085212	0.49725515	-0.39717868	0.3531068	-0.08335732	0.15648821	-0.4520141	0.48272038	0.7577381	0.5723108	0.48058248	-0.6295194	0.47853386	-0.1433836	-0.6838534	0.060588524	0.4152983	-0.15900162	0.3617939	-0.2869893	-0.2344595	0.003832899	0.9605522	-0.22688365	-0.110731445	0.18829352	-0.038442954	0.29430807	0.8364055	0.116904125	-0.13708651	-0.36586022	-0.40568414	0.6605762	0.14812723	0.41366792	0.33135194	0.08608879	0.6598923	0.31421888	-0.23206906	0.98257273	0.21054396	-0.040397286	-0.5750915	-0.4319601	-0.28406033	-0.5361042	0.500641	-0.5777717	0.011693269	1.0941585	0.335143	-0.66951096	0.70403475	0.40702993	0.18410097	-0.069373965	-0.6242207	0.5255844	-0.18656659	-0.10790476	-0.1274625	-0.23630789	-0.092489555	0.5059717	0.47557002	0.32304075	0.24724221	-0.12391098	0.118562266	0.41966924	0.123080656	0.3204525	0.24542642	0.71768564	-0.47278833	-0.14301306	0.43491578	0.12375717	0.22225282	0.7671075	-0.05806119	-0.05579251	-0.72608525	0.49960083	0.23778896	0.14172667	0.027185395	-0.16936809	0.36259854	0.27609026	-0.29906204	-0.0260337	0.5103448	-0.15092245	-0.08625839	0.16854128	-0.851413	0.20607471	0.15221637	0.09230667	0.20697886	0.81941783	-0.6582142	0.16457742	-0.21037805	0.7451424	0.33191308	0.44699192	-0.409963	-0.7087975	-0.45426565	0.8744667	0.5181197	0.14314999	-0.014835492	0.9808396	0.46185172	0.25631446	-0.2816216	0.28713125	-0.19511652	0.067304894	-0.25163227	0.81171536	0.2071792	-0.26460502	-0.26620582	-0.35666406	0.5145183	0.34507	-0.22433445	-0.15483776	0.6735429	0.60100234	-0.43277544	0.20143075	0.42185825	-0.12475764	-0.5463216	-0.6057768	-0.33543766	0.25718915	-0.4121011	-0.6760551	-0.18034318	-0.1378096	0.36480737	-0.26773572	0.47247702	0.12561505	0.6414435	-0.74036723	0.81133103	0.30729073	-0.7578486	0.068749495	0.1932455	-0.31764498	0.71953595	0.293294	0.29233176	-0.07008283	-0.03809687	-0.38854808	-0.46032333	-0.22668234	-0.20646197	-0.48750365	0.16547787	-0.14484839	0.31476024	0.0967876	0.16550109	-0.5348335	-0.8674416	-0.47257555	0.0020590872	0.37870243	0.10870159	-0.5388603	0.4370629	-0.011887729	-0.37973043	0.12206657	0.13942131	0.18977508	-0.34085572	0.09333849	0.10404426	-0.035647973	0.6010113	0.434223	-0.28941792	0.5391568	0.03908938	0.6476053	0.08259421	0.060672164	0.3246285	0.012407392	-0.4210986	0.13101706	0.018454596	-0.3315197	0.6921812	-0.21874355	0.23728162	-0.5130513	-0.2155401	0.8817119	-0.6800125	0.33942097	-0.14199479	0.39686006	0.2675835	0.18463263	-0.667429	0.07079288	-0.2988237	0.16252059	-0.7302747	-0.15769258	-0.15530792	0.101844996	0.40015823	0.23735428	0.17354307	-0.18463929	-0.2971809	-0.10638189	-0.6089275	0.3275876	0.75402486	-0.29945832	-0.6372144	-0.16154148	0.26258928	0.37438756	-0.31009102	0.13425626	-0.11389673	-0.18708485	-0.18074603	0.13594432	-0.5140964	-0.0048754215	-0.13040142	0.24191627	-0.31893778	-0.09998565	0.24123584	0.46947476	-0.31284705	-0.91066396	-0.013899967	0.42062747	0.12037092	-0.036162138	0.072758034	0.00012879074	-0.9025314	0.359253	-0.06938937	-0.5229405	0.36437148	0.122567534	0.40881652	0.16633464	0.8585564	0.13162732	0.5044553	-0.3905132	0.8827754	-0.32768828	0.48426354	0.64451516	-0.75135726	-0.08334638	0.6184275	0.105716705	-0.6080965	-0.62919486	-0.15721165	0.2221907	0.058410592	-0.083570465	-0.2685659	0.34575567	0.7436124	-0.661299	0.10354558	0.15596426	0.2751199	-0.3520709	-0.36764777	0.070011884	-0.49144706	-0.31937194	-0.0740999	-0.3510175	0.45070216	0.22486274	-0.438796	0.21643926	0.7670183	0.78787124	-0.17221014	0.70070046	0.02707164	0.103975	0.23224616	-0.5888976	-0.06757675	0.2535255	-0.4891954	-0.53833586	0.04282956	-0.4574802	0.12607335	-0.1514808	-0.49491405	0.1897157	-0.23232567	0.017447613	0.39401233	-0.094632916	-0.3696855	-0.6672075	-0.6576425	0.011118	-0.9100934	0.4961411	1.0058849	0.2709511	-0.224561	-0.45269006	0.36910233	-0.073973484	-0.054810673	-0.3620622	0.18951714	-0.45816004	0.39294457	0.38511148	0.13256425	-0.9748813	-0.9600239	0.6292151	-0.44718364	-0.7859379	0.09915799	0.38887814	0.28517455	-0.052985117	-0.77694815	-0.069526285	-0.11498666	0.1833963	0.0808889	0.0028756708	-0.18391448	-0.78189677	0.40400517	-0.23962644	-0.5474652	0.6474495	0.25015336	-0.40061745	0.27680585	-0.11321545	0.18192518	0.014128119	0.05660042	-0.16447431	-0.111027926	-0.00500682	-0.54875815	0.07545619	0.16694033	0.15855417	-0.47899002	-0.12781733	0.32296216	0.22590248	0.07079306	0.048586965	-0.40420634	0.34330493	-0.10711902	0.48982224	0.20125723	0.6256894	-0.29981247	0.61269176	0.153602	-0.29735762	0.023628287	-0.3486348	0.44994885	-0.23714603	0.21403956	-0.46518397	-0.08668928	0.18655585	0.10420203	-0.26571125	-0.4065964	-0.6633273	-0.3687017	0.0059297383	0.072609045	-0.38484973	0.7591396	-0.38869613	-0.26926923	-0.928015	-0.9208764	-0.3461998	0.65116346	0.12096998	0.6224353	0.57204205	-0.41278726	-0.15086101	0.16400701	0.26621792	0.23157638	0.44116443	-0.63073504	-0.5672703	-0.24585739	-0.13714132	-0.07476583	0.2172856	-0.28106406	0.35435438	-0.32929456	-0.09294157	-0.34397733	0.1479318	0.14088959	0.036478475	0.3871656	-0.0911434	-0.045842256	0.71626794	-0.2845034	0.42871797	-0.15851563	0.17643653	0.027549013	-0.28514048	-0.3878529	-0.4608483	0.054370448	-0.019952312	0.048336774	0.71189976	-0.019456133	-0.2973778	0.28133604	0.5820738	-0.67722327	-0.49401507	-0.44367665	-0.2277638	0.62531126	-0.7666894	0.5598618	-0.3809837	-0.050948665	0.47448447	0.04626324	-0.019369127	-0.3088343	-0.24032927	-0.35066313	-0.44360894	0.16306181	0.38786137	-0.5350132	0.1401132	-0.19890746	0.17026699	0.16487381	-0.59812117	0.4742849	0.30871892	-0.30524728	0.04039585	0.41013527	-0.31595	-0.11903164	-0.49656814	-0.061602063	-0.21348587	-0.49344543	-0.09549753	-0.11654197	0.06371594	0.26048124	0.18201393	0.20983285	0.24036664	-0.6864991	1.1585402	0.21414495	0.31231597	-0.28011227	0.96112704	0.24066517	0.04287891	-0.10006526	-0.3979919	0.081926405	0.13006073	-0.068194985	0.07560825	0.3438702	0.57552135	-0.058419205	-0.9121473	-0.40089017	0.121881396	0.72812456	0.047190577	-0.063452646	0.8469323	-0.30543646	0.3402708	0.13351265	0.26949236	-0.7499238	-0.059782684	-0.105392136	0.49920958	0.15256666	0.036268294	0.7918786	-0.05693215	-0.72146046	0.203126	-0.2696618	0.4506651	-0.27391863	-0.16536641	-0.014666945	0.16562948	-0.5556427	0.6775774	0.24500474	1.0277861	0.20519227	-0.6445872	0.46955648	-0.034364425	0.10097322	0.44410685	-0.5300745	-0.3027725	0.36292928	0.09116909	0.6139351	0.26482075	-0.16838473	0.10109751	-0.4651916	-0.58996904	-0.24924684	0.12929082	0.4277723	0.24420545	-0.271016	0.36019057	-0.8522389	0.26784807	0.39894053	0.165167	0.38969004	0.3891729	-0.3384452	0.2890319	0.262003	-0.2599253	0.08293462	1.0040344	-0.59056246	-0.050908715	-0.47381467	0.8203034	0.06722319	1.1819837	0.6181568	-0.014264584	0.08189334	-0.005706668	0.127992	-0.4425208	0.09711003	-0.27886298	0.0019098818	-0.34876287	0.2968135	0.4895523	0.1188091	0.0050648414	-0.18143858	0.41739768	-0.0639945	0.064298674	-0.54017377	-0.6107645	-0.752285	-0.14176485	-0.4609971	0.32785895	-0.42723504	0.32923967	-0.14875208	-0.21415502	-0.41675997	0.89191175	-0.36650145	0.26038992	-0.39138067	-0.24068712	0.4673909	0.29625955	-0.51201737	0.72502863	0.29869562	-0.12543447	0.09247346	0.09193888	0.11610669	-0.42056632	0.23562111	-1.08998	-0.056434065	0.1256768	-0.8078065	0.5401516	0.79852915	0.041382037	0.4790228	-0.069458306	-0.17968763	0.034953758	0.7784117	-0.13162026	-0.9045105	-0.49564135	0.19951174	-0.03206327	-0.1365228	-0.6123131	0.15763521	0.27728248	0.31300655	0.065455586	0.21785215	0.4141302	0.03915107	0.05106175	-0.25706273	-0.19179742	0.4802633	0.07856493	-0.11830926	0.51563585	-0.24352679	-0.7198101	0.11615229	0.004122257	-0.2832692	-0.87006134	0.045883164	0.17425027	0.59903055	0.039511435	-0.7067896	-0.18583995	-0.06793709	0.29185933	0.13242036	0.07184377	-0.36189103	0.098232724	0.2278226	-0.21806869	-0.067532085	-0.37434804	-0.292389	0.629312	-0.4364828	-0.54102135	-0.6200744	0.35984844	0.1471217	0.2189994	0.47414932	0.58770823	0.30076733	-0.3133366	-0.31889808	-0.265463	0.26010966	0.31662568	0.3795248	-0.018373787	-0.64579785	0.83105946	0.87532395	-0.10948205	0.23770928	-0.0718232	0.02980314	-0.33704048	-0.7201455	-0.12005392	-0.54655343	-0.43993217	0.033804096	0.08653384	-0.006550744	-0.66543496	-0.45783743	0.10822643	-0.79233587	-0.36088026	0.20636985	-0.37485963	0.06780255	0.18493932	-0.049233705	0.5936358	0.55829996	-0.49760896	0.42565876	0.15756322	-0.2515838	-0.15213223	0.0232637	-0.44288698	0.00095903873	0.004134774	0.40627974	1.05948	0.026349127	-0.64717495	0.13094828	0.13549821	0.39250377	-0.3441201	-0.25255352	-0.51831824	0.68644166	0.5358886	0.10200558	-0.02610746	0.060507968	-0.8689997	-0.2312707	0.12303665	0.1962225	0.48215255	0.14423135	0.6559167	-0.3168462	0.23745319	-0.14289649	-0.42250812	-0.6809567	-0.74470353	0.47320625	-0.4416962	0.53819615	0.119513765	0.18446577	-0.47381467	-0.36400914	0.07111049	-0.32420814	0.03886562	0.22495008	-0.17978072	0.58312196	-0.5623305	-0.045507506	0.25340995	0.13882737	1.2514725	0.24000601	0.39247632	-0.44441974	0.37460923	-0.45370835	-0.111375764	-0.44816297	0.16487704	0.030231774	-0.15598224	0.1682474	0.11750409	0.61138713	-0.43754134	0.30903354	-0.14275926	0.26205772	0.7084645	-0.0058440417	0.7995937	0.5190538	-0.12732103	0.14971402	0.6447727	-0.7926321	-1.0141847	0.54962367	-0.29923934	0.08546899	0.33200616	0.75918895	0.5273537	-0.6535712	0.63114417	-0.13588074	0.45075512	-0.27781987	-0.7156484	0.7516978	0.20180136	0.2891847
G000325705	0.14612156	0.48955625	-0.7964587	-0.04559356	0.08462696	0.13279568	-0.31134948	-0.6377146	-0.46410128	-0.07096673	0.13832584	0.02853036	0.56675506	-0.27794266	0.7433304	-0.04139405	0.14174986	0.17629379	-0.7071633	-0.6005657	0.29704458	-0.18484506	-0.24172458	0.15762101	-0.18195534	0.037384834	0.07126061	0.3326564	0.35800576	0.2515029	-0.5737584	0.28327948	-0.6105001	-0.7842518	0.286003	-0.07631621	0.0280268	0.5030079	-0.89249754	-0.16370505	-0.198265	-0.47325402	0.280788	0.61077344	-0.40916145	-0.089803964	-0.091867045	0.02958268	1.0159022	0.32435307	0.4440145	0.46791354	-0.4887209	0.6014421	-0.17000146	1.0551746	0.14615631	0.09454742	-0.06127858	0.18022472	-0.3163216	-0.12222179	-0.16930126	-0.5194761	-0.0030813217	-0.40317515	-0.5273828	0.15342198	0.39001507	-0.57935524	0.32373458	0.60150874	-0.067548245	0.50064296	0.02188015	0.7907532	-0.5210736	0.3599846	0.21824469	0.31863624	-0.35266462	0.5422108	-0.47715938	-0.5340981	0.24919175	0.17012055	-0.2567984	-0.45992148	0.001854986	-0.26532784	0.2460019	-0.55815816	-0.68640995	-0.21956302	-0.29600155	-0.3052281	0.6686258	-0.44396964	0.8665051	0.5564567	0.22616	-0.101948574	0.231698	-0.0028986037	0.3165727	0.4459278	-0.3758459	-0.103251286	1.1619854	0.009521663	0.081492454	-0.19034986	0.26326942	-0.062099725	0.3539806	0.17856085	0.21985416	-0.14464015	-0.24473596	0.09583874	-0.5938301	-0.13717967	-0.19489193	-0.62577033	0.57035923	0.058516353	-0.09289213	0.7962026	0.40827134	0.15862145	0.58159417	0.37419748	-0.36391973	-0.14659724	-0.12281597	0.27462947	-0.7972693	-0.6024723	0.42428035	0.5781712	0.26324466	0.04050511	-0.5621208	0.2099192	0.39335155	0.78747135	-0.23412576	-0.14446542	-0.4331851	0.043310627	-0.11175044	-0.46414354	0.07711716	0.17783296	-0.5684405	0.67440534	-0.1635041	0.14240755	0.7223266	-0.086806744	0.5605924	-0.057110682	-0.21272734	0.021578789	0.69035023	-0.34145758	0.46724606	1.276552	-0.46440166	-0.08128874	-0.008836344	0.079149276	-0.115116194	-0.10287507	-0.16503303	0.19949196	0.18392974	-1.1805474	0.037381403	0.6158137	-0.19032654	-0.6640938	0.4001407	-0.1505264	0.2304094	-0.45933813	-0.7094262	0.027097434	0.06937239	0.45423514	0.59485364	-0.11508558	0.45235145	-0.47847846	0.36750156	0.025454313	-0.15481998	1.0046226	0.8090118	0.12084055	-0.60533947	0.3326747	-0.41078067	-0.7348542	0.21182299	0.18116441	-0.20192151	0.68494797	-0.15767765	-0.32287887	-0.015628874	0.3546748	-0.28678307	-0.314634	0.3879422	-0.030277103	-0.18764147	0.42401558	0.113470845	-0.35989863	-0.2456743	-0.70726484	0.22300275	-0.13065659	0.43502837	0.060844027	0.46018857	0.5752175	0.5260036	-0.26447082	0.7176164	0.2390312	-0.13130327	-0.46106294	-0.18610534	-0.40701038	-0.12085302	0.35344863	-0.7570926	0.21943127	0.656628	0.11368984	-0.14650169	0.7489323	0.40004545	0.13949326	-0.10472577	-0.86587864	0.09955608	0.0004127249	-0.23226736	-0.35592645	0.055052012	-0.1863257	0.20771427	0.52756554	0.5632808	0.45775104	0.14261845	0.5033606	0.24403352	-0.4403674	0.0118878335	-0.7999834	0.3667606	-0.049604423	-0.24549538	0.7588929	0.015892066	0.113990165	0.56420296	-0.32984176	-0.03446038	-0.7615966	0.22425297	0.62815475	0.18223526	0.13257235	-0.14975163	0.5405421	0.21828225	0.54550654	0.51151156	0.7224652	0.27806002	-0.2560021	0.6561367	-0.61953986	0.57980835	-0.21521334	0.42269385	0.35111305	0.819451	-0.12243085	0.20836881	-0.2422826	0.5583062	0.22461787	0.5153218	-0.43431467	-0.31768808	-0.8415868	0.5389558	0.23397921	0.18912032	-0.2502795	1.0244324	0.21961203	0.12493417	0.08676432	-0.21719103	-0.35155097	0.11538848	-0.1455018	0.7465147	0.03797303	0.28993425	-0.24494012	-0.4383493	0.005691588	0.63560045	-0.28494292	0.12021057	0.92874575	0.51458937	-0.32820576	0.3683992	0.32852784	-0.24150285	-0.44216534	-0.10617407	0.0040971786	0.49109885	-0.7082821	-0.2523861	-0.22099648	-0.16714682	0.02306205	0.11059734	0.5275234	0.5428226	1.2002306	-0.53182673	0.51892865	0.07952447	-0.84349704	0.19011858	0.08243055	-0.5445899	0.8538737	0.1923478	0.20978633	0.14797997	-0.41367385	-0.71803117	-0.31051612	-0.4649635	-0.41348496	-0.29028443	-0.06366713	-0.09311936	0.53622144	-0.01574824	0.51140666	-0.41629612	-0.8054525	-0.5622599	-0.166018	0.5103983	0.05566816	-0.24188706	0.5816716	-0.8098486	-0.75822747	-0.41824424	0.30568987	0.30518097	-0.5376432	0.108735874	0.16169664	-0.21762156	0.8039074	-0.0010411739	-0.4328305	0.676706	-0.3869692	-0.056920856	-0.2867118	-0.008294284	0.4464218	-0.054883868	-0.6045654	0.022902295	0.13961698	-0.18179657	0.72392917	-0.036429733	0.45362848	-0.2896492	-0.0022065341	0.40686047	-0.1971209	0.20323351	0.32334024	0.3305804	0.35716712	0.3805841	-0.8772746	-0.25714955	-0.060797974	0.010545999	-0.82967395	-0.43175176	0.34611776	-0.053708285	-0.052324936	0.1324121	-0.04676783	-0.009902433	-0.818614	-0.5761935	0.22489777	0.35204864	0.34535414	0.19588473	-0.54382515	-0.35288024	-0.34342974	-0.27406994	0.09588869	0.32009614	-0.59899235	-0.42593607	0.12992144	0.1727865	-0.71270025	-0.16640252	0.16679843	0.4804883	-0.1506482	0.29106176	0.18561405	0.22216357	-0.9337856	-0.72698325	0.04881706	0.61056906	0.2631846	-0.2599894	-0.17328092	-0.23130685	-0.5084125	0.3245724	-0.63591814	-0.04188694	0.4860131	-0.18125549	0.24644414	-0.16636804	0.5937364	-0.37493628	0.23515645	-0.12169175	0.35899347	-0.53965825	0.4878617	0.51652366	-0.91635996	0.9097124	0.32624033	0.33185112	-0.7141506	-0.3549667	-0.35195205	0.37098098	-0.23708156	-0.004855141	0.10289344	-0.3752116	0.5677439	-0.3088916	-0.06883253	0.18948865	-0.32908863	-0.47321415	-0.81092346	-0.3386544	-0.7543038	-0.08168179	-0.14042303	-0.2277807	0.19825938	-0.076392025	-0.67152023	-0.0061635673	0.02626381	0.6685953	-0.23593518	0.48968568	-0.36971322	-0.027232572	0.3968128	-0.25633398	0.5282506	0.42392364	-0.45967692	-0.80843776	0.004857056	-0.42881286	0.31913808	0.044855684	-0.75183856	-0.0052903295	-0.2502815	0.32215023	0.15364724	-0.019281782	-0.5296653	-0.8202488	-0.61620736	0.048529387	-0.72642875	0.3223226	1.0940642	0.69525665	-0.38818055	-0.1328556	0.3975712	0.11299062	-0.116282456	0.21449432	0.77190167	-0.2079108	0.5544033	0.48560157	0.2717383	-0.43097714	-1.0223501	0.7914015	-0.62905633	-0.5149554	0.10527277	0.15933247	0.34803283	-0.11895076	-0.5900436	-0.07119554	0.07699837	0.21012793	0.30863255	0.1532041	-0.37535483	-0.98300767	0.5735092	-0.041534364	-0.43312192	0.31078127	0.5087197	0.029153198	0.45957905	-0.34136197	0.15597299	-0.23175378	-0.12811154	-0.0343095	0.03369762	0.13430852	-0.5377239	-0.021301717	0.3522818	0.09403954	-0.51204276	0.0789626	0.11809592	-0.4050615	-0.12761846	-0.06337014	-0.4693009	0.560794	-0.16818959	0.8029862	0.3590471	0.67936814	-0.6527902	0.7478056	0.5721357	0.15612265	-0.56025815	-0.15656486	0.35907903	-0.77388394	0.28634092	-0.54896265	-0.28482494	-0.08202116	0.45916083	-0.65538466	0.001658082	-0.30816758	-0.48736763	-0.37996018	0.3260084	-0.6780221	1.0319587	-0.2615296	-0.7354678	-0.73389685	-0.81675017	-0.30650762	0.9334342	-0.05934456	0.26384217	0.50662863	-0.12541924	0.13255379	-0.0012527555	-0.062139124	0.40226677	-0.101709485	-0.8174295	-0.02669292	-0.49628636	-0.5259608	-0.16211879	0.10121137	0.057102017	0.1455567	-0.18636358	0.22479843	0.018715918	0.2047008	-0.2202468	0.031790122	-0.17158312	-0.52806073	0.13830723	0.70179564	-0.2798931	0.6047509	-0.4885314	0.23446503	-0.078273356	-0.4128363	-0.814017	-0.2062662	0.21825787	0.4181575	0.37844098	0.5299008	0.25570863	-0.74038595	-0.007988051	0.42026204	-0.45157802	-0.102360696	-0.5528544	-0.19782574	0.21418554	-0.6113537	0.36259583	-0.38027418	-0.08935855	0.58297205	0.29305735	-0.14634691	-0.3411225	0.071462646	-0.14146432	-0.19842358	0.11804187	0.2436294	-0.14636753	0.34513342	-0.2495858	0.34655762	0.2283418	-0.3170271	0.1471836	0.2744879	-0.70079565	0.15386504	0.7435053	-0.566494	-0.47872412	-0.30242968	0.061943285	0.22429357	-0.48074916	0.18041652	-0.029571429	0.11822944	0.5770373	0.26709467	-0.09499981	0.11164072	-0.76820195	0.931993	-0.2880362	0.28250536	-0.20452543	1.1829929	0.7010581	-0.40390188	-0.20605025	-0.2729788	0.20620409	-0.014101952	-0.0049239993	0.1343521	0.7560392	0.45537654	0.43838388	-0.8474363	-0.3159041	0.108626336	0.95246774	0.08689681	-0.13409838	0.7888246	0.115215	0.5841384	0.25799242	0.49371472	-0.64008284	0.15359929	-0.5463375	0.4999996	0.033827335	0.04652354	0.54986525	-0.03989896	-0.33496976	-0.2587549	-0.33304203	0.6258049	-0.13836032	-0.051532328	0.14452557	0.20511316	-0.63796127	-0.012056351	0.19382623	1.1219368	0.39933223	-0.76656294	0.6137264	0.11507974	0.23506516	0.3136772	-0.3345565	-0.40040144	0.37184888	-0.3145293	0.10051389	0.08708802	-0.22026286	0.357677	-0.5813684	-0.5393009	-0.41247857	0.16629672	0.5151912	0.5501851	-0.20003444	0.40227798	-0.82341385	0.3350535	0.20636481	0.14700931	0.41804242	0.48223603	-0.26449654	0.38149107	0.31277066	-1.0277772	0.70972854	0.55744207	-0.24523644	-0.45251042	-0.44594288	0.611542	-0.06490996	1.0745168	0.46624464	-0.2539135	-0.08370252	-0.63155305	0.024743397	-0.5188164	0.12295294	-0.2737524	0.5608604	-0.6715475	0.2244871	0.58498937	-0.2856794	-0.06661007	-0.34799963	0.49189183	0.5249285	0.2083037	0.040710628	0.009337746	-0.67044294	0.13371603	-0.4831937	-0.25688085	-0.31715387	0.14858316	-0.26212955	-0.3137213	-0.5604567	1.0863417	-0.11154104	0.27831048	-0.2259362	-0.20167987	0.6827518	0.12117946	-0.26800752	0.3535487	-0.27957606	-0.5408655	0.28653404	-0.64502615	-0.07663222	-0.35952574	0.074392885	-0.8396922	0.0919088	-0.017678153	-0.30995363	0.31398216	0.73976374	-0.31711233	-0.24625003	0.77475655	-0.3300289	0.043841884	0.49668416	0.22690517	-0.986735	-0.35123974	0.18534696	0.0070452057	-0.49433875	-0.34099483	-0.07580582	-0.13624771	0.15238306	-0.08804949	0.13272199	0.05386263	-0.029049441	-0.094994426	-0.3456315	0.34238487	0.56772935	-0.042588577	-0.38460478	0.30124804	-0.09128932	-0.49255258	0.2947081	0.055304762	0.196352	-0.78303754	0.10334398	-0.22912937	-0.2222526	0.029614583	-0.5734673	-0.3144274	0.077707276	0.7139848	0.40653652	0.061418056	-0.57378745	0.09541464	0.45387566	-0.6105086	-0.17501527	-0.017485738	-0.34917086	0.23880255	0.08299714	-0.6349674	-0.7404196	-0.017115787	0.06928593	0.22112319	0.45269796	0.46756044	0.90589285	0.0961173	-0.48002225	-0.322281	0.091621384	0.06942673	0.77589804	0.13847354	-0.57227266	0.28755373	0.27850753	-0.5333464	0.17769024	-0.3246122	0.5239585	-0.25780052	-0.6599238	-0.06967634	-0.08050692	-0.54727995	-0.3529096	0.34250516	0.30278748	-0.49374932	-0.5158603	0.14651637	-1.2509679	-0.0161158	-0.41505578	-0.2092454	-0.50827307	0.53210723	-0.1329863	0.45887613	0.13070935	-0.45185974	0.04515913	0.42389193	-0.08200759	-0.4814927	0.13441834	-0.3203089	-0.20622441	-0.31093732	0.45462435	1.1992809	-0.08645764	-0.45684603	0.0017540976	0.12944302	0.1767545	-0.4754973	0.43173254	-0.43756992	0.13650769	0.7507441	0.09538121	-0.99682814	0.1299867	-0.24135986	0.13862345	-0.028007641	0.4483149	0.3404335	-0.07015541	0.3457937	-0.14433426	-0.04880464	-0.14607027	-0.3447992	-0.6368121	-0.7675866	0.46216607	0.10355842	0.3725479	0.5820372	0.24065965	0.20573418	0.084790275	0.13238397	-0.047954563	-0.08963627	0.3389361	0.11428684	0.49681818	-0.65172416	0.0012553558	0.30475506	0.0674705	1.2037214	0.003008388	0.14873843	-0.13291936	0.3880473	-0.21997082	0.2162433	-0.32345822	0.04745969	-0.21371369	0.21698622	-0.3633233	0.025592275	0.29638326	-0.37856936	-0.20172937	-0.43819	0.44421494	0.16295978	-0.13061677	0.8777312	0.6629412	-0.26553264	-0.06953482	0.17502093	0.08295237	-1.0320884	0.7709056	0.16536754	0.08545566	-0.062669724	0.21105376	0.156221	-1.2269578	0.2844479	-0.5572766	0.70485836	-0.107200935	-0.27258486	0.48870173	-0.17506039	-0.12713593
G900129725	0.28624874	0.5403645	-0.53883916	-0.03809461	0.07674675	0.54332787	-0.14712387	-0.5753203	-0.31506574	0.096476	0.4971562	0.3224046	0.5498667	-0.34349018	0.6393688	0.07223983	0.210509	0.113290384	-0.4291835	-0.78456616	0.35852668	-0.34426397	-0.33342144	-0.048323214	-0.10556638	0.32898158	0.055735573	0.047755748	0.3136865	0.5373264	-0.42040768	0.12331326	-0.37566003	-0.6676025	0.25830895	0.27065337	-0.04512772	0.5126574	-0.8426349	-0.40436423	-0.035377994	-0.6190668	0.48300904	0.47132522	-0.13194928	0.11371747	0.067566834	0.12602778	1.075563	0.34910178	0.5246729	0.5186762	-0.7282655	0.6568005	-0.07294211	0.5342988	-0.11533762	0.32268673	-0.11219162	0.24183793	-0.29590392	-0.32951424	-0.10715693	-0.50563496	0.24665987	-0.5365355	-0.45073646	0.31104875	0.021686897	-0.7484272	0.24515347	0.79836035	-0.0674867	0.6296946	0.5460429	0.8351922	-0.7568707	0.16829443	0.20622829	-0.079595916	-0.6512003	0.4366755	-0.71952593	-0.56987315	-0.14353707	0.24637377	-0.23354444	-0.11082717	-0.0059924275	-0.15410542	0.011351377	-0.64305806	-0.2728163	-0.05207888	-0.10919826	-0.17571324	0.54375994	-0.11916219	0.41081804	0.49363887	0.18844043	0.15738727	0.07006803	0.20154858	0.013244018	0.5119122	-0.07152818	-0.7500038	1.0675256	0.121122986	0.34423733	-0.38220647	0.38359398	-0.032188386	0.62495285	-0.00068956614	0.24547377	0.013161078	-0.3731696	-0.103413865	-0.26311994	0.15260431	0.03382501	-0.40122974	0.6001669	-0.45275095	0.12582186	0.51417285	0.59144545	0.11787917	0.5304589	0.6534272	-0.59508455	0.17007908	-0.2782016	0.1805268	-1.2436001	-0.71356493	0.42138326	0.29088423	0.33194467	-0.07032208	-0.64453256	0.2507769	0.27849692	0.39394844	-0.09038839	-0.062274784	-0.4515039	-0.20758012	-0.12538657	-0.5784371	0.13718806	0.09891376	-0.46383566	0.37467608	-0.4478184	0.008169904	0.48233092	-0.43318984	0.388018	-0.19411768	-0.5211879	-0.14354357	0.4483251	-0.47970235	0.23433101	1.1943773	-0.013728447	-0.006305948	-0.4809128	0.35801435	-0.08502739	-0.6027673	-0.39044383	0.23017886	0.089744285	-1.0627795	-0.05008371	0.06817052	-0.2130815	-0.5907497	0.6106606	-0.0868789	-0.046527565	-0.5924243	-0.69941294	0.00082588196	0.1745764	0.51377726	0.6301555	-0.14239848	0.38536233	-0.3089506	0.15435624	-0.2877832	0.29830647	1.0053952	0.51128304	0.14148304	-0.49644426	0.10083699	-0.10417737	-1.0889378	-0.31846407	0.3453126	-0.03776806	0.34217066	-0.10417607	-0.14185955	-0.045804918	0.7244815	-0.121744886	-0.22784697	-0.00045472383	0.04821118	0.11489029	0.55771726	-0.18322662	-0.43924242	-0.121044956	-0.26395804	0.4415478	0.23131564	0.2503268	0.17146622	-0.061635524	0.31316447	0.43266672	-0.1947594	0.63020706	0.20798367	0.14563775	-0.43309873	-0.5373253	-0.16017249	-0.18502146	0.6415555	-0.730027	-0.0680269	0.9380231	0.018712841	-0.6934836	0.50156444	0.28335607	0.11303897	0.0974106	-0.9001416	0.19655326	0.012426704	-0.22885707	-0.050940484	-0.12913956	-0.10619322	0.3149157	0.43763763	0.479191	0.45874494	0.20631507	0.07473826	0.38350397	-0.26603305	0.040114865	-0.65850616	0.53789556	-0.15870132	-0.14006746	0.4703226	-0.170331	0.4276117	0.5616626	0.1542908	0.10846045	-0.8587446	0.14216512	0.59484446	0.2637104	0.010260373	-0.1662451	0.67122376	0.37246805	0.08762624	0.22070149	0.56691617	0.1488985	-0.1615481	0.3253125	-0.60399795	0.19354531	-0.011359543	0.12388836	0.16545492	1.0594128	-0.25497752	-0.14994054	-0.4321686	0.5743553	0.32620895	0.45884514	-0.24834317	-0.30010715	-0.5973828	0.45962277	0.22355904	-0.027118698	-0.19920868	0.9107597	0.21574506	0.27556586	-0.23550712	0.021459475	-0.18471456	0.21938245	0.011213109	0.702894	-0.21706203	-0.042408552	0.07555215	-0.75498366	0.4072116	0.27196115	-0.16665731	-0.01893485	0.9975429	0.55922556	-0.4979592	0.49058312	0.46875322	-0.2705186	-0.19618028	-0.4127046	-0.072663575	0.4281941	-0.96376204	-0.107933655	-0.1089343	-0.49870855	0.23711954	-0.059460327	0.5324389	0.68402946	1.0446552	-0.32863092	0.534284	0.30746815	-0.7329136	0.13958593	0.12597561	-0.4414242	0.6168527	0.088841125	-0.1778718	0.02204397	-0.0650861	-0.5907351	-0.5576236	-0.37830725	-0.28754762	-0.4649728	0.18918075	0.13534029	0.4726077	-0.018108986	0.4544978	-0.28321588	-0.752306	-0.26804918	-0.08425619	-0.0707469	0.029371366	-0.5349489	0.78484654	-0.6396874	-0.26325187	-0.16563036	0.32038093	0.097217694	-0.930599	0.014125496	0.017941058	-0.094131276	0.6653368	0.24273422	-0.43740284	0.8664558	-0.1218065	0.41038308	0.12433979	0.05149877	0.40915895	-0.043922406	-0.6312634	-0.025337726	-0.0048249513	-0.3863119	0.8087012	-0.019641992	0.5958444	-0.3933073	-0.09518535	0.6581789	-0.58523184	0.24414474	-0.07893035	0.17056575	0.33434793	0.29823345	-0.53467906	-0.029730216	-0.1781372	0.102059126	-0.84314597	-0.51246864	0.065452255	0.24727036	0.321519	0.4083398	0.024770178	-0.12297179	-0.72458434	-0.7184933	-0.39836782	0.20096846	0.4652942	-0.13084248	-0.5515705	-0.102659166	-0.25941798	-0.0033210963	0.12807329	-0.057456225	-0.47335517	-0.12391338	-0.09170607	0.16112845	-0.6695516	-0.057807893	-0.26766503	0.13285026	0.13186544	0.44669634	0.20054087	0.44704226	-0.7685696	-0.974615	-0.024107445	0.41611254	0.40421987	-0.48913142	0.059942298	-0.11682487	-1.0054536	0.12586188	-0.42326397	-0.29119554	0.38576403	0.04065383	0.28185022	0.19414948	0.9279754	-0.03410305	0.3690488	-0.3771491	0.49927917	-0.4535767	0.49011862	0.2761222	-0.88490057	0.38410887	0.76088005	0.26264054	-0.78013283	-0.44638065	-0.08379187	0.33041131	-0.1923918	0.08823247	-0.338025	-0.34326935	0.81293714	-0.40848553	-0.102757424	0.18451947	-0.15543446	-0.29390115	-0.34368336	-0.2912244	-0.53037727	0.0126504	-0.2474692	-0.16915563	0.32940555	0.08081235	-0.62552065	0.048319384	0.09440711	1.0509074	-0.25294456	0.5383017	-0.3501131	0.0050713792	0.34168163	-0.56269705	0.5186167	0.39970273	-0.47970638	-0.75810456	0.0681936	-0.4155577	0.25004473	-0.048851907	-0.61499256	0.2836793	-0.40894172	0.16959354	0.3027362	0.013369337	-0.23671243	-0.56182986	-0.43850657	-0.12557426	-0.89243585	0.2247536	0.8467291	0.5217432	-0.17025475	-0.31312424	0.17065999	0.19971499	0.17201051	-0.14961037	0.48381174	-0.33849335	0.60188365	0.55850637	-0.27483338	-0.49698296	-0.9475136	0.59297085	-0.43478987	-0.566339	-0.12561084	0.45960748	0.25973052	-0.17525995	-0.60157853	-0.023067504	0.04555984	0.114231616	0.25438476	-0.059631273	-0.46699348	-0.7038784	0.32427275	0.0061820075	-0.47359014	0.49908787	0.22789626	-0.64819014	0.63338864	-0.43529063	0.09020309	-0.09051588	0.21125567	-0.10072141	-0.3111867	0.22346824	-0.58891004	0.023137897	0.010977715	0.36395252	-0.4389739	-0.09006927	0.34495902	-0.14438128	-0.08835699	0.076712124	-0.5224283	0.22731245	-0.2632956	0.54954565	0.24733615	0.6663312	-0.4274658	0.791889	0.44795448	0.17643586	-0.25895888	-0.3557104	0.3270241	-0.5614218	0.15125047	-0.35528502	-0.09064704	0.017519522	0.36599845	-0.51795673	-0.09871439	-0.45718712	-0.3414133	-0.29248437	-0.010883428	-0.7051394	0.86311054	-0.2279956	-0.3332058	-0.8683518	-0.71122044	-0.36814064	0.88219124	0.17876607	0.1978737	0.51876414	-0.1368172	-0.0104610175	-0.11194286	0.24416085	0.41241524	0.417829	-0.7326804	-0.43851927	-0.49243757	-0.53769684	-0.09272168	0.0804314	-0.3898041	0.44232047	-0.20041803	0.07599503	-0.4072633	-0.06907207	0.20932752	0.35188925	0.18627048	-0.56075484	0.3836902	0.29799384	-0.051468447	0.40486103	-0.53483784	0.357512	0.020466238	-0.21053565	-0.4966765	-0.5515502	0.30164787	0.035651978	0.5035671	0.75144863	0.049687676	-0.40833777	0.18422693	0.3780262	-0.5522479	-0.2553512	-0.7062582	-0.120986015	0.3345582	-0.6216086	0.33227032	-0.39386976	-0.096794106	0.4312016	0.0849327	-0.37297705	-0.39438075	-0.0031297803	-0.2045629	0.12322943	0.34377497	0.006771356	-0.321944	0.18654709	-0.42335054	0.3143738	0.19333443	-0.2914524	0.42284912	0.4557935	-0.49065244	0.020142242	0.6983423	-0.40901405	-0.14246482	-0.35612887	0.114091106	-0.09132697	-0.18388623	-0.037771806	-0.08328125	0.20440322	0.5051244	0.16245416	-0.061733827	-0.10283231	-0.5953403	1.0356066	-0.0785079	0.33111113	-0.36139572	1.518193	0.1194782	-0.26675022	-0.16492291	-0.22733337	0.12599514	0.33851945	0.07116638	0.03175433	0.38944286	0.4471438	0.19482127	-1.0123165	-0.08365037	-0.07890642	0.4110469	0.11421737	-0.07363908	0.90126264	-0.22953232	0.62872183	-0.004212819	0.27464718	-0.72641337	0.05250308	-0.38885438	0.39991087	0.18385737	0.030611485	0.66054183	0.028857194	-0.4256185	-0.00017167628	-0.52243614	0.4779761	-0.19014727	0.05195822	0.08386837	0.32375342	-0.3200991	0.133652	0.09891816	1.0923934	0.25897738	-0.58462167	0.5406356	0.12216286	0.025901884	0.44209656	-0.25909403	-0.33701688	0.03956365	-0.22923708	0.63954175	-0.05589533	-0.22290696	0.10196569	-0.4959484	-0.22823858	-0.08224653	0.103864916	0.53046876	0.4352731	-0.41898558	0.3438524	-0.64646584	0.16124967	0.05835539	0.13656098	0.51731926	0.4101066	-0.49834985	0.5907731	-0.1366423	-0.630049	0.4358319	0.9549875	-0.27435806	0.08052459	-0.5062549	0.5220037	-0.14609466	1.1298459	0.49143696	-0.2920431	-0.11245458	-0.32510668	0.032767884	-0.38695413	-0.2837284	-0.23320691	0.23975287	-0.49047202	0.18991843	0.5459876	-0.07339482	-0.025173333	-0.33245564	0.1968792	0.41240007	0.13859513	-0.46559006	-0.21649197	-0.41848555	-0.20569876	-0.43654317	0.11696461	-0.23863332	0.573814	0.02964355	-0.35884175	-0.65940857	1.0018474	-0.21533507	-0.12765539	-0.48186806	-0.05234784	0.46232998	0.02138333	-0.50640523	0.57336473	-0.10686742	-0.32206935	0.07995908	-0.15975437	-0.15309411	-0.5251789	0.2788934	-0.9314487	-0.05600345	0.016881622	-0.42501506	0.40255356	1.0929209	0.24485669	-0.024678681	0.2869502	-0.07188012	-0.059757322	0.49263173	0.021653727	-1.1219258	-0.40184143	-0.16199231	-0.08008711	-0.21306191	-0.48034886	-0.17004769	-0.049426068	0.53383803	-0.10732729	0.49464214	0.35949054	0.13027021	-0.027990445	-0.3895	0.1585432	0.6078315	0.061780307	-0.25529248	0.16669065	-0.14235252	-0.4125376	0.3679068	0.1342032	-0.12753063	-0.7273473	-0.36793888	-0.39278263	0.07507663	0.08197113	-0.7644142	0.05150941	0.14535002	0.629871	0.32881728	0.50451154	-0.3511747	0.22388355	0.19801858	-0.439726	0.059493545	-0.31931007	-0.17862785	0.507031	-0.099815026	-0.681053	-0.8168761	0.22799283	-0.163048	0.26819453	0.29730618	0.58692336	0.45001686	0.039228298	-0.17089283	-0.12159662	0.11318529	0.16278568	0.51158154	0.015838504	-0.5693045	0.36927247	0.68989897	-0.002194047	0.20389086	-0.08409564	0.37958252	-0.12820213	-0.7066591	0.08867824	-0.40730888	-0.5438242	-0.20408982	0.29743013	-0.013190549	-0.33686802	-0.23266311	0.33005086	-1.0544403	-0.28163165	-0.14061238	-0.24203499	-0.3447743	0.5089472	0.26986688	0.4197039	0.35517907	-0.37135834	-0.15066548	0.4917665	0.0141761005	-0.31168416	0.041523412	-0.42565006	-0.13505302	-0.13592422	0.23144148	0.89670444	-0.080521196	-0.46947396	0.13910529	-0.051841885	0.10532109	-0.14798112	0.10023666	-0.5168347	0.17802088	0.634194	0.27226716	-0.6488736	0.063649535	-0.27881032	0.2885043	0.19265895	0.2361557	0.69049376	-0.13207431	0.58286387	-0.0556632	-0.16856495	-0.21117675	-0.2118615	-0.5943814	-0.606469	0.40209743	-0.025950126	0.6309812	0.542608	0.1996934	-0.3925931	-0.1831196	0.2883987	-0.12127181	0.050114945	0.4317592	-0.0825403	0.56527483	-0.48467192	-0.0312825	0.6650992	-0.13462892	0.9044286	0.05451949	0.14366107	-0.427878	0.34416568	-0.4633656	-0.12327199	-0.42716092	-0.0061059296	-0.07363707	0.13127698	0.056793258	-0.027987659	0.4295338	-0.52189434	0.06217009	-0.373078	0.3399915	0.46366116	0.102277175	0.7502953	0.34844893	-0.49636233	-0.091386236	0.3826795	-0.40819007	-1.0921953	0.6733736	-0.32069248	-0.01439549	-0.027678758	0.46787345	0.55294055	-0.9750757	0.5033941	-0.24138774	0.75131905	-0.43799984	-0.4501523	0.5966495	0.0851603	-0.12745401
G000265075	0.035133854	0.3768536	-0.8198595	0.22221911	-0.1938561	0.48649454	0.16167521	-0.5548859	-0.39480078	-0.28793618	0.19231646	0.42229915	0.46409193	-0.06875566	0.5981423	0.13729659	0.061350226	-0.032195076	-0.54179734	-0.476626	0.47685647	-0.5134653	-0.38983443	0.11682649	-0.060529917	0.13654512	-0.04496595	0.27409494	0.35046852	0.17973319	-0.8223905	0.26555222	-0.6099819	-0.5251818	0.39730084	0.27840683	0.061861917	0.40684345	-1.2978923	-0.33258072	-0.3425392	-0.32053882	0.34721163	0.81494135	-0.3554315	-0.045435637	-0.19806018	-0.1483977	0.95305943	0.5112858	0.38990983	0.12513174	-0.40188134	0.6106981	0.012718126	0.94565666	-0.057794705	-0.14706293	0.09051022	-0.068368435	-0.46159065	-0.32238665	-0.0089580715	-0.25360793	0.09633082	-0.08770563	-0.7473605	0.17672278	0.1066373	-0.47316295	0.5074064	0.5048084	0.23700176	0.7073094	0.0056385696	0.8351275	-0.3422507	0.29062474	0.085970044	0.16305143	-0.3434932	0.6388493	-0.22842368	-0.52879494	-0.06483641	0.15294598	-0.12914087	-0.2535022	0.0739351	-0.12686962	-0.019818366	-0.4436501	-0.3462925	-0.1449433	-0.15787072	-0.29370403	0.4872578	-0.69682455	0.79305595	0.83153903	-0.095895976	-0.24572435	0.04925546	-0.12647915	0.17859039	0.33945557	-0.27019584	-0.022663996	0.90959847	-0.20300114	0.15208745	-0.32113507	0.41117507	-0.17284837	0.35138616	0.42624366	0.30002564	-0.2111141	-0.47915077	0.11837107	-0.40376306	0.08440907	-0.19777992	-0.5020484	0.73938394	-0.048143968	-0.09506063	0.7096949	0.3600584	0.10405457	0.64292634	0.3452904	-0.2797554	0.20803419	-0.052773863	0.47805727	-0.8566122	-0.9316733	0.38422966	0.61710703	0.18466921	-0.27865687	-0.24482843	0.28819466	-0.0063976124	0.48410004	-0.06037131	-0.11885178	-0.23541777	0.03076686	-0.13763994	-0.33941847	0.072560206	-0.0059484765	-0.29737434	0.7191937	-0.3139181	-0.007731378	0.6245891	0.0014086086	0.68972474	-0.11885894	-0.17100778	0.23060794	0.5286548	-0.11997424	0.59667075	0.99181354	-0.54111725	0.28996703	-0.025312021	-0.0026516505	-0.14009412	-0.33289146	0.01949644	0.18214934	0.10764532	-0.9182197	-0.011542425	0.42347538	-0.35291836	-0.4225706	0.40411368	-0.028451033	0.11746974	-0.4973951	-0.6994255	0.16017213	0.30675772	0.6249945	0.56108075	0.074714236	0.27684903	-0.5356862	0.29219824	0.037307978	0.26040882	0.852896	0.3930455	0.13345069	-0.5530407	0.52893704	-0.18556619	-0.8633597	-0.13277663	0.41453552	-0.08893678	0.40111935	-0.39288998	-0.1299545	0.10041513	0.4485855	-0.25980994	-0.30808997	0.36999714	0.14381197	-0.06586964	0.42177933	0.23575066	-0.07301587	-0.15313254	-0.3477696	0.10084793	0.14529245	0.4532606	0.30889076	0.5870602	0.12897699	0.7315432	-0.2922463	0.77336395	0.20810391	-0.09203631	-0.5530164	-0.16007675	-0.15418398	-0.18517728	0.38722926	-0.60998905	0.025903568	0.70545095	0.41933003	-0.5288149	0.55052173	0.91714835	0.2387729	-0.027560994	-0.6103924	0.089669794	0.10145319	-0.14729944	-0.48556054	-0.17175175	-0.13837278	0.02364263	0.5619845	0.53951883	0.56944454	0.19112602	0.41169283	0.27427772	-0.3210917	0.28662235	-0.3546302	0.46480915	-0.0649406	-0.24069628	0.3656022	0.18713185	0.44514373	0.6737151	-0.45072895	0.047087334	-0.7258244	0.25959426	0.22958553	0.60779274	0.013555601	-0.24601397	0.55640775	0.45443127	0.26498848	0.45102298	0.6515659	0.39901805	-0.30661136	0.5214663	-0.5547495	0.5021497	-0.36372995	0.45721918	0.14926769	0.9416525	-0.23615012	0.3365733	-0.3026335	0.27526078	0.2580564	0.23215933	-0.43283075	-0.21095037	-0.51909316	0.56523734	0.29020378	0.12364884	-0.0342407	0.7061343	0.24450515	0.1887117	-0.0354339	-0.36152637	-0.48892072	0.40760493	-0.19696097	0.78431946	-0.2097427	0.066814445	-0.19217798	-0.60100704	0.41103557	0.66752255	-0.5683905	0.2991773	0.95730126	0.4458907	-0.09261027	0.32412153	0.3919589	-0.41658396	-0.2857727	-0.5355074	-0.08062638	0.20984213	-0.6903209	-0.2544528	-0.20578188	0.019821525	0.19604072	-0.09919752	0.75581694	0.5504567	0.7142698	-0.58385825	0.23187536	0.2590696	-0.7534039	0.3969225	0.03286729	-0.64756775	0.95699334	-0.08235337	0.37407053	-0.05447971	-0.03444291	-0.5270277	-0.19871828	-0.23375878	-0.32986948	-0.04167174	-0.11731265	0.09857364	0.05499948	-0.35019252	0.60802734	-0.29263923	-0.9176513	-0.21419196	0.035189316	0.13298428	0.26343858	-0.40245247	0.27710226	-0.5089468	-0.32605794	-0.15196507	0.38978267	-0.03581757	-0.42274	0.18281627	0.32157663	-0.14156616	0.8284081	-0.11240411	-0.30555356	0.542158	-0.20322394	-0.0073959082	-0.038666725	0.30108663	0.39626178	0.018965695	-0.48981154	0.11335263	0.17752679	-0.42976308	0.8155023	-0.35193548	0.518189	-0.37995142	-0.19275062	0.78323466	-0.46199968	-0.014061011	-0.001994893	0.13907267	0.34305555	0.15314114	-0.90677726	-0.049399152	0.0741515	0.012681484	-0.91732514	-0.15296899	0.27488732	0.011244029	0.2386677	0.20991072	0.017011046	0.08916722	-0.85126245	-0.45841408	-0.49836394	-0.047744602	0.5128486	-0.19250673	-0.46041733	-0.46998492	-0.008081555	-0.18396546	0.11767131	0.2565	-0.3165086	-0.55317175	-0.17433698	0.16135374	-0.5115522	-0.36806923	-0.14374273	0.37195608	-0.052500725	0.42018667	0.43774325	0.07969345	-0.81835616	-0.4046198	-0.02701047	0.57109886	0.18407775	-0.44267547	-0.2019623	-0.40498775	-0.34355173	0.48601943	-0.5840519	-0.38193002	0.23519954	-0.075996265	0.40576234	-0.18762462	0.3939836	-0.054244272	0.18996114	-0.2861172	0.52036685	-0.35234728	0.78457904	0.37482813	-0.5113492	0.5676464	0.29880446	0.39532667	-0.82678634	-0.43396282	-0.20620057	0.33832648	-0.26259202	-0.010086656	0.14997035	-0.23473197	0.44581163	-0.54940844	-0.08349178	0.27526975	-0.30839646	-0.5862299	-0.6698663	-0.21139523	-0.6564983	0.08601845	-0.32151204	-0.3762946	0.26213267	0.11974789	-0.51138884	0.28297916	0.24024615	0.99038327	-0.25895634	0.5021563	-0.25087702	-0.09947713	0.49358475	-0.24358943	0.38684884	0.41594025	-0.39041278	-0.7042004	-0.08618311	-0.5395669	0.3850173	0.032037005	-0.28148293	0.2905885	-0.43000612	0.51869863	-0.009302646	0.052626953	-0.38243562	-0.70560884	-0.4613895	0.020304896	-0.86214656	0.21444419	0.87154937	0.87042063	-0.34084317	-0.21740216	0.31955504	-0.16384998	-0.33196676	0.25598967	0.50666535	0.01598683	0.435564	0.67555845	0.041244075	-0.3963777	-0.6734836	0.43234557	-0.5842882	-0.55571634	-0.20691778	0.010061502	0.16711405	-0.17396492	-0.37020946	0.070685506	0.06066498	0.09317162	0.41333306	0.15865262	-0.7805058	-1.0177112	0.15256351	-0.21207252	-0.5787682	0.12284429	0.5493945	-0.013219029	0.52545536	-0.39002463	0.111338034	0.078727596	0.18939981	0.022079438	-0.15894128	0.3351274	-0.2695161	0.076451674	0.14970419	0.3726372	-0.55512786	0.022233516	0.2053186	-0.09978275	0.288005	-0.2610497	-0.25724825	0.70756066	-0.07970013	0.56206006	0.36390507	0.69177413	-0.47257462	0.6940066	0.2776223	0.046730027	-0.78498006	-0.08056496	0.19494438	-0.5501917	0.090735324	-0.37802464	-0.18708946	0.10696839	0.4005109	-0.4636711	0.07025302	-0.30356038	-0.28654957	-0.34145808	0.07556988	-0.45913303	0.90000904	-0.23496573	-0.24569137	-0.5711891	-0.42365175	-0.15229993	0.55190015	0.13668993	0.17674874	0.6108341	-0.13288265	0.34354848	0.07676926	-0.15535465	0.6256013	0.11081658	-0.6217233	-0.10960739	-0.6343302	-0.5739801	0.15122613	-0.14545926	-0.31350234	0.29327384	-0.11383085	0.042422056	-0.07711969	0.19674921	0.34697717	0.11833333	-0.091327384	-0.35624218	0.18506196	0.18748969	-0.36083728	0.4997161	-0.3335766	0.25863916	0.08065066	-0.33013475	-0.47884035	-0.4635759	0.24878354	0.2252723	0.3016648	0.5389076	-0.12830089	-0.61580837	-0.15145952	0.5485369	-0.5326346	-0.26512933	-0.18102494	-0.3325352	0.44294453	-0.8920982	0.4839213	-0.5052026	0.039804995	0.7211534	0.21932155	-0.2537173	-0.16249488	0.073797405	-0.43768403	0.08559345	0.11233532	0.27659112	-0.51750374	0.09365362	-0.42544156	0.11360831	0.040066674	-0.14069852	0.15418975	0.35961688	-0.56872845	0.0056522265	0.8406967	-0.5424607	-0.494842	-0.63570875	0.08396353	0.091248274	-0.25811672	0.4515638	-0.1553958	0.25787526	0.39918482	0.34643763	0.20916384	0.038666144	-0.57266766	0.6746737	-0.29259259	0.21263275	-0.3241131	1.3201044	0.58351475	-0.5695735	-0.14555268	0.05029302	0.19006906	-0.06339781	-0.1283168	0.10543555	0.5331482	0.41401824	0.28742883	-1.0484998	-0.26802978	-0.18372473	0.8343054	0.47131884	-0.13604063	0.62130463	-0.3108044	0.6909852	0.33945596	0.5270134	-0.62393165	0.21388406	0.019026801	0.24342924	0.18216321	0.3509581	0.42917922	0.04294078	-0.27394116	-0.13979584	-0.3570904	0.60168326	-0.056292027	0.022702932	0.026866928	0.29569432	-0.3787687	0.16691294	0.14038001	0.9023352	0.29201695	-0.77580976	0.10605069	-0.44951057	0.1435641	0.29902798	-0.33013397	-0.03264165	0.41328216	-0.5822449	0.16154245	0.10255298	-0.34436363	0.18461153	-0.86241025	-0.20874462	-0.14213172	0.035114117	0.15485749	0.36227155	-0.12351237	0.29987866	-0.8301244	0.08529465	-0.010009408	0.278247	0.5305777	0.31506377	-0.045887962	0.2633426	0.424008	-0.7337856	0.46469897	0.75561666	-0.3790827	-0.24550056	-0.4690615	0.59172755	-0.24670306	0.88888526	0.6976611	-0.16184735	-0.4308545	-0.38667518	0.17688963	-0.39571473	-0.1114468	-0.16696332	0.5251911	-0.52322054	0.14986119	0.31264302	-0.1577088	0.17787123	-0.24794224	0.30447438	0.31897664	0.30169266	-0.2147731	-0.08653997	-1.0329639	0.09161253	-0.5541614	0.08557589	-0.40691072	0.44245043	-0.055872947	-0.06996674	-0.45057607	0.98209804	-0.1140566	0.13356888	-0.5956041	-0.42512956	0.3058149	0.04681897	-0.20953184	0.5547343	-0.24132895	-0.50983536	0.44198784	-0.53711694	-0.25317615	-0.3113219	0.18478888	-1.100052	-0.023528904	0.024359182	-0.4308222	0.69785404	0.98957866	-0.1778579	0.17201735	0.41946337	-0.22270647	0.06844479	0.53106165	-0.0770575	-1.1142495	-0.18086018	-0.16134337	-0.07616591	-0.31345117	-0.60960627	0.18369848	-0.17755657	0.30410686	-0.21025315	0.5794275	-0.09680328	0.017304689	-0.17955421	-0.123152256	-0.15415782	0.55730265	-0.29290107	-0.44422063	0.31508538	-0.38360983	-0.7177812	0.07027304	-0.17122635	-0.023806274	-0.6609734	0.25094286	-0.13406534	-0.17797162	-0.23155025	-0.8896534	-0.27736017	-0.030216098	0.51650906	0.44203472	0.08926053	-0.7872687	0.2547854	0.2564724	-0.6602993	-0.1515601	-0.26684242	-0.6188352	0.23478943	-0.010925248	-0.68504834	-0.7726938	0.039458036	0.23023319	0.27038965	0.3938488	0.43299875	0.77557516	-0.19209465	-0.6289242	-0.1895599	0.092425376	0.17920059	0.588127	0.29567552	-0.099460155	0.1986495	0.48603493	-0.19943519	0.27201128	-0.32263386	0.24266443	-0.26694518	-0.58396316	-0.18545783	-0.254807	-0.50111246	-0.1382941	0.046453476	0.28207955	-0.4319093	-0.37434155	0.047466666	-1.1994692	-0.13142088	-0.15300667	-0.4312026	-0.26542145	0.62688816	0.1249322	0.22268227	0.14006928	-0.101353884	-0.04978384	0.7434791	-0.045566857	-0.7664925	0.24493253	-0.35120374	0.021535248	-0.20753172	0.44698304	1.0134412	-0.04851672	-0.49157423	0.18950938	-0.043233037	0.33717188	-0.6450511	0.48358363	-0.3899085	0.57688504	0.18493767	0.06309251	-0.9439646	0.1880796	-0.0652806	0.045590945	0.042086937	0.3519781	0.39551917	0.0039526373	0.31873572	-0.12326115	-0.21156527	-0.24517253	-0.16087076	-0.51801515	-0.68423486	0.5363196	0.07283299	0.35226506	0.3421752	0.33977365	0.15911877	0.13610175	0.34122053	-0.2866945	-0.13067111	0.35721332	0.29054958	0.3442601	-0.5319734	-0.31620204	0.11359227	-0.09254998	0.871291	-0.21317382	0.15506157	-0.31174368	0.30292034	-0.47778213	-0.1870127	-0.27445513	0.037750855	0.11830859	0.26566595	-0.12387568	0.050763577	0.2835509	-0.4824154	-0.2540951	-0.37299657	0.40753746	0.43346006	-0.06288072	0.7095624	0.39578578	-0.19489504	0.060610246	0.49497536	-0.21472988	-0.83458227	0.4197182	-0.12926391	0.3983045	0.20757002	0.39635468	-0.022571594	-0.91688275	0.31664968	-0.45625696	0.8221724	0.0055265725	-0.45762253	0.6688565	0.12627536	0.040983424
G000166395	-0.01750715	0.6341243	-0.87852937	-0.28422156	-0.15051338	0.28785107	-0.06672594	-0.8384096	-0.22664607	-0.035745814	0.07236372	0.114803776	0.82990867	-0.1797706	0.6416687	-0.14250708	-0.002281487	0.14178747	-0.6784968	-0.37500167	0.55715567	-0.3263946	-0.19807282	0.21294181	0.033504605	0.035825968	0.029374972	0.71711254	0.72426015	0.16915329	-0.88900906	0.34194735	-0.6896868	-0.6355972	0.4976073	-0.045302242	0.22328225	0.20545787	-0.8529729	-0.14745155	-0.26513946	-0.15024647	0.169141	0.35056323	-0.33508563	-0.10883206	-0.05288616	-0.20150797	0.9747562	0.37957966	0.81507456	0.41077182	-0.16946621	0.36795473	0.05041644	0.7797318	0.058341585	0.058487743	-0.24183431	-0.046159454	-0.0058466196	-0.1679964	-0.1158759	-0.6525291	-0.17456004	-0.5013931	-0.8329673	-0.058053233	0.63292235	-0.3375798	0.28258896	0.68296885	0.08442663	0.75382483	-0.22389027	0.5895216	-0.61081016	0.2566474	0.18832268	0.22751948	0.09583753	0.51934075	-0.38853192	-0.42154408	0.23411675	-0.06485462	-0.44286704	-0.6209116	0.14925158	-0.016843885	0.23092926	-0.2558866	-0.83463436	-0.34315804	-0.2746084	-0.24150842	0.6912916	-0.71833503	1.1490725	0.77279747	-0.075686574	-0.36834276	0.12833068	-0.21511427	0.43290675	0.33534762	-0.054773808	0.29344562	1.104133	-0.37846264	-0.16980383	-0.40139967	0.32849872	-0.31855187	0.2564534	0.4683575	0.25316826	-0.20940946	-0.08720486	0.32338923	-0.45218658	0.18276735	-0.1303422	-0.33833167	0.58725584	0.15820108	-0.23971364	0.6540869	0.1090149	-0.114917696	0.3395368	0.01168181	-0.12602594	0.037319098	-0.10844374	0.4973837	-0.7303403	-0.73685646	0.81226176	0.44472414	0.16870189	-0.43691605	-0.2610678	0.15284236	0.21377763	0.6857362	0.140178	-0.7623772	-0.32497692	0.27538228	-0.15001503	-0.37380958	0.22516978	0.3182752	-0.30787504	0.94649184	-0.054390505	-0.25618112	0.8680641	0.29014316	0.6165862	-0.010556389	-0.29193825	0.50899404	0.7570983	0.02801466	0.6341955	1.075562	-0.5344502	0.23673648	0.44532853	0.13022423	0.05307827	0.15049164	0.024649382	0.017602842	-0.12962554	-0.89216447	0.1334415	0.5621029	-0.04496699	-0.4049216	0.1764032	0.05266244	0.35632685	-0.3357576	-0.5076025	0.43490154	0.03227473	0.31947696	0.6815684	0.2582912	0.3464545	-0.36048603	0.30875623	0.39015597	-0.08272221	0.8387464	1.0298551	0.18278128	-0.53432995	0.7924965	-0.46595293	-0.916765	0.16320884	0.17871834	-0.27723724	0.6275599	-0.5603957	-0.46732688	0.14837037	0.086569905	-0.46600264	-0.38678986	0.4019205	0.03807883	-0.26730892	0.48473787	0.11846031	-0.008566856	-0.3197083	-0.7684024	0.020522378	0.019171424	0.39009586	0.30551016	0.5429795	0.42884076	0.5502029	-0.23335604	0.83047736	0.20984502	-0.2686044	-0.78380704	-0.0904437	-0.21516068	-0.3069238	0.10655316	-0.67915475	0.2873651	0.30376166	0.45732826	-0.42136902	0.54913867	0.4558854	0.10148031	-0.25679606	-0.6596247	0.002572611	-0.28476483	-0.10608246	-0.4407389	0.11255628	0.12833926	0.15659459	0.7505766	0.32511833	0.14326777	0.12827691	0.3340224	0.5907685	-0.2701954	-0.0022727698	-0.5413182	0.2867719	-0.08377001	-0.47240525	0.7286352	0.24713594	0.44746786	0.39615187	-0.40633327	0.29045072	-1.0347295	0.17374605	0.32760075	0.29149747	-0.017728984	-0.3472708	0.6512771	0.40359977	0.4082595	0.6533236	0.24239099	-0.054067712	-0.3609859	0.71238893	-0.34156868	0.4183472	-0.084818915	0.5233851	0.16353782	1.0279536	-0.19137469	0.3692568	0.061730713	0.16601065	0.24260703	0.2679825	-0.29365045	-0.028639331	-0.5845105	0.7165262	0.35064894	0.12778832	-0.05896815	0.6746126	0.09196153	0.17275533	0.1561684	-0.20180275	-0.4133488	0.100087985	0.018458515	0.93918025	0.16941196	-0.127302	-0.17843717	-0.20068815	-0.28906512	0.92534494	-0.36065823	0.13298771	0.8933884	0.26416367	-0.08760911	0.2905569	0.4910676	-0.26724017	-0.4368284	-0.14707237	0.16560636	0.27890226	-0.4625286	-0.2567921	-0.16868034	0.17351776	-0.08873737	-0.099491745	0.4335891	0.4138887	0.73342335	-0.74508065	0.57355046	0.50339276	-0.72056085	0.55119455	0.035972606	-0.6678365	0.6409855	0.111250676	0.4431962	0.17866567	0.0018584989	-0.25731298	-0.14348903	-0.45933157	-0.17955218	-0.027347486	-0.33008897	-0.22921395	0.26934803	-0.06940949	0.095649734	-0.3417548	-0.7442215	-0.2430476	-0.053942233	0.340892	0.30525082	-0.453373	0.52102876	-0.3168037	-0.41219175	-0.11292486	0.44509146	0.09898155	-0.5925019	0.049144935	0.44238436	-0.004195947	0.28778982	-0.034172	-0.23663393	0.42743576	-0.4335168	0.12306045	-0.3598414	-0.19421233	0.3863237	-0.17131463	-0.56839275	0.04212132	0.38980687	-0.35740742	0.7312918	0.015339382	0.63061184	-0.5108322	0.059677295	0.5535907	-0.54766715	0.1580503	0.24164577	-0.044658393	0.3465365	0.35528654	-1.2179551	-0.013028663	0.10628749	0.08267453	-0.59565854	-0.44539523	0.45209974	-0.19495109	0.02586767	-0.0042230636	0.1059497	0.29152706	-0.9366333	-0.48986283	0.10811576	0.5943294	0.6186093	-0.016746849	-0.19647807	-0.10688031	-0.084626205	-0.10601865	0.013014108	0.23116508	-0.20631751	-0.67928267	0.016320184	0.2527814	-0.30578035	-0.37066093	0.36387232	0.76441544	-0.061105937	0.25224203	0.44283378	0.49423832	-0.8768968	-0.23163071	0.025497593	0.31837207	0.28233117	-0.52871275	-0.5213241	-0.115614176	-0.42686665	0.6783049	-0.36948693	-0.2798265	0.18671763	-0.02754058	-0.13904984	-0.014837787	0.24191654	-0.4210644	-0.021419112	-0.15988813	0.5643182	-0.43521276	0.690685	0.34050947	-0.41266957	0.67479384	0.114167735	0.2771108	-0.70125026	-0.22788726	-0.07930854	0.6212312	-0.22208577	0.19239886	0.18923087	-0.04469263	0.4224335	-0.3447581	0.05795431	-0.01639548	-0.3686571	-0.5078809	-0.8020421	-0.19326249	-0.4284699	-0.1433678	-0.19551262	-0.30400637	0.21798733	0.16320762	-0.67884505	-0.05249818	-0.07393087	0.5769602	0.029579695	0.39407942	-0.62139827	0.11844909	0.34896266	-0.24823812	0.29622227	0.52241486	-0.48134467	-0.777696	-0.11203974	-0.3379927	0.10571945	-0.16918218	-0.4022897	0.03435096	0.024841476	0.41906214	0.039411828	0.063364655	-0.6002532	-0.9304286	-0.35289598	0.0040563084	-0.8638022	0.48979834	0.8795999	0.71221113	0.07651013	-0.3490665	0.3874897	0.19204587	0.0055622607	0.22429359	0.7001623	-0.051357396	0.5890805	0.3826254	0.35765094	-0.41595104	-0.88983196	0.92658997	-0.7657499	-0.31090164	0.09200157	0.057318002	0.16896816	-0.0022430345	-0.37999973	-0.16720456	0.37736046	0.21374954	0.5071191	0.47267017	-0.3920939	-0.9508915	0.2500775	0.024787083	-0.6610473	0.341083	0.46653017	0.32252374	0.70324004	-0.34130055	0.24219391	0.30306822	0.023801006	-0.07846204	0.1681819	0.27312958	-0.21345258	0.14725648	0.13490696	0.1418153	-0.45154506	-0.04525596	0.0021244735	-0.17056176	0.008046523	-0.06726731	-0.4406664	0.87036943	-0.28112555	0.5141684	0.16968897	0.67698604	-0.67991704	0.45688635	0.44542682	-0.33476645	-0.3951091	-0.038317233	0.29189444	-0.3772092	0.3153449	-0.26283973	-0.35052717	0.182164	0.40812516	-0.508632	-0.07353875	-0.53484416	-0.18355712	-0.33896142	0.17041738	-0.6683426	0.96668655	-0.5667939	-0.4993012	-0.4091412	-0.6174086	-0.67660713	0.5627824	-0.0021315664	0.47626626	0.48565906	0.11340091	0.28808504	0.17507294	0.20509803	0.21621805	0.03818948	-0.5606436	-0.096241385	-0.36570945	-0.33926755	0.2506368	0.073417395	0.32385015	0.0040348917	-0.23606604	-0.24209319	-0.21909276	0.4626294	-0.332318	0.09173697	-0.13426262	-0.26984772	0.045937344	0.3085217	-0.19695398	0.44334292	-0.29664254	0.2164931	-0.072283	-0.1594882	-0.61204815	-0.008430721	0.38802034	0.09421474	0.15153706	0.4177215	0.10944174	-0.3754958	-0.10713236	0.2705659	-0.6129789	-0.035805747	-0.5376429	-0.30099994	0.41781282	-0.7794914	0.40572125	-0.37884808	0.04956796	0.41272935	-0.25357777	-0.035493027	-0.29152042	-0.07328161	-0.24628595	-0.030055635	0.21075705	0.20586121	-0.30453455	0.30087352	-0.22306624	0.14733395	-0.053539313	-0.46384168	-0.03256771	-0.06581675	-0.58434945	0.35093048	0.626297	-0.7943551	-0.60732454	-0.25810248	0.36387593	0.10845876	-0.5122825	0.22315557	-0.06794402	0.2153262	0.032770723	0.2105111	-0.34357798	-0.066045195	-0.9179593	0.95008814	-0.02395489	0.2708811	-0.28373456	1.103728	0.4044857	-0.8664714	-0.17542818	-0.0969449	0.40034664	0.011044607	0.026501209	0.0009117499	0.43975538	0.35441038	0.39740884	-0.84515345	-0.26620585	0.307201	1.0984178	0.01771611	-0.2466787	0.5514877	-0.36714214	0.510284	0.5672077	0.6894141	-0.5672568	0.39174876	-0.4936905	0.54490167	5.7205558e-05	0.17663431	0.5314131	0.049494296	-0.48909208	-0.42454663	-0.030541353	0.37591022	-0.2838459	-0.113674685	-0.33878595	0.25592536	-0.7034412	0.14060451	0.07158001	0.99654186	0.24467258	-0.7531001	0.2688073	0.092412695	0.42769888	0.097490996	-0.3025905	-0.16949011	0.57090026	-0.2422263	0.45844728	0.117588386	-0.043523073	0.40369803	-0.5155066	-0.36700642	-0.57803005	0.27886173	0.20675528	0.5442194	-0.3797305	0.30857974	-0.67231554	0.20152235	-0.17366637	0.19758612	0.40253472	0.18212165	-0.05843407	0.31969374	0.5712547	-0.94737566	0.54435146	0.8563445	-0.10329465	-0.18976554	-0.5804434	0.36489213	-0.3083771	0.928999	0.33249825	-0.12616977	-0.210333	-0.45967853	0.08552162	-0.48636386	0.07888064	-0.29374152	0.5400302	-0.7692445	0.23867773	0.7422977	-0.3256084	0.04628104	-0.1871364	0.2713632	0.21239373	0.25935045	0.070652336	0.077362604	-0.81717724	0.039572194	-0.5746859	-0.05080177	-0.54041135	0.16897105	-0.14012645	-0.24140008	-0.19382267	0.9417191	-0.0010192916	0.20942785	-0.2676979	-0.024405263	0.5297475	0.28276855	-0.13890967	0.50332946	-0.3064595	-0.084009826	0.024485685	-0.5699677	-0.044205338	-0.13037562	0.25531867	-0.60541797	-0.04280457	0.17144608	-0.25699303	0.5334698	0.65562034	-0.3896247	-0.20595044	0.589902	-0.22721739	0.22014993	0.474496	0.11259703	-1.1829258	-0.6650902	-0.10565841	-0.04668767	-0.40519258	-0.43623626	0.19527425	-0.35742196	-0.32685623	0.015923008	0.32828763	-0.10408482	-0.30532742	-0.11497009	-0.2926741	0.19896637	0.49848744	-0.33891982	-0.28036076	0.29708752	-0.21010365	-0.7197489	-0.11415556	0.17247508	0.00914745	-0.984402	0.22298077	-0.07435185	-0.34824115	0.26118743	-0.64062625	-0.64668685	0.23028487	0.8674264	0.49189246	0.14180629	-0.621495	0.47546023	0.36864713	-0.7065545	0.20581093	0.037465423	-0.6461244	0.2844633	-0.014439613	-0.5510313	-0.7563805	-0.2422238	0.19240303	0.53468823	-0.0027169585	0.3297953	0.8201581	-0.31012446	-0.36298528	-0.60490483	-0.14167775	-0.22640707	0.9601803	-0.31904837	-0.813785	0.3811944	0.27397382	-0.20678613	0.13891247	-0.32624844	0.28322762	-0.21174604	-0.49689984	-0.047563106	0.19651099	-0.56226254	-0.33011273	0.2969009	0.4688155	-0.44952846	-0.41821355	0.505583	-1.2624407	-0.06869228	-0.2097388	0.005490944	-0.26737684	0.34117025	-0.47816688	0.27572787	0.30320224	-0.30981696	-0.08117271	0.44050312	-0.211768	-0.71332425	0.07903604	-0.19539809	-0.35603768	-0.29991275	0.53984284	0.8808804	-0.42262545	-0.42647707	-0.048774883	0.017041579	0.21111691	-0.37430954	0.40619758	-0.41431206	0.6119369	0.4359756	0.14012434	-0.95835745	0.40397152	-0.37069133	0.23345439	-0.116511494	0.5038684	0.109981835	-0.14673468	0.17343357	0.11121121	-0.12846094	-0.18867198	-0.030712852	-0.7131824	-0.61702675	0.488725	0.47536263	0.35026124	0.29127514	0.40516993	0.24797454	0.3332197	0.19463286	-0.16427037	-0.16395697	0.61486375	0.22477068	0.19061723	-0.25210658	0.37104505	-0.19476502	-0.11825882	0.89480567	0.06715663	-0.015578866	-0.28945792	0.07788497	-0.43382037	0.4121194	-0.43051612	0.12774289	0.21754453	-0.008903127	0.078113675	-0.050323628	0.24933769	-0.16700596	-0.10096952	-0.5395798	0.23721153	0.14999683	0.10129695	0.81183606	0.3233806	-0.15242201	-0.24578539	0.39468336	0.008115016	-0.7265103	0.3528598	0.31548187	0.1696833	-0.2348012	0.5401509	-0.07295568	-0.5200203	0.62258744	-0.13923869	0.7678505	0.13045633	-0.31706488	0.89294493	-0.20660844	0.07855881
G900111145	0.1520462	0.86469257	-0.9278853	-0.24280345	-0.20806704	0.40606523	0.20914868	-1.0184422	-0.51057476	0.18713021	0.411721	0.5882697	0.8078186	0.13871159	0.22590877	-0.09470262	-0.22329253	0.36086237	-0.5022353	-0.5639664	0.5640808	-0.4526682	-0.28244787	0.33550754	0.2383374	0.36938697	-0.045236804	0.5745157	0.7970059	0.36437887	-0.594248	0.17583904	-0.39279336	-0.5782917	0.44178435	0.036906764	0.30840442	0.44584858	-1.1441622	-0.11194144	-0.2710994	-0.2555597	0.20886531	0.36882895	-0.53212297	-0.18299979	0.13546959	0.0152308345	0.7305915	0.5251531	0.6753668	0.30886304	-0.27680603	0.21755669	0.21049762	0.70839167	0.10243279	0.24169186	-0.44441313	-0.22800542	0.16231099	-0.43022692	0.027111582	-0.59830904	0.15623331	-0.38095504	-0.8362601	-0.20146485	0.33009356	-0.7157311	0.38957816	0.9384085	0.28643382	0.665442	0.18922809	0.70069605	-0.66502285	0.21296807	-0.15253761	-0.0058938153	-0.34539488	0.26641423	-0.21339282	-0.40936103	-0.09277855	0.2840015	-0.2152924	-0.49245214	0.06396257	-0.0126004815	-0.002350837	-0.25100482	-0.28263682	-0.056068372	-0.31976932	-0.08505501	0.43509215	-0.6118966	1.2641022	0.670035	-0.24318443	-0.343315	0.22108975	0.05956	0.040592074	0.48468238	0.16262266	-0.04770475	1.1401926	-0.21556133	0.35973778	-0.49316186	0.31257686	0.016235083	0.3984738	0.30102608	0.42703667	-0.0046676695	-0.23702982	-0.083474725	-0.37467194	0.49440593	0.093812406	-0.21119753	0.9326044	0.18725944	-0.23532027	0.76492983	0.10741398	-0.047470167	0.416124	0.19465718	-0.29998022	0.08736515	0.27879286	0.42386156	-0.910348	-0.81200856	0.74716103	0.15467073	0.13099799	-0.28877068	-0.27437004	0.12509026	0.23360798	0.3971506	0.21316755	-0.4975712	-0.2539263	0.15078667	-0.09194529	-0.48762447	0.17423284	0.21688554	-0.1350773	0.935836	-0.38747036	0.12426034	0.6177951	0.3998261	0.30491054	0.16653614	-0.07604341	0.32061523	0.76884973	-0.035463944	0.703725	0.97189456	-0.46231404	0.12260457	0.20035109	0.3078934	-0.09705864	0.034126192	-0.1266008	0.21089692	-0.018195152	-0.757824	0.28267124	0.11255407	-0.14427486	-0.24801305	0.56577	-0.22099821	0.122482285	-0.55309415	-0.48294872	0.5191386	0.14831594	0.43772644	0.4618765	0.10311808	0.32519552	-0.30985564	0.14731595	0.10170859	-0.07524122	0.58971626	0.83656836	0.39891952	-0.7479813	0.87444884	-0.34549218	-0.81313944	0.18365994	0.23952934	-0.22109482	0.53444564	-0.5055473	-0.29399723	-0.033157483	0.2740538	-0.4430981	-0.3396441	0.37981817	0.07275334	-0.15265988	0.5298675	0.3633939	-0.3571887	-0.47262305	-0.52104783	-0.18630369	0.14250234	0.42714036	0.22244214	0.43999094	0.49475214	0.59380937	0.03198637	1.1370246	0.30713144	-0.39963022	-0.7209679	-0.2971928	-0.09940197	-0.3849457	-0.056784436	-0.5280329	-0.12002894	0.84808254	0.6272323	-0.5736629	0.59778094	0.6538298	0.18194419	-0.42710721	-0.7161778	0.31553596	-0.07005316	-0.25704068	-0.48035073	0.25177988	0.05533974	0.053649392	0.69577324	0.084108464	0.1451083	0.32466918	0.62030214	0.12675527	-0.23920758	0.3488226	-0.40446872	0.6251935	-0.14088105	-0.58081615	0.52277285	0.09371765	0.3929482	0.5109224	-0.4243192	0.043530703	-0.63618577	0.03405994	0.17970598	0.28543714	-0.0896142	-0.1935767	0.76157075	0.5003059	-0.027415462	0.5480641	0.10767634	-0.19033965	-0.2886769	0.479043	-0.5195442	0.18424566	0.008582026	0.48353013	0.15736234	0.972823	-0.38960138	0.53186476	0.050110564	0.5067567	0.24146959	0.4201905	-0.46499097	-0.04750055	-0.193014	0.58861816	0.45015606	0.18244076	0.04414612	0.94844836	0.16979459	0.2855099	0.026361547	-0.035238847	-0.5804777	0.06131199	-0.01657091	1.1144965	0.08884491	-0.12854068	-0.4512713	-0.14185625	-0.13620102	0.7900935	-0.16166514	0.0016833767	0.78559697	0.34519976	0.045008615	0.22485572	0.33609417	-0.30898964	-0.7378682	-0.44896346	-0.14541736	0.26622486	-0.25796086	-0.41883683	-0.2438642	0.08233982	-0.20272031	-0.07904962	0.3857491	0.067241	0.7483541	-0.79524237	0.707088	0.70098853	-0.9982198	0.62652445	0.31606227	-0.42231768	0.6452169	0.34049547	0.36434412	-0.18125218	-0.22829375	-0.1560222	-0.33881444	-0.45074755	-0.039889798	-0.15440762	0.0041571036	-0.20140281	-0.016887076	-0.052116245	0.12612803	-0.37228137	-1.0044165	-0.37272483	0.06589328	0.4487414	0.4306771	-0.6697204	0.67670774	-0.0702368	-0.36882466	-0.11926709	0.38011467	0.21043168	-0.2900449	-0.25302815	0.2889125	0.0042763725	0.089835	0.030455217	-0.42027324	0.27616894	-0.028339326	0.45736945	-0.15205498	-0.06625223	0.6177519	-0.36088812	-0.468736	-0.036508054	0.24866307	-0.31295457	0.63866776	-0.15361945	0.43433505	-0.5637269	-0.02129624	0.74226063	-0.793976	0.316648	0.065583825	0.2684228	0.24091381	0.35497463	-0.88471824	0.31187505	-0.024510406	0.1519661	-0.69761777	-0.37290964	0.4222709	-0.36027414	0.023085535	0.07569949	0.28405824	0.119341746	-0.89557755	-0.42496008	-0.31150407	0.9858024	0.5692619	-0.020935237	0.034885585	-0.018807352	-0.20442505	-0.041987747	-0.31401843	0.10476065	-0.33683756	-0.6768371	0.34897447	0.28544644	-0.5340034	-0.30663514	0.29502138	0.5317937	-0.07445535	0.18305969	0.3610527	0.5690397	-0.4142077	-0.10698022	0.29176402	0.39061114	0.14389868	-0.3614666	-0.33014584	-0.11936323	-0.35978875	0.5013933	-0.23181617	-0.44662315	-0.1172851	0.081220135	-0.16240329	0.07218905	0.45019472	-0.397777	0.039281353	-0.32924864	0.98890346	-0.14948323	0.9158317	0.38010722	-0.5914906	0.19614899	0.39156324	0.087490946	-0.52469605	-0.44718856	-0.1591663	0.5861589	0.04961949	0.41782022	0.13838539	0.05987207	0.94146216	-0.5534172	0.048511043	-0.082692616	0.18348537	-0.5078421	-0.74865496	-0.274978	-0.39351687	-0.17238618	-0.034592062	-0.41851214	-0.006868258	0.046536446	-0.37455702	0.046058044	-0.07228486	0.72303414	-0.035544507	0.47583157	-0.5517531	0.49933827	0.3057594	-0.63434654	0.0039738864	0.25340116	-0.3227752	-0.8737297	0.10743788	-0.22787455	0.12916192	-0.2563731	-0.6061979	0.47692704	-0.029908352	0.10318485	0.31920686	-0.06656134	-0.35389295	-0.930878	-0.49866024	0.13524441	-0.87727934	0.454949	1.0534801	0.75265414	-0.1512365	-0.5343965	0.45310646	0.1338252	0.17084453	0.010611564	0.3706885	-0.109360725	0.40745938	0.649506	0.5297331	-0.8710495	-1.2130393	0.6912673	-0.6814493	-0.273843	0.08515462	0.4176122	0.66370666	0.24587286	-0.35953614	-0.30202222	0.13247131	0.21745062	0.43080056	0.1940426	-0.41803187	-0.8173909	0.25238878	-0.045327418	-0.48548108	0.41760135	0.8542067	0.007250756	0.32643384	-0.2072877	0.32759762	0.046541974	-0.030761853	-0.1750565	0.020933136	0.32772347	-0.2155266	0.12239681	0.17612614	0.18379885	-0.42336825	-0.026448593	0.3323714	-0.20626411	0.08556178	0.06185992	-0.64581305	0.5447827	-0.3729926	0.62990695	0.2347312	0.79484934	-0.41697183	0.31151557	-0.03232056	-0.481176	-0.20765439	0.17163186	0.40681872	-0.26993695	0.2878459	-0.33876446	-0.16411977	0.21759824	0.61405647	-0.45066494	-0.33650655	-0.9523652	-0.030960023	-0.43401846	0.12336174	-0.5537393	0.86326426	-0.7376751	-0.5052738	-0.76615655	-0.5630313	-0.6180919	0.35021472	-0.04578121	0.67017865	0.65077966	-0.17888679	0.3552364	0.5500246	0.099928245	-0.025205709	0.31492624	-0.865267	0.16560417	-0.10850003	-0.30168048	0.13485323	-0.28190362	0.20762008	0.012138344	-0.30386505	-0.24383646	-0.18379906	0.3187412	-0.2602474	0.10199847	0.2453122	-0.27971128	-0.22648919	0.62766194	-0.02744396	0.65836626	-0.03359294	0.3995365	0.29488525	-0.31974834	-0.7623564	-0.19911386	0.5079255	0.06739857	0.043257892	0.8122208	0.21235454	-0.17670327	0.17572775	0.63595504	-0.85785675	-0.26634848	-0.74231493	-0.26585048	0.6188431	-0.67547894	0.2115397	-0.5076145	0.19752988	0.62464064	-0.15658696	-0.02238188	-0.36734903	-0.032294545	-0.6074953	-0.10996108	0.4343462	-0.15167633	-0.54060066	0.30806947	-0.36021727	0.3808877	-0.18539502	-0.6486255	0.25162798	0.5956992	-0.57288074	0.19050777	0.21262261	-0.71827453	-0.44937152	-0.27786428	0.24466783	-0.22223401	-0.7770026	-0.030747592	0.17697644	0.2851871	-0.28586417	0.36869162	-0.35594612	0.09320174	-0.94695854	0.9585411	0.07595588	0.07994196	-0.284339	1.4069817	0.2043239	-0.6095234	-0.17640632	-0.4051469	0.07300873	0.029581308	-0.22077125	-0.054010183	0.24138117	0.22509602	0.29713336	-1.0545077	-0.20371586	-0.02413851	0.8333654	0.24717224	-0.2109105	0.5668387	-0.37431386	0.70629746	0.6327526	0.5433609	-0.61944216	0.26730067	-0.30789068	0.41384083	0.09524408	0.13681683	0.65663785	0.029180273	-0.6698708	0.1584146	0.08405979	0.24700974	-0.34105596	-0.31261584	-0.29699743	0.35445422	-0.7799525	0.25665593	0.28386715	0.9511926	0.3832334	-0.5973478	0.43610364	0.30301487	0.5124611	0.42983034	-0.13423446	-0.35005185	0.5948138	-0.2028059	0.5843829	0.098677695	0.06801637	0.39337337	-0.5946209	-0.7532656	-0.6395953	0.1560368	0.28975937	0.3250869	-0.48502907	0.70506537	-0.98866767	0.27718616	-0.08225292	0.46864414	0.6116306	0.23538858	0.013422817	0.090793855	0.5188711	-0.58185345	0.44701803	0.9042212	-0.17702313	-0.3329646	-0.45806548	0.6396479	-0.14825894	1.0818062	0.18913546	-0.04501009	-0.3727193	-0.3486368	0.090563305	-0.53315926	-0.33508554	-0.06982112	0.54619956	-0.57201743	0.19657162	0.50968456	-0.29579479	-0.14893478	-0.025594175	0.43172035	0.0385855	0.010225706	0.03625962	-0.13689284	-0.69681704	0.1020563	-0.48804486	0.1499226	-0.3676325	0.48397315	-0.27387568	-0.06538214	-0.24690384	0.86462915	-0.18888792	0.01832521	-0.44427383	-0.14356112	0.97173357	0.3508574	-0.36534518	0.5725479	-0.11663699	-0.41159093	0.026077032	-0.3718068	-0.041959435	-0.41536176	0.3535477	-0.92664677	-0.31832594	0.1496847	-0.5561501	0.6567746	0.5562753	-0.4359435	-0.014621511	0.43195593	-0.10271934	0.21809566	0.61023414	0.09176852	-0.9885511	-0.32385477	0.092265844	-0.21666397	-0.36150157	-0.44973624	0.18495418	-0.07241628	-0.3097787	0.115988255	0.021766186	0.15762335	0.0146814585	-0.30790937	-0.36257085	0.116522074	0.4358468	-0.10917122	-0.23889166	0.33588105	-0.33087927	-0.6718633	0.11959946	-0.28787535	-0.26677	-0.9564989	-0.023564547	0.10435985	-0.096917786	0.29101926	-0.8991583	-0.6740903	-0.038509965	0.4270039	0.32985374	0.30313617	-0.5677926	0.2623061	0.39289165	-0.27372557	0.25420216	-0.0030836463	-0.7415292	-0.057592914	-0.014943868	-0.62836695	-0.5474752	-0.035658643	-0.010157742	0.3525721	0.27157032	0.15188786	0.43955815	-0.2383912	-0.31651777	-0.53553164	-0.38176364	0.074181035	0.9718023	-0.27912974	-0.8268466	0.42525452	0.73359215	0.079380095	-0.16023578	-0.12382172	0.08320309	-0.120074734	-0.58028704	0.069613814	-0.02787815	-0.396551	-0.009484902	0.21897517	0.37158826	-0.64115345	-0.49910885	0.66867644	-0.80264753	-0.26125845	0.27661145	-0.06669534	-0.04742843	0.4731959	-0.37919	0.3268556	-0.007590212	-0.4228348	0.0676492	0.60126984	-0.49390075	-0.60537827	0.18051699	-0.52165186	-0.5231837	-0.21378261	0.46033806	0.7532291	-0.11861992	-0.59595764	0.32030553	-0.26764268	0.0047506634	-0.5438746	0.126144	-0.46755254	0.67533803	0.67746705	0.34011015	-0.592938	0.118539244	-0.5800804	0.001571551	-0.15312316	0.3442332	0.36988273	-0.14933346	0.09304013	-0.17122349	0.28713658	-0.09628567	-0.053741254	-0.8204305	-0.7025964	0.69585085	0.2707041	0.38504952	0.31551492	0.3660106	0.3425747	0.3205321	-0.043542385	-0.12860411	-0.31666756	0.63680875	0.030940026	0.21765202	-0.5561996	-0.03391671	0.22863351	-0.117124185	0.9502682	0.4294015	0.029847741	-0.4124506	0.084843695	-0.46058065	0.038366348	-0.47965854	-0.015051041	0.19004372	-0.15894791	0.083170295	0.16526638	0.45179063	-0.30232722	0.19097245	-0.23536855	0.28513068	0.2254507	0.24903841	0.82715404	0.26773828	-0.04897692	0.11405396	0.47393912	-0.19142117	-0.8280578	0.31613302	0.058071047	0.18005773	-0.11089708	0.68694293	0.21618435	-0.5436552	0.5345977	0.009744953	0.57943934	0.043585934	-0.6021589	0.9753353	-0.11529009	0.23656374
